{"learner":{"attributes":{"scikit_learn":"{\"_estimator_type\": \"regressor\"}"},"feature_names":[],"feature_types":[],"gradient_booster":{"model":{"gbtree_model_param":{"num_parallel_tree":"1","num_trees":"20"},"iteration_indptr":[0,1,2,3,4,5,6,7,8,9,10,11,12,13,14,15,16,17,18,19,20],"tree_info":[0,0,0,0,0,0,0,0,0,0,0,0,0,0,0,0,0,0,0,0],"trees":[{"base_weights":[-1.0714758E-7,2.6341383E1,-6.0547006E-1,1.0319372E1,1.6669237E2,-9.6740806E-1,2.8837358E1,4.2962675E0,6.0326504E1,1.714861E2,-1.6317673E-1,-1.7926724E0,3.43648E0,1.1020866E1,3.6233437E1,2.8907785E-1,5.962174E0,2.2241291E1,1.8519408E0,5.2592632E1,2.1682432E1,-6.160483E-1,2.094914E0,8.449445E0,6.1397654E-1,5.362245E0,1.7108089E0,8.209624E0,1.3977484E1],"categories":[],"categories_nodes":[],"categories_segments":[],"categories_sizes":[],"default_left":[0,0,0,0,0,0,0,0,0,0,0,0,0,0,0,0,0,0,0,0,0,0,0,0,0,0,0,0,0],"id":0,"left_children":[1,3,5,7,9,11,13,15,17,19,-1,21,23,25,27,-1,-1,-1,-1,-1,-1,-1,-1,-1,-1,-1,-1,-1,-1],"loss_changes":[2.498557E5,7.8982406E5,1.6322123E5,9.522066E4,2.8953812E4,5.4990562E4,2.4110312E4,1.4724771E4,2.4971578E4,6.034375E2,0E0,2.9179504E4,8.201723E4,1.9390972E3,1.07581875E4,0E0,0E0,0E0,0E0,0E0,0E0,0E0,0E0,0E0,0E0,0E0,0E0,0E0,0E0],"parents":[2147483647,0,0,1,1,2,2,3,3,4,4,5,5,6,6,7,7,8,8,9,9,11,11,12,12,13,13,14,14],"right_children":[2,4,6,8,10,12,14,16,18,20,-1,22,24,26,28,-1,-1,-1,-1,-1,-1,-1,-1,-1,-1,-1,-1,-1,-1],"split_conditions":[-3.1546373E0,9.913116E-1,3.8493392E0,5.612349E-1,7.0469774E-2,6.246788E-1,1.271291E-1,1E0,8.417223E-2,9.934878E-1,-1.6317673E-1,1.7345436E0,3.5234886E-1,1.9672811E0,8.020779E0,2.8907785E-1,5.962174E0,2.2241291E1,1.8519408E0,5.2592632E1,2.1682432E1,-6.160483E-1,2.094914E0,8.449445E0,6.1397654E-1,5.362245E0,1.7108089E0,8.209624E0,1.3977484E1],"split_indices":[55,1,1,1,0,1,39,67,0,5,0,18,0,0,1,0,0,0,0,0,0,0,0,0,0,0,0,0,0],"split_type":[0,0,0,0,0,0,0,0,0,0,0,0,0,0,0,0,0,0,0,0,0,0,0,0,0,0,0,0,0],"sum_hessian":[1.5664E4,3.51E2,1.5313E4,3.16E2,3.5E1,1.5128E4,1.85E2,2.83E2,3.3E1,3.4E1,1E0,1.2741E4,2.387E3,5.5E1,1.3E2,2.34E2,4.9E1,2.6E1,7E0,3.2E1,2E0,1.2374E4,3.67E2,1.26E2,2.261E3,2.3E1,3.2E1,7.2E1,5.8E1],"tree_param":{"num_deleted":"0","num_feature":"78","num_nodes":"29","size_leaf_vector":"1"}},{"base_weights":[9.208923E-3,1.100191E1,-7.6761323E-1,5.693792E1,6.347737E0,-1.1170382E0,8.929924E0,1.4326156E1,1.177567E2,4.520894E0,2.8643589E1,-1.3778338E0,6.478999E0,3.6597828E1,6.8097243E0,1.2499164E0,1.2030049E1,2.6525145E1,4.3196075E1,5.230227E0,8.577213E-1,6.133734E0,1.0145153E1,-4.6423522E-1,3.8791034E-1,6.813029E-1,6.1570697E0,1.8079323E1,7.943086E0,2.9517171E0,3.8531008E-1],"categories":[],"categories_nodes":[],"categories_segments":[],"categories_sizes":[],"default_left":[0,0,0,0,0,0,0,0,0,0,0,0,0,0,0,0,0,0,0,0,0,0,0,0,0,0,0,0,0,0,0],"id":1,"left_children":[1,3,5,7,9,11,13,15,17,19,21,23,25,27,29,-1,-1,-1,-1,-1,-1,-1,-1,-1,-1,-1,-1,-1,-1,-1,-1],"loss_changes":[1.3377773E5,2.2070172E5,4.959141E4,2.445146E5,3.815766E4,2.7988754E4,2.9609465E4,1.4758827E4,1.7282812E4,1.861987E4,2.3198438E3,6.188502E3,2.7670996E4,7.027332E3,7.921244E3,0E0,0E0,0E0,0E0,0E0,0E0,0E0,0E0,0E0,0E0,0E0,0E0,0E0,0E0,0E0,0E0],"parents":[2147483647,0,0,1,1,2,2,3,3,4,4,5,5,6,6,7,7,8,8,9,9,10,10,11,11,12,12,13,13,14,14],"right_children":[2,4,6,8,10,12,14,16,18,20,22,24,26,28,30,-1,-1,-1,-1,-1,-1,-1,-1,-1,-1,-1,-1,-1,-1,-1,-1],"split_conditions":[-1.9412998E0,5.872481E-2,1.8423145E0,6.8629265E-1,5.0090213E0,1.7345436E0,7.790825E-1,1.7752104E-1,1.2655237E0,8.6129725E-2,8.020779E0,9.544043E-1,1E0,2.6426166E-1,1.9672811E0,1.2499164E0,1.2030049E1,2.6525145E1,4.3196075E1,5.230227E0,8.577213E-1,6.133734E0,1.0145153E1,-4.6423522E-1,3.8791034E-1,6.813029E-1,6.1570697E0,1.8079323E1,7.943086E0,2.9517171E0,3.8531008E-1],"split_indices":[52,0,1,1,1,18,0,1,1,0,1,1,67,0,0,0,0,0,0,0,0,0,0,0,0,0,0,0,0,0,0],"split_type":[0,0,0,0,0,0,0,0,0,0,0,0,0,0,0,0,0,0,0,0,0,0,0,0,0,0,0,0,0,0,0],"sum_hessian":[1.5664E4,1.033E3,1.4631E4,9.4E1,9.39E2,1.4123E4,5.08E2,5.6E1,3.8E1,8.69E2,7E1,1.3655E4,4.68E2,3.5E1,4.73E2,4.1E1,1.5E1,2E1,1.8E1,9.8E1,7.71E2,2.9E1,4.1E1,1.284E4,8.15E2,3.61E2,1.07E2,9E0,2.6E1,3.05E2,1.68E2],"tree_param":{"num_deleted":"0","num_feature":"78","num_nodes":"31","size_leaf_vector":"1"}},{"base_weights":[1.547851E-2,-6.4147705E-1,6.987767E0,2.9726562E0,-1.0449307E0,9.435018E1,4.9292207E0,3.8466373E-1,1.1139428E1,-1.1999407E0,1.5329314E0,2.5292912E1,3.890963E1,2.8006868E0,1.4155892E1,-3.6112252E-1,8.3155316E-1,6.429189E-1,1.0570364E1,-4.2714062E-1,-9.526997E-2,-1.632418E-1,1.0851551E0,6.28128E0,6.069561E-1,5.2441435E0,1.3129568E0],"categories":[],"categories_nodes":[],"categories_segments":[],"categories_sizes":[],"default_left":[0,0,0,0,0,0,0,0,0,0,0,0,0,0,0,0,0,0,0,0,0,0,0,0,0,0,0],"id":2,"left_children":[1,3,5,7,9,11,13,15,17,19,21,-1,-1,23,25,-1,-1,-1,-1,-1,-1,-1,-1,-1,-1,-1,-1],"loss_changes":[7.1757766E4,2.0879227E4,2.4213852E5,3.0388625E4,5.148618E3,6.75625E1,2.586457E4,4.1477847E3,7.492639E4,2.3995312E3,3.166569E3,0E0,0E0,1.508849E4,7.954047E3,0E0,0E0,0E0,0E0,0E0,0E0,0E0,0E0,0E0,0E0,0E0,0E0],"parents":[2147483647,0,0,1,1,2,2,3,3,4,4,5,5,6,6,7,7,8,8,9,9,10,10,13,13,14,14],"right_children":[2,4,6,8,10,12,14,16,18,20,22,-1,-1,24,26,-1,-1,-1,-1,-1,-1,-1,-1,-1,-1,-1,-1],"split_conditions":[1.1297902E0,1.7582219E0,8.417223E-2,1E0,1.7589375E0,1.6684537E0,3.2444866E0,2.653665E-1,3.0471393E-1,3.7242815E-1,1.6562529E-1,2.5292912E1,3.890963E1,5.246083E-1,1.7950218E0,-3.6112252E-1,8.3155316E-1,6.429189E-1,1.0570364E1,-4.2714062E-1,-9.526997E-2,-1.632418E-1,1.0851551E0,6.28128E0,6.069561E-1,5.2441435E0,1.3129568E0],"split_indices":[1,6,0,67,51,1,1,1,1,1,1,0,0,0,0,0,0,0,0,0,0,0,0,0,0,0,0],"split_type":[0,0,0,0,0,0,0,0,0,0,0,0,0,0,0,0,0,0,0,0,0,0,0,0,0,0,0],"sum_hessian":[1.5664E4,1.4316E4,1.348E3,1.437E3,1.2879E4,3E1,1.318E3,1.092E3,3.45E2,1.2149E4,7.3E2,2.6E1,4E0,1.072E3,2.46E2,6.56E2,4.36E2,2.52E2,9.3E1,9.69E3,2.459E3,3.66E2,3.64E2,4.3E1,1.029E3,1.83E2,6.3E1],"tree_param":{"num_deleted":"0","num_feature":"78","num_nodes":"27","size_leaf_vector":"1"}},{"base_weights":[1.6563145E-2,-4.399992E-1,5.1088676E0,2.1752634E0,-7.3194283E-1,6.089969E1,3.319474E0,8.590082E0,2.822073E-1,-3.236501E-1,-1.3964934E0,7.64232E1,4.155502E1,2.4631476E0,1.9149786E1,4.8521277E-1,8.9755945E0,-3.2402587E-1,9.544613E-1,2.667348E-1,-2.1455197E-1,-3.8223353E-1,-6.38016E-1,2.6110573E1,1.5780971E1,1.336608E1,5.526686E0,1.8182786E0,-1.3749595E-1,1.0425739E1,4.987193E0],"categories":[],"categories_nodes":[],"categories_segments":[],"categories_sizes":[],"default_left":[0,0,0,0,0,0,0,0,0,0,0,0,0,0,0,0,0,0,0,0,0,0,0,0,0,0,0,0,0,0,0],"id":3,"left_children":[1,3,5,7,9,11,13,15,17,19,21,23,25,27,29,-1,-1,-1,-1,-1,-1,-1,-1,-1,-1,-1,-1,-1,-1,-1,-1],"loss_changes":[3.6422656E4,1.0978566E4,1.2848095E5,1.7532951E4,3.5089453E3,8.836109E3,1.6897725E4,4.8879773E4,4.4113447E3,3.8054158E3,4.3715234E2,7.300078E2,5.6653125E2,1.2479096E4,1.9444785E3,0E0,0E0,0E0,0E0,0E0,0E0,0E0,0E0,0E0,0E0,0E0,0E0,0E0,0E0,0E0,0E0],"parents":[2147483647,0,0,1,1,2,2,3,3,4,4,5,5,6,6,7,7,8,8,9,9,10,10,11,11,12,12,13,13,14,14],"right_children":[2,4,6,8,10,12,14,16,18,20,22,24,26,28,30,-1,-1,-1,-1,-1,-1,-1,-1,-1,-1,-1,-1,-1,-1,-1,-1],"split_conditions":[1.173713E0,1.7582219E0,2.6426166E-1,8.8087216E-2,1E0,6.852458E-1,8.020779E0,3.3552086E-1,1E0,1E0,2.033836E0,5.4809824E-2,1E0,1.403523E0,1.2762859E0,4.8521277E-1,8.9755945E0,-3.2402587E-1,9.544613E-1,2.667348E-1,-2.1455197E-1,-3.8223353E-1,-6.38016E-1,2.6110573E1,1.5780971E1,1.336608E1,5.526686E0,1.8182786E0,-1.3749595E-1,1.0425739E1,4.987193E0],"split_indices":[1,6,0,0,64,3,1,1,66,65,0,0,74,0,0,0,0,0,0,0,0,0,0,0,0,0,0,0,0,0,0],"split_type":[0,0,0,0,0,0,0,0,0,0,0,0,0,0,0,0,0,0,0,0,0,0,0,0,0,0,0,0,0,0,0],"sum_hessian":[1.5664E4,1.4376E4,1.288E3,1.443E3,1.2933E4,3.9E1,1.249E3,3.28E2,1.115E3,8.012E3,4.921E3,2E1,1.9E1,1.186E3,6.3E1,2.48E2,8E1,7.59E2,3.56E2,1.955E3,6.057E3,4.217E3,7.04E2,1.2E1,8E0,1.6E1,3E0,5.31E2,6.55E2,7E0,5.6E1],"tree_param":{"num_deleted":"0","num_feature":"78","num_nodes":"31","size_leaf_vector":"1"}},{"base_weights":[1.714809E-2,-1.6964823E-1,6.61999E0,6.170245E0,-3.191365E-1,5.336873E1,5.722325E0,5.781016E-1,3.6255634E1,-8.658182E-1,3.912443E-1,2.5215487E1,1.1093426E1,4.3017797E0,1.3645677E1,2.4827025E0,-1.4453602E-1,1.2702248E1,2.4197164E0,-1.3349815E-1,-3.5033682E-1,2.805079E0,-1.1488941E-1,4.499468E0,1.028051E0,4.768033E0,7.742705E-1],"categories":[],"categories_nodes":[],"categories_segments":[],"categories_sizes":[],"default_left":[0,0,0,0,0,0,0,0,0,0,0,0,0,0,0,0,0,0,0,0,0,0,0,0,0,0,0],"id":4,"left_children":[1,3,5,7,9,11,13,15,17,19,21,-1,-1,23,25,-1,-1,-1,-1,-1,-1,-1,-1,-1,-1,-1,-1],"loss_changes":[1.9322123E4,1.4440783E4,1.7781395E4,5.9031918E4,5.7809604E3,9.152285E2,4.713623E3,2.4270815E3,9.09325E3,1.0684507E3,4.4908234E4,0E0,0E0,3.327122E3,1.5507266E3,0E0,0E0,0E0,0E0,0E0,0E0,0E0,0E0,0E0,0E0,0E0,0E0],"parents":[2147483647,0,0,1,1,2,2,3,3,4,4,5,5,6,6,7,7,8,8,9,9,10,10,13,13,14,14],"right_children":[2,4,6,8,10,12,14,16,18,20,22,-1,-1,24,26,-1,-1,-1,-1,-1,-1,-1,-1,-1,-1,-1,-1],"split_conditions":[2.3962288E0,-3.1546373E0,2.6426166E-1,7.2350496E-1,1.9521213E-1,5.4809824E-2,8.020779E0,6.4597294E-2,7.0469774E-2,1.9183438E-1,2.9753906E-1,2.5215487E1,1.1093426E1,9.4938445E-1,2.1449672E-3,2.4827025E0,-1.4453602E-1,1.2702248E1,2.4197164E0,-1.3349815E-1,-3.5033682E-1,2.805079E0,-1.1488941E-1,4.499468E0,1.028051E0,4.768033E0,7.742705E-1],"split_indices":[1,55,0,1,1,0,1,0,0,0,0,0,0,0,13,0,0,0,0,0,0,0,0,0,0,0,0],"split_type":[0,0,0,0,0,0,0,0,0,0,0,0,0,0,0,0,0,0,0,0,0,0,0,0,0,0,0],"sum_hessian":[1.5664E4,1.5234E4,4.3E2,3.5E2,1.4884E4,7E0,4.23E2,2.96E2,5.4E1,8.411E3,6.473E3,1E0,6E0,3.6E2,6.3E1,3.5E1,2.61E2,4.4E1,1E1,3.515E3,4.896E3,5.14E2,5.959E3,2.6E1,3.34E2,5.2E1,1.1E1],"tree_param":{"num_deleted":"0","num_feature":"78","num_nodes":"27","size_leaf_vector":"1"}},{"base_weights":[1.6283615E-2,-1.9917479E-1,3.4696894E0,1.2143301E-1,-1.219788E0,4.7331604E1,2.7888334E0,-3.7725413E-1,3.8594184E0,-9.6645236E-1,-1.9434968E0,9.572153E0,6.257964E1,4.977259E0,-3.0093572E-1,-2.0317693E-1,2.5535703E-1,5.858389E0,7.386998E-1,-3.6170533E-1,-2.0097332E-1,-4.297389E-1,-7.659858E-1,2.2101732E1,8.078808E0,3.4615455E0,1.2063524E0,2.3611255E0,-1.7734371E-1],"categories":[],"categories_nodes":[],"categories_segments":[],"categories_sizes":[],"default_left":[0,0,0,0,0,0,0,0,0,0,0,0,0,0,0,0,0,0,0,0,0,0,0,0,0,0,0,0,0],"id":5,"left_children":[1,3,5,7,9,11,13,15,17,19,21,-1,23,25,27,-1,-1,-1,-1,-1,-1,-1,-1,-1,-1,-1,-1,-1,-1],"loss_changes":[1.1656474E4,4.8252837E3,2.7342559E4,2.0920223E4,6.443994E2,1.2959512E3,6.134386E3,3.6498203E3,2.8869E4,1.8456421E2,2.8085425E2,0E0,3.888164E2,3.2846133E3,8.986735E2,0E0,0E0,0E0,0E0,0E0,0E0,0E0,0E0,0E0,0E0,0E0,0E0,0E0,0E0],"parents":[2147483647,0,0,1,1,2,2,3,3,4,4,5,5,6,6,7,7,8,8,9,9,10,10,12,12,13,13,14,14],"right_children":[2,4,6,8,10,12,14,16,18,20,22,-1,24,26,28,-1,-1,-1,-1,-1,-1,-1,-1,-1,-1,-1,-1,-1,-1],"split_conditions":[1.5080137E0,1.1921136E0,2.1140932E-1,3.7242815E-1,2.4077172E0,1.6684537E0,1.6345072E0,1.7020057E-1,1.4681202E-1,3.782235E-1,6.246788E-1,9.572153E0,5.4809824E-2,8.1823236E-1,-1.8187329E0,-2.0317693E-1,2.5535703E-1,5.858389E0,7.386998E-1,-3.6170533E-1,-2.0097332E-1,-4.297389E-1,-7.659858E-1,2.2101732E1,8.078808E0,3.4615455E0,1.2063524E0,2.3611255E0,-1.7734371E-1],"split_indices":[1,0,0,1,0,1,0,1,0,1,1,0,0,0,16,0,0,0,0,0,0,0,0,0,0,0,0,0,0],"split_type":[0,0,0,0,0,0,0,0,0,0,0,0,0,0,0,0,0,0,0,0,0,0,0,0,0,0,0,0,0],"sum_hessian":[1.5664E4,1.4745E4,9.19E2,1.1221E4,3.524E3,1.3E1,9.06E2,9.901E3,1.32E3,2.612E3,9.12E2,8E0,5E0,5.3E2,3.76E2,7.958E3,1.943E3,1.07E2,1.213E3,1.444E3,1.168E3,4.98E2,4.14E2,3E0,2E0,6.6E1,4.64E2,1.2E1,3.64E2],"tree_param":{"num_deleted":"0","num_feature":"78","num_nodes":"29","size_leaf_vector":"1"}},{"base_weights":[1.4685833E-2,-8.7594934E-2,4.242988E0,7.3220724E-1,-4.32394E-1,3.9380726E1,3.555606E0,-4.44024E-1,7.1128488E0,-2.9805115E-1,-1.2577763E0,1.4055951E1,4.1399245E0,1.7445824E0,7.0043263E0,-2.7205727E-1,4.0831852E-1,1.7226716E0,7.3728952E0,-1.8384415E-1,2.1983996E-1,-3.1801718E-1,-7.24733E-1,1.2893764E0,2.0037775E-1,5.2319055E0,1.6268343E0],"categories":[],"categories_nodes":[],"categories_segments":[],"categories_sizes":[],"default_left":[0,0,0,0,0,0,0,0,0,0,0,0,0,0,0,0,0,0,0,0,0,0,0,0,0,0,0],"id":6,"left_children":[1,3,5,7,9,11,13,15,17,19,21,-1,-1,23,25,-1,-1,-1,-1,-1,-1,-1,-1,-1,-1,-1,-1],"loss_changes":[6.775077E3,4.323991E3,8.796609E3,3.3993797E4,1.1936265E3,6.915049E2,2.2612202E3,3.1968464E3,1.6733484E4,3.005722E3,3.4247974E2,0E0,0E0,6.569058E2,1.9684277E3,0E0,0E0,0E0,0E0,0E0,0E0,0E0,0E0,0E0,0E0,0E0,0E0],"parents":[2147483647,0,0,1,1,2,2,3,3,4,4,5,5,6,6,7,7,8,8,9,9,10,10,13,13,14,14],"right_children":[2,4,6,8,10,12,14,16,18,20,22,-1,-1,24,26,-1,-1,-1,-1,-1,-1,-1,-1,-1,-1,-1,-1],"split_conditions":[2.6109622E0,2.2511177E-1,2.6426166E-1,1.2597282E-1,2.033836E0,2.0592294E0,5.0090213E0,5.185322E-2,8.52528E-1,4.4166744E-1,4.0892043E0,1.4055951E1,4.1399245E0,1.233221E0,1.1333889E0,-2.7205727E-1,4.0831852E-1,1.7226716E0,7.3728952E0,-1.8384415E-1,2.1983996E-1,-3.1801718E-1,-7.24733E-1,1.2893764E0,2.0037775E-1,5.2319055E0,1.6268343E0],"split_indices":[1,0,0,1,0,5,1,1,1,1,0,0,0,0,0,0,0,0,0,0,0,0,0,0,0,0,0],"split_type":[0,0,0,0,0,0,0,0,0,0,0,0,0,0,0,0,0,0,0,0,0,0,0,0,0,0,0],"sum_hessian":[1.5664E4,1.5295E4,3.69E2,4.528E3,1.0767E4,6E0,3.63E2,3.824E3,7.04E2,9.261E3,1.506E3,4E0,2E0,2.39E2,1.24E2,3.044E3,7.8E2,6.54E2,5E1,7.095E3,2.166E3,1.288E3,2.18E2,7E1,1.69E2,1.5E1,1.09E2],"tree_param":{"num_deleted":"0","num_feature":"78","num_nodes":"27","size_leaf_vector":"1"}},{"base_weights":[1.2499607E-2,-1.8056582E-1,1.229481E0,1.3678062E-1,-5.653922E-1,1.922669E1,7.289697E-1,-5.3257024E-1,1.7706294E0,-5.380717E-1,-3.6198797E0,1.6848064E1,1.7165646E1,5.023196E0,1.5538928E-1,-7.9752886E-1,-1.1440709E-1,1.7667944E0,3.4714556E-1,-1.5210171E-1,-4.5811918E-1,-1.2776731E0,-3.8306013E-1,8.708796E0,4.3546352E0,1.3531938E0,3.9584105E0,-2.0354379E-2,1.939141E0],"categories":[],"categories_nodes":[],"categories_segments":[],"categories_sizes":[],"default_left":[0,0,0,0,0,0,0,0,0,0,0,0,0,0,0,0,0,0,0,0,0,0,0,0,0,0,0,0,0],"id":7,"left_children":[1,3,5,7,9,11,13,15,17,19,21,23,-1,25,27,-1,-1,-1,-1,-1,-1,-1,-1,-1,-1,-1,-1,-1,-1],"loss_changes":[3.680824E3,1.6513062E3,1.930773E4,8.1057466E3,5.0801648E2,4.277379E3,5.1421396E3,1.6892131E3,5.435741E3,1.853518E2,7.541382E1,1.1698193E3,0E0,9.708076E2,2.5958853E3,0E0,0E0,0E0,0E0,0E0,0E0,0E0,0E0,0E0,0E0,0E0,0E0,0E0,0E0],"parents":[2147483647,0,0,1,1,2,2,3,3,4,4,5,5,6,6,7,7,8,8,9,9,10,10,11,11,13,13,14,14],"right_children":[2,4,6,8,10,12,14,16,18,20,22,24,-1,26,28,-1,-1,-1,-1,-1,-1,-1,-1,-1,-1,-1,-1,-1,-1],"split_conditions":[7.607173E-1,5.422258E-1,1.8204692E-1,8.3880216E-2,1.7345436E0,1.8423145E0,8.1823236E-1,1.7582219E0,1.0178967E-1,1.7589375E0,5.749607E-1,4.5022354E-2,1.7165646E1,3.2444866E0,8.020779E0,-7.9752886E-1,-1.1440709E-1,1.7667944E0,3.4714556E-1,-1.5210171E-1,-4.5811918E-1,-1.2776731E0,-3.8306013E-1,8.708796E0,4.3546352E0,1.3531938E0,3.9584105E0,-2.0354379E-2,1.939141E0],"split_indices":[1,0,0,1,18,1,0,6,0,51,1,0,0,1,1,0,0,0,0,0,0,0,0,0,0,0,0,0,0],"split_type":[0,0,0,0,0,0,0,0,0,0,0,0,0,0,0,0,0,0,0,0,0,0,0,0,0,0,0,0,0],"sum_hessian":[1.5664E4,1.352E4,2.144E3,7.41E3,6.11E3,5.7E1,2.087E3,5.257E3,2.153E3,6.057E3,5.3E1,5.5E1,2E0,2.45E2,1.842E3,3.48E2,4.909E3,2.78E2,1.875E3,5.874E3,1.83E2,4.1E1,1.2E1,7E0,4.8E1,2.32E2,1.3E1,1.78E3,6.2E1],"tree_param":{"num_deleted":"0","num_feature":"78","num_nodes":"29","size_leaf_vector":"1"}},{"base_weights":[1.1072777E-2,-6.641547E-2,2.128738E0,1.7116682E-1,-5.2055967E-1,1.3732516E1,1.8872356E0,-8.9419395E-2,3.4432125E0,-4.4588593E-1,-1.2344513E0,4.779861E0,1.0006261E0,-8.686659E-2,2.0642863E-1,2.7154138E0,6.2343264E-1,-1.4474052E-1,3.6792718E-2,-2.325065E-1,-6.0103923E-1,1.2624277E0,4.7399316E0,4.4067833E-1,-7.81121E-1],"categories":[],"categories_nodes":[],"categories_segments":[],"categories_sizes":[],"default_left":[0,0,0,0,0,0,0,0,0,0,0,0,0,0,0,0,0,0,0,0,0,0,0,0,0],"id":8,"left_children":[1,3,5,7,9,-1,11,13,15,17,19,21,23,-1,-1,-1,-1,-1,-1,-1,-1,-1,-1,-1,-1],"loss_changes":[2.570676E3,1.6307308E3,5.742607E3,8.461154E3,2.7617627E2,0E0,1.4083276E3,1.4305536E3,5.5851846E3,9.783142E1,1.7192114E2,7.4632153E2,7.1781885E2,0E0,0E0,0E0,0E0,0E0,0E0,0E0,0E0,0E0,0E0,0E0,0E0],"parents":[2147483647,0,0,1,1,2,2,3,3,4,4,6,6,7,7,8,8,9,9,10,10,11,11,12,12],"right_children":[2,4,6,8,10,-1,12,14,16,18,20,22,24,-1,-1,-1,-1,-1,-1,-1,-1,-1,-1,-1,-1],"split_conditions":[2.0692487E0,9.1806453E-1,5.4809824E-2,4.569184E-1,3.1750548E0,1.3732516E1,1.1647087E0,1.512894E-1,2.1140932E-1,1.4360292E0,9.544043E-1,8.020779E0,3.6057034E0,-8.686659E-2,2.0642863E-1,2.7154138E0,6.2343264E-1,-1.4474052E-1,3.6792718E-2,-2.325065E-1,-6.0103923E-1,1.2624277E0,4.7399316E0,4.4067833E-1,-7.81121E-1],"split_indices":[1,0,0,1,0,0,0,1,0,1,1,1,0,0,0,0,0,0,0,0,0,0,0,0,0],"split_type":[0,0,0,0,0,0,0,0,0,0,0,0,0,0,0,0,0,0,0,0,0,0,0,0,0],"sum_hessian":[1.5664E4,1.5112E4,5.52E2,9.922E3,5.19E3,2E0,5.5E2,9.191E3,7.31E2,4.7E3,4.9E2,1.28E2,4.22E2,7.31E3,1.881E3,1.42E2,5.89E2,4.416E3,2.84E2,3.08E2,1.82E2,1.23E2,5E0,3.74E2,4.8E1],"tree_param":{"num_deleted":"0","num_feature":"78","num_nodes":"25","size_leaf_vector":"1"}},{"base_weights":[9.149745E-3,-3.754064E-2,1.9393308E0,5.604162E-1,-1.9253969E-1,2.2767073E1,1.5334694E0,-1.1729508E-1,3.9949017E0,-1.5567312E-1,-1.648005E0,1.1374786E1,1.3922933E1,2.1198113E0,-1.1963158E0,-1.8069154E-1,2.704264E-1,5.0066857E0,1.0198238E0,-3.8473785E-2,-4.2065755E-1,-1.0097625E0,2.0820681E-2,4.5667257E0,1.113826E0,3.438091E-1,1.1302639E0,-7.1552426E-2,-9.1726595E-1],"categories":[],"categories_nodes":[],"categories_segments":[],"categories_sizes":[],"default_left":[0,0,0,0,0,0,0,0,0,0,0,0,0,0,0,0,0,0,0,0,0,0,0,0,0,0,0,0,0],"id":9,"left_children":[1,3,5,7,9,11,13,15,17,19,21,-1,23,25,27,-1,-1,-1,-1,-1,-1,-1,-1,-1,-1,-1,-1,-1,-1],"loss_changes":[1.4118167E3,1.4177832E3,3.0927622E3,7.3300474E3,6.515813E2,4.0995044E2,5.851497E2,1.3004877E3,3.8664756E3,4.0491934E2,8.853183E2,0E0,2.309082E1,4.7704224E2,1.1514672E2,0E0,0E0,0E0,0E0,0E0,0E0,0E0,0E0,0E0,0E0,0E0,0E0,0E0,0E0],"parents":[2147483647,0,0,1,1,2,2,3,3,4,4,5,5,6,6,7,7,8,8,9,9,10,10,12,12,13,13,14,14],"right_children":[2,4,6,8,10,12,14,16,18,20,22,-1,24,26,28,-1,-1,-1,-1,-1,-1,-1,-1,-1,-1,-1,-1,-1,-1],"split_conditions":[2.6109622E0,1.4876953E-1,2.6426166E-1,1.030964E-1,1.7345436E0,5.4809824E-2,2.4077172E0,2.623163E-2,4.5022354E-2,1.803034E0,3.7242815E-1,1.1374786E1,1E0,5.0090213E0,4.4024034E0,-1.8069154E-1,2.704264E-1,5.0066857E0,1.0198238E0,-3.8473785E-2,-4.2065755E-1,-1.0097625E0,2.0820681E-2,4.5667257E0,1.113826E0,3.438091E-1,1.1302639E0,-7.1552426E-2,-9.1726595E-1],"split_indices":[1,0,0,1,18,0,0,1,0,51,1,0,70,1,0,0,0,0,0,0,0,0,0,0,0,0,0,0,0],"split_type":[0,0,0,0,0,0,0,0,0,0,0,0,0,0,0,0,0,0,0,0,0,0,0,0,0,0,0,0,0],"sum_hessian":[1.5664E4,1.5295E4,3.69E2,3.148E3,1.2147E4,6E0,3.63E2,2.63E3,5.18E2,1.1848E4,2.99E2,1E0,5E0,2.99E2,6.4E1,1.782E3,8.48E2,2.2E1,4.96E2,1.1594E4,2.54E2,1.49E2,1.5E2,4E0,1E0,1.89E2,1.1E2,4.3E1,2.1E1],"tree_param":{"num_deleted":"0","num_feature":"78","num_nodes":"29","size_leaf_vector":"1"}},{"base_weights":[7.822579E-3,-1.6444197E-1,3.4216374E-1,-1.1391587E-1,-2.1540544E0,3.5989065E0,-1.916431E-2,2.4796794E-1,-2.3908456E-1,-4.669849E0,-1.4262825E0,2.9942794E0,1.1606911E1,4.0695098E-1,-4.5661297E-1,-7.5172886E-2,5.6891876E-1,-3.5889903E-1,-6.131176E-2,-1.0588323E0,-1.9809397E0,4.3336222E-1,-6.5269285E-1,3.6354022E0,7.9355234E-1,6.014961E0,2.3211906E0,8.849112E-2,1.120711E0,-1.0863248E-1,-3.7988418E-1],"categories":[],"categories_nodes":[],"categories_segments":[],"categories_sizes":[],"default_left":[0,0,0,0,0,0,0,0,0,0,0,0,0,0,0,0,0,0,0,0,0,0,0,0,0,0,0,0,0,0,0],"id":10,"left_children":[1,3,5,7,9,11,13,15,17,19,21,23,25,27,29,-1,-1,-1,-1,-1,-1,-1,-1,-1,-1,-1,-1,-1,-1,-1,-1],"loss_changes":[9.02284E2,1.0391068E3,6.2686294E3,4.568294E2,4.6205615E2,2.5411133E3,8.9417737E2,2.1306174E3,2.4873242E2,1.0236438E2,4.3339896E2,1.5477754E3,1.0536929E3,9.046944E2,1.806582E2,0E0,0E0,0E0,0E0,0E0,0E0,0E0,0E0,0E0,0E0,0E0,0E0,0E0,0E0,0E0,0E0],"parents":[2147483647,0,0,1,1,2,2,3,3,4,4,5,5,6,6,7,7,8,8,9,9,10,10,11,11,12,12,13,13,14,14],"right_children":[2,4,6,8,10,12,14,16,18,20,22,24,26,28,30,-1,-1,-1,-1,-1,-1,-1,-1,-1,-1,-1,-1,-1,-1,-1,-1],"split_conditions":[2.9220816E-1,1.7345436E0,3.9149874E-1,1.3702455E-1,7.686478E-2,1.3771605E0,1.558165E0,4.331269E-2,-1.9412998E0,1E0,7.2427265E-2,4.697985E-2,5.676732E-2,5.0090213E0,4.0892043E0,-7.5172886E-2,5.6891876E-1,-3.5889903E-1,-6.131176E-2,-1.0588323E0,-1.9809397E0,4.3336222E-1,-6.5269285E-1,3.6354022E0,7.9355234E-1,6.014961E0,2.3211906E0,8.849112E-2,1.120711E0,-1.0863248E-1,-3.7988418E-1],"split_indices":[1,18,0,0,1,1,0,1,52,67,0,0,0,1,0,0,0,0,0,0,0,0,0,0,0,0,0,0,0,0,0],"split_type":[0,0,0,0,0,0,0,0,0,0,0,0,0,0,0,0,0,0,0,0,0,0,0,0,0,0,0,0,0,0,0],"sum_hessian":[1.5664E4,1.0338E4,5.326E3,1.0083E4,2.55E2,5.31E2,4.795E3,2.591E3,7.492E3,5.6E1,1.99E2,4.95E2,3.6E1,2.429E3,2.366E3,1.99E3,6.01E2,2.61E2,7.231E3,3.7E1,1.9E1,4.1E1,1.58E2,1.7E1,4.78E2,1E1,2.6E1,2.351E3,7.8E1,2.12E3,2.46E2],"tree_param":{"num_deleted":"0","num_feature":"78","num_nodes":"31","size_leaf_vector":"1"}},{"base_weights":[6.133319E-3,-4.589733E-2,7.356041E-1,1.22389756E-1,-2.601665E-1,9.305007E0,4.63908E-1,-2.1673024E-3,2.6273406E0,-1.1043375E0,-2.1652181E-1,1.6776894E1,6.541803E0,1.6075058E0,-1.4050099E-1,-2.5144875E-1,3.7606686E-2,3.5587718E0,7.353692E-1,-1.9408014E-1,-4.0884528E-1,-9.59563E-2,-2.9259486E-2,6.878282E0,-3.3504945E-1,4.810585E0,1.6434313E0,4.2595425E-1,2.8357253E0,4.563516E-2,-3.0525273E-1],"categories":[],"categories_nodes":[],"categories_segments":[],"categories_sizes":[],"default_left":[0,0,0,0,0,0,0,0,0,0,0,0,0,0,0,0,0,0,0,0,0,0,0,0,0,0,0,0,0,0,0],"id":11,"left_children":[1,3,5,7,9,11,13,15,17,19,21,23,25,27,29,-1,-1,-1,-1,-1,-1,-1,-1,-1,-1,-1,-1,-1,-1,-1,-1],"loss_changes":[5.945963E2,5.273187E2,2.4240728E3,2.5556736E3,2.3677563E2,5.509319E2,6.9972107E2,8.320781E2,6.019717E2,3.6478912E1,7.519302E1,9.060796E2,1.6461206E2,5.0183594E2,1.702995E2,0E0,0E0,0E0,0E0,0E0,0E0,0E0,0E0,0E0,0E0,0E0,0E0,0E0,0E0,0E0,0E0],"parents":[2147483647,0,0,1,1,2,2,3,3,4,4,5,5,6,6,7,7,8,8,9,9,10,10,11,11,12,12,13,13,14,14],"right_children":[2,4,6,8,10,12,14,16,18,20,22,24,26,28,30,-1,-1,-1,-1,-1,-1,-1,-1,-1,-1,-1,-1,-1,-1,-1,-1],"split_conditions":[1.3771605E0,6.4205796E-1,3.073265E-1,4.7338942E-1,1.7582219E0,5.4809824E-2,1.2762859E0,1.7582219E0,4.3064862E-2,-5.646311E-1,1E0,6.6834635E-1,3.793317E-1,8.020779E0,2.9519005E0,-2.5144875E-1,3.7606686E-2,3.5587718E0,7.353692E-1,-1.9408014E-1,-4.0884528E-1,-9.59563E-2,-2.9259486E-2,6.878282E0,-3.3504945E-1,4.810585E0,1.6434313E0,4.2595425E-1,2.8357253E0,4.563516E-2,-3.0525273E-1],"split_indices":[1,0,0,1,6,0,0,6,0,41,64,5,5,1,0,0,0,0,0,0,0,0,0,0,0,0,0,0,0,0,0],"split_type":[0,0,0,0,0,0,0,0,0,0,0,0,0,0,0,0,0,0,0,0,0,0,0,0,0,0,0,0,0,0,0],"sum_hessian":[1.5664E4,1.4622E4,1.042E3,8.19E3,6.432E3,3.1E1,1.011E3,7.803E3,3.87E2,3.15E2,6.117E3,7E0,2.4E1,3.49E2,6.62E2,1.032E3,6.771E3,6E0,3.81E2,1.15E2,2E2,3.273E3,2.844E3,5E0,2E0,1E0,2.3E1,3.42E2,7E0,4.97E2,1.65E2],"tree_param":{"num_deleted":"0","num_feature":"78","num_nodes":"31","size_leaf_vector":"1"}},{"base_weights":[5.5286526E-3,-2.6501748E-1,1.0936378E-1,-2.3304815E0,-2.0076106E-1,2.337718E0,5.105588E-3,-3.6673033E0,-1.3453429E0,-1.6623832E-1,-3.258731E0,2.2047744E0,7.1679034E0,6.162899E-1,-1.0893892E-1,-5.3942174E-1,-1.3811687E0,-2.448542E-1,-5.300635E-1,2.2280581E-2,-8.1416175E-2,-7.3918355E-1,-1.4868476E0,-5.011196E-2,8.839204E-1,1.0324165E-1,6.8633187E-1,-4.56363E-2,1.984546E-1],"categories":[],"categories_nodes":[],"categories_segments":[],"categories_sizes":[],"default_left":[0,0,0,0,0,0,0,0,0,0,0,0,0,0,0,0,0,0,0,0,0,0,0,0,0,0,0,0,0],"id":12,"left_children":[1,3,5,7,9,11,13,15,17,19,21,23,-1,25,27,-1,-1,-1,-1,-1,-1,-1,-1,-1,-1,-1,-1,-1,-1],"loss_changes":[4.400932E2,5.7619763E2,2.6301301E3,1.6758734E2,4.4443384E2,1.3973347E3,7.539663E2,8.801074E1,1.5733566E1,1.0545019E2,5.1195587E1,8.870288E2,0E0,7.729906E2,3.0338824E2,0E0,0E0,0E0,0E0,0E0,0E0,0E0,0E0,0E0,0E0,0E0,0E0,0E0,0E0],"parents":[2147483647,0,0,1,1,2,2,3,3,4,4,5,5,6,6,7,7,8,8,9,9,10,10,11,11,13,13,14,14],"right_children":[2,4,6,8,10,12,14,16,18,20,22,24,-1,26,28,-1,-1,-1,-1,-1,-1,-1,-1,-1,-1,-1,-1,-1,-1],"split_conditions":[6.3138925E-2,-1.9412998E0,1.1549213E-1,8.417223E-2,1.7345436E0,1.8423145E0,4.052012E-1,5.285233E-2,1E0,9.591719E-2,1E0,-8.5826755E-1,7.1679034E0,4.251964E-1,2.2144377E0,-5.3942174E-1,-1.3811687E0,-2.448542E-1,-5.300635E-1,2.2280581E-2,-8.1416175E-2,-7.3918355E-1,-1.4868476E0,-5.011196E-2,8.839204E-1,1.0324165E-1,6.8633187E-1,-4.56363E-2,1.984546E-1],"split_indices":[1,52,0,0,18,1,0,0,66,0,67,39,0,1,1,0,0,0,0,0,0,0,0,0,0,0,0,0,0],"split_type":[0,0,0,0,0,0,0,0,0,0,0,0,0,0,0,0,0,0,0,0,0,0,0,0,0,0,0,0,0],"sum_hessian":[1.5664E4,4.344E3,1.132E4,1.3E2,4.214E3,5.05E2,1.0815E4,5.4E1,7.6E1,4.168E3,4.6E1,5.03E2,2E0,1.7E3,9.115E3,1.9E1,3.5E1,3.5E1,4.1E1,1.268E3,2.9E3,3.3E1,1.3E1,1.2E2,3.83E2,1.463E3,2.37E2,8.632E3,4.83E2],"tree_param":{"num_deleted":"0","num_feature":"78","num_nodes":"29","size_leaf_vector":"1"}},{"base_weights":[4.123052E-3,6.251864E-1,-2.7674267E-2,-3.4694678E-1,2.90781E0,-1.2449635E0,-4.280576E-3,-2.7517617E-1,-3.00331E0,2.6798117E0,5.7343235E0,-5.350364E-1,-5.161885E0,2.7226448E-1,-6.55114E-2,-1.3886678E0,-6.981079E-2,-1.1711601E0,-5.5197275E-1,2.4190526E0,6.693683E-1,-3.615119E-1,1.9596353E-2,-1.9338857E0,-2.5182623E-1,7.372271E-2,1.2414622E0,3.43997E-1,-2.3488062E-2],"categories":[],"categories_nodes":[],"categories_segments":[],"categories_sizes":[],"default_left":[0,0,0,0,0,0,0,0,0,0,0,0,0,0,0,0,0,0,0,0,0,0,0,0,0,0,0,0,0],"id":13,"left_children":[1,3,5,7,9,11,13,15,17,19,-1,21,23,25,27,-1,-1,-1,-1,-1,-1,-1,-1,-1,-1,-1,-1,-1,-1],"loss_changes":[3.0937207E2,1.6941165E3,4.243857E2,1.0136132E2,7.9125464E2,7.7862305E2,2.4763028E2,9.563477E1,7.485161E0,5.278074E2,0E0,9.6214424E1,2.3331519E2,2.7079797E2,1.8560056E2,0E0,0E0,0E0,0E0,0E0,0E0,0E0,0E0,0E0,0E0,0E0,0E0,0E0,0E0],"parents":[2147483647,0,0,1,1,2,2,3,3,4,4,5,5,6,6,7,7,8,8,9,9,11,11,12,12,13,13,14,14],"right_children":[2,4,6,8,10,12,14,16,18,20,-1,22,24,26,28,-1,-1,-1,-1,-1,-1,-1,-1,-1,-1,-1,-1,-1,-1],"split_conditions":[6.2639795E-2,2.8366763E-2,-3.1546373E0,1.6995056E0,1.8423145E0,1E0,-1.2770729E0,-3.1546373E0,1E0,1.0838049E-1,5.7343235E0,1.6043997E-1,6.734818E-1,8.020779E0,-2.1327102E0,-1.3886678E0,-6.981079E-2,-1.1711601E0,-5.5197275E-1,2.4190526E0,6.693683E-1,-3.615119E-1,1.9596353E-2,-1.9338857E0,-2.5182623E-1,7.372271E-2,1.2414622E0,3.43997E-1,-2.3488062E-2],"split_indices":[0,1,55,18,1,67,16,55,66,5,0,1,1,1,13,0,0,0,0,0,0,0,0,0,0,0,0,0,0],"split_type":[0,0,0,0,0,0,0,0,0,0,0,0,0,0,0,0,0,0,0,0,0,0,0,0,0,0,0,0,0],"sum_hessian":[1.5664E4,7.62E2,1.4902E4,5.35E2,2.27E2,2.8E2,1.4622E4,5.22E2,1.3E1,2.25E2,2E0,2.38E2,4.2E1,2.65E3,1.1972E4,4E0,5.18E2,6E0,7E0,1.6E1,2.09E2,1.12E2,1.26E2,3.2E1,1E1,2.633E3,1.7E1,1.24E2,1.1848E4],"tree_param":{"num_deleted":"0","num_feature":"78","num_nodes":"29","size_leaf_vector":"1"}},{"base_weights":[3.189297E-3,-1.0096204E-1,1.6305603E-1,-6.1756887E-2,-1.7993194E0,2.3426826E0,4.5200527E-2,-7.3361754E-1,-2.8046545E-2,-1.3022019E0,-2.9701533E0,2.227749E0,5.7992477E0,7.559518E-1,-7.593833E-2,-3.8809672E-1,-4.4303425E-4,-2.713884E-2,8.267957E-2,-4.0659472E-1,-1.2373624E-1,-5.7540977E-1,-1.6481696E0,5.132394E-1,1.7255833E0,-2.2460021E-1,3.6697656E-1,4.561473E-2,-6.0246643E-2],"categories":[],"categories_nodes":[],"categories_segments":[],"categories_sizes":[],"default_left":[0,0,0,0,0,0,0,0,0,0,0,0,0,0,0,0,0,0,0,0,0,0,0,0,0,0,0,0,0],"id":14,"left_children":[1,3,5,7,9,11,13,15,17,19,21,23,-1,25,27,-1,-1,-1,-1,-1,-1,-1,-1,-1,-1,-1,-1,-1,-1],"loss_changes":[2.6084396E2,6.3150824E2,1.5874188E3,2.100004E2,1.2068915E2,5.7588E2,5.049455E2,1.816399E2,1.6739348E2,6.6242065E0,1.5674554E2,5.6586035E2,0E0,6.0137476E2,1.4270343E2,0E0,0E0,0E0,0E0,0E0,0E0,0E0,0E0,0E0,0E0,0E0,0E0,0E0,0E0],"parents":[2147483647,0,0,1,1,2,2,3,3,4,4,5,5,6,6,7,7,8,8,9,9,10,10,11,11,13,13,14,14],"right_children":[2,4,6,8,10,12,14,16,18,20,22,24,-1,26,28,-1,-1,-1,-1,-1,-1,-1,-1,-1,-1,-1,-1,-1,-1],"split_conditions":[2.4035494E-1,1.7345436E0,1.9183438E-1,-1.9412998E0,1E0,2.2144377E0,7.066552E-1,1.23837695E-1,1E0,2.3425455E-1,6.8512276E-2,1.6798975E0,5.7992477E0,1.7582219E0,1.3389257E0,-3.8809672E-1,-4.4303425E-4,-2.713884E-2,8.267957E-2,-4.0659472E-1,-1.2373624E-1,-5.7540977E-1,-1.6481696E0,5.132394E-1,1.7255833E0,-2.2460021E-1,3.6697656E-1,4.561473E-2,-6.0246643E-2],"split_indices":[1,18,0,52,67,1,0,1,67,1,0,5,0,6,0,0,0,0,0,0,0,0,0,0,0,0,0,0,0],"split_type":[0,0,0,0,0,0,0,0,0,0,0,0,0,0,0,0,0,0,0,0,0,0,0,0,0,0,0,0,0],"sum_hessian":[1.5664E4,9.485E3,6.179E3,9.272E3,2.13E2,3.16E2,5.863E3,4.42E2,8.83E3,1.51E2,6.2E1,3.15E2,1E0,8.53E2,5.01E3,2.5E2,1.92E2,7.325E3,1.505E3,1.42E2,9E0,4.5E1,1.7E1,2.76E2,3.9E1,2.02E2,6.51E2,1.773E3,3.237E3],"tree_param":{"num_deleted":"0","num_feature":"78","num_nodes":"29","size_leaf_vector":"1"}},{"base_weights":[2.5567E-3,-2.78756E-1,5.1483203E-2,-1.4030014E0,-2.5389197E-1,2.7486346E0,2.371151E-2,-2.6951916E0,-8.761456E-1,-2.3479658E-1,-1.7227252E0,2.5255697E0,4.9293594E0,5.7178235E-1,-4.4752695E-2,-3.0565608E-1,-1.2677939E0,-5.913984E-1,-1.9302581E-1,-1.0419572E-1,-4.8131917E-2,-3.9018413E-1,-8.5906774E-1,4.0831834E-1,1.1061434E0,1.4858925E-1,2.3827484E0,-7.4953423E-3,-2.5532418E-1],"categories":[],"categories_nodes":[],"categories_segments":[],"categories_sizes":[],"default_left":[0,0,0,0,0,0,0,0,0,0,0,0,0,0,0,0,0,0,0,0,0,0,0,0,0,0,0,0,0],"id":15,"left_children":[1,3,5,7,9,11,13,15,17,19,21,23,-1,25,27,-1,-1,-1,-1,-1,-1,-1,-1,-1,-1,-1,-1,-1,-1],"loss_changes":[2.1562186E2,6.452327E1,9.995348E2,3.167852E1,6.332042E1,3.735874E2,4.9570752E2,3.1619987E1,8.162085E0,1.8719421E1,1.0240829E1,1.7759113E2,0E0,8.230839E2,1.8717418E2,0E0,0E0,0E0,0E0,0E0,0E0,0E0,0E0,0E0,0E0,0E0,0E0,0E0,0E0],"parents":[2147483647,0,0,1,1,2,2,3,3,4,4,5,5,6,6,7,7,8,8,9,9,10,10,11,11,13,13,14,14],"right_children":[2,4,6,8,10,12,14,16,18,20,22,24,-1,26,28,-1,-1,-1,-1,-1,-1,-1,-1,-1,-1,-1,-1,-1,-1],"split_conditions":[3.0196877E-2,-1.9412998E0,5.4809824E-2,1.2505777E-2,1.7345436E0,2.2144377E0,1.7813192E-1,4.3064862E-2,5.23839E-1,1.4945929E-2,1E0,2.0428258E-4,4.9293594E0,9.544043E-1,1.7345436E0,-3.0565608E-1,-1.2677939E0,-5.913984E-1,-1.9302581E-1,-1.0419572E-1,-4.8131917E-2,-3.9018413E-1,-8.5906774E-1,4.0831834E-1,1.1061434E0,1.4858925E-1,2.3827484E0,-7.4953423E-3,-2.5532418E-1],"split_indices":[1,52,0,1,18,1,0,0,5,1,67,13,0,1,18,0,0,0,0,0,0,0,0,0,0,0,0,0,0],"split_type":[0,0,0,0,0,0,0,0,0,0,0,0,0,0,0,0,0,0,0,0,0,0,0,0,0,0,0,0,0],"sum_hessian":[1.5664E4,2.32E3,1.3344E4,4.9E1,2.271E3,1.35E2,1.3209E4,1.3E1,3.6E1,2.243E3,2.8E1,1.34E2,1E0,1.466E3,1.1743E4,7E0,6E0,5E0,3.1E1,8.91E2,1.352E3,2.2E1,6E0,6.8E1,6.6E1,1.452E3,1.4E1,1.1463E4,2.8E2],"tree_param":{"num_deleted":"0","num_feature":"78","num_nodes":"29","size_leaf_vector":"1"}},{"base_weights":[2.105842E-3,-6.2311965E-1,1.7941967E-2,-7.55103E-1,9.611429E0,3.268929E-1,-1.4846509E-2,1.500643E0,-1.0598639E0,1.5093075E0,4.1899567E0,2.504439E-1,1.4228418E1,1.6692872E-3,-5.759279E-1,-3.9377055E-1,1.1145407E0,-7.719352E-2,-1.1195219E0,1.2990087E-2,7.8124243E-1,4.7676463E0,3.873402E-1,-5.208304E-2,1.7943457E-2,-1.3908672E-1,-1.4559982E0],"categories":[],"categories_nodes":[],"categories_segments":[],"categories_sizes":[],"default_left":[0,0,0,0,0,0,0,0,0,0,0,0,0,0,0,0,0,0,0,0,0,0,0,0,0,0,0],"id":16,"left_children":[1,3,5,7,9,11,13,15,17,-1,-1,19,21,23,25,-1,-1,-1,-1,-1,-1,-1,-1,-1,-1,-1,-1],"loss_changes":[1.5511267E2,5.300133E2,1.5478159E2,2.6488898E2,2.9474518E1,1.5544395E3,1.2801125E2,2.914488E2,7.238198E2,0E0,0E0,7.112276E2,1.5167493E2,1.3677544E2,1.874982E2,0E0,0E0,0E0,0E0,0E0,0E0,0E0,0E0,0E0,0E0,0E0,0E0],"parents":[2147483647,0,0,1,1,2,2,3,3,4,4,5,5,6,6,7,7,8,8,11,11,12,12,13,13,14,14],"right_children":[2,4,6,8,10,12,14,16,18,-1,-1,20,22,24,26,-1,-1,-1,-1,-1,-1,-1,-1,-1,-1,-1,-1],"split_conditions":[-2.4137163E0,1.6684537E0,9.2002206E-2,5.0894834E-2,2.2144377E0,6.734818E-1,1.7345436E0,1.1621222E-1,1E0,1.5093075E0,4.1899567E0,1.3603845E-1,8.417223E-2,7.137444E-2,1E0,-3.9377055E-1,1.1145407E0,-7.719352E-2,-1.1195219E0,1.2990087E-2,7.8124243E-1,4.7676463E0,3.873402E-1,-5.208304E-2,1.7943457E-2,-1.3908672E-1,-1.4559982E0],"split_indices":[56,1,0,0,1,1,18,1,67,0,0,1,0,1,67,0,0,0,0,0,0,0,0,0,0,0,0],"split_type":[0,0,0,0,0,0,0,0,0,0,0,0,0,0,0,0,0,0,0,0,0,0,0,0,0,0,0],"sum_hessian":[1.5664E4,3.86E2,1.5278E4,3.82E2,4E0,1.465E3,1.3813E4,4.5E1,3.37E2,3E0,1E0,1.458E3,7E0,1.3419E4,3.94E2,2E1,2.5E1,2.6E2,7.7E1,1.341E3,1.17E2,6E0,1E0,3.342E3,1.0077E4,3.85E2,9E0],"tree_param":{"num_deleted":"0","num_feature":"78","num_nodes":"27","size_leaf_vector":"1"}},{"base_weights":[2.0832857E-3,-1.4828576E-2,5.236656E-1,-3.124156E-1,2.1501726E-2,7.1855006E0,3.1351668E-1,-4.871623E-1,3.8857692E-1,1.5008262E-1,-7.865315E-2,1.9267216E-1,8.142753E0,1.2745528E0,-8.594321E-3,-1.1510406E-1,-4.5056233E-1,1.9984269E0,7.555595E-2,-2.2016555E-2,2.482631E-1,1.6985084E-1,-2.6563337E-2,2.665092E0,8.13575E-1,1.2681639E-1,2.308182E0,-2.1896031E-1,1.8889365E-1],"categories":[],"categories_nodes":[],"categories_segments":[],"categories_sizes":[],"default_left":[0,0,0,0,0,0,0,0,0,0,0,0,0,0,0,0,0,0,0,0,0,0,0,0,0,0,0,0,0],"id":17,"left_children":[1,3,5,7,9,11,13,15,17,19,21,-1,23,25,27,-1,-1,-1,-1,-1,-1,-1,-1,-1,-1,-1,-1,-1,-1],"loss_changes":[1.381876E2,1.6405931E2,6.8653613E2,2.0243036E2,1.7417392E2,8.872357E1,1.4798077E2,1.3823978E2,2.8134583E2,8.9661E2,4.854309E1,0E0,2.8215637E1,6.5293585E2,1.6572354E2,0E0,0E0,0E0,0E0,0E0,0E0,0E0,0E0,0E0,0E0,0E0,0E0,0E0,0E0],"parents":[2147483647,0,0,1,1,2,2,3,3,4,4,5,5,6,6,7,7,8,8,9,9,10,10,12,12,13,13,14,14],"right_children":[2,4,6,8,10,12,14,16,18,20,22,-1,24,26,28,-1,-1,-1,-1,-1,-1,-1,-1,-1,-1,-1,-1,-1,-1],"split_conditions":[2.2144377E0,2.1012895E0,5.970356E-1,6.734818E-1,4.658835E-1,-1.2256955E-3,6.322195E-1,3.7210634E0,4.3064862E-2,7.259451E-2,-2.1079879E0,1.9267216E-1,1E0,8.020779E0,-3.5487598E-1,-1.1510406E-1,-4.5056233E-1,1.9984269E0,7.555595E-2,-2.2016555E-2,2.482631E-1,1.6985084E-1,-2.6563337E-2,2.665092E0,8.13575E-1,1.2681639E-1,2.308182E0,-2.1896031E-1,1.8889365E-1],"split_indices":[1,6,0,1,0,13,5,5,0,1,18,0,73,1,18,0,0,0,0,0,0,0,0,0,0,0,0,0,0],"split_type":[0,0,0,0,0,0,0,0,0,0,0,0,0,0,0,0,0,0,0,0,0,0,0,0,0,0,0,0,0],"sum_hessian":[1.5664E4,1.5173E4,4.91E2,1.65E3,1.3523E4,1.4E1,4.77E2,1.321E3,3.29E2,5.921E3,7.602E3,2E0,1.2E1,1.19E2,3.58E2,1.2E3,1.21E2,6E0,3.23E2,4.453E3,1.468E3,1.14E2,7.488E3,1E1,2E0,1.06E2,1.3E1,1.68E2,1.9E2],"tree_param":{"num_deleted":"0","num_feature":"78","num_nodes":"29","size_leaf_vector":"1"}},{"base_weights":[1.9660573E-3,9.2918305E-3,-9.088484E-1,-1.2407872E-2,3.2721698E-1,-3.4329313E-1,-1.2452306E0,-4.1905105E-1,1.1753569E-2,1.6029184E0,-5.725754E-2,-2.1934566E-1,-6.6012514E-1,-1.563608E0,-1.035667E0,4.479579E-1,-1.5123048E-1,7.514742E-2,-8.0497E-3,4.3629038E-1,2.8908641E0,-6.741811E-2,1.382045E-1,-1.24643214E-1,-3.4928586E-2,-6.537877E-2,-2.3129731E-1,-3.7768355E-1,-8.3226043E-1,-2.254492E-1,-3.477854E-1],"categories":[],"categories_nodes":[],"categories_segments":[],"categories_sizes":[],"default_left":[0,0,0,0,0,0,0,0,0,0,0,0,0,0,0,0,0,0,0,0,0,0,0,0,0,0,0,0,0,0,0],"id":18,"left_children":[1,3,5,7,9,11,13,15,17,19,21,23,25,27,29,-1,-1,-1,-1,-1,-1,-1,-1,-1,-1,-1,-1,-1,-1,-1,-1],"loss_changes":[1.04531906E2,1.0721958E2,2.3352852E1,1.429501E2,4.8713318E2,1.7401896E0,3.5848083E0,1.3346475E2,1.26523155E2,2.605797E2,6.637213E1,6.7829704E-1,4.6929598E-1,7.203308E0,8.852196E-1,0E0,0E0,0E0,0E0,0E0,0E0,0E0,0E0,0E0,0E0,0E0,0E0,0E0,0E0,0E0,0E0],"parents":[2147483647,0,0,1,1,2,2,3,3,4,4,5,5,6,6,7,7,8,8,9,9,10,10,11,11,12,12,13,13,14,14],"right_children":[2,4,6,8,10,12,14,16,18,20,22,24,26,28,30,-1,-1,-1,-1,-1,-1,-1,-1,-1,-1,-1,-1,-1,-1,-1,-1],"split_conditions":[4.952459E0,1.3771605E0,1.0199834E0,-1.9412998E0,1.0687915E0,5.1267076E-1,-3.1692025E-1,4.697985E-2,1.1157714E-1,8.020779E0,1.8966585E0,1E0,-3.5626452E-2,2.3962288E0,5.8000536E0,4.479579E-1,-1.5123048E-1,7.514742E-2,-8.0497E-3,4.3629038E-1,2.8908641E0,-6.741811E-2,1.382045E-1,-1.24643214E-1,-3.4928586E-2,-6.537877E-2,-2.3129731E-1,-3.7768355E-1,-8.3226043E-1,-2.254492E-1,-3.477854E-1],"split_indices":[0,1,1,52,0,33,40,0,0,1,5,64,19,1,0,0,0,0,0,0,0,0,0,0,0,0,0,0,0,0,0],"split_type":[0,0,0,0,0,0,0,0,0,0,0,0,0,0,0,0,0,0,0,0,0,0,0,0,0,0,0,0,0,0,0],"sum_hessian":[1.5664E4,1.554E4,1.24E2,1.4548E4,9.92E2,4.7E1,7.7E1,8.15E2,1.3733E4,2.29E2,7.63E2,3.5E1,1.2E1,2.8E1,4.9E1,3.4E1,7.81E2,1.91E3,1.1823E4,2.26E2,3E0,5.77E2,1.86E2,1.1E1,2.4E1,3E0,9E0,2.4E1,4E0,1.7E1,3.2E1],"tree_param":{"num_deleted":"0","num_feature":"78","num_nodes":"31","size_leaf_vector":"1"}},{"base_weights":[1.4734238E-3,-3.0141106E-1,2.4033856E-2,-1.3403435E0,-2.8066155E-1,5.842932E-1,-1.3479778E-2,-1.8939637E0,-2.0396495E-1,-3.457838E-1,-1.453065E-1,1.1100717E0,-1.7578803E-1,-6.912284E-2,8.4077656E-2,-3.0493295E-1,-8.683753E-1,-1.21034876E-1,-1.0752798E-3,-1.655741E-1,-7.9253435E-2,-4.05208E-2,-2.975808E-1,2.8933883E-1,2.2345881E0,-3.3249855E-1,1.9903328E-1,-1.6498491E-2,-2.2839491E-1,2.5502086E-1,-6.669535E-3],"categories":[],"categories_nodes":[],"categories_segments":[],"categories_sizes":[],"default_left":[0,0,0,0,0,0,0,0,0,0,0,0,0,0,0,0,0,0,0,0,0,0,0,0,0,0,0,0,0,0,0],"id":19,"left_children":[1,3,5,7,9,11,13,15,17,19,21,23,25,27,29,-1,-1,-1,-1,-1,-1,-1,-1,-1,-1,-1,-1,-1,-1,-1,-1],"loss_changes":[1.0704939E2,2.3035103E1,3.0644104E2,1.2825264E1,9.346153E0,3.6586053E2,7.419026E1,9.350727E0,3.1833687E-1,1.1948753E1,2.8821673E0,4.9213202E2,2.9421704E2,8.506673E1,4.0424814E2,0E0,0E0,0E0,0E0,0E0,0E0,0E0,0E0,0E0,0E0,0E0,0E0,0E0,0E0,0E0,0E0],"parents":[2147483647,0,0,1,1,2,2,3,3,4,4,5,5,6,6,7,7,8,8,9,9,10,10,11,11,12,12,13,13,14,14],"right_children":[2,4,6,8,10,12,14,16,18,20,22,24,26,28,30,-1,-1,-1,-1,-1,-1,-1,-1,-1,-1,-1,-1,-1,-1,-1,-1],"split_conditions":[1.6471023E-2,-1.9412998E0,1.0570466E-1,1.2505777E-2,1E0,2.331901E-1,3.0928922E-1,5.0894834E-2,1.0657414E0,1E0,1.6995056E0,2.623163E-1,1.4518902E-1,1.7345436E0,6.0486555E-1,-3.0493295E-1,-8.683753E-1,-1.21034876E-1,-1.0752798E-3,-1.655741E-1,-7.9253435E-2,-4.05208E-2,-2.975808E-1,2.8933883E-1,2.2345881E0,-3.3249855E-1,1.9903328E-1,-1.6498491E-2,-2.2839491E-1,2.5502086E-1,-6.669535E-3],"split_indices":[1,52,0,1,64,27,1,0,5,65,18,1,1,18,0,0,0,0,0,0,0,0,0,0,0,0,0,0,0,0,0],"split_type":[0,0,0,0,0,0,0,0,0,0,0,0,0,0,0,0,0,0,0,0,0,0,0,0,0,0,0,0,0,0,0],"sum_hessian":[1.5664E4,1.085E3,1.4579E4,2E1,1.065E3,9.14E2,1.3665E4,1.3E1,7E0,7.18E2,3.47E2,5.4E2,3.74E2,8.702E3,4.963E3,8E0,5E0,3E0,4E0,2.02E2,5.16E2,3.44E2,3E0,5.29E2,1.1E1,1.77E2,1.97E2,8.529E3,1.73E2,6.04E2,4.359E3],"tree_param":{"num_deleted":"0","num_feature":"78","num_nodes":"31","size_leaf_vector":"1"}}]},"name":"gbtree"},"learner_model_param":{"base_score":"4.087845E0","boost_from_average":"1","num_class":"0","num_feature":"78","num_target":"1"},"objective":{"name":"reg:squarederror","reg_loss_param":{"scale_pos_weight":"1"}}},"version":[2,1,4]}