{"learner":{"attributes":{"scikit_learn":"{\"_estimator_type\": \"regressor\"}"},"feature_names":[],"feature_types":[],"gradient_booster":{"model":{"gbtree_model_param":{"num_parallel_tree":"1","num_trees":"20"},"iteration_indptr":[0,1,2,3,4,5,6,7,8,9,10,11,12,13,14,15,16,17,18,19,20],"tree_info":[0,0,0,0,0,0,0,0,0,0,0,0,0,0,0,0,0,0,0,0],"trees":[{"base_weights":[1.1437013E-7,-1.4788744E0,1.6519144E1,4.4528766E0,-2.2141836E0,5.3867085E1,1.3223044E1,5.716527E-1,1.9987255E1,-2.6824863E0,7.4634254E-2,5.4396313E1,8.049031E0,-3.3443427E-1,1.2811472E0,3.0017118E0,2.426838E1,-8.5368687E-1,-4.888056E-2,4.5371943E0,-4.4596073E-1,1.0969045E1,1.9673914E1,1.5178831E0,9.657293E0],"categories":[],"categories_nodes":[],"categories_segments":[],"categories_sizes":[],"default_left":[0,0,0,0,0,0,0,0,0,0,0,0,0,0,0,0,0,0,0,0,0,0,0,0,0],"id":0,"left_children":[1,3,5,7,9,-1,11,13,15,17,19,21,23,-1,-1,-1,-1,-1,-1,-1,-1,-1,-1,-1,-1],"loss_changes":[4.212909E5,6.904638E4,7.591055E5,1.052591E5,1.5095203E4,0E0,2.9567525E5,8.725268E3,2.1136498E5,4.804883E3,5.624503E4,2.8514094E4,8.903981E4,0E0,0E0,0E0,0E0,0E0,0E0,0E0,0E0,0E0,0E0,0E0,0E0],"parents":[2147483647,0,0,1,1,2,2,3,3,4,4,6,6,7,7,8,8,9,9,10,10,11,11,12,12],"right_children":[2,4,6,8,10,-1,12,14,16,18,20,22,24,-1,-1,-1,-1,-1,-1,-1,-1,-1,-1,-1,-1],"split_conditions":[1.2025367E0,1.6637044E0,8.780667E-2,1E0,4.1848773E-1,5.3867085E1,3.6143675E-1,1.6311069E0,4.852611E-1,1.686688E0,3.94109E-1,2.0690525E0,5.0070825E0,-3.3443427E-1,1.2811472E0,3.0017118E0,2.426838E1,-8.5368687E-1,-4.888056E-2,4.5371943E0,-4.4596073E-1,1.0969045E1,1.9673914E1,1.5178831E0,9.657293E0],"split_indices":[1,6,0,67,1,0,0,18,1,51,0,1,1,0,0,0,0,0,0,0,0,0,0,0,0],"split_type":[0,0,0,0,0,0,0,0,0,0,0,0,0,0,0,0,0,0,0,0,0,0,0,0,0],"sum_hessian":[1.7243E4,1.5827E4,1.416E3,1.745E3,1.4082E4,2.7E1,1.389E3,1.397E3,3.48E2,1.169E4,2.392E3,1.54E2,1.235E3,9.6E2,4.37E2,3E2,4.8E1,1.0979E4,7.11E2,2.24E2,2.168E3,6.1E1,9.3E1,1.1E3,1.35E2],"tree_param":{"num_deleted":"0","num_feature":"78","num_nodes":"25","size_leaf_vector":"1"}},{"base_weights":[7.370143E-3,-1.0624421E0,1.1361063E1,2.9994676E0,-1.5651454E0,3.8947304E1,8.995382E0,3.9724272E-1,1.34147215E1,-1.7874556E0,9.1825855E-1,3.6316795E1,5.1402574E0,-4.4248775E-1,7.685986E-1,6.163173E-1,1.2091989E1,-5.607467E-1,1.0039994E0,3.1740925E0,-2.2557935E-1,8.822379E0,1.6411053E1,1.057451E0,9.890236E0],"categories":[],"categories_nodes":[],"categories_segments":[],"categories_sizes":[],"default_left":[0,0,0,0,0,0,0,0,0,0,0,0,0,0,0,0,0,0,0,0,0,0,0,0,0],"id":1,"left_children":[1,3,5,7,9,-1,11,13,15,17,19,21,23,-1,-1,-1,-1,-1,-1,-1,-1,-1,-1,-1,-1],"loss_changes":[2.0946319E5,3.218559E4,4.149978E5,4.7045184E4,7.7446445E3,0E0,1.5327544E5,5.6372456E3,1.0592603E5,5.4059453E3,1.861444E4,2.1256922E4,5.7333266E4,0E0,0E0,0E0,0E0,0E0,0E0,0E0,0E0,0E0,0E0,0E0,0E0],"parents":[2147483647,0,0,1,1,2,2,3,3,4,4,6,6,7,7,8,8,9,9,10,10,11,11,12,12],"right_children":[2,4,6,8,10,-1,12,14,16,18,20,22,24,-1,-1,-1,-1,-1,-1,-1,-1,-1,-1,-1,-1],"split_conditions":[1.1569954E0,1.6637044E0,7.351256E-2,1E0,6.289624E-1,3.8947304E1,4.4924343E-1,2.0308962E-1,2.9201826E-1,4.0578156E0,6.2485677E-1,2.7743273E0,7.8281817E0,-4.4248775E-1,7.685986E-1,6.163173E-1,1.2091989E1,-5.607467E-1,1.0039994E0,3.1740925E0,-2.2557935E-1,8.822379E0,1.6411053E1,1.057451E0,9.890236E0],"split_indices":[1,6,0,67,1,0,0,1,1,6,0,1,1,0,0,0,0,0,0,0,0,0,0,0,0],"split_type":[0,0,0,0,0,0,0,0,0,0,0,0,0,0,0,0,0,0,0,0,0,0,0,0,0],"sum_hessian":[1.7243E4,1.5759E4,1.484E3,1.735E3,1.4024E4,2.8E1,1.456E3,1.389E3,3.46E2,1.2872E4,1.152E3,1.79E2,1.277E3,7.45E2,6.44E2,2.44E2,1.02E2,1.2671E4,2.01E2,1.69E2,9.83E2,1.32E2,4.7E1,1.208E3,6.9E1],"tree_param":{"num_deleted":"0","num_feature":"78","num_nodes":"25","size_leaf_vector":"1"}},{"base_weights":[1.0468426E-2,-5.5985886E-1,1.1567494E1,8.333728E0,-8.584951E-1,3.2099613E1,6.667223E0,5.301051E1,1.4794495E0,2.3369246E0,-1.147216E0,4.1015602E1,2.985314E1,4.755523E0,2.2861603E1,4.8111663E0,2.4880907E1,4.745228E0,7.094847E-2,-1.7219222E-1,2.4559848E0,-2.1345854E-1,-5.981995E-1,4.7785506E0,9.806422E0,2.4964855E0,6.742544E-2,-1.7113212E0,7.701817E0],"categories":[],"categories_nodes":[],"categories_segments":[],"categories_sizes":[],"default_left":[0,0,0,0,0,0,0,0,0,0,0,0,0,0,0,0,0,0,0,0,0,0,0,0,0,0,0,0,0],"id":2,"left_children":[1,3,5,7,9,11,13,15,17,19,21,-1,23,25,27,-1,-1,-1,-1,-1,-1,-1,-1,-1,-1,-1,-1,-1,-1],"loss_changes":[1.13666625E5,4.3655E4,8.1383086E4,1.6344684E5,1.4672691E4,3.2582234E4,2.0200252E4,7.7228375E4,8.265413E3,2.2447416E4,5.3790938E3,0E0,5.5585312E3,9.498539E3,5.6873125E3,0E0,0E0,0E0,0E0,0E0,0E0,0E0,0E0,0E0,0E0,0E0,0E0,0E0,0E0],"parents":[2147483647,0,0,1,1,2,2,3,3,4,4,5,5,6,6,7,7,8,8,9,9,10,10,12,12,13,13,14,14],"right_children":[2,4,6,8,10,12,14,16,18,20,22,-1,24,26,28,-1,-1,-1,-1,-1,-1,-1,-1,-1,-1,-1,-1,-1,-1],"split_conditions":[1.8524235E0,-3.0226064E0,8.576465E-1,6.53445E-2,-1.2761707E0,5.7176437E-2,7.8281817E0,7.5143164E-1,8.5764654E-2,2.4740009E-1,1E0,4.1015602E1,6.2534034E-2,1.6315705E0,6.8830395E-1,4.8111663E0,2.4880907E1,4.745228E0,7.094847E-2,-1.7219222E-1,2.4559848E0,-2.1345854E-1,-5.981995E-1,4.7785506E0,9.806422E0,2.4964855E0,6.742544E-2,-1.7113212E0,7.701817E0],"split_indices":[1,55,0,0,21,0,1,1,0,1,64,0,16,0,3,0,0,0,0,0,0,0,0,0,0,0,0,0,0],"split_type":[0,0,0,0,0,0,0,0,0,0,0,0,0,0,0,0,0,0,0,0,0,0,0,0,0,0,0,0,0],"sum_hessian":[1.7243E4,1.6433E4,8.1E2,5.33E2,1.59E4,1.55E2,6.55E2,7E1,4.63E2,1.317E3,1.4583E4,2E0,1.53E2,5.87E2,6.8E1,3.2E1,3.8E1,3.6E1,4.27E2,8.8E2,4.37E2,9.63E3,4.953E3,2.7E1,1.26E2,3.28E2,2.59E2,6E0,6.2E1],"tree_param":{"num_deleted":"0","num_feature":"78","num_nodes":"29","size_leaf_vector":"1"}},{"base_weights":[1.3134827E-2,-3.5851836E-1,9.122467E0,-6.093405E-1,4.838211E0,2.4942148E1,5.6285505E0,-1.2951667E0,1.7915338E-1,2.8242027E1,4.697387E-1,3.2812485E1,2.2623476E1,1.1500151E1,2.1298401E0,-5.084992E-1,-2.6554933E-1,2.6378012E0,-2.26672E-1,1.1925812E0,1.4213635E1,2.2191293E0,-1.1232267E-1,5.0457797E0,8.501811E0,1.6091443E0,4.7712893E0,1.1758564E0,-7.096982E-1],"categories":[],"categories_nodes":[],"categories_segments":[],"categories_sizes":[],"default_left":[0,0,0,0,0,0,0,0,0,0,0,0,0,0,0,0,0,0,0,0,0,0,0,0,0,0,0,0,0],"id":3,"left_children":[1,3,5,7,9,11,13,15,17,19,21,-1,23,25,27,-1,-1,-1,-1,-1,-1,-1,-1,-1,-1,-1,-1,-1,-1],"loss_changes":[5.838304E4,2.1599893E4,3.7223914E4,8.54818E3,7.799503E4,2.1409727E4,1.1376889E4,1.384376E3,5.9215785E4,5.553808E4,3.768697E3,0E0,3.504496E3,5.5089336E3,2.8171555E3,0E0,0E0,0E0,0E0,0E0,0E0,0E0,0E0,0E0,0E0,0E0,0E0,0E0,0E0],"parents":[2147483647,0,0,1,1,2,2,3,3,4,4,5,5,6,6,7,7,8,8,9,9,10,10,12,12,13,13,14,14],"right_children":[2,4,6,8,10,12,14,16,18,20,22,-1,24,26,28,-1,-1,-1,-1,-1,-1,-1,-1,-1,-1,-1,-1,-1,-1],"split_conditions":[2.0690525E0,2.0987995E0,8.474365E-1,1.6154857E-1,7.351256E-2,5.7176437E-2,-6.961951E-1,5.2926388E-2,2.7158806E-1,3.9571705E-1,9.597473E-2,3.2812485E1,2.7743273E0,3.9156296E0,2.5668135E0,-5.084992E-1,-2.6554933E-1,2.6378012E0,-2.26672E-1,1.1925812E0,1.4213635E1,2.2191293E0,-1.1232267E-1,5.0457797E0,8.501811E0,1.6091443E0,4.7712893E0,1.1758564E0,-7.096982E-1],"split_indices":[1,51,0,1,0,0,54,1,0,1,0,0,1,1,0,0,0,0,0,0,0,0,0,0,0,0,0,0,0],"split_type":[0,0,0,0,0,0,0,0,0,0,0,0,0,0,0,0,0,0,0,0,0,0,0,0,0,0,0,0,0],"sum_hessian":[1.7243E4,1.6568E4,6.75E2,1.5806E4,7.62E2,1.21E2,5.54E2,8.453E3,7.353E3,1.19E2,6.43E2,2E0,1.19E2,2.06E2,3.48E2,4.278E3,4.175E3,7.19E2,6.634E3,5.3E1,6.6E1,6.9E1,5.74E2,6.1E1,5.8E1,8.7E1,1.19E2,2.49E2,9.9E1],"tree_param":{"num_deleted":"0","num_feature":"78","num_nodes":"29","size_leaf_vector":"1"}},{"base_weights":[1.3390437E-2,-5.4503065E-1,3.6546893E0,4.0474883E-1,-1.0377607E0,3.9216106E1,2.4676626E0,-6.9574904E-1,6.8304076E0,-1.2950058E0,-5.35907E-1,5.4554157E1,2.6231062E1,1.0952816E1,1.0275955E0,-4.0268892E-1,2.7557594E-1,3.9521794E0,1.3074006E0,-6.0733503E-1,-3.684793E-1,4.5941275E-1,-3.65542E-1,2.0865704E1,1.1457495E1,8.031296E0,3.0865238E0,2.7882342E0,6.6282935E0,1.51211135E-2,2.259843E0],"categories":[],"categories_nodes":[],"categories_segments":[],"categories_sizes":[],"default_left":[0,0,0,0,0,0,0,0,0,0,0,0,0,0,0,0,0,0,0,0,0,0,0,0,0,0,0,0,0,0,0],"id":4,"left_children":[1,3,5,7,9,11,13,15,17,19,21,23,25,27,29,-1,-1,-1,-1,-1,-1,-1,-1,-1,-1,-1,-1,-1,-1,-1,-1],"loss_changes":[3.506556E4,6.997732E3,9.669617E4,3.6125586E4,1.2702891E3,1.3307203E4,2.7115348E4,4.554046E3,1.1658359E4,3.143496E2,4.711976E3,5.4421484E3,8.609961E1,5.7453516E3,1.2071265E4,0E0,0E0,0E0,0E0,0E0,0E0,0E0,0E0,0E0,0E0,0E0,0E0,0E0,0E0,0E0,0E0],"parents":[2147483647,0,0,1,1,2,2,3,3,4,4,5,5,6,6,7,7,8,8,9,9,10,10,11,11,12,12,13,13,14,14],"right_children":[2,4,6,8,10,12,14,16,18,20,22,24,26,28,30,-1,-1,-1,-1,-1,-1,-1,-1,-1,-1,-1,-1,-1,-1,-1,-1],"split_conditions":[7.7297145E-1,2.1441163E-1,2.1441163E-1,1.2831572E-1,2.74171E-1,5.921845E-2,7.126634E-1,4.0617924E-2,9.597473E-2,7.6906675E-1,9.1278094E-1,7.5721455E-1,4.2801574E-3,3.0201888E0,3.3386703E0,-4.0268892E-1,2.7557594E-1,3.9521794E0,1.3074006E0,-6.0733503E-1,-3.684793E-1,4.5941275E-1,-3.65542E-1,2.0865704E1,1.1457495E1,8.031296E0,3.0865238E0,2.7882342E0,6.6282935E0,1.51211135E-2,2.259843E0],"split_indices":[1,0,0,1,1,0,0,1,0,7,0,5,13,1,1,0,0,0,0,0,0,0,0,0,0,0,0,0,0,0,0],"split_type":[0,0,0,0,0,0,0,0,0,0,0,0,0,0,0,0,0,0,0,0,0,0,0,0,0,0,0,0,0,0,0],"sum_hessian":[1.7243E4,1.4951E4,2.292E3,5.107E3,9.844E3,7.3E1,2.219E3,4.361E3,7.46E2,6.507E3,3.337E3,3.2E1,4.1E1,3.21E2,1.898E3,3.114E3,1.247E3,2.08E2,5.38E2,5.43E2,5.964E3,8.28E2,2.509E3,1.5E1,1.7E1,3.9E1,2E0,2.81E2,4E1,1.651E3,2.47E2],"tree_param":{"num_deleted":"0","num_feature":"78","num_nodes":"31","size_leaf_vector":"1"}},{"base_weights":[1.2816975E-2,-3.3890286E-1,2.991902E0,5.4734284E-1,-6.2463945E-1,3.85325E1,2.2128358E0,-1.4214511E-1,9.607127E0,-8.3670837E-1,-5.8121625E-3,3.269587E1,2.150473E1,5.0188785E0,-1.5192326E0,-2.1086317E-1,9.012478E-1,6.5609097E0,2.4390934E0,-5.5451673E-1,-2.3471373E-1,9.4235754E-1,-1.7105328E-1,1.0402695E1,4.1646175E0,4.0833488E0,1.1336666E0,-1.1294021E-1,-9.569741E-1],"categories":[],"categories_nodes":[],"categories_segments":[],"categories_sizes":[],"default_left":[0,0,0,0,0,0,0,0,0,0,0,0,0,0,0,0,0,0,0,0,0,0,0,0,0,0,0,0,0],"id":5,"left_children":[1,3,5,7,9,11,13,15,17,19,21,23,-1,25,27,-1,-1,-1,-1,-1,-1,-1,-1,-1,-1,-1,-1,-1,-1],"loss_changes":[1.8069336E4,3.9062046E3,5.033546E4,2.3494873E4,1.530709E3,5.2021562E3,1.8679816E4,6.169873E3,4.639336E3,4.7602588E2,5.2908975E3,8.2228516E2,0E0,1.0794689E4,1.4612435E3,0E0,0E0,0E0,0E0,0E0,0E0,0E0,0E0,0E0,0E0,0E0,0E0,0E0,0E0],"parents":[2147483647,0,0,1,1,2,2,3,3,4,4,5,5,6,6,7,7,8,8,9,9,10,10,11,11,13,13,14,14],"right_children":[2,4,6,8,10,12,14,16,18,20,22,24,-1,26,28,-1,-1,-1,-1,-1,-1,-1,-1,-1,-1,-1,-1,-1,-1],"split_conditions":[9.6159863E-1,1.5519318E-1,8.780667E-2,2.1539809E-1,3.4709862E-1,1.7478017E0,1.6315705E0,7.385077E-2,5.7176437E-2,1.3390791E0,5.738064E-1,1E0,2.150473E1,2.9813427E-1,2.7240489E0,-2.1086317E-1,9.012478E-1,6.5609097E0,2.4390934E0,-5.5451673E-1,-2.3471373E-1,9.4235754E-1,-1.7105328E-1,1.0402695E1,4.1646175E0,4.0833488E0,1.1336666E0,-1.1294021E-1,-9.569741E-1],"split_indices":[1,0,0,1,1,1,0,1,0,6,0,71,0,0,0,0,0,0,0,0,0,0,0,0,0,0,0,0,0],"split_type":[0,0,0,0,0,0,0,0,0,0,0,0,0,0,0,0,0,0,0,0,0,0,0,0,0,0,0,0,0],"sum_hessian":[1.7243E4,1.5423E4,1.82E3,3.76E3,1.1663E4,3.8E1,1.782E3,3.495E3,2.65E2,8.686E3,2.977E3,3.4E1,4E0,1.017E3,7.65E2,2.967E3,5.28E2,2.7E1,2.38E2,4.41E2,8.245E3,4.52E2,2.525E3,3E1,4E0,1.27E2,8.9E2,4.55E2,3.1E2],"tree_param":{"num_deleted":"0","num_feature":"78","num_nodes":"29","size_leaf_vector":"1"}},{"base_weights":[1.1865148E-2,-1.289964E-1,4.9957833E0,4.4546646E-1,-5.3948164E-1,1.1130588E1,2.6450415E0,-8.4625036E-2,7.884029E0,-3.5672122E-1,-1.4887068E0,1.7906923E1,1.0297904E1,4.397974E0,-1.3322784E0,-1.5258734E-1,5.063481E-1,7.0957255E0,1.8414732E0,-2.2473522E-1,1.2450199E-1,-3.794915E-1,-7.60733E-1,2.258209E0,5.464053E0,8.829004E-1,2.6360977E0,-2.955472E-2,-1.429701E0],"categories":[],"categories_nodes":[],"categories_segments":[],"categories_sizes":[],"default_left":[0,0,0,0,0,0,0,0,0,0,0,0,0,0,0,0,0,0,0,0,0,0,0,0,0,0,0,0,0],"id":6,"left_children":[1,3,5,7,9,11,13,15,17,19,21,-1,23,25,27,-1,-1,-1,-1,-1,-1,-1,-1,-1,-1,-1,-1,-1,-1],"loss_changes":[1.2106663E4,3.954985E3,6.8062764E3,2.7563066E4,1.6964578E3,4.6822305E3,2.4042183E3,4.9052686E3,1.26554375E4,2.4846711E3,3.6669897E2,0E0,2.7138662E3,1.5003706E3,4.485455E2,0E0,0E0,0E0,0E0,0E0,0E0,0E0,0E0,0E0,0E0,0E0,0E0,0E0,0E0],"parents":[2147483647,0,0,1,1,2,2,3,3,4,4,5,5,6,6,7,7,8,8,9,9,10,10,12,12,13,13,14,14],"right_children":[2,4,6,8,10,12,14,16,18,20,22,-1,24,26,28,-1,-1,-1,-1,-1,-1,-1,-1,-1,-1,-1,-1,-1,-1],"split_conditions":[2.560468E0,3.267225E-1,1.1700749E0,3.6863846E-1,2.0501835E0,5.7176437E-2,2.1829147E0,9.84677E-2,5.921845E-2,3.0955783E-1,1.2025367E0,1.7906923E1,3.9156296E0,7.8281817E0,5.0070825E0,-1.5258734E-1,5.063481E-1,7.0957255E0,1.8414732E0,-2.2473522E-1,1.2450199E-1,-3.794915E-1,-7.60733E-1,2.258209E0,5.464053E0,8.829004E-1,2.6360977E0,-2.955472E-2,-1.429701E0],"split_indices":[1,0,0,1,0,0,0,1,0,1,1,0,1,1,1,0,0,0,0,0,0,0,0,0,0,0,0,0,0],"split_type":[0,0,0,0,0,0,0,0,0,0,0,0,0,0,0,0,0,0,0,0,0,0,0,0,0,0,0,0,0],"sum_hessian":[1.7243E4,1.677E4,4.73E2,6.989E3,9.781E3,1.3E2,3.43E2,6.525E3,4.64E2,8.203E3,1.578E3,1E0,1.29E2,2.38E2,1.05E2,5.266E3,1.259E3,4.5E1,4.19E2,5.438E3,2.765E3,1.302E3,2.76E2,9.7E1,3.2E1,1.8E2,5.8E1,7.8E1,2.7E1],"tree_param":{"num_deleted":"0","num_feature":"78","num_nodes":"29","size_leaf_vector":"1"}},{"base_weights":[1.0378208E-2,-1.3909636E-1,2.4055023E0,6.7064375E-1,-3.0779693E-1,1.9748915E1,1.764635E0,1.8174227E-1,9.954982E0,-1.5237036E-1,-8.405207E-1,1.3973578E1,4.4818873E0,4.2680783E0,1.598109E-1,-1.3471034E-1,7.692296E-1,7.726406E0,2.5224216E0,-1.4886016E-1,2.1425392E-1,-1.0448233E0,-2.311619E-1,9.839483E-1,3.1022422E0,-1.20740764E-1,1.5054706E0],"categories":[],"categories_nodes":[],"categories_segments":[],"categories_sizes":[],"default_left":[0,0,0,0,0,0,0,0,0,0,0,0,0,0,0,0,0,0,0,0,0,0,0,0,0,0,0],"id":7,"left_children":[1,3,5,7,9,11,13,15,17,19,21,-1,-1,23,25,-1,-1,-1,-1,-1,-1,-1,-1,-1,-1,-1,-1],"loss_changes":[6.1738613E3,2.2175564E3,1.1224471E4,1.2703206E4,1.1121995E3,3.9492754E3,3.9285168E3,3.9984263E3,3.2051543E3,3.0992908E3,5.583198E2,0E0,0E0,2.2586108E3,1.6329015E3,0E0,0E0,0E0,0E0,0E0,0E0,0E0,0E0,0E0,0E0,0E0,0E0],"parents":[2147483647,0,0,1,1,2,2,3,3,4,4,5,5,6,6,7,7,8,8,9,9,10,10,13,13,14,14],"right_children":[2,4,6,8,10,12,14,16,18,20,22,-1,-1,24,26,-1,-1,-1,-1,-1,-1,-1,-1,-1,-1,-1,-1],"split_conditions":[1.5800989E0,1.2047892E-1,2.4095784E-1,3.0955783E-1,1.3865286E0,5.7176437E-2,1.2987219E0,5.2926388E-2,1.1358219E-1,2.0893614E-1,-1.2761707E0,1.3973578E1,4.4818873E0,3.9156296E0,7.8281817E0,-1.3471034E-1,7.692296E-1,7.726406E0,2.5224216E0,-1.4886016E-1,2.1425392E-1,-1.0448233E0,-2.311619E-1,9.839483E-1,3.1022422E0,-1.20740764E-1,1.5054706E0],"split_indices":[1,0,0,1,0,0,0,1,5,1,21,0,0,1,1,0,0,0,0,0,0,0,0,0,0,0,0],"split_type":[0,0,0,0,0,0,0,0,0,0,0,0,0,0,0,0,0,0,0,0,0,0,0,0,0,0,0],"sum_hessian":[1.7243E4,1.6231E4,1.012E3,2.798E3,1.3433E4,3.5E1,9.77E2,2.659E3,1.39E2,1.04E4,3.033E3,4E0,3.1E1,3.81E2,5.96E2,2.103E3,5.56E2,1.1E1,1.28E2,7.446E3,2.954E3,7.7E1,2.956E3,3.29E2,5.2E1,5.35E2,6.1E1],"tree_param":{"num_deleted":"0","num_feature":"78","num_nodes":"27","size_leaf_vector":"1"}},{"base_weights":[9.213194E-3,-6.8527415E-2,2.7598007E0,1.2169682E-1,-5.600067E-1,1.5121036E1,2.0958774E0,-1.0462298E-1,3.0374708E0,-2.2042572E0,-5.043242E-1,1.3124849E1,1.1974168E1,3.3748467E0,-2.2881782E-1,-8.174785E-2,1.5278843E-1,2.6704798E0,4.9630526E-1,-2.1838593E-1,-7.544493E-1,-1.3091347E-1,-5.181693E-1,1.691827E0,4.0261555E0,7.1727157E-1,2.4208882E0,2.5178787E-1,-8.062027E-1],"categories":[],"categories_nodes":[],"categories_segments":[],"categories_sizes":[],"default_left":[0,0,0,0,0,0,0,0,0,0,0,0,0,0,0,0,0,0,0,0,0,0,0,0,0,0,0,0,0],"id":8,"left_children":[1,3,5,7,9,11,13,15,17,19,21,-1,23,25,27,-1,-1,-1,-1,-1,-1,-1,-1,-1,-1,-1,-1,-1,-1],"loss_changes":[3.6875142E3,1.5680101E3,3.8583855E3,7.979797E3,4.2737048E2,1.6382954E3,1.3416917E3,1.1566587E3,7.049773E3,6.831995E1,3.7548486E2,0E0,1.350481E2,1.3249487E3,4.2503766E2,0E0,0E0,0E0,0E0,0E0,0E0,0E0,0E0,0E0,0E0,0E0,0E0,0E0,0E0],"parents":[2147483647,0,0,1,1,2,2,3,3,4,4,5,5,6,6,7,7,8,8,9,9,10,10,12,12,13,13,14,14],"right_children":[2,4,6,8,10,12,14,16,18,20,22,-1,24,26,28,-1,-1,-1,-1,-1,-1,-1,-1,-1,-1,-1,-1,-1,-1],"split_conditions":[2.560468E0,1.0741001E0,2.6750404E-1,5.489574E-1,-1.2761707E0,5.7176437E-2,1.698957E0,1.6154857E-1,2.3074776E-1,2.4740009E-1,4.039107E0,1.3124849E1,1.5522898E0,7.8281817E0,3.1222417E0,-8.174785E-2,1.5278843E-1,2.6704798E0,4.9630526E-1,-2.1838593E-1,-7.544493E-1,-1.3091347E-1,-5.181693E-1,1.691827E0,4.0261555E0,7.1727157E-1,2.4208882E0,2.5178787E-1,-8.062027E-1],"split_indices":[1,0,0,1,21,0,0,1,0,1,0,0,5,1,0,0,0,0,0,0,0,0,0,0,0,0,0,0,0],"split_type":[0,0,0,0,0,0,0,0,0,0,0,0,0,0,0,0,0,0,0,0,0,0,0,0,0,0,0,0,0],"sum_hessian":[1.7243E4,1.677E4,4.73E2,1.2091E4,4.679E3,2.3E1,4.5E2,1.1221E4,8.7E2,1.52E2,4.527E3,1E0,2.2E1,2.9E2,1.6E2,8.812E3,2.409E3,1.65E2,7.05E2,2.7E1,1.25E2,4.29E3,2.37E2,5E0,1.7E1,2.41E2,4.9E1,1.12E2,4.8E1],"tree_param":{"num_deleted":"0","num_feature":"78","num_nodes":"29","size_leaf_vector":"1"}},{"base_weights":[7.7855093E-3,-5.2309975E-2,1.8632886E0,7.256358E-1,-1.4660609E-1,8.837872E0,1.1662949E0,4.5838386E-1,1.3147822E1,-1.0240879E0,-7.665126E-2,1.0837812E1,6.908034E0,2.9476736E0,2.6935336E-1,-1.0135615E-1,8.3789873E-1,7.700628E0,3.2759423E0,-4.4774452E-1,1.2639521E-1,4.1904233E-2,-7.175776E-2,1.4284143E0,4.3123536E0,4.9704823E-1,2.7613285E0,1.8246831E-1,-7.516807E-1],"categories":[],"categories_nodes":[],"categories_segments":[],"categories_sizes":[],"default_left":[0,0,0,0,0,0,0,0,0,0,0,0,0,0,0,0,0,0,0,0,0,0,0,0,0,0,0,0,0],"id":9,"left_children":[1,3,5,7,9,11,13,15,17,19,21,-1,23,25,27,-1,-1,-1,-1,-1,-1,-1,-1,-1,-1,-1,-1,-1,-1],"loss_changes":[1.9229303E3,1.2254661E3,2.6196233E3,5.9896294E3,9.144829E2,2.3308652E3,7.8691785E2,3.2893481E3,7.7978174E2,7.453496E2,4.8528125E2,0E0,6.848706E2,1.3173735E3,3.1090277E2,0E0,0E0,0E0,0E0,0E0,0E0,0E0,0E0,0E0,0E0,0E0,0E0,0E0,0E0],"parents":[2147483647,0,0,1,1,2,2,3,3,4,4,5,5,6,6,7,7,8,8,9,9,10,10,12,12,13,13,14,14],"right_children":[2,4,6,8,10,12,14,16,18,20,22,-1,24,26,28,-1,-1,-1,-1,-1,-1,-1,-1,-1,-1,-1,-1,-1,-1],"split_conditions":[2.3558397E0,8.984868E-2,2.9813427E-1,9.268272E-1,1.4202354E0,9.086575E-1,9.4651824E-1,4.0617924E-2,4.492434E-2,1E0,4.6557954E-1,1.0837812E1,3.3386703E0,7.8281817E0,3.802233E0,-1.0135615E-1,8.3789873E-1,7.700628E0,3.2759423E0,-4.4774452E-1,1.2639521E-1,4.1904233E-2,-7.175776E-2,1.4284143E0,4.3123536E0,4.9704823E-1,2.7613285E0,1.8246831E-1,-7.516807E-1],"split_indices":[1,0,0,1,6,5,5,1,0,66,0,0,1,1,0,0,0,0,0,0,0,0,0,0,0,0,0,0,0],"split_type":[0,0,0,0,0,0,0,0,0,0,0,0,0,0,0,0,0,0,0,0,0,0,0,0,0,0,0,0,0],"sum_hessian":[1.7243E4,1.6703E4,5.4E2,1.805E3,1.4898E4,4.8E1,4.92E2,1.768E3,3.7E1,1.099E3,1.3799E4,2E0,4.6E1,1.64E2,3.28E2,1.319E3,4.49E2,4E0,3.3E1,8.3E2,2.69E2,5.92E3,7.879E3,3.7E1,9E0,1.37E2,2.7E1,2.93E2,3.5E1],"tree_param":{"num_deleted":"0","num_feature":"78","num_nodes":"29","size_leaf_vector":"1"}},{"base_weights":[7.226117E-3,-1.14925385E-1,7.0536095E-1,-7.97151E-1,-3.0923853E-2,6.229938E0,3.3813903E-1,-2.987525E0,-5.847326E-1,5.2087593E-1,-1.2116023E-1,1.0801204E1,4.767027E0,1.391637E0,-2.2986248E-1,-6.207454E-1,-1.4065E0,8.766004E-1,-2.3030664E-1,1.0909005E-1,2.9939973E0,-2.9853676E-2,-4.973004E-1,2.4552712E0,9.299807E0,3.0013108E0,1.2489963E0,3.8418987E-1,4.344482E0,-7.962969E-3,-4.1965014E-1],"categories":[],"categories_nodes":[],"categories_segments":[],"categories_sizes":[],"default_left":[0,0,0,0,0,0,0,0,0,0,0,0,0,0,0,0,0,0,0,0,0,0,0,0,0,0,0,0,0,0,0],"id":10,"left_children":[1,3,5,7,9,11,13,15,17,19,21,23,25,27,29,-1,-1,-1,-1,-1,-1,-1,-1,-1,-1,-1,-1,-1,-1,-1,-1],"loss_changes":[1.4706188E3,8.410848E2,5.2077134E3,7.4688196E2,6.508002E2,1.0184863E3,1.4418376E3,2.1209985E2,9.440806E2,2.7286777E3,3.734704E2,1.7548936E3,3.472522E2,1.2078203E3,3.7216095E2,0E0,0E0,0E0,0E0,0E0,0E0,0E0,0E0,0E0,0E0,0E0,0E0,0E0,0E0,0E0,0E0],"parents":[2147483647,0,0,1,1,2,2,3,3,4,4,5,5,6,6,7,7,8,8,9,9,10,10,11,11,12,12,13,13,14,14],"right_children":[2,4,6,8,10,12,14,16,18,20,22,24,26,28,30,-1,-1,-1,-1,-1,-1,-1,-1,-1,-1,-1,-1,-1,-1,-1,-1],"split_conditions":[6.92351E-1,1.9883296E0,2.5525194E-1,2.4309212E-2,1.0414279E-1,6.8830395E-1,1.2374614E0,1E0,5.7176437E-2,2.7755582E-1,1.7289733E0,1.7478017E0,7.095261E-1,7.8281817E0,3.802233E0,-6.207454E-1,-1.4065E0,8.766004E-1,-2.3030664E-1,1.0909005E-1,2.9939973E0,-2.9853676E-2,-4.973004E-1,2.4552712E0,9.299807E0,3.0013108E0,1.2489963E0,3.8418987E-1,4.344482E0,-7.962969E-3,-4.1965014E-1],"split_indices":[1,6,0,1,0,3,0,67,0,1,51,1,7,1,0,0,0,0,0,0,0,0,0,0,0,0,0,0,0,0,0],"split_type":[0,0,0,0,0,0,0,0,0,0,0,0,0,0,0,0,0,0,0,0,0,0,0,0,0,0,0,0,0,0,0],"sum_hessian":[1.7243E4,1.4676E4,2.567E3,1.608E3,1.3068E4,1.59E2,2.408E3,1.41E2,1.467E3,1.836E3,1.1232E4,3.7E1,1.22E2,8.43E2,1.565E3,9.3E1,4.8E1,7.2E1,1.395E3,1.807E3,2.9E1,1.1077E4,1.55E2,3.4E1,3E0,1.1E1,1.11E2,8.37E2,6E0,1.334E3,2.31E2],"tree_param":{"num_deleted":"0","num_feature":"78","num_nodes":"31","size_leaf_vector":"1"}},{"base_weights":[6.305186E-3,-2.470843E-2,1.552942E0,-2.9482618E-1,1.0868199E-1,6.2726755E0,1.1243988E0,-2.2165108E-1,-2.1868143E0,1.6911199E0,-6.682724E-2,3.596405E0,1.5486267E1,2.72135E0,2.0391224E-1,-3.8322353E-1,-4.7061384E-2,-1.2886641E0,-4.529812E-1,4.436876E-1,3.5514705E0,1.4866044E-1,-5.7716593E-2,1.7836496E0,3.9961925E-1,5.011836E0,1.4080514E0,-2.72385E-1,1.0797286E0,-3.852928E-1,2.520795E-1],"categories":[],"categories_nodes":[],"categories_segments":[],"categories_sizes":[],"default_left":[0,0,0,0,0,0,0,0,0,0,0,0,0,0,0,0,0,0,0,0,0,0,0,0,0,0,0,0,0,0,0],"id":11,"left_children":[1,3,5,7,9,11,13,15,17,19,21,23,25,27,29,-1,-1,-1,-1,-1,-1,-1,-1,-1,-1,-1,-1,-1,-1,-1,-1],"loss_changes":[8.271779E2,6.091742E2,6.786118E2,7.7329236E2,3.143489E3,6.3473083E2,4.5807642E2,3.6788516E2,2.9040332E2,2.4151846E3,7.195505E2,1.14420654E2,5.8325195E-1,3.6642615E2,1.8953888E2,0E0,0E0,0E0,0E0,0E0,0E0,0E0,0E0,0E0,0E0,0E0,0E0,0E0,0E0,0E0,0E0],"parents":[2147483647,0,0,1,1,2,2,3,3,4,4,5,5,6,6,7,7,8,8,9,9,10,10,11,11,12,12,13,13,14,14],"right_children":[2,4,6,8,10,12,14,16,18,20,22,24,26,28,30,-1,-1,-1,-1,-1,-1,-1,-1,-1,-1,-1,-1,-1,-1,-1,-1],"split_conditions":[3.0201888E0,7.385077E-2,3.1242839E-1,2.0987995E0,1.8786544E-1,3.9156296E0,9.4651824E-1,1.4202354E0,9.597473E-2,1.3043892E0,4.9008372E-1,2.6750404E-1,2.9813427E-1,3.218162E-1,-1.7706494E-1,-3.8322353E-1,-4.7061384E-2,-1.2886641E0,-4.529812E-1,4.436876E-1,3.5514705E0,1.4866044E-1,-5.7716593E-2,1.7836496E0,3.9961925E-1,5.011836E0,1.4080514E0,-2.72385E-1,1.0797286E0,-3.852928E-1,2.520795E-1],"split_indices":[1,1,0,51,0,1,5,6,0,1,0,0,0,5,12,0,0,0,0,0,0,0,0,0,0,0,0,0,0,0,0],"split_type":[0,0,0,0,0,0,0,0,0,0,0,0,0,0,0,0,0,0,0,0,0,0,0,0,0,0,0,0,0,0,0],"sum_hessian":[1.7243E4,1.6905E4,3.38E2,5.588E3,1.1317E4,2.7E1,3.11E2,5.381E3,2.07E2,1.129E3,1.0188E4,2.2E1,5E0,1.13E2,1.98E2,3.1E2,5.071E3,4.9E1,1.58E2,1.107E3,2.2E1,1.859E3,8.329E3,1E1,1.2E1,4E0,1E0,2.2E1,9.1E1,5.9E1,1.39E2],"tree_param":{"num_deleted":"0","num_feature":"78","num_nodes":"31","size_leaf_vector":"1"}},{"base_weights":[5.0626355E-3,-8.613279E-2,3.998561E-1,-5.960644E-1,-2.3656096E-2,3.160759E0,2.0232056E-1,-4.7430527E-1,-2.2097764E0,2.91932E-1,-1.0596163E-1,1.3758996E1,2.7399614E0,9.540865E-1,-9.875827E-2,-4.8386744E-1,-1.04641944E-1,-1.920836E-1,-1.3592649E0,-9.772257E-2,3.756186E-1,-2.6612269E-2,-4.570154E-1,1.0570977E0,4.4153423E0,1.5797476E0,3.301273E-1,2.6195714E-1,4.4032187E0,3.30365E-2,-1.7667189E-1],"categories":[],"categories_nodes":[],"categories_segments":[],"categories_sizes":[],"default_left":[0,0,0,0,0,0,0,0,0,0,0,0,0,0,0,0,0,0,0,0,0,0,0,0,0,0,0,0,0,0,0],"id":12,"left_children":[1,3,5,7,9,11,13,15,17,19,21,23,25,27,29,-1,-1,-1,-1,-1,-1,-1,-1,-1,-1,-1,-1,-1,-1,-1,-1],"loss_changes":[6.2087634E2,4.462964E2,1.7641985E3,2.9937622E2,3.2422052E2,9.255984E2,6.838699E2,2.0277155E2,3.8689685E2,1.5316558E3,2.4198233E2,2.6649658E1,8.5972595E2,9.463637E2,2.2100537E2,0E0,0E0,0E0,0E0,0E0,0E0,0E0,0E0,0E0,0E0,0E0,0E0,0E0,0E0,0E0,0E0],"parents":[2147483647,0,0,1,1,2,2,3,3,4,4,5,5,6,6,7,7,8,8,9,9,10,10,11,11,12,12,13,13,14,14],"right_children":[2,4,6,8,10,12,14,16,18,20,22,24,26,28,30,-1,-1,-1,-1,-1,-1,-1,-1,-1,-1,-1,-1,-1,-1,-1,-1],"split_conditions":[5.489574E-1,1.9883296E0,2.5525194E-1,3.899655E0,1.32731E-1,4.492434E-2,1.1312766E0,2.4924636E-2,1E0,2.0001251E-2,4.0578156E0,6.037301E-1,-9.7634387E-1,7.8281817E0,2.5668135E0,-4.8386744E-1,-1.04641944E-1,-1.920836E-1,-1.3592649E0,-9.772257E-2,3.756186E-1,-2.6612269E-2,-4.570154E-1,1.0570977E0,4.4153423E0,1.5797476E0,3.301273E-1,2.6195714E-1,4.4032187E0,3.30365E-2,-1.7667189E-1],"split_indices":[1,6,0,5,0,0,0,1,67,1,6,1,19,1,0,0,0,0,0,0,0,0,0,0,0,0,0,0,0,0,0],"split_type":[0,0,0,0,0,0,0,0,0,0,0,0,0,0,0,0,0,0,0,0,0,0,0,0,0,0,0,0,0,0,0],"sum_hessian":[1.7243E4,1.4008E4,3.235E3,1.528E3,1.248E4,2.15E2,3.02E3,1.422E3,1.06E2,2.581E3,9.899E3,7E0,2.08E2,8.63E2,2.157E3,1.4E2,1.282E3,6.4E1,4.2E1,1.571E3,1.01E3,9.781E3,1.18E2,1E0,6E0,8.1E1,1.27E2,8.59E2,4E0,1.513E3,6.44E2],"tree_param":{"num_deleted":"0","num_feature":"78","num_nodes":"31","size_leaf_vector":"1"}},{"base_weights":[4.0981667E-3,-1.8336064E-1,1.1585475E-1,-1.3442251E-1,-1.3651882E0,4.8735533E0,8.080216E-2,1.16736166E-1,-1.9881712E-1,-3.0473804E0,-9.004073E-1,3.9547043E0,6.3339906E0,5.776615E-1,-1.0618389E-1,-9.461865E-2,2.2288E-1,-8.5409954E-2,-9.345631E-3,-1.1106755E0,-4.4867307E-1,-1.688087E-1,-4.9617192E-1,2.6196425E0,6.9644916E-1,1.6467877E-1,3.7528026E0,-3.887772E-1,-1.8256612E-2],"categories":[],"categories_nodes":[],"categories_segments":[],"categories_sizes":[],"default_left":[0,0,0,0,0,0,0,0,0,0,0,0,0,0,0,0,0,0,0,0,0,0,0,0,0,0,0,0,0],"id":13,"left_children":[1,3,5,7,9,11,13,15,17,19,21,23,-1,25,27,-1,-1,-1,-1,-1,-1,-1,-1,-1,-1,-1,-1,-1,-1],"loss_changes":[3.612788E2,3.7234094E2,1.8013856E3,1.00071E2,1.9740994E2,1.0953317E3,9.965686E2,3.4200165E2,7.0894394E1,5.035565E1,5.047136E1,5.7272156E2,0E0,9.9863763E2,4.2024496E2,0E0,0E0,0E0,0E0,0E0,0E0,0E0,0E0,0E0,0E0,0E0,0E0,0E0,0E0],"parents":[2147483647,0,0,1,1,2,2,3,3,4,4,5,5,6,6,7,7,8,8,9,9,10,10,11,11,13,13,14,14],"right_children":[2,4,6,8,10,12,14,16,18,20,22,24,-1,26,28,-1,-1,-1,-1,-1,-1,-1,-1,-1,-1,-1,-1,-1,-1],"split_conditions":[9.231347E-2,2.0987995E0,5.7176437E-2,8.1680626E-2,9.597473E-2,1.6508725E0,6.0443664E-1,1.23084625E-2,1E0,1.9003392E0,3.2462525E0,4.492434E-2,6.3339906E0,3.9156296E0,-1.2761707E0,-9.461865E-2,2.2288E-1,-8.5409954E-2,-9.345631E-3,-1.1106755E0,-4.4867307E-1,-1.688087E-1,-4.9617192E-1,2.6196425E0,6.9644916E-1,1.6467877E-1,3.7528026E0,-3.887772E-1,-1.8256612E-2],"split_indices":[1,51,0,0,0,1,0,1,64,7,6,0,0,1,21,0,0,0,0,0,0,0,0,0,0,0,0,0,0],"split_type":[0,0,0,0,0,0,0,0,0,0,0,0,0,0,0,0,0,0,0,0,0,0,0,0,0,0,0,0,0],"sum_hessian":[1.7243E4,6.44E3,1.0803E4,6.185E3,2.55E2,7.8E1,1.0725E4,1.262E3,4.923E3,5.4E1,2.01E2,7.5E1,3E0,2.932E3,7.793E3,7.47E2,5.15E2,3.255E3,1.668E3,3.7E1,1.7E1,1.4E2,6.1E1,1.8E1,5.7E1,2.926E3,6E0,2.85E2,7.508E3],"tree_param":{"num_deleted":"0","num_feature":"78","num_nodes":"29","size_leaf_vector":"1"}},{"base_weights":[3.504888E-3,-1.5338575E-2,9.432219E-1,-4.042777E-1,3.7407495E-2,1.1505929E0,-3.0523105E0,-6.159248E-1,3.204676E-1,-6.7930035E-2,1.9065744E-1,1.3069838E0,-2.1477659E0,8.5912293E-1,-5.2639217E0,3.049362E-1,-2.2941646E-1,-8.806108E-3,9.5058E-1,9.8997906E-2,-3.6376152E-2,9.5740247E-1,3.4206837E-2,2.8063148E-1,8.7995857E-1,2.5961527E-1,-1.275806E0,2.8933606E-1,3.4070924E-2,-7.688568E-1,-1.7869394E0],"categories":[],"categories_nodes":[],"categories_segments":[],"categories_sizes":[],"default_left":[0,0,0,0,0,0,0,0,0,0,0,0,0,0,0,0,0,0,0,0,0,0,0,0,0,0,0,0,0,0,0],"id":14,"left_children":[1,3,5,7,9,11,13,15,17,19,21,23,25,27,29,-1,-1,-1,-1,-1,-1,-1,-1,-1,-1,-1,-1,-1,-1,-1,-1],"loss_changes":[3.05363E2,3.4684192E2,2.8439304E2,3.098922E2,2.403495E2,1.6942123E2,1.5158203E2,3.8041846E2,4.5541916E2,1.8727441E2,1.3943215E3,1.8395758E2,9.881684E1,4.401741E-1,5.311096E0,0E0,0E0,0E0,0E0,0E0,0E0,0E0,0E0,0E0,0E0,0E0,0E0,0E0,0E0,0E0,0E0],"parents":[2147483647,0,0,1,1,2,2,3,3,4,4,5,5,6,6,7,7,8,8,9,9,10,10,11,11,12,12,13,13,14,14],"right_children":[2,4,6,8,10,12,14,16,18,20,22,24,26,28,30,-1,-1,-1,-1,-1,-1,-1,-1,-1,-1,-1,-1,-1,-1,-1,-1],"split_conditions":[3.0201888E0,1.9883296E0,1.7706494E0,1E0,1.969354E-1,1.1965284E1,5.0070825E0,5.7176437E-2,4.1848773E-1,7.759659E-2,1.8786544E-1,7.8281817E0,7.8281817E0,1E0,3.5816953E0,3.049362E-1,-2.2941646E-1,-8.806108E-3,9.5058E-1,9.8997906E-2,-3.6376152E-2,9.5740247E-1,3.4206837E-2,2.8063148E-1,8.7995857E-1,2.5961527E-1,-1.275806E0,2.8933606E-1,3.4070924E-2,-7.688568E-1,-1.7869394E0],"split_indices":[1,6,12,66,1,10,1,0,1,0,0,1,1,64,0,0,0,0,0,0,0,0,0,0,0,0,0,0,0,0,0],"split_type":[0,0,0,0,0,0,0,0,0,0,0,0,0,0,0,0,0,0,0,0,0,0,0,0,0,0,0,0,0,0,0],"sum_hessian":[1.7243E4,1.6905E4,3.38E2,2.018E3,1.4887E4,3.22E2,1.6E1,1.562E3,4.56E2,8.823E3,6.064E3,3.08E2,1.4E1,6E0,1E1,1.3E2,1.432E3,4.07E2,4.9E1,1.042E3,7.781E3,1.5E2,5.914E3,2.52E2,5.6E1,6E0,8E0,5E0,1E0,3E0,7E0],"tree_param":{"num_deleted":"0","num_feature":"78","num_nodes":"31","size_leaf_vector":"1"}},{"base_weights":[2.4524664E-3,-5.3541027E-2,2.1173517E-1,-2.6066279E-2,-5.416082E-1,1.7932887E-1,9.239296E0,5.0948516E-2,-1.8961369E-1,8.486658E-1,-8.2152843E-1,7.018715E-1,-9.263479E-2,3.1041088E0,-6.0802436E-1,-2.8385038E-2,1.5938458E-1,-1.0653646E-1,-3.740256E-3,-2.478061E-1,6.846381E-1,-6.699706E-2,-3.9036345E-1,1.985615E-1,3.1396387E0,4.160014E-2,-1.2541288E-1],"categories":[],"categories_nodes":[],"categories_segments":[],"categories_sizes":[],"default_left":[0,0,0,0,0,0,0,0,0,0,0,0,0,0,0,0,0,0,0,0,0,0,0,0,0,0,0],"id":15,"left_children":[1,3,5,7,9,11,13,15,17,19,21,23,25,-1,-1,-1,-1,-1,-1,-1,-1,-1,-1,-1,-1,-1,-1],"loss_changes":[2.0208463E2,1.8242247E2,1.0632241E3,1.6225317E2,2.828424E2,5.1564954E2,1.8320776E2,6.124085E2,1.2090744E2,2.9475797E2,1.7302649E2,4.781266E2,1.7972156E2,0E0,0E0,0E0,0E0,0E0,0E0,0E0,0E0,0E0,0E0,0E0,0E0,0E0,0E0],"parents":[2147483647,0,0,1,1,2,2,3,3,4,4,5,5,6,6,7,7,8,8,9,9,10,10,11,11,12,12],"right_children":[2,4,6,8,10,12,14,16,18,20,22,24,26,-1,-1,-1,-1,-1,-1,-1,-1,-1,-1,-1,-1,-1,-1],"split_conditions":[4.852611E-1,1.6310008E0,3.9360812E0,6.881592E-1,7.555458E-2,1.1435287E0,1.2864698E-1,1.0339108E-1,1E0,8.923635E-2,7.5821996E-2,7.8281817E0,1.1569954E0,3.1041088E0,-6.0802436E-1,-2.8385038E-2,1.5938458E-1,-1.0653646E-1,-3.740256E-3,-2.478061E-1,6.846381E-1,-6.699706E-2,-3.9036345E-1,1.985615E-1,3.1396387E0,4.160014E-2,-1.2541288E-1],"split_indices":[1,56,6,0,0,0,0,1,64,1,15,1,1,0,0,0,0,0,0,0,0,0,0,0,0,0,0],"split_type":[0,0,0,0,0,0,0,0,0,0,0,0,0,0,0,0,0,0,0,0,0,0,0,0,0,0,0],"sum_hessian":[1.7243E4,1.3604E4,3.639E3,1.288E4,7.24E2,3.627E3,1.2E1,8.757E3,4.123E3,1.21E2,6.03E2,1.241E3,2.386E3,1.1E1,1E0,6.721E3,2.036E3,2.131E3,1.992E3,5.6E1,6.5E1,2.69E2,3.34E2,1.237E3,4E0,1.395E3,9.91E2],"tree_param":{"num_deleted":"0","num_feature":"78","num_nodes":"27","size_leaf_vector":"1"}},{"base_weights":[2.0501972E-3,-2.5835888E-2,4.1902396E-1,-4.765329E-3,-1.0153878E0,5.850065E0,2.5310743E-1,-3.3915598E-2,6.49676E-1,2.7403164E0,-1.1339018E0,4.432172E0,1.4667273E1,2.165764E0,1.2261852E-1,-1.14540584E-1,2.837929E-3,3.9311392E0,1.6115308E-1,-2.1541514E0,-2.658789E-1,1.4882845E0,2.705571E-1,5.5354066E0,4.972538E-1,-5.464513E-1,1.2466719E0,8.022625E-2,-2.8896224E-1],"categories":[],"categories_nodes":[],"categories_segments":[],"categories_sizes":[],"default_left":[0,0,0,0,0,0,0,0,0,0,0,0,0,0,0,0,0,0,0,0,0,0,0,0,0,0,0,0,0],"id":16,"left_children":[1,3,5,7,9,11,13,15,17,-1,19,21,23,25,27,-1,-1,-1,-1,-1,-1,-1,-1,-1,-1,-1,-1,-1,-1],"loss_changes":[2.0052002E2,3.370212E2,9.726077E2,3.01975E2,4.1573196E2,3.350515E2,2.6179398E2,2.2867285E2,9.3868823E2,0E0,4.937592E2,4.966156E1,1.6633661E2,5.3914075E2,1.54972E2,0E0,0E0,0E0,0E0,0E0,0E0,0E0,0E0,0E0,0E0,0E0,0E0,0E0,0E0],"parents":[2147483647,0,0,1,1,2,2,3,3,4,4,5,5,6,6,7,7,8,8,10,10,11,11,12,12,13,13,14,14],"right_children":[2,4,6,8,10,12,14,16,18,-1,20,22,24,26,28,-1,-1,-1,-1,-1,-1,-1,-1,-1,-1,-1,-1,-1,-1],"split_conditions":[1.4831697E0,1.2025367E0,2.3074776E-1,8.5020703E-1,4.2882327E-2,2.560468E0,-1.6870468E0,1.9883296E0,5.3092405E-2,2.7403164E0,6.9428526E-2,1.7037327E0,2.5237813E0,-7.026387E-1,3.2508888E0,-1.14540584E-1,2.837929E-3,3.9311392E0,1.6115308E-1,-2.1541514E0,-2.658789E-1,1.4882845E0,2.705571E-1,5.5354066E0,4.972538E-1,-5.464513E-1,1.2466719E0,8.022625E-2,-2.8896224E-1],"split_indices":[1,1,0,1,0,1,53,6,0,0,0,5,3,12,0,0,0,0,0,0,0,0,0,0,0,0,0,0,0],"split_type":[0,0,0,0,0,0,0,0,0,0,0,0,0,0,0,0,0,0,0,0,0,0,0,0,0,0,0,0,0],"sum_hessian":[1.7243E4,1.6163E4,1.08E3,1.5827E4,3.36E2,3.1E1,1.049E3,1.5153E4,6.74E2,3E0,3.33E2,2.8E1,3E0,6.6E1,9.83E2,1.679E3,1.3474E4,5E0,6.69E2,1.2E1,3.21E2,2.4E1,4E0,2E0,1E0,2.2E1,4.4E1,8.68E2,1.15E2],"tree_param":{"num_deleted":"0","num_feature":"78","num_nodes":"29","size_leaf_vector":"1"}},{"base_weights":[2.1648973E-3,2.5052493E-2,-3.6419678E-1,1.1736425E-2,9.432941E-1,-3.1679803E-1,-2.8297215E0,-2.115107E-1,4.6202704E-2,5.938466E0,6.196608E-1,-4.00561E-1,7.6372373E-1,-1.0025861E0,-3.8120017E0,-4.581464E-2,-3.6262757E-1,6.1247194E-1,6.2946216E-3,2.0213854E0,6.765799E-1,7.694563E-2,8.44161E-1,-9.002341E-2,-2.5546396E-1,3.2038876E-1,-1.7189315E-1,1.7576301E-1,-6.218518E-1,-1.3021312E0,-6.612314E-1],"categories":[],"categories_nodes":[],"categories_segments":[],"categories_sizes":[],"default_left":[0,0,0,0,0,0,0,0,0,0,0,0,0,0,0,0,0,0,0,0,0,0,0,0,0,0,0,0,0,0,0],"id":17,"left_children":[1,3,5,7,9,11,13,15,17,19,21,23,25,27,29,-1,-1,-1,-1,-1,-1,-1,-1,-1,-1,-1,-1,-1,-1,-1,-1],"loss_changes":[1.4460246E2,1.9845135E2,1.1760243E2,1.2312174E2,3.7137234E2,9.0451614E1,3.0278564E1,1.2529096E2,6.975051E2,2.6029419E1,1.7379556E2,4.166211E1,2.9892601E1,1.4814886E1,6.292572E-1,0E0,0E0,0E0,0E0,0E0,0E0,0E0,0E0,0E0,0E0,0E0,0E0,0E0,0E0,0E0,0E0],"parents":[2147483647,0,0,1,1,2,2,3,3,4,4,5,5,6,6,7,7,8,8,9,9,10,10,11,11,12,12,13,13,14,14],"right_children":[2,4,6,8,10,12,14,16,18,20,22,24,26,28,30,-1,-1,-1,-1,-1,-1,-1,-1,-1,-1,-1,-1,-1,-1,-1,-1],"split_conditions":[2.5668135E0,3.3386703E0,5.0070825E0,2.4309212E-2,3.1242839E-1,2.1958296E0,2.0121017E-1,1.6299719E0,5.7176437E-2,1E0,1.9876883E0,1.2025367E0,4.841619E0,-1.1414559E0,3.2868307E0,-4.581464E-2,-3.6262757E-1,6.1247194E-1,6.2946216E-3,2.0213854E0,6.765799E-1,7.694563E-2,8.44161E-1,-9.002341E-2,-2.5546396E-1,3.2038876E-1,-1.7189315E-1,1.7576301E-1,-6.218518E-1,-1.3021312E0,-6.612314E-1],"split_indices":[0,1,1,1,0,1,12,51,0,73,5,1,0,19,6,0,0,0,0,0,0,0,0,0,0,0,0,0,0,0,0],"split_type":[0,0,0,0,0,0,0,0,0,0,0,0,0,0,0,0,0,0,0,0,0,0,0,0,0,0,0,0,0,0,0],"sum_hessian":[1.7243E4,1.623E4,1.013E3,1.5999E4,2.31E2,9.95E2,1.8E1,2.139E3,1.386E4,1.3E1,2.18E2,9.24E2,7.1E1,7E0,1.1E1,2.021E3,1.18E2,1.72E2,1.3688E4,1E1,3E0,1.88E2,3E1,7.57E2,1.67E2,5.8E1,1.3E1,3E0,4E0,7E0,4E0],"tree_param":{"num_deleted":"0","num_feature":"78","num_nodes":"31","size_leaf_vector":"1"}},{"base_weights":[1.5863525E-3,1.5291214E-1,-4.8571397E-2,1.3723995E-1,1.3565933E1,-7.023546E-1,-5.5879047E-3,-1.3956483E-1,4.696477E-1,1.6221848E0,5.160782E0,-2.430776E-1,-1.2106746E0,7.63799E-2,-1.1135575E-1,-3.2856096E-2,-3.726529E-1,7.089541E-1,1.14928655E-1,-3.2330178E-2,-2.2398598E-1,-5.659039E-1,4.3464344E-2,3.220343E-2,-1.0011754E-1,-6.844402E-2,-1.2676535E-3],"categories":[],"categories_nodes":[],"categories_segments":[],"categories_sizes":[],"default_left":[0,0,0,0,0,0,0,0,0,0,0,0,0,0,0,0,0,0,0,0,0,0,0,0,0,0,0],"id":18,"left_children":[1,3,5,7,9,11,13,15,17,-1,-1,19,21,23,25,-1,-1,-1,-1,-1,-1,-1,-1,-1,-1,-1,-1],"loss_changes":[1.3089217E2,9.0057574E2,3.639717E2,3.9470523E2,5.5332397E1,1.8623999E2,1.0537833E2,7.7415245E1,3.185152E2,0E0,0E0,2.860416E1,3.4740332E2,8.6997475E1,6.639939E1,0E0,0E0,0E0,0E0,0E0,0E0,0E0,0E0,0E0,0E0,0E0,0E0],"parents":[2147483647,0,0,1,1,2,2,3,3,4,4,5,5,6,6,7,7,8,8,11,11,12,12,13,13,14,14],"right_children":[2,4,6,8,10,12,14,16,18,-1,-1,20,22,24,26,-1,-1,-1,-1,-1,-1,-1,-1,-1,-1,-1,-1],"split_conditions":[1.7357132E-1,1.7478017E0,-1.2761707E0,2.6463194E-2,5.513442E-2,2.4740009E-1,1E0,2.0987995E0,5.105039E-2,1.6221848E0,5.160782E0,1.2642431E0,1.4831697E0,1.7077897E0,2.000125E-1,-3.2856096E-2,-3.726529E-1,7.089541E-1,1.14928655E-1,-3.2330178E-2,-2.2398598E-1,-5.659039E-1,4.3464344E-2,3.220343E-2,-1.0011754E-1,-6.844402E-2,-1.2676535E-3],"split_indices":[0,1,21,1,0,1,65,51,0,0,0,47,1,51,1,0,0,0,0,0,0,0,0,0,0,0,0],"split_type":[0,0,0,0,0,0,0,0,0,0,0,0,0,0,0,0,0,0,0,0,0,0,0,0,0,0,0],"sum_hessian":[1.7243E4,4.292E3,1.2951E4,4.288E3,4E0,7.98E2,1.2153E4,2.34E3,1.948E3,2E0,2E0,4.2E2,3.78E2,6.847E3,5.306E3,2.279E3,6.1E1,8.4E1,1.864E3,3.32E2,8.8E1,2.52E2,1.26E2,6.367E3,4.8E2,2.538E3,2.768E3],"tree_param":{"num_deleted":"0","num_feature":"78","num_nodes":"27","size_leaf_vector":"1"}},{"base_weights":[1.474903E-3,-2.0253363E-1,3.3249874E-2,-2.7475532E-2,-1.0786577E0,7.501505E-2,-1.346933E-1,2.4894954E-1,-3.4590146E-1,-1.2316039E0,1.0852743E1,-1.2325244E-2,3.4124145E-1,1.8821259E0,-1.462465E-1,1.3801504E-2,1.2288616E0,-3.0382487E-1,-4.0244043E-2,-6.3841784E-1,1.0187617E-1,1.6541188E0,4.8313203E0,4.0792204E-2,-2.6695458E-2,7.802622E-1,8.875586E-2,-3.074465E-1,1.8543934E0,-1.9948734E-2,-1.347263E-1],"categories":[],"categories_nodes":[],"categories_segments":[],"categories_sizes":[],"default_left":[0,0,0,0,0,0,0,0,0,0,0,0,0,0,0,0,0,0,0,0,0,0,0,0,0,0,0,0,0,0,0],"id":19,"left_children":[1,3,5,7,9,11,13,15,17,19,21,23,25,27,29,-1,-1,-1,-1,-1,-1,-1,-1,-1,-1,-1,-1,-1,-1,-1,-1],"loss_changes":[1.11788635E2,3.5640836E2,1.0466863E2,1.7067062E2,7.195875E2,2.7786908E2,6.952492E1,8.102607E2,1.2709272E2,5.401794E2,5.139807E1,1.023178E2,3.01992E2,2.1879233E2,7.136286E1,0E0,0E0,0E0,0E0,0E0,0E0,0E0,0E0,0E0,0E0,0E0,0E0,0E0,0E0,0E0,0E0],"parents":[2147483647,0,0,1,1,2,2,3,3,4,4,5,5,6,6,7,7,8,8,9,9,10,10,11,11,12,12,13,13,14,14],"right_children":[2,4,6,8,10,12,14,16,18,20,22,24,26,28,30,-1,-1,-1,-1,-1,-1,-1,-1,-1,-1,-1,-1,-1,-1,-1,-1],"split_conditions":[6.038162E-4,1E0,1.4784193E0,3.4305862E-1,1.7478017E0,2.2524486E-1,-5.378018E0,4.7756833E-1,-9.7634387E-1,-1.050821E0,2.1958296E0,1.6336125E-1,1.6744527E-1,7.8281817E0,1.1569954E0,1.3801504E-2,1.2288616E0,-3.0382487E-1,-4.0244043E-2,-6.3841784E-1,1.0187617E-1,1.6541188E0,4.8313203E0,4.0792204E-2,-2.6695458E-2,7.802622E-1,8.875586E-2,-3.074465E-1,1.8543934E0,-1.9948734E-2,-1.347263E-1],"split_indices":[11,67,0,0,1,1,13,1,19,25,1,0,0,1,1,0,0,0,0,0,0,0,0,0,0,0,0,0,0,0,0],"split_type":[0,0,0,0,0,0,0,0,0,0,0,0,0,0,0,0,0,0,0,0,0,0,0,0,0,0,0,0,0,0,0],"sum_hessian":[1.7243E4,2.323E3,1.492E4,1.937E3,3.86E2,1.1949E4,2.971E3,1.037E3,9E2,3.82E2,4E0,8.998E3,2.951E3,1.6E1,2.955E3,9.86E2,5.1E1,2.16E2,6.84E2,2.43E2,1.39E2,3E0,1E0,3.066E3,5.932E3,5.7E1,2.894E3,1E1,6E0,2.34E3,6.15E2],"tree_param":{"num_deleted":"0","num_feature":"78","num_nodes":"31","size_leaf_vector":"1"}}]},"name":"gbtree"},"learner_model_param":{"base_score":"4.607609E0","boost_from_average":"1","num_class":"0","num_feature":"78","num_target":"1"},"objective":{"name":"reg:squarederror","reg_loss_param":{"scale_pos_weight":"1"}}},"version":[2,1,4]}