{"learner":{"attributes":{"scikit_learn":"{\"_estimator_type\": \"regressor\"}"},"feature_names":[],"feature_types":[],"gradient_booster":{"model":{"gbtree_model_param":{"num_parallel_tree":"1","num_trees":"20"},"iteration_indptr":[0,1,2,3,4,5,6,7,8,9,10,11,12,13,14,15,16,17,18,19,20],"tree_info":[0,0,0,0,0,0,0,0,0,0,0,0,0,0,0,0,0,0,0,0],"trees":[{"base_weights":[3.3851652E-8,-1.5002311E0,1.5931122E1,4.92551E0,-2.220846E0,5.3691113E1,1.2723502E1,8.955881E-1,1.9583513E1,-2.66997E0,2.1772923E-2,5.416844E1,7.584361E0,-2.9877558E-1,1.2580652E0,3.0033514E0,2.3760628E1,-8.509543E-1,-2.3560677E-2,4.4144096E0,-4.5106432E-1,1.1177901E1,1.967437E1,1.4268038E0,9.514151E0],"categories":[],"categories_nodes":[],"categories_segments":[],"categories_sizes":[],"default_left":[0,0,0,0,0,0,0,0,0,0,0,0,0,0,0,0,0,0,0,0,0,0,0,0,0],"id":0,"left_children":[1,3,5,7,9,-1,11,13,15,17,19,21,23,-1,-1,-1,-1,-1,-1,-1,-1,-1,-1,-1,-1],"loss_changes":[4.184954E5,7.411257E4,7.858353E5,9.532242E4,1.4493867E4,0E0,3.1460338E5,7.9078726E3,1.97807E5,5.1740938E3,5.385436E4,2.9011562E4,8.972988E4,0E0,0E0,0E0,0E0,0E0,0E0,0E0,0E0,0E0,0E0,0E0,0E0],"parents":[2147483647,0,0,1,1,2,2,3,3,4,4,6,6,7,7,8,8,9,9,10,10,11,11,12,12],"right_children":[2,4,6,8,10,-1,12,14,16,18,20,22,24,-1,-1,-1,-1,-1,-1,-1,-1,-1,-1,-1,-1],"split_conditions":[1.1850244E0,1.7958254E0,8.5986E-2,1E0,4.3038505E-1,5.3691113E1,3.5194272E-1,2.718059E-1,4.8962083E-1,1.7537156E0,3.9793524E-1,2.0806572E0,4.988456E0,-2.9877558E-1,1.2580652E0,3.0033514E0,2.3760628E1,-8.509543E-1,-2.3560677E-2,4.4144096E0,-4.5106432E-1,1.1177901E1,1.967437E1,1.4268038E0,9.514151E0],"split_indices":[1,6,0,67,1,0,0,1,1,51,0,1,1,0,0,0,0,0,0,0,0,0,0,0,0],"split_type":[0,0,0,0,0,0,0,0,0,0,0,0,0,0,0,0,0,0,0,0,0,0,0,0,0],"sum_hessian":[1.7508E4,1.6002E4,1.506E3,1.613E3,1.4389E4,2.8E1,1.478E3,1.266E3,3.47E2,1.1988E4,2.401E3,1.62E2,1.316E3,8.05E2,4.61E2,3E2,4.7E1,1.1264E4,7.24E2,2.25E2,2.176E3,6.7E1,9.5E1,1.179E3,1.37E2],"tree_param":{"num_deleted":"0","num_feature":"78","num_nodes":"25","size_leaf_vector":"1"}},{"base_weights":[7.2132004E-3,-1.0482365E0,1.1215145E1,3.4650335E0,-1.5543774E0,3.881874E1,8.971717E0,6.276689E-1,1.3785367E1,-1.7876213E0,9.010622E-1,3.6646328E1,5.0143294E0,-1.4529337E-1,1.4091513E0,6.5836376E-1,1.2515456E1,-5.602485E-1,9.419912E-1,3.2514458E0,-2.1846034E-1,8.927546E0,1.624809E1,1.0222782E0,9.806454E0],"categories":[],"categories_nodes":[],"categories_segments":[],"categories_sizes":[],"default_left":[0,0,0,0,0,0,0,0,0,0,0,0,0,0,0,0,0,0,0,0,0,0,0,0,0],"id":1,"left_children":[1,3,5,7,9,-1,11,13,15,17,19,21,23,-1,-1,-1,-1,-1,-1,-1,-1,-1,-1,-1,-1],"loss_changes":[2.0713286E5,3.656186E4,3.983897E5,4.7253375E4,8.242992E3,0E0,1.6190462E5,5.73571E3,1.1257844E5,5.1783594E3,2.0229371E4,2.0705453E4,5.7514676E4,0E0,0E0,0E0,0E0,0E0,0E0,0E0,0E0,0E0,0E0,0E0,0E0],"parents":[2147483647,0,0,1,1,2,2,3,3,4,4,6,6,7,7,8,8,9,9,10,10,11,11,12,12],"right_children":[2,4,6,8,10,-1,12,14,16,18,20,22,24,-1,-1,-1,-1,-1,-1,-1,-1,-1,-1,-1,-1],"split_conditions":[1.1850244E0,1.7958254E0,7.1988285E-2,1E0,6.3184845E-1,3.881874E1,4.3392938E-1,1.6501805E0,2.986471E-1,4.380062E0,6.099007E-1,2.7686563E0,7.8148055E0,-1.4529337E-1,1.4091513E0,6.5836376E-1,1.2515456E1,-5.602485E-1,9.419912E-1,3.2514458E0,-2.1846034E-1,8.927546E0,1.624809E1,1.0222782E0,9.806454E0],"split_indices":[1,6,0,67,1,0,0,18,1,6,0,1,1,0,0,0,0,0,0,0,0,0,0,0,0],"split_type":[0,0,0,0,0,0,0,0,0,0,0,0,0,0,0,0,0,0,0,0,0,0,0,0,0],"sum_hessian":[1.7508E4,1.6002E4,1.506E3,1.613E3,1.4389E4,2.7E1,1.479E3,1.266E3,3.47E2,1.3141E4,1.248E3,1.84E2,1.295E3,9.95E2,2.71E2,2.46E2,1.01E2,1.2932E4,2.09E2,1.75E2,1.073E3,1.34E2,5E1,1.225E3,7E1],"tree_param":{"num_deleted":"0","num_feature":"78","num_nodes":"25","size_leaf_vector":"1"}},{"base_weights":[1.0342313E-2,-5.797025E-1,1.1002892E1,1.0351872E1,-8.513382E-1,3.3137173E1,6.008345E0,2.516195E0,6.562143E1,2.3732195E0,-1.1008571E0,3.957313E1,2.9843401E1,1.5160376E1,2.6846466E0,4.450731E0,7.476575E-2,2.4255207E1,6.205629E0,-1.6692056E-1,2.7016218E0,-1.9218837E-1,-5.988457E-1,7.64485E0,1.184615E1,1.7579118E0,6.3693743E0,1.7394973E0,-4.5447162E-1],"categories":[],"categories_nodes":[],"categories_segments":[],"categories_sizes":[],"default_left":[0,0,0,0,0,0,0,0,0,0,0,0,0,0,0,0,0,0,0,0,0,0,0,0,0,0,0,0,0],"id":2,"left_children":[1,3,5,7,9,11,13,15,17,19,21,-1,23,25,27,-1,-1,-1,-1,-1,-1,-1,-1,-1,-1,-1,-1,-1,-1],"loss_changes":[1.1357145E5,4.9354402E4,9.841211E4,1.7436388E5,1.3049813E4,4.941853E4,2.2134453E4,9.882877E3,3.2544672E4,2.2640719E4,6.2007617E3,0E0,5.722125E3,1.0829445E4,7.0175474E3,0E0,0E0,0E0,0E0,0E0,0E0,0E0,0E0,0E0,0E0,0E0,0E0,0E0,0E0],"parents":[2147483647,0,0,1,1,2,2,3,3,4,4,5,5,6,6,7,7,8,8,9,9,10,10,12,12,13,13,14,14],"right_children":[2,4,6,8,10,12,14,16,18,20,22,-1,24,26,28,-1,-1,-1,-1,-1,-1,-1,-1,-1,-1,-1,-1,-1,-1],"split_conditions":[1.779542E0,-3.2111876E0,7.938708E-1,7.540223E-1,-1.2981201E0,5.7990562E-2,-6.437237E-1,7.598763E-2,6.398959E-2,2.4619876E-1,1E0,3.957313E1,2.9932587E0,3.87254E0,1.9456834E0,4.450731E0,7.476575E-2,2.4255207E1,6.205629E0,-1.6692056E-1,2.7016218E0,-1.9218837E-1,-5.988457E-1,7.64485E0,1.184615E1,1.7579118E0,6.3693743E0,1.7394973E0,-4.5447162E-1],"split_indices":[1,55,0,1,21,0,33,0,0,1,64,0,1,1,0,0,0,0,0,0,0,0,0,0,0,0,0,0,0],"split_type":[0,0,0,0,0,0,0,0,0,0,0,0,0,0,0,0,0,0,0,0,0,0,0,0,0,0,0,0,0],"sum_hessian":[1.7508E4,1.6617E4,8.91E2,4.02E2,1.6215E4,1.63E2,7.28E2,3.53E2,4.9E1,1.164E3,1.5051E4,4E0,1.59E2,1.93E2,5.35E2,5.4E1,2.99E2,3.6E1,1.3E1,8.08E2,3.56E2,9.942E3,5.109E3,1.12E2,4.7E1,7.7E1,1.16E2,3.07E2,2.28E2],"tree_param":{"num_deleted":"0","num_feature":"78","num_nodes":"29","size_leaf_vector":"1"}},{"base_weights":[1.3248259E-2,-3.5120097E-1,8.937726E0,7.7157507E0,-5.5016345E-1,2.7983215E1,5.9458466E0,2.9134037E0,6.0032143E1,-1.3347086E0,3.3556002E-1,3.3162983E1,2.4953947E1,9.729986E0,5.3773874E-1,2.7077782E-1,6.8630056E0,1.8648634E1,-1.5385255E0,-5.227291E-1,-2.7207452E-1,2.8701303E0,-2.0290378E-1,6.9636483E0,1.2761812E1,2.2936397E0,6.6252613E0,3.9346578E0,1.428446E-3],"categories":[],"categories_nodes":[],"categories_segments":[],"categories_sizes":[],"default_left":[0,0,0,0,0,0,0,0,0,0,0,0,0,0,0,0,0,0,0,0,0,0,0,0,0,0,0,0,0],"id":3,"left_children":[1,3,5,7,9,11,13,15,17,19,21,-1,23,25,27,-1,-1,-1,-1,-1,-1,-1,-1,-1,-1,-1,-1,-1,-1],"loss_changes":[5.6951496E4,2.7005502E4,3.8980117E4,1.0157791E5,1.1409848E4,2.0500484E4,1.2171465E4,1.4912319E4,5.0376562E3,1.5171016E3,7.205708E4,0E0,1.7999102E3,8.84457E3,1.6490413E3,0E0,0E0,0E0,0E0,0E0,0E0,0E0,0E0,0E0,0E0,0E0,0E0,0E0,0E0],"parents":[2147483647,0,0,1,1,2,2,3,3,4,4,5,5,6,6,7,7,8,8,9,9,10,10,12,12,13,13,14,14],"right_children":[2,4,6,8,10,12,14,16,18,20,22,-1,24,26,28,-1,-1,-1,-1,-1,-1,-1,-1,-1,-1,-1,-1,-1,-1],"split_conditions":[2.0806572E0,-3.2111876E0,3.2794663E-1,9.99604E-1,1.6197287E-1,5.5990886E-2,1.6697283E0,5.6459117E-1,7.1988285E-2,5.3682435E-2,2.6795638E-1,3.3162983E1,3.87254E0,7.8148055E0,-1.8413403E0,2.7077782E-1,6.8630056E0,1.8648634E1,-1.5385255E0,-5.227291E-1,-2.7207452E-1,2.8701303E0,-2.0290378E-1,6.9636483E0,1.2761812E1,2.2936397E0,6.6252613E0,3.9346578E0,1.428446E-3],"split_indices":[1,55,0,1,1,0,0,1,0,1,0,0,1,1,16,0,0,0,0,0,0,0,0,0,0,0,0,0,0],"split_type":[0,0,0,0,0,0,0,0,0,0,0,0,0,0,0,0,0,0,0,0,0,0,0,0,0,0,0,0,0],"sum_hessian":[1.7508E4,1.6822E4,6.86E2,4.04E2,1.6418E4,9.2E1,5.94E2,3.71E2,3.3E1,8.706E3,7.712E3,2E0,9E1,3.49E2,2.45E2,3.38E2,3.3E1,3.2E1,1E0,4.456E3,4.25E3,7.61E2,6.951E3,8.4E1,6E0,3E2,4.9E1,9E0,2.36E2],"tree_param":{"num_deleted":"0","num_feature":"78","num_nodes":"29","size_leaf_vector":"1"}},{"base_weights":[1.4520182E-2,-5.588765E-1,3.404867E0,3.6807603E-1,-1.0208132E0,2.237445E1,1.4643462E0,-7.078247E-1,7.084101E0,-1.2701343E0,-4.4310805E-1,5.2131256E1,1.7255114E1,4.0657725E0,-1.2164382E0,-3.965234E-1,2.6910514E-1,4.2835565E0,1.2750477E0,-2.8903478E-1,-4.2688227E-1,5.8642864E-1,-3.531383E-1,1.9980907E1,1.067019E1,5.779894E0,3.063756E0,8.504854E-1,3.5051768E0,-2.4476966E-2,-7.7342933E-1],"categories":[],"categories_nodes":[],"categories_segments":[],"categories_sizes":[],"default_left":[0,0,0,0,0,0,0,0,0,0,0,0,0,0,0,0,0,0,0,0,0,0,0,0,0,0,0,0,0,0,0],"id":4,"left_children":[1,3,5,7,9,11,13,15,17,19,21,23,25,27,29,-1,-1,-1,-1,-1,-1,-1,-1,-1,-1,-1,-1,-1,-1,-1,-1],"loss_changes":[3.4039637E4,6.413428E3,9.3209164E4,3.6003832E4,1.4392012E3,3.489922E4,1.6037855E4,4.23281E3,1.3966652E4,3.2583105E2,5.3089526E3,5.781242E3,2.664375E3,1.0909346E4,1.7505884E3,0E0,0E0,0E0,0E0,0E0,0E0,0E0,0E0,0E0,0E0,0E0,0E0,0E0,0E0,0E0,0E0],"parents":[2147483647,0,0,1,1,2,2,3,3,4,4,5,5,6,6,7,7,8,8,9,9,10,10,11,11,12,12,13,13,14,14],"right_children":[2,4,6,8,10,12,14,16,18,20,22,24,26,28,30,-1,-1,-1,-1,-1,-1,-1,-1,-1,-1,-1,-1,-1,-1,-1,-1],"split_conditions":[7.370537E-1,2.039668E-1,2.919525E-1,1.2217382E-1,2.986471E-1,5.7990562E-2,1.6057386E0,4.072461E-2,8.798568E-2,3.919362E-1,8.158672E-1,7.5856704E-1,-5.6763524E-1,3.3094914E0,2.5735812E0,-3.965234E-1,2.6910514E-1,4.2835565E0,1.2750477E0,-2.8903478E-1,-4.2688227E-1,5.8642864E-1,-3.531383E-1,1.9980907E1,1.067019E1,5.779894E0,3.063756E0,8.504854E-1,3.5051768E0,-2.4476966E-2,-7.7342933E-1],"split_indices":[1,0,0,1,1,0,0,1,0,0,0,5,63,1,0,0,0,0,0,0,0,0,0,0,0,0,0,0,0,0,0],"split_type":[0,0,0,0,0,0,0,0,0,0,0,0,0,0,0,0,0,0,0,0,0,0,0,0,0,0,0,0,0,0,0],"sum_hessian":[1.7508E4,1.4976E4,2.532E3,4.981E3,9.995E3,2.34E2,2.298E3,4.294E3,6.87E2,6.981E3,3.014E3,3.3E1,2.01E2,1.166E3,1.132E3,3.106E3,1.188E3,1.93E2,4.94E2,2.324E3,4.657E3,7.06E2,2.308E3,1.6E1,1.7E1,1.55E2,4.6E1,1.005E3,1.61E2,6.18E2,5.14E2],"tree_param":{"num_deleted":"0","num_feature":"78","num_nodes":"31","size_leaf_vector":"1"}},{"base_weights":[1.2905635E-2,-1.5642062E-1,6.0075912E0,-5.4865766E-1,1.000856E0,1.4446769E1,3.13096E0,1.2014892E-1,-8.2158375E-1,2.1463243E1,3.240926E-1,2.147565E1,1.3382933E1,1.8794596E0,8.575889E0,-2.047268E-1,1.0953159E0,-6.7625946E-1,-2.3285212E-1,9.67486E0,4.7691913E0,1.3201656E0,-1.7452484E-1,3.3037457E0,5.9728904E0,7.590901E-1,-7.715216E-1,3.1048217E0,-1.7392435E0],"categories":[],"categories_nodes":[],"categories_segments":[],"categories_sizes":[],"default_left":[0,0,0,0,0,0,0,0,0,0,0,0,0,0,0,0,0,0,0,0,0,0,0,0,0,0,0,0,0],"id":5,"left_children":[1,3,5,7,9,11,13,15,17,19,21,-1,23,25,27,-1,-1,-1,-1,-1,-1,-1,-1,-1,-1,-1,-1,-1,-1],"loss_changes":[1.7773586E4,7.7304688E3,1.1631717E4,2.321758E3,5.9692613E4,6.4579043E3,2.437041E3,1.0450725E4,5.8589307E2,7.7722695E3,1.541559E4,0E0,1.6527598E3,8.5823157E2,1.7679253E3,0E0,0E0,0E0,0E0,0E0,0E0,0E0,0E0,0E0,0E0,0E0,0E0,0E0,0E0],"parents":[2147483647,0,0,1,1,2,2,3,3,4,4,5,5,6,6,7,7,8,8,9,9,10,10,12,12,13,13,14,14],"right_children":[2,4,6,8,10,12,14,16,18,20,22,-1,24,26,28,-1,-1,-1,-1,-1,-1,-1,-1,-1,-1,-1,-1,-1,-1],"split_conditions":[2.558863E0,3.7454298E-1,1.1078197E0,1.5197526E-1,1.4797592E-1,5.5990886E-2,7.8148055E0,7.2810665E-2,1.4454204E0,5.7990562E-2,7.058851E-1,2.147565E1,3.87254E0,3.5794175E0,2.0076733E0,-2.047268E-1,1.0953159E0,-6.7625946E-1,-2.3285212E-1,9.67486E0,4.7691913E0,1.3201656E0,-1.7452484E-1,3.3037457E0,5.9728904E0,7.590901E-1,-7.715216E-1,3.1048217E0,-1.7392435E0],"split_indices":[1,1,0,0,0,0,1,1,6,0,0,0,1,0,0,0,0,0,0,0,0,0,0,0,0,0,0,0,0],"split_type":[0,0,0,0,0,0,0,0,0,0,0,0,0,0,0,0,0,0,0,0,0,0,0,0,0,0,0,0,0],"sum_hessian":[1.7508E4,1.7028E4,4.8E2,1.2718E4,4.31E3,1.21E2,3.59E2,3.686E3,9.032E3,1.37E2,4.173E3,1E0,1.2E2,2.93E2,6.6E1,3.004E3,6.82E2,2.76E2,8.756E3,4.5E1,9.2E1,7.58E2,3.415E3,9E1,3E1,2.56E2,3.7E1,5.9E1,7E0],"tree_param":{"num_deleted":"0","num_feature":"78","num_nodes":"29","size_leaf_vector":"1"}},{"base_weights":[1.1756914E-2,-2.5694707E-1,2.1948483E0,1.625597E-1,-6.1739415E-1,2.2879871E1,1.4688529E0,-3.3264017E-1,3.946428E0,-2.3537784E0,-5.61988E-1,3.367584E1,1.6573193E1,6.7483315E0,3.555193E-1,-2.064681E-1,1.8436694E-1,4.0935793E0,9.1197926E-1,-4.0088925E-1,-1.1572102E0,-1.3795152E-1,-3.6888257E-1,7.9551353E0,1.831515E1,5.166797E0,1.7805772E0,1.7428726E0,4.5310802E0,7.5046257E-3,2.1788082E0],"categories":[],"categories_nodes":[],"categories_segments":[],"categories_sizes":[],"default_left":[0,0,0,0,0,0,0,0,0,0,0,0,0,0,0,0,0,0,0,0,0,0,0,0,0,0,0,0,0,0,0],"id":6,"left_children":[1,3,5,7,9,11,13,15,17,19,21,23,25,27,29,-1,-1,-1,-1,-1,-1,-1,-1,-1,-1,-1,-1,-1,-1,-1,-1],"loss_changes":[1.02714375E4,2.3576152E3,2.8784453E4,1.3503706E4,8.0546313E2,3.8675234E3,1.0900959E4,2.1469175E3,7.2910205E3,3.9108252E2,5.5374146E2,2.8883691E3,1.9486426E2,2.4457256E3,3.4994238E3,0E0,0E0,0E0,0E0,0E0,0E0,0E0,0E0,0E0,0E0,0E0,0E0,0E0,0E0,0E0,0E0],"parents":[2147483647,0,0,1,1,2,2,3,3,4,4,5,5,6,6,7,7,8,8,9,9,10,10,11,11,12,12,13,13,14,14],"right_children":[2,4,6,8,10,12,14,16,18,20,22,24,26,28,30,-1,-1,-1,-1,-1,-1,-1,-1,-1,-1,-1,-1,-1,-1,-1,-1],"split_conditions":[9.5641124E-1,3.43944E-1,2.1596485E-1,2.0670824E-1,-1.2981201E0,7.5856704E-1,8.578604E-1,5.9235793E-2,6.5989256E-2,2.4619876E-1,2.0836608E0,1.6906883E0,3.8563803E-1,3.3094914E0,7.8148055E0,-2.064681E-1,1.8436694E-1,4.0935793E0,9.1197926E-1,-4.0088925E-1,-1.1572102E0,-1.3795152E-1,-3.6888257E-1,7.9551353E0,1.831515E1,5.166797E0,1.7805772E0,1.7428726E0,4.5310802E0,7.5046257E-3,2.1788082E0],"split_indices":[1,0,0,1,21,5,0,1,0,1,0,1,12,1,1,0,0,0,0,0,0,0,0,0,0,0,0,0,0,0,0],"split_type":[0,0,0,0,0,0,0,0,0,0,0,0,0,0,0,0,0,0,0,0,0,0,0,0,0,0,0,0,0,0,0],"sum_hessian":[1.7508E4,1.559E4,1.918E3,7.205E3,8.385E3,6.4E1,1.854E3,6.372E3,8.33E2,2.58E2,8.127E3,2.2E1,4.2E1,3.22E2,1.532E3,4.633E3,1.739E3,7E1,7.63E2,1.55E2,1.03E2,7.05E3,1.077E3,1.9E1,3E0,3.9E1,3E0,2.91E2,3.1E1,1.463E3,6.9E1],"tree_param":{"num_deleted":"0","num_feature":"78","num_nodes":"31","size_leaf_vector":"1"}},{"base_weights":[1.0776885E-2,-1.3611707E-1,2.3634963E0,9.18178E-1,-2.8503174E-1,1.7553362E1,1.7473772E0,1.376313E-1,9.235789E0,-1.3784094E-1,-8.525658E-1,4.3525955E1,1.3458464E1,4.6011105E0,1.3770795E-1,-1.3054793E-1,7.912308E-1,6.9925556E0,2.331238E0,-1.5148234E-1,2.6625347E-1,-2.1516424E-1,-6.8239534E-1,6.0068593E0,1.575612E1,2.9825332E0,4.4407697E0,1.1262252E0,2.8828988E0,-2.5678813E-1,5.383905E-1],"categories":[],"categories_nodes":[],"categories_segments":[],"categories_sizes":[],"default_left":[0,0,0,0,0,0,0,0,0,0,0,0,0,0,0,0,0,0,0,0,0,0,0,0,0,0,0,0,0,0,0],"id":7,"left_children":[1,3,5,7,9,11,13,15,17,19,21,23,25,27,29,-1,-1,-1,-1,-1,-1,-1,-1,-1,-1,-1,-1,-1,-1,-1,-1],"loss_changes":[6.0514365E3,2.587779E3,9.5995E3,1.3242988E4,1.2063063E3,3.668413E3,4.5469976E3,2.673009E3,3.4267627E3,4.3174604E3,5.708091E2,5.376953E0,2.3000488E1,1.4784536E3,1.0453766E3,0E0,0E0,0E0,0E0,0E0,0E0,0E0,0E0,0E0,0E0,0E0,0E0,0E0,0E0,0E0,0E0],"parents":[2147483647,0,0,1,1,2,2,3,3,4,4,5,5,6,6,7,7,8,8,9,9,10,10,11,11,12,12,13,13,14,14],"right_children":[2,4,6,8,10,12,14,16,18,20,22,24,26,28,30,-1,-1,-1,-1,-1,-1,-1,-1,-1,-1,-1,-1,-1,-1,-1,-1],"split_conditions":[1.6154094E0,9.39847E-2,2.3796126E-1,2.1596383E-1,1.4157696E0,5.5990886E-2,1.2457973E0,4.5043882E-2,4.399284E-2,2.1966606E-1,1.1850244E0,1.8819705E0,-2.7545574E-1,3.87254E0,2.9932587E0,-1.3054793E-1,7.912308E-1,6.9925556E0,2.331238E0,-1.5148234E-1,2.6625347E-1,-2.1516424E-1,-6.8239534E-1,6.0068593E0,1.575612E1,2.9825332E0,4.4407697E0,1.1262252E0,2.8828988E0,-2.5678813E-1,5.383905E-1],"split_indices":[1,0,0,1,0,0,0,1,0,1,1,1,12,1,1,0,0,0,0,0,0,0,0,0,0,0,0,0,0,0,0],"split_type":[0,0,0,0,0,0,0,0,0,0,0,0,0,0,0,0,0,0,0,0,0,0,0,0,0,0,0,0,0,0,0],"sum_hessian":[1.7508E4,1.648E4,1.028E3,2.039E3,1.4441E4,3.9E1,9.89E2,1.865E3,1.74E2,1.1468E4,2.973E3,4E0,3.5E1,3.56E2,6.33E2,1.518E3,3.47E2,1.5E1,1.59E2,8.445E3,3.023E3,2.716E3,2.57E2,2E0,2E0,1.2E1,2.3E1,3.06E2,5E1,3.96E2,2.37E2],"tree_param":{"num_deleted":"0","num_feature":"78","num_nodes":"31","size_leaf_vector":"1"}},{"base_weights":[9.981346E-3,-2.1137846E-1,9.4425666E-1,1.9496724E-1,-3.8956937E-1,8.152988E0,4.2328587E-1,-1.7989199E-1,2.1516244E0,-1.3411664E0,-3.1283882E-1,1.7380568E1,6.541323E0,1.9013722E0,-2.7596125E-1,-6.470456E-1,9.250167E-3,5.326744E-1,1.9726655E0,-3.3587426E-1,-1.5783678E0,-8.692527E-2,-6.596396E-1,3.7141283E0,9.437536E0,2.7596023E0,1.3665278E0,5.389534E-1,4.978468E0,4.5307938E-2,-4.533184E-1],"categories":[],"categories_nodes":[],"categories_segments":[],"categories_sizes":[],"default_left":[0,0,0,0,0,0,0,0,0,0,0,0,0,0,0,0,0,0,0,0,0,0,0,0,0,0,0,0,0,0,0],"id":8,"left_children":[1,3,5,7,9,11,13,15,17,19,21,23,25,27,29,-1,-1,-1,-1,-1,-1,-1,-1,-1,-1,-1,-1,-1,-1,-1,-1],"loss_changes":[3.6212537E3,1.0250709E3,1.2592627E4,3.1660479E3,7.1813635E2,3.2473271E3,3.2344954E3,1.5093705E3,1.1428545E3,6.3168274E2,3.9595203E2,1.9334473E3,9.820537E2,1.5186665E3,1.1208948E3,0E0,0E0,0E0,0E0,0E0,0E0,0E0,0E0,0E0,0E0,0E0,0E0,0E0,0E0,0E0,0E0],"parents":[2147483647,0,0,1,1,2,2,3,3,4,4,5,5,6,6,7,7,8,8,9,9,10,10,11,11,12,12,13,13,14,14],"right_children":[2,4,6,8,10,12,14,16,18,20,22,24,26,28,30,-1,-1,-1,-1,-1,-1,-1,-1,-1,-1,-1,-1,-1,-1,-1,-1],"split_conditions":[5.525589E-1,1.7397168E-1,2.51959E-1,9.625816E-2,2.1462305E0,5.5990886E-2,1.185807E0,2.1462305E0,4.0045863E-1,1E0,4.380062E0,1.3975945E0,-9.939829E-1,7.8148055E0,2.919525E0,-6.470456E-1,9.250167E-3,5.326744E-1,1.9726655E0,-3.3587426E-1,-1.5783678E0,-8.692527E-2,-6.596396E-1,3.7141283E0,9.437536E0,2.7596023E0,1.3665278E0,5.389534E-1,4.978468E0,4.5307938E-2,-4.533184E-1],"split_indices":[1,0,0,1,6,0,0,6,1,67,6,1,19,1,0,0,0,0,0,0,0,0,0,0,0,0,0,0,0,0,0],"split_type":[0,0,0,0,0,0,0,0,0,0,0,0,0,0,0,0,0,0,0,0,0,0,0,0,0,0,0,0,0,0,0],"sum_hessian":[1.7508E4,1.4155E4,3.353E3,4.315E3,9.84E3,2.25E2,3.128E3,3.622E3,6.93E2,7.33E2,9.107E3,3.2E1,1.93E2,1.004E3,2.124E3,3.48E2,3.274E3,6.4E2,5.3E1,6.95E2,3.8E1,8.998E3,1.09E2,2.5E1,7E0,8.1E1,1.12E2,9.98E2,6E0,1.579E3,5.45E2],"tree_param":{"num_deleted":"0","num_feature":"78","num_nodes":"31","size_leaf_vector":"1"}},{"base_weights":[8.22024E-3,-5.31063E-2,2.546941E0,1.1017407E-1,-4.554083E-1,1.0994329E1,1.7601188E0,-2.7327994E-2,2.718694E0,-2.1609845E0,-3.9744836E-1,1.0634829E1,8.437978E0,2.4388053E0,-1.888878E0,-6.640317E-2,1.9448291E-1,2.8024268E0,5.481983E-1,-7.8504384E-1,-6.822202E-2,-1.02494955E-1,-3.6337382E-1,9.7024614E-1,3.0763967E0,5.2109414E-1,1.5496188E0,2.3018816E-2,-1.7471787E0],"categories":[],"categories_nodes":[],"categories_segments":[],"categories_sizes":[],"default_left":[0,0,0,0,0,0,0,0,0,0,0,0,0,0,0,0,0,0,0,0,0,0,0,0,0,0,0,0,0],"id":9,"left_children":[1,3,5,7,9,11,13,15,17,19,21,-1,23,25,27,-1,-1,-1,-1,-1,-1,-1,-1,-1,-1,-1,-1,-1,-1],"loss_changes":[2.7261282E3,1.1231183E3,2.7256912E3,4.3623027E3,4.8709003E2,1.8889331E3,9.4320935E2,1.5146185E3,3.578026E3,1.4218835E2,2.1641284E2,0E0,2.788059E2,6.0337646E2,4.6453278E2,0E0,0E0,0E0,0E0,0E0,0E0,0E0,0E0,0E0,0E0,0E0,0E0,0E0,0E0],"parents":[2147483647,0,0,1,1,2,2,3,3,4,4,5,5,6,6,7,7,8,8,9,9,10,10,12,12,13,13,14,14],"right_children":[2,4,6,8,10,12,14,16,18,20,22,-1,24,26,28,-1,-1,-1,-1,-1,-1,-1,-1,-1,-1,-1,-1,-1,-1],"split_conditions":[2.7686563E0,1.0378311E0,2.919525E-1,7.756187E-1,-1.2981201E0,9.1028047E-1,2.919525E0,1.7153698E-1,2.0596647E-1,1.779542E0,3.8073802E0,1.0634829E1,1.5550624E0,7.8148055E0,4.988456E0,-6.640317E-2,1.9448291E-1,2.8024268E0,5.481983E-1,-7.8504384E-1,-6.822202E-2,-1.02494955E-1,-3.6337382E-1,9.7024614E-1,3.0763967E0,5.2109414E-1,1.5496188E0,2.3018816E-2,-1.7471787E0],"split_indices":[1,0,0,1,21,5,0,1,0,1,0,0,5,1,1,0,0,0,0,0,0,0,0,0,0,0,0,0,0],"split_type":[0,0,0,0,0,0,0,0,0,0,0,0,0,0,0,0,0,0,0,0,0,0,0,0,0,0,0,0,0],"sum_hessian":[1.7508E4,1.7096E4,4.12E2,1.2161E4,4.935E3,3.4E1,3.78E2,1.1553E4,6.08E2,1.61E2,4.774E3,2E0,3.2E1,3.19E2,5.9E1,8.976E3,2.577E3,7.1E1,5.37E2,1.3E2,3.1E1,4.469E3,3.05E2,9E0,2.3E1,2.55E2,6.4E1,4E1,1.9E1],"tree_param":{"num_deleted":"0","num_feature":"78","num_nodes":"29","size_leaf_vector":"1"}},{"base_weights":[6.7358175E-3,-4.4478994E-2,1.5860021E0,4.876168E-1,-1.514451E-1,1.0132759E1,1.465846E0,2.419906E-1,5.444161E0,-1.2322358E0,-1.0214338E-1,6.2657356E0,1.0865098E0,-1.3595393E-1,3.6491144E-1,1.1230669E0,4.0465994E0,-4.6048167E-1,-8.19582E-2,-1.9961813E-2,-3.5465094E-1,1.5123047E0,3.160348E0,7.6748246E-1,1.1256208E-1],"categories":[],"categories_nodes":[],"categories_segments":[],"categories_sizes":[],"default_left":[0,0,0,0,0,0,0,0,0,0,0,0,0,0,0,0,0,0,0,0,0,0,0,0,0],"id":10,"left_children":[1,3,5,7,9,-1,11,13,15,17,19,21,23,-1,-1,-1,-1,-1,-1,-1,-1,-1,-1,-1,-1],"loss_changes":[1.4162303E3,9.65373E2,2.0777852E3,3.4550432E3,7.523628E2,0E0,9.927959E2,1.833489E3,1.7826946E3,1.7840851E2,5.193096E2,1.5601697E2,5.3294415E2,0E0,0E0,0E0,0E0,0E0,0E0,0E0,0E0,0E0,0E0,0E0,0E0],"parents":[2147483647,0,0,1,1,2,2,3,3,4,4,6,6,7,7,8,8,9,9,10,10,11,11,12,12],"right_children":[2,4,6,8,10,-1,12,14,16,18,20,22,24,-1,-1,-1,-1,-1,-1,-1,-1,-1,-1,-1,-1],"split_conditions":[2.3509204E0,1.179808E-1,5.5990886E-2,3.279565E-1,1.4454204E0,1.0132759E1,2.7995443E-1,2.2830462E-2,7.3127615E-1,1E0,1.7976813E0,3.3094914E0,9.482088E-1,-1.3595393E-1,3.6491144E-1,1.1230669E0,4.0465994E0,-4.6048167E-1,-8.19582E-2,-1.9961813E-2,-3.5465094E-1,1.5123047E0,3.160348E0,7.6748246E-1,1.1256208E-1],"split_indices":[1,0,0,1,6,0,0,1,22,66,51,1,5,0,0,0,0,0,0,0,0,0,0,0,0],"split_type":[0,0,0,0,0,0,0,0,0,0,0,0,0,0,0,0,0,0,0,0,0,0,0,0,0],"sum_hessian":[1.7508E4,1.6959E4,5.49E2,2.838E3,1.4121E4,1E0,5.48E2,2.705E3,1.33E2,6.15E2,1.3506E4,3.9E1,5.09E2,1.579E3,1.126E3,1.11E2,2.2E1,4.67E2,1.48E2,1.3076E4,4.3E2,3.2E1,7E0,1.65E2,3.44E2],"tree_param":{"num_deleted":"0","num_feature":"78","num_nodes":"25","size_leaf_vector":"1"}},{"base_weights":[5.866883E-3,-9.94316E-2,4.5029128E-1,-6.662796E-1,-3.637641E-2,3.1958377E0,1.2217786E-1,-2.1695564E0,-4.9057E-1,1.53828E-1,-2.690228E-1,1.5421168E1,2.9080927E0,4.576378E-1,-5.160612E-1,-3.6989063E-1,-1.211005E0,8.357404E-1,-2.0433722E-1,-2.2778723E-2,3.4025803E-1,-1.1946826E-1,-3.531031E-2,1.496183E0,5.420376E0,8.067199E-1,3.9862568E0,1.4768963E-1,-2.4248493E0,-3.1484943E-2,-3.2496867E-1],"categories":[],"categories_nodes":[],"categories_segments":[],"categories_sizes":[],"default_left":[0,0,0,0,0,0,0,0,0,0,0,0,0,0,0,0,0,0,0,0,0,0,0,0,0,0,0,0,0,0,0],"id":11,"left_children":[1,3,5,7,9,11,13,15,17,19,21,23,25,27,29,-1,-1,-1,-1,-1,-1,-1,-1,-1,-1,-1,-1,-1,-1,-1,-1],"loss_changes":[8.1941724E2,5.0594952E2,3.0210625E3,3.7322235E2,5.637911E2,1.2145178E3,6.419047E2,2.5383472E2,7.9479114E2,1.5790596E3,1.12002655E2,1.308175E2,7.6222144E2,5.8565967E2,2.4075E2,0E0,0E0,0E0,0E0,0E0,0E0,0E0,0E0,0E0,0E0,0E0,0E0,0E0,0E0,0E0,0E0],"parents":[2147483647,0,0,1,1,2,2,3,3,4,4,5,5,6,6,7,7,8,8,9,9,10,10,11,11,12,12,13,13,14,14],"right_children":[2,4,6,8,10,12,14,16,18,20,22,24,26,28,30,-1,-1,-1,-1,-1,-1,-1,-1,-1,-1,-1,-1,-1,-1,-1,-1],"split_conditions":[5.525589E-1,2.1462305E0,3.0994955E-1,2.437306E-2,4.7392285E-1,4.399284E-2,2.0076733E0,1E0,5.5990886E-2,1.01503E-1,1E0,7.756187E-1,3.898255E0,2.1836913E0,1.1850244E0,-3.6989063E-1,-1.211005E0,8.357404E-1,-2.0433722E-1,-2.2778723E-2,3.4025803E-1,-1.1946826E-1,-3.531031E-2,1.496183E0,5.420376E0,8.067199E-1,3.9862568E0,1.4768963E-1,-2.4248493E0,-3.1484943E-2,-3.2496867E-1],"split_indices":[1,6,0,1,0,0,0,67,0,1,64,1,6,51,1,0,0,0,0,0,0,0,0,0,0,0,0,0,0,0,0],"split_type":[0,0,0,0,0,0,0,0,0,0,0,0,0,0,0,0,0,0,0,0,0,0,0,0,0,0,0,0,0,0,0],"sum_hessian":[1.7508E4,1.4155E4,3.353E3,1.416E3,1.2739E4,3.57E2,2.996E3,1.47E2,1.269E3,7.009E3,5.73E3,7E0,3.5E2,1.964E3,1.032E3,9.9E1,4.8E1,6.9E1,1.2E3,5.679E3,1.33E3,3.09E3,2.64E3,2E0,5E0,3.44E2,6E0,1.957E3,7E0,5.99E2,4.33E2],"tree_param":{"num_deleted":"0","num_feature":"78","num_nodes":"31","size_leaf_vector":"1"}},{"base_weights":[4.5802277E-3,-2.5717163E-2,1.2587931E0,5.4832476E-1,-7.201041E-2,8.491837E0,1.1244401E0,-5.070504E-2,2.585201E0,-7.181788E-1,-4.2855524E-2,2.8495083E0,5.4764503E-1,-5.81088E-1,6.4525366E-2,2.5808492E0,6.177349E-1,-8.348534E-2,-4.0740934E-1,-4.5649353E-2,2.8052155E-2,6.458031E-1,4.126852E0,2.6651037E-1,-5.528163E-1],"categories":[],"categories_nodes":[],"categories_segments":[],"categories_sizes":[],"default_left":[0,0,0,0,0,0,0,0,0,0,0,0,0,0,0,0,0,0,0,0,0,0,0,0,0],"id":12,"left_children":[1,3,5,7,9,-1,11,13,15,17,19,21,23,-1,-1,-1,-1,-1,-1,-1,-1,-1,-1,-1,-1],"loss_changes":[6.653635E2,4.543797E2,1.4689683E3,1.557042E3,2.9803937E2,0E0,4.083839E2,4.9524603E2,9.003622E2,1.9186429E2,2.2568602E2,7.531985E2,2.5411725E2,0E0,0E0,0E0,0E0,0E0,0E0,0E0,0E0,0E0,0E0,0E0,0E0],"parents":[2147483647,0,0,1,1,2,2,3,3,4,4,6,6,7,7,8,8,9,9,10,10,11,11,12,12],"right_children":[2,4,6,8,10,-1,12,14,16,18,20,22,24,-1,-1,-1,-1,-1,-1,-1,-1,-1,-1,-1,-1],"split_conditions":[2.7686563E0,7.1988285E-2,5.5990886E-2,5.244836E-2,4.1712352E-4,8.491837E0,1.1478132E0,1.7958254E0,4.399284E-2,1E0,1.9745263E-1,7.8148055E0,3.5794175E0,-5.81088E-1,6.4525366E-2,2.5808492E0,6.177349E-1,-8.348534E-2,-4.0740934E-1,-4.5649353E-2,2.8052155E-2,6.458031E-1,4.126852E0,2.6651037E-1,-5.528163E-1],"split_indices":[1,0,0,1,11,0,0,6,0,68,1,1,0,0,0,0,0,0,0,0,0,0,0,0,0],"split_type":[0,0,0,0,0,0,0,0,0,0,0,0,0,0,0,0,0,0,0,0,0,0,0,0,0],"sum_hessian":[1.7508E4,1.7096E4,4.12E2,1.275E3,1.5821E4,1E0,4.11E2,9.86E2,2.89E2,6.82E2,1.5139E4,1.02E2,3.09E2,1.21E2,8.65E2,2.2E1,2.67E2,4.05E2,2.77E2,8.403E3,6.736E3,9.7E1,5E0,2.71E2,3.8E1],"tree_param":{"num_deleted":"0","num_feature":"78","num_nodes":"25","size_leaf_vector":"1"}},{"base_weights":[4.0715225E-3,1.4728443E-1,-1.5328637E-1,6.46225E-2,2.4473188E0,-1.7047372E-1,1.8515631E0,-1.3363133E-1,5.121839E-1,5.539968E0,1.7361124E0,-1.0704297E0,-1.391633E-1,-4.9542217E0,3.6100755E0,-2.6174692E-2,-4.088054E-1,1.0066026E0,1.3467152E-1,1.3426332E0,7.1757817E0,4.5251948E-1,2.9252615E0,-2.581212E-2,-4.577714E-1,-7.576212E-1,-3.868715E-2,-1.7842021E0,-2.2089358E-1,-2.6017406E0,1.4102074E0],"categories":[],"categories_nodes":[],"categories_segments":[],"categories_sizes":[],"default_left":[0,0,0,0,0,0,0,0,0,0,0,0,0,0,0,0,0,0,0,0,0,0,0,0,0,0,0,0,0,0,0],"id":13,"left_children":[1,3,5,7,9,11,13,15,17,19,21,23,25,27,29,-1,-1,-1,-1,-1,-1,-1,-1,-1,-1,-1,-1,-1,-1,-1,-1],"loss_changes":[3.9459982E2,1.7427205E3,2.877993E2,7.853357E2,6.898268E2,2.3296771E2,8.6761725E2,3.495583E2,4.8731427E2,1.0472979E3,4.5981134E2,1.2451404E2,1.9441104E2,5.8454132E1,8.0431213E2,0E0,0E0,0E0,0E0,0E0,0E0,0E0,0E0,0E0,0E0,0E0,0E0,0E0,0E0,0E0,0E0],"parents":[2147483647,0,0,1,1,2,2,3,3,4,4,5,5,6,6,7,7,8,8,9,9,10,10,11,11,12,12,13,13,14,14],"right_children":[2,4,6,8,10,12,14,16,18,20,22,24,26,28,30,-1,-1,-1,-1,-1,-1,-1,-1,-1,-1,-1,-1,-1,-1,-1,-1],"split_conditions":[5.399121E-1,8.478123E-1,7.8148055E0,8.391737E-2,1.7958254E0,-1.2981201E0,-4.153025E-1,2.1822042E0,5.5990886E-2,1.9797713E0,3.87254E0,2.4619876E-1,-3.2111876E0,1E0,2.6549846E-1,-2.6174692E-2,-4.088054E-1,1.0066026E0,1.3467152E-1,1.3426332E0,7.1757817E0,4.5251948E-1,2.9252615E0,-2.581212E-2,-4.577714E-1,-7.576212E-1,-3.868715E-2,-1.7842021E0,-2.2089358E-1,-2.6017406E0,1.4102074E0],"split_indices":[0,1,1,1,6,21,12,51,0,1,1,1,55,73,5,0,0,0,0,0,0,0,0,0,0,0,0,0,0,0,0],"split_type":[0,0,0,0,0,0,0,0,0,0,0,0,0,0,0,0,0,0,0,0,0,0,0,0,0,0,0,0,0,0,0],"sum_hessian":[1.7508E4,9.166E3,8.342E3,8.849E3,3.17E2,8.272E3,7E1,6.133E3,2.716E3,5.8E1,2.59E2,2.77E2,7.995E3,1.4E1,5.6E1,5.911E3,2.22E2,5.8E1,2.658E3,5.6E1,2E0,2.53E2,6E0,8.8E1,1.89E2,3.3E1,7.962E3,1.1E1,3E0,4E0,5.2E1],"tree_param":{"num_deleted":"0","num_feature":"78","num_nodes":"31","size_leaf_vector":"1"}},{"base_weights":[3.3141351E-3,-2.9996024E-2,4.7065425E-1,-7.461198E-3,-1.0812929E0,6.492703E0,2.838794E-1,-3.2823645E-2,9.500046E-1,3.1851187E0,-1.2157403E0,5.193697E0,1.5261572E1,1.0001117E0,-2.5929642E-1,-1.370639E-1,4.2767217E-3,3.2207875E0,2.0416106E-1,-2.9965959E0,-2.6761812E-1,1.8326387E-1,1.7479705E0,5.4123936E0,1.0383534E0,2.2783902E-1,8.016598E-1,-2.2761764E-3,-4.4434828E-1],"categories":[],"categories_nodes":[],"categories_segments":[],"categories_sizes":[],"default_left":[0,0,0,0,0,0,0,0,0,0,0,0,0,0,0,0,0,0,0,0,0,0,0,0,0,0,0,0,0],"id":14,"left_children":[1,3,5,7,9,11,13,15,17,-1,19,21,23,25,27,-1,-1,-1,-1,-1,-1,-1,-1,-1,-1,-1,-1,-1,-1],"loss_changes":[2.7257977E2,3.872179E2,1.3085107E3,3.8864285E2,5.523827E2,3.194143E2,4.402636E2,3.1126987E2,1.0817744E3,0E0,9.5655884E2,8.925128E1,6.8763855E1,1.9433438E2,1.9805383E2,0E0,0E0,0E0,0E0,0E0,0E0,0E0,0E0,0E0,0E0,0E0,0E0,0E0,0E0],"parents":[2147483647,0,0,1,1,2,2,3,3,4,4,5,5,6,6,7,7,8,8,10,10,11,11,12,12,13,13,14,14],"right_children":[2,4,6,8,10,12,14,16,18,-1,20,22,24,26,28,-1,-1,-1,-1,-1,-1,-1,-1,-1,-1,-1,-1,-1,-1],"split_conditions":[1.4642347E0,1.1850244E0,2.2396354E-1,9.5641124E-1,4.1993164E-2,2.558863E0,1.345781E0,1.7958254E0,7.998698E-2,3.1851187E0,6.198991E-2,1.5280983E0,2.5272481E0,3.87254E0,3.5794175E0,-1.370639E-1,4.2767217E-3,3.2207875E0,2.0416106E-1,-2.9965959E0,-2.6761812E-1,1.8326387E-1,1.7479705E0,5.4123936E0,1.0383534E0,2.2783902E-1,8.016598E-1,-2.2761764E-3,-4.4434828E-1],"split_indices":[1,1,0,1,0,1,0,6,0,0,0,1,3,1,0,0,0,0,0,0,0,0,0,0,0,0,0,0,0],"split_type":[0,0,0,0,0,0,0,0,0,0,0,0,0,0,0,0,0,0,0,0,0,0,0,0,0,0,0,0,0],"sum_hessian":[1.7508E4,1.6344E4,1.164E3,1.6002E4,3.42E2,3.4E1,1.13E3,1.559E4,4.12E2,3E0,3.39E2,3.1E1,3E0,4.87E2,6.43E2,1.557E3,1.4033E4,1E1,4.02E2,1.1E1,3.28E2,4E0,2.7E1,2E0,1E0,4.27E2,6E1,5.34E2,1.09E2],"tree_param":{"num_deleted":"0","num_feature":"78","num_nodes":"29","size_leaf_vector":"1"}},{"base_weights":[3.0154088E-3,2.6768717E-1,-5.7876974E-2,2.4632E-1,1.4192569E1,-6.1111975E-1,-2.5236985E-2,-2.0469186E-1,7.6537025E-1,1.171557E0,4.736435E0,-7.747432E-1,4.803351E-1,-1.3609041E-1,1.12009935E-1,-3.2036233E-1,-4.1987993E-2,-5.4619785E-2,3.5992455E-1,-1.1699356E-1,-4.228755E-1,1.1814655E0,-4.049964E-3,-1.020645E-2,-7.873362E-2,1.8690777E-1,-2.719934E-2],"categories":[],"categories_nodes":[],"categories_segments":[],"categories_sizes":[],"default_left":[0,0,0,0,0,0,0,0,0,0,0,0,0,0,0,0,0,0,0,0,0,0,0,0,0,0,0],"id":15,"left_children":[1,3,5,7,9,11,13,15,17,-1,-1,19,21,23,25,-1,-1,-1,-1,-1,-1,-1,-1,-1,-1,-1,-1],"loss_changes":[2.821992E2,9.709335E2,2.570379E2,7.658906E2,2.0414307E1,1.419921E2,2.0454097E2,9.768841E1,6.2617944E2,0E0,0E0,1.6799289E2,1.7764603E2,9.5905426E1,6.2220056E2,0E0,0E0,0E0,0E0,0E0,0E0,0E0,0E0,0E0,0E0,0E0,0E0],"parents":[2147483647,0,0,1,1,2,2,3,3,4,4,5,5,6,6,7,7,8,8,11,11,12,12,13,13,14,14],"right_children":[2,4,6,8,10,12,14,16,18,-1,-1,20,22,24,26,-1,-1,-1,-1,-1,-1,-1,-1,-1,-1,-1,-1],"split_conditions":[1.3197851E-1,1.6906883E0,-1.2981201E0,2.1596383E-2,5.1991537E-2,1.779542E0,2.4959248E-1,1.7958254E0,1.7958254E0,1.171557E0,4.736435E0,2.4619876E-1,2.3796126E-1,1E0,9.538447E-1,-3.2036233E-1,-4.1987993E-2,-5.4619785E-2,3.5992455E-1,-1.1699356E-1,-4.228755E-1,1.1814655E0,-4.049964E-3,-1.020645E-2,-7.873362E-2,1.8690777E-1,-2.719934E-2],"split_indices":[0,1,21,1,0,1,1,6,6,0,0,1,0,65,0,0,0,0,0,0,0,0,0,0,0,0,0],"split_type":[0,0,0,0,0,0,0,0,0,0,0,0,0,0,0,0,0,0,0,0,0,0,0,0,0,0,0],"sum_hessian":[1.7508E4,3.274E3,1.4234E4,3.27E3,4E0,7.92E2,1.3442E4,1.75E3,1.52E3,1E0,3E0,6.89E2,1.03E2,7.436E3,6.006E3,1.21E2,1.629E3,4.78E2,1.042E3,4.3E2,2.59E2,1.2E1,9.1E1,4.114E3,3.322E3,1.705E3,4.301E3],"tree_param":{"num_deleted":"0","num_feature":"78","num_nodes":"27","size_leaf_vector":"1"}},{"base_weights":[2.4854152E-3,-5.377376E-2,2.0356576E-1,-2.8079849E-2,-8.551764E-1,8.90545E-2,1.654269E0,-4.6844405E-1,2.922465E-3,-1.161758E0,4.8136477E0,-3.244672E-2,3.0578095E-1,9.213852E0,1.0686524E0,-1.8916662E-1,1.6287883E-1,-4.1661616E-3,2.2635259E-1,-2.8186893E-1,-3.612889E0,1.9008793E0,-1.0866578E0,7.414142E-3,-1.7663999E-1,4.9052622E-2,2.6566646E-1,1.7370073E0,3.617603E0,7.8152615E-1,-9.589678E-2],"categories":[],"categories_nodes":[],"categories_segments":[],"categories_sizes":[],"default_left":[0,0,0,0,0,0,0,0,0,0,0,0,0,0,0,0,0,0,0,0,0,0,0,0,0,0,0,0,0,0,0],"id":16,"left_children":[1,3,5,7,9,11,13,15,17,19,21,23,25,27,29,-1,-1,-1,-1,-1,-1,-1,-1,-1,-1,-1,-1,-1,-1,-1,-1],"loss_changes":[1.9808351E2,2.8170435E2,6.357672E2,1.8100368E2,7.44224E2,9.3464066E1,1.229718E3,1.4331119E2,1.565068E2,9.6545544E2,3.0553122E2,7.236284E1,1.050245E2,1.2498389E2,5.5755756E2,0E0,0E0,0E0,0E0,0E0,0E0,0E0,0E0,0E0,0E0,0E0,0E0,0E0,0E0,0E0,0E0],"parents":[2147483647,0,0,1,1,2,2,3,3,4,4,5,5,6,6,7,7,8,8,9,9,10,10,11,11,12,12,13,13,14,14],"right_children":[2,4,6,8,10,12,14,16,18,20,22,24,26,28,30,-1,-1,-1,-1,-1,-1,-1,-1,-1,-1,-1,-1,-1,-1,-1,-1],"split_conditions":[1E0,2.1822042E0,3.1283903E-1,5.214044E-4,1.2834421E0,6.4424056E-1,8.798568E-2,1.4642347E0,3.3094914E0,1.1850244E0,6.198991E-2,1.0679675E0,1.06747836E-1,4.4704512E-1,2.1996419E-1,-1.8916662E-1,1.6287883E-1,-4.1661616E-3,2.2635259E-1,-2.8186893E-1,-3.612889E0,1.9008793E0,-1.0866578E0,7.414142E-3,-1.7663999E-1,4.9052622E-2,2.6566646E-1,1.7370073E0,3.617603E0,7.8152615E-1,-9.589678E-2],"split_indices":[66,51,1,11,1,40,0,1,1,1,0,26,1,1,0,0,0,0,0,0,0,0,0,0,0,0,0,0,0,0,0],"split_type":[0,0,0,0,0,0,0,0,0,0,0,0,0,0,0,0,0,0,0,0,0,0,0,0,0,0,0,0,0,0,0],"sum_hessian":[1.7508E4,1.3681E4,3.827E3,1.3257E4,4.24E2,3.548E3,2.79E2,8.71E2,1.2386E4,4.03E2,2.1E1,2.274E3,1.274E3,1.9E1,2.6E2,7.51E2,1.2E2,1.2116E4,2.7E2,3.96E2,7E0,1.8E1,3E0,2.063E3,2.11E2,1.024E3,2.5E2,1E1,9E0,1.23E2,1.37E2],"tree_param":{"num_deleted":"0","num_feature":"78","num_nodes":"31","size_leaf_vector":"1"}},{"base_weights":[1.9283177E-3,5.413925E-2,-1.7991486E-1,4.994412E-3,7.238776E-1,-1.6013728E-1,-1.245927E0,-4.980761E-2,1.9548386E-1,2.5952816E0,5.4710186E-1,-1.5171233E-1,-2.4493136E0,-3.9935946E-1,-2.0578854E0,-1.0263191E-2,-3.09294E-1,1.0981519E0,4.862188E-2,6.4457977E-1,3.1635287E0,2.5395647E-1,-5.9087638E-2,-5.047487E-2,3.0833703E-1,-1.0404682E0,2.8950822E-1,-2.761121E-1,-5.748006E-2,-4.895806E-1,-1.0768209E0],"categories":[],"categories_nodes":[],"categories_segments":[],"categories_sizes":[],"default_left":[0,0,0,0,0,0,0,0,0,0,0,0,0,0,0,0,0,0,0,0,0,0,0,0,0,0,0,0,0,0,0],"id":17,"left_children":[1,3,5,7,9,11,13,15,17,19,21,23,25,27,29,-1,-1,-1,-1,-1,-1,-1,-1,-1,-1,-1,-1,-1,-1,-1,-1],"loss_changes":[1.6624371E2,4.4776096E2,8.21512E1,1.323267E2,3.062417E2,7.3610306E1,4.798197E1,1.5061064E2,3.272664E2,2.614261E2,1.8975795E2,7.474326E1,5.2051796E1,3.7204952E0,1.7626938E1,0E0,0E0,0E0,0E0,0E0,0E0,0E0,0E0,0E0,0E0,0E0,0E0,0E0,0E0,0E0,0E0],"parents":[2147483647,0,0,1,1,2,2,3,3,4,4,5,5,6,6,7,7,8,8,9,9,10,10,11,11,12,12,13,13,14,14],"right_children":[2,4,6,8,10,12,14,16,18,20,22,24,26,28,30,-1,-1,-1,-1,-1,-1,-1,-1,-1,-1,-1,-1,-1,-1,-1,-1],"split_conditions":[1.3097868E0,8.478123E-1,5.861046E0,1.9745263E-1,2.1996419E-1,1.2054345E1,1.1850244E0,4.380062E0,5.5990886E-2,2.558863E0,2.7593312E-1,7.8148055E0,1E0,3.5040495E0,4.1152263E0,-1.0263191E-2,-3.09294E-1,1.0981519E0,4.862188E-2,6.4457977E-1,3.1635287E0,2.5395647E-1,-5.9087638E-2,-5.047487E-2,3.0833703E-1,-1.0404682E0,2.8950822E-1,-2.761121E-1,-5.748006E-2,-4.895806E-1,-1.0768209E0],"split_indices":[0,1,0,1,0,10,1,6,0,1,16,1,73,6,5,0,0,0,0,0,0,0,0,0,0,0,0,0,0,0,0],"split_type":[0,0,0,0,0,0,0,0,0,0,0,0,0,0,0,0,0,0,0,0,0,0,0,0,0,0,0,0,0,0,0],"sum_hessian":[1.7508E4,1.3603E4,3.905E3,1.2674E4,9.29E2,3.835E3,7E1,9.843E3,2.831E3,7.9E1,8.5E2,3.822E3,1.3E1,3.5E1,3.5E1,9.69E3,1.53E2,2.6E1,2.805E3,7.6E1,3E0,6.06E2,2.44E2,3.77E3,5.2E1,1E1,3E0,9E0,2.6E1,2.9E1,6E0],"tree_param":{"num_deleted":"0","num_feature":"78","num_nodes":"31","size_leaf_vector":"1"}},{"base_weights":[1.4890146E-3,1.3869351E-1,-5.839035E-2,5.7736177E-2,1.0686172E0,-4.7765112E-1,-3.748005E-2,-9.994196E-2,3.0676743E-1,3.0818725E-1,2.2119224E0,-3.5318144E-2,-9.063232E-1,-1.8177567E-1,1.5905412E-2,-1.7662892E-2,-2.3229536E-1,4.463643E-1,5.937613E-2,1.5749611E0,5.6305464E-4,2.2649074E0,4.939969E-1,2.780097E-2,-1.5267731E-1,-4.52638E-1,3.0159311E-2,-8.193342E-2,-1.1949235E-2,1.188893E-1,-2.0922033E-2],"categories":[],"categories_nodes":[],"categories_segments":[],"categories_sizes":[],"default_left":[0,0,0,0,0,0,0,0,0,0,0,0,0,0,0,0,0,0,0,0,0,0,0,0,0,0,0,0,0,0,0],"id":18,"left_children":[1,3,5,7,9,11,13,15,17,19,21,23,25,27,29,-1,-1,-1,-1,-1,-1,-1,-1,-1,-1,-1,-1,-1,-1,-1,-1],"loss_changes":[1.438571E2,4.0044998E2,1.06850204E2,1.9224156E2,3.6968414E2,1.0975554E2,8.945348E1,8.298009E1,2.4371365E2,3.8900818E2,5.0050238E2,1.7383318E1,1.7849197E2,4.0646225E1,2.7619888E2,0E0,0E0,0E0,0E0,0E0,0E0,0E0,0E0,0E0,0E0,0E0,0E0,0E0,0E0,0E0,0E0],"parents":[2147483647,0,0,1,1,2,2,3,3,4,4,5,5,6,6,7,7,8,8,9,9,10,10,11,11,12,12,13,13,14,14],"right_children":[2,4,6,8,10,12,14,16,18,20,22,24,26,28,30,-1,-1,-1,-1,-1,-1,-1,-1,-1,-1,-1,-1,-1,-1,-1,-1],"split_conditions":[2.1596485E-1,2.3971985E-1,-1.2981201E0,3.301161E-2,1.7958254E0,2.4619876E-1,1.2587605E-1,1.6947457E0,6.398959E-2,4.399284E-2,7.398796E-2,3.9858563E0,1.6154094E0,1E0,6.198991E-1,-1.7662892E-2,-2.3229536E-1,4.463643E-1,5.937613E-2,1.5749611E0,5.6305464E-4,2.2649074E0,4.939969E-1,2.780097E-2,-1.5267731E-1,-4.52638E-1,3.0159311E-2,-8.193342E-2,-1.1949235E-2,1.188893E-1,-2.0922033E-2],"split_indices":[0,1,21,1,6,1,1,51,0,0,0,6,1,64,0,0,0,0,0,0,0,0,0,0,0,0,0,0,0,0,0],"split_type":[0,0,0,0,0,0,0,0,0,0,0,0,0,0,0,0,0,0,0,0,0,0,0,0,0,0,0,0,0,0,0],"sum_hessian":[1.7508E4,5.319E3,1.2189E4,4.894E3,4.25E2,5.78E2,1.1611E4,2.997E3,1.897E3,2.56E2,1.69E2,2.85E2,2.93E2,3.135E3,8.476E3,2.826E3,1.71E2,1.59E2,1.738E3,1.4E1,2.42E2,1.5E1,1.54E2,2.25E2,6E1,1.83E2,1.1E2,1.907E3,1.228E3,1.557E3,6.919E3],"tree_param":{"num_deleted":"0","num_feature":"78","num_nodes":"31","size_leaf_vector":"1"}},{"base_weights":[1.2734432E-3,1.7302306E-2,-3.2331258E-1,1.133425E-2,1.5432059E0,-2.7129737E-1,-1.9066426E0,-2.4083395E-2,1.6263914E-1,-3.3797123E0,3.0876756E0,-2.3539086E-1,-2.3165426E0,-8.4022835E-2,1.8533681E-3,4.2397425E-2,1.590005E0,-1.2414062E0,-2.1084882E-2,-2.1834989E0,1.2441876E0,-8.5373774E-2,4.5846117E-1,8.854065E-2,-8.3292514E-1],"categories":[],"categories_nodes":[],"categories_segments":[],"categories_sizes":[],"default_left":[0,0,0,0,0,0,0,0,0,0,0,0,0,0,0,0,0,0,0,0,0,0,0,0,0],"id":19,"left_children":[1,3,5,7,9,11,-1,13,15,17,19,21,23,-1,-1,-1,-1,-1,-1,-1,-1,-1,-1,-1,-1],"loss_changes":[9.110045E1,1.5193654E2,2.568175E2,8.907893E1,5.0464987E2,5.9526657E1,0E0,1.0434938E2,3.4450488E2,3.9862244E1,5.7938464E2,7.0267334E1,1.763404E1,0E0,0E0,0E0,0E0,0E0,0E0,0E0,0E0,0E0,0E0,0E0,0E0],"parents":[2147483647,0,0,1,1,2,2,3,3,4,4,5,5,7,7,8,8,9,9,10,10,11,11,12,12],"right_children":[2,4,6,8,10,12,-1,14,16,18,20,22,24,-1,-1,-1,-1,-1,-1,-1,-1,-1,-1,-1,-1],"split_conditions":[2.8155417E0,7.8148055E0,7.8148055E0,4.6277964E-1,-2.2684589E-1,4.988456E0,-1.9066426E0,7.6741266E-1,4.24866E0,1E0,2.6549846E-1,3.3094914E0,1.6102873E0,-8.4022835E-2,1.8533681E-3,4.2397425E-2,1.590005E0,-1.2414062E0,-2.1084882E-2,-2.1834989E0,1.2441876E0,-8.5373774E-2,4.5846117E-1,8.854065E-2,-8.3292514E-1],"split_indices":[0,1,1,1,12,1,0,7,6,69,5,1,8,0,0,0,0,0,0,0,0,0,0,0,0],"split_type":[0,0,0,0,0,0,0,0,0,0,0,0,0,0,0,0,0,0,0,0,0,0,0,0,0],"sum_hessian":[1.7508E4,1.6685E4,8.23E2,1.6621E4,6.4E1,8.17E2,6E0,1.3469E4,3.152E3,1.5E1,4.9E1,8.04E2,1.3E1,1.423E3,1.2046E4,3.14E3,1.2E1,1.2E1,3E0,4E0,4.5E1,7.83E2,2.1E1,2E0,1.1E1],"tree_param":{"num_deleted":"0","num_feature":"78","num_nodes":"25","size_leaf_vector":"1"}}]},"name":"gbtree"},"learner_model_param":{"base_score":"4.6021247E0","boost_from_average":"1","num_class":"0","num_feature":"78","num_target":"1"},"objective":{"name":"reg:squarederror","reg_loss_param":{"scale_pos_weight":"1"}}},"version":[2,1,4]}