{"learner":{"attributes":{"scikit_learn":"{\"_estimator_type\": \"regressor\"}"},"feature_names":[],"feature_types":[],"gradient_booster":{"model":{"gbtree_model_param":{"num_parallel_tree":"1","num_trees":"20"},"iteration_indptr":[0,1,2,3,4,5,6,7,8,9,10,11,12,13,14,15,16,17,18,19,20],"tree_info":[0,0,0,0,0,0,0,0,0,0,0,0,0,0,0,0,0,0,0,0],"trees":[{"base_weights":[-1.419909E-7,-1.4767476E0,1.4248544E1,4.755571E0,-2.1867034E0,5.3353123E1,1.11253805E1,6.576223E-1,1.9362213E1,-2.516129E0,4.5567346E-1,5.5390266E1,7.472044E0,1.226832E0,-3.679229E-1,3.0422595E0,2.3401838E1,-7.857323E-1,1.655859E-2,4.048226E0,-3.2541034E-1,9.575325E0,1.896224E1,1.4817295E0,9.611647E0],"categories":[],"categories_nodes":[],"categories_segments":[],"categories_sizes":[],"default_left":[0,0,0,0,0,0,0,0,0,0,0,0,0,0,0,0,0,0,0,0,0,0,0,0,0],"id":0,"left_children":[1,3,5,7,9,-1,11,13,15,17,19,21,23,-1,-1,-1,-1,-1,-1,-1,-1,-1,-1,-1,-1],"loss_changes":[3.596203E5,6.853085E4,8.1807106E5,9.480118E4,1.210325E4,0E0,2.5444823E5,8.0094946E3,1.8685823E5,3.2735E3,3.0984225E4,2.0001281E4,9.050549E4,0E0,0E0,0E0,0E0,0E0,0E0,0E0,0E0,0E0,0E0,0E0,0E0],"parents":[2147483647,0,0,1,1,2,2,3,3,4,4,6,6,7,7,8,8,9,9,10,10,11,11,12,12],"right_children":[2,4,6,8,10,-1,12,14,16,18,20,22,24,-1,-1,-1,-1,-1,-1,-1,-1,-1,-1,-1,-1],"split_conditions":[1.1402985E0,1.740932E0,8.529383E-2,1E0,5.5163E-1,5.3353123E1,3.2927385E-1,-7.8446984E-1,4.7846392E-1,5.22686E-1,4.5423922E-1,1.8094194E0,5.0184064E0,1.226832E0,-3.679229E-1,3.0422595E0,2.3401838E1,-7.857323E-1,1.655859E-2,4.048226E0,-3.2541034E-1,9.575325E0,1.896224E1,1.4817295E0,9.611647E0],"split_indices":[1,6,0,67,1,0,0,50,1,9,0,1,1,0,0,0,0,0,0,0,0,0,0,0,0],"split_type":[0,0,0,0,0,0,0,0,0,0,0,0,0,0,0,0,0,0,0,0,0,0,0,0,0],"sum_hessian":[1.7089E4,1.5485E4,1.604E3,1.583E3,1.3902E4,2.9E1,1.575E3,1.237E3,3.46E2,1.2361E4,1.541E3,1.19E2,1.456E3,4.38E2,7.99E2,3E2,4.6E1,1.1885E4,4.76E2,1.62E2,1.379E3,3.1E1,8.8E1,1.321E3,1.35E2],"tree_param":{"num_deleted":"0","num_feature":"78","num_nodes":"25","size_leaf_vector":"1"}},{"base_weights":[7.2111E-3,-1.0126544E0,1.03205805E1,3.4528313E0,-1.5217534E0,3.9183857E1,8.165678E0,4.5822507E-1,1.4117122E1,-1.8851075E0,-9.4340265E-2,3.653676E1,5.0605044E0,-4.655636E-1,7.5498325E-1,7.869743E-1,1.2934669E1,-4.234346E-1,-7.0484823E-1,2.856737E0,-3.19596E-1,9.007153E0,1.7067736E1,1.0667167E0,9.975269E0],"categories":[],"categories_nodes":[],"categories_segments":[],"categories_sizes":[],"default_left":[0,0,0,0,0,0,0,0,0,0,0,0,0,0,0,0,0,0,0,0,0,0,0,0,0],"id":1,"left_children":[1,3,5,7,9,-1,11,13,15,17,19,21,23,-1,-1,-1,-1,-1,-1,-1,-1,-1,-1,-1,-1],"loss_changes":[1.7976734E5,3.5363047E4,3.976108E5,5.083461E4,7.241301E3,0E0,1.3301797E5,5.15104E3,1.16210125E5,2.444629E3,2.6473225E4,1.8045562E4,5.77432E4,0E0,0E0,0E0,0E0,0E0,0E0,0E0,0E0,0E0,0E0,0E0,0E0],"parents":[2147483647,0,0,1,1,2,2,3,3,4,4,6,6,7,7,8,8,9,9,10,10,11,11,12,12],"right_children":[2,4,6,8,10,-1,12,14,16,18,20,22,24,-1,-1,-1,-1,-1,-1,-1,-1,-1,-1,-1,-1],"split_conditions":[1.184016E0,1.740932E0,7.1408786E-2,1E0,3.7463483E-1,3.9183857E1,4.998615E-1,1.9976476E-1,2.9934356E-1,3.4712604E-1,4.0663338E-1,2.772419E0,7.7316246E0,-4.655636E-1,7.5498325E-1,7.869743E-1,1.2934669E1,-4.234346E-1,-7.0484823E-1,2.856737E0,-3.19596E-1,9.007153E0,1.7067736E1,1.0667167E0,9.975269E0],"split_indices":[1,6,0,67,1,0,0,1,1,0,0,1,1,0,0,0,0,0,0,0,0,0,0,0,0],"split_type":[0,0,0,0,0,0,0,0,0,0,0,0,0,0,0,0,0,0,0,0,0,0,0,0,0],"sum_hessian":[1.7089E4,1.5552E4,1.537E3,1.591E3,1.3961E4,2.6E1,1.511E3,1.243E3,3.48E2,1.1128E4,2.833E3,1.48E2,1.363E3,6.29E2,6.14E2,2.5E2,9.8E1,5.511E3,5.617E3,2.59E2,2.574E3,1.14E2,3.4E1,1.295E3,6.8E1],"tree_param":{"num_deleted":"0","num_feature":"78","num_nodes":"25","size_leaf_vector":"1"}},{"base_weights":[1.0414719E-2,-4.6827787E-1,1.1742654E1,8.842679E0,-7.715102E-1,3.72657E1,7.7179303E0,5.9564426E1,2.442019E0,-9.4391394E-1,5.057953E0,4.1098206E1,3.3485355E1,1.6786373E1,3.8220408E0,4.393036E0,2.5399305E1,5.359603E0,1.6929871E-1,-3.6932185E-1,2.9860497E-1,2.6843183E0,-5.023488E-2,8.126843E0,1.1741135E1,3.486963E0,7.777772E0,2.5043912E0,1.719526E-1],"categories":[],"categories_nodes":[],"categories_segments":[],"categories_sizes":[],"default_left":[0,0,0,0,0,0,0,0,0,0,0,0,0,0,0,0,0,0,0,0,0,0,0,0,0,0,0,0,0],"id":2,"left_children":[1,3,5,7,9,11,13,15,17,19,21,-1,23,25,27,-1,-1,-1,-1,-1,-1,-1,-1,-1,-1,-1,-1,-1,-1],"loss_changes":[9.5985266E4,4.6369598E4,6.853694E4,1.6802461E5,1.5988635E4,2.9720383E4,2.042704E4,6.415597E4,1.3340581E4,8.603855E3,9.290315E3,0E0,2.1569766E3,7.9095234E3,5.9797983E3,0E0,0E0,0E0,0E0,0E0,0E0,0E0,0E0,0E0,0E0,0E0,0E0,0E0,0E0],"parents":[2147483647,0,0,1,1,2,2,3,3,4,4,5,5,6,6,7,7,8,8,9,9,10,10,12,12,13,13,14,14],"right_children":[2,4,6,8,10,12,14,16,18,20,22,-1,24,26,28,-1,-1,-1,-1,-1,-1,-1,-1,-1,-1,-1,-1,-1,-1],"split_conditions":[2.120603E0,-3.044913E0,7.894638E-1,5.950732E-2,1.6890898E0,5.5540167E-2,-6.401141E-1,6.739784E-1,8.3310254E-2,6.575843E-1,2.0034131E-1,4.1098206E1,2.772419E0,7.7316246E0,1.5352889E0,4.393036E0,2.5399305E1,5.359603E0,1.6929871E-1,-3.6932185E-1,2.9860497E-1,2.6843183E0,-5.023488E-2,8.126843E0,1.1741135E1,3.486963E0,7.777772E0,2.5043912E0,1.719526E-1],"split_indices":[1,55,0,0,18,0,33,1,0,1,0,0,1,1,0,0,0,0,0,0,0,0,0,0,0,0,0,0,0],"split_type":[0,0,0,0,0,0,0,0,0,0,0,0,0,0,0,0,0,0,0,0,0,0,0,0,0,0,0,0,0],"sum_hessian":[1.7089E4,1.642E4,6.69E2,5.17E2,1.5903E4,9E1,5.79E2,5.7E1,4.6E2,1.5447E4,4.56E2,2E0,8.8E1,1.73E2,4.06E2,2.1E1,3.6E1,4.9E1,4.11E2,1.3455E4,1.992E3,2.61E2,1.95E2,4.4E1,4.4E1,1.12E2,6.1E1,1.69E2,2.37E2],"tree_param":{"num_deleted":"0","num_feature":"78","num_nodes":"29","size_leaf_vector":"1"}},{"base_weights":[1.3890165E-2,-4.619136E-1,6.2921963E0,3.6432292E0,-7.040378E-1,3.3129097E1,3.8047473E0,2.3281351E1,1.5547355E0,-8.266549E-1,3.4936528E0,8.3509254E1,2.6121504E1,7.6019144E0,-7.0675325E-1,7.966712E-1,1.4990205E1,-3.4128335E-1,1.0418625E0,-1.2584117E-1,-4.6959683E-1,-2.9202032E-1,2.6522145E0,1.7817825E1,3.1618145E1,9.722761E0,7.094109E0,1.4532377E0,4.7255654E0,4.4052023E-1,-9.5768464E-1],"categories":[],"categories_nodes":[],"categories_segments":[],"categories_sizes":[],"default_left":[0,0,0,0,0,0,0,0,0,0,0,0,0,0,0,0,0,0,0,0,0,0,0,0,0,0,0,0,0,0,0],"id":3,"left_children":[1,3,5,7,9,11,13,15,17,19,21,23,25,27,29,-1,-1,-1,-1,-1,-1,-1,-1,-1,-1,-1,-1,-1,-1,-1,-1],"loss_changes":[5.1054863E4,1.579352E4,8.024747E4,3.626128E4,7.7250615E3,3.382907E4,1.8900777E4,4.665296E4,4.1405513E3,4.3840273E3,1.0183876E4,7.371875E1,6.4946484E2,1.3386762E4,2.7349233E3,0E0,0E0,0E0,0E0,0E0,0E0,0E0,0E0,0E0,0E0,0E0,0E0,0E0,0E0,0E0,0E0],"parents":[2147483647,0,0,1,1,2,2,3,3,4,4,5,5,6,6,7,7,8,8,9,9,10,10,11,11,12,12,13,13,14,14],"right_children":[2,4,6,8,10,12,14,16,18,20,22,24,26,28,30,-1,-1,-1,-1,-1,-1,-1,-1,-1,-1,-1,-1,-1,-1,-1,-1],"split_conditions":[1.4396421E0,-1.9595162E0,2.915859E-1,5.950732E-2,1.6890898E0,5.950732E-2,1.5848783E0,3.1877354E-1,1.727449E-1,1E0,2.4044633E-1,1.6485146E0,2.281114E-1,3.3701954E0,2.3882272E0,7.966712E-1,1.4990205E1,-3.4128335E-1,1.0418625E0,-1.2584117E-1,-4.6959683E-1,-2.9202032E-1,2.6522145E0,1.7817825E1,3.1618145E1,9.722761E0,7.094109E0,1.4532377E0,4.7255654E0,4.4052023E-1,-9.5768464E-1],"split_indices":[1,52,0,0,18,0,0,1,1,64,1,1,0,1,0,0,0,0,0,0,0,0,0,0,0,0,0,0,0,0,0],"split_type":[0,0,0,0,0,0,0,0,0,0,0,0,0,0,0,0,0,0,0,0,0,0,0,0,0,0,0,0,0,0,0],"sum_hessian":[1.7089E4,1.5886E4,1.203E3,8.84E2,1.5002E4,1.01E2,1.102E3,8.4E1,8E2,1.4577E4,4.25E2,1.1E1,9E1,5.98E2,5.04E2,4.8E1,3.6E1,3.33E2,4.67E2,9.398E3,5.179E3,2.32E2,1.93E2,7E0,4E0,2.2E1,6.8E1,4.48E2,1.5E2,2.69E2,2.35E2],"tree_param":{"num_deleted":"0","num_feature":"78","num_nodes":"31","size_leaf_vector":"1"}},{"base_weights":[1.4999093E-2,-1.9932295E-1,7.5942154E0,-1.0582274E0,6.811622E-1,2.3073137E1,5.1854744E0,-1.5541387E0,-5.6265384E-1,2.19668E1,1.8217432E-1,2.4491201E1,2.0811821E1,3.5941133E0,1.3089426E1,-1.1006248E0,-4.1687334E-1,6.392567E-1,-3.232728E-1,4.57084E0,1.4440286E1,1.6882781E0,-1.8788522E-1,5.0820546E0,7.2411013E0,2.3390357E0,6.168349E-1,4.911368E0,1.20694734E-1],"categories":[],"categories_nodes":[],"categories_segments":[],"categories_sizes":[],"default_left":[0,0,0,0,0,0,0,0,0,0,0,0,0,0,0,0,0,0,0,0,0,0,0,0,0,0,0,0,0],"id":4,"left_children":[1,3,5,7,9,11,13,15,17,19,21,-1,23,25,27,-1,-1,-1,-1,-1,-1,-1,-1,-1,-1,-1,-1,-1,-1],"loss_changes":[2.7762389E4,1.25703955E4,1.740417E4,2.0669531E3,8.717542E4,6.644199E3,5.084796E3,1.458168E3,5.8413457E3,3.237807E4,3.5315137E4,0E0,3.8929688E2,2.1880898E3,2.8246992E3,0E0,0E0,0E0,0E0,0E0,0E0,0E0,0E0,0E0,0E0,0E0,0E0,0E0,0E0],"parents":[2147483647,0,0,1,1,2,2,3,3,4,4,5,5,6,6,7,7,8,8,9,9,10,10,12,12,13,13,14,14],"right_children":[2,4,6,8,10,12,14,16,18,20,22,-1,24,26,28,-1,-1,-1,-1,-1,-1,-1,-1,-1,-1,-1,-1,-1,-1],"split_conditions":[2.5693147E0,1.5908319E-1,8.3111894E-1,5.282533E-2,8.7277405E-2,5.5540167E-2,7.7316246E0,1.740932E0,1.7257124E-1,9.3537265E-1,3.530768E-1,2.4491201E1,1.5334918E0,1.2635388E0,1.491578E-3,-1.1006248E0,-4.1687334E-1,6.392567E-1,-3.232728E-1,4.57084E0,1.4440286E1,1.6882781E0,-1.8788522E-1,5.0820546E0,7.2411013E0,2.3390357E0,6.168349E-1,4.911368E0,1.20694734E-1],"split_indices":[1,1,0,1,0,0,1,6,0,1,0,0,5,0,13,0,0,0,0,0,0,0,0,0,0,0,0,0,0],"split_type":[0,0,0,0,0,0,0,0,0,0,0,0,0,0,0,0,0,0,0,0,0,0,0,0,0,0,0,0,0],"sum_hessian":[1.7089E4,1.662E4,4.69E2,8.413E3,8.207E3,6.2E1,4.07E2,4.204E3,4.209E3,1.87E2,8.02E3,1E0,6.1E1,3.4E2,6.7E1,3.02E2,3.902E3,6.75E2,3.534E3,1.5E2,3.7E1,1.036E3,6.984E3,3.1E1,3E1,9E1,2.5E2,5.3E1,1.4E1],"tree_param":{"num_deleted":"0","num_feature":"78","num_nodes":"29","size_leaf_vector":"1"}},{"base_weights":[1.4250788E-2,-4.0988994E-1,2.369625E0,-9.8951906E-1,-5.0921194E-2,2.0076237E1,1.0251359E0,-2.6237764E0,-8.888128E-1,3.5076926E0,-6.0592777E-1,3.9262985E1,1.5623087E1,3.3296423E0,-1.405123E0,-5.448024E-1,-1.2667025E0,-3.510215E-1,-2.082557E-1,6.426582E-1,2.1167014E0,1.3353756E-1,-2.4699625E-1,1.5590402E1,7.524757E0,5.920755E0,3.8083496E0,7.938912E-1,3.1069188E0,-2.4578974E-1,-1.0750362E0],"categories":[],"categories_nodes":[],"categories_segments":[],"categories_sizes":[],"default_left":[0,0,0,0,0,0,0,0,0,0,0,0,0,0,0,0,0,0,0,0,0,0,0,0,0,0,0,0,0,0,0],"id":5,"left_children":[1,3,5,7,9,11,13,15,17,19,21,23,25,27,29,-1,-1,-1,-1,-1,-1,-1,-1,-1,-1,-1,-1,-1,-1,-1,-1],"loss_changes":[1.7074055E4,3.0134094E3,6.206637E4,9.0927686E2,1.7668986E4,1.510782E4,1.3586006E4,4.0683008E2,2.8487842E2,5.8325107E3,1.7686626E3,4.8220586E3,1.5681992E3,5.9506484E3,1.5041597E3,0E0,0E0,0E0,0E0,0E0,0E0,0E0,0E0,0E0,0E0,0E0,0E0,0E0,0E0,0E0,0E0],"parents":[2147483647,0,0,1,1,2,2,3,3,4,4,5,5,6,6,7,7,8,8,9,9,10,10,11,11,12,12,13,13,14,14],"right_children":[2,4,6,8,10,12,14,16,18,20,22,24,26,28,30,-1,-1,-1,-1,-1,-1,-1,-1,-1,-1,-1,-1,-1,-1,-1,-1],"split_conditions":[7.261965E-1,7.8327216E-2,2.6976654E-1,5.1538297E-4,2.3802929E-1,5.7523746E-2,1.5848783E0,1E0,2.6412666E-2,2.4044633E-1,5.1374656E-1,7.4804485E-1,2.1422637E-1,3.920004E0,3.600193E0,-5.448024E-1,-1.2667025E0,-3.510215E-1,-2.082557E-1,6.426582E-1,2.1167014E0,1.3353756E-1,-2.4699625E-1,1.5590402E1,7.524757E0,5.920755E0,3.8083496E0,7.938912E-1,3.1069188E0,-2.4578974E-1,-1.0750362E0],"split_indices":[1,1,0,11,0,0,0,67,1,1,0,5,0,1,0,0,0,0,0,0,0,0,0,0,0,0,0,0,0,0,0],"split_type":[0,0,0,0,0,0,0,0,0,0,0,0,0,0,0,0,0,0,0,0,0,0,0,0,0,0,0,0,0,0,0],"sum_hessian":[1.7089E4,1.4482E4,2.607E3,5.538E3,8.944E3,1.83E2,2.424E3,3.2E2,5.218E3,1.206E3,7.738E3,3.3E1,1.5E2,1.244E3,1.18E3,2.14E2,1.06E2,2.132E3,3.086E3,8.72E2,3.34E2,1.326E3,6.412E3,1.6E1,1.7E1,6E1,9E1,1.135E3,1.09E2,9.31E2,2.49E2],"tree_param":{"num_deleted":"0","num_feature":"78","num_nodes":"31","size_leaf_vector":"1"}},{"base_weights":[1.2064452E-2,-1.6969138E-1,3.4008567E0,1.1348877E-1,-1.0840031E0,1.2232746E1,1.7762564E0,-3.2626164E-1,3.0931199E0,-9.1158706E-1,-2.3599997E0,1.9543705E1,1.0947246E1,1.1962106E0,7.456762E0,-1.592246E-1,2.407326E-1,4.6086864E0,6.303514E-1,-7.8674465E-1,-2.4773577E-1,-4.7405106E-1,-8.7332416E-1,2.8850503E0,5.067589E0,1.1386595E0,1.4846563E-1,7.90067E0,1.7596031E0],"categories":[],"categories_nodes":[],"categories_segments":[],"categories_sizes":[],"default_left":[0,0,0,0,0,0,0,0,0,0,0,0,0,0,0,0,0,0,0,0,0,0,0,0,0,0,0,0,0],"id":6,"left_children":[1,3,5,7,9,11,13,15,17,19,21,-1,23,25,27,-1,-1,-1,-1,-1,-1,-1,-1,-1,-1,-1,-1,-1,-1],"loss_changes":[1.0526869E4,4.199982E3,1.2461284E4,1.623031E4,8.4177686E2,8.46948E3,2.4161655E3,2.4917375E3,1.9355145E4,4.9415454E2,1.9136548E2,0E0,8.894375E2,1.2176879E3,1.88853E3,0E0,0E0,0E0,0E0,0E0,0E0,0E0,0E0,0E0,0E0,0E0,0E0,0E0,0E0],"parents":[2147483647,0,0,1,1,2,2,3,3,4,4,5,5,6,6,7,7,8,8,9,9,10,10,12,12,13,13,14,14],"right_children":[2,4,6,8,10,12,14,16,18,20,22,-1,24,26,28,-1,-1,-1,-1,-1,-1,-1,-1,-1,-1,-1,-1,-1,-1],"split_conditions":[1.8094194E0,1.2060151E0,8.3111894E-1,3.6795574E-1,1.1402985E0,5.5540167E-2,7.7316246E0,1.8519226E-1,1.487683E-1,1.740932E0,1.9359715E0,1.9543705E1,3.3701954E0,1.178245E0,1.1306391E0,-1.592246E-1,2.407326E-1,4.6086864E0,6.303514E-1,-7.8674465E-1,-2.4773577E-1,-4.7405106E-1,-8.7332416E-1,2.8850503E0,5.067589E0,1.1386595E0,1.4846563E-1,7.90067E0,1.7596031E0],"split_indices":[1,0,0,1,1,0,1,1,0,6,0,0,1,0,0,0,0,0,0,0,0,0,0,0,0,0,0,0,0],"split_type":[0,0,0,0,0,0,0,0,0,0,0,0,0,0,0,0,0,0,0,0,0,0,0,0,0,0,0,0,0],"sum_hessian":[1.7089E4,1.622E4,8.69E2,1.2385E4,3.835E3,1.34E2,7.35E2,1.0793E4,1.592E3,3.38E3,4.55E2,2E0,1.32E2,6.68E2,6.7E1,9.138E3,1.655E3,1.18E2,1.474E3,1.6E2,3.22E3,1.9E2,2.65E2,1.1E2,2.2E1,1.41E2,5.27E2,4E0,6.3E1],"tree_param":{"num_deleted":"0","num_feature":"78","num_nodes":"29","size_leaf_vector":"1"}},{"base_weights":[1.0866555E-2,-1.2571622E-1,2.3655596E0,1.419307E-1,-6.83993E-1,4.601673E1,2.129095E0,-9.746225E-2,5.008531E0,-5.275672E-1,-1.3764896E0,1.5201287E1,4.1099763E0,8.167301E0,1.1848586E0,-1.3028495E-1,2.6384053E-1,3.7225378E0,9.206913E-1,-5.1982015E-1,-1.29456E-1,-3.6083388E-1,-7.3584247E-1,2.2493854E0,4.8107266E0,6.224787E-1,-3.4781522E-1],"categories":[],"categories_nodes":[],"categories_segments":[],"categories_sizes":[],"default_left":[0,0,0,0,0,0,0,0,0,0,0,0,0,0,0,0,0,0,0,0,0,0,0,0,0,0,0],"id":7,"left_children":[1,3,5,7,9,11,13,15,17,19,21,-1,-1,23,25,-1,-1,-1,-1,-1,-1,-1,-1,-1,-1,-1,-1],"loss_changes":[5.4966216E3,2.4138447E3,9.573697E3,1.2722613E4,5.6635156E2,5.786035E1,5.309818E3,3.42547E3,7.310453E3,4.9374878E2,1.7728638E2,0E0,0E0,5.43376E2,1.6883306E3,0E0,0E0,0E0,0E0,0E0,0E0,0E0,0E0,0E0,0E0,0E0,0E0],"parents":[2147483647,0,0,1,1,2,2,3,3,4,4,5,5,6,6,7,7,8,8,9,9,10,10,13,13,14,14],"right_children":[2,4,6,8,10,12,14,16,18,20,22,-1,-1,24,26,-1,-1,-1,-1,-1,-1,-1,-1,-1,-1,-1,-1],"split_conditions":[1.7195556E0,9.302978E-1,5.7523746E-2,6.4119023E-1,2.4655867E0,5.5540167E-2,7.478087E-1,1.3601005E-1,2.1819352E-1,1.740932E0,1.184016E0,1.5201287E1,4.1099763E0,3.920004E0,2.154165E0,-1.3028495E-1,2.6384053E-1,3.7225378E0,9.206913E-1,-5.1982015E-1,-1.29456E-1,-3.6083388E-1,-7.3584247E-1,2.2493854E0,4.8107266E0,6.224787E-1,-3.4781522E-1],"split_indices":[1,0,0,1,0,0,0,1,0,6,1,0,0,1,0,0,0,0,0,0,0,0,0,0,0,0,0],"split_type":[0,0,0,0,0,0,0,0,0,0,0,0,0,0,0,0,0,0,0,0,0,0,0,0,0,0,0],"sum_hessian":[1.7089E4,1.6153E4,9.36E2,1.0919E4,5.234E3,4E0,9.32E2,1.0408E4,5.11E2,4.271E3,9.63E2,3E0,1E0,1.25E2,8.07E2,7.74E3,2.668E3,1.05E2,4.06E2,3.14E2,3.957E3,8.31E2,1.32E2,1.17E2,8E0,5.85E2,2.22E2],"tree_param":{"num_deleted":"0","num_feature":"78","num_nodes":"27","size_leaf_vector":"1"}},{"base_weights":[9.343119E-3,-6.522623E-2,2.646381E0,7.650064E-1,-2.1351317E-1,1.3267212E1,2.463435E0,-3.5627205E-2,6.7550516E0,-4.147526E-1,1.2335063E-1,5.999252E0,1.4767045E0,-1.8780865E-1,4.2578426E-1,6.086511E0,1.6955503E0,-3.9870867E-1,-1.0192614E-1,7.224278E-1,-1.1410393E-1,1.572942E0,5.8857617E0,6.468327E-1,-6.5753084E-1],"categories":[],"categories_nodes":[],"categories_segments":[],"categories_sizes":[],"default_left":[0,0,0,0,0,0,0,0,0,0,0,0,0,0,0,0,0,0,0,0,0,0,0,0,0],"id":8,"left_children":[1,3,5,7,9,-1,11,13,15,17,19,21,23,-1,-1,-1,-1,-1,-1,-1,-1,-1,-1,-1,-1],"loss_changes":[3.3607874E3,2.046419E3,3.4660972E3,1.208094E4,9.5609753E2,0E0,1.6274341E3,1.9104008E3,4.3196006E3,6.049502E2,6.071479E3,9.4755225E2,9.219206E2,0E0,0E0,0E0,0E0,0E0,0E0,0E0,0E0,0E0,0E0,0E0,0E0],"parents":[2147483647,0,0,1,1,2,2,3,3,4,4,6,6,7,7,8,8,9,9,10,10,11,11,12,12],"right_children":[2,4,6,8,10,-1,12,14,16,18,20,22,24,-1,-1,-1,-1,-1,-1,-1,-1,-1,-1,-1,-1],"split_conditions":[2.5693147E0,1.1703107E-1,5.5540167E-2,1.2143754E-1,2.9084292E-1,1.3267212E1,1.0969183E0,2.7930634E-2,4.562228E-2,1.740932E0,6.922685E-1,7.7316246E0,3.0348735E0,-1.8780865E-1,4.2578426E-1,6.086511E0,1.6955503E0,-3.9870867E-1,-1.0192614E-1,7.224278E-1,-1.1410393E-1,1.572942E0,5.8857617E0,6.468327E-1,-6.5753084E-1],"split_indices":[1,0,0,1,1,0,0,1,0,6,0,1,0,0,0,0,0,0,0,0,0,0,0,0,0],"split_type":[0,0,0,0,0,0,0,0,0,0,0,0,0,0,0,0,0,0,0,0,0,0,0,0,0],"sum_hessian":[1.7089E4,1.662E4,4.69E2,2.518E3,1.4102E4,1E0,4.68E2,2.222E3,2.96E2,8.828E3,5.274E3,1.01E2,3.67E2,1.581E3,6.41E2,2.1E1,2.75E2,6.68E2,8.16E3,9.52E2,4.322E3,9.7E1,4E0,3.1E2,5.7E1],"tree_param":{"num_deleted":"0","num_feature":"78","num_nodes":"25","size_leaf_vector":"1"}},{"base_weights":[8.227883E-3,-3.99464E-2,2.4104657E0,3.69731E-1,-2.5244924E-1,9.894901E0,1.9805901E0,1.6581017E-1,7.02977E0,-1.1377791E0,-1.688263E-1,7.12804E0,5.3390718E0,2.5880325E0,-1.5898862E0,-1.3312559E-1,3.2361254E-1,4.912873E0,1.5214435E0,-3.1198347E-1,-1.6276721E0,-1.811804E-2,-2.1320899E-1,2.9397967E0,1.069726E0,5.437594E-1,1.5276624E0,1.9381665E-1,-1.5684388E0],"categories":[],"categories_nodes":[],"categories_segments":[],"categories_sizes":[],"default_left":[0,0,0,0,0,0,0,0,0,0,0,0,0,0,0,0,0,0,0,0,0,0,0,0,0,0,0,0,0],"id":9,"left_children":[1,3,5,7,9,11,13,15,17,19,21,23,-1,25,27,-1,-1,-1,-1,-1,-1,-1,-1,-1,-1,-1,-1,-1,-1],"loss_changes":[1.9778551E3,1.4587438E3,1.0614404E3,7.7713604E3,8.166237E2,2.6669043E2,6.959807E2,3.0911028E3,3.0284785E3,3.9371484E2,5.9234045E2,1.0779608E2,0E0,5.209337E2,3.8571786E2,0E0,0E0,0E0,0E0,0E0,0E0,0E0,0E0,0E0,0E0,0E0,0E0,0E0,0E0],"parents":[2147483647,0,0,1,1,2,2,3,3,4,4,5,5,6,6,7,7,8,8,9,9,10,10,11,11,13,13,14,14],"right_children":[2,4,6,8,10,12,14,16,18,20,22,24,-1,26,28,-1,-1,-1,-1,-1,-1,-1,-1,-1,-1,-1,-1,-1,-1],"split_conditions":[3.0010252E0,2.618322E-1,2.8365156E-1,6.739784E-1,1.740932E0,3.920004E0,3.0348735E0,3.9770797E-2,5.5540167E-2,1E0,1.9696923E0,2.5786507E-1,5.3390718E0,7.7316246E0,5.0184064E0,-1.3312559E-1,3.2361254E-1,4.912873E0,1.5214435E0,-3.1198347E-1,-1.6276721E0,-1.811804E-2,-2.1320899E-1,2.9397967E0,1.069726E0,5.437594E-1,1.5276624E0,1.9381665E-1,-1.5684388E0],"split_indices":[1,0,0,1,6,1,0,1,0,67,0,0,0,1,1,0,0,0,0,0,0,0,0,0,0,0,0,0,0],"split_type":[0,0,0,0,0,0,0,0,0,0,0,0,0,0,0,0,0,0,0,0,0,0,0,0,0,0,0,0,0],"sum_hessian":[1.7089E4,1.6754E4,3.35E2,5.722E3,1.1032E4,1.7E1,3.18E2,5.553E3,1.69E2,9.51E2,1.0081E4,1.4E1,3E0,2.72E2,4.6E1,3.33E3,2.223E3,2.8E1,1.41E2,9.31E2,2E1,8.401E3,1.68E3,7E0,7E0,2.09E2,6.3E1,2.9E1,1.7E1],"tree_param":{"num_deleted":"0","num_feature":"78","num_nodes":"29","size_leaf_vector":"1"}},{"base_weights":[6.607906E-3,-1.0065945E-1,7.841377E-1,2.512905E-1,-2.3470634E-1,5.193442E0,9.51309E-2,-1.17396995E-1,2.218367E0,-1.1147394E0,-1.6444811E-1,1.2664071E1,4.346125E0,1.4713984E0,-2.0599225E-1,-4.6724686E-1,1.0801993E-2,1.9815155E0,5.580023E-1,-2.7516168E-1,-1.5909953E0,-9.713685E-2,2.6874127E-2,1.8121953E0,6.7053356E0,1.2470219E0,3.434911E0,3.8918266E-1,4.496958E0,-1.3164237E-1,4.3710366E-1],"categories":[],"categories_nodes":[],"categories_segments":[],"categories_sizes":[],"default_left":[0,0,0,0,0,0,0,0,0,0,0,0,0,0,0,0,0,0,0,0,0,0,0,0,0,0,0,0,0,0,0],"id":10,"left_children":[1,3,5,7,9,11,13,15,17,19,21,23,25,27,29,-1,-1,-1,-1,-1,-1,-1,-1,-1,-1,-1,-1,-1,-1,-1,-1],"loss_changes":[1.4254459E3,7.086223E2,6.294326E3,3.0049153E3,6.723368E2,1.7173574E3,7.433689E2,7.71051E2,1.0158096E3,6.603541E2,4.0779684E2,1.6615034E3,2.92771E2,7.385017E2,5.705587E2,0E0,0E0,0E0,0E0,0E0,0E0,0E0,0E0,0E0,0E0,0E0,0E0,0E0,0E0,0E0,0E0],"parents":[2147483647,0,0,1,1,2,2,3,3,4,4,5,5,6,6,7,7,8,8,9,9,10,10,11,11,12,12,13,13,14,14],"right_children":[2,4,6,8,10,12,14,16,18,20,22,24,26,28,30,-1,-1,-1,-1,-1,-1,-1,-1,-1,-1,-1,-1,-1,-1,-1,-1],"split_conditions":[9.0713847E-1,1.8050554E-1,6.446627E-1,1.0109676E-1,1.740932E0,5.7523746E-2,1.0770825E0,1.740932E0,5.5540167E-2,1E0,2.5016135E-1,1.3783162E0,3.920004E0,7.7316246E0,3.920004E0,-4.6724686E-1,1.0801993E-2,1.9815155E0,5.580023E-1,-2.7516168E-1,-1.5909953E0,-9.713685E-2,2.6874127E-2,1.8121953E0,6.7053356E0,1.2470219E0,3.434911E0,3.8918266E-1,4.496958E0,-1.3164237E-1,4.3710366E-1],"split_indices":[1,0,0,1,6,0,0,6,0,67,1,1,1,1,1,0,0,0,0,0,0,0,0,0,0,0,0,0,0,0,0],"split_type":[0,0,0,0,0,0,0,0,0,0,0,0,0,0,0,0,0,0,0,0,0,0,0,0,0,0,0,0,0,0,0],"sum_hessian":[1.7089E4,1.5018E4,2.071E3,4.142E3,1.0876E4,2.79E2,1.792E3,3.489E3,6.53E2,8.03E2,1.0073E4,2.7E1,2.52E2,3.21E2,1.471E3,3.35E2,3.154E3,4.8E1,6.05E2,7.68E2,3.5E1,6.19E3,3.883E3,1.7E1,1E1,2.47E2,5E0,3.18E2,3E0,1.291E3,1.8E2],"tree_param":{"num_deleted":"0","num_feature":"78","num_nodes":"31","size_leaf_vector":"1"}},{"base_weights":[5.7102274E-3,-7.045186E-2,5.5777234E-1,2.4934083E-1,-1.5361351E-1,3.771577E0,8.028903E-2,-1.0922305E-1,1.7622539E0,-1.2592351E-1,-1.7674109E0,1.6350615E1,3.371562E0,2.436068E-1,-1.5125372E0,-4.5437187E-1,9.61145E-3,1.0906713E0,3.513429E-1,-2.4001808E-1,-2.8780792E-2,-6.5414274E-1,-3.0680366E-2,6.1723666E0,7.357592E-1,1.3656718E0,6.091178E-1,1.3070404E-2,5.5608696E-1,-3.7315416E-1,-1.6900373E0],"categories":[],"categories_nodes":[],"categories_segments":[],"categories_sizes":[],"default_left":[0,0,0,0,0,0,0,0,0,0,0,0,0,0,0,0,0,0,0,0,0,0,0,0,0,0,0,0,0,0,0],"id":11,"left_children":[1,3,5,7,9,11,13,15,17,19,21,23,25,27,29,-1,-1,-1,-1,-1,-1,-1,-1,-1,-1,-1,-1,-1,-1,-1,-1],"loss_changes":[7.186089E2,3.9946094E2,3.17926E3,1.6818682E3,5.3243524E2,1.2933955E3,4.6991547E2,4.9774173E2,6.535011E2,2.3685133E2,1.3802728E2,4.1917773E2,4.0404785E2,5.274629E2,1.7901099E2,0E0,0E0,0E0,0E0,0E0,0E0,0E0,0E0,0E0,0E0,0E0,0E0,0E0,0E0,0E0,0E0],"parents":[2147483647,0,0,1,1,2,2,3,3,4,4,5,5,6,6,7,7,8,8,9,9,10,10,11,11,12,12,13,13,14,14],"right_children":[2,4,6,8,10,12,14,16,18,20,22,24,26,28,30,-1,-1,-1,-1,-1,-1,-1,-1,-1,-1,-1,-1,-1,-1,-1,-1],"split_conditions":[9.0713847E-1,1.3885042E-1,6.228433E-1,6.982659E-2,1.6890898E0,1.1220672E-1,3.8104522E0,1.740932E0,6.545805E-2,-1.9595162E0,4.6358782E-1,4.562228E-2,5.647261E-1,3.920004E0,5.0184064E0,-4.5437187E-1,9.61145E-3,1.0906713E0,3.513429E-1,-2.4001808E-1,-2.8780792E-2,-6.5414274E-1,-3.0680366E-2,6.1723666E0,7.357592E-1,1.3656718E0,6.091178E-1,1.3070404E-2,5.5608696E-1,-3.7315416E-1,-1.6900373E0],"split_indices":[1,0,0,1,18,5,0,6,0,52,1,0,33,1,1,0,0,0,0,0,0,0,0,0,0,0,0,0,0,0,0],"split_type":[0,0,0,0,0,0,0,0,0,0,0,0,0,0,0,0,0,0,0,0,0,0,0,0,0,0,0,0,0,0,0],"sum_hessian":[1.7089E4,1.5018E4,2.071E3,3.099E3,1.1919E4,2.67E2,1.804E3,2.506E3,5.93E2,1.1719E4,2E2,7E0,2.6E2,1.637E3,1.67E2,2.28E2,2.278E3,1.41E2,4.52E2,4.98E2,1.1221E4,1.6E2,4E1,5E0,2E0,1.37E2,1.23E2,1.457E3,1.8E2,1.58E2,9E0],"tree_param":{"num_deleted":"0","num_feature":"78","num_nodes":"31","size_leaf_vector":"1"}},{"base_weights":[4.4320584E-3,-8.967576E-2,2.8655636E-1,-6.1174743E-2,-1.1918494E0,1.837545E0,-3.5460923E-2,1.591298E-1,-1.739991E-1,1.8418856E-1,-1.8187144E0,6.6270165E0,1.6101054E0,2.511156E-1,-5.3572047E-1,-2.1467835E-3,5.5342835E-1,-3.3897293E-1,-4.302564E-2,-3.5867622E-1,1.415483E0,-7.886283E-1,-2.7706075E-1,1.1722158E0,7.610248E0,-9.421397E-1,5.112481E-1,5.5079747E-2,7.7823883E-1,-1.518638E-1,-1.761531E0],"categories":[],"categories_nodes":[],"categories_segments":[],"categories_sizes":[],"default_left":[0,0,0,0,0,0,0,0,0,0,0,0,0,0,0,0,0,0,0,0,0,0,0,0,0,0,0,0,0,0,0],"id":12,"left_children":[1,3,5,7,9,11,13,15,17,19,21,23,25,27,29,-1,-1,-1,-1,-1,-1,-1,-1,-1,-1,-1,-1,-1,-1,-1,-1],"loss_changes":[4.53767E2,4.0251703E2,2.135193E3,3.10575E2,2.7895157E2,7.8997705E2,5.0778165E2,1.1862277E3,2.4138235E2,6.4375574E2,1.5855243E2,1.5827963E3,3.1946252E2,3.5577194E2,2.0014496E2,0E0,0E0,0E0,0E0,0E0,0E0,0E0,0E0,0E0,0E0,0E0,0E0,0E0,0E0,0E0,0E0],"parents":[2147483647,0,0,1,1,2,2,3,3,4,4,5,5,6,6,7,7,8,8,9,9,10,10,11,11,12,12,13,13,14,14],"right_children":[2,4,6,8,10,12,14,16,18,20,22,24,26,28,30,-1,-1,-1,-1,-1,-1,-1,-1,-1,-1,-1,-1,-1,-1,-1,-1],"split_conditions":[4.311033E-1,1.6890898E0,7.061536E-1,2.0034131E-1,6.942521E-2,5.5540167E-2,1.9934953E0,1.2750942E-1,-1.9595162E0,2.1798038E-1,2.0034131E-1,1.6485146E0,5.950732E-2,7.7316246E0,7.7316246E0,-2.1467835E-3,5.5342835E-1,-3.3897293E-1,-4.302564E-2,-3.5867622E-1,1.415483E0,-7.886283E-1,-2.7706075E-1,1.1722158E0,7.610248E0,-9.421397E-1,5.112481E-1,5.5079747E-2,7.7823883E-1,-1.518638E-1,-1.761531E0],"split_indices":[1,18,0,0,0,0,0,1,52,1,0,1,0,1,1,0,0,0,0,0,0,0,0,0,0,0,0,0,0,0,0],"split_type":[0,0,0,0,0,0,0,0,0,0,0,0,0,0,0,0,0,0,0,0,0,0,0,0,0,0,0,0,0,0,0],"sum_hessian":[1.7089E4,1.2815E4,4.274E3,1.2493E4,3.22E2,7.34E2,3.54E3,4.231E3,8.262E3,1.01E2,2.21E2,3.2E1,7.02E2,2.251E3,1.289E3,3.852E3,3.79E2,2.55E2,8.007E3,7.8E1,2.3E1,1.15E2,1.06E2,2.9E1,3E0,1.3E1,6.89E2,2.189E3,6.2E1,1.283E3,6E0],"tree_param":{"num_deleted":"0","num_feature":"78","num_nodes":"31","size_leaf_vector":"1"}},{"base_weights":[3.537308E-3,-1.4103534E-2,8.8320625E-1,4.8077497E-1,-4.7927536E-2,2.9310694E0,3.6224753E-1,3.9682356E-1,1.8316645E1,-4.106921E-1,-5.478447E-3,2.2410364E0,9.687905E0,-1.3439068E0,7.29514E-1,-1.0701959E-1,5.45808E-1,2.774737E0,8.18801E0,-6.945349E-2,-6.780646E-1,-5.9276465E-2,2.8106485E-2,2.662308E-1,1.5986949E0,5.085498E-1,7.447741E0,4.8972238E-2,-1.4011543E0,1.2058438E0,1.3112412E-1],"categories":[],"categories_nodes":[],"categories_segments":[],"categories_sizes":[],"default_left":[0,0,0,0,0,0,0,0,0,0,0,0,0,0,0,0,0,0,0,0,0,0,0,0,0,0,0,0,0,0,0],"id":13,"left_children":[1,3,5,7,9,11,13,15,17,19,21,23,25,27,29,-1,-1,-1,-1,-1,-1,-1,-1,-1,-1,-1,-1,-1,-1,-1,-1],"loss_changes":[2.652168E2,2.8048117E2,3.5740063E2,1.5978871E3,2.4151608E2,2.9533496E2,1.6953938E2,1.1455024E3,1.5454333E2,5.4396436E2,2.675312E2,2.586011E2,6.838757E2,2.4141943E2,2.1182861E2,0E0,0E0,0E0,0E0,0E0,0E0,0E0,0E0,0E0,0E0,0E0,0E0,0E0,0E0,0E0,0E0],"parents":[2147483647,0,0,1,1,2,2,3,3,4,4,5,5,6,6,7,7,8,8,9,9,10,10,11,11,12,12,13,13,14,14],"right_children":[2,4,6,8,10,12,14,16,18,20,22,24,26,28,30,-1,-1,-1,-1,-1,-1,-1,-1,-1,-1,-1,-1,-1,-1,-1,-1],"split_conditions":[3.0010252E0,6.942521E-2,1.1306391E0,1.6485146E0,2.080626E0,7.7316246E0,-4.1112038E-1,2.125157E-2,2.2271645E0,1E0,8.8042215E-2,1.5334918E0,1E0,7.7316246E0,-1.8264254E0,-1.0701959E-1,5.45808E-1,2.774737E0,8.18801E0,-6.945349E-2,-6.780646E-1,-5.9276465E-2,2.8106485E-2,2.662308E-1,1.5986949E0,5.085498E-1,7.447741E0,4.8972238E-2,-1.4011543E0,1.2058438E0,1.3112412E-1],"split_indices":[1,0,0,1,6,1,12,1,1,67,1,5,73,1,16,0,0,0,0,0,0,0,0,0,0,0,0,0,0,0,0],"split_type":[0,0,0,0,0,0,0,0,0,0,0,0,0,0,0,0,0,0,0,0,0,0,0,0,0,0,0,0,0,0,0],"sum_hessian":[1.7089E4,1.6754E4,3.35E2,1.071E3,1.5683E4,6.7E1,2.68E2,1.067E3,4E0,1.642E3,1.4041E4,6.2E1,5E0,4.7E1,2.21E2,6.98E2,3.69E2,3E0,1E0,1.498E3,1.44E2,4.78E3,9.261E3,4.4E1,1.8E1,4E0,1E0,3.3E1,1.4E1,1.7E1,2.04E2],"tree_param":{"num_deleted":"0","num_feature":"78","num_nodes":"31","size_leaf_vector":"1"}},{"base_weights":[3.6714773E-3,7.6834716E-2,-2.5127774E-1,-2.3231128E-2,6.935421E-1,-1.967251E-1,-8.1488997E-1,-4.6190283E-1,2.7616108E-2,2.5965548E0,4.5018274E-1,1.3273883E0,-2.0948687E-1,-7.2714555E-1,-3.6026423E0,-7.677585E-1,-1.1765981E-1,-1.2896868E-2,1.4294702E-1,6.231018E-1,2.5118363E0,-4.3703964E-1,1.7673638E-1,-8.671613E-1,9.2155856E-1,-9.87161E-2,-2.1354469E-2,-2.3104797E-1,8.68631E-2,-1.3030335E0,-4.2167324E-1],"categories":[],"categories_nodes":[],"categories_segments":[],"categories_sizes":[],"default_left":[0,0,0,0,0,0,0,0,0,0,0,0,0,0,0,0,0,0,0,0,0,0,0,0,0,0,0,0,0,0,0],"id":14,"left_children":[1,3,5,7,9,11,13,15,17,19,21,23,25,27,29,-1,-1,-1,-1,-1,-1,-1,-1,-1,-1,-1,-1,-1,-1,-1,-1],"loss_changes":[3.1879755E2,8.195428E2,1.17014725E2,2.5489476E2,8.574481E2,6.788757E1,7.956918E1,1.7252211E2,3.2458896E2,6.128274E2,4.3670636E2,2.2226309E2,5.699521E1,1.45234375E1,1.0170868E1,0E0,0E0,0E0,0E0,0E0,0E0,0E0,0E0,0E0,0E0,0E0,0E0,0E0,0E0,0E0,0E0],"parents":[2147483647,0,0,1,1,2,2,3,3,4,4,5,5,6,6,7,7,8,8,9,9,10,10,11,11,12,12,13,13,14,14],"right_children":[2,4,6,8,10,12,14,16,18,20,22,24,26,28,30,-1,-1,-1,-1,-1,-1,-1,-1,-1,-1,-1,-1,-1,-1,-1,-1],"split_conditions":[1.3428819E0,4.389967E-1,3.8104522E0,1.740932E0,2.3604572E-1,-5.3547645E0,5.0184064E0,8.804222E-3,2.1464086E-1,2.0052373E0,-1.3098747E0,3.3662018E-1,1E0,3.3701954E0,-3.032486E-1,-7.677585E-1,-1.1765981E-1,-1.2896868E-2,1.4294702E-1,6.231018E-1,2.5118363E0,-4.3703964E-1,1.7673638E-1,-8.671613E-1,9.2155856E-1,-9.87161E-2,-2.1354469E-2,-2.3104797E-1,8.68631E-2,-1.3030335E0,-4.2167324E-1],"split_indices":[0,1,0,6,0,13,1,1,1,1,21,5,64,1,26,0,0,0,0,0,0,0,0,0,0,0,0,0,0,0,0],"split_type":[0,0,0,0,0,0,0,0,0,0,0,0,0,0,0,0,0,0,0,0,0,0,0,0,0,0,0,0,0,0,0],"sum_hessian":[1.7089E4,1.3279E4,3.81E3,1.1426E4,1.853E3,3.475E3,3.35E2,1.186E3,1.024E4,2.09E2,1.644E3,2.8E1,3.447E3,3.26E2,9E0,3.7E1,1.149E3,8.849E3,1.391E3,1.93E2,1.6E1,1.11E2,1.533E3,8E0,2E1,1.848E3,1.599E3,3.13E2,1.3E1,6E0,3E0],"tree_param":{"num_deleted":"0","num_feature":"78","num_nodes":"31","size_leaf_vector":"1"}},{"base_weights":[2.5808376E-3,1.20617114E-1,-1.288401E-1,-5.857049E-2,5.631882E-1,-1.5395808E-1,5.017935E-1,-3.7596826E-2,-1.2165757E0,6.509786E0,5.098128E-1,-6.302104E-1,-1.3569348E-1,1.5726054E0,1.4080687E-2,6.953263E-2,-3.651877E-2,-5.4608536E-1,7.723595E-2,2.2741253E0,-9.463684E-1,-4.218E-2,2.2546169E-1,-4.1464666E-1,2.8599028E-2,-1.6250579E-2,-7.5068906E-2,1.8726866E-1,1.3293724E0,-2.6538235E-1,1.8743941E-1],"categories":[],"categories_nodes":[],"categories_segments":[],"categories_sizes":[],"default_left":[0,0,0,0,0,0,0,0,0,0,0,0,0,0,0,0,0,0,0,0,0,0,0,0,0,0,0,0,0,0,0],"id":15,"left_children":[1,3,5,7,9,11,13,15,17,19,21,23,25,27,29,-1,-1,-1,-1,-1,-1,-1,-1,-1,-1,-1,-1,-1,-1,-1,-1],"loss_changes":[2.651231E2,7.140794E2,1.2817725E2,1.5563786E2,8.203397E2,6.757187E1,1.6187494E2,1.4273672E2,1.01915436E2,2.6189282E2,4.0463733E2,1.5670934E2,6.994336E1,2.6020697E2,1.18005455E2,0E0,0E0,0E0,0E0,0E0,0E0,0E0,0E0,0E0,0E0,0E0,0E0,0E0,0E0,0E0,0E0],"parents":[2147483647,0,0,1,1,2,2,3,3,4,4,5,5,6,6,7,7,8,8,9,9,10,10,11,11,12,12,13,13,14,14],"right_children":[2,4,6,8,10,12,14,16,18,20,22,24,26,28,30,-1,-1,-1,-1,-1,-1,-1,-1,-1,-1,-1,-1,-1,-1,-1,-1],"split_conditions":[6.01024E-1,1.0625785E-1,3.0010252E0,1.6890898E0,4.562228E-2,-1.9595162E0,8.228493E-1,9.322814E-2,1.9637416E-1,1E0,1.740932E0,1.3783162E0,1E0,6.358381E-1,1.6305007E0,6.953263E-2,-3.651877E-2,-5.4608536E-1,7.723595E-2,2.2741253E0,-9.463684E-1,-4.218E-2,2.2546169E-1,-4.1464666E-1,2.8599028E-2,-1.6250579E-2,-7.5068906E-2,1.8726866E-1,1.3293724E0,-2.6538235E-1,1.8743941E-1],"split_indices":[0,1,1,18,0,52,5,0,0,73,6,1,65,5,0,0,0,0,0,0,0,0,0,0,0,0,0,0,0,0,0],"split_type":[0,0,0,0,0,0,0,0,0,0,0,0,0,0,0,0,0,0,0,0,0,0,0,0,0,0,0,0,0,0,0],"sum_hessian":[1.7089E4,9.003E3,8.086E3,6.409E3,2.594E3,7.777E3,3.09E2,6.296E3,1.13E2,2.2E1,2.572E3,2.86E2,7.491E3,9.6E1,2.13E2,1.498E3,4.798E3,8E1,3.3E1,2E1,2E0,6.97E2,1.875E3,1.4E2,1.46E2,4.377E3,3.114E3,7.3E1,2.3E1,8.6E1,1.27E2],"tree_param":{"num_deleted":"0","num_feature":"78","num_nodes":"31","size_leaf_vector":"1"}},{"base_weights":[1.9257645E-3,1.6321373E-1,-6.571863E-2,1.2964E-1,4.970147E0,-7.811505E-2,6.5756685E-1,1.496031E-1,-6.536031E0,1.1561886E1,2.9092877E0,-3.8067285E-2,-2.500921E-1,3.9282942E0,1.549273E-1,3.6771026E-2,1.966722E0,-4.82671E0,4.860924E-1,4.6281137E0,-6.718445E-3,1.3369317E0,4.4111905E-1,-4.3435773E-1,-9.517055E-3,-6.058103E-2,-2.3392522E-1,1.9812447E0,-1.6927066E-1,-7.2825885E-1,1.3334562E-1],"categories":[],"categories_nodes":[],"categories_segments":[],"categories_sizes":[],"default_left":[0,0,0,0,0,0,0,0,0,0,0,0,0,0,0,0,0,0,0,0,0,0,0,0,0,0,0,0,0,0,0],"id":16,"left_children":[1,3,5,7,9,11,13,15,17,19,21,23,25,27,29,-1,-1,-1,-1,-1,-1,-1,-1,-1,-1,-1,-1,-1,-1,-1,-1],"loss_changes":[1.8646652E2,8.143586E2,1.0801281E2,6.684441E2,4.4182568E2,8.152918E1,3.331228E2,8.654288E2,1.194832E3,3.5854626E2,5.578038E1,8.584641E1,5.687372E1,3.283029E2,1.334345E2,0E0,0E0,0E0,0E0,0E0,0E0,0E0,0E0,0E0,0E0,0E0,0E0,0E0,0E0,0E0,0E0],"parents":[2147483647,0,0,1,1,2,2,3,3,4,4,5,5,6,6,7,7,8,8,9,9,10,10,11,11,12,12,13,13,14,14],"right_children":[2,4,6,8,10,12,14,16,18,20,22,24,26,28,30,-1,-1,-1,-1,-1,-1,-1,-1,-1,-1,-1,-1,-1,-1,-1,-1],"split_conditions":[2.2414425E-1,1.3783162E0,3.920004E0,1.184016E0,5.5540167E-2,3.7375665E-1,1.1306391E0,9.3537265E-1,1.2726655E0,6.9194144E-1,1.9042343E-1,-3.4664326E0,1.6890898E0,-8.881778E-1,-6.059598E-1,3.6771026E-2,1.966722E0,-4.82671E0,4.860924E-1,4.6281137E0,-6.718445E-3,1.3369317E0,4.4111905E-1,-4.3435773E-1,-9.517055E-3,-6.058103E-2,-2.3392522E-1,1.9812447E0,-1.6927066E-1,-7.2825885E-1,1.3334562E-1],"split_indices":[0,1,1,1,0,49,0,1,1,5,0,38,18,19,12,0,0,0,0,0,0,0,0,0,0,0,0,0,0,0,0],"split_type":[0,0,0,0,0,0,0,0,0,0,0,0,0,0,0,0,0,0,0,0,0,0,0,0,0,0,0,0,0,0,0],"sum_hessian":[1.7089E4,5.049E3,1.204E4,5.015E3,3.4E1,1.1838E4,2.02E2,5.001E3,1.4E1,7E0,2.7E1,9.603E3,2.235E3,2.6E1,1.76E2,4.981E3,2E1,6E0,8E0,5E0,2E0,1.2E1,1.5E1,4.2E1,9.561E3,2.05E3,1.85E2,1.6E1,1E1,1.7E1,1.59E2],"tree_param":{"num_deleted":"0","num_feature":"78","num_nodes":"31","size_leaf_vector":"1"}},{"base_weights":[1.613724E-3,-2.7969304E-1,3.4276288E-2,-2.507013E-1,-1.716318E0,7.484977E-1,-3.0313252E-2,-1.5628114E0,-2.213452E-1,-5.368085E-1,-9.201845E-1,7.1811754E-1,5.89514E0,-1.0481868E-1,8.6141E-2,-7.5272244E-1,1.3497947E-1,-5.927906E-2,-2.715992E-1,-5.331091E-2,-3.1841373E-1,-2.161935E-2,3.3610234E-1,1.249291E-1,-3.5968713E-2,6.071114E-1,1.4264029E-2],"categories":[],"categories_nodes":[],"categories_segments":[],"categories_sizes":[],"default_left":[0,0,0,0,0,0,0,0,0,0,0,0,0,0,0,0,0,0,0,0,0,0,0,0,0,0,0],"id":17,"left_children":[1,3,5,7,9,11,13,15,17,-1,19,21,-1,23,25,-1,-1,-1,-1,-1,-1,-1,-1,-1,-1,-1,-1],"loss_changes":[1.5703592E2,7.362384E1,7.0643024E2,6.6830246E1,3.8879395E-1,7.151798E2,1.21861435E2,7.3503136E1,2.7548798E1,0E0,3.3556175E-1,4.0340674E2,0E0,6.736126E1,4.0969156E2,0E0,0E0,0E0,0E0,0E0,0E0,0E0,0E0,0E0,0E0,0E0,0E0],"parents":[2147483647,0,0,1,1,2,2,3,3,4,4,5,5,6,6,7,7,8,8,10,10,11,11,13,13,14,14],"right_children":[2,4,6,8,10,12,14,16,18,-1,20,22,-1,24,26,-1,-1,-1,-1,-1,-1,-1,-1,-1,-1,-1,-1],"split_conditions":[2.1858757E-2,1.6549699E0,1.2893254E-1,-1.9595162E0,1E0,2.2271645E0,3.0845135E-1,8.132667E-2,5.22686E-1,-5.368085E-1,4.1655127E-2,6.0128013E-4,5.89514E0,-2.140234E0,2.0034131E-1,-7.5272244E-1,1.3497947E-1,-5.927906E-2,-2.715992E-1,-5.331091E-2,-3.1841373E-1,-2.161935E-2,3.3610234E-1,1.249291E-1,-3.5968713E-2,6.071114E-1,1.4264029E-2],"split_indices":[1,18,0,52,71,1,1,0,9,0,0,11,0,17,0,0,0,0,0,0,0,0,0,0,0,0,0],"split_type":[0,0,0,0,0,0,0,0,0,0,0,0,0,0,0,0,0,0,0,0,0,0,0,0,0,0,0],"sum_hessian":[1.7089E4,1.777E3,1.5312E4,1.743E3,3.4E1,1.269E3,1.4043E4,3.7E1,1.706E3,3E1,4E0,1.268E3,1E0,8.564E3,5.479E3,2.5E1,1.2E1,1.65E3,5.6E1,1E0,3E0,4.28E2,8.4E2,2.4E2,8.324E3,1.06E2,5.373E3],"tree_param":{"num_deleted":"0","num_feature":"78","num_nodes":"27","size_leaf_vector":"1"}},{"base_weights":[1.4258558E-3,2.2487955E-2,-3.3605164E-1,-3.135157E-2,2.1876329E-1,-2.8548902E-1,-2.689269E0,-1.7475048E-2,-5.7182187E-1,6.099227E0,2.0167488E-1,-3.1739476E-1,8.1519926E-1,-1.4869677E0,-9.9442947E-1,1.7128987E-2,-3.4727596E-2,1.9232401E-1,-2.702279E-1,2.43466E0,-3.9319918E-1,1.4890324E-1,9.348566E-3,-6.449058E-2,-1.8046711E-1,3.8177362E-1,-3.2218665E-1,-1.04291014E-1,-5.996082E-1],"categories":[],"categories_nodes":[],"categories_segments":[],"categories_sizes":[],"default_left":[0,0,0,0,0,0,0,0,0,0,0,0,0,0,0,0,0,0,0,0,0,0,0,0,0,0,0,0,0],"id":18,"left_children":[1,3,5,7,9,11,13,15,17,19,21,23,25,27,-1,-1,-1,-1,-1,-1,-1,-1,-1,-1,-1,-1,-1,-1,-1],"loss_changes":[1.2148302E2,1.7000414E2,1.1869304E2,9.467558E1,3.4675928E2,3.48151E1,1.0863785E1,9.022872E1,1.2665174E2,1.6004282E2,1.7353055E2,2.7724792E1,2.5560389E1,4.552408E0,0E0,0E0,0E0,0E0,0E0,0E0,0E0,0E0,0E0,0E0,0E0,0E0,0E0,0E0,0E0],"parents":[2147483647,0,0,1,1,2,2,3,3,4,4,5,5,6,6,7,7,8,8,9,9,10,10,11,11,12,12,13,13],"right_children":[2,4,6,8,10,12,14,16,18,20,22,24,26,28,-1,-1,-1,-1,-1,-1,-1,-1,-1,-1,-1,-1,-1,-1,-1],"split_conditions":[2.5984864E0,4.144056E-1,5.0184064E0,1.6890898E0,4.562228E-2,3.3701954E0,2.1308256E-4,1E0,5.7523746E-2,2.257109E0,1.0314603E0,1.1402985E0,5.863455E0,-1.1683887E0,-9.9442947E-1,1.7128987E-2,-3.4727596E-2,1.9232401E-1,-2.702279E-1,2.43466E0,-3.9319918E-1,1.4890324E-1,9.348566E-3,-6.449058E-2,-1.8046711E-1,3.8177362E-1,-3.2218665E-1,-1.04291014E-1,-5.996082E-1],"split_indices":[0,1,1,18,0,1,13,65,0,2,0,1,0,19,0,0,0,0,0,0,0,0,0,0,0,0,0,0,0],"split_type":[0,0,0,0,0,0,0,0,0,0,0,0,0,0,0,0,0,0,0,0,0,0,0,0,0,0,0,0,0],"sum_hessian":[1.7089E4,1.6086E4,1.003E3,1.2624E4,3.462E3,9.83E2,2E1,1.2309E4,3.15E2,9E0,3.453E3,9.56E2,2.7E1,8E0,1.2E1,6.999E3,5.31E3,6.7E1,2.48E2,7E0,2E0,1.265E3,2.188E3,7.04E2,2.52E2,2.2E1,5E0,3E0,5E0],"tree_param":{"num_deleted":"0","num_feature":"78","num_nodes":"29","size_leaf_vector":"1"}},{"base_weights":[1.0110086E-3,-1.6637623E-1,3.570149E-2,-1.4913073E-1,-1.13833E0,2.7344122E0,2.2289688E-2,-1.3382368E-1,-6.577726E-1,-9.4500536E-1,-6.6555387E-1,2.283789E0,6.463767E0,3.7338018E-1,-3.4346182E-2,-5.9756998E-2,4.4052834E-3,-1.23333484E-1,-2.2487555E-1,-3.1398E-1,1.0739694E-1,8.3442223E-1,-1.7627518E0,2.7086542E0,6.8482363E-1,1.0332153E-1,2.5187442E0,-3.5828121E-3,-8.455214E-2],"categories":[],"categories_nodes":[],"categories_segments":[],"categories_sizes":[],"default_left":[0,0,0,0,0,0,0,0,0,0,0,0,0,0,0,0,0,0,0,0,0,0,0,0,0,0,0,0,0],"id":19,"left_children":[1,3,5,7,9,11,13,15,17,19,-1,21,23,25,27,-1,-1,-1,-1,-1,-1,-1,-1,-1,-1,-1,-1,-1,-1],"loss_changes":[9.9243195E1,4.9009445E1,5.1234564E2,2.2366241E1,8.553619E0,1.0287549E2,2.8014307E2,2.7193409E1,1.5941467E0,6.3316536E0,0E0,2.762075E2,5.4462036E1,4.5201468E2,6.726531E1,0E0,0E0,0E0,0E0,0E0,0E0,0E0,0E0,0E0,0E0,0E0,0E0,0E0,0E0],"parents":[2147483647,0,0,1,1,2,2,3,3,4,4,5,5,6,6,7,7,8,8,9,9,11,11,12,12,13,13,14,14],"right_children":[2,4,6,8,10,12,14,16,18,20,-1,22,24,26,28,-1,-1,-1,-1,-1,-1,-1,-1,-1,-1,-1,-1,-1,-1],"split_conditions":[3.4609698E-2,1.6890898E0,4.9589437E-2,5.22686E-1,1E0,1.2265192E0,2.1422637E-1,1E0,7.1408786E-2,2.7930634E-2,-6.6555387E-1,1.184016E0,4.1655127E-2,2.120603E0,1.2994806E0,-5.9756998E-2,4.4052834E-3,-1.23333484E-1,-2.2487555E-1,-3.1398E-1,1.0739694E-1,8.3442223E-1,-1.7627518E0,2.7086542E0,6.8482363E-1,1.0332153E-1,2.5187442E0,-3.5828121E-3,-8.455214E-2],"split_indices":[1,18,0,9,67,1,0,64,0,1,0,1,0,1,51,0,0,0,0,0,0,0,0,0,0,0,0,0,0],"split_type":[0,0,0,0,0,0,0,0,0,0,0,0,0,0,0,0,0,0,0,0,0,0,0,0,0,0,0,0,0],"sum_hessian":[1.7089E4,2.933E3,1.4156E4,2.883E3,5E1,6.9E1,1.4087E4,2.8E3,8.3E1,4.4E1,6E0,6.3E1,6E0,1.956E3,1.2131E4,1.944E3,8.56E2,2.4E1,5.9E1,4.1E1,3E0,6E1,3E0,3E0,3E0,1.95E3,6E0,1.1125E4,1.006E3],"tree_param":{"num_deleted":"0","num_feature":"78","num_nodes":"29","size_leaf_vector":"1"}}]},"name":"gbtree"},"learner_model_param":{"base_score":"4.4719996E0","boost_from_average":"1","num_class":"0","num_feature":"78","num_target":"1"},"objective":{"name":"reg:squarederror","reg_loss_param":{"scale_pos_weight":"1"}}},"version":[2,1,4]}