{"learner":{"attributes":{"scikit_learn":"{\"_estimator_type\": \"regressor\"}"},"feature_names":[],"feature_types":[],"gradient_booster":{"model":{"gbtree_model_param":{"num_parallel_tree":"1","num_trees":"20"},"iteration_indptr":[0,1,2,3,4,5,6,7,8,9,10,11,12,13,14,15,16,17,18,19,20],"tree_info":[0,0,0,0,0,0,0,0,0,0,0,0,0,0,0,0,0,0,0,0],"trees":[{"base_weights":[4.6154502E-9,-1.3124927E0,1.3928241E1,3.8699765E0,-1.9528242E0,5.339118E1,1.0519955E1,-6.694569E-2,1.9493057E1,-2.4112868E0,2.5694552E-1,5.4839703E1,7.750381E0,-5.635584E-1,3.827442E-1,3.081495E0,2.3440369E1,-7.7380925E-1,5.3656325E-2,4.2911367E0,-3.935669E-1,1.0613615E1,2.0731148E1,1.5091599E0,9.681607E0],"categories":[],"categories_nodes":[],"categories_segments":[],"categories_sizes":[],"default_left":[0,0,0,0,0,0,0,0,0,0,0,0,0,0,0,0,0,0,0,0,0,0,0,0,0],"id":0,"left_children":[1,3,5,7,9,-1,11,13,15,17,19,21,23,-1,-1,-1,-1,-1,-1,-1,-1,-1,-1,-1,-1],"loss_changes":[3.1353256E5,5.2021703E4,8.239233E5,1.06039125E5,1.4134324E4,0E0,1.7731236E5,3.3544084E3,1.8684016E5,5.0304297E3,5.286393E4,2.1150688E4,9.080982E4,0E0,0E0,0E0,0E0,0E0,0E0,0E0,0E0,0E0,0E0,0E0,0E0],"parents":[2147483647,0,0,1,1,2,2,3,3,4,4,6,6,7,7,8,8,9,9,10,10,11,11,12,12],"right_children":[2,4,6,8,10,-1,12,14,16,18,20,22,24,-1,-1,-1,-1,-1,-1,-1,-1,-1,-1,-1,-1],"split_conditions":[1.1569881E0,1.7111515E0,8.762824E-2,1E0,4.2002362E-1,5.339118E1,3.405552E-1,1.5447022E-1,4.8556575E-1,1.7167456E0,3.963186E-1,2.1730452E0,5.0532074E0,-5.635584E-1,3.827442E-1,3.081495E0,2.3440369E1,-7.7380925E-1,5.3656325E-2,4.2911367E0,-3.935669E-1,1.0613615E1,2.0731148E1,1.5091599E0,9.681607E0],"split_indices":[1,6,0,67,1,0,0,1,1,51,0,1,1,0,0,0,0,0,0,0,0,0,0,0,0],"split_type":[0,0,0,0,0,0,0,0,0,0,0,0,0,0,0,0,0,0,0,0,0,0,0,0,0],"sum_hessian":[1.7149E4,1.5673E4,1.476E3,1.723E3,1.395E4,2.9E1,1.447E3,1.377E3,3.46E2,1.1553E4,2.397E3,8.4E1,1.363E3,5.86E2,7.91E2,3E2,4.6E1,1.0849E4,7.04E2,2.4E2,2.157E3,3.7E1,4.7E1,1.228E3,1.35E2],"tree_param":{"num_deleted":"0","num_feature":"78","num_nodes":"25","size_leaf_vector":"1"}},{"base_weights":[7.3145786E-3,-8.974597E-1,1.0108055E1,-1.2038207E0,5.7768345E0,3.921077E1,7.748113E0,-1.3943697E0,4.390604E0,3.0982193E1,1.0544313E0,3.6204952E1,5.311167E0,-4.8525393E-1,2.289641E-1,2.9446697E-1,5.0325217E0,2.777618E0,1.7218023E1,3.7991817E0,9.371343E-2,8.43296E0,1.6441597E1,1.1122279E0,9.9933815E0],"categories":[],"categories_nodes":[],"categories_segments":[],"categories_sizes":[],"default_left":[0,0,0,0,0,0,0,0,0,0,0,0,0,0,0,0,0,0,0,0,0,0,0,0,0],"id":1,"left_children":[1,3,5,7,9,-1,11,13,15,17,19,21,23,-1,-1,-1,-1,-1,-1,-1,-1,-1,-1,-1,-1],"loss_changes":[1.5674102E5,3.2193258E4,4.0026762E5,1.6050668E4,8.221697E4,0E0,9.578506E4,7.0092266E3,2.0924277E4,6.2006617E4,5.018514E3,1.4871734E4,5.7175164E4,0E0,0E0,0E0,0E0,0E0,0E0,0E0,0E0,0E0,0E0,0E0,0E0],"parents":[2147483647,0,0,1,1,2,2,3,3,4,4,6,6,7,7,8,8,9,9,10,10,11,11,12,12],"right_children":[2,4,6,8,10,-1,12,14,16,18,20,22,24,-1,-1,-1,-1,-1,-1,-1,-1,-1,-1,-1,-1],"split_conditions":[1.2012984E0,2.1362011E0,7.169583E-2,1.6632545E0,7.567893E-2,3.921077E1,4.9987927E-1,6.2311196E-1,1E0,4.1171545E-1,8.9619786E-2,2.7620015E0,7.8364406E0,-4.8525393E-1,2.289641E-1,2.9446697E-1,5.0325217E0,2.777618E0,1.7218023E1,3.7991817E0,9.371343E-2,8.43296E0,1.6441597E1,1.1122279E0,9.9933815E0],"split_indices":[1,51,0,18,0,0,0,1,67,1,0,1,1,0,0,0,0,0,0,0,0,0,0,0,0],"split_type":[0,0,0,0,0,0,0,0,0,0,0,0,0,0,0,0,0,0,0,0,0,0,0,0,0],"sum_hessian":[1.7149E4,1.574E4,1.409E3,1.505E4,6.9E2,2.6E1,1.383E3,1.4555E4,4.95E2,1.08E2,5.82E2,1.08E2,1.275E3,1.3191E4,1.364E3,3.89E2,1.06E2,6E1,4.8E1,3.4E1,5.48E2,7.7E1,3.1E1,1.207E3,6.8E1],"tree_param":{"num_deleted":"0","num_feature":"78","num_nodes":"25","size_leaf_vector":"1"}},{"base_weights":[1.11931935E-2,-4.1228515E-1,1.1592783E1,8.272525E0,-7.0580447E-1,3.7524315E1,8.074687E0,5.777519E1,2.3232958E0,-1.4690756E0,3.4266618E-1,4.1111458E1,3.2723373E1,1.6230633E1,3.258805E0,3.7580562E0,2.4935434E1,8.937252E-2,5.339317E0,-3.1792322E-1,-5.7584417E-1,3.083262E0,-2.3630863E-1,7.155747E0,1.1226948E1,3.5115926E0,7.790508E0,1.9479842E0,-3.364148E-1],"categories":[],"categories_nodes":[],"categories_segments":[],"categories_sizes":[],"default_left":[0,0,0,0,0,0,0,0,0,0,0,0,0,0,0,0,0,0,0,0,0,0,0,0,0,0,0,0,0],"id":2,"left_children":[1,3,5,7,9,11,13,15,17,19,21,-1,23,25,27,-1,-1,-1,-1,-1,-1,-1,-1,-1,-1,-1,-1,-1,-1],"loss_changes":[8.411785E4,4.218423E4,5.4890914E4,1.591917E5,1.2809583E4,2.991439E4,2.0921598E4,6.546886E4,1.5164084E4,1.7057363E3,7.57432E4,0E0,2.02575E3,8.421176E3,4.7817656E3,0E0,0E0,0E0,0E0,0E0,0E0,0E0,0E0,0E0,0E0,0E0,0E0,0E0,0E0],"parents":[2147483647,0,0,1,1,2,2,3,3,4,4,5,5,6,6,7,7,8,8,9,9,10,10,12,12,13,13,14,14],"right_children":[2,4,6,8,10,12,14,16,18,20,22,-1,24,26,28,-1,-1,-1,-1,-1,-1,-1,-1,-1,-1,-1,-1,-1,-1],"split_conditions":[2.1730452E0,-3.0272489E0,8.2450205E-1,5.9746526E-2,1.9570331E-1,5.5763423E-2,-6.886044E-1,6.849616E-1,1E0,2.5292695E-1,3.0271572E-1,4.1111458E1,2.7620015E0,7.8364406E0,2.1488833E0,3.7580562E0,2.4935434E1,8.937252E-2,5.339317E0,-3.1792322E-1,-5.7584417E-1,3.083262E0,-2.3630863E-1,7.155747E0,1.1226948E1,3.5115926E0,7.790508E0,1.9479842E0,-3.364148E-1],"split_indices":[1,55,0,0,1,0,54,1,67,0,0,0,1,1,0,0,0,0,0,0,0,0,0,0,0,0,0,0,0],"split_type":[0,0,0,0,0,0,0,0,0,0,0,0,0,0,0,0,0,0,0,0,0,0,0,0,0,0,0,0,0],"sum_hessian":[1.7149E4,1.6545E4,6.04E2,5.4E2,1.6005E4,7.1E1,5.33E2,5.7E1,4.83E2,9.262E3,6.743E3,2E0,6.9E1,1.97E2,3.36E2,2.1E1,3.6E1,4.28E2,5.5E1,4.854E3,4.408E3,6.88E2,6.055E3,2.6E1,4.3E1,1.36E2,6.1E1,1.93E2,1.43E2],"tree_param":{"num_deleted":"0","num_feature":"78","num_nodes":"29","size_leaf_vector":"1"}},{"base_weights":[1.4160801E-2,-6.24012E-1,4.3196588E0,-1.4299145E0,-1.2753507E-1,5.9006226E1,3.0288389E0,-1.7236321E0,-1.0145463E0,1.1918637E1,-5.6642276E-1,5.1687523E1,2.9287672E1,1.5308845E1,1.6101114E0,-4.9542728E-1,-1.1416159E0,2.9551575E-1,-4.037001E-1,2.0525897E0,6.8851676E0,4.6799636E-1,-3.9580798E-1,9.762248E0,1.7299162E1,2.9891903E0,7.036765E0,1.03212036E-1,2.9939184E0],"categories":[],"categories_nodes":[],"categories_segments":[],"categories_sizes":[],"default_left":[0,0,0,0,0,0,0,0,0,0,0,0,0,0,0,0,0,0,0,0,0,0,0,0,0,0,0,0,0],"id":3,"left_children":[1,3,5,7,9,11,13,15,17,19,21,23,-1,25,27,-1,-1,-1,-1,-1,-1,-1,-1,-1,-1,-1,-1,-1,-1],"loss_changes":[4.712492E4,5.9762905E3,1.5610869E5,6.929258E2,4.8879016E4,9.368797E3,3.7676523E4,4.948789E2,1.564564E3,1.8044742E4,1.4283453E4,3.2727969E3,0E0,9.520348E3,2.056443E4,0E0,0E0,0E0,0E0,0E0,0E0,0E0,0E0,0E0,0E0,0E0,0E0,0E0,0E0],"parents":[2147483647,0,0,1,1,2,2,3,3,4,4,5,5,6,6,7,7,8,8,9,9,10,10,11,11,13,13,14,14],"right_children":[2,4,6,8,10,12,14,16,18,20,22,24,-1,26,28,-1,-1,-1,-1,-1,-1,-1,-1,-1,-1,-1,-1,-1,-1],"split_conditions":[8.055838E-1,8.00045E-2,1.175015E-1,3.938683E-2,9.957754E-2,1.6431693E0,6.114061E-1,2.1362011E0,1.2745926E-1,2.917087E-1,4.9987927E-1,9.3420637E-1,2.9287672E1,1.7262509E0,3.3734205E0,-4.9542728E-1,-1.1416159E0,2.9551575E-1,-4.037001E-1,2.0525897E0,6.8851676E0,4.6799636E-1,-3.9580798E-1,9.762248E0,1.7299162E1,2.9891903E0,7.036765E0,1.03212036E-1,2.9939184E0],"split_indices":[1,1,0,1,0,1,0,51,0,1,0,1,0,1,1,0,0,0,0,0,0,0,0,0,0,0,0,0,0],"split_type":[0,0,0,0,0,0,0,0,0,0,0,0,0,0,0,0,0,0,0,0,0,0,0,0,0,0,0,0,0],"sum_hessian":[1.7149E4,1.4936E4,2.213E3,5.693E3,9.243E3,5E1,2.163E3,3.333E3,2.36E3,3.24E2,8.919E3,4.4E1,6E0,2.23E2,1.94E3,3.223E3,1.1E2,3.35E2,2.025E3,2.23E2,1.01E2,2.332E3,6.587E3,1.2E1,3.2E1,1.36E2,8.7E1,1.686E3,2.54E2],"tree_param":{"num_deleted":"0","num_feature":"78","num_nodes":"29","size_leaf_vector":"1"}},{"base_weights":[1.4387031E-2,-2.9062554E-1,4.904267E0,2.5470235E0,-4.7477937E-1,2.9019981E1,3.3727822E0,2.0578651E1,1.2071133E0,-1.9471925E-1,-1.568319E0,6.9684456E1,2.23344E1,7.152366E0,-1.139084E0,3.0037725E-1,1.2393664E1,-1.1423106E-1,1.1671208E0,-2.1836065E-1,6.714609E-1,-3.8400403E-1,-7.1237034E-1,1.0986826E1,2.4659079E1,6.026274E0,9.326071E0,1.546735E0,4.3424106E0,8.444866E-2,-1.2932956E0],"categories":[],"categories_nodes":[],"categories_segments":[],"categories_sizes":[],"default_left":[0,0,0,0,0,0,0,0,0,0,0,0,0,0,0,0,0,0,0,0,0,0,0,0,0,0,0,0,0,0,0],"id":4,"left_children":[1,3,5,7,9,11,13,15,17,19,21,23,25,27,29,-1,-1,-1,-1,-1,-1,-1,-1,-1,-1,-1,-1,-1,-1,-1,-1],"loss_changes":[2.5580219E4,8.437481E3,3.7093492E4,2.3749352E4,4.6428545E3,1.4755578E4,1.6174367E4,2.7560453E4,3.9085898E3,1.56590625E4,7.1545166E2,2.991914E2,4.1779883E2,7.4691133E3,1.9522847E3,0E0,0E0,0E0,0E0,0E0,0E0,0E0,0E0,0E0,0E0,0E0,0E0,0E0,0E0,0E0,0E0],"parents":[2147483647,0,0,1,1,2,2,3,3,4,4,5,5,6,6,7,7,8,8,9,9,10,10,11,11,12,12,13,13,14,14],"right_children":[2,4,6,8,10,12,14,16,18,20,22,24,26,28,30,-1,-1,-1,-1,-1,-1,-1,-1,-1,-1,-1,-1,-1,-1,-1,-1],"split_conditions":[1.5656265E0,-1.9438002E0,2.8479177E-1,5.5763423E-2,1.3602293E0,5.7754975E-2,1.5912491E0,1.8001013E-1,2.6770735E-1,2.7386156E-1,2.5830414E0,1.7262509E0,3.3734205E0,3.9352982E0,3.0331318E0,3.0037725E-1,1.2393664E1,-1.1423106E-1,1.1671208E0,-2.1836065E-1,6.714609E-1,-3.8400403E-1,-7.1237034E-1,1.0986826E1,2.4659079E1,6.026274E0,9.326071E0,1.546735E0,4.3424106E0,8.444866E-2,-1.2932956E0],"split_indices":[1,52,0,0,0,0,0,1,1,1,0,1,1,1,0,0,0,0,0,0,0,0,0,0,0,0,0,0,0,0,0],"split_type":[0,0,0,0,0,0,0,0,0,0,0,0,0,0,0,0,0,0,0,0,0,0,0,0,0,0,0,0,0,0,0],"sum_hessian":[1.7149E4,1.6143E4,1.006E3,9.83E2,1.516E4,5.9E1,9.47E2,6.7E1,9.16E2,1.207E4,3.09E3,7E0,5.2E1,5.15E2,4.32E2,3.5E1,3.2E1,5.76E2,3.4E2,9.901E3,2.169E3,2.278E3,8.12E2,3E0,4E0,4.4E1,8E0,4.06E2,1.09E2,2.99E2,1.33E2],"tree_param":{"num_deleted":"0","num_feature":"78","num_nodes":"31","size_leaf_vector":"1"}},{"base_weights":[1.4081568E-2,-1.241401E-1,5.7437453E0,2.0333805E0,-3.0539173E-1,1.5698966E1,3.2755566E0,-1.6661304E-1,2.023166E1,2.5941268E-2,-9.630697E-1,2.114986E1,1.4112889E1,5.508573E0,-1.731416E0,-2.556802E-1,1.1734077E0,4.563592E0,1.0293127E1,-8.79205E-2,4.2481932E-1,-2.7055603E-1,-7.444862E-1,3.8357003E0,9.359589E0,1.0669873E0,3.2820647E0,-6.852663E-2,-1.6365333E0],"categories":[],"categories_nodes":[],"categories_segments":[],"categories_sizes":[],"default_left":[0,0,0,0,0,0,0,0,0,0,0,0,0,0,0,0,0,0,0,0,0,0,0,0,0,0,0,0,0],"id":5,"left_children":[1,3,5,7,9,11,13,15,17,19,21,-1,23,25,27,-1,-1,-1,-1,-1,-1,-1,-1,-1,-1,-1,-1,-1,-1],"loss_changes":[1.3582892E4,6.5496045E3,9.875409E3,5.1970227E4,3.3667402E3,5.9584824E3,3.643249E3,3.2439888E3,9.372E3,4.556993E3,4.7892285E2,0E0,1.3925527E3,2.3466055E3,5.6401965E2,0E0,0E0,0E0,0E0,0E0,0E0,0E0,0E0,0E0,0E0,0E0,0E0,0E0,0E0],"parents":[2147483647,0,0,1,1,2,2,3,3,4,4,5,5,6,6,7,7,8,8,9,9,10,10,12,12,13,13,14,14],"right_children":[2,4,6,8,10,12,14,16,18,20,22,-1,24,26,28,-1,-1,-1,-1,-1,-1,-1,-1,-1,-1,-1,-1,-1,-1],"split_conditions":[2.7620015E0,7.567893E-2,1.1013277E0,2.2339718E-1,1E0,5.5763423E-2,2.1030777E0,5.2002925E-2,9.092819E-1,5.7110906E-1,3.803862E0,2.114986E1,7.8364406E0,7.8364406E0,5.0532074E0,-2.556802E-1,1.1734077E0,4.563592E0,1.0293127E1,-8.79205E-2,4.2481932E-1,-2.7055603E-1,-7.444862E-1,3.8357003E0,9.359589E0,1.0669873E0,3.2820647E0,-6.852663E-2,-1.6365333E0],"split_indices":[1,0,0,1,64,0,0,1,1,1,0,0,1,1,1,0,0,0,0,0,0,0,0,0,0,0,0,0,0],"split_type":[0,0,0,0,0,0,0,0,0,0,0,0,0,0,0,0,0,0,0,0,0,0,0,0,0,0,0,0,0],"sum_hessian":[1.7149E4,1.6746E4,4.03E2,1.297E3,1.5449E4,7.9E1,3.24E2,1.158E3,1.39E2,1.0274E4,5.175E3,1E0,7.8E1,2.24E2,1E2,9.92E2,1.66E2,1.04E2,3.5E1,8.357E3,1.917E3,4.976E3,1.99E2,7.4E1,4E0,1.66E2,5.8E1,7.2E1,2.8E1],"tree_param":{"num_deleted":"0","num_feature":"78","num_nodes":"29","size_leaf_vector":"1"}},{"base_weights":[1.2894141E-2,-1.3341568E-1,2.979918E0,6.642138E-1,-4.914251E-1,1.8955517E1,2.7515657E0,8.973008E-2,1.2793204E1,-1.809393E-1,-9.529736E-1,7.6709704E0,8.852299E-1,-1.4364667E-1,1.0298944E0,2.86845E0,6.1888995E0,-1.5143004E-1,7.2963655E-1,-2.51279E-1,-5.758925E-1,1.4984713E0,3.3121283E0,1.177422E0,-5.799371E-2],"categories":[],"categories_nodes":[],"categories_segments":[],"categories_sizes":[],"default_left":[0,0,0,0,0,0,0,0,0,0,0,0,0,0,0,0,0,0,0,0,0,0,0,0,0],"id":6,"left_children":[1,3,5,7,9,-1,11,13,15,17,19,21,23,-1,-1,-1,-1,-1,-1,-1,-1,-1,-1,-1,-1],"loss_changes":[7.445294E3,4.6677856E3,1.090702E4,3.5284332E4,1.6165859E3,0E0,7.3749434E3,9.193976E3,5.602203E3,5.709565E3,5.0440918E2,1.9375869E3,1.9152507E3,0E0,0E0,0E0,0E0,0E0,0E0,0E0,0E0,0E0,0E0,0E0,0E0],"parents":[2147483647,0,0,1,1,2,2,3,3,4,4,6,6,7,7,8,8,9,9,10,10,11,11,12,12],"right_children":[2,4,6,8,10,-1,12,14,16,18,20,22,24,-1,-1,-1,-1,-1,-1,-1,-1,-1,-1,-1,-1],"split_conditions":[1.8201023E0,2.190706E-1,5.5763423E-2,3.4063452E-1,1.0535303E0,1.8955517E1,1.1371756E0,1.0462127E-1,7.8219783E-1,4.8556575E-1,1.1569881E0,8.8938594E-1,-1.2208414E0,-1.4364667E-1,1.0298944E0,2.86845E0,6.1888995E0,-1.5143004E-1,7.2963655E-1,-2.51279E-1,-5.758925E-1,1.4984713E0,3.3121283E0,1.177422E0,-5.799371E-2],"split_indices":[1,0,0,1,0,0,0,1,1,1,1,39,54,0,0,0,0,0,0,0,0,0,0,0,0],"split_type":[0,0,0,0,0,0,0,0,0,0,0,0,0,0,0,0,0,0,0,0,0,0,0,0,0],"sum_hessian":[1.7149E4,1.6344E4,8.05E2,5.063E3,1.1281E4,2E0,8.03E2,4.835E3,2.28E2,6.745E3,4.536E3,2.2E2,5.83E2,4.133E3,7.02E2,1.63E2,6.5E1,6.002E3,7.43E2,4.054E3,4.82E2,1.24E2,9.6E1,1.52E2,4.31E2],"tree_param":{"num_deleted":"0","num_feature":"78","num_nodes":"25","size_leaf_vector":"1"}},{"base_weights":[1.1042245E-2,-7.092758E-2,2.9138992E0,2.1551417E-1,-6.246588E-1,1.5134054E1,2.7054317E0,-4.1026745E-2,5.22101E0,-4.1813013E-1,-1.1108208E0,4.5254183E0,-4.1664568E-1,-1.2733354E-1,3.393768E-1,4.3681483E0,1.0506214E0,-2.0262177E-1,-1.5603423E-2,-2.476232E-1,-6.750079E-1,1.0844337E0,2.7181792E0,1.734526E-1,-1.097355E0],"categories":[],"categories_nodes":[],"categories_segments":[],"categories_sizes":[],"default_left":[0,0,0,0,0,0,0,0,0,0,0,0,0,0,0,0,0,0,0,0,0,0,0,0,0],"id":7,"left_children":[1,3,5,7,9,-1,11,13,15,17,19,21,23,-1,-1,-1,-1,-1,-1,-1,-1,-1,-1,-1,-1],"loss_changes":[4.0809922E3,2.6457786E3,4.5306963E3,1.411777E4,5.7054663E2,0E0,2.6724907E3,4.701536E3,8.553952E3,3.760794E2,5.4925635E2,1.193832E3,5.631637E2,0E0,0E0,0E0,0E0,0E0,0E0,0E0,0E0,0E0,0E0,0E0,0E0],"parents":[2147483647,0,0,1,1,2,2,3,3,4,4,6,6,7,7,8,8,9,9,10,10,11,11,12,12],"right_children":[2,4,6,8,10,-1,12,14,16,18,20,22,24,-1,-1,-1,-1,-1,-1,-1,-1,-1,-1,-1,-1],"split_conditions":[2.514603E0,8.902232E-1,5.5763423E-2,6.2311196E-1,1.9895593E0,1.5134054E1,1.6589619E0,1.3846932E-1,1.9517198E-1,4.2002362E-1,1.1569881E0,7.8364406E0,3.5907662E0,-1.2733354E-1,3.393768E-1,4.3681483E0,1.0506214E0,-2.0262177E-1,-1.5603423E-2,-2.476232E-1,-6.750079E-1,1.0844337E0,2.7181792E0,1.734526E-1,-1.097355E0],"split_indices":[1,0,0,1,0,0,0,1,0,1,1,1,0,0,0,0,0,0,0,0,0,0,0,0,0],"split_type":[0,0,0,0,0,0,0,0,0,0,0,0,0,0,0,0,0,0,0,0,0,0,0,0,0],"sum_hessian":[1.7149E4,1.6679E4,4.7E2,1.0993E4,5.686E3,1E0,4.69E2,1.0458E4,5.35E2,3.992E3,1.694E3,2.96E2,1.73E2,7.881E3,2.577E3,8.2E1,4.53E2,2.344E3,1.648E3,1.356E3,3.38E2,2.48E2,4.8E1,1.33E2,4E1],"tree_param":{"num_deleted":"0","num_feature":"78","num_nodes":"25","size_leaf_vector":"1"}},{"base_weights":[9.041694E-3,-8.317425E-2,1.4874182E0,5.6768054E-1,-2.9667476E-1,2.1068213E1,1.1299013E0,-8.3021015E-2,5.426705E0,-8.778113E-1,-2.3265474E-1,3.8692802E1,3.9806538E0,3.4131935E0,-2.6789987E-1,-1.9532536E-1,2.7431405E-1,6.261062E0,1.4086721E0,-2.2153403E-1,-1.5087284E0,-4.7413483E-2,-1.9488074E-1,3.4495745E0,1.2785014E1,7.909098E-1,2.5276146E0,-1.8322617E-1,8.741037E-1],"categories":[],"categories_nodes":[],"categories_segments":[],"categories_sizes":[],"default_left":[0,0,0,0,0,0,0,0,0,0,0,0,0,0,0,0,0,0,0,0,0,0,0,0,0,0,0,0,0],"id":8,"left_children":[1,3,5,7,9,11,13,15,17,19,21,23,-1,25,27,-1,-1,-1,-1,-1,-1,-1,-1,-1,-1,-1,-1,-1,-1],"loss_changes":[2.338181E3,2.2435034E3,7.025663E3,1.2609608E4,4.5208948E2,1.9608823E3,3.160587E3,1.9938489E3,5.220173E3,6.940079E2,3.405963E2,4.3506836E1,0E0,1.4417832E3,6.7263196E2,0E0,0E0,0E0,0E0,0E0,0E0,0E0,0E0,0E0,0E0,0E0,0E0,0E0,0E0],"parents":[2147483647,0,0,1,1,2,2,3,3,4,4,5,5,6,6,7,7,8,8,9,9,10,10,11,11,13,13,14,14],"right_children":[2,4,6,8,10,12,14,16,18,20,22,24,-1,26,28,-1,-1,-1,-1,-1,-1,-1,-1,-1,-1,-1,-1,-1,-1],"split_conditions":[1.5656265E0,1.6928183E-1,2.190706E-1,1.3846932E-1,2.0450346E0,5.5763423E-2,1.3104404E0,2.6463026E-2,4.580567E-2,1E0,1.8621E0,1.7262509E0,3.9806538E0,3.9352982E0,7.8364406E0,-1.9532536E-1,2.7431405E-1,6.261062E0,1.4086721E0,-2.2153403E-1,-1.5087284E0,-4.7413483E-2,-1.9488074E-1,3.4495745E0,1.2785014E1,7.909098E-1,2.5276146E0,-1.8322617E-1,8.741037E-1],"split_indices":[1,0,0,1,6,0,0,1,0,67,0,1,0,1,1,0,0,0,0,0,0,0,0,0,0,0,0,0,0],"split_type":[0,0,0,0,0,0,0,0,0,0,0,0,0,0,0,0,0,0,0,0,0,0,0,0,0,0,0,0,0],"sum_hessian":[1.7149E4,1.6143E4,1.006E3,3.987E3,1.2156E4,1.7E1,9.89E2,3.517E3,4.7E2,1.205E3,1.0951E4,4E0,1.3E1,3.75E2,6.14E2,2.241E3,1.276E3,2E1,4.5E2,1.167E3,3.8E1,9.29E3,1.661E3,1E0,3E0,3.26E2,4.9E1,5.55E2,5.9E1],"tree_param":{"num_deleted":"0","num_feature":"78","num_nodes":"29","size_leaf_vector":"1"}},{"base_weights":[8.07853E-3,-1.965318E-1,4.4198054E-1,1.5853232E-1,-3.4037435E-1,5.409785E0,8.02645E-2,-2.83032E-1,1.7901254E0,-8.761357E-1,-2.8574967E-1,1.35635195E1,4.24978E0,1.666184E0,-1.6690522E-1,-6.202172E-1,-3.7790507E-2,1.04113065E-1,6.6243714E-1,-2.1557893E-1,-1.189477E0,-7.689205E-2,-2.688737E-1,7.7535397E-1,5.637771E0,9.988584E-1,2.3766115E0,3.178022E-1,1.1221664E0,-6.74935E-2,1.053033E0],"categories":[],"categories_nodes":[],"categories_segments":[],"categories_sizes":[],"default_left":[0,0,0,0,0,0,0,0,0,0,0,0,0,0,0,0,0,0,0,0,0,0,0,0,0,0,0,0,0,0,0],"id":9,"left_children":[1,3,5,7,9,11,13,15,17,19,21,23,25,27,29,-1,-1,-1,-1,-1,-1,-1,-1,-1,-1,-1,-1,-1,-1,-1,-1],"loss_changes":[1.5226782E3,5.953136E2,9.875518E3,2.42195E3,2.425094E2,3.47033E3,2.0088413E3,7.413019E2,4.311294E2,3.7037726E2,1.3510205E2,2.5922793E3,1.0820674E3,8.6588074E2,9.476068E2,0E0,0E0,0E0,0E0,0E0,0E0,0E0,0E0,0E0,0E0,0E0,0E0,0E0,0E0,0E0,0E0],"parents":[2147483647,0,0,1,1,2,2,3,3,4,4,5,5,6,6,7,7,8,8,9,9,10,10,11,11,12,12,13,13,14,14],"right_children":[2,4,6,8,10,12,14,16,18,20,22,24,26,28,30,-1,-1,-1,-1,-1,-1,-1,-1,-1,-1,-1,-1,-1,-1,-1,-1],"split_conditions":[3.0894044E-1,1.5135786E-1,2.5691006E-1,5.9080247E-2,2.0450346E0,5.5763423E-2,6.8509346E-1,2.0450346E0,-9.576575E-1,1E0,1.7167456E0,0E0,9.092819E-1,9.3420637E-1,7.8364406E0,-6.202172E-1,-3.7790507E-2,1.04113065E-1,6.6243714E-1,-2.1557893E-1,-1.189477E0,-7.689205E-2,-2.688737E-1,7.7535397E-1,5.637771E0,9.988584E-1,2.3766115E0,3.178022E-1,1.1221664E0,-6.74935E-2,1.053033E0],"split_indices":[1,0,0,1,6,0,0,6,62,67,51,13,1,1,1,0,0,0,0,0,0,0,0,0,0,0,0,0,0,0,0],"split_type":[0,0,0,0,0,0,0,0,0,0,0,0,0,0,0,0,0,0,0,0,0,0,0,0,0,0,0,0,0,0,0],"sum_hessian":[1.7149E4,1.1654E4,5.495E3,3.36E3,8.294E3,3.72E2,5.123E3,2.645E3,7.15E2,7.66E2,7.528E3,4.5E1,3.27E2,6.9E2,4.433E3,2.13E2,2.432E3,1.61E2,5.54E2,7.3E2,3.6E1,7.183E3,3.45E2,1.5E1,3E1,2.63E2,6.4E1,5.35E2,1.55E2,4.365E3,6.8E1],"tree_param":{"num_deleted":"0","num_feature":"78","num_nodes":"31","size_leaf_vector":"1"}},{"base_weights":[6.2714065E-3,-7.299499E-2,6.256133E-1,2.3562996E-1,-1.9255234E-1,7.072297E0,2.7255768E-1,-5.340383E-2,2.6860847E0,-1.6772498E-1,-8.6500716E-1,7.26718E0,5.92665E0,1.2984755E0,-6.2162864E-1,-1.1239781E-1,1.555227E-1,1.6561862E0,6.8012035E-1,-1.8896303E-1,-4.2513747E-2,-1.4284737E-1,-4.3171695E-1,2.2571352E0,7.4917924E-1,3.342678E-1,1.1209699E0,-2.0375218E-2,-4.1634995E-1],"categories":[],"categories_nodes":[],"categories_segments":[],"categories_sizes":[],"default_left":[0,0,0,0,0,0,0,0,0,0,0,0,0,0,0,0,0,0,0,0,0,0,0,0,0,0,0,0,0],"id":10,"left_children":[1,3,5,7,9,11,13,15,17,19,21,-1,23,25,27,-1,-1,-1,-1,-1,-1,-1,-1,-1,-1,-1,-1,-1,-1],"loss_changes":[8.4199066E2,5.610852E2,4.427242E3,3.007433E3,1.8283511E2,1.8410552E3,1.6942568E3,6.9806305E2,5.195823E2,1.2699237E2,8.6370056E1,0E0,5.0702124E2,3.8216345E2,4.186464E2,0E0,0E0,0E0,0E0,0E0,0E0,0E0,0E0,0E0,0E0,0E0,0E0,0E0,0E0],"parents":[2147483647,0,0,1,1,2,2,3,3,4,4,5,5,6,6,7,7,8,8,9,9,10,10,12,12,13,13,14,14],"right_children":[2,4,6,8,10,12,14,16,18,20,22,-1,24,26,28,-1,-1,-1,-1,-1,-1,-1,-1,-1,-1,-1,-1,-1,-1],"split_conditions":[9.092819E-1,1.8123113E-1,2.7284247E-1,1.5200855E-1,1.7597845E0,1.13209546E-1,1.4837054E0,2.8309284E-2,5.9746526E-2,1.3772682E0,3.9034396E-1,7.26718E0,2.758506E0,5.0532074E0,2.5133371E0,-1.1239781E-1,1.555227E-1,1.6561862E0,6.8012035E-1,-1.8896303E-1,-4.2513747E-2,-1.4284737E-1,-4.3171695E-1,2.2571352E0,7.4917924E-1,3.342678E-1,1.1209699E0,-2.0375218E-2,-4.1634995E-1],"split_indices":[1,0,0,1,51,5,0,1,0,6,0,0,3,1,0,0,0,0,0,0,0,0,0,0,0,0,0,0,0],"split_type":[0,0,0,0,0,0,0,0,0,0,0,0,0,0,0,0,0,0,0,0,0,0,0,0,0,0,0,0,0],"sum_hessian":[1.7149E4,1.5204E4,1.945E3,4.245E3,1.0959E4,1E2,1.845E3,3.798E3,4.47E2,1.057E4,3.89E2,5E0,9.5E1,8.59E2,9.86E2,2.432E3,1.366E3,5.6E1,3.91E2,5.62E2,1.0008E4,2.33E2,1.56E2,6.4E1,3.1E1,8E2,5.9E1,5.73E2,4.13E2],"tree_param":{"num_deleted":"0","num_feature":"78","num_nodes":"29","size_leaf_vector":"1"}},{"base_weights":[5.1401537E-3,-1.0550033E-1,2.924841E-1,1.7934602E-1,-1.8181214E-1,2.2537813E0,-4.952302E-2,-1.2645563E-2,2.2204862E0,-1.630778E-1,-8.9142525E-1,7.6896453E0,1.9253982E0,4.1014317E-2,-1.3158607E0,-4.488682E-1,5.1137533E-2,2.9920343E-1,8.867951E-1,-4.0233366E-2,-1.5488285E-1,-2.0209652E-1,-1.8216969E0,1.6148006E0,8.132031E0,5.500678E-1,5.020571E0,-6.902164E-4,7.3457676E-1,-3.412486E-1,-1.9145663E0],"categories":[],"categories_nodes":[],"categories_segments":[],"categories_sizes":[],"default_left":[0,0,0,0,0,0,0,0,0,0,0,0,0,0,0,0,0,0,0,0,0,0,0,0,0,0,0,0,0,0,0],"id":11,"left_children":[1,3,5,7,9,11,13,15,17,19,21,23,25,27,29,-1,-1,-1,-1,-1,-1,-1,-1,-1,-1,-1,-1,-1,-1,-1,-1],"loss_changes":[5.452615E2,2.6920358E2,3.1983794E3,1.0255825E3,1.2969843E2,1.2490068E3,4.6565106E2,6.5031287E2,1.9946582E2,9.729875E1,2.7909894E2,1.6458875E3,8.7923535E2,3.95347E2,2.3761731E2,0E0,0E0,0E0,0E0,0E0,0E0,0E0,0E0,0E0,0E0,0E0,0E0,0E0,0E0,0E0,0E0],"parents":[2147483647,0,0,1,1,2,2,3,3,4,4,5,5,6,6,7,7,8,8,9,9,10,10,11,11,12,12,13,13,14,14],"right_children":[2,4,6,8,10,12,14,16,18,20,22,24,26,28,30,-1,-1,-1,-1,-1,-1,-1,-1,-1,-1,-1,-1,-1,-1,-1,-1],"split_conditions":[3.65559E-1,1.214846E-1,5.357272E-1,1.2369926E-1,1.6632545E0,5.5763423E-2,4.0627637E0,1.7111515E0,-1.0696377E0,1.7167456E0,1E0,1.7262509E0,3.9352982E0,7.8364406E0,5.0532074E0,-4.488682E-1,5.1137533E-2,2.9920343E-1,8.867951E-1,-4.0233366E-2,-1.5488285E-1,-2.0209652E-1,-1.8216969E0,1.6148006E0,8.132031E0,5.500678E-1,5.020571E0,-6.902164E-4,7.3457676E-1,-3.412486E-1,-1.9145663E0],"split_indices":[1,0,0,1,18,0,0,6,62,51,67,1,1,1,1,0,0,0,0,0,0,0,0,0,0,0,0,0,0,0,0],"split_type":[0,0,0,0,0,0,0,0,0,0,0,0,0,0,0,0,0,0,0,0,0,0,0,0,0,0,0,0,0,0,0],"sum_hessian":[1.7149E4,1.2382E4,4.767E3,2.616E3,9.766E3,7.07E2,4.06E3,2.392E3,2.24E2,9.516E3,2.5E2,3.9E1,6.68E2,3.79E3,2.7E2,2.62E2,2.13E3,8.5E1,1.39E2,8.796E3,7.2E2,2.41E2,9E0,3.6E1,3E0,6.65E2,3E0,3.724E3,6.6E1,2.62E2,8E0],"tree_param":{"num_deleted":"0","num_feature":"78","num_nodes":"31","size_leaf_vector":"1"}},{"base_weights":[4.3190937E-3,-1.8888311E-2,9.663243E-1,1.2210108E-1,-1.4778936E-1,8.542159E0,8.2741266E-1,-4.4557188E-2,1.287255E0,-5.7019764E-1,-1.1172329E-1,2.5168638E0,2.5406352E-1,-5.767871E-2,1.0481173E-1,2.4192486E0,3.4859374E-1,-3.1720728E-2,-2.0691858E-1,-2.7532578E-2,-2.4871966E-1,5.5837184E-1,3.34462E0,1.4347799E-1,-1.2202338E0],"categories":[],"categories_nodes":[],"categories_segments":[],"categories_sizes":[],"default_left":[0,0,0,0,0,0,0,0,0,0,0,0,0,0,0,0,0,0,0,0,0,0,0,0,0],"id":12,"left_children":[1,3,5,7,9,-1,11,13,15,17,19,21,23,-1,-1,-1,-1,-1,-1,-1,-1,-1,-1,-1,-1],"loss_changes":[3.8290305E2,3.0437268E2,1.520172E3,1.5533236E3,1.3322389E2,0E0,3.8972464E2,4.073071E2,8.404623E2,3.812314E1,1.15287636E2,5.5649457E2,2.945431E2,0E0,0E0,0E0,0E0,0E0,0E0,0E0,0E0,0E0,0E0,0E0,0E0],"parents":[2147483647,0,0,1,1,2,2,3,3,4,4,6,6,7,7,8,8,9,9,10,10,11,11,12,12],"right_children":[2,4,6,8,10,-1,12,14,16,18,20,22,24,-1,-1,-1,-1,-1,-1,-1,-1,-1,-1,-1,-1],"split_conditions":[2.7620015E0,4.4212428E-1,5.5763423E-2,2.4185975E-1,1.7111515E0,8.542159E0,1.1829811E0,6.769612E-2,4.580567E-2,-8.605967E-1,4.0627637E0,7.8364406E0,1.1935617E1,-5.767871E-2,1.0481173E-1,2.4192486E0,3.4859374E-1,-3.1720728E-2,-2.0691858E-1,-2.7532578E-2,-2.4871966E-1,5.5837184E-1,3.34462E0,1.4347799E-1,-1.2202338E0],"split_indices":[1,0,0,1,6,0,0,1,0,43,0,1,10,0,0,0,0,0,0,0,0,0,0,0,0],"split_type":[0,0,0,0,0,0,0,0,0,0,0,0,0,0,0,0,0,0,0,0,0,0,0,0,0],"sum_hessian":[1.7149E4,1.6746E4,4.03E2,7.998E3,8.748E3,1E0,4.02E2,6.998E3,1E3,6.87E2,8.061E3,1.01E2,3.01E2,5.09E3,1.908E3,1.7E1,9.83E2,1.41E2,5.46E2,7.844E3,2.17E2,9.5E1,6E0,2.87E2,1.4E1],"tree_param":{"num_deleted":"0","num_feature":"78","num_nodes":"25","size_leaf_vector":"1"}},{"base_weights":[3.8203464E-3,4.8846704E-1,-2.708089E-2,3.1999445E-1,8.963487E0,-4.426018E-2,7.7777535E-1,4.180087E-1,-1.376976E1,1.2372756E1,-1.0536016E0,-2.6449189E-2,-5.7027066E-1,7.3631096E0,5.329846E-1,-6.1243422E-2,5.149634E-1,-2.0712824E0,-5.157842E0,5.139237E0,7.1417236E-1,8.9940953E-1,-1.1486778E0,1.1912079E-2,-4.5852914E-2,-8.2501106E-2,-1.0983547E0,4.910889E-1,2.726982E0,6.5696466E-1,-6.295367E-2],"categories":[],"categories_nodes":[],"categories_segments":[],"categories_sizes":[],"default_left":[0,0,0,0,0,0,0,0,0,0,0,0,0,0,0,0,0,0,0,0,0,0,0,0,0,0,0,0,0,0,0],"id":13,"left_children":[1,3,5,7,9,11,13,15,17,19,21,23,25,27,29,-1,-1,-1,-1,-1,-1,-1,-1,-1,-1,-1,-1,-1,-1,-1,-1],"loss_changes":[2.5685474E2,1.464919E3,2.2296487E2,1.3991815E3,6.9605493E2,1.4788966E2,5.3932935E2,8.106627E2,4.580237E1,6.7236597E2,7.894682E1,1.27698006E2,4.708302E2,1.037771E2,4.0169815E2,0E0,0E0,0E0,0E0,0E0,0E0,0E0,0E0,0E0,0E0,0E0,0E0,0E0,0E0,0E0,0E0],"parents":[2147483647,0,0,1,1,2,2,3,3,4,4,5,5,6,6,7,7,8,8,9,9,10,10,11,11,12,12,13,13,14,14],"right_children":[2,4,6,8,10,12,14,16,18,20,22,24,26,28,30,-1,-1,-1,-1,-1,-1,-1,-1,-1,-1,-1,-1,-1,-1,-1,-1],"split_conditions":[6.771273E-2,1.2985345E0,2.9909375E0,1.2012984E0,7.547303E-1,2.1376567E0,2.7284247E-1,2.1539673E-2,4.978877E-2,5.5763423E-2,8.302033E-1,9.7386837E-1,1E0,1.6604066E0,8.302033E-1,-6.1243422E-2,5.149634E-1,-2.0712824E0,-5.157842E0,5.139237E0,7.1417236E-1,8.9940953E-1,-1.1486778E0,1.1912079E-2,-4.5852914E-2,-8.2501106E-2,-1.0983547E0,4.910889E-1,2.726982E0,6.5696466E-1,-6.295367E-2],"split_indices":[0,1,1,1,5,51,0,1,0,0,5,0,67,5,5,0,0,0,0,0,0,0,0,0,0,0,0,0,0,0,0],"split_type":[0,0,0,0,0,0,0,0,0,0,0,0,0,0,0,0,0,0,0,0,0,0,0,0,0,0,0,0,0,0,0],"sum_hessian":[1.7149E4,1.027E3,1.6122E4,1.008E3,1.9E1,1.5786E4,3.36E2,1.002E3,6E0,1.4E1,5E0,1.527E4,5.16E2,1.1E1,3.25E2,6.78E2,3.24E2,3E0,3E0,9E0,5E0,2E0,3E0,1.0024E4,5.246E3,4.72E2,4.4E1,3E0,8E0,1E2,2.25E2],"tree_param":{"num_deleted":"0","num_feature":"78","num_nodes":"31","size_leaf_vector":"1"}},{"base_weights":[2.7573896E-3,-7.419701E-2,1.7825942E-1,-4.8320033E-2,-8.911695E-1,1.997814E0,6.355313E-2,-2.292091E-2,-5.7886815E-1,-4.7890723E-1,-2.3131642E0,3.9038336E0,9.2998415E-1,5.3165925E-1,-8.382595E-2,1.08381465E-1,-2.3231875E-2,-6.867476E-1,-8.5869804E-2,2.6760887E-2,-2.0034279E-1,-1.6257237E0,-3.6715558E-1,1.6894752E0,7.0241594E-1,1.9795154E-1,5.534882E0,1.346893E-1,1.2982774E0,-1.485715E-2,-2.9789177E-1],"categories":[],"categories_nodes":[],"categories_segments":[],"categories_sizes":[],"default_left":[0,0,0,0,0,0,0,0,0,0,0,0,0,0,0,0,0,0,0,0,0,0,0,0,0,0,0,0,0,0,0],"id":14,"left_children":[1,3,5,7,9,11,13,15,17,19,21,23,25,27,29,-1,-1,-1,-1,-1,-1,-1,-1,-1,-1,-1,-1,-1,-1,-1,-1],"loss_changes":[2.3163518E2,2.5201846E2,1.0910316E3,1.5573605E2,2.1345416E2,6.2731396E2,3.3940167E2,2.3107957E2,2.6360437E2,3.064495E1,2.7079938E2,2.8646082E2,9.3439624E2,3.6783636E2,1.1664754E2,0E0,0E0,0E0,0E0,0E0,0E0,0E0,0E0,0E0,0E0,0E0,0E0,0E0,0E0,0E0,0E0],"parents":[2147483647,0,0,1,1,2,2,3,3,4,4,5,5,6,6,7,7,8,8,9,9,10,10,11,11,12,12,13,13,14,14],"right_children":[2,4,6,8,10,12,14,16,18,20,22,24,26,28,30,-1,-1,-1,-1,-1,-1,-1,-1,-1,-1,-1,-1,-1,-1,-1,-1],"split_conditions":[3.2832617E-1,1.6632545E0,2.4695231E-1,2.1362011E0,1E0,-6.8583155E-1,9.858177E-1,8.762824E-2,8.9619786E-2,1.3343391E-1,8.8620365E-2,1.3343391E-1,1.8201023E0,3.3734205E0,4.9051895E0,1.08381465E-1,-2.3231875E-2,-6.867476E-1,-8.5869804E-2,2.6760887E-2,-2.0034279E-1,-1.6257237E0,-3.6715558E-1,1.6894752E0,7.0241594E-1,1.9795154E-1,5.534882E0,1.346893E-1,1.2982774E0,-1.485715E-2,-2.9789177E-1],"split_indices":[1,18,0,51,67,21,0,0,0,0,1,0,1,1,0,0,0,0,0,0,0,0,0,0,0,0,0,0,0,0,0],"split_type":[0,0,0,0,0,0,0,0,0,0,0,0,0,0,0,0,0,0,0,0,0,0,0,0,0,0,0,0,0,0,0],"sum_hessian":[1.7149E4,1.1922E4,5.227E3,1.1557E4,3.65E2,3.09E2,4.918E3,1.103E4,5.27E2,2.84E2,8.1E1,1.1E2,1.99E2,1.177E3,3.741E3,1.37E3,9.66E3,7.6E1,4.51E2,7.1E1,2.13E2,2E1,6.1E1,5.1E1,5.9E1,1.97E2,2E0,1.153E3,2.4E1,3.606E3,1.35E2],"tree_param":{"num_deleted":"0","num_feature":"78","num_nodes":"31","size_leaf_vector":"1"}},{"base_weights":[2.302825E-3,-1.8306161E-1,6.359702E-2,-1.3813968E-1,-8.884108E-1,6.6707075E-1,-4.5864817E-2,-7.075914E-1,-9.5015585E-2,-1.9972906E0,-6.282442E-1,5.858826E-1,3.724814E0,-4.094804E-2,-1.8894297E0,8.234071E-3,-7.1493423E-1,5.9787665E-2,-5.5130403E-2,-9.743703E-1,-2.9640034E-1,-1.7649138E-1,-4.6595922E-1,1.8879446E-1,-2.976586E0,2.232034E0,5.441451E-1,-1.5417094E-2,5.437368E-1,-1.5439482E-1,-1.4661942E0],"categories":[],"categories_nodes":[],"categories_segments":[],"categories_sizes":[],"default_left":[0,0,0,0,0,0,0,0,0,0,0,0,0,0,0,0,0,0,0,0,0,0,0,0,0,0,0,0,0,0,0],"id":15,"left_children":[1,3,5,7,9,11,13,15,17,19,21,23,25,27,29,-1,-1,-1,-1,-1,-1,-1,-1,-1,-1,-1,-1,-1,-1,-1,-1],"loss_changes":[1.9486592E2,1.349215E2,8.5144366E2,9.83576E1,7.2311066E1,4.8910956E2,9.88242E1,3.473691E2,9.738782E1,5.737802E1,6.7702484E0,8.865994E2,3.4860107E2,2.1071997E2,1.1700629E2,0E0,0E0,0E0,0E0,0E0,0E0,0E0,0E0,0E0,0E0,0E0,0E0,0E0,0E0,0E0,0E0],"parents":[2147483647,0,0,1,1,2,2,3,3,4,4,5,5,6,6,7,7,8,8,9,9,10,10,11,11,12,12,13,13,14,14],"right_children":[2,4,6,8,10,12,14,16,18,20,22,24,26,28,30,-1,-1,-1,-1,-1,-1,-1,-1,-1,-1,-1,-1,-1,-1,-1,-1],"split_conditions":[5.2926052E-2,1.6590188E0,2.4695231E-1,5.162798E-4,1.4154642E-2,1.2985345E0,1.1935617E1,1E0,7.7670485E-2,1.5866454E-3,3.962334E0,1.2012984E0,7.547303E-1,7.8364406E0,7.8364406E0,8.234071E-3,-7.1493423E-1,5.9787665E-2,-5.5130403E-2,-9.743703E-1,-2.9640034E-1,-1.7649138E-1,-4.6595922E-1,1.8879446E-1,-2.976586E0,2.232034E0,5.441451E-1,-1.5417094E-2,5.437368E-1,-1.5439482E-1,-1.4661942E0],"split_indices":[1,51,0,11,1,1,10,67,0,9,5,1,5,1,1,0,0,0,0,0,0,0,0,0,0,0,0,0,0,0,0],"split_type":[0,0,0,0,0,0,0,0,0,0,0,0,0,0,0,0,0,0,0,0,0,0,0,0,0,0,0,0,0,0,0],"sum_hessian":[1.7149E4,4.261E3,1.2888E4,4.007E3,2.54E2,1.978E3,1.091E4,2.81E2,3.726E3,4.7E1,2.07E2,1.928E3,5E1,1.0882E4,2.8E1,1.96E2,8.5E1,8.63E2,2.863E3,2E1,2.7E1,2E2,7E0,1.921E3,7E0,1.6E1,3.4E1,1.0822E4,6E1,2E1,8E0],"tree_param":{"num_deleted":"0","num_feature":"78","num_nodes":"31","size_leaf_vector":"1"}},{"base_weights":[1.3951174E-3,-3.709674E-2,2.360404E-1,-1.6993213E-2,-6.276909E-1,1.2939883E0,-7.631383E-2,1.9030432E-1,-5.9732087E-2,-3.2295046E0,-2.527772E-1,9.384844E0,1.217666E0,1.1693843E-1,-5.602077E-1,-7.368133E-2,2.238311E-1,-3.4339767E-2,1.0472771E-2,-5.072622E-1,-2.133714E0,-1.8160723E-1,1.6558956E-1,5.243397E-1,3.2571466E0,3.336625E-1,1.3944097E0,1.514867E-2,4.37295E-1,-1.4186756E-1,-2.445191E0],"categories":[],"categories_nodes":[],"categories_segments":[],"categories_sizes":[],"default_left":[0,0,0,0,0,0,0,0,0,0,0,0,0,0,0,0,0,0,0,0,0,0,0,0,0,0,0,0,0,0,0],"id":16,"left_children":[1,3,5,7,9,11,13,15,17,19,21,23,25,27,29,-1,-1,-1,-1,-1,-1,-1,-1,-1,-1,-1,-1,-1,-1,-1,-1],"loss_changes":[1.5490639E2,1.7492648E2,7.9880725E2,1.2626158E2,4.7227963E2,3.2882166E2,1.746554E2,5.903719E2,6.1206615E1,3.5240686E2,1.2092204E2,3.7244415E1,1.9271252E2,1.1884912E2,3.4939923E2,0E0,0E0,0E0,0E0,0E0,0E0,0E0,0E0,0E0,0E0,0E0,0E0,0E0,0E0,0E0,0E0],"parents":[2147483647,0,0,1,1,2,2,3,3,4,4,5,5,6,6,7,7,8,8,9,9,10,10,11,11,12,12,13,13,14,14],"right_children":[2,4,6,8,10,12,14,16,18,20,22,24,26,28,30,-1,-1,-1,-1,-1,-1,-1,-1,-1,-1,-1,-1,-1,-1,-1,-1],"split_conditions":[7.3850304E-1,2.1376567E0,9.7386837E-1,1.175015E-1,7.368738E-2,4.1822568E-2,2.5133371E0,1.8154867E-2,1E0,3.9848393E-1,1E0,7.578888E-1,3.9352982E0,7.8364406E0,7.8364406E0,-7.368133E-2,2.238311E-1,-3.4339767E-2,1.0472771E-2,-5.072622E-1,-2.133714E0,-1.8160723E-1,1.6558956E-1,5.243397E-1,3.2571466E0,3.336625E-1,1.3944097E0,1.514867E-2,4.37295E-1,-1.4186756E-1,-2.445191E0],"split_indices":[1,51,0,0,0,0,0,1,64,1,66,1,1,1,1,0,0,0,0,0,0,0,0,0,0,0,0,0,0,0,0],"split_type":[0,0,0,0,0,0,0,0,0,0,0,0,0,0,0,0,0,0,0,0,0,0,0,0,0,0,0,0,0,0,0],"sum_hessian":[1.7149E4,1.4733E4,2.416E3,1.4249E4,4.84E2,5.5E2,1.866E3,2.435E3,1.1814E4,6E1,4.24E2,4E0,5.46E2,1.334E3,5.32E2,1.365E3,1.07E3,7.485E3,4.329E3,4.4E1,1.6E1,2.95E2,1.29E2,1E0,3E0,5.31E2,1.5E1,1.272E3,6.2E1,5.27E2,5E0],"tree_param":{"num_deleted":"0","num_feature":"78","num_nodes":"31","size_leaf_vector":"1"}},{"base_weights":[1.0258052E-3,-8.5161775E-2,8.199894E-2,-6.0381778E-2,-6.765849E-1,1.2465957E0,3.7134003E-2,-4.112507E-2,-8.087806E-1,-2.47679E0,-3.5092628E-1,1.1428674E0,5.274866E0,2.5245294E-1,-4.4056118E-2,7.709047E-2,-2.1264663E-2,-7.995094E-2,-9.8152596E-1,-9.758243E-1,-4.40492E-1,-7.92689E-2,-8.9118946E-1,5.3798854E-1,-5.779798E-2,3.6980085E-2,2.728588E-1,-1.1146301E-2,-4.523571E-1],"categories":[],"categories_nodes":[],"categories_segments":[],"categories_sizes":[],"default_left":[0,0,0,0,0,0,0,0,0,0,0,0,0,0,0,0,0,0,0,0,0,0,0,0,0,0,0,0,0],"id":17,"left_children":[1,3,5,7,9,11,13,15,17,19,21,23,-1,25,27,-1,-1,-1,-1,-1,-1,-1,-1,-1,-1,-1,-1,-1,-1],"loss_changes":[1.1969475E2,1.21716736E2,4.6199652E2,1.14900024E2,1.9493913E2,5.3571313E2,1.488859E2,6.899447E1,2.6625098E2,3.5133514E1,6.371705E1,2.843986E2,0E0,1.9783986E2,6.2430023E1,0E0,0E0,0E0,0E0,0E0,0E0,0E0,0E0,0E0,0E0,0E0,0E0,0E0,0E0],"parents":[2147483647,0,0,1,1,2,2,3,3,4,4,5,5,6,6,7,7,8,8,9,9,10,10,11,11,13,13,14,14],"right_children":[2,4,6,8,10,12,14,16,18,20,22,24,-1,26,28,-1,-1,-1,-1,-1,-1,-1,-1,-1,-1,-1,-1,-1,-1],"split_conditions":[1.5200855E-1,2.1362011E0,1.3343391E-1,1.6632545E0,8.9619786E-2,2.328131E0,7.826795E-1,6.372963E-2,1E0,9.083423E-4,2.2264543E0,1.0304946E0,5.274866E0,6.692684E-1,1.1935617E1,7.709047E-2,-2.1264663E-2,-7.995094E-2,-9.8152596E-1,-9.758243E-1,-4.40492E-1,-7.92689E-2,-8.9118946E-1,5.3798854E-1,-5.779798E-2,3.6980085E-2,2.728588E-1,-1.1146301E-2,-4.523571E-1],"split_indices":[1,51,0,18,0,1,0,0,67,10,5,21,0,1,10,0,0,0,0,0,0,0,0,0,0,0,0,0,0],"split_type":[0,0,0,0,0,0,0,0,0,0,0,0,0,0,0,0,0,0,0,0,0,0,0,0,0,0,0,0,0],"sum_hessian":[1.7149E4,8.307E3,8.842E3,7.974E3,3.33E2,3.27E2,8.515E3,7.775E3,1.99E2,5E1,2.83E2,3.26E2,1E0,2.331E3,6.184E3,7.05E2,7.07E3,1.64E2,3.5E1,2.7E1,2.3E1,2.75E2,8E0,2.19E2,1.07E2,1.949E3,3.82E2,6.156E3,2.8E1],"tree_param":{"num_deleted":"0","num_feature":"78","num_nodes":"29","size_leaf_vector":"1"}},{"base_weights":[8.468801E-4,-3.1895208E-1,1.6329486E-2,-2.420127E0,-2.9713255E-1,1.5230561E0,2.7610622E-3,-1.0191607E0,-5.937506E-1,-9.1430134E-1,-2.610149E-1,1.133009E0,5.1197143E0,-1.8561159E-1,2.894726E-2,-9.224493E-3,-2.3135057E-1,6.4374976E-2,-5.450828E-1,-7.3643625E-2,-1.991759E-1,7.3867165E-2,5.931151E-1,2.3754508E0,8.055662E-1,-9.594903E-3,-3.229959E-1,2.2975138E-1,2.2436145E-3],"categories":[],"categories_nodes":[],"categories_segments":[],"categories_sizes":[],"default_left":[0,0,0,0,0,0,0,0,0,0,0,0,0,0,0,0,0,0,0,0,0,0,0,0,0,0,0,0,0],"id":18,"left_children":[1,3,5,7,9,11,13,-1,15,17,19,21,23,25,27,-1,-1,-1,-1,-1,-1,-1,-1,-1,-1,-1,-1,-1,-1],"loss_changes":[8.4920364E1,3.55915E1,3.3443762E2,1.2258972E1,1.7259521E1,1.9901779E2,7.998521E1,0E0,3.758347E-1,4.420594E1,4.4879036E0,9.906146E1,7.411746E1,2.7086975E2,2.2520738E2,0E0,0E0,0E0,0E0,0E0,0E0,0E0,0E0,0E0,0E0,0E0,0E0,0E0,0E0],"parents":[2147483647,0,0,1,1,2,2,3,3,4,4,5,5,6,6,8,8,9,9,10,10,11,11,12,12,13,13,14,14],"right_children":[2,4,6,8,10,12,14,-1,16,18,20,22,24,26,28,-1,-1,-1,-1,-1,-1,-1,-1,-1,-1,-1,-1,-1,-1],"split_conditions":[1.2923803E-2,-3.0272489E0,4.978877E-2,5.7754975E-2,-2.0693505E0,7.578888E-1,1.7111515E0,-1.0191607E0,7.567893E-2,1E0,1.6590188E0,1.376746E-3,1.13209546E-1,1E0,8.3645135E-2,-9.224493E-3,-2.3135057E-1,6.4374976E-2,-5.450828E-1,-7.3643625E-2,-1.991759E-1,7.3867165E-2,5.931151E-1,2.3754508E0,8.055662E-1,-9.594903E-3,-3.229959E-1,2.2975138E-1,2.2436145E-3],"split_indices":[1,55,0,0,30,1,6,0,0,67,51,11,5,67,0,0,0,0,0,0,0,0,0,0,0,0,0,0,0],"split_type":[0,0,0,0,0,0,0,0,0,0,0,0,0,0,0,0,0,0,0,0,0,0,0,0,0,0,0,0,0],"sum_hessian":[1.7149E4,7.91E2,1.6358E4,7E0,7.84E2,1.45E2,1.6213E4,4E0,3E0,4.2E1,7.42E2,1.32E2,1.3E1,1.978E3,1.4235E4,1E0,2E0,1.9E1,2.3E1,7.16E2,2.6E1,6.5E1,6.7E1,5E0,8E0,1.688E3,2.9E2,4.02E2,1.3833E4],"tree_param":{"num_deleted":"0","num_feature":"78","num_nodes":"29","size_leaf_vector":"1"}},{"base_weights":[6.939372E-4,-1.3143878E-1,3.3496268E-2,-4.5022947E-1,-1.0974582E-1,3.499701E-1,-3.250135E-2,5.4969605E-2,-1.4684078E0,-8.6739205E-2,-4.3971705E-1,2.113105E0,3.0092737E-1,-2.1066314E-2,-4.363868E-1,-1.11346975E-1,8.839424E-2,-3.8847068E-1,-8.683635E-1,-1.280043E-2,-6.742359E-2,-2.2839062E-1,-8.546601E-2,1.318003E0,4.8284414E-1,8.362573E-2,9.3197626E-1,-3.6079086E-2,6.8580587E-3,-1.1271489E-1,-1.0434228E0],"categories":[],"categories_nodes":[],"categories_segments":[],"categories_sizes":[],"default_left":[0,0,0,0,0,0,0,0,0,0,0,0,0,0,0,0,0,0,0,0,0,0,0,0,0,0,0,0,0,0,0],"id":19,"left_children":[1,3,5,7,9,11,13,15,17,19,21,23,25,27,29,-1,-1,-1,-1,-1,-1,-1,-1,-1,-1,-1,-1,-1,-1,-1,-1],"loss_changes":[7.433699E1,2.3539406E1,2.8699213E2,1.11701775E2,2.421677E1,2.0438193E2,5.2502533E1,1.5020779E1,1.40677185E1,1.816367E1,1.01396675E1,6.642563E1,1.4272708E2,4.818678E1,5.6454514E1,0E0,0E0,0E0,0E0,0E0,0E0,0E0,0E0,0E0,0E0,0E0,0E0,0E0,0E0,0E0,0E0],"parents":[2147483647,0,0,1,1,2,2,3,3,4,4,5,5,6,6,7,7,8,8,9,9,10,10,11,11,12,12,13,13,14,14],"right_children":[2,4,6,8,10,12,14,16,18,20,22,24,26,28,30,-1,-1,-1,-1,-1,-1,-1,-1,-1,-1,-1,-1,-1,-1,-1,-1],"split_conditions":[4.030996E-2,5.162798E-4,2.5691006E-1,1E0,1.6590188E0,4.978877E-2,2.1362011E0,3.396464E-1,-7.122373E0,1.6928183E-1,8.9619786E-2,7.5473025E-2,2.328131E0,1.5447022E-1,1E0,-1.11346975E-1,8.839424E-2,-3.8847068E-1,-8.683635E-1,-1.280043E-2,-6.742359E-2,-2.2839062E-1,-8.546601E-2,1.318003E0,4.8284414E-1,8.362573E-2,9.3197626E-1,-3.6079086E-2,6.8580587E-3,-1.1271489E-1,-1.0434228E0],"split_indices":[1,11,0,67,51,0,51,19,14,0,0,5,1,1,67,0,0,0,0,0,0,0,0,0,0,0,0,0,0,0,0],"split_type":[0,0,0,0,0,0,0,0,0,0,0,0,0,0,0,0,0,0,0,0,0,0,0,0,0,0,0,0,0,0,0],"sum_hessian":[1.7149E4,3.41E3,1.3739E4,2.16E2,3.194E3,2.37E3,1.1369E4,1.45E2,7.1E1,2.987E3,2.07E2,6.3E1,2.307E3,1.1057E4,3.12E2,5.2E1,9.3E1,6.5E1,6E0,2.265E3,7.22E2,6.6E1,1.41E2,1E1,5.3E1,2.29E3,1.7E1,3.393E3,7.664E3,3.07E2,5E0],"tree_param":{"num_deleted":"0","num_feature":"78","num_nodes":"31","size_leaf_vector":"1"}}]},"name":"gbtree"},"learner_model_param":{"base_score":"4.340778E0","boost_from_average":"1","num_class":"0","num_feature":"78","num_target":"1"},"objective":{"name":"reg:squarederror","reg_loss_param":{"scale_pos_weight":"1"}}},"version":[2,1,4]}