{"learner":{"attributes":{"scikit_learn":"{\"_estimator_type\": \"regressor\"}"},"feature_names":[],"feature_types":[],"gradient_booster":{"model":{"gbtree_model_param":{"num_parallel_tree":"1","num_trees":"20"},"iteration_indptr":[0,1,2,3,4,5,6,7,8,9,10,11,12,13,14,15,16,17,18,19,20],"tree_info":[0,0,0,0,0,0,0,0,0,0,0,0,0,0,0,0,0,0,0,0],"trees":[{"base_weights":[-5.1308028E-8,-1.5000986E0,1.4453171E1,4.3827586E0,-2.255161E0,5.298361E1,1.1327704E1,9.4448125E-1,1.883868E1,-2.708692E0,-9.227235E-2,5.3621765E1,7.081928E0,-4.27824E-1,9.6637386E-1,2.9937456E0,2.2920383E1,-8.61659E-1,-4.771779E-2,4.369248E0,-4.8651388E-1,1.0668882E1,1.9497257E1,1.3559177E0,9.458576E0],"categories":[],"categories_nodes":[],"categories_segments":[],"categories_sizes":[],"default_left":[0,0,0,0,0,0,0,0,0,0,0,0,0,0,0,0,0,0,0,0,0,0,0,0,0],"id":0,"left_children":[1,3,5,7,9,-1,11,13,15,17,19,21,23,-1,-1,-1,-1,-1,-1,-1,-1,-1,-1,-1,-1],"loss_changes":[3.7883528E5,7.032553E4,8.30708E5,8.949816E4,1.3762305E4,0E0,2.892685E5,7.8629316E3,1.7568978E5,4.8344688E3,5.4562086E4,2.7869656E4,9.174641E4,0E0,0E0,0E0,0E0,0E0,0E0,0E0,0E0,0E0,0E0,0E0,0E0],"parents":[2147483647,0,0,1,1,2,2,3,3,4,4,6,6,7,7,8,8,9,9,10,10,11,11,12,12],"right_children":[2,4,6,8,10,-1,12,14,16,18,20,22,24,-1,-1,-1,-1,-1,-1,-1,-1,-1,-1,-1,-1],"split_conditions":[1.1351054E0,1.6617647E0,8.5810184E-2,1E0,4.1526753E-1,5.298361E1,3.5122308E-1,2.018237E-1,4.8804638E-1,1.7430536E0,3.9911714E-1,2.015179E0,4.995748E0,-4.27824E-1,9.6637386E-1,2.9937456E0,2.2920383E1,-8.61659E-1,-4.771779E-2,4.369248E0,-4.8651388E-1,1.0668882E1,1.9497257E1,1.3559177E0,9.458576E0],"split_indices":[1,6,0,67,1,0,0,1,1,51,0,1,1,0,0,0,0,0,0,0,0,0,0,0,0],"split_type":[0,0,0,0,0,0,0,0,0,0,0,0,0,0,0,0,0,0,0,0,0,0,0,0,0],"sum_hessian":[1.7471E4,1.5829E4,1.642E3,1.8E3,1.4029E4,3E1,1.612E3,1.455E3,3.45E2,1.1597E4,2.432E3,1.46E2,1.466E3,7.13E2,7.42E2,3E2,4.5E1,1.0898E4,6.99E2,2.29E2,2.203E3,5.8E1,8.8E1,1.328E3,1.38E2],"tree_param":{"num_deleted":"0","num_feature":"78","num_nodes":"25","size_leaf_vector":"1"}},{"base_weights":[7.062204E-3,-1.0264316E0,1.0460992E1,-1.3155534E0,7.5621347E0,3.9243732E1,8.352357E0,-1.5921938E0,5.2525454E0,3.150032E1,1.3998839E0,3.693444E1,4.9800797E0,-5.467236E-1,1.9145282E-1,8.6556435E-1,4.985924E0,2.5310962E0,1.6586536E1,4.1444635E0,1.06865905E-1,9.106209E0,1.6377745E1,1.0433625E0,9.813389E0],"categories":[],"categories_nodes":[],"categories_segments":[],"categories_sizes":[],"default_left":[0,0,0,0,0,0,0,0,0,0,0,0,0,0,0,0,0,0,0,0,0,0,0,0,0],"id":1,"left_children":[1,3,5,7,9,-1,11,13,15,17,19,21,23,-1,-1,-1,-1,-1,-1,-1,-1,-1,-1,-1,-1],"loss_changes":[1.8877948E5,3.94944E4,3.978453E5,2.7961113E4,7.636769E4,0E0,1.4882997E5,7.581539E3,1.6690023E4,5.7688695E4,5.3463555E3,1.7283031E4,5.7540844E4,0E0,0E0,0E0,0E0,0E0,0E0,0E0,0E0,0E0,0E0,0E0,0E0],"parents":[2147483647,0,0,1,1,2,2,3,3,4,4,6,6,7,7,8,8,9,9,10,10,11,11,12,12],"right_children":[2,4,6,8,10,-1,12,14,16,18,20,22,24,-1,-1,-1,-1,-1,-1,-1,-1,-1,-1,-1,-1],"split_conditions":[1.1815859E0,2.168937E0,7.184109E-2,1.6354423E0,7.583226E-2,3.9243732E1,4.370333E-1,6.247361E-1,1E0,3.7612596E-1,8.9801356E-2,2.791283E0,7.7457485E0,-5.467236E-1,1.9145282E-1,8.6556435E-1,4.985924E0,2.5310962E0,1.6586536E1,4.1444635E0,1.06865905E-1,9.106209E0,1.6377745E1,1.0433625E0,9.813389E0],"split_indices":[1,51,0,18,0,0,0,1,67,1,0,1,1,0,0,0,0,0,0,0,0,0,0,0,0],"split_type":[0,0,0,0,0,0,0,0,0,0,0,0,0,0,0,0,0,0,0,0,0,0,0,0,0],"sum_hessian":[1.7471E4,1.59E4,1.571E3,1.5383E4,5.17E2,2.6E1,1.545E3,1.4762E4,6.21E2,1.05E2,4.12E2,1.62E2,1.383E3,1.3381E4,1.381E3,5.15E2,1.06E2,5.4E1,5.1E1,3.1E1,3.81E2,1.2E2,4.2E1,1.313E3,7E1],"tree_param":{"num_deleted":"0","num_feature":"78","num_nodes":"25","size_leaf_vector":"1"}},{"base_weights":[1.092162E-2,-4.7762224E-1,1.1984153E1,1.2044572E1,-7.5977916E-1,3.5879795E1,7.645037E0,5.8673992E1,3.541637E0,-1.5104408E0,5.371712E-1,4.112768E1,3.258351E1,1.6693117E1,3.7675595E0,4.079123E0,2.4801723E1,5.5121307E0,2.1892713E-1,-3.03747E-1,-6.0297704E-1,4.094062E0,-2.0908464E-1,7.9182878E0,1.1377317E1,3.4065745E0,7.775308E0,2.5006328E0,1.508021E-1],"categories":[],"categories_nodes":[],"categories_segments":[],"categories_sizes":[],"default_left":[0,0,0,0,0,0,0,0,0,0,0,0,0,0,0,0,0,0,0,0,0,0,0,0,0,0,0,0,0],"id":2,"left_children":[1,3,5,7,9,11,13,15,17,19,21,-1,23,25,27,-1,-1,-1,-1,-1,-1,-1,-1,-1,-1,-1,-1,-1,-1],"loss_changes":[1.0220728E5,5.932491E4,7.075058E4,1.4649236E5,1.5985871E4,3.0563688E4,2.0320754E4,6.0537047E4,1.3082328E4,2.5846309E3,9.740676E4,0E0,2.4037656E3,8.273387E3,6.080566E3,0E0,0E0,0E0,0E0,0E0,0E0,0E0,0E0,0E0,0E0,0E0,0E0,0E0,0E0],"parents":[2147483647,0,0,1,1,2,2,3,3,4,4,5,5,6,6,7,7,8,8,9,9,10,10,12,12,13,13,14,14],"right_children":[2,4,6,8,10,12,14,16,18,20,22,-1,24,26,28,-1,-1,-1,-1,-1,-1,-1,-1,-1,-1,-1,-1,-1,-1],"split_conditions":[2.1356616E0,-3.1869967E0,7.9224753E-1,5.9867572E-2,2.4218842E-1,5.58764E-2,-6.4168245E-1,6.8558896E-1,8.5810184E-2,2.6341733E-1,2.674085E-1,4.112768E1,2.791283E0,7.7457485E0,1.5445834E0,4.079123E0,2.4801723E1,5.5121307E0,2.1892713E-1,-3.03747E-1,-6.0297704E-1,4.094062E0,-2.0908464E-1,7.9182878E0,1.1377317E1,3.4065745E0,7.775308E0,2.5006328E0,1.508021E-1],"split_indices":[1,55,0,0,1,0,33,1,0,0,0,0,1,1,0,0,0,0,0,0,0,0,0,0,0,0,0,0,0],"split_type":[0,0,0,0,0,0,0,0,0,0,0,0,0,0,0,0,0,0,0,0,0,0,0,0,0,0,0,0,0],"sum_hessian":[1.7471E4,1.6787E4,6.84E2,3.69E2,1.6418E4,1.04E2,5.8E2,5.6E1,3.13E2,1.0399E4,6.019E3,2E0,1.02E2,1.73E2,4.07E2,2E1,3.6E1,4.9E1,2.64E2,5.209E3,5.19E3,5.17E2,5.502E3,5E1,5.2E1,1.11E2,6.2E1,1.69E2,2.38E2],"tree_param":{"num_deleted":"0","num_feature":"78","num_nodes":"29","size_leaf_vector":"1"}},{"base_weights":[1.4046595E-2,-4.6726954E-1,6.751634E0,7.321868E0,-6.310887E-1,3.0677574E1,4.076623E0,4.2698963E1,3.0663948E0,-1.3048379E-1,-1.6631714E0,8.479227E1,2.4827677E1,7.8732343E0,-3.887091E-1,-5.880341E-1,1.6658613E1,9.619566E-3,4.0990276E0,-3.7484866E-1,2.4847506E-1,-4.5875522E-1,-8.291E-1,1.731515E1,3.1721691E1,9.1443815E0,6.6687346E0,1.6591733E0,5.23419E0,5.308145E-1,-9.261073E-1],"categories":[],"categories_nodes":[],"categories_segments":[],"categories_sizes":[],"default_left":[0,0,0,0,0,0,0,0,0,0,0,0,0,0,0,0,0,0,0,0,0,0,0,0,0,0,0,0,0,0,0],"id":3,"left_children":[1,3,5,7,9,11,13,15,17,19,21,23,25,27,29,-1,-1,-1,-1,-1,-1,-1,-1,-1,-1,-1,-1,-1,-1,-1,-1],"loss_changes":[5.666327E4,2.0813787E4,7.443745E4,5.0452617E4,8.252481E3,3.493296E4,1.7786896E4,2.0735562E4,9.678182E3,1.1541516E4,7.650342E2,1.3553125E2,8.943906E2,1.2620609E4,2.818072E3,0E0,0E0,0E0,0E0,0E0,0E0,0E0,0E0,0E0,0E0,0E0,0E0,0E0,0E0,0E0,0E0],"parents":[2147483647,0,0,1,1,2,2,3,3,4,4,5,5,6,6,7,7,8,8,9,9,10,10,11,11,12,12,13,13,14,14],"right_children":[2,4,6,8,10,12,14,16,18,20,22,24,26,28,30,-1,-1,-1,-1,-1,-1,-1,-1,-1,-1,-1,-1,-1,-1,-1,-1],"split_conditions":[1.5045038E0,-3.1869967E0,3.053246E-1,5.58764E-2,1E0,5.9867572E-2,1.5984643E0,1.779718E-1,1E0,1.1987104E-1,2.4505794E0,1.7255925E0,2.3747471E-1,3.9065115E0,2.5124426E0,-5.880341E-1,1.6658613E1,9.619566E-3,4.0990276E0,-3.7484866E-1,2.4847506E-1,-4.5875522E-1,-8.291E-1,1.731515E1,3.1721691E1,9.1443815E0,6.6687346E0,1.6591733E0,5.23419E0,5.308145E-1,-9.261073E-1],"split_indices":[1,55,0,0,64,0,0,1,67,1,0,1,0,1,0,0,0,0,0,0,0,0,0,0,0,0,0,0,0,0,0],"split_type":[0,0,0,0,0,0,0,0,0,0,0,0,0,0,0,0,0,0,0,0,0,0,0,0,0,0,0,0,0,0,0],"sum_hessian":[1.7471E4,1.6307E4,1.164E3,3.35E2,1.5972E4,1.16E2,1.048E3,3.5E1,3E2,1.0756E4,5.216E3,1E1,1.06E2,5.66E2,4.82E2,8E0,2.7E1,2.34E2,6.6E1,4.963E3,5.793E3,4.652E3,5.64E2,6E0,4E0,3E1,7.6E1,4.56E2,1.1E2,2.68E2,2.14E2],"tree_param":{"num_deleted":"0","num_feature":"78","num_nodes":"31","size_leaf_vector":"1"}},{"base_weights":[1.4990174E-2,-5.3771913E-1,3.1824174E0,1.16402544E-1,-1.2824022E0,3.9332405E1,2.135614E0,-8.799121E-1,4.096562E0,-1.0198187E0,-1.8017344E0,3.070903E1,5.37397E1,1.1786257E1,6.124794E-1,-3.7524107E-1,2.3283276E-1,4.3073387E0,7.943249E-1,-3.7386364E-1,-2.3407798E-2,-6.588273E-1,-4.4181666E-1,7.27933E0,1.0842784E1,1.917033E1,9.327405E0,2.908869E0,5.8641725E0,-8.1354834E-2,2.1863372E0],"categories":[],"categories_nodes":[],"categories_segments":[],"categories_sizes":[],"default_left":[0,0,0,0,0,0,0,0,0,0,0,0,0,0,0,0,0,0,0,0,0,0,0,0,0,0,0,0,0,0,0],"id":4,"left_children":[1,3,5,7,9,11,13,15,17,19,21,23,25,27,29,-1,-1,-1,-1,-1,-1,-1,-1,-1,-1,-1,-1,-1,-1,-1,-1],"loss_changes":[3.0589354E4,7.246934E3,9.815365E4,3.141426E4,9.46874E2,7.4191953E3,3.7093633E4,3.8925674E3,2.3540416E4,9.8559863E2,2.9972803E2,8.0384766E2,3.996836E3,5.390371E3,1.2867085E4,0E0,0E0,0E0,0E0,0E0,0E0,0E0,0E0,0E0,0E0,0E0,0E0,0E0,0E0,0E0,0E0],"parents":[2147483647,0,0,1,1,2,2,3,3,4,4,5,5,6,6,7,7,8,8,9,9,10,10,11,11,12,12,13,13,14,14],"right_children":[2,4,6,8,10,12,14,16,18,20,22,24,26,28,30,-1,-1,-1,-1,-1,-1,-1,-1,-1,-1,-1,-1,-1,-1,-1,-1],"split_conditions":[7.4124336E-1,4.5299798E-1,1.9157623E-1,1.4035921E-1,1.3649807E0,1.2721008E0,6.9446385E-1,6.972091E-2,9.77837E-2,3.522741E-1,1E0,8.843547E-1,5.7871986E-2,2.3989499E0,3.3851337E0,-3.7524107E-1,2.3283276E-1,4.3073387E0,7.943249E-1,-3.7386364E-1,-2.3407798E-2,-6.588273E-1,-4.4181666E-1,7.27933E0,1.0842784E1,1.917033E1,9.327405E0,2.908869E0,5.8641725E0,-8.1354834E-2,2.1863372E0],"split_indices":[1,0,0,1,0,1,0,1,0,1,64,1,0,1,1,0,0,0,0,0,0,0,0,0,0,0,0,0,0,0,0],"split_type":[0,0,0,0,0,0,0,0,0,0,0,0,0,0,0,0,0,0,0,0,0,0,0,0,0,0,0,0,0,0,0],"sum_hessian":[1.7471E4,1.4876E4,2.595E3,7.92E3,6.956E3,7.2E1,2.523E3,6.335E3,1.585E3,4.622E3,2.334E3,4.7E1,2.5E1,3.43E2,2.18E3,5.176E3,1.159E3,1.95E2,1.39E3,3.726E3,8.96E2,1.059E3,1.275E3,2.4E1,2.3E1,1.6E1,9E0,2.72E2,7.1E1,1.926E3,2.54E2],"tree_param":{"num_deleted":"0","num_feature":"78","num_nodes":"31","size_leaf_vector":"1"}},{"base_weights":[1.3982092E-2,-2.1747066E-1,4.3265295E0,7.6631695E-1,-6.625599E-1,1.3733056E1,2.4012427E0,-2.0621013E-2,1.4344545E1,-3.9136344E-1,-1.5877044E0,2.272374E1,1.2392309E1,4.104223E0,-1.6688801E0,-2.6825255E-1,7.493943E-1,8.895814E0,3.3274772E0,-2.1837072E-1,5.002522E-1,-4.1994423E-1,-8.0783266E-1,3.3660097E0,6.634997E0,8.848323E-1,3.7412455E0,-1.3634896E-1,-1.258161E0],"categories":[],"categories_nodes":[],"categories_segments":[],"categories_sizes":[],"default_left":[0,0,0,0,0,0,0,0,0,0,0,0,0,0,0,0,0,0,0,0,0,0,0,0,0,0,0,0,0],"id":5,"left_children":[1,3,5,7,9,11,13,15,17,19,21,-1,23,25,27,-1,-1,-1,-1,-1,-1,-1,-1,-1,-1,-1,-1,-1,-1],"loss_changes":[1.7440633E4,7.2617607E3,1.6085156E4,5.5200164E4,2.8641084E3,1.1615986E4,5.136039E3,1.0747692E4,1.3763598E4,6.1201265E3,5.33583E2,0E0,1.4503965E3,5.0065693E3,6.6961487E2,0E0,0E0,0E0,0E0,0E0,0E0,0E0,0E0,0E0,0E0,0E0,0E0,0E0,0E0],"parents":[2147483647,0,0,1,1,2,2,3,3,4,4,5,5,6,6,7,7,8,8,9,9,10,10,12,12,13,13,14,14],"right_children":[2,4,6,8,10,12,14,16,18,20,22,-1,24,26,28,-1,-1,-1,-1,-1,-1,-1,-1,-1,-1,-1,-1,-1,-1],"split_conditions":[1.8188596E0,2.1951443E-1,8.3415484E-1,3.37596E-1,1.580504E0,5.58764E-2,2.023524E0,6.268766E-2,5.7871986E-2,5.4859346E-1,1.1351054E0,2.272374E1,3.9065115E0,7.7457485E0,3.5880632E0,-2.6825255E-1,7.493943E-1,8.895814E0,3.3274772E0,-2.1837072E-1,5.002522E-1,-4.1994423E-1,-8.0783266E-1,3.3660097E0,6.634997E0,8.848323E-1,3.7412455E0,-1.3634896E-1,-1.258161E0],"split_indices":[1,0,0,1,0,0,0,1,0,1,1,0,1,1,0,0,0,0,0,0,0,0,0,0,0,0,0,0,0],"split_type":[0,0,0,0,0,0,0,0,0,0,0,0,0,0,0,0,0,0,0,0,0,0,0,0,0,0,0,0,0],"sum_hessian":[1.7471E4,1.6582E4,8.89E2,5.165E3,1.1417E4,1.5E2,7.39E2,4.883E3,2.82E2,8.83E3,2.587E3,2E0,1.48E2,5.21E2,2.18E2,3.626E3,1.257E3,4.8E1,2.34E2,7.59E3,1.24E3,2.213E3,3.74E2,1.34E2,1.4E1,4.59E2,6.2E1,1.48E2,7E1],"tree_param":{"num_deleted":"0","num_feature":"78","num_nodes":"29","size_leaf_vector":"1"}},{"base_weights":[1.2518406E-2,-1.10863335E-1,4.3711257E0,2.2094323E-1,-9.3420494E-1,1.1101741E1,2.0780528E0,-1.7371914E-1,4.842361E0,-8.520919E-1,-2.497942E0,1.8209244E1,1.0190227E1,3.1720037E0,-2.7532842E0,-1.5659922E-1,3.1458956E-1,5.807786E0,1.0029342E0,-2.1511856E-1,-3.4758592E-1,-6.0954124E-1,-9.4663125E-1,2.7717144E0,8.064388E0,6.622391E-1,2.0690758E0,-2.5391802E-1,-2.1576476E0],"categories":[],"categories_nodes":[],"categories_segments":[],"categories_sizes":[],"default_left":[0,0,0,0,0,0,0,0,0,0,0,0,0,0,0,0,0,0,0,0,0,0,0,0,0,0,0,0,0],"id":6,"left_children":[1,3,5,7,9,11,13,15,17,19,21,-1,23,25,27,-1,-1,-1,-1,-1,-1,-1,-1,-1,-1,-1,-1,-1,-1],"loss_changes":[9.396445E3,4.6422534E3,7.400583E3,2.2091916E4,6.2460693E2,4.89676E3,1.9114218E3,4.751563E3,2.0676805E4,1.9117969E2,6.806433E1,0E0,1.6726582E3,1.0410676E3,5.610306E2,0E0,0E0,0E0,0E0,0E0,0E0,0E0,0E0,0E0,0E0,0E0,0E0,0E0,0E0],"parents":[2147483647,0,0,1,1,2,2,3,3,4,4,5,5,6,6,7,7,8,8,9,9,10,10,12,12,13,13,14,14],"right_children":[2,4,6,8,10,12,14,16,18,20,22,-1,24,26,28,-1,-1,-1,-1,-1,-1,-1,-1,-1,-1,-1,-1,-1,-1],"split_conditions":[2.5870128E0,1.0616516E0,1.1434706E0,5.4859346E-1,4.0689993E0,5.58764E-2,2.9255288E0,1.6604586E-1,1.5166453E-1,2.023524E0,1.0534585E0,1.8209244E1,7.7457485E0,7.7457485E0,4.995748E0,-1.5659922E-1,3.1458956E-1,5.807786E0,1.0029342E0,-2.1511856E-1,-3.4758592E-1,-6.0954124E-1,-9.4663125E-1,2.7717144E0,8.064388E0,6.622391E-1,2.0690758E0,-2.5391802E-1,-2.1576476E0],"split_indices":[1,0,0,1,0,0,0,1,0,0,1,0,1,1,1,0,0,0,0,0,0,0,0,0,0,0,0,0,0],"split_type":[0,0,0,0,0,0,0,0,0,0,0,0,0,0,0,0,0,0,0,0,0,0,0,0,0,0,0,0,0],"sum_hessian":[1.7471E4,1.6991E4,4.8E2,1.2111E4,4.88E3,1.21E2,3.59E2,1.1159E4,9.52E2,4.638E3,2.42E2,1E0,1.2E2,2.93E2,6.6E1,8.685E3,2.474E3,8.8E1,8.64E2,3.222E3,1.416E3,1.44E2,9.8E1,1.15E2,5E0,2.34E2,5.9E1,4.7E1,1.9E1],"tree_param":{"num_deleted":"0","num_feature":"78","num_nodes":"29","size_leaf_vector":"1"}},{"base_weights":[1.0721182E-2,-1.21324934E-1,2.287058E0,7.885318E-1,-3.750046E-1,1.5413547E1,2.0790448E0,2.0462629E-1,1.0168792E1,-1.09750345E-1,-6.6568166E-1,5.032951E0,2.5120267E-1,-1.7690702E-1,6.959169E-1,7.5016603E0,2.5966477E0,-1.0983466E-1,8.631185E-1,-2.600843E-1,-1.2503885E-1,2.8392847E0,1.1267581E0,-5.181309E-2,1.1420215E0],"categories":[],"categories_nodes":[],"categories_segments":[],"categories_sizes":[],"default_left":[0,0,0,0,0,0,0,0,0,0,0,0,0,0,0,0,0,0,0,0,0,0,0,0,0],"id":7,"left_children":[1,3,5,7,9,-1,11,13,15,17,19,21,23,-1,-1,-1,-1,-1,-1,-1,-1,-1,-1,-1,-1],"loss_changes":[5.252037E3,3.812158E3,9.675965E3,1.9721266E4,9.9571606E2,0E0,5.1550425E3,5.6984365E3,4.5210293E3,5.17269E3,3.083069E2,2.0300654E3,8.914349E2,0E0,0E0,0E0,0E0,0E0,0E0,0E0,0E0,0E0,0E0,0E0,0E0],"parents":[2147483647,0,0,1,1,2,2,3,3,4,4,6,6,7,7,8,8,9,9,10,10,11,11,12,12],"right_children":[2,4,6,8,10,-1,12,14,16,18,20,22,24,-1,-1,-1,-1,-1,-1,-1,-1,-1,-1,-1,-1],"split_conditions":[1.7255925E0,1.5166453E-1,5.58764E-2,2.9356173E-1,7.822696E-1,1.5413547E1,1.2652013E0,4.3728467E-2,4.7894057E-2,4.733683E-1,1E0,2.8536877E-1,7.7457485E0,-1.7690702E-1,6.959169E-1,7.5016603E0,2.5966477E0,-1.0983466E-1,8.631185E-1,-2.600843E-1,-1.2503885E-1,2.8392847E0,1.1267581E0,-5.181309E-2,1.1420215E0],"split_indices":[1,0,0,1,0,0,0,1,0,1,64,0,1,0,0,0,0,0,0,0,0,0,0,0,0],"split_type":[0,0,0,0,0,0,0,0,0,0,0,0,0,0,0,0,0,0,0,0,0,0,0,0,0],"sum_hessian":[1.7471E4,1.6514E4,9.57E2,3.6E3,1.2914E4,3E0,9.54E2,3.39E3,2.1E2,6.753E3,6.161E3,3.64E2,5.9E2,2.465E3,9.25E2,1.8E1,1.92E2,6.22E3,5.33E2,3.405E3,2.756E3,8E1,2.84E2,5.28E2,6.2E1],"tree_param":{"num_deleted":"0","num_feature":"78","num_nodes":"25","size_leaf_vector":"1"}},{"base_weights":[9.305162E-3,-1.4537348E-1,1.1294806E0,4.4697663E-1,-3.0076638E-1,1.4961089E1,6.707963E-1,-1.1867894E-1,4.4980106E0,-1.2033193E0,-2.4729748E-1,2.2668612E1,9.952795E0,2.3107996E0,-4.0852046E-1,-2.0228481E-1,2.6200557E-1,1.606303E0,3.1447932E-1,-4.5437536E-1,1.06611066E-1,-2.3976251E-2,-1.2798457E-1,3.3374178E0,8.437706E0,1.0052524E0,3.7200897E0,5.2626824E-1,2.0843787E0,5.610007E-2,-4.3266627E-1],"categories":[],"categories_nodes":[],"categories_segments":[],"categories_sizes":[],"default_left":[0,0,0,0,0,0,0,0,0,0,0,0,0,0,0,0,0,0,0,0,0,0,0,0,0,0,0,0,0,0,0],"id":8,"left_children":[1,3,5,7,9,11,13,15,17,19,21,23,25,27,29,-1,-1,-1,-1,-1,-1,-1,-1,-1,-1,-1,-1,-1,-1,-1,-1],"loss_changes":[3.0274888E3,1.4133322E3,1.3439969E4,7.3126787E3,5.8667065E2,2.399288E3,3.6349243E3,1.5444329E3,1.1494507E3,3.3045093E2,3.446421E2,1.325001E3,6.532549E2,2.0912422E3,7.6298566E2,0E0,0E0,0E0,0E0,0E0,0E0,0E0,0E0,0E0,0E0,0E0,0E0,0E0,0E0,0E0,0E0],"parents":[2147483647,0,0,1,1,2,2,3,3,4,4,5,5,6,6,7,7,8,8,9,9,10,10,11,11,12,12,13,13,14,14],"right_children":[2,4,6,8,10,12,14,16,18,20,22,24,26,28,30,-1,-1,-1,-1,-1,-1,-1,-1,-1,-1,-1,-1,-1,-1,-1,-1],"split_conditions":[9.039255E-1,1.3769542E-1,2.1552326E-1,1.2751588E-1,1.337518E0,7.542163E-1,1.2971307E0,2.4157684E-2,1.2949855E0,1E0,6.844859E-1,1.2721008E0,9.993366E-1,3.3851337E0,2.3767426E0,-2.0228481E-1,2.6200557E-1,1.606303E0,3.1447932E-1,-4.5437536E-1,1.06611066E-1,-2.3976251E-2,-1.2798457E-1,3.3374178E0,8.437706E0,1.0052524E0,3.7200897E0,5.2626824E-1,2.0843787E0,5.610007E-2,-4.3266627E-1],"split_indices":[1,0,0,1,6,5,0,1,35,66,0,1,5,1,0,0,0,0,0,0,0,0,0,0,0,0,0,0,0,0,0],"split_type":[0,0,0,0,0,0,0,0,0,0,0,0,0,0,0,0,0,0,0,0,0,0,0,0,0,0,0,0,0,0,0],"sum_hessian":[1.7471E4,1.5352E4,2.119E3,3.19E3,1.2162E4,6.7E1,2.052E3,2.8E3,3.9E2,6.79E2,1.1483E4,2.5E1,4.2E1,8.14E2,1.238E3,1.795E3,1.005E3,3.12E2,7.8E1,5.66E2,1.13E2,5.94E3,5.543E3,9E0,1.6E1,1.2E1,3E1,7.28E2,8.6E1,7.86E2,4.52E2],"tree_param":{"num_deleted":"0","num_feature":"78","num_nodes":"31","size_leaf_vector":"1"}},{"base_weights":[7.670632E-3,-4.8946235E-2,2.007725E0,9.463402E-1,-1.2395808E-1,1.1900171E1,1.8466276E0,1.1438959E-1,7.9773955E0,-2.6259214E-1,1.6209441E-1,7.9053526E0,1.3523338E0,-1.3811141E-1,5.8043027E-1,5.6060157E0,1.9085524E0,-2.7113822E-1,-5.8847416E-2,6.688846E-1,-7.560738E-2,1.5906804E0,4.90601E0,6.3475883E-1,-2.4187255E-1],"categories":[],"categories_nodes":[],"categories_segments":[],"categories_sizes":[],"default_left":[0,0,0,0,0,0,0,0,0,0,0,0,0,0,0,0,0,0,0,0,0,0,0,0,0],"id":9,"left_children":[1,3,5,7,9,-1,11,13,15,17,19,21,23,-1,-1,-1,-1,-1,-1,-1,-1,-1,-1,-1,-1],"loss_changes":[1.9785718E3,1.2687107E3,2.8449038E3,6.965831E3,6.266964E2,0E0,1.4268085E3,1.1162274E3,2.0611055E3,4.5323224E2,4.4176963E3,7.0496265E2,7.3512585E2,0E0,0E0,0E0,0E0,0E0,0E0,0E0,0E0,0E0,0E0,0E0,0E0],"parents":[2147483647,0,0,1,1,2,2,3,3,4,4,6,6,7,7,8,8,9,9,10,10,11,11,12,12],"right_children":[2,4,6,8,10,-1,12,14,16,18,20,22,24,-1,-1,-1,-1,-1,-1,-1,-1,-1,-1,-1,-1],"split_conditions":[2.5870128E0,7.184109E-2,5.58764E-2,2.2047709E-1,3.1068617E-1,1.1900171E1,2.8536877E-1,2.8133E-2,1.3198785E-1,1.9860116E0,5.607596E-1,3.3851337E0,2.0993562E0,-1.3811141E-1,5.8043027E-1,5.6060157E0,1.9085524E0,-2.7113822E-1,-5.8847416E-2,6.688846E-1,-7.560738E-2,1.5906804E0,4.90601E0,6.3475883E-1,-2.4187255E-1],"split_indices":[1,0,0,1,1,0,0,1,5,6,0,1,0,0,0,0,0,0,0,0,0,0,0,0,0],"split_type":[0,0,0,0,0,0,0,0,0,0,0,0,0,0,0,0,0,0,0,0,0,0,0,0,0],"sum_hessian":[1.7471E4,1.6991E4,4.8E2,1.19E3,1.5801E4,1E0,4.79E2,1.065E3,1.25E2,1.0643E4,5.158E3,3.5E1,4.44E2,8.1E2,2.55E2,1.5E1,1.1E2,9.98E2,9.645E3,8.6E2,4.298E3,2.8E1,7E0,3.28E2,1.16E2],"tree_param":{"num_deleted":"0","num_feature":"78","num_nodes":"25","size_leaf_vector":"1"}},{"base_weights":[6.915342E-3,-3.37786E-2,1.4444716E0,4.7730482E-1,-1.2816136E-1,1.0115145E1,1.3069928E0,1.0090592E-1,4.803641E0,-2.3183648E-1,9.171104E-2,7.765273E0,1.0239719E0,-6.421477E-2,4.2814085E-1,1.097621E0,2.9849446E0,-6.0203515E-2,-4.012469E-1,4.7653815E-1,-5.7928257E-2,1.348077E0,3.3794127E0,8.261142E-1,1.0524504E-1],"categories":[],"categories_nodes":[],"categories_segments":[],"categories_sizes":[],"default_left":[0,0,0,0,0,0,0,0,0,0,0,0,0,0,0,0,0,0,0,0,0,0,0,0,0],"id":10,"left_children":[1,3,5,7,9,-1,11,13,15,17,19,21,23,-1,-1,-1,-1,-1,-1,-1,-1,-1,-1,-1,-1],"loss_changes":[1.0221578E3,8.1971216E2,2.090037E3,4.313221E3,3.2699707E2,0E0,8.694059E2,1.0186654E3,1.2126738E3,3.3555072E2,1.9599252E3,1.7836194E2,5.3581525E2,0E0,0E0,0E0,0E0,0E0,0E0,0E0,0E0,0E0,0E0,0E0,0E0],"parents":[2147483647,0,0,1,1,2,2,3,3,4,4,6,6,7,7,8,8,9,9,10,10,11,11,12,12],"right_children":[2,4,6,8,10,-1,12,14,16,18,20,22,24,-1,-1,-1,-1,-1,-1,-1,-1,-1,-1,-1,-1],"split_conditions":[2.5870128E0,1.1773956E-1,5.58764E-2,2.1405543E-1,3.522741E-1,1.0115145E1,2.5942615E-1,5.2596476E-2,9.314469E-1,1.6354423E0,6.006713E-1,3.0212395E0,8.2963794E-1,-6.421477E-2,4.2814085E-1,1.097621E0,2.9849446E0,-6.0203515E-2,-4.012469E-1,4.7653815E-1,-5.7928257E-2,1.348077E0,3.3794127E0,8.261142E-1,1.0524504E-1],"split_indices":[1,0,0,1,1,0,0,1,1,18,0,1,5,0,0,0,0,0,0,0,0,0,0,0,0],"split_type":[0,0,0,0,0,0,0,0,0,0,0,0,0,0,0,0,0,0,0,0,0,0,0,0,0],"sum_hessian":[1.7471E4,1.6991E4,4.8E2,2.648E3,1.4343E4,1E0,4.79E2,2.437E3,2.11E2,9.747E3,4.596E3,1.9E1,4.6E2,1.97E3,4.67E2,1.74E2,3.7E1,9.481E3,2.66E2,7.34E2,3.862E3,1.1E1,8E0,1.28E2,3.32E2],"tree_param":{"num_deleted":"0","num_feature":"78","num_nodes":"25","size_leaf_vector":"1"}},{"base_weights":[5.995625E-3,-2.0408262E-2,1.3207229E0,1.97515E-1,-1.6344082E-1,4.0367103E0,6.12125E-1,-1.9962046E-1,1.3365363E0,-7.248343E-1,-1.0572179E-1,2.9764323E0,1.7437094E1,1.0697972E0,-2.649967E0,-3.5368495E-2,-7.569267E-1,1.7223303E0,3.4176776E-1,-3.0712464E-1,-4.2633276E-2,-2.4307186E-2,-3.3722618E-1,3.5558078E-1,2.4524515E0,2.0073872E0,9.063046E0,-3.7430346E-1,4.6115813E-1,-1.8013526E-1,-1.6604874E0],"categories":[],"categories_nodes":[],"categories_segments":[],"categories_sizes":[],"default_left":[0,0,0,0,0,0,0,0,0,0,0,0,0,0,0,0,0,0,0,0,0,0,0,0,0,0,0,0,0,0,0],"id":11,"left_children":[1,3,5,7,9,11,13,15,17,19,21,23,25,27,29,-1,-1,-1,-1,-1,-1,-1,-1,-1,-1,-1,-1,-1,-1,-1,-1],"loss_changes":[6.0654846E2,5.339453E2,6.595718E2,3.0707896E3,3.3503607E2,9.568771E2,4.119084E2,9.5559155E2,1.5186719E3,1.6776831E2,2.3580417E2,6.1416046E2,4.8413904E2,2.6296426E2,1.9771294E2,0E0,0E0,0E0,0E0,0E0,0E0,0E0,0E0,0E0,0E0,0E0,0E0,0E0,0E0,0E0,0E0],"parents":[2147483647,0,0,1,1,2,2,3,3,4,4,5,5,6,6,7,7,8,8,9,9,10,10,11,11,12,12,13,13,14,14],"right_children":[2,4,6,8,10,12,14,16,18,20,22,24,26,28,30,-1,-1,-1,-1,-1,-1,-1,-1,-1,-1,-1,-1,-1,-1,-1,-1],"split_conditions":[3.0212395E0,3.1530255E-1,1.1055545E0,1.0091185E-1,1.9860116E0,7.7457485E0,3.5880632E0,2.168937E0,5.58764E-2,9.962751E-1,4.0689993E0,1.5838542E0,1E0,-4.1588783E-1,4.995748E0,-3.5368495E-2,-7.569267E-1,1.7223303E0,3.4176776E-1,-3.0712464E-1,-4.2633276E-2,-2.4307186E-2,-3.3722618E-1,3.5558078E-1,2.4524515E0,2.0073872E0,9.063046E0,-3.7430346E-1,4.6115813E-1,-1.8013526E-1,-1.6604874E0],"split_indices":[1,0,0,1,6,1,0,51,0,1,0,5,73,12,1,0,0,0,0,0,0,0,0,0,0,0,0,0,0,0,0],"split_type":[0,0,0,0,0,0,0,0,0,0,0,0,0,0,0,0,0,0,0,0,0,0,0,0,0,0,0,0,0,0,0],"sum_hessian":[1.7471E4,1.7128E4,3.43E2,6.787E3,1.0341E4,7E1,2.73E2,5.033E3,1.754E3,9.63E2,9.378E3,6.6E1,4E0,2.4E2,3.3E1,4.863E3,1.7E2,7.4E1,1.68E3,6.36E2,3.27E2,9.157E3,2.21E2,5E1,1.6E1,3E0,1E0,4E1,2E2,2E1,1.3E1],"tree_param":{"num_deleted":"0","num_feature":"78","num_nodes":"31","size_leaf_vector":"1"}},{"base_weights":[4.9229534E-3,-5.4798573E-3,2.5545678E0,-7.441001E-1,2.0258201E-2,4.47496E0,-4.9132266E0,-4.5219383E-1,-2.5584266E0,4.5329398E-1,-4.243919E-2,-2.1702836E0,5.495172E0,-1.180954E0,-6.1630573E0,-1.08289756E-1,-4.5179275E-1,-1.0854657E0,-6.146163E-1,1.0894141E-1,3.6976652E0,-1.7010497E-2,3.687316E-1,3.1582465E0,7.120091E-1,1.5785712E0,-1.2321434E0,-1.9998728E0,-7.797449E-1],"categories":[],"categories_nodes":[],"categories_segments":[],"categories_sizes":[],"default_left":[0,0,0,0,0,0,0,0,0,0,0,0,0,0,0,0,0,0,0,0,0,0,0,0,0,0,0,0,0],"id":12,"left_children":[1,3,5,7,9,11,13,15,17,19,21,-1,23,25,27,-1,-1,-1,-1,-1,-1,-1,-1,-1,-1,-1,-1,-1,-1],"loss_changes":[4.6343213E2,3.308384E2,1.0402041E3,3.0919647E2,4.566044E2,7.2067017E2,6.269232E1,4.8100395E1,3.634204E1,2.2721685E3,2.664962E2,0E0,8.076406E2,1.1587655E2,2.3997803E0,0E0,0E0,0E0,0E0,0E0,0E0,0E0,0E0,0E0,0E0,0E0,0E0,0E0,0E0],"parents":[2147483647,0,0,1,1,2,2,3,3,4,4,5,5,6,6,7,7,8,8,9,9,10,10,12,12,13,13,14,14],"right_children":[2,4,6,8,10,12,14,16,18,20,22,-1,24,26,28,-1,-1,-1,-1,-1,-1,-1,-1,-1,-1,-1,-1,-1,-1],"split_conditions":[7.7457485E0,-1.6302757E0,1.5075842E-3,1E0,1.0377046E-1,2.639757E-1,1.5086628E0,1.1719513E0,1.2843326E-2,1.3821865E0,5.359398E0,-2.1702836E0,8.107825E-1,1.1878906E0,1E0,-1.08289756E-1,-4.5179275E-1,-1.0854657E0,-6.146163E-1,1.0894141E-1,3.6976652E0,-1.7010497E-2,3.687316E-1,3.1582465E0,7.120091E-1,1.5785712E0,-1.2321434E0,-1.9998728E0,-7.797449E-1],"split_indices":[1,30,13,67,0,5,0,49,1,1,32,0,5,5,74,0,0,0,0,0,0,0,0,0,0,0,0,0,0],"split_type":[0,0,0,0,0,0,0,0,0,0,0,0,0,0,0,0,0,0,0,0,0,0,0,0,0,0,0,0,0],"sum_hessian":[1.7471E4,1.7401E4,7E1,5.85E2,1.6816E4,5.6E1,1.4E1,5.05E2,8E1,2.126E3,1.469E4,4E0,5.2E1,4E0,1E1,4.66E2,3.9E1,2.4E1,5.6E1,2.111E3,1.5E1,1.4528E4,1.62E2,1.9E1,3.3E1,1E0,3E0,8E0,2E0],"tree_param":{"num_deleted":"0","num_feature":"78","num_nodes":"29","size_leaf_vector":"1"}},{"base_weights":[3.512737E-3,-1.0072835E-1,2.0533802E-1,-6.905297E-1,-3.495126E-2,9.804132E-1,-1.0715229E-1,-2.3176642E-1,-2.3692608E0,1.7572758E-1,-1.5397555E-1,5.0501823E-1,2.0733974E0,-1.3803257E-1,1.7352843E0,-4.7760475E-1,-5.0196674E-2,-3.6775523E-1,-1.2233305E0,-6.3282914E-2,2.6322517E-1,-3.706799E-2,-2.404819E-1,1.0192301E0,1.0546051E-1,1.429411E0,4.2783976E-1,-2.7040591E-2,-3.1798992E-1,4.103127E0,2.9893228E-1],"categories":[],"categories_nodes":[],"categories_segments":[],"categories_sizes":[],"default_left":[0,0,0,0,0,0,0,0,0,0,0,0,0,0,0,0,0,0,0,0,0,0,0,0,0,0,0,0,0,0,0],"id":13,"left_children":[1,3,5,7,9,11,13,15,17,19,21,23,25,27,29,-1,-1,-1,-1,-1,-1,-1,-1,-1,-1,-1,-1,-1,-1,-1,-1],"loss_changes":[3.676051E2,4.4697665E2,1.441458E3,8.897328E2,2.5998892E2,8.874675E2,2.4158797E2,7.94167E1,4.7947546E2,1.01574603E3,1.3040068E2,5.284228E2,8.955547E2,1.8417625E2,6.0399023E2,0E0,0E0,0E0,0E0,0E0,0E0,0E0,0E0,0E0,0E0,0E0,0E0,0E0,0E0,0E0,0E0],"parents":[2147483647,0,0,1,1,2,2,3,3,4,4,5,5,6,6,7,7,8,8,9,9,10,10,11,11,12,12,13,13,14,14],"right_children":[2,4,6,8,10,12,14,16,18,20,22,24,26,28,30,-1,-1,-1,-1,-1,-1,-1,-1,-1,-1,-1,-1,-1,-1,-1,-1],"split_conditions":[2.9723126E-1,1.6617647E0,9.3792534E-1,1E0,1.955674E-1,8.2686555E-1,7.7457485E0,1.2843326E-2,1.1747084E0,2.996776E-2,1.7430536E0,6.784992E-2,2.3747471E-1,4.4202223E0,1.1055545E0,-4.7760475E-1,-5.0196674E-2,-3.6775523E-1,-1.2233305E0,-6.3282914E-2,2.6322517E-1,-3.706799E-2,-2.404819E-1,1.0192301E0,1.0546051E-1,1.429411E0,4.2783976E-1,-2.7040591E-2,-3.1798992E-1,4.103127E0,2.9893228E-1],"split_indices":[1,6,0,67,0,1,1,1,15,1,51,0,0,0,0,0,0,0,0,0,0,0,0,0,0,0,0,0,0,0,0],"split_type":[0,0,0,0,0,0,0,0,0,0,0,0,0,0,0,0,0,0,0,0,0,0,0,0,0,0,0,0,0,0,0],"sum_hessian":[1.7471E4,1.1521E4,5.95E3,1.155E3,1.0366E4,1.709E3,4.241E3,9.08E2,2.47E2,3.742E3,6.624E3,1.192E3,5.17E2,4.172E3,6.9E1,4E1,8.68E2,1.49E2,9.8E1,2.413E3,1.329E3,6.328E3,2.96E2,5.9E1,1.133E3,9.9E1,4.18E2,3.967E3,2.05E2,3E0,6.6E1],"tree_param":{"num_deleted":"0","num_feature":"78","num_nodes":"31","size_leaf_vector":"1"}},{"base_weights":[2.7360513E-3,2.6356801E-2,-8.867585E-1,4.837557E-1,-2.0412559E-2,-1.3548843E0,1.4470593E0,2.4748313E-1,6.6755333E0,-1.8979117E-1,5.233246E-2,-3.5548387E0,-4.234941E-1,1.4404263E1,-7.6196976E-2,-1.994713E-2,4.4406676E-1,1.7246224E0,3.7819884E0,-5.2552827E-2,-4.4277686E-1,1.3094556E-1,-2.0286748E-2,8.6357886E-1,-1.3286129E0,-3.5975924E-1,1.505759E-1,5.7702217E0,-1.7033387E-2,1.5034236E-1,-9.6621774E-2],"categories":[],"categories_nodes":[],"categories_segments":[],"categories_sizes":[],"default_left":[0,0,0,0,0,0,0,0,0,0,0,0,0,0,0,0,0,0,0,0,0,0,0,0,0,0,0,0,0,0,0],"id":14,"left_children":[1,3,5,7,9,11,13,15,17,19,21,23,25,27,29,-1,-1,-1,-1,-1,-1,-1,-1,-1,-1,-1,-1,-1,-1,-1,-1],"loss_changes":[3.6711932E2,3.6412744E2,4.9577966E2,2.3083416E3,1.902901E2,7.709735E2,1.5011202E3,5.891848E2,2.4634766E2,8.695918E1,4.978889E2,6.4241174E2,1.9154909E2,5.5984485E2,9.956185E0,0E0,0E0,0E0,0E0,0E0,0E0,0E0,0E0,0E0,0E0,0E0,0E0,0E0,0E0,0E0,0E0],"parents":[2147483647,0,0,1,1,2,2,3,3,4,4,5,5,6,6,7,7,8,8,9,9,10,10,11,11,12,12,13,13,14,14],"right_children":[2,4,6,8,10,12,14,16,18,20,22,24,26,28,30,-1,-1,-1,-1,-1,-1,-1,-1,-1,-1,-1,-1,-1,-1,-1,-1],"split_conditions":[2.170415E0,8.780577E-2,1.3821865E0,3.0609927E-1,8.990328E-2,8.9801356E-2,5.58764E-2,4.036474E-2,6.724398E-1,1.6354423E0,5.4080373E-1,2.262649E-1,1E0,6.976501E-1,1.0975722E0,-1.994713E-2,4.4406676E-1,1.7246224E0,3.7819884E0,-5.2552827E-2,-4.4277686E-1,1.3094556E-1,-2.0286748E-2,8.6357886E-1,-1.3286129E0,-3.5975924E-1,1.505759E-1,5.7702217E0,-1.7033387E-2,1.5034236E-1,-9.6621774E-2],"split_indices":[51,0,1,1,1,0,0,1,1,18,0,5,66,5,0,0,0,0,0,0,0,0,0,0,0,0,0,0,0,0,0],"split_type":[0,0,0,0,0,0,0,0,0,0,0,0,0,0,0,0,0,0,0,0,0,0,0,0,0,0,0,0,0,0,0],"sum_hessian":[1.7471E4,1.702E4,4.51E2,1.578E3,1.5442E4,3.76E2,7.5E1,1.521E3,5.7E1,4.639E3,1.0803E4,1.11E2,2.65E2,7E0,6.8E1,1.213E3,3.08E2,5.1E1,6E0,4.588E3,5.1E1,2.57E3,8.233E3,1.3E1,9.8E1,1.44E2,1.21E2,5E0,2E0,2E1,4.8E1],"tree_param":{"num_deleted":"0","num_feature":"78","num_nodes":"31","size_leaf_vector":"1"}},{"base_weights":[2.526434E-3,-9.2297755E-2,1.1339567E-1,-6.128128E-2,-1.0753504E0,1.4771216E0,3.7240934E-2,-3.020471E-2,-1.0188109E0,-3.197428E0,-6.4823395E-1,1.3474799E0,5.7922335E0,2.5814223E-1,-1.20759785E-1,1.0055532E-1,-2.4175908E-2,-1.5079013E-1,-1.0192618E0,-1.5067937E0,-4.7753707E-1,-1.6018894E-1,-1.0603656E0,5.981186E-1,-1.757221E-1,6.383983E-2,1.2987082E0,-8.092135E-2,1.6973307E-2],"categories":[],"categories_nodes":[],"categories_segments":[],"categories_sizes":[],"default_left":[0,0,0,0,0,0,0,0,0,0,0,0,0,0,0,0,0,0,0,0,0,0,0,0,0,0,0,0,0],"id":15,"left_children":[1,3,5,7,9,11,13,15,17,19,21,23,-1,25,27,-1,-1,-1,-1,-1,-1,-1,-1,-1,-1,-1,-1,-1,-1],"loss_changes":[1.8369508E2,2.8709674E2,8.3649054E2,2.7167798E2,2.5896313E2,9.587054E2,2.6633774E2,1.6285378E2,3.5068384E2,1.3267563E2,7.7599754E1,5.308884E2,0E0,5.864292E2,1.1755514E2,0E0,0E0,0E0,0E0,0E0,0E0,0E0,0E0,0E0,0E0,0E0,0E0,0E0,0E0],"parents":[2147483647,0,0,1,1,2,2,3,3,4,4,5,5,6,6,7,7,8,8,9,9,10,10,11,11,13,13,14,14],"right_children":[2,4,6,8,10,12,14,16,18,20,22,24,-1,26,28,-1,-1,-1,-1,-1,-1,-1,-1,-1,-1,-1,-1,-1,-1],"split_conditions":[1.9050933E-1,2.168937E0,1.7561154E-1,1.6354423E0,8.9801356E-2,1.8188596E0,1.1813868E0,7.782785E-2,1E0,1.6617647E0,2.2249382E0,1.0265068E0,5.7922335E0,3.9065115E0,1E0,1.0055532E-1,-2.4175908E-2,-1.5079013E-1,-1.0192618E0,-1.5067937E0,-4.7753707E-1,-1.6018894E-1,-1.0603656E0,5.981186E-1,-1.757221E-1,6.383983E-2,1.2987082E0,-8.092135E-2,1.6973307E-2],"split_indices":[1,51,0,18,0,1,0,0,67,6,5,21,0,1,64,0,0,0,0,0,0,0,0,0,0,0,0,0,0],"split_type":[0,0,0,0,0,0,0,0,0,0,0,0,0,0,0,0,0,0,0,0,0,0,0,0,0,0,0,0,0],"sum_hessian":[1.7471E4,9.417E3,8.054E3,9.13E3,2.87E2,4.25E2,7.629E3,8.844E3,2.86E2,4.7E1,2.4E2,4.23E2,2E0,3.181E3,4.448E3,1.071E3,7.773E3,2.36E2,5E1,2.1E1,2.6E1,2.32E2,8E0,3.17E2,1.06E2,3.147E3,3.4E1,2.417E3,2.031E3],"tree_param":{"num_deleted":"0","num_feature":"78","num_nodes":"29","size_leaf_vector":"1"}},{"base_weights":[1.952475E-3,-3.6082515E-1,2.911158E-2,-6.2407625E-1,2.5537768E-1,5.179249E-2,-3.5611975E-1,-4.0356058E-1,-1.5274906E0,3.984607E0,-3.0832794E-1,2.175812E-3,4.4609347E-1,-2.8493446E-1,-3.6568582E0,-1.5603627E-2,-4.9852726E-1,-6.019437E-1,5.162042E-1,7.71176E-1,2.077224E0,4.17504E-1,-1.5704815E-1,-2.8707397E-1,6.771331E-3,2.7870975E0,1.2288844E-1,-1.6634442E-1,-2.903674E-2,-5.869653E-1,-1.2873335E0],"categories":[],"categories_nodes":[],"categories_segments":[],"categories_sizes":[],"default_left":[0,0,0,0,0,0,0,0,0,0,0,0,0,0,0,0,0,0,0,0,0,0,0,0,0,0,0,0,0,0,0],"id":16,"left_children":[1,3,5,7,9,11,13,15,17,19,21,23,25,27,29,-1,-1,-1,-1,-1,-1,-1,-1,-1,-1,-1,-1,-1,-1,-1,-1],"loss_changes":[1.7215715E2,1.9757635E2,1.4205357E2,1.693157E2,7.6852704E2,3.0036365E2,2.1136548E2,3.0378546E2,2.63277E2,1.8171179E2,1.1704777E2,2.6679318E2,5.496178E2,4.4878937E1,1.2094284E1,0E0,0E0,0E0,0E0,0E0,0E0,0E0,0E0,0E0,0E0,0E0,0E0,0E0,0E0,0E0,0E0],"parents":[2147483647,0,0,1,1,2,2,3,3,4,4,5,5,6,6,7,7,8,8,9,9,10,10,11,11,12,12,13,13,14,14],"right_children":[2,4,6,8,10,12,14,16,18,20,22,24,26,28,30,-1,-1,-1,-1,-1,-1,-1,-1,-1,-1,-1,-1,-1,-1,-1,-1],"split_conditions":[5.4981664E-4,4.073169E-1,2.6601157E0,1E0,1.6962479E-1,8.2686555E-1,4.995748E0,2.4218842E-1,2.718504E-1,7.008786E-1,3.911348E-1,-3.1869967E0,4.589847E-2,1E0,1.1429607E0,-1.5603627E-2,-4.9852726E-1,-6.019437E-1,5.162042E-1,7.71176E-1,2.077224E0,4.17504E-1,-1.5704815E-1,-2.8707397E-1,6.771331E-3,2.7870975E0,1.2288844E-1,-1.6634442E-1,-2.903674E-2,-5.869653E-1,-1.2873335E0],"split_indices":[10,1,0,67,0,1,1,1,1,1,0,55,0,64,60,0,0,0,0,0,0,0,0,0,0,0,0,0,0,0,0],"split_type":[0,0,0,0,0,0,0,0,0,0,0,0,0,0,0,0,0,0,0,0,0,0,0,0,0,0,0,0,0,0,0],"sum_hessian":[1.7471E4,1.216E3,1.6255E4,8.52E2,3.64E2,1.5352E4,9.03E2,6.86E2,1.66E2,4.7E1,3.17E2,1.3637E4,1.715E3,8.85E2,1.8E1,5.37E2,1.49E2,1.45E2,2.1E1,3.3E1,1.4E1,3.5E1,2.82E2,2.83E2,1.3354E4,6E0,1.709E3,3.63E2,5.22E2,6E0,1.2E1],"tree_param":{"num_deleted":"0","num_feature":"78","num_nodes":"31","size_leaf_vector":"1"}},{"base_weights":[1.5423901E-3,-1.7998222E-1,4.5606542E-2,-9.5055366E-1,-1.2139801E-1,3.5974393E0,2.9362854E-2,-4.413887E-1,-2.1162841E0,-7.0628375E-3,-3.2034302E-1,6.8913665E0,2.448454E0,3.8645127E-1,-2.5291152E-2,-3.12931E-1,-3.7753668E-2,-5.188842E-1,-1.5125331E0,-3.8722165E-2,1.4312759E-1,-8.9175016E-2,-2.2363815E-1,6.548992E-1,2.4836721E0,-2.741347E-1,1.2789594E0,1.0973216E-1,5.8176594E0,-1.167017E-2,2.2783302E-1],"categories":[],"categories_nodes":[],"categories_segments":[],"categories_sizes":[],"default_left":[0,0,0,0,0,0,0,0,0,0,0,0,0,0,0,0,0,0,0,0,0,0,0,0,0,0,0,0,0,0,0],"id":17,"left_children":[1,3,5,7,9,11,13,15,17,19,21,23,25,27,29,-1,-1,-1,-1,-1,-1,-1,-1,-1,-1,-1,-1,-1,-1,-1,-1],"loss_changes":[1.3976198E2,1.5395874E2,8.110841E2,1.4211124E2,7.21721E1,2.2534589E2,2.7317957E2,3.1956238E1,7.38573E1,1.1915119E2,1.1146767E1,8.6456055E1,3.028739E2,7.230813E2,1.2968202E2,0E0,0E0,0E0,0E0,0E0,0E0,0E0,0E0,0E0,0E0,0E0,0E0,0E0,0E0,0E0,0E0],"parents":[2147483647,0,0,1,1,2,2,3,3,4,4,5,5,6,6,7,7,8,8,9,9,10,10,11,11,12,12,13,13,14,14],"right_children":[2,4,6,8,10,12,14,16,18,20,22,24,26,28,30,-1,-1,-1,-1,-1,-1,-1,-1,-1,-1,-1,-1,-1,-1,-1,-1],"split_conditions":[4.036474E-2,1.6617647E0,4.9889643E-2,1E0,1.3769542E-1,1.1313245E-1,2.0354974E-1,-1.0797514E0,1.1747084E0,2.1405542E-2,1.401883E0,1.621234E-1,9.2391497E-1,2.238408E0,3.9065115E0,-3.12931E-1,-3.7753668E-2,-5.188842E-1,-1.5125331E0,-3.8722165E-2,1.4312759E-1,-8.9175016E-2,-2.2363815E-1,6.548992E-1,2.4836721E0,-2.741347E-1,1.2789594E0,1.0973216E-1,5.8176594E0,-1.167017E-2,2.2783302E-1],"split_indices":[1,6,0,67,0,5,0,62,15,1,51,6,5,1,1,0,0,0,0,0,0,0,0,0,0,0,0,0,0,0,0],"split_type":[0,0,0,0,0,0,0,0,0,0,0,0,0,0,0,0,0,0,0,0,0,0,0,0,0,0,0,0,0,0,0],"sum_hessian":[1.7471E4,3.412E3,1.4059E4,2.4E2,3.172E3,6.3E1,1.3996E4,1.68E2,7.2E1,2.015E3,1.157E3,1.5E1,4.8E1,1.857E3,1.2139E4,5.7E1,1.11E2,6.5E1,7E0,1.61E3,4.05E2,1.099E3,5.8E1,4E0,1.1E1,1.7E1,3.1E1,1.856E3,1E0,1.1933E4,2.06E2],"tree_param":{"num_deleted":"0","num_feature":"78","num_nodes":"31","size_leaf_vector":"1"}},{"base_weights":[1.5201501E-3,5.0597902E-2,-1.6782723E-1,3.9505282E-1,3.092003E-2,-2.0029686E-1,9.295797E-1,1.3906868E-1,3.8838954E0,6.1544262E-2,-1.63408E-1,-1.427935E-1,-5.62669E-1,1.196773E1,5.197417E-1,-7.7588126E-2,2.3492318E-1,9.3906385E-1,2.0908613E0,2.0549493E-3,1.2936467E-1,-2.0535477E-3,-1.8748023E-1,1.1823598E-1,-5.790447E-2,-5.758182E-1,-5.9985384E-2,4.284782E0,7.534653E-1,8.410901E-1,-5.5492528E-2],"categories":[],"categories_nodes":[],"categories_segments":[],"categories_sizes":[],"default_left":[0,0,0,0,0,0,0,0,0,0,0,0,0,0,0,0,0,0,0,0,0,0,0,0,0,0,0,0,0,0,0],"id":18,"left_children":[1,3,5,7,9,11,13,15,17,19,21,23,25,27,29,-1,-1,-1,-1,-1,-1,-1,-1,-1,-1,-1,-1,-1,-1,-1,-1],"loss_changes":[1.4522159E2,9.181125E1,1.4007895E2,6.532006E2,7.627995E1,7.93943E1,5.0497528E2,1.7513213E2,9.446362E1,2.2386139E2,1.2608565E2,8.8870285E1,2.564967E2,5.168805E1,1.7756326E2,0E0,0E0,0E0,0E0,0E0,0E0,0E0,0E0,0E0,0E0,0E0,0E0,0E0,0E0,0E0,0E0],"parents":[2147483647,0,0,1,1,2,2,3,3,4,4,5,5,6,6,7,7,8,8,9,9,10,10,11,11,12,12,13,13,14,14],"right_children":[2,4,6,8,10,12,14,16,18,20,22,24,26,28,30,-1,-1,-1,-1,-1,-1,-1,-1,-1,-1,-1,-1,-1,-1,-1,-1],"split_conditions":[3.1512067E-1,6.9845505E-2,2.5870128E0,7.3696226E-2,1.8997977E0,9.090194E-1,2.1552326E-1,1.1008565E-2,2.3943628E-1,6.537864E-1,1.1351054E0,6.784992E-2,8.780577E-2,2.524965E0,2.8536877E-1,-7.7588126E-2,2.3492318E-1,9.3906385E-1,2.0908613E0,2.0549493E-3,1.2936467E-1,-2.0535477E-3,-1.8748023E-1,1.1823598E-1,-5.790447E-2,-5.758182E-1,-5.9985384E-2,4.284782E0,7.534653E-1,8.410901E-1,-5.5492528E-2],"split_indices":[49,0,1,1,0,43,0,1,1,1,1,0,0,3,0,0,0,0,0,0,0,0,0,0,0,0,0,0,0,0,0],"split_type":[0,0,0,0,0,0,0,0,0,0,0,0,0,0,0,0,0,0,0,0,0,0,0,0,0,0,0,0,0,0,0],"sum_hessian":[1.7471E4,1.3546E4,3.925E3,7.31E2,1.2815E4,3.813E3,1.12E2,6.82E2,4.9E1,1.1071E4,1.744E3,3.292E3,5.21E2,3E0,1.09E2,4.22E2,2.6E2,4.1E1,8E0,9.645E3,1.426E3,1.303E3,4.41E2,2.81E2,3.011E3,1.09E2,4.12E2,2E0,1E0,2.5E1,8.4E1],"tree_param":{"num_deleted":"0","num_feature":"78","num_nodes":"31","size_leaf_vector":"1"}},{"base_weights":[1.5435991E-3,-2.1957898E-1,2.2809558E-2,-3.8941967E-1,1.6069679E-1,9.2258826E-2,-6.560708E-2,-2.399082E-1,-8.99251E-1,4.4351754E0,-1.2783143E-1,1.2560284E-1,-2.704356E-1,-8.650579E-2,4.4291362E-1,6.193708E-3,-3.2634836E-1,4.799549E-2,-5.3902745E-1,1.0814631E0,2.6792688E0,3.213647E-1,-1.0072518E-1,1.3631357E-1,2.9978735E-2,1.6990376E0,-9.052928E-2,1.9528245E-3,-7.3245175E-2,7.4070907E-1,7.228615E-2],"categories":[],"categories_nodes":[],"categories_segments":[],"categories_sizes":[],"default_left":[0,0,0,0,0,0,0,0,0,0,0,0,0,0,0,0,0,0,0,0,0,0,0,0,0,0,0,0,0,0,0],"id":19,"left_children":[1,3,5,7,9,11,13,15,17,19,21,23,25,27,29,-1,-1,-1,-1,-1,-1,-1,-1,-1,-1,-1,-1,-1,-1,-1,-1],"loss_changes":[8.2165054E1,9.907339E1,9.788516E1,8.0583435E1,5.851548E2,1.080064E2,7.456847E1,1.8140498E2,2.2844872E2,7.978894E1,1.1130031E2,6.89758E1,1.4150638E2,9.8788666E1,1.1275184E2,0E0,0E0,0E0,0E0,0E0,0E0,0E0,0E0,0E0,0E0,0E0,0E0,0E0,0E0,0E0,0E0],"parents":[2147483647,0,0,1,1,2,2,3,3,4,4,5,5,6,6,7,7,8,8,9,9,10,10,11,11,12,12,13,13,14,14],"right_children":[2,4,6,8,10,12,14,16,18,20,22,24,26,28,30,-1,-1,-1,-1,-1,-1,-1,-1,-1,-1,-1,-1,-1,-1,-1,-1],"split_conditions":[5.2082574E-4,4.073169E-1,1E0,1E0,1.3170867E-1,1.7648604E0,1.913044E0,2.4218842E-1,6.1863158E-2,1E0,3.9911714E-1,8.181901E-2,1.8855408E-2,7.822696E-1,9.718503E-1,6.193708E-3,-3.2634836E-1,4.799549E-2,-5.3902745E-1,1.0814631E0,2.6792688E0,3.213647E-1,-1.0072518E-1,1.3631357E-1,2.9978735E-2,1.6990376E0,-9.052928E-2,1.9528245E-3,-7.3245175E-2,7.4070907E-1,7.228615E-2],"split_indices":[11,1,65,67,0,51,1,1,0,74,0,0,5,0,0,0,0,0,0,0,0,0,0,0,0,0,0,0,0,0,0],"split_type":[0,0,0,0,0,0,0,0,0,0,0,0,0,0,0,0,0,0,0,0,0,0,0,0,0,0,0,0,0,0,0],"sum_hessian":[1.7471E4,1.532E3,1.5939E4,1.059E3,4.73E2,8.927E3,7.012E3,8.2E2,2.39E2,2.9E1,4.44E2,8.176E3,7.51E2,6.736E3,2.76E2,6.28E2,1.92E2,1.1E2,1.29E2,2.6E1,3E0,6.5E1,3.79E2,5.91E2,7.585E3,3E0,7.48E2,4.237E3,2.499E3,2.4E1,2.52E2],"tree_param":{"num_deleted":"0","num_feature":"78","num_nodes":"31","size_leaf_vector":"1"}}]},"name":"gbtree"},"learner_model_param":{"base_score":"4.634251E0","boost_from_average":"1","num_class":"0","num_feature":"78","num_target":"1"},"objective":{"name":"reg:squarederror","reg_loss_param":{"scale_pos_weight":"1"}}},"version":[2,1,4]}