{"learner":{"attributes":{"scikit_learn":"{\"_estimator_type\": \"regressor\"}"},"feature_names":[],"feature_types":[],"gradient_booster":{"model":{"gbtree_model_param":{"num_parallel_tree":"1","num_trees":"20"},"iteration_indptr":[0,1,2,3,4,5,6,7,8,9,10,11,12,13,14,15,16,17,18,19,20],"tree_info":[0,0,0,0,0,0,0,0,0,0,0,0,0,0,0,0,0,0,0,0],"trees":[{"base_weights":[8.497851E-9,-1.2571653E0,1.2117631E1,5.3917327E0,-2.0301E0,5.311717E1,8.62632E0,1.2357787E0,1.9297394E1,-2.2966418E0,6.3477635E-1,6.233523E0,3.384291E1,-3.8440906E-2,1.6083359E0,3.1313002E0,2.3055397E1,-7.229554E-1,1.0718223E-1,4.7630095E0,-1.5184966E-1,1.4260289E1,1.4489326E0,1.2177142E1,3.491359E0],"categories":[],"categories_nodes":[],"categories_segments":[],"categories_sizes":[],"default_left":[0,0,0,0,0,0,0,0,0,0,0,0,0,0,0,0,0,0,0,0,0,0,0,0,0],"id":0,"left_children":[1,3,5,7,9,-1,11,13,15,17,19,21,23,-1,-1,-1,-1,-1,-1,-1,-1,-1,-1,-1,-1],"loss_changes":[2.4278211E5,7.421535E4,8.611041E5,8.689424E4,9.189906E3,0E0,8.8365484E4,6.5219336E3,1.7562744E5,3.5341367E3,2.0476236E4,7.7574E4,1.8556016E4,0E0,0E0,0E0,0E0,0E0,0E0,0E0,0E0,0E0,0E0,0E0,0E0],"parents":[2147483647,0,0,1,1,2,2,3,3,4,4,6,6,7,7,8,8,9,9,10,10,11,11,12,12],"right_children":[2,4,6,8,10,-1,12,14,16,18,20,22,24,-1,-1,-1,-1,-1,-1,-1,-1,-1,-1,-1,-1],"split_conditions":[1.1070174E0,1.7553401E0,8.38739E-2,1E0,6.049144E-1,5.311717E1,5.1214495E0,1.708588E0,4.7640002E-1,5.0520784E-1,3.920617E-1,3.432978E-1,-6.754361E-1,-3.8440906E-2,1.6083359E0,3.1313002E0,2.3055397E1,-7.229554E-1,1.0718223E-1,4.7630095E0,-1.5184966E-1,1.4260289E1,1.4489326E0,1.2177142E1,3.491359E0],"split_indices":[1,6,0,67,1,0,1,18,1,9,0,0,54,0,0,0,0,0,0,0,0,0,0,0,0],"split_type":[0,0,0,0,0,0,0,0,0,0,0,0,0,0,0,0,0,0,0,0,0,0,0,0,0],"sum_hessian":[1.5935E4,1.4438E4,1.497E3,1.503E3,1.2935E4,3E1,1.467E3,1.158E3,3.45E2,1.1759E4,1.176E3,1.341E3,1.26E2,8.71E2,2.87E2,3E2,4.5E1,1.1278E4,4.81E2,8.1E1,1.095E3,4.3E1,1.298E3,9.6E1,3E1],"tree_param":{"num_deleted":"0","num_feature":"78","num_nodes":"25","size_leaf_vector":"1"}},{"base_weights":[7.294648E-3,-9.804258E-1,7.726042E0,3.375604E0,-1.4777094E0,1.240972E2,5.4257503E0,1.2510633E1,7.834115E-1,-1.7554526E0,-3.1645888E-1,2.8744593E1,4.151675E1,3.2220063E0,1.872288E1,6.3719964E-1,1.1468502E1,-2.7212593E-1,1.0387294E0,-3.8374484E-1,-6.2953544E-1,2.4237754E0,-3.45862E-1,8.093458E0,6.176871E-1,2.5760415E0,7.70162E0],"categories":[],"categories_nodes":[],"categories_segments":[],"categories_sizes":[],"default_left":[0,0,0,0,0,0,0,0,0,0,0,0,0,0,0,0,0,0,0,0,0,0,0,0,0,0,0],"id":1,"left_children":[1,3,5,7,9,11,13,15,17,19,21,-1,-1,23,25,-1,-1,-1,-1,-1,-1,-1,-1,-1,-1,-1,-1],"loss_changes":[1.21503055E5,3.0610973E4,4.833058E5,3.4278484E4,4.0897637E3,8.873125E2,5.1924023E4,8.539734E4,5.116243E3,1.6692578E3,1.7206908E4,0E0,0E0,4.2024367E4,1.7529812E4,0E0,0E0,0E0,0E0,0E0,0E0,0E0,0E0,0E0,0E0,0E0,0E0],"parents":[2147483647,0,0,1,1,2,2,3,3,4,4,5,5,6,6,7,7,8,8,9,9,10,10,13,13,14,14],"right_children":[2,4,6,8,10,12,14,16,18,20,22,-1,-1,24,26,-1,-1,-1,-1,-1,-1,-1,-1,-1,-1,-1,-1],"split_conditions":[9.468226E-1,1.7553401E0,7.022001E-2,8.777501E-2,3.6312798E-1,1.2391182E0,3.3336046E0,2.6360402E-1,2.6360402E-1,2.828306E-1,5.090951E-1,2.8744593E1,4.151675E1,4.856884E-1,1.2676138E-1,6.3719964E-1,1.1468502E1,-2.7212593E-1,1.0387294E0,-3.8374484E-1,-6.2953544E-1,2.4237754E0,-3.45862E-1,8.093458E0,6.176871E-1,2.5760415E0,7.70162E0],"split_indices":[1,6,0,0,1,1,1,1,1,0,0,0,0,0,39,0,0,0,0,0,0,0,0,0,0,0,0],"split_type":[0,0,0,0,0,0,0,0,0,0,0,0,0,0,0,0,0,0,0,0,0,0,0,0,0,0,0],"sum_hessian":[1.5935E4,1.4128E4,1.807E3,1.447E3,1.2681E4,3.4E1,1.773E3,3.19E2,1.128E3,1.0233E4,2.448E3,1.4E1,2E1,1.522E3,2.51E2,2.28E2,9.1E1,6.92E2,4.36E2,4.286E3,5.947E3,2.21E2,2.227E3,7E1,1.452E3,1.03E2,1.48E2],"tree_param":{"num_deleted":"0","num_feature":"78","num_nodes":"27","size_leaf_vector":"1"}},{"base_weights":[1.1581358E-2,7.117381E0,-5.483024E-1,4.189985E1,4.022567E0,-8.344053E-1,6.9509215E0,9.212963E0,8.859863E1,3.0237072E0,2.7808727E1,-1.0349587E0,4.9884825E0,3.164254E1,4.7102923E0,-7.7671856E-2,7.6388354E0,2.1112755E1,3.1222956E1,-1.2308723E-1,1.4299452E0,9.10616E0,3.114951E0,-1.8710111E-1,-5.1102567E-1,2.971389E0,-5.4677933E-2,1.3295751E1,6.4650016E0,2.336328E0,-6.280779E-2],"categories":[],"categories_nodes":[],"categories_segments":[],"categories_sizes":[],"default_left":[0,0,0,0,0,0,0,0,0,0,0,0,0,0,0,0,0,0,0,0,0,0,0,0,0,0,0,0,0,0,0],"id":2,"left_children":[1,3,5,7,9,11,13,15,17,19,21,23,25,27,29,-1,-1,-1,-1,-1,-1,-1,-1,-1,-1,-1,-1,-1,-1,-1,-1],"loss_changes":[6.340403E4,1.2513058E5,3.1702E4,1.4419533E5,2.5338078E4,1.6624129E4,2.9892297E4,8.779814E3,3.6755E3,6.154217E3,1.5919023E3,3.7814238E3,1.2050945E4,4.8021914E3,7.5565244E3,0E0,0E0,0E0,0E0,0E0,0E0,0E0,0E0,0E0,0E0,0E0,0E0,0E0,0E0,0E0,0E0],"parents":[2147483647,0,0,1,1,2,2,3,3,4,4,5,5,6,6,7,7,8,8,9,9,10,10,11,11,12,12,13,13,14,14],"right_children":[2,4,6,8,10,12,14,16,18,20,22,24,26,28,30,-1,-1,-1,-1,-1,-1,-1,-1,-1,-1,-1,-1,-1,-1,-1,-1],"split_conditions":[-1.9275236E0,5.8516674E-2,1.8416417E0,6.634931E-1,7.7601795E0,1.708588E0,7.743706E-1,1.4883764E-1,1.2391182E0,1.8649536E-1,1.6287141E0,1E0,1.853028E-1,2.828306E-1,1.9525063E0,-7.7671856E-2,7.6388354E0,2.1112755E1,3.1222956E1,-1.2308723E-1,1.4299452E0,9.10616E0,3.114951E0,-1.8710111E-1,-5.1102567E-1,2.971389E0,-5.4677933E-2,1.3295751E1,6.4650016E0,2.336328E0,-6.280779E-2],"split_indices":[52,0,1,1,1,18,0,1,1,1,0,64,0,0,0,0,0,0,0,0,0,0,0,0,0,0,0,0,0,0,0],"split_type":[0,0,0,0,0,0,0,0,0,0,0,0,0,0,0,0,0,0,0,0,0,0,0,0,0,0,0,0,0,0,0],"sum_hessian":[1.5935E4,1.163E3,1.4772E4,9.4E1,1.069E3,1.423E4,5.42E2,5.6E1,3.8E1,1.027E3,4.2E1,1.3757E4,4.73E2,4.4E1,4.98E2,3.6E1,2E1,2E1,1.8E1,3.46E2,6.81E2,3.6E1,6E0,8.518E3,5.239E3,2.42E2,2.31E2,1.8E1,2.6E1,3.06E2,1.92E2],"tree_param":{"num_deleted":"0","num_feature":"78","num_nodes":"31","size_leaf_vector":"1"}},{"base_weights":[1.4236302E-2,-6.331019E-1,3.6106722E0,-1.4799608E0,-1.2829404E-1,5.4453533E1,2.323074E0,-3.6937833E0,-1.3569183E0,5.590325E0,-9.057511E-1,4.942641E1,3.3743008E1,5.3833127E0,-8.4676385E-1,-1.4969509E0,-8.3534867E-1,-4.827359E-1,-2.9193532E-1,1.1799339E0,4.243634E0,1.2666929E-1,-3.4074765E-1,1.7576906E1,1.1122501E1,1.1011078E0,3.9809191E0,-3.5933363E-1,4.3769865E0],"categories":[],"categories_nodes":[],"categories_segments":[],"categories_sizes":[],"default_left":[0,0,0,0,0,0,0,0,0,0,0,0,0,0,0,0,0,0,0,0,0,0,0,0,0,0,0,0,0],"id":3,"left_children":[1,3,5,7,9,11,13,15,17,19,21,23,-1,25,27,-1,-1,-1,-1,-1,-1,-1,-1,-1,-1,-1,-1,-1,-1],"loss_changes":[3.710305E4,5.7736387E3,1.5901933E5,1.3689453E3,3.76314E4,1.19420625E4,2.301405E4,2.984043E2,4.6111426E2,1.430633E4,2.2770186E3,4.2789844E3,0E0,1.6256734E4,6.335467E3,0E0,0E0,0E0,0E0,0E0,0E0,0E0,0E0,0E0,0E0,0E0,0E0,0E0,0E0],"parents":[2147483647,0,0,1,1,2,2,3,3,4,4,5,5,6,6,7,7,8,8,9,9,10,10,11,11,13,13,14,14],"right_children":[2,4,6,8,10,12,14,16,18,20,22,24,-1,26,28,-1,-1,-1,-1,-1,-1,-1,-1,-1,-1,-1,-1,-1,-1],"split_conditions":[7.146E-1,7.710866E-2,1.3458835E-1,4.9834914E-4,2.3016559E-1,1.7430143E0,1.5526423E0,2.4507403E-2,3.9450943E-2,3.3174655E-1,5.012928E-1,5.6566115E-2,3.3743008E1,2.7257013E0,7.7601795E0,-1.4969509E0,-8.3534867E-1,-4.827359E-1,-2.9193532E-1,1.1799339E0,4.243634E0,1.2666929E-1,-3.4074765E-1,1.7576906E1,1.1122501E1,1.1011078E0,3.9809191E0,-3.5933363E-1,4.3769865E0],"split_indices":[1,1,0,11,0,1,0,1,1,1,0,0,0,1,1,0,0,0,0,0,0,0,0,0,0,0,0,0,0],"split_type":[0,0,0,0,0,0,0,0,0,0,0,0,0,0,0,0,0,0,0,0,0,0,0,0,0,0,0,0,0],"sum_hessian":[1.5935E4,1.3505E4,2.43E3,5.043E3,8.462E3,5.9E1,2.371E3,2.64E2,4.779E3,1.012E3,7.45E3,5.6E1,3E0,1.206E3,1.165E3,1.07E2,1.57E2,2.882E3,1.897E3,8.49E2,1.63E2,1.1E3,6.35E3,3E1,2.6E1,9.92E2,2.14E2,1.14E3,2.5E1],"tree_param":{"num_deleted":"0","num_feature":"78","num_nodes":"29","size_leaf_vector":"1"}},{"base_weights":[1.4586654E-2,-1.726192E-1,6.6389904E0,5.3527884E0,-3.4046727E-1,4.8140167E1,5.356938E0,2.6823992E1,3.033344E-1,-9.054905E-1,2.7007994E-1,2.5383886E1,1.1414907E1,3.5472736E0,1.53529625E1,2.486081E0,1.15678005E1,2.3453734E0,-5.0963126E-2,-6.9317174E-1,-2.542557E-1,1.9417131E0,-9.901859E-2,2.5295582E0,5.9139204E-1,9.947046E0,3.9950085E0],"categories":[],"categories_nodes":[],"categories_segments":[],"categories_sizes":[],"default_left":[0,0,0,0,0,0,0,0,0,0,0,0,0,0,0,0,0,0,0,0,0,0,0,0,0,0,0],"id":4,"left_children":[1,3,5,7,9,11,13,15,17,19,21,-1,-1,23,25,-1,-1,-1,-1,-1,-1,-1,-1,-1,-1,-1,-1],"loss_changes":[1.9763812E4,1.4376046E4,2.3046643E4,4.9538824E4,5.189679E3,1.5648652E3,7.6516445E3,1.8606324E4,1.3205979E3,6.344468E2,2.6917785E4,0E0,0E0,2.7700347E3,1.9149336E3,0E0,0E0,0E0,0E0,0E0,0E0,0E0,0E0,0E0,0E0,0E0,0E0],"parents":[2147483647,0,0,1,1,2,2,3,3,4,4,5,5,6,6,7,7,8,8,9,9,10,10,13,13,14,14],"right_children":[2,4,6,8,10,12,14,16,18,20,22,-1,-1,24,26,-1,-1,-1,-1,-1,-1,-1,-1,-1,-1,-1,-1],"split_conditions":[2.4985597E0,-3.0569315E0,2.828306E-1,7.022001E-2,1.6676989E-1,5.461556E-2,7.7601795E0,5.143566E-1,8.777501E-2,1.4128346E0,3.042867E-1,2.5383886E1,1.1414907E1,1.1976413E0,1.1137674E0,2.486081E0,1.15678005E1,2.3453734E0,-5.0963126E-2,-6.9317174E-1,-2.542557E-1,1.9417131E0,-9.901859E-2,2.5295582E0,5.9139204E-1,9.947046E0,3.9950085E0],"split_indices":[1,55,0,0,1,0,1,1,0,6,0,0,0,0,0,0,0,0,0,0,0,0,0,0,0,0,0],"split_type":[0,0,0,0,0,0,0,0,0,0,0,0,0,0,0,0,0,0,0,0,0,0,0,0,0,0,0],"sum_hessian":[1.5935E4,1.5498E4,4.37E2,4.56E2,1.5042E4,1.2E1,4.25E2,8.6E1,3.7E2,7.812E3,7.23E3,1E0,1.1E1,3.61E2,6.4E1,3.4E1,5.2E1,2.1E1,3.49E2,3.08E2,7.504E3,6.37E2,6.593E3,8.7E1,2.74E2,5E0,5.9E1],"tree_param":{"num_deleted":"0","num_feature":"78","num_nodes":"27","size_leaf_vector":"1"}},{"base_weights":[1.4672614E-2,-2.1916163E-1,3.2865784E0,1.7157797E0,-3.849453E-1,3.7184513E1,2.5011582E0,-3.0776044E-2,1.7494755E1,-1.6320223E-1,-1.0163162E0,6.213445E1,2.7348505E1,1.143277E1,1.8150772E0,-2.6421487E-1,1.4235053E0,9.477045E0,3.874541E0,-1.4246716E-1,6.7794096E-1,-2.3599808E-1,-5.0564104E-1,3.873633E0,2.0818949E1,8.391469E0,2.420021E0,2.7070737E0,5.8806343E0,3.5516548E-1,3.2106931E0],"categories":[],"categories_nodes":[],"categories_segments":[],"categories_sizes":[],"default_left":[0,0,0,0,0,0,0,0,0,0,0,0,0,0,0,0,0,0,0,0,0,0,0,0,0,0,0,0,0,0,0],"id":5,"left_children":[1,3,5,7,9,11,13,15,17,19,21,23,25,27,29,-1,-1,-1,-1,-1,-1,-1,-1,-1,-1,-1,-1,-1,-1,-1,-1],"loss_changes":[1.2193093E4,4.771967E3,2.8208438E4,3.2354643E4,1.9180032E3,4.190504E3,6.352171E3,4.2987476E3,7.144539E3,7.6597827E3,5.459114E2,1.2486738E3,2.6191406E0,1.2795498E3,5.411768E3,0E0,0E0,0E0,0E0,0E0,0E0,0E0,0E0,0E0,0E0,0E0,0E0,0E0,0E0,0E0,0E0],"parents":[2147483647,0,0,1,1,2,2,3,3,4,4,5,5,6,6,7,7,8,8,9,9,10,10,11,11,12,12,13,13,14,14],"right_children":[2,4,6,8,10,12,14,16,18,20,22,24,26,28,30,-1,-1,-1,-1,-1,-1,-1,-1,-1,-1,-1,-1,-1,-1,-1,-1],"split_conditions":[1.4498221E0,7.607167E-2,2.4381948E-1,2.1877341E-1,1.1976413E0,5.461556E-2,8.1338173E-1,5.1405773E-2,4.8763894E-2,3.9988908E-1,2.4264913E0,1.5350003E0,2.0831988E0,2.9528432E0,7.7601795E0,-2.6421487E-1,1.4235053E0,9.477045E0,3.874541E0,-1.4246716E-1,6.7794096E-1,-2.3599808E-1,-5.0564104E-1,3.873633E0,2.0818949E1,8.391469E0,2.420021E0,2.7070737E0,5.8806343E0,3.5516548E-1,3.2106931E0],"split_indices":[1,0,0,1,0,0,0,1,0,1,0,1,5,1,1,0,0,0,0,0,0,0,0,0,0,0,0,0,0,0,0],"split_type":[0,0,0,0,0,0,0,0,0,0,0,0,0,0,0,0,0,0,0,0,0,0,0,0,0,0,0,0,0,0,0],"sum_hessian":[1.5935E4,1.4873E4,1.062E3,1.173E3,1.37E4,2.3E1,1.039E3,1.057E3,1.16E2,1.014E4,3.56E3,5E0,1.8E1,7.3E1,9.66E2,8.98E2,1.59E2,2.7E1,8.9E1,8.985E3,1.155E3,2.652E3,9.08E2,1E0,4E0,1.7E1,1E0,5.8E1,1.5E1,9.03E2,6.3E1],"tree_param":{"num_deleted":"0","num_feature":"78","num_nodes":"31","size_leaf_vector":"1"}},{"base_weights":[1.41590405E-2,-1.1601925E-1,3.2034004E0,2.5184917E0,-1.9431512E-1,5.8562805E1,2.8422413E0,1.3490322E1,9.3519405E-2,-4.9215534E-1,1.9450939E-1,1.9886223E1,5.3083496E0,1.6337355E1,2.3201914E0,1.3802347E0,6.4271092E0,7.580702E-1,-3.1785405E-1,-2.8522E-2,-2.0868002E-1,1.554857E0,-4.3207113E-2,3.278089E0,7.061824E0,9.7765166E-1,-4.8729804E-1],"categories":[],"categories_nodes":[],"categories_segments":[],"categories_sizes":[],"default_left":[0,0,0,0,0,0,0,0,0,0,0,0,0,0,0,0,0,0,0,0,0,0,0,0,0,0,0],"id":6,"left_children":[1,3,5,7,9,11,13,15,17,19,21,-1,-1,23,25,-1,-1,-1,-1,-1,-1,-1,-1,-1,-1,-1,-1],"loss_changes":[6.6165205E3,3.1589158E3,1.2329523E4,1.1758761E4,1.7222703E3,8.984375E1,4.3441587E3,5.5433594E3,1.0211713E3,6.802179E2,1.0894684E4,0E0,0E0,6.390029E2,2.2268E3,0E0,0E0,0E0,0E0,0E0,0E0,0E0,0E0,0E0,0E0,0E0,0E0],"parents":[2147483647,0,0,1,1,2,2,3,3,4,4,5,5,6,6,7,7,8,8,9,9,10,10,13,13,14,14],"right_children":[2,4,6,8,10,12,14,16,18,20,22,-1,-1,24,26,-1,-1,-1,-1,-1,-1,-1,-1,-1,-1,-1,-1],"split_conditions":[2.0415862E0,-3.0569315E0,2.0870946E-1,6.63189E-2,1.9217391E-1,5.461556E-2,6.007712E-1,6.778389E-1,1.677478E-1,1.501928E-1,2.4967113E-1,1.9886223E1,5.3083496E0,2.9528432E0,2.4264913E0,1.3802347E0,6.4271092E0,7.580702E-1,-3.1785405E-1,-2.8522E-2,-2.0868002E-1,1.554857E0,-4.3207113E-2,3.278089E0,7.061824E0,9.7765166E-1,-4.8729804E-1],"split_indices":[1,55,0,0,1,0,0,1,0,0,0,0,0,1,0,0,0,0,0,0,0,0,0,0,0,0,0],"split_type":[0,0,0,0,0,0,0,0,0,0,0,0,0,0,0,0,0,0,0,0,0,0,0,0,0,0,0],"sum_hessian":[1.5935E4,1.5311E4,6.24E2,4.41E2,1.487E4,3E0,6.21E2,7.9E1,3.62E2,8.42E3,6.45E3,2E0,1E0,2.2E1,5.99E2,3.8E1,4.1E1,1.16E2,2.46E2,2.853E3,5.567E3,4.09E2,6.041E3,1.4E1,8E0,4.84E2,1.15E2],"tree_param":{"num_deleted":"0","num_feature":"78","num_nodes":"27","size_leaf_vector":"1"}},{"base_weights":[1.2769462E-2,-2.3645313E-1,9.894258E-1,-6.975308E-1,-7.4592106E-2,1.1996068E1,3.8359505E-1,-2.3263917E0,-5.843507E-1,2.6277854E0,-3.311283E-1,7.729696E0,1.6874403E1,2.3735473E0,-2.7730092E-1,-9.731396E-1,-4.029428E-1,-2.2756413E-1,-1.11545056E-1,4.2824173E-1,1.3922166E0,-4.3707183E-1,-7.737476E-2,1.703186E0,3.1490626E0,7.8563185E0,3.5961654E0,6.7215276E-1,6.652167E0,-1.3037401E-1,1.6562365E0],"categories":[],"categories_nodes":[],"categories_segments":[],"categories_sizes":[],"default_left":[0,0,0,0,0,0,0,0,0,0,0,0,0,0,0,0,0,0,0,0,0,0,0,0,0,0,0,0,0,0,0],"id":7,"left_children":[1,3,5,7,9,11,13,15,17,19,21,23,25,27,29,-1,-1,-1,-1,-1,-1,-1,-1,-1,-1,-1,-1,-1,-1,-1,-1],"loss_changes":[3.879133E3,9.475316E2,2.160024E4,6.068264E2,6.516799E3,3.3869277E3,4.0408035E3,1.8867957E2,1.1396973E2,1.962541E3,7.072081E2,4.6290918E2,3.2363262E3,1.9681206E3,2.1061946E3,0E0,0E0,0E0,0E0,0E0,0E0,0E0,0E0,0E0,0E0,0E0,0E0,0E0,0E0,0E0,0E0],"parents":[2147483647,0,0,1,1,2,2,3,3,4,4,5,5,6,6,7,7,8,8,9,9,10,10,11,11,12,12,13,13,14,14],"right_children":[2,4,6,8,10,12,14,16,18,20,22,24,26,28,30,-1,-1,-1,-1,-1,-1,-1,-1,-1,-1,-1,-1,-1,-1,-1,-1],"split_conditions":[5.343809E-1,4.3037392E-2,2.6332504E-1,1.7553401E0,1.4239056E-1,8.876462E-1,1.0806079E0,8.38739E-2,2.331192E-2,1.288133E-1,1.498461E0,6.9397795E-1,7.245909E-1,7.7601795E0,7.7601795E0,-9.731396E-1,-4.029428E-1,-2.2756413E-1,-1.11545056E-1,4.2824173E-1,1.3922166E0,-4.3707183E-1,-7.737476E-2,1.703186E0,3.1490626E0,7.8563185E0,3.5961654E0,6.7215276E-1,6.652167E0,-1.3037401E-1,1.6562365E0],"split_indices":[1,1,0,6,0,1,0,0,1,1,6,1,5,1,1,0,0,0,0,0,0,0,0,0,0,0,0,0,0,0,0],"split_type":[0,0,0,0,0,0,0,0,0,0,0,0,0,0,0,0,0,0,0,0,0,0,0,0,0,0,0,0,0,0,0],"sum_hessian":[1.5935E4,1.2696E4,3.239E3,3.298E3,9.398E3,1.68E2,3.071E3,2.13E2,3.085E3,8.14E2,8.584E3,9.1E1,7.7E1,7.65E2,2.306E3,1.09E2,1.04E2,1.694E3,1.391E3,5.11E2,3.03E2,5.23E2,8.061E3,5.4E1,3.7E1,2.5E1,5.2E1,7.61E2,4E0,2.246E3,6E1],"tree_param":{"num_deleted":"0","num_feature":"78","num_nodes":"31","size_leaf_vector":"1"}},{"base_weights":[1.0491434E-2,-8.3066784E-2,1.7531731E0,1.386359E-1,-5.003488E-1,1.1665041E1,1.5212367E0,-1.633559E-1,2.1949353E0,-4.032483E-1,-1.4797392E0,5.1791673E0,6.7949086E-1,-9.509626E-2,1.7726995E-1,2.3459654E0,4.37917E-1,-4.7459155E-1,-9.918052E-2,-3.1673336E-1,-8.921505E-1,1.4368904E0,5.489129E0,3.4487513E-1,-8.341274E-1],"categories":[],"categories_nodes":[],"categories_segments":[],"categories_sizes":[],"default_left":[0,0,0,0,0,0,0,0,0,0,0,0,0,0,0,0,0,0,0,0,0,0,0,0,0],"id":8,"left_children":[1,3,5,7,9,-1,11,13,15,17,19,21,23,-1,-1,-1,-1,-1,-1,-1,-1,-1,-1,-1,-1],"loss_changes":[2.5983857E3,1.3993217E3,6.9336855E3,6.134454E3,4.984845E2,0E0,2.4843513E3,9.9835645E2,5.220031E3,4.0844708E2,2.964768E2,6.8395337E2,1.0734211E3,0E0,0E0,0E0,0E0,0E0,0E0,0E0,0E0,0E0,0E0,0E0,0E0],"parents":[2147483647,0,0,1,1,2,2,3,3,4,4,6,6,7,7,8,8,9,9,10,10,11,11,12,12],"right_children":[2,4,6,8,10,-1,12,14,16,18,20,22,24,-1,-1,-1,-1,-1,-1,-1,-1,-1,-1,-1,-1],"split_conditions":[1.7430143E0,9.0505785E-1,2.0870946E-1,2.893069E-1,3.1696532E0,1.1665041E1,1.0611024E0,1.3748056E-1,1.3653891E-1,1.7553401E0,1.1070174E0,7.7601795E0,3.43883E0,-9.509626E-2,1.7726995E-1,2.3459654E0,4.37917E-1,-4.7459155E-1,-9.918052E-2,-3.1673336E-1,-8.921505E-1,1.4368904E0,5.489129E0,3.4487513E-1,-8.341274E-1],"split_indices":[1,0,0,1,0,0,0,1,0,6,1,1,0,0,0,0,0,0,0,0,0,0,0,0,0],"split_type":[0,0,0,0,0,0,0,0,0,0,0,0,0,0,0,0,0,0,0,0,0,0,0,0,0],"sum_hessian":[1.5935E4,1.5124E4,8.11E2,9.877E3,5.247E3,4E0,8.07E2,8.613E3,1.264E3,4.775E3,4.72E2,1.5E2,6.57E2,7.156E3,1.457E3,1.45E2,1.119E3,2.76E2,4.499E3,3.69E2,1.03E2,1.47E2,3E0,5.79E2,7.8E1],"tree_param":{"num_deleted":"0","num_feature":"78","num_nodes":"25","size_leaf_vector":"1"}},{"base_weights":[8.54788E-3,-2.661937E-2,2.9387345E0,6.7919034E-1,-1.2056292E-1,6.5093284E0,1.8425369E0,-7.051545E-2,5.183372E0,-3.1460576E-2,-7.620812E-1,4.867001E0,1.235538E1,2.9236577E0,-1.1985806E0,-1.350434E-1,3.5381207E-1,1.3931642E0,9.660076E0,-7.804047E-2,1.708802E-1,-1.883054E-1,-4.7586817E-1,3.8116834E0,1.2096636E0,-3.486769E-1,4.25711E0,3.7914744E-1,1.5400048E0,1.3822353E-1,-1.4911377E0],"categories":[],"categories_nodes":[],"categories_segments":[],"categories_sizes":[],"default_left":[0,0,0,0,0,0,0,0,0,0,0,0,0,0,0,0,0,0,0,0,0,0,0,0,0,0,0,0,0,0,0],"id":9,"left_children":[1,3,5,7,9,11,13,15,17,19,21,23,25,27,29,-1,-1,-1,-1,-1,-1,-1,-1,-1,-1,-1,-1,-1,-1,-1,-1],"loss_changes":[1.642229E3,1.044273E3,7.277667E2,6.2474653E3,7.944538E2,3.6231604E2,4.835253E2,7.535534E2,3.6983652E3,1.677692E3,1.8674677E2,1.8433746E2,2.3973499E2,3.896261E2,2.4638232E2,0E0,0E0,0E0,0E0,0E0,0E0,0E0,0E0,0E0,0E0,0E0,0E0,0E0,0E0,0E0,0E0],"parents":[2147483647,0,0,1,1,2,2,3,3,4,4,5,5,6,6,7,7,8,8,9,9,10,10,11,11,12,12,13,13,14,14],"right_children":[2,4,6,8,10,12,14,16,18,20,22,24,26,28,30,-1,-1,-1,-1,-1,-1,-1,-1,-1,-1,-1,-1,-1,-1,-1,-1],"split_conditions":[4.031169E0,9.947834E-2,1.2678612E0,1.0221381E-1,1.9837152E0,7.7601795E0,3.6046996E-3,2.719724E-2,1.6706877E0,3.0126175E-1,4.0864143E0,5.910184E-1,2.5360683E-1,7.7601795E0,7.7601795E0,-1.350434E-1,3.5381207E-1,1.3931642E0,9.660076E0,-7.804047E-2,1.708802E-1,-1.883054E-1,-4.7586817E-1,3.8116834E0,1.2096636E0,-3.486769E-1,4.25711E0,3.7914744E-1,1.5400048E0,1.3822353E-1,-1.4911377E0],"split_indices":[1,0,0,1,0,1,13,1,1,1,0,0,5,1,1,0,0,0,0,0,0,0,0,0,0,0,0,0,0,0,0],"split_type":[0,0,0,0,0,0,0,0,0,0,0,0,0,0,0,0,0,0,0,0,0,0,0,0,0,0,0,0,0,0,0],"sum_hessian":[1.5935E4,1.5747E4,1.88E2,1.849E3,1.3898E4,4.3E1,1.45E2,1.586E3,2.63E2,1.2204E4,1.694E3,3.5E1,8E0,1.07E2,3.8E1,1.217E3,3.69E2,2.59E2,4E0,8.841E3,3.363E3,1.458E3,2.36E2,2E0,3.3E1,1E0,7E0,6.2E1,4.5E1,2.7E1,1.1E1],"tree_param":{"num_deleted":"0","num_feature":"78","num_nodes":"31","size_leaf_vector":"1"}},{"base_weights":[7.2508776E-3,-3.7640467E-2,1.3903557E0,1.5037312E-1,-2.6825202E-1,1.7870222E1,1.0183213E0,2.6636587E-2,4.1692696E0,-1.0497185E0,-2.0695694E-1,1.1093312E1,1.2261703E1,1.2858882E0,-2.115681E0,-6.0099673E-2,1.9906825E-1,5.9426126E0,1.0740441E0,-5.083363E-1,9.655499E-2,-2.9587455E-2,-1.4144132E-1,1.9581839E0,5.7694554E0,1.7332831E-1,7.285951E-1,-4.4374403E-1,-1.2219338E0],"categories":[],"categories_nodes":[],"categories_segments":[],"categories_sizes":[],"default_left":[0,0,0,0,0,0,0,0,0,0,0,0,0,0,0,0,0,0,0,0,0,0,0,0,0,0,0,0,0],"id":10,"left_children":[1,3,5,7,9,11,13,15,17,19,21,-1,23,25,27,-1,-1,-1,-1,-1,-1,-1,-1,-1,-1,-1,-1,-1,-1],"loss_changes":[9.895096E2,6.69316E2,3.0534717E3,4.228795E3,3.3187375E2,7.2540234E2,4.1445102E2,1.1929136E3,2.2693232E3,4.4623218E2,1.8420749E2,0E0,2.741493E2,3.651739E2,4.256819E1,0E0,0E0,0E0,0E0,0E0,0E0,0E0,0E0,0E0,0E0,0E0,0E0,0E0,0E0],"parents":[2147483647,0,0,1,1,2,2,3,3,4,4,5,5,6,6,7,7,8,8,9,9,10,10,12,12,13,13,14,14],"right_children":[2,4,6,8,10,12,14,16,18,20,22,-1,24,26,28,-1,-1,-1,-1,-1,-1,-1,-1,-1,-1,-1,-1,-1,-1],"split_conditions":[2.303397E0,6.7684287E-1,2.6332504E-1,6.9397795E-1,1.7553401E0,5.461556E-2,3.8055344E0,1.0400703E-1,4.4862784E-2,1.3434241E0,1.8081652E0,1.1093312E1,3.3336046E0,4.031169E0,5.1214495E0,-6.0099673E-2,1.9906825E-1,5.9426126E0,1.0740441E0,-5.083363E-1,9.655499E-2,-2.9587455E-2,-1.4144132E-1,1.9581839E0,5.7694554E0,1.7332831E-1,7.285951E-1,-4.4374403E-1,-1.2219338E0],"split_indices":[1,0,0,1,6,0,0,1,0,1,0,0,1,1,1,0,0,0,0,0,0,0,0,0,0,0,0,0,0],"split_type":[0,0,0,0,0,0,0,0,0,0,0,0,0,0,0,0,0,0,0,0,0,0,0,0,0,0,0,0,0],"sum_hessian":[1.5935E4,1.5435E4,5E2,8.503E3,6.932E3,1E1,4.9E2,8.25E3,2.53E2,5.03E2,6.429E3,1E0,9E0,4.52E2,3.8E1,6.083E3,2.167E3,8E0,2.45E2,3.42E2,1.61E2,4.562E3,1.867E3,6E0,3E0,2.8E2,1.72E2,3E1,8E0],"tree_param":{"num_deleted":"0","num_feature":"78","num_nodes":"29","size_leaf_vector":"1"}},{"base_weights":[6.621192E-3,-4.562504E-2,6.5702605E-1,2.7684838E-1,-1.5120675E-1,6.4184837E0,2.7302888E-1,1.380106E-1,4.278114E0,-9.470266E-1,-8.090608E-2,1.8671434E1,4.8596463E0,1.5997248E0,-3.3590508E-1,-9.454494E-2,2.5059217E-1,3.8213456E0,1.0474825E0,-2.5890332E-1,-8.663545E-1,-6.1756466E-2,2.558213E-2,3.040597E0,8.855954E0,1.1461085E0,3.1204612E0,4.2454836E-1,2.5306191E0,-6.517996E-3,-4.1278312E-1],"categories":[],"categories_nodes":[],"categories_segments":[],"categories_sizes":[],"default_left":[0,0,0,0,0,0,0,0,0,0,0,0,0,0,0,0,0,0,0,0,0,0,0,0,0,0,0,0,0,0,0],"id":11,"left_children":[1,3,5,7,9,11,13,15,17,19,21,23,25,27,29,-1,-1,-1,-1,-1,-1,-1,-1,-1,-1,-1,-1,-1,-1,-1,-1],"loss_changes":[5.415545E2,5.023076E2,2.619922E3,2.0209713E3,6.217146E2,1.3226897E3,8.98889E2,1.1119062E3,7.6726465E2,1.4458704E2,2.1207999E2,4.416328E2,3.46156E2,4.2962842E2,2.4928624E2,0E0,0E0,0E0,0E0,0E0,0E0,0E0,0E0,0E0,0E0,0E0,0E0,0E0,0E0,0E0,0E0],"parents":[2147483647,0,0,1,1,2,2,3,3,4,4,5,5,6,6,7,7,8,8,9,9,10,10,11,11,12,12,13,13,14,14],"right_children":[2,4,6,8,10,12,14,16,18,20,22,24,26,28,30,-1,-1,-1,-1,-1,-1,-1,-1,-1,-1,-1,-1,-1,-1,-1,-1],"split_conditions":[1.3434241E0,1.6969836E-1,6.4563394E-1,3.8643992E-1,1.7553401E0,5.461556E-2,1.2678612E0,2.8990464E-2,4.4862784E-2,1E0,2.4298194E-1,1.8416417E0,2.9528432E0,7.7601795E0,2.955092E0,-9.454494E-2,2.5059217E-1,3.8213456E0,1.0474825E0,-2.5890332E-1,-8.663545E-1,-6.1756466E-2,2.558213E-2,3.040597E0,8.855954E0,1.1461085E0,3.1204612E0,4.2454836E-1,2.5306191E0,-6.517996E-3,-4.1278312E-1],"split_indices":[1,0,0,1,6,0,0,1,0,67,1,1,1,1,0,0,0,0,0,0,0,0,0,0,0,0,0,0,0,0,0],"split_type":[0,0,0,0,0,0,0,0,0,0,0,0,0,0,0,0,0,0,0,0,0,0,0,0,0,0,0,0,0,0,0],"sum_hessian":[1.5935E4,1.4751E4,1.184E3,3.638E3,1.1113E4,7.3E1,1.111E3,3.517E3,1.21E2,9.01E2,1.0212E4,7E0,6.6E1,3.49E2,7.62E2,2.132E3,1.385E3,9E0,1.12E2,8.65E2,3.6E1,5.829E3,4.383E3,5E0,2E0,5.7E1,9E0,3.41E2,8E0,5.86E2,1.76E2],"tree_param":{"num_deleted":"0","num_feature":"78","num_nodes":"31","size_leaf_vector":"1"}},{"base_weights":[6.0506635E-3,-2.0769423E-2,8.323756E-1,8.640264E-2,-2.4243742E-1,8.100921E0,7.260281E-1,1.74814E-2,1.6437329E0,-2.233588E-1,-1.1100368E0,6.5830526E0,5.3130966E-1,-1.8202038E-1,3.2293893E-2,1.5142986E0,2.96363E-1,-9.7968854E-2,-3.1148445E-2,-1.523256E-1,-5.6427675E-1,1.2604096E0,3.2947478E0,8.075834E-2,6.662508E-1],"categories":[],"categories_nodes":[],"categories_segments":[],"categories_sizes":[],"default_left":[0,0,0,0,0,0,0,0,0,0,0,0,0,0,0,0,0,0,0,0,0,0,0,0,0],"id":12,"left_children":[1,3,5,7,9,-1,11,13,15,17,19,21,23,-1,-1,-1,-1,-1,-1,-1,-1,-1,-1,-1,-1],"loss_changes":[3.531926E2,3.667281E2,1.3747722E3,1.11688E3,8.302823E1,0E0,5.6673755E2,5.609755E2,9.795409E2,6.070877E1,4.9188553E1,1.2150806E2,2.141847E2,0E0,0E0,0E0,0E0,0E0,0E0,0E0,0E0,0E0,0E0,0E0,0E0],"parents":[2147483647,0,0,1,1,2,2,3,3,4,4,6,6,7,7,8,8,9,9,10,10,11,11,12,12],"right_children":[2,4,6,8,10,-1,12,14,16,18,20,22,24,-1,-1,-1,-1,-1,-1,-1,-1,-1,-1,-1,-1],"split_conditions":[2.303397E0,9.889318E-1,5.461556E-2,7.4897015E-1,4.9505105E0,8.100921E0,5.4420507E-1,1.7553401E0,2.2236335E-1,1E0,1.0597957E0,3.3336046E0,7.7601795E0,-1.8202038E-1,3.2293893E-2,1.5142986E0,2.96363E-1,-9.7968854E-2,-3.1148445E-2,-1.523256E-1,-5.6427675E-1,1.2604096E0,3.2947478E0,8.075834E-2,6.662508E-1],"split_indices":[1,0,0,1,0,0,0,6,0,64,1,1,1,0,0,0,0,0,0,0,0,0,0,0,0],"split_type":[0,0,0,0,0,0,0,0,0,0,0,0,0,0,0,0,0,0,0,0,0,0,0,0,0],"sum_hessian":[1.5935E4,1.5435E4,5E2,1.0405E4,5.03E3,1E0,4.99E2,9.965E3,4.4E2,4.923E3,1.07E2,1.5E1,4.84E2,1.257E3,8.708E3,7E1,3.7E2,2.641E3,2.282E3,6.1E1,4.6E1,1.1E1,4E0,4.2E2,6.4E1],"tree_param":{"num_deleted":"0","num_feature":"78","num_nodes":"25","size_leaf_vector":"1"}},{"base_weights":[5.1276786E-3,5.515753E-1,-2.5238907E-2,4.7973633E-1,6.1232395E0,-3.8524617E-2,1.0229896E0,-1.6873723E-1,2.0564313E0,-3.863021E-1,4.426397E-3,-2.263201E0,1.732653E0,-6.3077796E-1,1.9398894E-2,1.4294286E0,2.8184676E-1,-1.860958E-1,6.17587E-2,2.2915557E-2,-6.259146E-2,-2.2148523E-1,-1.3166759E0,3.0238962E-1,1.2627609E0],"categories":[],"categories_nodes":[],"categories_segments":[],"categories_sizes":[],"default_left":[0,0,0,0,0,0,0,0,0,0,0,0,0,0,0,0,0,0,0,0,0,0,0,0,0],"id":13,"left_children":[1,3,5,7,-1,9,11,13,15,17,19,21,23,-1,-1,-1,-1,-1,-1,-1,-1,-1,-1,-1,-1],"loss_changes":[2.644519E2,1.1871814E3,2.103011E2,8.5613336E2,0E0,2.2271829E2,4.446862E2,2.682452E2,7.336354E2,2.272548E2,2.0350052E2,1.0697221E2,2.7573434E2,0E0,0E0,0E0,0E0,0E0,0E0,0E0,0E0,0E0,0E0,0E0,0E0],"parents":[2147483647,0,0,1,1,2,2,3,3,5,5,6,6,7,7,8,8,9,9,10,10,11,11,12,12],"right_children":[2,4,6,8,-1,10,12,14,16,18,20,22,24,-1,-1,-1,-1,-1,-1,-1,-1,-1,-1,-1,-1],"split_conditions":[6.436834E-2,1.8416417E0,4.031169E0,2.8990464E-2,6.1232395E0,2.0978456E0,-3.098431E-1,1.7553401E0,4.8763894E-2,6.3211167E-1,1.3283285E0,7.7601795E0,3.1986287E-1,-6.3077796E-1,1.9398894E-2,1.4294286E0,2.8184676E-1,-1.860958E-1,6.17587E-2,2.2915557E-2,-6.259146E-2,-2.2148523E-1,-1.3166759E0,3.0238962E-1,1.2627609E0],"split_indices":[0,1,1,1,0,6,12,6,0,1,0,1,34,0,0,0,0,0,0,0,0,0,0,0,0],"split_type":[0,0,0,0,0,0,0,0,0,0,0,0,0,0,0,0,0,0,0,0,0,0,0,0,0],"sum_hessian":[1.5935E4,8.38E2,1.5097E4,8.36E2,2E0,1.4909E4,1.88E2,5.93E2,2.43E2,1.638E3,1.3271E4,3.3E1,1.55E2,6.3E1,5.3E2,7E1,1.73E2,1.174E3,4.64E2,9.921E3,3.35E3,2E1,1.3E1,1.21E2,3.4E1],"tree_param":{"num_deleted":"0","num_feature":"78","num_nodes":"25","size_leaf_vector":"1"}},{"base_weights":[4.034027E-3,-2.1021168E-1,7.84862E-2,-1.7879748E-1,-3.109105E0,1.175471E0,-1.8970195E-2,-1.4567372E0,-1.6188352E-1,-3.4722075E0,-2.0814583E-1,7.339616E0,1.0305699E0,4.3113562E-1,-7.64872E-2,-1.2368045E0,-2.673529E-1,8.821573E-3,-7.5394854E-2,-2.8685942E-1,-1.0756276E0,1.5379826E0,4.151556E0,2.9684284E-1,5.9672976E0,1.1666816E-1,2.052071E0,-2.6010437E-2,4.285155E-1],"categories":[],"categories_nodes":[],"categories_segments":[],"categories_sizes":[],"default_left":[0,0,0,0,0,0,0,0,0,0,0,0,0,0,0,0,0,0,0,0,0,0,0,0,0,0,0,0,0],"id":14,"left_children":[1,3,5,7,9,11,13,15,17,19,-1,21,23,25,27,-1,-1,-1,-1,-1,-1,-1,-1,-1,-1,-1,-1,-1,-1],"loss_changes":[2.5421255E2,3.7372705E2,1.2644253E3,8.767253E1,3.617871E1,8.5436597E2,2.8126233E2,7.623691E1,6.869385E1,7.3961487E0,0E0,2.4546191E2,7.1196124E2,3.3061078E2,1.481941E2,0E0,0E0,0E0,0E0,0E0,0E0,0E0,0E0,0E0,0E0,0E0,0E0,0E0,0E0],"parents":[2147483647,0,0,1,1,2,2,3,3,4,4,5,5,6,6,7,7,8,8,9,9,11,11,12,12,13,13,14,14],"right_children":[2,4,6,8,10,12,14,16,18,20,-1,22,24,26,28,-1,-1,-1,-1,-1,-1,-1,-1,-1,-1,-1,-1,-1,-1],"split_conditions":[5.7383187E-2,1.708588E0,1.6969836E-1,-3.0569315E0,1.5604447E-1,4.2912226E-2,3.706056E-1,8.38739E-2,9.362668E-2,-1.0741227E0,-2.0814583E-1,7.9499626E-1,2.1608357E0,2.9528432E0,7.7601795E0,-1.2368045E0,-2.673529E-1,8.821573E-3,-7.5394854E-2,-2.8685942E-1,-1.0756276E0,1.5379826E0,4.151556E0,2.9684284E-1,5.9672976E0,1.1666816E-1,2.052071E0,-2.6010437E-2,4.285155E-1],"split_indices":[1,18,0,55,0,0,0,0,0,12,0,1,1,1,1,0,0,0,0,0,0,0,0,0,0,0,0,0,0],"split_type":[0,0,0,0,0,0,0,0,0,0,0,0,0,0,0,0,0,0,0,0,0,0,0,0,0,0,0,0,0],"sum_hessian":[1.5935E4,4.109E3,1.1826E4,4.066E3,4.3E1,9.64E2,1.0862E4,5.2E1,4.014E3,3.7E1,6E0,2.1E1,9.43E2,1.23E3,9.632E3,8E0,4.4E1,1.279E3,2.735E3,2E0,3.5E1,1.7E1,4E0,9.42E2,1E0,1.223E3,7E0,9.568E3,6.4E1],"tree_param":{"num_deleted":"0","num_feature":"78","num_nodes":"29","size_leaf_vector":"1"}},{"base_weights":[3.5381396E-3,-7.539876E-2,1.6811919E-1,-3.5745755E-2,-1.560984E0,1.0564667E0,4.378768E-3,1.3107719E-1,-1.2517188E-1,-2.9641476E-1,-1.9045192E0,6.4650855E0,9.5243406E-1,1.2600547E-1,-2.5917834E-1,1.5239862E-3,4.7074103E-1,-1.0661904E-2,-7.125992E-2,-6.446934E-1,4.348878E-1,-8.27341E-1,-3.1712592E-1,2.099354E0,-1.4903527E-1,5.141339E-1,5.1338475E-2,-9.2887305E-2,6.5525874E-2,-2.2227358E-2,-2.2566567E-1],"categories":[],"categories_nodes":[],"categories_segments":[],"categories_sizes":[],"default_left":[0,0,0,0,0,0,0,0,0,0,0,0,0,0,0,0,0,0,0,0,0,0,0,0,0,0,0,0,0,0,0],"id":15,"left_children":[1,3,5,7,9,11,13,15,17,19,21,23,25,27,29,-1,-1,-1,-1,-1,-1,-1,-1,-1,-1,-1,-1,-1,-1,-1,-1],"loss_changes":[2.070455E2,6.344413E2,7.514335E2,1.565395E2,1.2107422E2,4.4623132E2,1.3989117E2,6.635154E2,6.87878E1,2.0042891E2,1.5616693E2,5.9111633E1,4.6963324E2,1.2027905E2,1.25694305E2,0E0,0E0,0E0,0E0,0E0,0E0,0E0,0E0,0E0,0E0,0E0,0E0,0E0,0E0,0E0,0E0],"parents":[2147483647,0,0,1,1,2,2,3,3,4,4,5,5,6,6,7,7,8,8,9,9,10,10,11,11,12,12,13,13,14,14],"right_children":[2,4,6,8,10,12,14,16,18,20,22,24,26,28,30,-1,-1,-1,-1,-1,-1,-1,-1,-1,-1,-1,-1,-1,-1,-1,-1],"split_conditions":[3.1620526E-1,1.708588E0,6.865956E-1,1.892039E-1,6.436834E-2,4.4862784E-2,2.204128E0,1.1924944E-1,1E0,1.05800256E-1,1.853028E-1,6.8591374E-1,1.6604924E-1,1.7553401E0,1.1070174E0,1.5239862E-3,4.7074103E-1,-1.0661904E-2,-7.125992E-2,-6.446934E-1,4.348878E-1,-8.27341E-1,-3.1712592E-1,2.099354E0,-1.4903527E-1,5.141339E-1,5.1338475E-2,-9.2887305E-2,6.5525874E-2,-2.2227358E-2,-2.2566567E-1],"split_indices":[1,18,0,0,0,0,0,1,65,1,0,3,22,6,1,0,0,0,0,0,0,0,0,0,0,0,0,0,0,0,0],"split_type":[0,0,0,0,0,0,0,0,0,0,0,0,0,0,0,0,0,0,0,0,0,0,0,0,0,0,0,0,0,0,0],"sum_hessian":[1.5935E4,1.077E4,5.165E3,1.0491E4,2.79E2,8.03E2,4.362E3,3.661E3,6.83E3,6E1,2.19E2,1.4E1,7.89E2,2.985E3,1.377E3,3.367E3,2.94E2,3.8E3,3.03E3,2.9E1,3.1E1,1.08E2,1.11E2,1.3E1,1E0,3.99E2,3.9E2,5.22E2,2.463E3,1.002E3,3.75E2],"tree_param":{"num_deleted":"0","num_feature":"78","num_nodes":"31","size_leaf_vector":"1"}},{"base_weights":[2.5568279E-3,-2.4203436E-1,3.7215386E-2,-3.324659E-1,6.008987E-1,3.897507E-1,4.692396E-3,-5.3482664E-1,1.9093189E-1,5.537475E0,2.4102983E-1,1.4404604E-1,3.397324E0,-9.5815435E-2,1.2718168E-1,-2.7359203E-1,-9.0488955E-2,-8.529495E-3,2.0444238E0,9.555952E-1,5.064505E0,3.022182E-1,-1.23147964E-1,-6.5242045E-2,2.860653E-1,7.234781E-1,1.6060826E0,-2.2834685E-2,-1.242305E-1,2.4465372E-1,3.8347316E-3],"categories":[],"categories_nodes":[],"categories_segments":[],"categories_sizes":[],"default_left":[0,0,0,0,0,0,0,0,0,0,0,0,0,0,0,0,0,0,0,0,0,0,0,0,0,0,0,0,0,0,0],"id":16,"left_children":[1,3,5,7,9,11,13,15,17,19,21,23,25,27,29,-1,-1,-1,-1,-1,-1,-1,-1,-1,-1,-1,-1,-1,-1,-1,-1],"loss_changes":[1.3510132E2,1.5097818E2,1.6004512E2,1.8937253E2,3.3975714E2,8.7076184E2,1.5736076E2,1.13091736E2,7.252524E2,2.9311026E2,9.028824E1,3.194905E2,1.5871423E2,4.399141E1,4.536367E2,0E0,0E0,0E0,0E0,0E0,0E0,0E0,0E0,0E0,0E0,0E0,0E0,0E0,0E0,0E0,0E0],"parents":[2147483647,0,0,1,1,2,2,3,3,4,4,5,5,6,6,7,7,8,8,9,9,10,10,11,11,12,12,13,13,14,14],"right_children":[2,4,6,8,10,12,14,16,18,20,22,24,26,28,30,-1,-1,-1,-1,-1,-1,-1,-1,-1,-1,-1,-1,-1,-1,-1,-1],"split_conditions":[5.8140734E-4,1.4498221E0,8.972557E-2,1E0,8.38739E-2,6.874028E-2,2.2176212E-1,-8.106347E0,6.634931E-1,2.1608357E0,1.3283285E0,1.4046926E-2,1.3538846E-1,1.7426983E0,7.100023E-1,-2.7359203E-1,-9.0488955E-2,-8.529495E-3,2.0444238E0,9.555952E-1,5.064505E0,3.022182E-1,-1.23147964E-1,-6.5242045E-2,2.860653E-1,7.234781E-1,1.6060826E0,-2.2834685E-2,-1.242305E-1,2.4465372E-1,3.8347316E-3],"split_indices":[11,1,0,66,0,1,1,14,1,1,0,1,1,51,0,0,0,0,0,0,0,0,0,0,0,0,0,0,0,0,0],"split_type":[0,0,0,0,0,0,0,0,0,0,0,0,0,0,0,0,0,0,0,0,0,0,0,0,0,0,0,0,0,0,0],"sum_hessian":[1.5935E4,1.977E3,1.3958E4,1.786E3,1.91E2,1.178E3,1.278E4,1.288E3,4.98E2,1.2E1,1.79E2,1.09E3,8.8E1,7.02E3,5.76E3,4.91E2,7.97E2,4.83E2,1.5E1,1.1E1,1E0,8.2E1,9.7E1,7.54E2,3.36E2,6E1,2.8E1,6.612E3,4.08E2,8.2E2,4.94E3],"tree_param":{"num_deleted":"0","num_feature":"78","num_nodes":"31","size_leaf_vector":"1"}},{"base_weights":[2.4500866E-3,-1.3058951E-2,4.259554E-1,-3.0829433E-1,1.089961E-2,4.304828E0,3.7564775E-1,1.724615E0,-3.7342075E-1,2.2108436E-1,-2.4097595E-2,1.745964E0,6.0672082E-2,-2.3270719E-1,1.0642457E0,-4.8135567E-2,-4.1265348E-1,5.6270596E-2,4.1272287E0,-2.1595464E-3,-1.7925988E-1,4.4230446E-1,1.7945704E0,4.877875E-2,-4.7170648E-1],"categories":[],"categories_nodes":[],"categories_segments":[],"categories_sizes":[],"default_left":[0,0,0,0,0,0,0,0,0,0,0,0,0,0,0,0,0,0,0,0,0,0,0,0,0],"id":17,"left_children":[1,3,5,7,9,-1,11,13,15,17,19,21,23,-1,-1,-1,-1,-1,-1,-1,-1,-1,-1,-1,-1],"loss_changes":[1.0467576E2,1.0875004E2,3.8896698E2,1.5342906E2,1.0461327E2,0E0,2.4246243E2,1.6683012E2,2.385897E2,9.1839014E2,1.1814284E2,1.119881E2,7.6487114E1,0E0,0E0,0E0,0E0,0E0,0E0,0E0,0E0,0E0,0E0,0E0,0E0],"parents":[2147483647,0,0,1,1,2,2,3,3,4,4,6,6,7,7,8,8,9,9,10,10,11,11,12,12],"right_children":[2,4,6,8,10,-1,12,14,16,18,20,22,24,-1,-1,-1,-1,-1,-1,-1,-1,-1,-1,-1,-1],"split_conditions":[2.1608357E0,-1.565071E0,5.461556E-2,4.681334E-2,1.1508279E-1,4.304828E0,1.1137674E0,6.306174E-2,1E0,9.145446E-1,1.708588E0,7.7601795E0,4.3887506E0,-2.3270719E-1,1.0642457E0,-4.8135567E-2,-4.1265348E-1,5.6270596E-2,4.1272287E0,-2.1595464E-3,-1.7925988E-1,4.4230446E-1,1.7945704E0,4.877875E-2,-4.7170648E-1],"split_indices":[1,52,0,0,0,0,0,1,67,1,18,1,0,0,0,0,0,0,0,0,0,0,0,0,0],"split_type":[0,0,0,0,0,0,0,0,0,0,0,0,0,0,0,0,0,0,0,0,0,0,0,0,0],"sum_hessian":[1.5935E4,1.5373E4,5.62E2,1.153E3,1.422E4,1E0,5.61E2,3.5E1,1.118E3,2.029E3,1.2191E4,1.04E2,4.57E2,1.5E1,2E1,9.23E2,1.95E2,2.025E3,4E0,1.1843E4,3.48E2,9.9E1,5E0,4.31E2,2.6E1],"tree_param":{"num_deleted":"0","num_feature":"78","num_nodes":"25","size_leaf_vector":"1"}},{"base_weights":[2.3734577E-3,-1.5516162E-1,4.7537733E-2,-1.4083025E-1,-1.5124485E0,7.390785E-1,5.4228795E-3,-1.1213684E-1,-6.395986E-1,-1.6219573E0,-2.0351194E-1,6.950324E-1,3.270685E0,2.4269468E-1,-3.6743365E-2,-8.6070184E-4,-6.9152564E-2,-2.5451788E-1,-1.0149278E-2,-1.1009707E-1,-5.066773E-1,-1.03570655E-1,3.3248816E-2,4.9050823E-3,4.058795E-1,3.9504543E-2,3.200878E-1,-1.1706071E-1,-4.5908354E-3],"categories":[],"categories_nodes":[],"categories_segments":[],"categories_sizes":[],"default_left":[0,0,0,0,0,0,0,0,0,0,0,0,0,0,0,0,0,0,0,0,0,0,0,0,0,0,0,0,0],"id":18,"left_children":[1,3,5,7,9,11,13,15,17,19,21,23,-1,25,27,-1,-1,-1,-1,-1,-1,-1,-1,-1,-1,-1,-1,-1,-1],"loss_changes":[1.13391335E2,6.886029E1,3.6072754E2,5.0232735E1,4.973488E0,3.1070142E2,1.16825676E2,4.300562E1,2.4129135E1,2.2375793E0,2.1646051E-1,3.165495E2,0E0,1.6108951E2,7.513353E1,0E0,0E0,0E0,0E0,0E0,0E0,0E0,0E0,0E0,0E0,0E0,0E0,0E0,0E0],"parents":[2147483647,0,0,1,1,2,2,3,3,4,4,5,5,6,6,7,7,8,8,9,9,10,10,11,11,13,13,14,14],"right_children":[2,4,6,8,10,12,14,16,18,20,22,24,-1,26,28,-1,-1,-1,-1,-1,-1,-1,-1,-1,-1,-1,-1,-1,-1],"split_conditions":[4.7221582E-2,1.708588E0,1.2678613E-1,1.6840988E0,1.5604447E-1,1.8416417E0,3.432978E-1,1E0,-6.7778194E-1,-1.0741227E0,4.572758E-1,5.8140734E-4,3.270685E0,4.2290214E-1,-1.9275236E0,-8.6070184E-4,-6.9152564E-2,-2.5451788E-1,-1.0149278E-2,-1.1009707E-1,-5.066773E-1,-1.03570655E-1,3.3248816E-2,4.9050823E-3,4.058795E-1,3.9504543E-2,3.200878E-1,-1.1706071E-1,-4.5908354E-3],"split_indices":[1,18,0,51,0,1,0,65,20,12,3,11,0,1,52,0,0,0,0,0,0,0,0,0,0,0,0,0,0],"split_type":[0,0,0,0,0,0,0,0,0,0,0,0,0,0,0,0,0,0,0,0,0,0,0,0,0,0,0,0,0],"sum_hessian":[1.5935E4,3.55E3,1.2385E4,3.514E3,3.6E1,7.1E2,1.1675E4,3.324E3,1.9E2,3.3E1,3E0,7.08E2,2E0,1.761E3,9.914E3,1.729E3,1.595E3,1.41E2,4.9E1,2E0,3.1E1,2E0,1E0,3.49E2,3.59E2,1.553E3,2.08E2,5.66E2,9.348E3],"tree_param":{"num_deleted":"0","num_feature":"78","num_nodes":"29","size_leaf_vector":"1"}},{"base_weights":[1.8432688E-3,-1.838382E-2,2.5364763E-1,-4.821032E-3,-6.419976E-1,1.2692534E0,-8.746067E-2,-3.7077475E-2,1.5460478E-1,-3.5199616E0,-3.9168343E-1,5.754851E0,1.0935214E0,3.1797177E-1,-2.6605088E-1,-3.8818894E-3,-2.6503736E-1,5.1356363E-1,2.2315228E-2,4.198293E-1,-1.7751869E0,6.1767626E-1,-1.7719457E-1,1.0247223E0,3.2561693E0,2.5727376E-1,6.9484186E-1,4.657814E-2,6.218244E-1,-5.2626897E-2,-5.593723E-1],"categories":[],"categories_nodes":[],"categories_segments":[],"categories_sizes":[],"default_left":[0,0,0,0,0,0,0,0,0,0,0,0,0,0,0,0,0,0,0,0,0,0,0,0,0,0,0,0,0,0,0],"id":19,"left_children":[1,3,5,7,9,11,13,15,17,19,21,23,25,27,29,-1,-1,-1,-1,-1,-1,-1,-1,-1,-1,-1,-1,-1,-1,-1,-1],"loss_changes":[8.1171005E1,1.2476846E2,4.1063242E2,7.425843E1,2.2482532E2,2.2860931E2,6.4381355E1,2.4535043E2,3.034418E2,3.0311578E2,1.4261566E2,9.412546E1,8.1092285E1,7.734014E1,8.90582E1,0E0,0E0,0E0,0E0,0E0,0E0,0E0,0E0,0E0,0E0,0E0,0E0,0E0,0E0,0E0,0E0],"parents":[2147483647,0,0,1,1,2,2,3,3,4,4,5,5,6,6,7,7,8,8,9,9,10,10,11,11,12,12,13,13,14,14],"right_children":[2,4,6,8,10,12,14,16,18,20,22,24,26,28,30,-1,-1,-1,-1,-1,-1,-1,-1,-1,-1,-1,-1,-1,-1,-1,-1],"split_conditions":[1.3434241E0,1.1070174E0,1.102064E0,4.3784568E-1,3.3159447E-1,5.6566115E-2,1.4531641E0,1.708588E0,2.0870946E-1,4.8763894E-2,7.841234E-1,4.572758E-1,1E0,7.7601795E0,9.942227E0,-3.8818894E-3,-2.6503736E-1,5.1356363E-1,2.2315228E-2,4.198293E-1,-1.7751869E0,6.1767626E-1,-1.7719457E-1,1.0247223E0,3.2561693E0,2.5727376E-1,6.9484186E-1,4.657814E-2,6.218244E-1,-5.2626897E-2,-5.593723E-1],"split_indices":[1,1,0,1,0,0,0,18,0,0,0,3,73,1,10,0,0,0,0,0,0,0,0,0,0,0,0,0,0,0,0],"split_type":[0,0,0,0,0,0,0,0,0,0,0,0,0,0,0,0,0,0,0,0,0,0,0,0,0,0,0,0,0,0,0],"sum_hessian":[1.5935E4,1.4751E4,1.184E3,1.4438E4,3.13E2,2.97E2,8.87E2,1.2009E4,2.429E3,2.4E1,2.89E2,1E1,2.87E2,2.71E2,6.16E2,1.1677E4,3.32E2,1.18E2,2.311E3,8E0,1.6E1,2.1E1,2.68E2,8E0,2E0,2.42E2,4.5E1,2.49E2,2.2E1,5.84E2,3.2E1],"tree_param":{"num_deleted":"0","num_feature":"78","num_nodes":"31","size_leaf_vector":"1"}}]},"name":"gbtree"},"learner_model_param":{"base_score":"4.1742077E0","boost_from_average":"1","num_class":"0","num_feature":"78","num_target":"1"},"objective":{"name":"reg:squarederror","reg_loss_param":{"scale_pos_weight":"1"}}},"version":[2,1,4]}