{"learner":{"attributes":{"scikit_learn":"{\"_estimator_type\": \"regressor\"}"},"feature_names":[],"feature_types":[],"gradient_booster":{"model":{"gbtree_model_param":{"num_parallel_tree":"1","num_trees":"20"},"iteration_indptr":[0,1,2,3,4,5,6,7,8,9,10,11,12,13,14,15,16,17,18,19,20],"tree_info":[0,0,0,0,0,0,0,0,0,0,0,0,0,0,0,0,0,0,0,0],"trees":[{"base_weights":[-5.5551656E-8,-1.2047229E0,1.2782621E1,4.861963E0,-1.9575162E0,5.340204E1,9.30501E0,1.1212783E0,1.9530407E1,-2.4075534E0,2.506493E-1,5.4964347E0,3.0436604E1,-4.8375465E-2,1.7103161E0,3.092695E0,2.3451366E1,-7.7338594E-1,1.0270298E-1,4.398412E0,-3.706598E-1,6.085681E0,1.253161E0,1.532965E1,7.3376064E0],"categories":[],"categories_nodes":[],"categories_segments":[],"categories_sizes":[],"default_left":[0,0,0,0,0,0,0,0,0,0,0,0,0,0,0,0,0,0,0,0,0,0,0,0,0],"id":0,"left_children":[1,3,5,7,9,-1,11,13,15,17,19,21,23,-1,-1,-1,-1,-1,-1,-1,-1,-1,-1,-1,-1],"loss_changes":[2.6068302E5,7.066039E4,8.360895E5,9.3696086E4,1.367768E4,0E0,1.148404E5,8.0008965E3,1.86835E5,5.358172E3,4.994105E4,2.356179E4,2.5676906E4,0E0,0E0,0E0,0E0,0E0,0E0,0E0,0E0,0E0,0E0,0E0,0E0],"parents":[2147483647,0,0,1,1,2,2,3,3,4,4,6,6,7,7,8,8,9,9,10,10,11,11,12,12],"right_children":[2,4,6,8,10,-1,12,14,16,18,20,22,24,-1,-1,-1,-1,-1,-1,-1,-1,-1,-1,-1,-1],"split_conditions":[1.1592631E0,1.7506819E0,8.7121025E-2,1E0,4.328738E-1,5.340204E1,1.4271873E0,1.6900069E0,4.8929536E-1,1.7234113E0,4.0392473E-1,-1.1402094E0,3.4650406E-1,-4.8375465E-2,1.7103161E0,3.092695E0,2.3451366E1,-7.7338594E-1,1.0270298E-1,4.398412E0,-3.706598E-1,6.085681E0,1.253161E0,1.532965E1,7.3376064E0],"split_indices":[1,6,0,67,1,0,39,18,1,51,0,60,0,0,0,0,0,0,0,0,0,0,0,0,0],"split_type":[0,0,0,0,0,0,0,0,0,0,0,0,0,0,0,0,0,0,0,0,0,0,0,0,0],"sum_hessian":[1.6926E4,1.5469E4,1.457E3,1.707E3,1.3762E4,2.9E1,1.428E3,1.361E3,3.46E2,1.1432E4,2.33E3,1.211E3,2.17E2,1.064E3,2.97E2,3E2,4.6E1,1.0765E4,6.67E2,2.17E2,2.113E3,9.8E1,1.113E3,4.7E1,1.7E2],"tree_param":{"num_deleted":"0","num_feature":"78","num_nodes":"25","size_leaf_vector":"1"}},{"base_weights":[6.792159E-3,-9.518774E-1,8.109179E0,2.980335E0,-1.4344747E0,3.7360474E1,5.785326E0,-3.978109E-1,8.84389E0,-1.5231951E0,6.1546288E0,4.528042E0,3.64776E1,-8.8326514E-1,4.5634344E-1,1.1323536E1,1.0761741E0,-5.0405556E-1,1.4829467E-1,1.1198595E-1,8.836335E0,8.049965E0,8.460912E-1,1.1657743E1,2.949797E0],"categories":[],"categories_nodes":[],"categories_segments":[],"categories_sizes":[],"default_left":[0,0,0,0,0,0,0,0,0,0,0,0,0,0,0,0,0,0,0,0,0,0,0,0,0],"id":1,"left_children":[1,3,5,7,9,-1,11,13,15,17,19,21,23,-1,-1,-1,-1,-1,-1,-1,-1,-1,-1,-1,-1],"loss_changes":[1.3148839E5,2.8729383E4,4.8384575E5,3.2785668E4,9.087592E3,0E0,6.763552E4,5.140128E3,9.177827E4,4.222199E3,2.1002865E4,6.4260688E4,3.996375E3,0E0,0E0,0E0,0E0,0E0,0E0,0E0,0E0,0E0,0E0,0E0,0E0],"parents":[2147483647,0,0,1,1,2,2,3,3,4,4,6,6,7,7,8,8,9,9,10,10,11,11,12,12],"right_children":[2,4,6,8,10,-1,12,14,16,18,20,22,24,-1,-1,-1,-1,-1,-1,-1,-1,-1,-1,-1,-1],"split_conditions":[9.841404E-1,1.7506819E0,7.128084E-2,2.69467E-1,4.2699556E0,3.7360474E1,7.851849E0,8.8177994E-2,8.910105E-2,6.206374E-1,3.1355602E-1,4.9500582E-1,1.9919034E0,-8.8326514E-1,4.5634344E-1,1.1323536E1,1.0761741E0,-5.0405556E-1,1.4829467E-1,1.1198595E-1,8.836335E0,8.049965E0,8.460912E-1,1.1657743E1,2.949797E0],"split_indices":[1,6,0,1,6,0,1,1,0,1,1,0,0,0,0,0,0,0,0,0,0,0,0,0,0],"split_type":[0,0,0,0,0,0,0,0,0,0,0,0,0,0,0,0,0,0,0,0,0,0,0,0,0],"sum_hessian":[1.6926E4,1.5136E4,1.79E3,1.654E3,1.3482E4,3.4E1,1.756E3,1.05E3,6.04E2,1.3327E4,1.55E2,1.688E3,6.8E1,4.51E2,5.99E2,9.2E1,5.12E2,1.2365E4,9.62E2,1.25E2,3E1,1.19E2,1.569E3,6.2E1,6E0],"tree_param":{"num_deleted":"0","num_feature":"78","num_nodes":"25","size_leaf_vector":"1"}},{"base_weights":[9.565044E-3,-4.909654E-1,8.63939E0,-7.9315937E-1,6.658146E0,3.5282444E1,7.5640006E0,-9.747435E-1,4.6249633E0,3.6245445E1,1.4562901E0,4.573126E0,1.9502645E1,-1.5139152E-1,-5.6474435E-1,4.6887228E-1,4.154374E0,4.616448E0,2.1825893E1,3.7057683E0,3.8972553E-2,2.2028775E0,-1.0766908E-1,9.731866E0,4.524318E0],"categories":[],"categories_nodes":[],"categories_segments":[],"categories_sizes":[],"default_left":[0,0,0,0,0,0,0,0,0,0,0,0,0,0,0,0,0,0,0,0,0,0,0,0,0],"id":2,"left_children":[1,3,5,7,9,-1,11,13,15,17,19,21,23,-1,-1,-1,-1,-1,-1,-1,-1,-1,-1,-1,-1],"loss_changes":[7.312025E4,3.4571973E4,1.07857016E5,1.5108494E4,9.983407E4,0E0,3.2761246E4,6.338157E3,1.4042469E4,7.2740914E4,7.9906895E3,1.0070578E4,1.0035883E4,0E0,0E0,0E0,0E0,0E0,0E0,0E0,0E0,0E0,0E0,0E0,0E0],"parents":[2147483647,0,0,1,1,2,2,3,3,4,4,6,6,7,7,8,8,9,9,10,10,11,11,12,12],"right_children":[2,4,6,8,10,-1,12,14,16,18,20,22,24,-1,-1,-1,-1,-1,-1,-1,-1,-1,-1,-1,-1],"split_conditions":[1.6294429E0,2.1444955E0,5.9400696E-2,1.6900069E0,6.732079E-2,3.5282444E1,1.4271873E0,1E0,3.403794E-1,7.519794E-1,8.910105E-2,2.0295238E0,7.484488E-1,-1.5139152E-1,-5.6474435E-1,4.6887228E-1,4.154374E0,4.616448E0,2.1825893E1,3.7057683E0,3.8972553E-2,2.2028775E0,-1.0766908E-1,9.731866E0,4.524318E0],"split_indices":[1,51,0,18,0,0,39,64,1,1,0,0,0,0,0,0,0,0,0,0,0,0,0,0,0],"split_type":[0,0,0,0,0,0,0,0,0,0,0,0,0,0,0,0,0,0,0,0,0,0,0,0,0],"sum_hessian":[1.6926E4,1.5999E4,9.27E2,1.5351E4,6.48E2,8E0,9.19E2,1.4854E4,4.97E2,9.6E1,5.52E2,7.36E2,1.83E2,9.787E3,5.067E3,3.74E2,1.23E2,6.2E1,3.4E1,5.9E1,4.93E2,4.71E2,2.65E2,4.5E1,1.38E2],"tree_param":{"num_deleted":"0","num_feature":"78","num_nodes":"25","size_leaf_vector":"1"}},{"base_weights":[1.1760162E-2,-1.3237858E-1,1.7941465E1,6.7612324E0,-3.6095586E-1,2.246634E1,9.799851E0,4.955551E1,2.3806705E0,-1.0882299E0,7.5708425E-1,3.3448917E1,1.986627E1,1.9858355E1,7.1075373E0,-4.0538338E-1,1.9184546E1,1.4354087E-1,4.4432335E0,-1.7489582E-1,-4.4569936E-1,3.1586144E0,-1.0157466E-1,1.0879861E1,4.9904523E0,4.408686E0,6.8468075E0,3.2291017E0,8.0400915E0,2.77725E0,8.291306E-1],"categories":[],"categories_nodes":[],"categories_segments":[],"categories_sizes":[],"default_left":[0,0,0,0,0,0,0,0,0,0,0,0,0,0,0,0,0,0,0,0,0,0,0,0,0,0,0,0,0,0,0],"id":3,"left_children":[1,3,5,7,9,11,13,15,17,19,21,23,25,27,29,-1,-1,-1,-1,-1,-1,-1,-1,-1,-1,-1,-1,-1,-1,-1,-1],"loss_changes":[4.374792E4,2.6463555E4,4.753203E3,1.0092456E5,1.3218113E4,1.7912656E3,1.2128887E3,3.6721414E4,1.1578749E4,1.9768262E3,6.859977E4,1.0726953E2,7.6524414E2,3.4287793E2,3.5731104E2,0E0,0E0,0E0,0E0,0E0,0E0,0E0,0E0,0E0,0E0,0E0,0E0,0E0,0E0,0E0,0E0],"parents":[2147483647,0,0,1,1,2,2,3,3,4,4,5,5,6,6,7,7,8,8,9,9,10,10,11,11,12,12,13,13,14,14],"right_children":[2,4,6,8,10,12,14,16,18,20,22,24,26,28,30,-1,-1,-1,-1,-1,-1,-1,-1,-1,-1,-1,-1,-1,-1,-1,-1],"split_conditions":[5.0915084E0,-3.0452971E0,1.6453993E0,5.7420675E-2,2.358607E-1,1.1365334E0,-1.8464465E0,1.8036407E-1,1E0,2.1780255E-1,3.0888364E-1,7.2630966E-1,7.851849E0,1.7319691E0,3.152197E0,-4.0538338E-1,1.9184546E1,1.4354087E-1,4.4432335E0,-1.7489582E-1,-4.4569936E-1,3.1586144E0,-1.0157466E-1,1.0879861E1,4.9904523E0,4.408686E0,6.8468075E0,3.2291017E0,8.0400915E0,2.77725E0,8.291306E-1],"split_indices":[1,55,0,0,1,0,16,1,67,0,0,5,1,5,0,0,0,0,0,0,0,0,0,0,0,0,0,0,0,0,0],"split_type":[0,0,0,0,0,0,0,0,0,0,0,0,0,0,0,0,0,0,0,0,0,0,0,0,0,0,0,0,0,0,0],"sum_hessian":[1.6926E4,1.6792E4,1.34E2,5.38E2,1.6254E4,8.5E1,4.9E1,4.9E1,4.89E2,9.848E3,6.406E3,1.4E1,7.1E1,9E0,4E1,1.1E1,3.8E1,4.25E2,6.4E1,4.337E3,5.511E3,6.45E2,5.761E3,1.1E1,3E0,2.8E1,4.3E1,5E0,4E0,2.6E1,1.4E1],"tree_param":{"num_deleted":"0","num_feature":"78","num_nodes":"31","size_leaf_vector":"1"}},{"base_weights":[1.2237786E-2,-2.4177645E-1,6.94876E0,-4.070919E-1,3.604807E0,3.0593437E1,6.4587655E0,-9.9740066E-2,-1.6786163E0,1.9092487E1,3.4508812E-1,1.9801722E1,5.253905E0,-2.2864977E-1,5.728802E-1,-4.1590267E-1,-7.3973715E-1,2.3238868E-1,9.825291E0,-5.274981E-1,6.73895E-1,7.434797E0,4.5542784E0,1.1214782E0,4.7692785E0],"categories":[],"categories_nodes":[],"categories_segments":[],"categories_sizes":[],"default_left":[0,0,0,0,0,0,0,0,0,0,0,0,0,0,0,0,0,0,0,0,0,0,0,0,0],"id":4,"left_children":[1,3,5,7,9,-1,11,13,15,17,19,21,23,-1,-1,-1,-1,-1,-1,-1,-1,-1,-1,-1,-1],"loss_changes":[2.9826637E4,1.0385707E4,2.7186549E4,6.1190625E3,3.397014E4,0E0,9.4775E3,1.678719E4,6.978369E2,2.9247344E4,2.2314333E3,7.515547E2,8.780933E3,0E0,0E0,0E0,0E0,0E0,0E0,0E0,0E0,0E0,0E0,0E0,0E0],"parents":[2147483647,0,0,1,1,2,2,3,3,4,4,6,6,7,7,8,8,9,9,10,10,11,11,12,12],"right_children":[2,4,6,8,10,-1,12,14,16,18,20,22,24,-1,-1,-1,-1,-1,-1,-1,-1,-1,-1,-1,-1],"split_conditions":[2.1196632E0,2.1444955E0,5.544065E-2,1.4414569E0,7.128084E-2,3.0593437E1,8.316098E-1,2.2383644E-1,2.659171E0,3.9587602E-1,1.683398E-1,3.2274377E-1,7.851849E0,-2.2864977E-1,5.728802E-1,-4.1590267E-1,-7.3973715E-1,2.3238868E-1,9.825291E0,-5.274981E-1,6.73895E-1,7.434797E0,4.5542784E0,1.1214782E0,4.7692785E0],"split_indices":[1,51,0,0,0,0,0,1,0,1,1,0,1,0,0,0,0,0,0,0,0,0,0,0,0],"split_type":[0,0,0,0,0,0,0,0,0,0,0,0,0,0,0,0,0,0,0,0,0,0,0,0,0],"sum_hessian":[1.6926E4,1.6329E4,5.97E2,1.5657E4,6.72E2,2E0,5.95E2,1.261E4,3.047E3,1.16E2,5.56E2,4.8E1,5.47E2,9.484E3,3.126E3,2.224E3,8.23E2,5E1,6.6E1,2.64E2,2.92E2,2.1E1,2.7E1,4.8E2,6.7E1],"tree_param":{"num_deleted":"0","num_feature":"78","num_nodes":"25","size_leaf_vector":"1"}},{"base_weights":[1.1985058E-2,-1.4272851E-1,6.421129E0,7.9706216E-1,-6.401288E-1,5.6214333E1,5.9019527E0,2.4819149E-1,1.9049635E1,-8.5047954E-1,2.2749755E-1,2.2931063E1,7.1983576E0,9.03551E0,1.8105141E0,-2.0701407E-1,1.4762812E0,1.0017439E1,4.369819E0,-8.557483E-1,-2.3322128E-1,1.3373635E0,-2.5170437E-1,1.7683083E0,3.6540465E0,3.3093426E0,3.1642383E-1],"categories":[],"categories_nodes":[],"categories_segments":[],"categories_sizes":[],"default_left":[0,0,0,0,0,0,0,0,0,0,0,0,0,0,0,0,0,0,0,0,0,0,0,0,0,0,0],"id":5,"left_children":[1,3,5,7,9,11,13,15,17,19,21,-1,-1,23,25,-1,-1,-1,-1,-1,-1,-1,-1,-1,-1,-1,-1],"loss_changes":[1.6785416E4,7.727027E3,9.982961E3,5.730998E4,1.9728994E3,7.721992E2,5.06066E3,2.4357346E4,1.0252152E4,1.2705732E3,9.523536E3,0E0,0E0,2.140834E3,1.1939425E3,0E0,0E0,0E0,0E0,0E0,0E0,0E0,0E0,0E0,0E0,0E0,0E0],"parents":[2147483647,0,0,1,1,2,2,3,3,4,4,5,5,6,6,7,7,8,8,9,9,10,10,13,13,14,14],"right_children":[2,4,6,8,10,12,14,16,18,20,22,-1,-1,24,26,-1,-1,-1,-1,-1,-1,-1,-1,-1,-1,-1,-1],"split_conditions":[2.6792543E0,2.633431E-1,2.5938305E-1,6.3451153E-1,6.81992E-1,5.544065E-2,1.5820385E0,1.22092605E-1,6.89333E-1,1.4090854E0,9.781315E-1,2.2931063E1,7.1983576E0,3.934095E0,-1.8464465E0,-2.0701407E-1,1.4762812E0,1.0017439E1,4.369819E0,-8.557483E-1,-2.3322128E-1,1.3373635E0,-2.5170437E-1,1.7683083E0,3.6540465E0,3.3093426E0,3.1642383E-1],"split_indices":[1,0,0,1,1,0,0,1,3,6,0,0,0,1,16,0,0,0,0,0,0,0,0,0,0,0,0],"split_type":[0,0,0,0,0,0,0,0,0,0,0,0,0,0,0,0,0,0,0,0,0,0,0,0,0,0,0],"sum_hessian":[1.6926E4,1.6528E4,3.98E2,5.72E3,1.0808E4,3E0,3.95E2,5.554E3,1.66E2,8.699E3,2.109E3,1E0,2E0,2.23E2,1.72E2,4.626E3,9.28E2,3.8E1,1.28E2,3.05E2,8.394E3,4.24E2,1.685E3,1.13E2,1.1E2,1.2E1,1.6E2],"tree_param":{"num_deleted":"0","num_feature":"78","num_nodes":"27","size_leaf_vector":"1"}},{"base_weights":[1.1628777E-2,-1.9077829E-1,2.5263789E0,6.843438E-1,-4.3906647E-1,4.0214325E1,1.7937157E0,-3.425338E-1,7.814392E0,-1.2763448E-1,-7.5319403E-1,4.905142E1,2.5311264E1,5.5724344E0,2.7421466E-1,-2.9442585E-1,6.701226E-1,3.4810514E0,1.4271547E0,-1.3572188E-1,8.0062765E-1,-5.171721E-1,-2.0725566E-1,1.7623589E1,5.9560156E0,4.2334673E-1,8.268047E0,1.2653645E0,3.4319482E0,-3.0094886E-1,1.254379E0],"categories":[],"categories_nodes":[],"categories_segments":[],"categories_sizes":[],"default_left":[0,0,0,0,0,0,0,0,0,0,0,0,0,0,0,0,0,0,0,0,0,0,0,0,0,0,0,0,0,0,0],"id":6,"left_children":[1,3,5,7,9,11,13,15,17,19,21,23,25,27,29,-1,-1,-1,-1,-1,-1,-1,-1,-1,-1,-1,-1,-1,-1,-1,-1],"loss_changes":[8.616379E3,3.4044648E3,3.474732E4,2.535768E4,1.1939114E3,1.9192383E3,7.1067803E3,4.986115E3,4.9954727E3,5.568409E3,3.6650415E2,2.7963008E3,5.523457E2,2.7731787E3,4.4160405E3,0E0,0E0,0E0,0E0,0E0,0E0,0E0,0E0,0E0,0E0,0E0,0E0,0E0,0E0,0E0,0E0],"parents":[2147483647,0,0,1,1,2,2,3,3,4,4,5,5,6,6,7,7,8,8,9,9,10,10,11,11,12,12,13,13,14,14],"right_children":[2,4,6,8,10,12,14,16,18,20,22,24,26,28,30,-1,-1,-1,-1,-1,-1,-1,-1,-1,-1,-1,-1,-1,-1,-1,-1],"split_conditions":[1.3010879E0,1.5048176E-1,1.8612218E-1,1.3843328E-1,7.2072846E-1,5.544065E-2,1.1741538E0,4.62472E-2,8.3160974E-2,3.6504453E-1,2.0922782E0,7.4493295E-1,1.4691193E0,2.9265227E0,3.280468E0,-2.9442585E-1,6.701226E-1,3.4810514E0,1.4271547E0,-1.3572188E-1,8.0062765E-1,-5.171721E-1,-2.0725566E-1,1.7623589E1,5.9560156E0,4.2334673E-1,8.268047E0,1.2653645E0,3.4319482E0,-3.0094886E-1,1.254379E0],"split_indices":[1,0,0,1,0,0,0,1,0,1,6,5,1,1,1,0,0,0,0,0,0,0,0,0,0,0,0,0,0,0,0],"split_type":[0,0,0,0,0,0,0,0,0,0,0,0,0,0,0,0,0,0,0,0,0,0,0,0,0,0,0,0,0,0,0],"sum_hessian":[1.6926E4,1.5666E4,1.26E3,3.462E3,1.2204E4,2.3E1,1.237E3,3.027E3,4.35E2,6.129E3,6.075E3,1.3E1,1E1,3.54E2,8.83E2,2.426E3,6.01E2,1.93E2,2.42E2,5.492E3,6.37E2,3.65E2,5.71E3,9E0,4E0,1E0,9E0,2.89E2,6.5E1,6.66E2,2.17E2],"tree_param":{"num_deleted":"0","num_feature":"78","num_nodes":"31","size_leaf_vector":"1"}},{"base_weights":[1.06890965E-2,-2.126495E-1,1.3311092E0,-9.0849614E-1,-4.898305E-2,1.5115912E1,7.1331155E-1,-2.4194534E0,-7.9254913E-1,3.7561493E0,-2.5963274E-1,1.0313669E1,2.2661716E1,2.1130562E0,-7.2576326E-1,-5.7595396E-1,-1.0559696E0,-2.2226153E-1,-1.0999732E0,5.53478E-1,1.8870655E0,2.6997066E-1,-1.2898175E-1,2.5101957E0,4.5117254E0,1.0806076E1,4.468724E0,5.133977E-1,2.2981968E0,-5.9891585E-2,-7.189457E-1],"categories":[],"categories_nodes":[],"categories_segments":[],"categories_sizes":[],"default_left":[0,0,0,0,0,0,0,0,0,0,0,0,0,0,0,0,0,0,0,0,0,0,0,0,0,0,0,0,0,0,0],"id":7,"left_children":[1,3,5,7,9,11,13,15,17,19,21,23,25,27,29,-1,-1,-1,-1,-1,-1,-1,-1,-1,-1,-1,-1,-1,-1,-1,-1],"loss_changes":[4.9920684E3,1.6489219E3,2.0845438E4,4.8108374E2,9.397545E3,3.5711387E3,4.7251543E3,1.010011E2,3.7779797E2,2.9669453E3,2.194151E3,4.8118555E2,3.6131328E3,2.6367432E3,1.01653406E3,0E0,0E0,0E0,0E0,0E0,0E0,0E0,0E0,0E0,0E0,0E0,0E0,0E0,0E0,0E0,0E0],"parents":[2147483647,0,0,1,1,2,2,3,3,4,4,5,5,6,6,7,7,8,8,9,9,10,10,11,11,12,12,13,13,14,14],"right_children":[2,4,6,8,10,12,14,16,18,20,22,24,26,28,30,-1,-1,-1,-1,-1,-1,-1,-1,-1,-1,-1,-1,-1,-1,-1,-1],"split_conditions":[7.350221E-1,3.3297982E-2,2.3562276E-1,2.0922782E0,1.02961205E-1,1.3010879E0,1.5820385E0,1E0,1.7666173E0,1.029771E-1,2.1384251E-1,-5.8024127E-2,5.544065E-2,5.0915084E0,3.4353404E0,-5.7595396E-1,-1.0559696E0,-2.2226153E-1,-1.0999732E0,5.53478E-1,1.8870655E0,2.6997066E-1,-1.2898175E-1,2.5101957E0,4.5117254E0,1.0806076E1,4.468724E0,5.133977E-1,2.2981968E0,-5.9891585E-2,-7.189457E-1],"split_indices":[1,1,0,6,0,1,0,67,51,1,0,18,0,1,0,0,0,0,0,0,0,0,0,0,0,0,0,0,0,0,0],"split_type":[0,0,0,0,0,0,0,0,0,0,0,0,0,0,0,0,0,0,0,0,0,0,0,0,0,0,0,0,0,0,0],"sum_hessian":[1.6926E4,1.4478E4,2.448E3,2.756E3,1.1722E4,1.04E2,2.344E3,1.95E2,2.561E3,6.14E2,1.1108E4,6.5E1,3.9E1,1.188E3,1.156E3,1.36E2,5.9E1,2.517E3,4.4E1,3.51E2,2.63E2,1.422E3,9.686E3,4.8E1,1.7E1,1.3E1,2.6E1,1.109E3,7.9E1,8.8E2,2.76E2],"tree_param":{"num_deleted":"0","num_feature":"78","num_nodes":"31","size_leaf_vector":"1"}},{"base_weights":[8.897666E-3,-5.7367463E-2,2.753979E0,2.2789401E-1,-4.1848224E-1,3.1468353E1,2.3097143E0,-1.830116E-2,4.881765E0,-3.936405E-1,-4.59892E0,1.5226953E1,5.2378263E0,6.8368597E0,1.5705887E0,-1.257721E-1,3.0866072E-1,2.7958915E0,9.6536696E-1,-8.6833626E-2,-2.797113E-1,-7.6397836E-2,-1.8252906E0,1.6261479E0,5.97493E0,6.8645984E-1,-4.8628223E-1],"categories":[],"categories_nodes":[],"categories_segments":[],"categories_sizes":[],"default_left":[0,0,0,0,0,0,0,0,0,0,0,0,0,0,0,0,0,0,0,0,0,0,0,0,0,0,0],"id":8,"left_children":[1,3,5,7,9,11,13,15,17,19,21,-1,-1,23,25,-1,-1,-1,-1,-1,-1,-1,-1,-1,-1,-1,-1],"loss_changes":[3.079233E3,1.7027831E3,5.0172715E3,1.0581188E4,7.5577136E2,7.3506006E2,1.307637E3,3.6833687E3,3.3962188E3,4.068634E2,2.7592456E2,0E0,0E0,9.1094434E2,7.8240265E2,0E0,0E0,0E0,0E0,0E0,0E0,0E0,0E0,0E0,0E0,0E0,0E0],"parents":[2147483647,0,0,1,1,2,2,3,3,4,4,5,5,6,6,7,7,8,8,9,9,10,10,13,13,14,14],"right_children":[2,4,6,8,10,12,14,16,18,20,22,-1,-1,24,26,-1,-1,-1,-1,-1,-1,-1,-1,-1,-1,-1,-1],"split_conditions":[2.6792543E0,6.4548755E-1,2.7720326E-1,5.484918E-1,1.0564083E1,5.544065E-2,1.0989128E0,9.989395E-2,2.0394239E-1,2.3324673E0,1.0723183E0,1.5226953E1,5.2378263E0,7.851849E0,2.9363744E0,-1.257721E-1,3.0866072E-1,2.7958915E0,9.6536696E-1,-8.6833626E-2,-2.797113E-1,-7.6397836E-2,-1.8252906E0,1.6261479E0,5.97493E0,6.8645984E-1,-4.8628223E-1],"split_indices":[1,0,0,1,9,0,0,1,0,0,1,0,0,1,0,0,0,0,0,0,0,0,0,0,0,0,0],"split_type":[0,0,0,0,0,0,0,0,0,0,0,0,0,0,0,0,0,0,0,0,0,0,0,0,0,0,0],"sum_hessian":[1.6926E4,1.6528E4,3.98E2,9.234E3,7.294E3,5E0,3.93E2,8.771E3,4.63E2,7.252E3,4.2E1,1E0,4E0,5.4E1,3.39E2,6.343E3,2.428E3,1.25E2,3.38E2,6.078E3,1.174E3,1.1E1,3.1E1,5E1,4E0,2.77E2,6.2E1],"tree_param":{"num_deleted":"0","num_feature":"78","num_nodes":"27","size_leaf_vector":"1"}},{"base_weights":[7.997265E-3,-6.798742E-2,1.547918E0,7.1518683E-1,-1.6498609E-1,1.2003306E1,1.3031409E0,-2.3996769E-1,4.640793E0,-1.2974894E0,-1.1402874E-1,8.008279E0,7.9189146E-1,-2.1144937E-1,2.2665888E-1,4.811949E0,1.1011683E0,-4.4029642E-2,-5.047212E-1,-1.3596314E-1,-1.6266819E-3,2.0257134E0,4.1449823E0,-5.8454094E-3,8.9566773E-1],"categories":[],"categories_nodes":[],"categories_segments":[],"categories_sizes":[],"default_left":[0,0,0,0,0,0,0,0,0,0,0,0,0,0,0,0,0,0,0,0,0,0,0,0,0],"id":9,"left_children":[1,3,5,7,9,-1,11,13,15,17,19,21,23,-1,-1,-1,-1,-1,-1,-1,-1,-1,-1,-1,-1],"loss_changes":[1.98074E3,1.2256154E3,7.4421084E3,6.6678325E3,8.282699E2,0E0,2.7086323E3,6.627569E2,3.7899043E3,2.7348413E2,5.0606866E2,3.1520752E2,1.3118367E3,0E0,0E0,0E0,0E0,0E0,0E0,0E0,0E0,0E0,0E0,0E0,0E0],"parents":[2147483647,0,0,1,1,2,2,3,3,4,4,6,6,7,7,8,8,9,9,10,10,11,11,12,12],"right_children":[2,4,6,8,10,-1,12,14,16,18,20,22,24,-1,-1,-1,-1,-1,-1,-1,-1,-1,-1,-1,-1],"split_conditions":[1.7956245E0,9.108107E-2,5.7420675E-2,7.3995516E-2,4.2699558E-1,1.2003306E1,6.039071E-1,1.7573936E-2,4.5540534E-2,1.7226203E-1,6.597934E-2,2.9265227E0,3.934095E0,-2.1144937E-1,2.2665888E-1,4.811949E0,1.1011683E0,-4.4029642E-2,-5.047212E-1,-1.3596314E-1,-1.6266819E-3,2.0257134E0,4.1449823E0,-5.8454094E-3,8.9566773E-1],"split_indices":[1,0,0,1,6,0,0,1,0,0,1,1,1,0,0,0,0,0,0,0,0,0,0,0,0],"split_type":[0,0,0,0,0,0,0,0,0,0,0,0,0,0,0,0,0,0,0,0,0,0,0,0,0],"sum_hessian":[1.6926E4,1.6131E4,7.95E2,1.777E3,1.4354E4,4E0,7.91E2,1.43E3,3.47E2,6.17E2,1.3737E4,5.5E1,7.36E2,9.75E2,4.55E2,2.6E1,3.21E2,1.55E2,4.62E2,3.331E3,1.0406E4,4.7E1,8E0,5.38E2,1.98E2],"tree_param":{"num_deleted":"0","num_feature":"78","num_nodes":"25","size_leaf_vector":"1"}},{"base_weights":[7.034021E-3,-9.425691E-2,6.4545226E-1,1.0556918E-1,-3.1348705E-1,4.6869717E0,1.170404E-1,-2.7472532E-1,8.60031E-1,-1.340739E0,-2.5747553E-1,9.634331E0,3.3935525E0,-1.5681548E-2,3.9296577E0,-3.5012704E-1,-6.034266E-2,2.05189E0,2.134357E-1,-7.8990275E-1,-2.3732375E-1,-3.6994126E-2,-1.2916927E-1,2.360253E0,1.1291019E1,9.0089256E-1,2.7604449E0,6.107812E-2,-6.889675E-1,-9.3072057E-1,1.7328132E0],"categories":[],"categories_nodes":[],"categories_segments":[],"categories_sizes":[],"default_left":[0,0,0,0,0,0,0,0,0,0,0,0,0,0,0,0,0,0,0,0,0,0,0,0,0,0,0,0,0,0,0],"id":10,"left_children":[1,3,5,7,9,11,13,15,17,19,21,23,25,27,29,-1,-1,-1,-1,-1,-1,-1,-1,-1,-1,-1,-1,-1,-1,-1,-1],"loss_changes":[1.0946619E3,6.400665E2,4.9497417E3,2.193435E3,4.0052167E2,1.6822402E3,1.0379045E3,3.3353012E2,2.2713215E3,2.5362836E2,1.533971E2,2.4250298E3,4.5781592E2,9.922449E2,9.1380835E2,0E0,0E0,0E0,0E0,0E0,0E0,0E0,0E0,0E0,0E0,0E0,0E0,0E0,0E0,0E0,0E0],"parents":[2147483647,0,0,1,1,2,2,3,3,4,4,5,5,6,6,7,7,8,8,9,9,10,10,11,11,12,12,13,13,14,14],"right_children":[2,4,6,8,10,12,14,16,18,20,22,24,26,28,30,-1,-1,-1,-1,-1,-1,-1,-1,-1,-1,-1,-1,-1,-1,-1,-1],"split_conditions":[7.7140325E-1,4.514453E-1,6.039071E-1,7.2453946E-2,1.7506819E0,1.3662161E-1,7.851849E0,2.0922782E0,5.544065E-2,-1.0698929E0,1E0,1.9038429E0,2.6792543E0,1.3820392E0,-4.0865633E-1,-3.5012704E-1,-6.034266E-2,2.05189E0,2.134357E-1,-7.8990275E-1,-2.3732375E-1,-3.6994126E-2,-1.2916927E-1,2.360253E0,1.1291019E1,9.0089256E-1,2.7604449E0,6.107812E-2,-6.889675E-1,-9.3072057E-1,1.7328132E0],"split_indices":[1,0,0,1,6,0,1,6,0,62,65,1,1,39,12,0,0,0,0,0,0,0,0,0,0,0,0,0,0,0,0],"split_type":[0,0,0,0,0,0,0,0,0,0,0,0,0,0,0,0,0,0,0,0,0,0,0,0,0,0,0,0,0,0,0],"sum_hessian":[1.6926E4,1.4609E4,2.317E3,7.643E3,6.966E3,2.67E2,2.05E3,5.082E3,2.561E3,3.59E2,6.607E3,5.4E1,2.13E2,1.982E3,6.8E1,3.86E2,4.696E3,6.1E1,2.5E3,1.06E2,2.53E2,3.723E3,2.884E3,5.2E1,2E0,2.01E2,1.2E1,1.809E3,1.73E2,1.4E1,5.4E1],"tree_param":{"num_deleted":"0","num_feature":"78","num_nodes":"31","size_leaf_vector":"1"}},{"base_weights":[5.9959292E-3,-3.5961397E-2,1.0336887E0,3.451224E-1,-1.3421346E-1,9.032816E0,9.003642E-1,2.0114597E-2,3.081007E0,-9.8403715E-2,-1.9576706E0,2.5034237E0,-1.6926171E-1,-1.04555406E-1,1.8220347E-1,3.8304198E0,7.572172E-1,-1.1112898E-2,-1.572997E-1,-1.6957502E-1,-7.2489184E-1,9.240195E-1,-4.5148063E-1,6.698282E-2,-8.022023E-1],"categories":[],"categories_nodes":[],"categories_segments":[],"categories_sizes":[],"default_left":[0,0,0,0,0,0,0,0,0,0,0,0,0,0,0,0,0,0,0,0,0,0,0,0,0],"id":11,"left_children":[1,3,5,7,9,-1,11,13,15,17,19,21,23,-1,-1,-1,-1,-1,-1,-1,-1,-1,-1,-1,-1],"loss_changes":[7.2991656E2,6.0900745E2,2.5468872E3,2.964477E3,8.4416986E2,0E0,1.1355378E3,6.455154E2,1.8776755E3,3.314544E2,1.5764899E2,6.1715234E2,3.919135E2,0E0,0E0,0E0,0E0,0E0,0E0,0E0,0E0,0E0,0E0,0E0,0E0],"parents":[2147483647,0,0,1,1,2,2,3,3,4,4,6,6,7,7,8,8,9,9,10,10,11,11,12,12],"right_children":[2,4,6,8,10,-1,12,14,16,18,20,22,24,-1,-1,-1,-1,-1,-1,-1,-1,-1,-1,-1,-1],"split_conditions":[2.016378E0,1.445417E-1,5.544065E-2,1.7265621E-1,1.6900069E0,9.032816E0,1.3543359E0,2.4048543E-2,4.5540534E-2,1.9919034E0,1.782021E-1,1.0491107E1,3.8036246E0,-1.04555406E-1,1.8220347E-1,3.8304198E0,7.572172E-1,-1.1112898E-2,-1.572997E-1,-1.6957502E-1,-7.2489184E-1,9.240195E-1,-4.5148063E-1,6.698282E-2,-8.022023E-1],"split_indices":[1,0,0,1,18,0,0,1,0,0,0,11,0,0,0,0,0,0,0,0,0,0,0,0,0],"split_type":[0,0,0,0,0,0,0,0,0,0,0,0,0,0,0,0,0,0,0,0,0,0,0,0,0],"sum_hessian":[1.6926E4,1.6263E4,6.63E2,3.333E3,1.293E4,2E0,6.61E2,2.98E3,3.53E2,1.2682E4,2.48E2,2.64E2,3.97E2,1.831E3,1.149E3,1.8E1,3.35E2,1.1086E4,1.596E3,6.2E1,1.86E2,2.31E2,3.3E1,3.44E2,5.3E1],"tree_param":{"num_deleted":"0","num_feature":"78","num_nodes":"25","size_leaf_vector":"1"}},{"base_weights":[4.9280897E-3,-1.19284235E-1,3.219878E-1,-8.0733997E-1,-3.842594E-2,3.4623122E0,1.5027237E-1,-6.907652E-1,-2.3397467E0,1.2109114E-1,-2.3627962E-1,2.964287E0,1.2968285E1,7.838194E-1,-1.866255E-1,2.2639178E-2,-2.396489E-1,-3.236555E-1,-1.188284E0,-3.927944E-2,2.6152673E-1,-1.0756813E-1,-2.7444014E-2,1.311766E0,6.464228E-2,6.8655467E0,2.1359599E0,2.0809884E-1,1.4146309E0,-7.717599E-2,4.625134E-1],"categories":[],"categories_nodes":[],"categories_segments":[],"categories_sizes":[],"default_left":[0,0,0,0,0,0,0,0,0,0,0,0,0,0,0,0,0,0,0,0,0,0,0,0,0,0,0,0,0,0,0],"id":12,"left_children":[1,3,5,7,9,11,13,15,17,19,21,23,25,27,29,-1,-1,-1,-1,-1,-1,-1,-1,-1,-1,-1,-1,-1,-1,-1,-1],"loss_changes":[6.6666986E2,6.7665765E2,2.568969E3,2.2686426E2,3.435706E2,1.1309094E3,9.646845E2,9.859473E1,1.7970145E2,1.1403287E3,8.600165E1,9.126279E2,5.3303687E2,5.5287885E2,3.606211E2,0E0,0E0,0E0,0E0,0E0,0E0,0E0,0E0,0E0,0E0,0E0,0E0,0E0,0E0,0E0,0E0],"parents":[2147483647,0,0,1,1,2,2,3,3,4,4,5,5,6,6,7,7,8,8,9,9,10,10,11,11,12,12,13,13,14,14],"right_children":[2,4,6,8,10,12,14,16,18,20,22,24,26,28,30,-1,-1,-1,-1,-1,-1,-1,-1,-1,-1,-1,-1,-1,-1,-1,-1],"split_conditions":[3.7090254E-1,2.0922782E0,2.1780255E-1,3.8364048E0,4.2768502E-1,1.7092965E0,1.197914E0,5.9400696E-2,1E0,6.72126E-2,1E0,7.290433E-1,5.544065E-2,3.934095E0,5.0915084E0,2.2639178E-2,-2.396489E-1,-3.236555E-1,-1.188284E0,-3.927944E-2,2.6152673E-1,-1.0756813E-1,-2.7444014E-2,1.311766E0,6.464228E-2,6.8655467E0,2.1359599E0,2.0809884E-1,1.4146309E0,-7.717599E-2,4.625134E-1],"split_indices":[1,6,0,5,0,1,0,0,67,1,64,41,0,1,1,0,0,0,0,0,0,0,0,0,0,0,0,0,0,0,0],"split_type":[0,0,0,0,0,0,0,0,0,0,0,0,0,0,0,0,0,0,0,0,0,0,0,0,0,0,0,0,0,0,0],"sum_hessian":[1.6926E4,1.2162E4,4.764E3,1.278E3,1.0884E4,2.46E2,4.518E3,1.189E3,8.9E1,6.026E3,4.858E3,2.35E2,1.1E1,1.568E3,2.95E3,1.47E2,1.042E3,5.1E1,3.8E1,4.512E3,1.514E3,2.633E3,2.225E3,1.55E2,8E1,3E0,8E0,1.534E3,3.4E1,2.835E3,1.15E2],"tree_param":{"num_deleted":"0","num_feature":"78","num_nodes":"31","size_leaf_vector":"1"}},{"base_weights":[4.084422E-3,2.2707062E-2,-1.1492192E0,-7.44282E-2,3.5504386E-1,-4.5751044E-1,-2.0042782E0,-3.3972718E-2,-9.8913413E-1,1.3965828E0,7.82768E-2,-6.432142E-1,-2.956681E-1,-5.5735254E0,-1.8006281E0,1.01395085E-1,-3.596558E-2,-2.0041783E-1,-9.7088283E-1,2.669523E-1,1.0563133E0,-3.453615E-3,4.5234644E-1,-2.4789909E-1,-1.6197565E-1,-5.1196534E-2,-1.952024E-1,-1.9052736E-1,-1.9302583E0,-3.4770143E-1,-6.829061E-1],"categories":[],"categories_nodes":[],"categories_segments":[],"categories_sizes":[],"default_left":[0,0,0,0,0,0,0,0,0,0,0,0,0,0,0,0,0,0,0,0,0,0,0,0,0,0,0,0,0,0,0],"id":13,"left_children":[1,3,5,7,9,11,13,15,17,19,21,23,25,27,29,-1,-1,-1,-1,-1,-1,-1,-1,-1,-1,-1,-1,-1,-1,-1,-1],"loss_changes":[3.6357672E2,5.3780597E2,1.5818353E2,4.7703326E2,1.0860684E3,4.3180313E0,7.718948E1,3.9459772E2,3.917771E2,8.4842053E2,3.82265E2,8.589859E-1,3.5281553E0,2.1415817E1,3.2463867E1,0E0,0E0,0E0,0E0,0E0,0E0,0E0,0E0,0E0,0E0,0E0,0E0,0E0,0E0,0E0,0E0],"parents":[2147483647,0,0,1,1,2,2,3,3,4,4,5,5,6,6,7,7,8,8,9,9,10,10,11,11,12,12,13,13,14,14],"right_children":[2,4,6,8,10,12,14,16,18,20,22,24,26,28,30,-1,-1,-1,-1,-1,-1,-1,-1,-1,-1,-1,-1,-1,-1,-1,-1],"split_conditions":[4.0471673E0,4.4921446E-1,1.1592631E0,1.7666173E0,8.2170963E-1,7.350221E-1,-9.8687685E-1,1.1682137E-1,1E0,1.3010879E0,3.934095E0,1E0,9.841404E-1,4.5955536E-1,4.940158E0,1.01395085E-1,-3.596558E-2,-2.0041783E-1,-9.7088283E-1,2.669523E-1,1.0563133E0,-3.453615E-3,4.5234644E-1,-2.4789909E-1,-1.6197565E-1,-5.1196534E-2,-1.952024E-1,-1.9052736E-1,-1.9302583E0,-3.4770143E-1,-6.829061E-1],"split_indices":[0,1,1,51,0,1,63,0,67,1,1,64,1,3,0,0,0,0,0,0,0,0,0,0,0,0,0,0,0,0,0],"split_type":[0,0,0,0,0,0,0,0,0,0,0,0,0,0,0,0,0,0,0,0,0,0,0,0,0,0,0,0,0,0,0],"sum_hessian":[1.6926E4,1.6658E4,2.68E2,1.2891E4,3.767E3,1.49E2,1.19E2,1.2346E4,5.45E2,7.9E2,2.977E3,6.8E1,8.1E1,5E0,1.14E2,2.316E3,1.003E4,4.78E2,6.7E1,6.39E2,1.51E2,2.802E3,1.75E2,2.2E1,4.6E1,6.1E1,2E1,1E0,4E0,5E1,6.4E1],"tree_param":{"num_deleted":"0","num_feature":"78","num_nodes":"31","size_leaf_vector":"1"}},{"base_weights":[2.6735095E-3,1.0399505E-1,-1.6379163E-1,1.0099979E-3,3.7483224E-1,-1.3495447E-1,-1.3412752E0,1.9097804E-1,-1.10394396E-1,7.021324E0,3.075654E-1,-1.6431808E-1,1.238545E0,-3.2031405E0,8.541625E-1,-2.6903914E-2,3.0463123E-1,-2.149868E-2,-2.2306585E-1,1.638744E0,3.6259444E0,2.542156E-1,3.972932E-3,1.7422053E-1,-5.730221E-2,6.905562E0,2.6818225E-1,2.0147587E-1,-1.141332E0,9.2141473E-1,-5.832165E-1],"categories":[],"categories_nodes":[],"categories_segments":[],"categories_sizes":[],"default_left":[0,0,0,0,0,0,0,0,0,0,0,0,0,0,0,0,0,0,0,0,0,0,0,0,0,0,0,0,0,0,0],"id":14,"left_children":[1,3,5,7,9,11,13,15,17,19,21,23,25,27,29,-1,-1,-1,-1,-1,-1,-1,-1,-1,-1,-1,-1,-1,-1,-1,-1],"loss_changes":[2.8551633E2,2.935091E2,2.173026E2,1.6139105E2,1.29395E3,2.5239273E2,6.2814014E2,6.52382E2,1.1783153E2,1.6295593E2,4.5613626E2,1.2186629E2,9.6264014E2,1.9593439E2,4.4647357E2,0E0,0E0,0E0,0E0,0E0,0E0,0E0,0E0,0E0,0E0,0E0,0E0,0E0,0E0,0E0,0E0],"parents":[2147483647,0,0,1,1,2,2,3,3,4,4,5,5,6,6,7,7,8,8,9,9,10,10,11,11,12,12,13,13,14,14],"right_children":[2,4,6,8,10,12,14,16,18,20,22,24,26,28,30,-1,-1,-1,-1,-1,-1,-1,-1,-1,-1,-1,-1,-1,-1,-1,-1],"split_conditions":[6.370728E-2,3.403794E-1,5.2032053E-1,1.9206226E-1,1.1682137E-1,2.4390771E0,5.0915084E0,5.8579784E-2,1.6654603E0,7.736361E-4,1.0573324E0,5.1480602E-2,5.544065E-2,1.0723183E0,8.1942624E-1,-2.6903914E-2,3.0463123E-1,-2.149868E-2,-2.2306585E-1,1.638744E0,3.6259444E0,2.542156E-1,3.972932E-3,1.7422053E-1,-5.730221E-2,6.905562E0,2.6818225E-1,2.0147587E-1,-1.141332E0,9.2141473E-1,-5.832165E-1],"split_indices":[16,1,9,0,0,1,1,1,51,13,0,0,0,1,5,0,0,0,0,0,0,0,0,0,0,0,0,0,0,0,0],"split_type":[0,0,0,0,0,0,0,0,0,0,0,0,0,0,0,0,0,0,0,0,0,0,0,0,0,0,0,0,0,0,0],"sum_hessian":[1.6926E4,1.0522E4,6.404E3,7.624E3,2.898E3,6.252E3,1.52E2,2.818E3,4.806E3,2.8E1,2.87E3,6.122E3,1.3E2,8.2E1,7E1,2.103E3,7.15E2,4.53E3,2.76E2,2.3E1,5E0,1.012E3,1.858E3,2.11E2,5.911E3,1E0,1.29E2,1.1E1,7.1E1,3.9E1,3.1E1],"tree_param":{"num_deleted":"0","num_feature":"78","num_nodes":"31","size_leaf_vector":"1"}},{"base_weights":[2.5948647E-3,-3.1111562E-1,4.731368E-2,1.0654863E0,-4.244977E-1,3.257493E-2,1.0873418E0,-1.2453712E0,5.1907225E0,-3.0418018E-1,-1.2424027E0,1.132317E-1,-9.918875E-2,1.9847113E0,-1.2521889E0,-5.8132356E-1,-6.543078E-2,1.0467829E-1,2.1569357E0,-3.4329978E-1,-4.516528E-3,-7.171425E-1,4.8872662E-1,-1.3838507E-2,1.9112739E-1,-1.4503046E-2,-1.2807669E-1,7.0444174E-2,7.6668257E-1,2.5147177E-2,-4.920033E-1],"categories":[],"categories_nodes":[],"categories_segments":[],"categories_sizes":[],"default_left":[0,0,0,0,0,0,0,0,0,0,0,0,0,0,0,0,0,0,0,0,0,0,0,0,0,0,0,0,0,0,0],"id":15,"left_children":[1,3,5,7,9,11,13,15,17,19,21,23,25,27,29,-1,-1,-1,-1,-1,-1,-1,-1,-1,-1,-1,-1,-1,-1,-1,-1],"loss_changes":[2.3747957E2,3.3009738E2,2.270748E2,1.5412505E3,1.9171506E2,1.5528094E2,4.3706598E2,7.354779E1,5.588762E2,4.1365704E2,8.280643E2,7.5662946E2,9.242956E1,1.4925159E2,3.0189316E1,0E0,0E0,0E0,0E0,0E0,0E0,0E0,0E0,0E0,0E0,0E0,0E0,0E0,0E0,0E0,0E0],"parents":[2147483647,0,0,1,1,2,2,3,3,4,4,5,5,6,6,7,7,8,8,9,9,10,10,11,11,12,12,13,13,14,14],"right_children":[2,4,6,8,10,12,14,16,18,20,22,24,26,28,30,-1,-1,-1,-1,-1,-1,-1,-1,-1,-1,-1,-1,-1,-1,-1,-1],"split_conditions":[2.0922782E0,5.544065E-2,2.9265227E0,1.5662384E-1,1E0,8.5141E-1,2.4631488E0,2.2815283E-2,0E0,-1.5801765E0,-1.167407E-2,1.43058E-1,1.1592631E0,-2.2321564E-1,3.0314155E0,-5.8132356E-1,-6.543078E-2,1.0467829E-1,2.1569357E0,-3.4329978E-1,-4.516528E-3,-7.171425E-1,4.8872662E-1,-1.3838507E-2,1.9112739E-1,-1.4503046E-2,-1.2807669E-1,7.0444174E-2,7.6668257E-1,2.5147177E-2,-4.920033E-1],"split_indices":[6,0,1,1,67,0,0,1,13,19,17,1,1,12,0,0,0,0,0,0,0,0,0,0,0,0,0,0,0,0,0],"split_type":[0,0,0,0,0,0,0,0,0,0,0,0,0,0,0,0,0,0,0,0,0,0,0,0,0,0,0,0,0,0,0],"sum_hessian":[1.6926E4,2.111E3,1.4815E4,1.6E2,1.951E3,1.4609E4,2.06E2,1.03E2,5.7E1,1.702E3,2.49E2,9.062E3,5.547E3,1.49E2,5.7E1,6.1E1,4.2E1,1.7E1,4E1,4.35E2,1.267E3,1.78E2,7.1E1,6.949E3,2.113E3,4.803E3,7.44E2,3.7E1,1.12E2,1.3E1,4.4E1],"tree_param":{"num_deleted":"0","num_feature":"78","num_nodes":"31","size_leaf_vector":"1"}},{"base_weights":[1.9016877E-3,-5.1091076E-3,1.7148451E0,4.961066E-3,-1.5670576E0,-2.7879758E0,2.35602E0,4.0868795E-1,-1.9553246E-2,-9.1501385E-1,-3.3973606E0,6.986608E0,3.3542895E-1,8.023948E-2,2.21443E0,-5.2643515E-4,-2.1511206E-1,-4.297955E-1,7.052741E-2,-1.1670636E0,-2.825614E-1,1.2371218E0,4.42514E0,-4.1379246E-1,1.2256465E0],"categories":[],"categories_nodes":[],"categories_segments":[],"categories_sizes":[],"default_left":[0,0,0,0,0,0,0,0,0,0,0,0,0,0,0,0,0,0,0,0,0,0,0,0,0],"id":16,"left_children":[1,3,5,7,9,-1,11,13,15,17,19,21,23,-1,-1,-1,-1,-1,-1,-1,-1,-1,-1,-1,-1],"loss_changes":[2.0328671E2,2.651845E2,5.0890506E2,1.6580399E2,1.2578265E2,0E0,6.151871E2,9.4236444E2,1.9606851E2,4.855918E1,3.0221252E1,3.8371094E2,3.0786237E2,0E0,0E0,0E0,0E0,0E0,0E0,0E0,0E0,0E0,0E0,0E0,0E0],"parents":[2147483647,0,0,1,1,2,2,3,3,4,4,6,6,7,7,8,8,9,9,10,10,11,11,12,12],"right_children":[2,4,6,8,10,-1,12,14,16,18,20,22,24,-1,-1,-1,-1,-1,-1,-1,-1,-1,-1,-1,-1],"split_conditions":[7.851849E0,1.0564083E1,2.6072654E-1,6.5340765E-2,1.4038365E0,-2.7879758E0,8.0080295E-1,1.3010879E0,1.6900069E0,3.934095E0,2.2568376E0,1E0,1.955449E0,8.023948E-2,2.21443E0,-5.2643515E-4,-2.1511206E-1,-4.297955E-1,7.052741E-2,-1.1670636E0,-2.825614E-1,1.2371218E0,4.42514E0,-4.1379246E-1,1.2256465E0],"split_indices":[1,9,5,0,0,0,5,1,18,1,2,73,5,0,0,0,0,0,0,0,0,0,0,0,0],"split_type":[0,0,0,0,0,0,0,0,0,0,0,0,0,0,0,0,0,0,0,0,0,0,0,0,0],"sum_hessian":[1.6926E4,1.6858E4,6.8E1,1.6751E4,1.07E2,3E0,6.5E1,9.58E2,1.5793E4,8E1,2.7E1,1.9E1,4.6E1,9.4E2,1.8E1,1.5401E4,3.92E2,5.5E1,2.5E1,2.2E1,5E0,1.5E1,4E0,3.2E1,1.4E1],"tree_param":{"num_deleted":"0","num_feature":"78","num_nodes":"25","size_leaf_vector":"1"}},{"base_weights":[1.5648963E-3,1.4796647E-2,-6.5582806E-1,-3.8421582E-2,2.4572955E-1,-2.3067237E-1,-1.2220802E0,-1.3161554E-2,-6.097795E-1,6.3090186E0,2.2608495E-1,-4.1903558E-1,-1.3976252E-1,-1.4056959E0,-1.1143919E0,1.0444405E-1,-1.4560759E-2,-5.7052344E-1,-1.0042985E-1,-2.9378206E-1,2.4760504E0,6.295828E-2,1.7319055E0,-6.288162E-2,-1.427258E-1,3.3955894E-2,-5.8403786E-2,-2.4923414E-1,-5.4079527E-1],"categories":[],"categories_nodes":[],"categories_segments":[],"categories_sizes":[],"default_left":[0,0,0,0,0,0,0,0,0,0,0,0,0,0,0,0,0,0,0,0,0,0,0,0,0,0,0,0,0],"id":17,"left_children":[1,3,5,7,9,11,13,15,17,19,21,23,25,-1,27,-1,-1,-1,-1,-1,-1,-1,-1,-1,-1,-1,-1,-1,-1],"loss_changes":[1.4724852E2,2.0394707E2,8.0127045E1,1.9464331E2,3.6877026E2,3.2292557E0,4.8115433E1,1.6510953E2,2.022441E2,1.49802E2,2.7767868E2,6.367321E-1,1.8417728E0,0E0,2.583014E1,0E0,0E0,0E0,0E0,0E0,0E0,0E0,0E0,0E0,0E0,0E0,0E0,0E0,0E0],"parents":[2147483647,0,0,1,1,2,2,3,3,4,4,5,5,6,6,7,7,8,8,9,9,10,10,11,11,12,12,14,14],"right_children":[2,4,6,8,10,12,14,16,18,20,22,24,26,-1,28,-1,-1,-1,-1,-1,-1,-1,-1,-1,-1,-1,-1,-1,-1],"split_conditions":[3.8036246E0,5.275264E-1,1.1114743E0,1.7666173E0,4.5540534E-2,1E0,-2.2930892E0,7.524088E-2,8.910105E-2,7.7140325E-1,4.141857E0,4.0471673E0,6.206374E-1,-1.4056959E0,5.8529487E0,1.0444405E-1,-1.4560759E-2,-5.7052344E-1,-1.0042985E-1,-2.9378206E-1,2.4760504E0,6.295828E-2,1.7319055E0,-6.288162E-2,-1.427258E-1,3.3955894E-2,-5.8403786E-2,-2.4923414E-1,-5.4079527E-1],"split_indices":[0,1,1,51,0,64,35,0,0,1,6,0,1,0,0,0,0,0,0,0,0,0,0,0,0,0,0,0,0],"split_type":[0,0,0,0,0,0,0,0,0,0,0,0,0,0,0,0,0,0,0,0,0,0,0,0,0,0,0,0,0],"sum_hessian":[1.6926E4,1.6593E4,3.33E2,1.3486E4,3.107E3,1.91E2,1.42E2,1.2916E4,5.7E2,9E0,3.098E3,6.1E1,1.3E2,3E0,1.39E2,1.151E3,1.1765E4,9.9E1,4.71E2,2E0,7E0,3.09E3,8E0,1.4E1,4.7E1,2.3E1,1.07E2,1E2,3.9E1],"tree_param":{"num_deleted":"0","num_feature":"78","num_nodes":"29","size_leaf_vector":"1"}},{"base_weights":[1.1527349E-3,-4.5576862E-1,2.357964E-2,-3.8584352E-1,-3.441112E0,1.0689799E0,-5.6568403E-3,-1.4634384E0,-3.1741175E-1,-1.1869222E0,-6.9073266E-1,9.9220306E-1,5.2045856E0,-2.5188082E-1,2.7033668E-2,-5.611993E-1,-1.97616E-1,-1.2436577E-1,-1.1147774E-2,-2.629991E-1,4.6647295E-1,-4.5209236E-2,-3.8140205E-1,2.0192303E-1,3.6900355E-3],"categories":[],"categories_nodes":[],"categories_segments":[],"categories_sizes":[],"default_left":[0,0,0,0,0,0,0,0,0,0,0,0,0,0,0,0,0,0,0,0,0,0,0,0,0],"id":18,"left_children":[1,3,5,7,9,11,13,15,17,-1,-1,19,-1,21,23,-1,-1,-1,-1,-1,-1,-1,-1,-1,-1],"loss_changes":[1.7346735E2,1.6400258E2,4.931839E2,5.6685326E1,1.4521179E0,5.314923E2,1.26362946E2,1.3842056E1,1.9858078E1,0E0,0E0,4.6197446E2,0E0,1.8960867E2,1.3190874E2,0E0,0E0,0E0,0E0,0E0,0E0,0E0,0E0,0E0,0E0],"parents":[2147483647,0,0,1,1,2,2,3,3,4,4,5,5,6,6,7,7,8,8,11,11,13,13,14,14],"right_children":[2,4,6,8,10,12,14,16,18,-1,-1,20,-1,22,24,-1,-1,-1,-1,-1,-1,-1,-1,-1,-1],"split_conditions":[1.2949215E-2,2.1444955E0,6.5340765E-2,1.7079823E-1,6.5340765E-2,2.2617962E0,2.0922782E0,5.544065E-2,1E0,-1.1869222E0,-6.9073266E-1,-7.471983E-1,5.2045856E0,1E0,8.7121025E-2,-5.611993E-1,-1.97616E-1,-1.2436577E-1,-1.1147774E-2,-2.629991E-1,4.6647295E-1,-4.5209236E-2,-3.8140205E-1,2.0192303E-1,3.6900355E-3],"split_indices":[1,51,0,6,0,1,6,0,64,0,0,46,0,67,0,0,0,0,0,0,0,0,0,0,0],"split_type":[0,0,0,0,0,0,0,0,0,0,0,0,0,0,0,0,0,0,0,0,0,0,0,0,0],"sum_hessian":[1.6926E4,7.91E2,1.6135E4,7.74E2,1.7E1,4.38E2,1.5697E4,4.5E1,7.29E2,1E1,7E0,4.37E2,1E0,1.839E3,1.3858E4,2.9E1,1.6E1,5.41E2,1.88E2,1.01E2,3.36E2,1.674E3,1.65E2,3.08E2,1.355E4],"tree_param":{"num_deleted":"0","num_feature":"78","num_nodes":"25","size_leaf_vector":"1"}},{"base_weights":[9.4959856E-4,-1.8555571E-1,4.6145517E-2,-1.4867638E-1,-7.854663E-1,9.171642E-1,-7.317281E-3,-2.4456933E-1,9.405134E-2,-1.5467163E0,-3.8048247E-1,8.080359E-1,7.9067883E0,9.561284E-3,-7.326081E-1,-4.1266942E-1,-6.698805E-2,3.0007588E-2,-2.3844479E-1,-7.6443475E-1,-2.0789032E-1,5.8233175E-2,-2.2831748E-1,3.492082E-1,-3.0693984E-1,3.074586E0,1.982918E-1,1.2015734E-1,-8.625751E-3,1.8576441E-2,-3.3662444E-1],"categories":[],"categories_nodes":[],"categories_segments":[],"categories_sizes":[],"default_left":[0,0,0,0,0,0,0,0,0,0,0,0,0,0,0,0,0,0,0,0,0,0,0,0,0,0,0,0,0,0,0],"id":19,"left_children":[1,3,5,7,9,11,13,15,17,19,21,23,25,27,29,-1,-1,-1,-1,-1,-1,-1,-1,-1,-1,-1,-1,-1,-1,-1,-1],"loss_changes":[1.4269098E2,7.293766E1,6.3452997E2,7.2457535E1,5.8295654E1,5.9467035E2,1.5718034E2,5.337712E1,4.762963E0,5.4660507E1,2.7700933E1,5.07702E2,1.968476E2,1.879715E2,9.0428314E1,0E0,0E0,0E0,0E0,0E0,0E0,0E0,0E0,0E0,0E0,0E0,0E0,0E0,0E0,0E0,0E0],"parents":[2147483647,0,0,1,1,2,2,3,3,4,4,5,5,6,6,7,7,8,8,9,9,10,10,11,11,12,12,13,13,14,14],"right_children":[2,4,6,8,10,12,14,16,18,20,22,24,26,28,30,-1,-1,-1,-1,-1,-1,-1,-1,-1,-1,-1,-1,-1,-1,-1,-1],"split_conditions":[4.0697534E-2,1.6654603E0,1.1880139E-1,1E0,8.910105E-2,1.552056E0,1.6900069E0,-1.7293818E0,1.6558684E0,1.5767289E-3,-7.75068E0,1.2797245E0,1E0,2.2572266E-1,1.6632195E-1,-4.1266942E-1,-6.698805E-2,3.0007588E-2,-2.3844479E-1,-7.6443475E-1,-2.0789032E-1,5.8233175E-2,-2.2831748E-1,3.492082E-1,-3.0693984E-1,3.074586E0,1.982918E-1,1.2015734E-1,-8.625751E-3,1.8576441E-2,-3.3662444E-1],"split_indices":[1,51,0,64,0,1,18,63,18,9,14,60,72,0,0,0,0,0,0,0,0,0,0,0,0,0,0,0,0,0,0],"split_type":[0,0,0,0,0,0,0,0,0,0,0,0,0,0,0,0,0,0,0,0,0,0,0,0,0,0,0,0,0,0,0],"sum_hessian":[1.6926E4,3.301E3,1.3625E4,3.111E3,1.9E2,7.87E2,1.2838E4,2.23E3,8.81E2,6.5E1,1.25E2,7.76E2,1.1E1,1.2547E4,2.91E2,4E1,2.19E3,8.76E2,5E0,2.9E1,3.6E1,5E1,7.5E1,6.5E2,1.26E2,8E0,3E0,1.119E3,1.1428E4,9.6E1,1.95E2],"tree_param":{"num_deleted":"0","num_feature":"78","num_nodes":"31","size_leaf_vector":"1"}}]},"name":"gbtree"},"learner_model_param":{"base_score":"4.3033204E0","boost_from_average":"1","num_class":"0","num_feature":"78","num_target":"1"},"objective":{"name":"reg:squarederror","reg_loss_param":{"scale_pos_weight":"1"}}},"version":[2,1,4]}