{"learner":{"attributes":{"scikit_learn":"{\"_estimator_type\": \"regressor\"}"},"feature_names":[],"feature_types":[],"gradient_booster":{"model":{"gbtree_model_param":{"num_parallel_tree":"1","num_trees":"20"},"iteration_indptr":[0,1,2,3,4,5,6,7,8,9,10,11,12,13,14,15,16,17,18,19,20],"tree_info":[0,0,0,0,0,0,0,0,0,0,0,0,0,0,0,0,0,0,0,0],"trees":[{"base_weights":[-1.4187141E-7,2.7475986E1,-6.346527E-1,1.1739091E2,9.521587E0,-1.1473827E0,2.1053452E1,2.7506794E1,1.6278003E2,4.1998825E1,3.5554183E0,-1.8692491E0,2.7774258E0,1.5932365E1,4.4089443E1,2.9809976E0,1.8368263E1,3.319538E1,5.537658E1,6.2482243E0,2.1296501E1,8.069366E-4,1.6091032E0,-6.155006E-1,1.9479808E0,8.362869E0,4.1037318E-1,1.7335659E1,3.842352E0,3.5830333E0,1.3983375E1],"categories":[],"categories_nodes":[],"categories_segments":[],"categories_sizes":[],"default_left":[0,0,0,0,0,0,0,0,0,0,0,0,0,0,0,0,0,0,0,0,0,0,0,0,0,0,0,0,0,0,0],"id":0,"left_children":[1,3,5,7,9,11,13,15,17,19,21,23,25,27,29,-1,-1,-1,-1,-1,-1,-1,-1,-1,-1,-1,-1,-1,-1,-1,-1],"loss_changes":[2.7419047E5,5.71983E5,1.7092964E5,2.3622838E5,5.739879E4,4.25455E4,4.1176656E4,1.1833644E4,2.3912375E4,2.6753945E4,1.6188975E3,1.936107E4,8.249675E4,3.744511E4,4.6315234E3,0E0,0E0,0E0,0E0,0E0,0E0,0E0,0E0,0E0,0E0,0E0,0E0,0E0,0E0,0E0,0E0],"parents":[2147483647,0,0,1,1,2,2,3,3,4,4,5,5,6,6,7,7,8,8,9,9,10,10,11,11,12,12,13,13,14,14],"right_children":[2,4,6,8,10,12,14,16,18,20,22,24,26,28,30,-1,-1,-1,-1,-1,-1,-1,-1,-1,-1,-1,-1,-1,-1,-1,-1],"split_conditions":[-3.171293E0,5.82178E-2,2.7177293E0,6.598712E-1,8.150492E-2,6.009648E-1,7.823252E0,3.1238267E-1,1.1352879E0,4.4179836E-1,1.7642184E-1,1.7052994E0,3.493068E-1,8.0534625E-1,6.8724525E-1,2.9809976E0,1.8368263E1,3.319538E1,5.537658E1,6.2482243E0,2.1296501E1,8.069366E-4,1.6091032E0,-6.155006E-1,1.9479808E0,8.362869E0,4.1037318E-1,1.7335659E1,3.842352E0,3.5830333E0,1.3983375E1],"split_indices":[55,0,1,1,0,1,1,1,1,1,1,18,0,0,3,0,0,0,0,0,0,0,0,0,0,0,0,0,0,0,0],"split_type":[0,0,0,0,0,0,0,0,0,0,0,0,0,0,0,0,0,0,0,0,0,0,0,0,0,0,0,0,0,0,0],"sum_hessian":[1.5722E4,3.54E2,1.5368E4,5.8E1,2.96E2,1.5014E4,3.54E2,2E1,3.8E1,4.5E1,2.51E2,1.2682E4,2.332E3,2.91E2,6.3E1,1.4E1,6E0,1.3E1,2.5E1,2.7E1,1.8E1,8.5E1,1.66E2,1.2412E4,2.7E2,1.23E2,2.209E3,1.9E1,2.72E2,5E0,5.8E1],"tree_param":{"num_deleted":"0","num_feature":"78","num_nodes":"31","size_leaf_vector":"1"}},{"base_weights":[1.1952282E-2,1.249462E1,-7.619975E-1,5.6419796E1,7.4152675E0,-1.2208554E0,6.9169536E0,1.4516034E1,1.16217094E2,5.275533E0,3.03879E1,-1.3956233E0,5.9195046E0,4.1530434E1,5.214516E0,1.3277965E0,1.2028546E1,2.6378098E1,4.241053E1,5.3837624E0,1.0074823E0,9.693235E0,4.6858544E0,-5.188041E-1,-8.139934E-2,6.3007917E0,-1.8481E-1,1.5335759E1,7.834331E0,5.6588993E0,1.2112656E0],"categories":[],"categories_nodes":[],"categories_segments":[],"categories_sizes":[],"default_left":[0,0,0,0,0,0,0,0,0,0,0,0,0,0,0,0,0,0,0,0,0,0,0,0,0,0,0,0,0,0,0],"id":1,"left_children":[1,3,5,7,9,11,13,15,17,19,21,23,25,27,29,-1,-1,-1,-1,-1,-1,-1,-1,-1,-1,-1,-1,-1,-1,-1,-1],"loss_changes":[1.5190877E5,2.0439794E5,5.2178086E4,2.363575E5,4.034369E4,1.7444E4,4.8987723E4,1.4533925E4,1.531975E4,1.8280434E4,1.483168E3,5.116922E3,3.293745E4,4.430047E3,1.2726672E4,0E0,0E0,0E0,0E0,0E0,0E0,0E0,0E0,0E0,0E0,0E0,0E0,0E0,0E0,0E0,0E0],"parents":[2147483647,0,0,1,1,2,2,3,3,4,4,5,5,6,6,7,7,8,8,9,9,10,10,11,11,12,12,13,13,14,14],"right_children":[2,4,6,8,10,12,14,16,18,20,22,24,26,28,30,-1,-1,-1,-1,-1,-1,-1,-1,-1,-1,-1,-1,-1,-1,-1,-1],"split_conditions":[-1.984798E0,5.82178E-2,1.4140522E0,6.598712E-1,5.2147083E0,1.7052994E0,5.161978E-1,1.7404178E-1,1.2150198E0,8.5386105E-2,1.6165142E0,3.6593398E-1,8.73267E-2,2.619801E-1,-1.9192724E0,1.3277965E0,1.2028546E1,2.6378098E1,4.241053E1,5.3837624E0,1.0074823E0,9.693235E0,4.6858544E0,-5.188041E-1,-8.139934E-2,6.3007917E0,-1.8481E-1,1.5335759E1,7.834331E0,5.6588993E0,1.2112656E0],"split_indices":[52,0,1,1,1,18,0,1,1,0,0,1,0,0,50,0,0,0,0,0,0,0,0,0,0,0,0,0,0,0,0],"split_type":[0,0,0,0,0,0,0,0,0,0,0,0,0,0,0,0,0,0,0,0,0,0,0,0,0,0,0,0,0,0,0],"sum_hessian":[1.5722E4,9.17E2,1.4805E4,9.4E1,8.23E2,1.3971E4,8.34E2,5.6E1,3.8E1,7.54E2,6.9E1,1.3638E4,3.33E2,3.8E1,7.96E2,4.1E1,1.5E1,2E1,1.8E1,9.8E1,6.56E2,6E1,9E0,1.0516E4,3.122E3,1E2,2.33E2,2.2E1,1.6E1,6.2E1,7.34E2],"tree_param":{"num_deleted":"0","num_feature":"78","num_nodes":"31","size_leaf_vector":"1"}},{"base_weights":[1.717355E-2,8.858342E0,-5.3099674E-1,4.035854E1,5.2158937E0,-8.029952E-1,6.3262296E0,1.4282135E1,9.125014E1,3.4929857E0,2.0153965E1,-9.361173E-1,4.4071536E0,2.682243E1,4.5437818E0,1.4423554E0,1.2057879E1,2.4422405E1,3.8434807E1,-1.1385278E-1,2.1369529E0,4.497043E0,7.525149E0,-1.4178425E-1,-5.105768E-1,4.6630025E0,-2.466277E-2,1.1282786E1,5.247965E0,2.2594297E0,-6.3487194E-2],"categories":[],"categories_nodes":[],"categories_segments":[],"categories_sizes":[],"default_left":[0,0,0,0,0,0,0,0,0,0,0,0,0,0,0,0,0,0,0,0,0,0,0,0,0,0,0,0,0,0,0],"id":2,"left_children":[1,3,5,7,9,11,13,15,17,19,21,23,25,27,29,-1,-1,-1,-1,-1,-1,-1,-1,-1,-1,-1,-1,-1,-1,-1,-1],"loss_changes":[7.620568E4,1.0511883E5,2.762056E4,1.2476839E5,2.1136832E4,9.882178E3,2.05195E4,1.5517876E4,1.1811562E3,1.0405543E4,1.7878281E3,4.928786E3,1.7749283E4,3.8705742E3,7.403698E3,0E0,0E0,0E0,0E0,0E0,0E0,0E0,0E0,0E0,0E0,0E0,0E0,0E0,0E0,0E0,0E0],"parents":[2147483647,0,0,1,1,2,2,3,3,4,4,5,5,6,6,7,7,8,8,9,9,10,10,11,11,12,12,13,13,14,14],"right_children":[2,4,6,8,10,12,14,16,18,20,22,24,26,28,30,-1,-1,-1,-1,-1,-1,-1,-1,-1,-1,-1,-1,-1,-1,-1,-1],"split_conditions":[-1.984798E0,5.82178E-2,1.8147947E0,9.026372E-1,4.1228566E0,1.7052994E0,7.781779E-1,3.1238267E-1,1.6410503E0,2.5883135E-1,7.823252E0,1E0,8.73267E-2,2.9885137E-1,1.9580587E0,1.4423554E0,1.2057879E1,2.4422405E1,3.8434807E1,-1.1385278E-1,2.1369529E0,4.497043E0,7.525149E0,-1.4178425E-1,-5.105768E-1,4.6630025E0,-2.466277E-2,1.1282786E1,5.247965E0,2.2594297E0,-6.3487194E-2],"split_indices":[52,0,1,1,1,18,0,1,1,1,1,64,0,0,0,0,0,0,0,0,0,0,0,0,0,0,0,0,0,0,0],"split_type":[0,0,0,0,0,0,0,0,0,0,0,0,0,0,0,0,0,0,0,0,0,0,0,0,0,0,0,0,0,0,0],"sum_hessian":[1.5722E4,9.17E2,1.4805E4,9.4E1,8.23E2,1.4241E4,5.64E2,6.3E1,3.1E1,7.39E2,8.4E1,1.3887E4,3.54E2,4.4E1,5.2E2,4.7E1,1.6E1,2.7E1,4E0,3.58E2,3.81E2,4.3E1,4.1E1,8.652E3,5.235E3,1.01E2,2.53E2,1.9E1,2.5E1,3.19E2,2.01E2],"tree_param":{"num_deleted":"0","num_feature":"78","num_nodes":"31","size_leaf_vector":"1"}},{"base_weights":[1.9215686E-2,-5.8398336E-1,4.732543E0,-7.8360015E-1,2.193343E0,6.90921E1,3.2922478E0,-1.2502755E-1,-1.1622363E0,4.701247E-1,8.646465E0,7.995218E1,1.5100442E1,6.5696564E0,-2.5049245E-1,-2.6219398E-1,2.9142785E0,-3.0596977E-1,-6.0378885E-1,-5.23425E-1,4.040489E-1,9.317753E-1,8.352562E0,1.5460421E1,2.6085127E1,1.5000285E0,4.518309E0,-1.974095E-1,4.0899777E0],"categories":[],"categories_nodes":[],"categories_segments":[],"categories_sizes":[],"default_left":[0,0,0,0,0,0,0,0,0,0,0,0,0,0,0,0,0,0,0,0,0,0,0,0,0,0,0,0,0],"id":3,"left_children":[1,3,5,7,9,11,13,15,17,19,21,23,-1,25,27,-1,-1,-1,-1,-1,-1,-1,-1,-1,-1,-1,-1,-1,-1],"loss_changes":[4.4704426E4,7.7300693E3,1.6514353E5,3.2430234E3,1.0393265E4,3.9201406E3,2.027446E4,3.5004625E4,9.975166E2,1.4373335E3,2.0865074E4,9.309375E1,0E0,1.2012949E4,4.761836E3,0E0,0E0,0E0,0E0,0E0,0E0,0E0,0E0,0E0,0E0,0E0,0E0,0E0,0E0],"parents":[2147483647,0,0,1,1,2,2,3,3,4,4,5,5,6,6,7,7,8,8,9,9,10,10,11,11,13,13,14,14],"right_children":[2,4,6,8,10,12,14,16,18,20,22,24,-1,26,28,-1,-1,-1,-1,-1,-1,-1,-1,-1,-1,-1,-1,-1,-1],"split_conditions":[9.306029E-1,1.7655486E0,8.5386105E-2,3.0273256E-1,1E0,7.230678E-1,1.560237E0,1.9218972E-1,1.9580587E0,8.865718E-2,3.5879382E-1,1.2150198E0,1.5100442E1,3.3808732E0,7.823252E0,-2.6219398E-1,2.9142785E0,-3.0596977E-1,-6.0378885E-1,-5.23425E-1,4.040489E-1,9.317753E-1,8.352562E0,1.5460421E1,2.6085127E1,1.5000285E0,4.518309E0,-1.974095E-1,4.0899777E0],"split_indices":[1,51,0,0,67,5,0,1,0,1,1,1,0,1,1,0,0,0,0,0,0,0,0,0,0,0,0,0,0],"split_type":[0,0,0,0,0,0,0,0,0,0,0,0,0,0,0,0,0,0,0,0,0,0,0,0,0,0,0,0,0],"sum_hessian":[1.5722E4,1.3939E4,1.783E3,1.3005E4,9.34E2,3.8E1,1.745E3,4.748E3,8.257E3,7.38E2,1.96E2,2.2E1,1.6E1,9.06E2,8.39E2,4.413E3,3.35E2,7.075E3,1.182E3,2.09E2,5.29E2,1.53E2,4.3E1,6E0,1.6E1,7.66E2,1.4E2,8.16E2,2.3E1],"tree_param":{"num_deleted":"0","num_feature":"78","num_nodes":"29","size_leaf_vector":"1"}},{"base_weights":[1.8377721E-2,-4.0107194E-1,3.4245708E0,-6.2694985E-1,1.0995336E0,4.1773865E1,2.088228E0,-9.619272E-1,-1.7813227E-1,-1.2785971E-1,1.7037882E1,5.7772854E1,3.0391907E1,1.3555952E0,1.111514E1,-2.821463E-1,-1.5920043E0,1.0796695E0,-2.0447636E-1,-3.057827E-1,9.251978E-1,6.719711E0,9.9831635E-1,1.5093222E1,2.7225018E1,1.0679618E1,7.493273E0,3.2476432E0,2.2013728E-1,6.7390313E0,2.8444352E0],"categories":[],"categories_nodes":[],"categories_segments":[],"categories_sizes":[],"default_left":[0,0,0,0,0,0,0,0,0,0,0,0,0,0,0,0,0,0,0,0,0,0,0,0,0,0,0,0,0,0,0],"id":4,"left_children":[1,3,5,7,9,11,13,15,17,19,21,23,25,27,29,-1,-1,-1,-1,-1,-1,-1,-1,-1,-1,-1,-1,-1,-1,-1,-1],"loss_changes":[2.246524E4,4.7460396E3,8.826399E4,1.8293618E3,3.5840902E4,8.805961E3,1.100949E4,6.4407666E2,9.894404E3,4.876133E3,9.554254E3,1.0941328E3,1.2572266E2,9.077877E3,2.104463E3,0E0,0E0,0E0,0E0,0E0,0E0,0E0,0E0,0E0,0E0,0E0,0E0,0E0,0E0,0E0,0E0],"parents":[2147483647,0,0,1,1,2,2,3,3,4,4,5,5,6,6,7,7,8,8,9,9,10,10,11,11,12,12,13,13,14,14],"right_children":[2,4,6,8,10,12,14,16,18,20,22,24,26,28,30,-1,-1,-1,-1,-1,-1,-1,-1,-1,-1,-1,-1,-1,-1,-1,-1],"split_conditions":[9.6570873E-1,1E0,2.4257417E-1,1.951648E-1,2.6388898E-1,7.230678E-1,5.2147083E0,1.8408558E0,4.7156417E-1,7.110425E-2,9.508907E-2,1.8147947E0,7.568314E-2,6.714453E-1,1.121663E0,-2.821463E-1,-1.5920043E0,1.0796695E0,-2.0447636E-1,-3.057827E-1,9.251978E-1,6.719711E0,9.9831635E-1,1.5093222E1,2.7225018E1,1.0679618E1,7.493273E0,3.2476432E0,2.2013728E-1,6.7390313E0,2.8444352E0],"split_indices":[1,67,0,1,1,5,1,18,0,1,0,1,0,0,0,0,0,0,0,0,0,0,0,0,0,0,0,0,0,0,0],"split_type":[0,0,0,0,0,0,0,0,0,0,0,0,0,0,0,0,0,0,0,0,0,0,0,0,0,0,0,0,0,0,0],"sum_hessian":[1.5722E4,1.3999E4,1.723E3,1.2168E4,1.831E3,5.7E1,1.666E3,6.967E3,5.201E3,1.701E3,1.3E2,2.2E1,3.5E1,1.542E3,1.24E2,6.934E3,3.3E1,6.11E2,4.59E3,1.332E3,3.69E2,9.3E1,3.7E1,2E1,2E0,1.5E1,2E1,9.4E1,1.448E3,1.4E1,1.1E2],"tree_param":{"num_deleted":"0","num_feature":"78","num_nodes":"31","size_leaf_vector":"1"}},{"base_weights":[1.8008506E-2,-2.5683746E-1,2.7973392E0,5.26797E-1,-5.900907E-1,2.9424553E1,1.7192392E0,-2.0610543E-2,1.4408097E1,-8.3591145E-1,-1.652033E-1,4.298032E1,2.0450392E1,1.2633543E0,1.0938291E1,-1.825106E-1,1.1771741E0,5.930059E0,2.6004832E0,-2.4144751E-1,-8.504327E-1,5.1394236E-1,-2.2257514E-1,1.0520913E1,2.03499E1,5.0190406E0,9.8824215E0,1.2793925E0,-7.4751735E-2,7.4404473E0,2.640204E0],"categories":[],"categories_nodes":[],"categories_segments":[],"categories_sizes":[],"default_left":[0,0,0,0,0,0,0,0,0,0,0,0,0,0,0,0,0,0,0,0,0,0,0,0,0,0,0,0,0,0,0],"id":5,"left_children":[1,3,5,7,9,11,13,15,17,19,21,23,25,27,29,-1,-1,-1,-1,-1,-1,-1,-1,-1,-1,-1,-1,-1,-1,-1,-1],"loss_changes":[1.2011327E4,3.7370876E3,4.056953E4,3.2446865E4,1.0485012E3,5.811875E3,5.7062275E3,9.5288E3,4.811508E3,3.9291406E2,3.9887776E3,1.7497148E3,1.0753291E3,5.893368E3,1.6783145E3,0E0,0E0,0E0,0E0,0E0,0E0,0E0,0E0,0E0,0E0,0E0,0E0,0E0,0E0,0E0,0E0],"parents":[2147483647,0,0,1,1,2,2,3,3,4,4,5,5,6,6,7,7,8,8,9,9,10,10,11,11,12,12,13,13,14,14],"right_children":[2,4,6,8,10,12,14,16,18,20,22,24,26,28,30,-1,-1,-1,-1,-1,-1,-1,-1,-1,-1,-1,-1,-1,-1,-1,-1],"split_conditions":[1.1352879E0,2.1734644E-1,2.7750483E-1,3.290431E-1,2.9869735E-1,6.8724525E-1,7.823252E0,1.0115249E-1,1.1449501E-1,1.7052994E0,9.4700956E-1,1.6410503E0,2.9563303E0,1.2439203E0,1.2613857E0,-1.825106E-1,1.1771741E0,5.930059E0,2.6004832E0,-2.4144751E-1,-8.504327E-1,5.1394236E-1,-2.2257514E-1,1.0520913E1,2.03499E1,5.0190406E0,9.8824215E0,1.2793925E0,-7.4751735E-2,7.4404473E0,2.640204E0],"split_indices":[1,0,0,1,1,3,1,1,0,18,0,1,1,0,0,0,0,0,0,0,0,0,0,0,0,0,0,0,0,0,0],"split_type":[0,0,0,0,0,0,0,0,0,0,0,0,0,0,0,0,0,0,0,0,0,0,0,0,0,0,0,0,0,0,0],"sum_hessian":[1.5722E4,1.4308E4,1.414E3,4.269E3,1.0039E4,5.4E1,1.36E3,4.108E3,1.61E2,6.359E3,3.68E3,2E1,3.4E1,1.297E3,6.3E1,3.576E3,5.32E2,8.2E1,7.9E1,6.263E3,9.6E1,8.64E2,2.816E3,1.7E1,3E0,2.8E1,6E0,4.34E2,8.63E2,7E0,5.6E1],"tree_param":{"num_deleted":"0","num_feature":"78","num_nodes":"31","size_leaf_vector":"1"}},{"base_weights":[1.6789772E-2,-9.22818E-2,3.8776827E0,1.6115913E0,-2.0919265E-1,2.8817936E1,3.09649E0,3.2806748E-1,2.1685566E1,-1.4831852E-2,-8.0100554E-1,1.7857525E1,6.3895755E0,4.2462487E0,-1.7678854E0,-1.3453913E-1,2.1327136E0,4.827996E0,7.8652472E0,-9.4999164E-2,6.16654E-1,-1.890681E-1,-5.4977596E-1,7.2357583E-1,1.9417328E0,1.1363959E-2,-1.0591595E0],"categories":[],"categories_nodes":[],"categories_segments":[],"categories_sizes":[],"default_left":[0,0,0,0,0,0,0,0,0,0,0,0,0,0,0,0,0,0,0,0,0,0,0,0,0,0,0],"id":6,"left_children":[1,3,5,7,9,11,13,15,17,19,21,-1,-1,23,25,-1,-1,-1,-1,-1,-1,-1,-1,-1,-1,-1,-1],"loss_changes":[6.6215283E3,3.0465227E3,8.327486E3,2.5294533E4,1.6461143E3,1.7338701E3,2.3565073E3,4.86864E3,1.0733496E3,6.733285E3,6.2214136E2,0E0,0E0,1.3728032E3,2.5795068E2,0E0,0E0,0E0,0E0,0E0,0E0,0E0,0E0,0E0,0E0,0E0,0E0],"parents":[2147483647,0,0,1,1,2,2,3,3,4,4,5,5,6,6,7,7,8,8,9,9,10,10,13,13,14,14],"right_children":[2,4,6,8,10,12,14,16,18,20,22,-1,-1,24,26,-1,-1,-1,-1,-1,-1,-1,-1,-1,-1,-1,-1],"split_conditions":[2.4954913E0,6.986136E-2,3.4348503E-1,5.1141506E-1,1.3040787E0,5.433661E-2,2.4315634E0,1.3358079E-1,0E0,4.2841053E-1,3.2058601E0,1.7857525E1,6.3895755E0,4.1228566E0,3.6269689E0,-1.3453913E-1,2.1327136E0,4.827996E0,7.8652472E0,-9.4999164E-2,6.16654E-1,-1.890681E-1,-5.4977596E-1,7.2357583E-1,1.9417328E0,1.1363959E-2,-1.0591595E0],"split_indices":[1,0,0,1,0,0,0,1,13,1,0,0,0,1,0,0,0,0,0,0,0,0,0,0,0,0,0],"split_type":[0,0,0,0,0,0,0,0,0,0,0,0,0,0,0,0,0,0,0,0,0,0,0,0,0,0,0],"sum_hessian":[1.5722E4,1.5291E4,4.31E2,9.81E2,1.431E4,1.2E1,4.19E2,9.23E2,5.8E1,1.0773E4,3.537E3,1E0,1.1E1,3.39E2,8E1,8.29E2,9.4E1,2.8E1,3E1,9.403E3,1.37E3,3.036E3,5.01E2,1.87E2,1.52E2,4E1,4E1],"tree_param":{"num_deleted":"0","num_feature":"78","num_nodes":"27","size_leaf_vector":"1"}},{"base_weights":[1.4318444E-2,-1.9202475E-1,1.1592981E0,3.0693033E-1,-3.7343866E-1,1.6186844E1,5.873087E-1,-5.6337863E-1,3.0245228E0,-3.3487182E0,-3.4791264E-1,1.9461082E1,9.538692E0,2.6763895E0,-5.627116E-2,-1.4903568E-1,-2.4808397E0,6.7915744E-1,1.904337E0,-6.7922145E-1,-1.6195245E0,-1.7270574E-1,-4.7589377E-2,5.2358856E0,1.5137754E1,2.3954985E0,5.4089713E0,5.9839934E-1,1.9670864E0,-1.1285617E-1,8.9897895E-1],"categories":[],"categories_nodes":[],"categories_segments":[],"categories_sizes":[],"default_left":[0,0,0,0,0,0,0,0,0,0,0,0,0,0,0,0,0,0,0,0,0,0,0,0,0,0,0,0,0,0,0],"id":7,"left_children":[1,3,5,7,9,11,13,15,17,19,21,23,25,27,29,-1,-1,-1,-1,-1,-1,-1,-1,-1,-1,-1,-1,-1,-1,-1,-1],"loss_changes":[3.714919E3,1.2060778E3,2.0628521E4,8.405064E3,7.409137E2,1.729918E3,3.1113013E3,1.3773497E3,2.1646719E3,1.7230286E2,4.176327E2,2.7297363E3,2.6500732E2,1.4287068E3,1.7298179E3,0E0,0E0,0E0,0E0,0E0,0E0,0E0,0E0,0E0,0E0,0E0,0E0,0E0,0E0,0E0,0E0],"parents":[2147483647,0,0,1,1,2,2,3,3,4,4,5,5,6,6,7,7,8,8,9,9,10,10,11,11,12,12,13,13,14,14],"right_children":[2,4,6,8,10,12,14,16,18,20,22,24,26,28,30,-1,-1,-1,-1,-1,-1,-1,-1,-1,-1,-1,-1,-1,-1,-1,-1],"split_conditions":[7.068774E-1,1.746534E-1,2.3869298E-1,5.7121404E-2,-3.171293E0,8.73267E-2,1.059564E0,1.6708522E0,2.3384075E-1,5.569503E-1,1.5767887E-1,1.8147947E0,2.9563303E0,2.1414576E0,4.1228566E0,-1.4903568E-1,-2.4808397E0,6.7915744E-1,1.904337E0,-6.7922145E-1,-1.6195245E0,-1.7270574E-1,-4.7589377E-2,5.2358856E0,1.5137754E1,2.3954985E0,5.4089713E0,5.9839934E-1,1.9670864E0,-1.1285617E-1,8.9897895E-1],"split_indices":[1,0,0,1,55,0,0,18,1,0,1,1,1,1,1,0,0,0,0,0,0,0,0,0,0,0,0,0,0,0,0],"split_type":[0,0,0,0,0,0,0,0,0,0,0,0,0,0,0,0,0,0,0,0,0,0,0,0,0,0,0,0,0,0,0],"sum_hessian":[1.5722E4,1.3322E4,2.4E3,3.552E3,9.77E3,8.7E1,2.313E3,2.691E3,8.61E2,8.2E1,9.688E3,5.7E1,3E1,5.44E2,1.769E3,2.669E3,2.2E1,7.02E2,1.59E2,5.5E1,2.7E1,4.396E3,5.292E3,5.5E1,2E0,2.7E1,3E0,4.64E2,8E1,1.602E3,1.67E2],"tree_param":{"num_deleted":"0","num_feature":"78","num_nodes":"31","size_leaf_vector":"1"}},{"base_weights":[1.1865079E-2,-6.315024E-2,1.8485662E0,1.6639647E-1,-4.5643553E-1,3.5351418E1,1.6272959E0,-3.5424627E-2,3.6672845E0,-3.1901107E0,-4.0738478E-1,1.2110203E1,3.0455487E0,1.0316819E1,1.3775481E0,-9.299898E-2,2.7508777E-1,3.4891217E0,7.1465397E-1,-1.0639871E0,-2.3931031E-1,-8.339902E-2,-2.869285E-1,2.2104595E0,5.4173374E0,5.7076246E-1,-6.286626E-1],"categories":[],"categories_nodes":[],"categories_segments":[],"categories_sizes":[],"default_left":[0,0,0,0,0,0,0,0,0,0,0,0,0,0,0,0,0,0,0,0,0,0,0,0,0,0,0],"id":8,"left_children":[1,3,5,7,9,11,13,15,17,19,21,-1,-1,23,25,-1,-1,-1,-1,-1,-1,-1,-1,-1,-1,-1,-1],"loss_changes":[2.166443E3,1.3638959E3,4.516409E3,6.740646E3,7.4530676E2,9.5793945E1,1.3182845E3,2.3592566E3,5.293685E3,8.075757E1,3.8839227E2,0E0,0E0,2.5497498E2,1.0943499E3,0E0,0E0,0E0,0E0,0E0,0E0,0E0,0E0,0E0,0E0,0E0,0E0],"parents":[2147483647,0,0,1,1,2,2,3,3,4,4,5,5,6,6,7,7,8,8,9,9,10,10,13,13,14,14],"right_children":[2,4,6,8,10,12,14,16,18,20,22,-1,-1,24,26,-1,-1,-1,-1,-1,-1,-1,-1,-1,-1,-1,-1],"split_conditions":[2.0111494E0,8.73267E-1,2.0764348E-1,5.3105056E-1,-1.984798E0,5.433661E-2,4.8320773E-1,1.3358079E-1,8.73267E-2,1.8147947E0,2.3772268E0,1.2110203E1,3.0455487E0,3.3808732E0,2.9594047E0,-9.299898E-2,2.7508777E-1,3.4891217E0,7.1465397E-1,-1.0639871E0,-2.3931031E-1,-8.339902E-2,-2.869285E-1,2.2104595E0,5.4173374E0,5.7076246E-1,-6.286626E-1],"split_indices":[1,0,0,1,52,0,0,1,0,1,0,0,0,1,0,0,0,0,0,0,0,0,0,0,0,0,0],"split_type":[0,0,0,0,0,0,0,0,0,0,0,0,0,0,0,0,0,0,0,0,0,0,0,0,0,0,0],"sum_hessian":[1.5722E4,1.5106E4,6.16E2,9.539E3,5.567E3,3E0,6.13E2,9.02E3,5.19E2,9.7E1,5.47E3,2E0,1E0,1.6E1,5.97E2,7.002E3,2.018E3,7.1E1,4.48E2,8.4E1,1.3E1,4.428E3,1.042E3,1.3E1,3E0,5.19E2,7.8E1],"tree_param":{"num_deleted":"0","num_feature":"78","num_nodes":"27","size_leaf_vector":"1"}},{"base_weights":[9.923434E-3,-8.979742E-3,4.635139E0,3.63871E-1,-1.7920996E-1,6.585749E0,-4.3663177E0,1.0218612E-1,6.3680835E0,-1.4660822E-1,-1.5709473E0,1.949263E1,5.421484E0,1.5439631E0,-5.70277E0,-1.4035629E-1,3.4707704E-1,4.123454E0,1.6081004E0,-6.981182E-2,1.8038064E-1,-3.6891335E-1,-6.997709E-1,7.741752E0,8.294964E-2,3.5012667E0,1.0078733E0,-5.526083E-1,1.2473917E0,-2.2774425E0,-6.887314E-1],"categories":[],"categories_nodes":[],"categories_segments":[],"categories_sizes":[],"default_left":[0,0,0,0,0,0,0,0,0,0,0,0,0,0,0,0,0,0,0,0,0,0,0,0,0,0,0,0,0,0,0],"id":9,"left_children":[1,3,5,7,9,11,13,15,17,19,21,23,25,27,29,-1,-1,-1,-1,-1,-1,-1,-1,-1,-1,-1,-1,-1,-1,-1,-1],"loss_changes":[1.3747233E3,9.940128E2,1.1524889E3,7.7124287E3,4.876209E2,6.9075366E2,1.0359056E2,2.829389E3,1.4502783E3,6.766919E2,6.106537E1,4.781267E2,6.050751E2,3.4212135E1,4.691986E1,0E0,0E0,0E0,0E0,0E0,0E0,0E0,0E0,0E0,0E0,0E0,0E0,0E0,0E0,0E0,0E0],"parents":[2147483647,0,0,1,1,2,2,3,3,4,4,5,5,6,6,7,7,8,8,9,9,10,10,11,11,12,12,13,13,14,14],"right_children":[2,4,6,8,10,12,14,16,18,20,22,24,26,28,30,-1,-1,-1,-1,-1,-1,-1,-1,-1,-1,-1,-1,-1,-1,-1,-1],"split_conditions":[7.823252E0,2.619801E-1,2.1488522E-3,3.897346E-1,4.0830083E0,1.059564E0,1.4593261E0,4.0460996E-2,1.7336534E-1,1.2150198E0,1.4140522E0,6.3268435E-1,1.6035722E0,1.3487123E0,1.7174251E0,-1.4035629E-1,3.4707704E-1,4.123454E0,1.6081004E0,-6.981182E-2,1.8038064E-1,-3.6891335E-1,-6.997709E-1,7.741752E0,8.294964E-2,3.5012667E0,1.0078733E0,-5.526083E-1,1.2473917E0,-2.2774425E0,-6.887314E-1],"split_indices":[1,0,13,1,0,0,0,1,6,1,1,5,3,0,0,0,0,0,0,0,0,0,0,0,0,0,0,0,0,0,0],"split_type":[0,0,0,0,0,0,0,0,0,0,0,0,0,0,0,0,0,0,0,0,0,0,0,0,0,0,0,0,0,0,0],"sum_hessian":[1.5722E4,1.5659E4,6.3E1,4.908E3,1.0751E4,5.2E1,1.1E1,4.704E3,2.04E2,1.0506E4,2.45E2,3E0,4.9E1,2E0,9E0,3.054E3,1.65E3,2.3E1,1.81E2,9.422E3,1.084E3,1.71E2,7.4E1,2E0,1E0,1.1E1,3.8E1,1E0,1E0,5E0,4E0],"tree_param":{"num_deleted":"0","num_feature":"78","num_nodes":"31","size_leaf_vector":"1"}},{"base_weights":[7.903139E-3,-3.2779336E-2,1.2569048E0,4.4638285E-1,-1.350153E-1,1.0850487E1,1.1133095E0,3.180147E-3,3.759173E0,-1.4457233E0,-8.35655E-2,3.8222427E0,3.564072E-1,3.1739462E-2,-2.0476232E0,3.367712E0,9.568811E-1,-3.012687E-1,-6.6242033E-1,-7.217387E-2,4.6293113E-2,9.6749043E-1,4.0315266E0,1.0907549E-3,6.970483E-1],"categories":[],"categories_nodes":[],"categories_segments":[],"categories_sizes":[],"default_left":[0,0,0,0,0,0,0,0,0,0,0,0,0,0,0,0,0,0,0,0,0,0,0,0,0],"id":10,"left_children":[1,3,5,7,9,-1,11,13,15,17,19,21,23,-1,-1,-1,-1,-1,-1,-1,-1,-1,-1,-1,-1],"loss_changes":[7.989658E2,7.460436E2,2.4462363E3,3.931928E3,8.4626404E2,0E0,1.0135847E3,1.6565627E3,1.3080503E3,1.5731708E2,4.5114868E2,5.769597E2,2.6923712E2,0E0,0E0,0E0,0E0,0E0,0E0,0E0,0E0,0E0,0E0,0E0,0E0],"parents":[2147483647,0,0,1,1,2,2,3,3,4,4,6,6,7,7,8,8,9,9,10,10,11,11,12,12],"right_children":[2,4,6,8,10,-1,12,14,16,18,20,22,24,-1,-1,-1,-1,-1,-1,-1,-1,-1,-1,-1,-1],"split_conditions":[2.2919965E0,1.3196035E-1,5.433661E-2,1.24953076E-1,-1.984798E0,1.0850487E1,1.164356E0,1.6708522E0,4.4633646E-2,-1.4876729E-1,2.6775658E-1,7.823252E0,7.823252E0,3.1739462E-2,-2.0476232E0,3.367712E0,9.568811E-1,-3.012687E-1,-6.6242033E-1,-7.217387E-2,4.6293113E-2,9.6749043E-1,4.0315266E0,1.0907549E-3,6.970483E-1],"split_indices":[1,0,0,1,52,0,0,18,0,17,1,1,1,0,0,0,0,0,0,0,0,0,0,0,0],"split_type":[0,0,0,0,0,0,0,0,0,0,0,0,0,0,0,0,0,0,0,0,0,0,0,0,0],"sum_hessian":[1.5722E4,1.5227E4,4.95E2,2.677E3,1.255E4,1E0,4.94E2,2.362E3,3.15E2,4.73E2,1.2077E4,1.07E2,3.87E2,2.328E3,3.4E1,2.1E1,2.94E2,3.01E2,1.72E2,7.275E3,4.802E3,1.02E2,5E0,3.29E2,5.8E1],"tree_param":{"num_deleted":"0","num_feature":"78","num_nodes":"25","size_leaf_vector":"1"}},{"base_weights":[6.6685267E-3,7.088334E-2,-5.359198E-1,-3.294791E-2,9.683555E-1,-4.5704263E-1,-1.4950947E0,-7.223215E-1,3.906105E-2,5.481076E0,4.7725564E-1,-4.4754812E-1,-2.8082974E0,-7.2849977E-1,-1.897554E0,-4.166737E-1,-8.082343E-2,-5.3495495E-4,2.5793982E-1,4.4936967E0,1.4646219E0,1.0828818E-1,8.8464427E-1,-1.4167234E-1,1.611011E-1,-1.0311896E0,5.050621E-2,-2.759813E-1,-1.7734708E-1,-5.0163865E-1,-8.168776E-1],"categories":[],"categories_nodes":[],"categories_segments":[],"categories_sizes":[],"default_left":[0,0,0,0,0,0,0,0,0,0,0,0,0,0,0,0,0,0,0,0,0,0,0,0,0,0,0,0,0,0,0],"id":11,"left_children":[1,3,5,7,9,11,13,15,17,19,21,23,25,27,29,-1,-1,-1,-1,-1,-1,-1,-1,-1,-1,-1,-1,-1,-1,-1,-1],"loss_changes":[5.47862E2,1.3102222E3,1.252099E2,6.2565466E2,3.2285981E3,3.3099792E1,3.7491577E1,3.5949738E2,3.8255948E2,7.40438E2,3.7719366E2,3.7547485E1,1.1812588E1,6.3934135E-1,1.0703827E1,0E0,0E0,0E0,0E0,0E0,0E0,0E0,0E0,0E0,0E0,0E0,0E0,0E0,0E0,0E0,0E0],"parents":[2147483647,0,0,1,1,2,2,3,3,4,4,5,5,6,6,7,7,8,8,9,9,10,10,11,11,12,12,13,13,14,14],"right_children":[2,4,6,8,10,12,14,16,18,20,22,24,26,28,30,-1,-1,-1,-1,-1,-1,-1,-1,-1,-1,-1,-1,-1,-1,-1,-1],"split_conditions":[2.0220983E0,8.059473E-1,4.9368696E0,2.1237254E0,4.8320773E-1,7.823252E0,9.6570873E-1,-1.0479335E0,2.326042E0,1.7336534E-1,7.823252E0,4.1228566E0,3.510648E0,1E0,2.7177293E0,-4.166737E-1,-8.082343E-2,-5.3495495E-4,2.5793982E-1,4.4936967E0,1.4646219E0,1.0828818E-1,8.8464427E-1,-1.4167234E-1,1.611011E-1,-1.0311896E0,5.050621E-2,-2.759813E-1,-1.7734708E-1,-5.0163865E-1,-8.168776E-1],"split_indices":[0,1,0,6,0,1,1,62,42,6,1,1,6,64,1,0,0,0,0,0,0,0,0,0,0,0,0,0,0,0,0],"split_type":[0,0,0,0,0,0,0,0,0,0,0,0,0,0,0,0,0,0,0,0,0,0,0,0,0,0,0,0,0,0,0],"sum_hessian":[1.5722E4,1.4059E4,1.663E3,1.2602E4,1.457E3,1.538E3,1.25E2,1.191E3,1.1411E4,1.42E2,1.315E3,1.533E3,5E0,4.4E1,8.1E1,4.81E2,7.1E2,1.0871E4,5.4E2,7E0,1.35E2,1.257E3,5.8E1,1.496E3,3.7E1,4E0,1E0,1.6E1,2.8E1,6.6E1,1.5E1],"tree_param":{"num_deleted":"0","num_feature":"78","num_nodes":"31","size_leaf_vector":"1"}},{"base_weights":[4.9210424E-3,-4.514778E-1,6.998786E-2,-3.812514E0,-3.9022896E-1,4.2005787E0,2.6614554E-2,-4.5771065E0,-5.184637E-1,-3.557158E-1,-4.4923162E0,3.7003825E0,7.8928823E0,9.55883E-1,-7.11855E-2,-1.0266368E0,-1.7902111E0,-5.8392104E-2,-1.5584233E-1,-2.2414184E0,1.21580794E-1,2.6480691E0,8.920721E-1,-4.1195557E-2,4.3253043E-1,-2.8159112E-2,3.1004256E-1],"categories":[],"categories_nodes":[],"categories_segments":[],"categories_sizes":[],"default_left":[0,0,0,0,0,0,0,0,0,0,0,0,0,0,0,0,0,0,0,0,0,0,0,0,0,0,0],"id":12,"left_children":[1,3,5,7,9,11,13,15,-1,17,19,21,-1,23,25,-1,-1,-1,-1,-1,-1,-1,-1,-1,-1,-1,-1],"loss_changes":[4.669484E2,4.0240863E2,2.4654521E3,4.7867218E1,2.7136035E2,1.4840603E3,1.2378878E3,1.9722229E1,0E0,5.035907E1,2.3647263E2,4.9911804E2,0E0,6.89126E2,3.0883438E2,0E0,0E0,0E0,0E0,0E0,0E0,0E0,0E0,0E0,0E0,0E0,0E0],"parents":[2147483647,0,0,1,1,2,2,3,3,4,4,5,5,6,6,7,7,9,9,10,10,11,11,13,13,14,14],"right_children":[2,4,6,8,10,12,14,16,-1,18,20,22,-1,24,26,-1,-1,-1,-1,-1,-1,-1,-1,-1,-1,-1,-1],"split_conditions":[2.5288122E-2,-1.984798E0,5.433661E-2,8.150492E-2,1.6708522E0,1.8147947E0,1.6300984E-1,5.0455425E-2,-5.184637E-1,1E0,7.568314E-2,1.0846017E-1,7.8928823E0,2.210408E0,3.3808732E0,-1.0266368E0,-1.7902111E0,-5.8392104E-2,-1.5584233E-1,-2.2414184E0,1.21580794E-1,2.6480691E0,8.920721E-1,-4.1195557E-2,4.3253043E-1,-2.8159112E-2,3.1004256E-1],"split_indices":[1,52,0,0,18,1,0,0,0,65,0,5,0,6,1,0,0,0,0,0,0,0,0,0,0,0,0],"split_type":[0,0,0,0,0,0,0,0,0,0,0,0,0,0,0,0,0,0,0,0,0,0,0,0,0,0,0],"sum_hessian":[1.5722E4,1.961E3,1.3761E4,3.4E1,1.927E3,1.42E2,1.3619E4,2.4E1,1E1,1.912E3,1.5E1,1.4E2,2E0,1.296E3,1.2323E4,1.5E1,9E0,9.65E2,9.47E2,9E0,6E0,1.6E1,1.24E2,3.99E2,8.97E2,1.2076E4,2.47E2],"tree_param":{"num_deleted":"0","num_feature":"78","num_nodes":"27","size_leaf_vector":"1"}},{"base_weights":[3.8541239E-3,1.464971E-1,-1.4555004E-1,1.915616E-2,2.2954037E0,-1.6392669E-1,9.7556186E-1,-1.6580851E-1,6.199703E-1,1.6730621E0,4.800935E0,-1.4428571E-1,-1.181227E0,3.6288807E0,-6.7123964E-2,-4.1013733E-2,-9.297157E-1,-1.6452076E-1,2.6990733E-1,-6.4496815E-2,7.526621E-1,2.6423783E0,9.2942387E-1,-2.7895926E-2,-1.337284E-1,-5.377104E-1,2.0550239E-1,3.3006372E0,6.099808E-1,-6.5100735E-1,8.602905E-1],"categories":[],"categories_nodes":[],"categories_segments":[],"categories_sizes":[],"default_left":[0,0,0,0,0,0,0,0,0,0,0,0,0,0,0,0,0,0,0,0,0,0,0,0,0,0,0,0,0,0,0],"id":13,"left_children":[1,3,5,7,9,11,13,15,17,19,21,23,25,27,29,-1,-1,-1,-1,-1,-1,-1,-1,-1,-1,-1,-1,-1,-1,-1,-1],"loss_changes":[3.3510135E2,2.201147E3,1.5838539E2,8.4413055E2,6.936509E2,1.508243E2,3.4329926E2,4.952654E2,5.848441E2,5.7179535E2,5.799885E2,1.1463512E2,1.6432396E2,3.8939883E2,5.616583E2,0E0,0E0,0E0,0E0,0E0,0E0,0E0,0E0,0E0,0E0,0E0,0E0,0E0,0E0,0E0,0E0],"parents":[2147483647,0,0,1,1,2,2,3,3,4,4,5,5,6,6,7,7,8,8,9,9,10,10,11,11,12,12,13,13,14,14],"right_children":[2,4,6,8,10,12,14,16,18,20,22,24,26,28,30,-1,-1,-1,-1,-1,-1,-1,-1,-1,-1,-1,-1,-1,-1,-1,-1],"split_conditions":[6.34574E-1,4.4179836E-1,5.2147083E0,9.787991E-2,1.2150198E0,1.809811E0,6.688377E-1,1.7052994E0,-9.715504E-1,-1.0991496E0,2.1152467E-1,2.4315634E0,1.909997E0,1.059564E0,1E0,-4.1013733E-2,-9.297157E-1,-1.6452076E-1,2.6990733E-1,-6.4496815E-2,7.526621E-1,2.6423783E0,9.2942387E-1,-2.7895926E-2,-1.337284E-1,-5.377104E-1,2.0550239E-1,3.3006372E0,6.099808E-1,-6.5100735E-1,8.602905E-1],"split_indices":[0,1,1,1,1,51,5,18,62,52,0,0,1,0,65,0,0,0,0,0,0,0,0,0,0,0,0,0,0,0,0],"split_type":[0,0,0,0,0,0,0,0,0,0,0,0,0,0,0,0,0,0,0,0,0,0,0,0,0,0,0,0,0,0,0],"sum_hessian":[1.5722E4,8.043E3,7.679E3,7.594E3,4.49E2,7.556E3,1.23E2,5.807E3,1.787E3,3.61E2,8.8E1,7.414E3,1.42E2,3.4E1,8.9E1,5.751E3,5.6E1,3.45E2,1.442E3,1.11E2,2.5E2,2.5E1,6.3E1,6.337E3,1.077E3,1.07E2,3.5E1,5E0,2.9E1,5.2E1,3.7E1],"tree_param":{"num_deleted":"0","num_feature":"78","num_nodes":"31","size_leaf_vector":"1"}},{"base_weights":[3.1444104E-3,-8.6824805E-2,1.764681E-1,-2.0105946E-1,1.1490206E-1,8.181059E-1,7.6049104E-2,-1.4771385E-1,-1.9186355E0,2.3068109E0,2.8744573E-3,-6.0185544E-2,2.8825703E0,-6.928811E-2,2.8068668E-1,-1.1325251E-2,-8.440077E-2,-1.0852793E0,-3.1450242E-1,5.6667346E-1,5.0168E0,1.3766018E-2,-3.5701364E-1,-9.610056E-2,2.0906769E-1,7.3757553E-1,1.6969994E0,-5.3828187E-2,5.549214E-2,1.0464941E0,5.700394E-2],"categories":[],"categories_nodes":[],"categories_segments":[],"categories_sizes":[],"default_left":[0,0,0,0,0,0,0,0,0,0,0,0,0,0,0,0,0,0,0,0,0,0,0,0,0,0,0,0,0,0,0],"id":14,"left_children":[1,3,5,7,9,11,13,15,17,19,21,23,25,27,29,-1,-1,-1,-1,-1,-1,-1,-1,-1,-1,-1,-1,-1,-1,-1,-1],"loss_changes":[2.451966E2,2.3855362E2,3.4613428E2,6.052671E2,9.19103E2,1.3183708E3,1.3822798E2,9.4189285E1,2.9044824E2,1.0648489E3,1.8282152E2,1.00866486E2,2.4132275E2,7.614858E1,5.606717E2,0E0,0E0,0E0,0E0,0E0,0E0,0E0,0E0,0E0,0E0,0E0,0E0,0E0,0E0,0E0,0E0],"parents":[2147483647,0,0,1,1,2,2,3,3,4,4,5,5,6,6,7,7,8,8,9,9,10,10,11,11,12,12,13,13,14,14],"right_children":[2,4,6,8,10,12,14,16,18,20,22,24,26,28,30,-1,-1,-1,-1,-1,-1,-1,-1,-1,-1,-1,-1,-1,-1,-1,-1],"split_conditions":[5.118174E-1,2.85607E-1,9.897026E-2,1.7052994E0,2.0764348E-1,3.0940762E-2,2.4276596E-1,1E0,8.5386105E-2,1.6410503E0,1.787637E0,1.5172873E-2,1.3804339E-1,1E0,2.2510882E-1,-1.1325251E-2,-8.440077E-2,-1.0852793E0,-3.1450242E-1,5.6667346E-1,5.0168E0,1.3766018E-2,-3.5701364E-1,-9.610056E-2,2.0906769E-1,7.3757553E-1,1.6969994E0,-5.3828187E-2,5.549214E-2,1.0464941E0,5.700394E-2],"split_indices":[33,1,0,18,0,1,1,65,0,1,51,1,1,66,0,0,0,0,0,0,0,0,0,0,0,0,0,0,0,0,0],"split_type":[0,0,0,0,0,0,0,0,0,0,0,0,0,0,0,0,0,0,0,0,0,0,0,0,0,0,0,0,0,0,0],"sum_hessian":[1.5722E4,1.035E4,5.372E3,6.608E3,3.742E3,7.26E2,4.646E3,6.41E3,1.98E2,1.81E2,3.561E3,5.1E2,2.16E2,2.717E3,1.929E3,3.517E3,2.893E3,6.6E1,1.32E2,1.77E2,4E0,3.438E3,1.23E2,3.8E2,1.3E2,1.89E2,2.7E1,1.896E3,8.21E2,5.2E1,1.877E3],"tree_param":{"num_deleted":"0","num_feature":"78","num_nodes":"31","size_leaf_vector":"1"}},{"base_weights":[2.6715628E-3,-3.7745756E-1,3.808385E-2,-5.9191316E-1,8.624425E-1,1.2610307E-1,-1.3670194E-1,1.5689807E0,-6.901333E-1,7.243123E0,4.1184413E-1,-6.1503337E-3,7.438642E-1,-1.5330195E-1,1.417916E0,-5.273647E-1,1.2737179E0,-1.0825939E0,-1.6844843E-1,1.2422795E0,6.6704135E0,2.7514374E-1,-5.8761317E-1,6.6569615E-3,-4.2290333E-1,1.3234705E0,1.7328566E-1,-3.602314E-2,-1.9700202E-1,9.4693696E-1,-2.5074154E-1],"categories":[],"categories_nodes":[],"categories_segments":[],"categories_sizes":[],"default_left":[0,0,0,0,0,0,0,0,0,0,0,0,0,0,0,0,0,0,0,0,0,0,0,0,0,0,0,0,0,0,0],"id":15,"left_children":[1,3,5,7,9,11,13,15,17,19,21,23,25,27,29,-1,-1,-1,-1,-1,-1,-1,-1,-1,-1,-1,-1,-1,-1,-1,-1],"loss_changes":[2.1166548E2,3.568212E2,2.2130803E2,2.4367676E2,5.6629156E2,7.816382E2,1.2455387E2,4.5272174E2,4.086975E2,5.125156E2,2.2459561E2,3.135079E2,1.0260808E3,7.966323E1,2.024656E2,0E0,0E0,0E0,0E0,0E0,0E0,0E0,0E0,0E0,0E0,0E0,0E0,0E0,0E0,0E0,0E0],"parents":[2147483647,0,0,1,1,2,2,3,3,4,4,5,5,6,6,7,7,8,8,9,9,10,10,11,11,12,12,13,13,14,14],"right_children":[2,4,6,8,10,12,14,16,18,20,22,24,26,28,30,-1,-1,-1,-1,-1,-1,-1,-1,-1,-1,-1,-1,-1,-1,-1,-1],"split_conditions":[-1.1755564E0,1.5648885E0,1.0382174E0,4.851483E-2,5.220196E-1,2.3949338E-1,5.2147083E0,4.6113633E-2,5.82178E-2,2.2919965E0,1.579643E0,1.7052994E0,1.455445E-1,3.8132658E0,1.9580587E0,-5.273647E-1,1.2737179E0,-1.0825939E0,-1.6844843E-1,1.2422795E0,6.6704135E0,2.7514374E-1,-5.8761317E-1,6.6569615E-3,-4.2290333E-1,1.3234705E0,1.7328566E-1,-3.602314E-2,-1.9700202E-1,9.4693696E-1,-2.5074154E-1],"split_indices":[52,1,0,0,0,1,1,1,0,1,0,18,0,0,0,0,0,0,0,0,0,0,0,0,0,0,0,0,0,0,0],"split_type":[0,0,0,0,0,0,0,0,0,0,0,0,0,0,0,0,0,0,0,0,0,0,0,0,0,0,0,0,0,0,0],"sum_hessian":[1.5722E4,1.339E3,1.4383E4,1.142E3,1.97E2,9.566E3,4.817E3,4.9E1,1.093E3,1.2E1,1.85E2,7.88E3,1.686E3,4.767E3,5E1,2.2E1,2.7E1,4.5E1,1.048E3,1.1E1,1E0,1.53E2,3.2E1,7.725E3,1.55E2,7.2E1,1.614E3,4.473E3,2.94E2,2.8E1,2.2E1],"tree_param":{"num_deleted":"0","num_feature":"78","num_nodes":"31","size_leaf_vector":"1"}},{"base_weights":[2.4195507E-3,-1.7165627E-1,5.5664197E-2,-2.0867708E0,-1.2091579E-1,1.2741436E0,-9.4697885E-3,-3.030462E0,-9.240727E-1,-1.7735995E-2,-2.2682384E-1,1.2142668E0,5.669852E0,3.117997E-1,-7.3547415E-2,-4.6953478E-1,-1.2158636E0,3.6653426E-2,-3.010823E-1,-1.0619268E-3,-3.1089497E-1,-6.194428E-2,-2.8125542E-1,-2.209757E-3,5.861086E-1,8.7452374E-2,2.9586933E0,1.8143625E-3,-5.622915E-2],"categories":[],"categories_nodes":[],"categories_segments":[],"categories_sizes":[],"default_left":[0,0,0,0,0,0,0,0,0,0,0,0,0,0,0,0,0,0,0,0,0,0,0,0,0,0,0,0,0],"id":16,"left_children":[1,3,5,7,9,11,13,15,17,19,21,23,-1,25,27,-1,-1,-1,-1,-1,-1,-1,-1,-1,-1,-1,-1,-1,-1],"loss_changes":[1.4573984E2,3.5763882E2,9.556391E2,1.0143628E2,3.921503E1,6.2187036E2,2.3534361E2,7.156287E1,3.784008E0,2.6299093E1,2.5410812E1,5.5103357E2,0E0,3.6553333E2,8.639542E1,0E0,0E0,0E0,0E0,0E0,0E0,0E0,0E0,0E0,0E0,0E0,0E0,0E0,0E0],"parents":[2147483647,0,0,1,1,2,2,3,3,4,4,5,5,6,6,7,7,8,8,9,9,10,10,11,11,13,13,14,14],"right_children":[2,4,6,8,10,12,14,16,18,20,22,24,-1,26,28,-1,-1,-1,-1,-1,-1,-1,-1,-1,-1,-1,-1,-1,-1],"split_conditions":[5.027874E-2,-1.984798E0,1.2225738E-1,8.5386105E-2,1E0,2.1414576E0,3.822969E-1,5.6277204E-2,8.926729E-2,1.6708522E0,5.0193095E-1,-9.382255E-1,5.669852E0,3.3808732E0,1E0,-4.6953478E-1,-1.2158636E0,3.6653426E-2,-3.010823E-1,-1.0619268E-3,-3.1089497E-1,-6.194428E-2,-2.8125542E-1,-2.209757E-3,5.861086E-1,8.7452374E-2,2.9586933E0,1.8143625E-3,-5.622915E-2],"split_indices":[1,52,0,0,65,1,0,0,0,18,9,62,0,1,65,0,0,0,0,0,0,0,0,0,0,0,0,0,0],"split_type":[0,0,0,0,0,0,0,0,0,0,0,0,0,0,0,0,0,0,0,0,0,0,0,0,0,0,0,0,0],"sum_hessian":[1.5722E4,3.682E3,1.204E4,9.4E1,3.588E3,6.1E2,1.143E4,5.1E1,4.3E1,1.818E3,1.77E3,6.09E2,1E0,1.9E3,9.53E3,2.2E1,2.9E1,3E0,4E1,1.794E3,2.4E1,1.722E3,4.8E1,2.3E2,3.79E2,1.897E3,3E0,5.61E3,3.92E3],"tree_param":{"num_deleted":"0","num_feature":"78","num_nodes":"29","size_leaf_vector":"1"}},{"base_weights":[2.11604E-3,5.0366616E-1,-1.5515948E-2,-1.6849093E-1,2.1187727E0,-5.073323E-1,1.3562752E-2,-9.419688E-1,-1.3634662E-1,1.9263984E0,4.8193727E0,-6.5860915E0,-3.2228822E-1,-5.4243535E-2,1.5876561E-1,-3.0158833E-2,-8.3001393E-1,2.582662E-1,9.2863995E-1,1.4654413E-1,-3.9462125E0,-2.3775439E-1,1.5575144E-1,-1.02675045E-2,-3.2762998E-1,4.141554E-1,1.06917815E-2],"categories":[],"categories_nodes":[],"categories_segments":[],"categories_sizes":[],"default_left":[0,0,0,0,0,0,0,0,0,0,0,0,0,0,0,0,0,0,0,0,0,0,0,0,0,0,0],"id":17,"left_children":[1,3,5,7,9,11,13,-1,15,17,-1,19,21,23,25,-1,-1,-1,-1,-1,-1,-1,-1,-1,-1,-1,-1],"loss_changes":[1.3905142E2,5.8007025E2,2.1724484E2,3.5676075E1,3.9025482E2,9.517403E2,1.4122502E2,0E0,3.505149E1,1.9165735E2,0E0,1.1680615E3,3.264489E2,2.0311377E2,6.868137E2,0E0,0E0,0E0,0E0,0E0,0E0,0E0,0E0,0E0,0E0,0E0,0E0],"parents":[2147483647,0,0,1,1,2,2,3,3,4,4,5,5,6,6,8,8,9,9,11,11,12,12,13,13,14,14],"right_children":[2,4,6,8,10,12,14,-1,16,18,-1,20,22,24,26,-1,-1,-1,-1,-1,-1,-1,-1,-1,-1,-1,-1],"split_conditions":[5.433661E-2,2.0825513E-2,-1.984798E0,-3.171293E0,2.1414576E0,5.82178E-2,3.168453E-1,-9.419688E-1,1.6708522E0,7.162841E-4,4.8193727E0,3.1238267E-1,6.4380586E-1,1.7052994E0,5.8799976E-1,-3.0158833E-2,-8.3001393E-1,2.582662E-1,9.2863995E-1,1.4654413E-1,-3.9462125E0,-2.3775439E-1,1.5575144E-1,-1.02675045E-2,-3.2762998E-1,4.141554E-1,1.06917815E-2],"split_indices":[0,1,52,55,1,0,1,0,18,13,0,1,1,18,0,0,0,0,0,0,0,0,0,0,0,0,0],"split_type":[0,0,0,0,0,0,0,0,0,0,0,0,0,0,0,0,0,0,0,0,0,0,0,0,0,0,0],"sum_hessian":[1.5722E4,5.33E2,1.5189E4,3.77E2,1.56E2,8.47E2,1.4342E4,3E0,3.74E2,1.55E2,1E0,2.4E1,8.23E2,9.777E3,4.565E3,3.7E2,4E0,8.2E1,7.3E1,1.2E1,1.2E1,5.28E2,2.95E2,9.593E3,1.84E2,4.17E2,4.148E3],"tree_param":{"num_deleted":"0","num_feature":"78","num_nodes":"27","size_leaf_vector":"1"}},{"base_weights":[1.5072698E-3,2.0079793E-1,-3.249926E-2,-3.2388385E-2,1.243257E0,-3.8272357E-1,-1.4803365E-2,-1.4587997E0,4.0389538E-2,1.1441656E0,9.219195E0,-6.4108884E-1,2.6948205E-1,-7.742616E-2,8.4719025E-2,-6.4546573E-1,-3.429017E-2,-5.0143152E-2,1.5602013E-1,6.2211436E-1,1.3118204E-1,4.369522E-1,4.1726456E0,-9.7445555E-2,-4.509335E-1,5.2738214E-1,-1.448966E-1,-9.950864E-3,-7.487366E-2,7.957423E-2,-5.4009646E-2],"categories":[],"categories_nodes":[],"categories_segments":[],"categories_sizes":[],"default_left":[0,0,0,0,0,0,0,0,0,0,0,0,0,0,0,0,0,0,0,0,0,0,0,0,0,0,0,0,0,0,0],"id":18,"left_children":[1,3,5,7,9,11,13,15,17,19,21,23,25,27,29,-1,-1,-1,-1,-1,-1,-1,-1,-1,-1,-1,-1,-1,-1,-1,-1],"loss_changes":[1.06564186E2,5.5719604E2,8.323959E1,1.9460121E2,3.2060724E2,1.0902846E2,7.9699875E1,8.451195E1,1.7768251E2,2.717859E2,1.6176208E2,1.2574049E2,2.0693297E2,5.9792427E1,2.3610777E2,0E0,0E0,0E0,0E0,0E0,0E0,0E0,0E0,0E0,0E0,0E0,0E0,0E0,0E0,0E0,0E0],"parents":[2147483647,0,0,1,1,2,2,3,3,4,4,5,5,6,6,7,7,8,8,9,9,10,10,11,11,12,12,13,13,14,14],"right_children":[2,4,6,8,10,12,14,16,18,20,22,24,26,28,30,-1,-1,-1,-1,-1,-1,-1,-1,-1,-1,-1,-1,-1,-1,-1,-1],"split_conditions":[1.164356E-1,7.497185E-2,-1.984798E0,-1.984798E0,1.6410503E0,1.6410503E0,2.85607E-1,8.5386105E-2,1.8147945E-2,2.3312888E-1,5.2396018E-2,5.3172255E-1,1.1934649E0,9.373066E-1,1.8493854E0,-6.4546573E-1,-3.429017E-2,-5.0143152E-2,1.5602013E-1,6.2211436E-1,1.3118204E-1,4.369522E-1,4.1726456E0,-9.7445555E-2,-4.509335E-1,5.2738214E-1,-1.448966E-1,-9.950864E-3,-7.487366E-2,7.957423E-2,-5.4009646E-2],"split_indices":[0,1,52,52,1,1,1,0,1,26,0,0,0,0,0,0,0,0,0,0,0,0,0,0,0,0,0,0,0,0,0],"split_type":[0,0,0,0,0,0,0,0,0,0,0,0,0,0,0,0,0,0,0,0,0,0,0,0,0,0,0,0,0,0,0],"sum_hessian":[1.5722E4,2.291E3,1.3431E4,1.873E3,4.18E2,6.45E2,1.2786E4,9E1,1.783E3,4.14E2,4E0,4.62E2,1.83E2,7.848E3,4.938E3,5.9E1,3.1E1,1.245E3,5.38E2,1.78E2,2.36E2,2E0,2E0,3.39E2,1.23E2,6.1E1,1.22E2,6.244E3,1.604E3,2.936E3,2.002E3],"tree_param":{"num_deleted":"0","num_feature":"78","num_nodes":"31","size_leaf_vector":"1"}},{"base_weights":[1.345351E-3,3.546904E-1,-1.1076479E-2,3.1194657E-1,3.470572E0,-2.9862162E-1,5.9248004E-3,-2.1755664E-1,9.74185E-1,-5.035195E0,-1.5455249E-1,1.4229359E-3,1.1544375E0,-4.6673015E-2,-3.687753E-1,1.3091843E0,2.6017433E-1,7.808619E-2,-2.9830065E0,-1.4277205E-1,1.2608457E-1,2.0842E-2,-2.4377668E-2,-5.7101953E-1,7.2754705E-1],"categories":[],"categories_nodes":[],"categories_segments":[],"categories_sizes":[],"default_left":[0,0,0,0,0,0,0,0,0,0,0,0,0,0,0,0,0,0,0,0,0,0,0,0,0],"id":19,"left_children":[1,3,5,7,-1,9,11,13,15,17,19,21,23,-1,-1,-1,-1,-1,-1,-1,-1,-1,-1,-1,-1],"loss_changes":[6.90152E1,2.5235031E2,7.426013E1,1.8711234E2,0E0,5.7789185E2,7.415811E1,1.8432072E1,8.212599E1,6.52365E2,1.5241383E2,8.039752E1,2.222125E2,0E0,0E0,0E0,0E0,0E0,0E0,0E0,0E0,0E0,0E0,0E0,0E0],"parents":[2147483647,0,0,1,1,2,2,3,3,5,5,6,6,7,7,8,8,9,9,10,10,11,11,12,12],"right_children":[2,4,6,8,-1,10,12,14,16,18,20,22,24,-1,-1,-1,-1,-1,-1,-1,-1,-1,-1,-1,-1],"split_conditions":[5.433661E-2,2.1414576E0,-1.984798E0,8.3302045E-3,3.470572E0,5.82178E-2,5.2147083E0,1.7061807E0,3.615339E-2,3.1238267E-1,6.4380586E-1,1E0,-1.4808014E-1,-4.6673015E-2,-3.687753E-1,1.3091843E0,2.6017433E-1,7.808619E-2,-2.9830065E0,-1.4277205E-1,1.2608457E-1,2.0842E-2,-2.4377668E-2,-5.7101953E-1,7.2754705E-1],"split_indices":[0,1,52,1,0,0,1,51,5,1,1,65,12,0,0,0,0,0,0,0,0,0,0,0,0],"split_type":[0,0,0,0,0,0,0,0,0,0,0,0,0,0,0,0,0,0,0,0,0,0,0,0,0],"sum_hessian":[1.5722E4,5.33E2,1.5189E4,5.32E2,1E0,8.47E2,1.4342E4,2.96E2,2.36E2,2.4E1,8.23E2,1.4287E4,5.5E1,2.8E2,1.6E1,6E0,2.3E2,1.2E1,1.2E1,5.28E2,2.95E2,7.837E3,6.45E3,1.6E1,3.9E1],"tree_param":{"num_deleted":"0","num_feature":"78","num_nodes":"25","size_leaf_vector":"1"}}]},"name":"gbtree"},"learner_model_param":{"base_score":"4.067867E0","boost_from_average":"1","num_class":"0","num_feature":"78","num_target":"1"},"objective":{"name":"reg:squarederror","reg_loss_param":{"scale_pos_weight":"1"}}},"version":[2,1,4]}