{"learner":{"attributes":{"scikit_learn":"{\"_estimator_type\": \"regressor\"}"},"feature_names":[],"feature_types":[],"gradient_booster":{"model":{"gbtree_model_param":{"num_parallel_tree":"1","num_trees":"20"},"iteration_indptr":[0,1,2,3,4,5,6,7,8,9,10,11,12,13,14,15,16,17,18,19,20],"tree_info":[0,0,0,0,0,0,0,0,0,0,0,0,0,0,0,0,0,0,0,0],"trees":[{"base_weights":[1.904609E-7,-1.4170878E0,1.504932E1,4.3362103E0,-2.166962E0,5.372166E1,1.1735631E1,6.511689E-1,1.9688677E1,-2.266196E0,7.457219E0,5.5909294E1,7.8232036E0,-2.3950823E-1,1.3666489E0,3.0348864E0,2.3791609E1,-7.651708E-1,1.6427936E-1,1.9599353E-1,9.183784E0,9.65597E0,1.9008379E1,1.7652932E0,1.2900989E1],"categories":[],"categories_nodes":[],"categories_segments":[],"categories_sizes":[],"default_left":[0,0,0,0,0,0,0,0,0,0,0,0,0,0,0,0,0,0,0,0,0,0,0,0,0],"id":0,"left_children":[1,3,5,7,9,-1,11,13,15,17,19,21,23,-1,-1,-1,-1,-1,-1,-1,-1,-1,-1,-1,-1],"loss_changes":[3.6378253E5,6.726853E4,7.957871E5,1.0170808E5,1.3189852E4,0E0,2.4843244E5,8.215482E3,1.977923E5,1.0926102E4,2.2194148E4,1.8644E4,9.005756E4,0E0,0E0,0E0,0E0,0E0,0E0,0E0,0E0,0E0,0E0,0E0,0E0],"parents":[2147483647,0,0,1,1,2,2,3,3,4,4,6,6,7,7,8,8,9,9,10,10,11,11,12,12],"right_children":[2,4,6,8,10,-1,12,14,16,18,20,22,24,-1,-1,-1,-1,-1,-1,-1,-1,-1,-1,-1,-1],"split_conditions":[1.1791227E0,1.6754363E0,8.538943E-2,1E0,4.08643E0,5.372166E1,3.296429E-1,1.6399218E0,4.8945874E-1,6.1535466E-1,3.064491E-1,1.8546617E0,7.811688E0,-2.3950823E-1,1.3666489E0,3.0348864E0,2.3791609E1,-7.651708E-1,1.6427936E-1,1.9599353E-1,9.183784E0,9.65597E0,1.9008379E1,1.7652932E0,1.2900989E1],"split_indices":[1,6,0,67,6,0,0,18,1,1,1,1,1,0,0,0,0,0,0,0,0,0,0,0,0],"split_type":[0,0,0,0,0,0,0,0,0,0,0,0,0,0,0,0,0,0,0,0,0,0,0,0,0],"sum_hessian":[1.7056E4,1.5589E4,1.467E3,1.797E3,1.3792E4,2.8E1,1.439E3,1.45E3,3.47E2,1.3652E4,1.4E2,1.16E2,1.323E3,1.058E3,3.92E2,3E2,4.7E1,1.2399E4,1.253E3,1.09E2,3.1E1,2.9E1,8.7E1,1.255E3,6.8E1],"tree_param":{"num_deleted":"0","num_feature":"78","num_nodes":"25","size_leaf_vector":"1"}},{"base_weights":[7.843502E-3,-9.8960537E-1,1.06006365E1,3.050894E0,-1.5162369E0,3.8840416E1,8.283573E0,4.5659494E-1,1.3859161E1,-1.7155064E0,1.6882564E0,3.6133568E1,5.043803E0,-4.5922092E-1,7.564315E-1,7.818096E-1,1.276186E1,-6.003591E-1,-6.855728E-2,-3.7226057E-1,1.3478174E0,8.666184E0,1.66016E1,8.152597E-1,7.439139E0],"categories":[],"categories_nodes":[],"categories_segments":[],"categories_sizes":[],"default_left":[0,0,0,0,0,0,0,0,0,0,0,0,0,0,0,0,0,0,0,0,0,0,0,0,0],"id":1,"left_children":[1,3,5,7,9,-1,11,13,15,17,19,21,23,-1,-1,-1,-1,-1,-1,-1,-1,-1,-1,-1,-1],"loss_changes":[1.8023081E5,3.3177875E4,4.0324897E5,5.0409367E4,8.810525E3,0E0,1.2983567E5,5.958079E3,1.1220402E5,5.516207E3,6.643002E3,1.9276266E4,5.9302066E4,0E0,0E0,0E0,0E0,0E0,0E0,0E0,0E0,0E0,0E0,0E0,0E0],"parents":[2147483647,0,0,1,1,2,2,3,3,4,4,6,6,7,7,8,8,9,9,10,10,11,11,12,12],"right_children":[2,4,6,8,10,-1,12,14,16,18,20,22,24,-1,-1,-1,-1,-1,-1,-1,-1,-1,-1,-1,-1],"split_conditions":[1.1791227E0,1.6754363E0,7.148882E-2,1E0,1.6990659E0,3.8840416E1,4.9446437E-1,2.0081933E-1,3.021502E-1,4.4155687E-1,1.6704237E-1,2.7623405E0,4.9731956E0,-4.5922092E-1,7.564315E-1,7.818096E-1,1.276186E1,-6.003591E-1,-6.855728E-2,-3.7226057E-1,1.3478174E0,8.666184E0,1.66016E1,8.152597E-1,7.439139E0],"split_indices":[1,6,0,67,51,0,0,1,1,1,1,1,1,0,0,0,0,0,0,0,0,0,0,0,0],"split_type":[0,0,0,0,0,0,0,0,0,0,0,0,0,0,0,0,0,0,0,0,0,0,0,0,0],"sum_hessian":[1.7056E4,1.5589E4,1.467E3,1.797E3,1.3792E4,2.7E1,1.44E3,1.45E3,3.47E2,1.2985E4,8.07E2,1.49E2,1.291E3,7.39E2,7.11E2,2.5E2,9.7E1,1.0892E4,2.093E3,3.95E2,4.12E2,1.1E2,3.9E1,1.156E3,1.35E2],"tree_param":{"num_deleted":"0","num_feature":"78","num_nodes":"25","size_leaf_vector":"1"}},{"base_weights":[1.0562401E-2,-4.7460175E-1,1.189598E1,-8.2352674E-1,7.751219E0,3.5269066E1,7.5802617E0,-1.0197467E0,3.7799203E0,5.0957607E1,2.6806529E0,4.1088257E1,3.1932356E1,1.5275427E1,3.1681163E0,-1.4841904E-1,-5.9937483E-1,5.9498006E-1,3.7984939E0,3.8385437E0,2.5394575E1,4.918907E0,8.456153E-2,7.9187417E0,1.2059759E1,2.216873E0,6.2935853E0,1.9834958E0,-2.3495658E-1],"categories":[],"categories_nodes":[],"categories_segments":[],"categories_sizes":[],"default_left":[0,0,0,0,0,0,0,0,0,0,0,0,0,0,0,0,0,0,0,0,0,0,0,0,0,0,0,0,0],"id":2,"left_children":[1,3,5,7,9,11,13,15,17,19,21,-1,23,25,27,-1,-1,-1,-1,-1,-1,-1,-1,-1,-1,-1,-1,-1,-1],"loss_changes":[9.8362766E4,4.7046E4,6.721579E4,1.4206253E4,1.4599031E5,3.0915375E4,1.9168545E4,7.7439365E3,1.0235485E4,8.891806E4,1.9670158E4,0E0,3.6074297E3,9.109723E3,4.9171104E3,0E0,0E0,0E0,0E0,0E0,0E0,0E0,0E0,0E0,0E0,0E0,0E0,0E0,0E0],"parents":[2147483647,0,0,1,1,2,2,3,3,4,4,5,5,6,6,7,7,8,8,9,9,10,10,12,12,13,13,14,14],"right_children":[2,4,6,8,10,12,14,16,18,20,22,-1,24,26,28,-1,-1,-1,-1,-1,-1,-1,-1,-1,-1,-1,-1,-1,-1],"split_conditions":[2.0671494E0,2.1142018E0,8.2807887E-1,1.6399218E0,5.957402E-2,5.5602416E-2,-6.8721515E-1,1E0,1E0,6.927346E-1,8.737523E-2,4.1088257E1,2.9846542E0,3.9073792E0,1.9262266E0,-1.4841904E-1,-5.9937483E-1,5.9498006E-1,3.7984939E0,3.8385437E0,2.5394575E1,4.918907E0,8.456153E-2,7.9187417E0,1.2059759E1,2.216873E0,6.2935853E0,1.9834958E0,-2.3495658E-1],"split_indices":[1,51,0,18,0,0,54,64,67,1,0,0,1,1,0,0,0,0,0,0,0,0,0,0,0,0,0,0,0],"split_type":[0,0,0,0,0,0,0,0,0,0,0,0,0,0,0,0,0,0,0,0,0,0,0,0,0,0,0,0,0],"sum_hessian":[1.7056E4,1.6388E4,6.68E2,1.5722E4,6.66E2,1.03E2,5.65E2,1.508E4,6.42E2,6.9E1,5.97E2,2E0,1.01E2,2.05E2,3.6E2,9.814E3,5.266E3,5.35E2,1.07E2,3.3E1,3.6E1,8.8E1,5.09E2,6.3E1,3.8E1,8.7E1,1.18E2,1.92E2,1.68E2],"tree_param":{"num_deleted":"0","num_feature":"78","num_nodes":"29","size_leaf_vector":"1"}},{"base_weights":[1.3796227E-2,-6.090385E-1,5.078489E0,-1.1624471E0,6.1015224E-1,3.5756435E1,2.4566903E0,-1.7396497E0,-7.648028E-1,1.4299617E1,-6.093433E-1,6.9928566E1,2.5639595E1,5.963585E0,-1.3281353E0,-1.1015935E0,-4.7326976E-1,8.883595E-1,-4.105209E-1,2.8595679E0,6.1655774E0,1.0656426E0,-3.702852E-1,1.8422518E1,3.1607965E1,1.0026265E1,6.9660378E0,1.223193E0,4.479166E0,-5.988199E-1,9.739468E-1],"categories":[],"categories_nodes":[],"categories_segments":[],"categories_sizes":[],"default_left":[0,0,0,0,0,0,0,0,0,0,0,0,0,0,0,0,0,0,0,0,0,0,0,0,0,0,0,0,0,0,0],"id":3,"left_children":[1,3,5,7,9,11,13,15,17,19,21,23,25,27,29,-1,-1,-1,-1,-1,-1,-1,-1,-1,-1,-1,-1,-1,-1,-1,-1],"loss_changes":[5.380883E4,1.0249564E4,1.50158E5,2.396707E3,7.918951E4,4.902703E4,2.2864002E4,1.32875E3,1.3920955E4,1.1370102E4,1.1332952E4,3.4920938E3,1.3890234E3,1.5060393E4,2.5395178E3,0E0,0E0,0E0,0E0,0E0,0E0,0E0,0E0,0E0,0E0,0E0,0E0,0E0,0E0,0E0,0E0],"parents":[2147483647,0,0,1,1,2,2,3,3,4,4,5,5,6,6,7,7,8,8,9,9,10,10,11,11,12,12,13,13,14,14],"right_children":[2,4,6,8,10,12,14,16,18,20,22,24,26,28,30,-1,-1,-1,-1,-1,-1,-1,-1,-1,-1,-1,-1,-1,-1,-1,-1],"split_conditions":[9.518959E-1,2.4319406E-1,2.879411E-1,5.3428996E-2,2.2638127E-1,6.354562E-2,1.5906264E0,1.6754363E0,1.7077886E-1,4.0900818E-1,5.361662E-1,1.6701168E0,2.1248066E-1,3.3052282E0,3.3052282E0,-1.1015935E0,-4.7326976E-1,8.883595E-1,-4.105209E-1,2.8595679E0,6.1655774E0,1.0656426E0,-3.702852E-1,1.8422518E1,3.1607965E1,1.0026265E1,6.9660378E0,1.223193E0,4.479166E0,-5.988199E-1,9.739468E-1],"split_indices":[1,1,0,1,0,0,0,6,0,1,0,1,0,1,1,0,0,0,0,0,0,0,0,0,0,0,0,0,0,0,0],"split_type":[0,0,0,0,0,0,0,0,0,0,0,0,0,0,0,0,0,0,0,0,0,0,0,0,0,0,0,0,0,0,0],"sum_hessian":[1.7056E4,1.5189E4,1.867E3,1.0447E4,4.742E3,1.46E2,1.721E3,4.26E3,6.187E3,3.87E2,4.355E3,3.2E1,1.14E2,8.93E2,8.28E2,3.28E2,3.932E3,8.62E2,5.325E3,2.21E2,1.66E2,5.68E2,3.787E3,2.8E1,4E0,2.4E1,9E1,7.39E2,1.54E2,7.23E2,1.05E2],"tree_param":{"num_deleted":"0","num_feature":"78","num_nodes":"31","size_leaf_vector":"1"}},{"base_weights":[1.4448566E-2,-2.764469E-1,5.910686E0,-4.506772E-1,3.8478632E0,1.9278065E1,3.4608104E0,1.8867646E-1,-9.597375E-1,2.2468554E1,4.3718514E-1,2.654901E1,1.741795E1,2.320555E0,1.3672215E1,-2.1472391E-1,1.7709268E0,-2.2226632E-1,-5.7913876E-1,1.4262388E0,1.1823069E1,1.0314736E0,-2.2704878E-1,4.4327483E0,6.9957743E0,1.5115838E0,8.552406E-2,5.04913E0,8.6503446E-2],"categories":[],"categories_nodes":[],"categories_segments":[],"categories_sizes":[],"default_left":[0,0,0,0,0,0,0,0,0,0,0,0,0,0,0,0,0,0,0,0,0,0,0,0,0,0,0,0,0],"id":4,"left_children":[1,3,5,7,9,11,13,15,17,19,21,-1,23,25,27,-1,-1,-1,-1,-1,-1,-1,-1,-1,-1,-1,-1,-1,-1],"loss_changes":[2.925761E4,1.1682965E4,2.6197512E4,5.0768564E3,4.1842727E4,1.4424133E4,7.874284E3,3.574264E4,1.8434238E3,3.0424059E4,2.0020885E3,0E0,1.5576562E3,3.3844758E3,2.8694512E3,0E0,0E0,0E0,0E0,0E0,0E0,0E0,0E0,0E0,0E0,0E0,0E0,0E0,0E0],"parents":[2147483647,0,0,1,1,2,2,3,3,4,4,5,5,6,6,7,7,8,8,9,9,10,10,12,12,13,13,14,14],"right_children":[2,4,6,8,10,12,14,16,18,20,22,-1,24,26,28,-1,-1,-1,-1,-1,-1,-1,-1,-1,-1,-1,-1,-1,-1],"split_conditions":[1.8546617E0,2.1142018E0,7.645332E-1,3.9318854E-1,6.751722E-2,5.5602416E-2,7.811688E0,1.8086022E-1,1.9877864E0,5.306052E-1,1.3702025E-1,2.654901E1,2.9846542E0,1.4119042E0,1.4902018E-3,-2.1472391E-1,1.7709268E0,-2.2226632E-1,-5.7913876E-1,1.4262388E0,1.1823069E1,1.0314736E0,-2.2704878E-1,4.4327483E0,6.9957743E0,1.5115838E0,8.552406E-2,5.04913E0,8.6503446E-2],"split_indices":[1,51,0,0,0,0,1,1,0,1,0,0,1,0,13,0,0,0,0,0,0,0,0,0,0,0,0,0,0],"split_type":[0,0,0,0,0,0,0,0,0,0,0,0,0,0,0,0,0,0,0,0,0,0,0,0,0,0,0,0,0],"sum_hessian":[1.7056E4,1.6255E4,8.01E2,1.5597E4,6.58E2,1.23E2,6.78E2,6.914E3,8.683E3,1.01E2,5.57E2,2E0,1.21E2,6.11E2,6.7E1,5.97E3,9.44E2,7.087E3,1.596E3,5E1,5.1E1,1.58E2,3.99E2,8.6E1,3.5E1,2.61E2,3.5E2,5.4E1,1.3E1],"tree_param":{"num_deleted":"0","num_feature":"78","num_nodes":"29","size_leaf_vector":"1"}},{"base_weights":[1.360336E-2,-4.0747282E-1,2.502861E0,-9.0082604E-1,-3.9773204E-4,1.646234E1,8.019782E-1,-2.0913265E0,-7.908907E-1,4.75648E0,-5.57294E-1,3.9146812E1,1.3110278E1,2.4584463E0,-1.0294551E0,-4.315863E-1,-1.2737222E0,-2.2856165E-1,-9.2660064E-1,3.2095592E0,1.0209028E0,1.1372564E-1,-2.6081246E-1,1.5947733E1,7.121448E0,5.297324E0,3.194783E0,5.3772616E-1,3.1864626E0,-1.1803019E-1,-9.1271305E-1],"categories":[],"categories_nodes":[],"categories_segments":[],"categories_sizes":[],"default_left":[0,0,0,0,0,0,0,0,0,0,0,0,0,0,0,0,0,0,0,0,0,0,0,0,0,0,0,0,0,0,0],"id":5,"left_children":[1,3,5,7,9,11,13,15,17,19,21,23,25,27,29,-1,-1,-1,-1,-1,-1,-1,-1,-1,-1,-1,-1,-1,-1,-1,-1],"loss_changes":[1.7879605E4,2.9301357E3,5.8585598E4,8.616177E2,2.1182105E4,1.986543E4,6.6797285E3,7.771443E2,4.0038208E2,6.703119E3,2.0920837E3,6.0790625E3,2.4419219E3,6.2659424E3,1.3379559E3,0E0,0E0,0E0,0E0,0E0,0E0,0E0,0E0,0E0,0E0,0E0,0E0,0E0,0E0,0E0,0E0],"parents":[2147483647,0,0,1,1,2,2,3,3,4,4,5,5,6,6,7,7,8,8,9,9,10,10,11,11,12,12,13,13,14,14],"right_children":[2,4,6,8,10,12,14,16,18,20,22,24,26,28,30,-1,-1,-1,-1,-1,-1,-1,-1,-1,-1,-1,-1,-1,-1,-1,-1],"split_conditions":[7.301963E-1,1.0194498E-1,3.773021E-1,1.6754363E0,2.0255166E-1,5.758822E-2,1.6561577E0,1E0,2.1142018E0,7.347462E-2,6.652432E-1,7.4865997E-1,2.3432447E-1,4.9731956E0,3.594299E0,-4.315863E-1,-1.2737222E0,-2.2856165E-1,-9.2660064E-1,3.2095592E0,1.0209028E0,1.1372564E-1,-2.6081246E-1,1.5947733E1,7.121448E0,5.297324E0,3.194783E0,5.3772616E-1,3.1864626E0,-1.1803019E-1,-9.1271305E-1],"split_indices":[1,1,0,6,0,0,0,67,51,0,0,5,0,1,0,0,0,0,0,0,0,0,0,0,0,0,0,0,0,0,0],"split_type":[0,0,0,0,0,0,0,0,0,0,0,0,0,0,0,0,0,0,0,0,0,0,0,0,0,0,0,0,0,0,0],"sum_hessian":[1.7056E4,1.4589E4,2.467E3,6.595E3,7.994E3,2.67E2,2.2E3,5.56E2,6.039E3,8.37E2,7.157E3,3.3E1,2.34E2,1.155E3,1.045E3,4.28E2,1.28E2,5.965E3,7.4E1,1.54E2,6.83E2,1.789E3,5.368E3,1.6E1,1.7E1,8E1,1.54E2,1.069E3,8.6E1,7.95E2,2.5E2],"tree_param":{"num_deleted":"0","num_feature":"78","num_nodes":"31","size_leaf_vector":"1"}},{"base_weights":[1.1602286E-2,-1.1819888E-1,4.6027746E0,-4.6205017E-1,7.96968E-1,1.1694504E1,2.4742954E0,-1.04972936E-1,-7.4316615E-1,1.0022602E1,6.0397934E-2,1.8112244E1,1.067531E1,3.389473E0,-2.6956863E0,-1.8619621E-1,5.2131695E-1,-6.1971956E-1,-2.0134068E-1,7.146676E0,2.306358E0,6.6798973E-1,-2.100836E-1,2.939859E0,7.974401E0,7.3066914E-1,2.163629E0,-3.1173664E-1,-1.9012411E0],"categories":[],"categories_nodes":[],"categories_segments":[],"categories_sizes":[],"default_left":[0,0,0,0,0,0,0,0,0,0,0,0,0,0,0,0,0,0,0,0,0,0,0,0,0,0,0,0,0],"id":6,"left_children":[1,3,5,7,9,11,13,15,17,19,21,-1,23,25,27,-1,-1,-1,-1,-1,-1,-1,-1,-1,-1,-1,-1,-1,-1],"loss_changes":[1.0165484E4,5.220616E3,7.0504316E3,1.210406E3,3.0789018E4,4.7138E3,1.7219224E3,5.0497217E3,6.413684E2,1.0610094E4,6.9173916E3,0E0,1.2300469E3,1.1055366E3,3.2522122E2,0E0,0E0,0E0,0E0,0E0,0E0,0E0,0E0,0E0,0E0,0E0,0E0,0E0,0E0],"parents":[2147483647,0,0,1,1,2,2,3,3,4,4,5,5,6,6,7,7,8,8,9,9,10,10,12,12,13,13,14,14],"right_children":[2,4,6,8,10,12,14,16,18,20,22,-1,24,26,28,-1,-1,-1,-1,-1,-1,-1,-1,-1,-1,-1,-1,-1,-1],"split_conditions":[2.5406408E0,3.4820968E-1,1.0981477E0,2.4822508E-1,2.541825E-1,5.5602416E-2,3.0303319E0,7.8915246E-2,1.4302505E0,5.758822E-2,1.0207015E0,1.8112244E1,7.811688E0,7.811688E0,4.9731956E0,-1.8619621E-1,5.2131695E-1,-6.1971956E-1,-2.0134068E-1,7.146676E0,2.306358E0,6.6798973E-1,-2.100836E-1,2.939859E0,7.974401E0,7.3066914E-1,2.163629E0,-3.1173664E-1,-1.9012411E0],"split_indices":[1,1,0,0,0,0,0,1,6,0,0,0,1,1,1,0,0,0,0,0,0,0,0,0,0,0,0,0,0],"split_type":[0,0,0,0,0,0,0,0,0,0,0,0,0,0,0,0,0,0,0,0,0,0,0,0,0,0,0,0,0],"sum_hessian":[1.7056E4,1.6588E4,4.68E2,1.2058E4,4.53E3,1.07E2,3.61E2,5.312E3,6.746E3,3.34E2,4.196E3,1E0,1.06E2,3.07E2,5.4E1,4.151E3,1.161E3,3.47E2,6.399E3,4.7E1,2.87E2,1.09E3,3.106E3,1.02E2,4E0,2.47E2,6E1,3.8E1,1.6E1],"tree_param":{"num_deleted":"0","num_feature":"78","num_nodes":"29","size_leaf_vector":"1"}},{"base_weights":[1.0415848E-2,-1.3521397E-1,2.1885867E0,-3.5689983E-1,4.0266567E-1,3.0591335E1,1.8099626E0,1.21599E-1,-4.9110752E-1,8.512774E0,9.231394E-2,4.1583088E1,5.959338E0,6.6525064E0,9.0572894E-1,-1.8729725E-1,6.873137E-1,-1.3361323E-1,-6.651213E-1,7.0761905E0,2.0446408E0,5.680886E-1,-1.1685542E-1,4.823966E0,1.5094417E1,1.6642796E0,3.8876185E0,4.9600294E-1,-4.812325E-1],"categories":[],"categories_nodes":[],"categories_segments":[],"categories_sizes":[],"default_left":[0,0,0,0,0,0,0,0,0,0,0,0,0,0,0,0,0,0,0,0,0,0,0,0,0,0,0,0,0],"id":7,"left_children":[1,3,5,7,9,11,13,15,17,19,21,23,-1,25,27,-1,-1,-1,-1,-1,-1,-1,-1,-1,-1,-1,-1,-1,-1],"loss_changes":[5.410889E3,1.906677E3,1.1440619E4,7.2720276E2,1.1745989E4,8.246748E2,4.6179785E3,4.0162844E3,6.969778E2,4.240049E3,3.9029556E3,5.2705273E2,0E0,1.0847646E3,1.6745156E3,0E0,0E0,0E0,0E0,0E0,0E0,0E0,0E0,0E0,0E0,0E0,0E0,0E0,0E0],"parents":[2147483647,0,0,1,1,2,2,3,3,4,4,5,5,6,6,7,7,8,8,9,9,10,10,11,11,13,13,14,14],"right_children":[2,4,6,8,10,12,14,16,18,20,22,24,-1,26,28,-1,-1,-1,-1,-1,-1,-1,-1,-1,-1,-1,-1,-1,-1],"split_conditions":[1.5082945E0,2.9385948E-1,1.8269366E-1,1.17162235E-1,1.3900605E-1,5.5602416E-2,8.5786587E-1,4.0532343E-2,1.6399218E0,4.5673415E-2,7.645332E-1,1.6701168E0,5.959338E0,3.3052282E0,2.5120378E0,-1.8729725E-1,6.873137E-1,-1.3361323E-1,-6.651213E-1,7.0761905E0,2.0446408E0,5.680886E-1,-1.1685542E-1,4.823966E0,1.5094417E1,1.6642796E0,3.8876185E0,4.9600294E-1,-4.812325E-1],"split_indices":[1,1,0,0,0,0,0,1,18,0,0,1,0,1,0,0,0,0,0,0,0,0,0,0,0,0,0,0,0],"split_type":[0,0,0,0,0,0,0,0,0,0,0,0,0,0,0,0,0,0,0,0,0,0,0,0,0,0,0,0,0],"sum_hessian":[1.7056E4,1.5988E4,1.068E3,1.1322E4,4.666E3,1.3E1,1.055E3,2.48E3,8.842E3,1.71E2,4.495E3,5E0,8E0,1.65E2,8.9E2,1.846E3,6.34E2,8.615E3,2.27E2,1.6E1,1.55E2,9.48E2,3.547E3,2E0,3E0,1.42E2,2.3E1,6.86E2,2.04E2],"tree_param":{"num_deleted":"0","num_feature":"78","num_nodes":"29","size_leaf_vector":"1"}},{"base_weights":[9.678256E-3,-6.4873375E-2,2.6466234E0,-2.123147E-1,5.3642005E-1,1.5592368E1,2.0352488E0,1.4206974E-1,-3.340906E-1,5.7141924E0,-1.6336802E-1,1.3131245E1,1.1994905E1,4.2839108E0,1.2298951E0,-6.472586E-2,9.777316E-1,-4.5598692E-1,-8.1645325E-2,4.495309E0,1.4944134E0,2.9438016E-1,-2.0082055E-1,1.0849786E0,3.8174722E0,1.049672E0,4.8695974E0,5.130351E-1,-6.379919E-1],"categories":[],"categories_nodes":[],"categories_segments":[],"categories_sizes":[],"default_left":[0,0,0,0,0,0,0,0,0,0,0,0,0,0,0,0,0,0,0,0,0,0,0,0,0,0,0,0,0],"id":8,"left_children":[1,3,5,7,9,11,13,15,17,19,21,-1,23,25,27,-1,-1,-1,-1,-1,-1,-1,-1,-1,-1,-1,-1,-1,-1],"loss_changes":[3.3533828E3,1.4708201E3,3.6802605E3,5.75008E2,1.1838396E4,1.6037622E3,8.0785583E2,3.8018018E3,7.279358E2,2.567958E3,1.6682429E3,0E0,7.6302734E1,1.0499624E3,5.387814E2,0E0,0E0,0E0,0E0,0E0,0E0,0E0,0E0,0E0,0E0,0E0,0E0,0E0,0E0],"parents":[2147483647,0,0,1,1,2,2,3,3,4,4,5,5,6,6,7,7,8,8,9,9,10,10,12,12,13,13,14,14],"right_children":[2,4,6,8,10,12,14,16,18,20,22,-1,24,26,28,-1,-1,-1,-1,-1,-1,-1,-1,-1,-1,-1,-1,-1,-1],"split_conditions":[2.5406408E0,4.8208922E-1,2.581541E-1,1.4694925E-1,4.2893293E-1,5.5602416E-2,1.195452E0,1.3695018E-1,1.348522E0,5.3616617E-2,1.195452E0,1.3131245E1,1.534753E0,7.811688E0,3.594299E0,-6.472586E-2,9.777316E-1,-4.5598692E-1,-8.1645325E-2,4.495309E0,1.4944134E0,2.9438016E-1,-2.0082055E-1,1.0849786E0,3.8174722E0,1.049672E0,4.8695974E0,5.130351E-1,-6.379919E-1],"split_indices":[1,1,0,0,0,0,0,1,6,0,0,0,5,1,0,0,0,0,0,0,0,0,0,0,0,0,0,0,0],"split_type":[0,0,0,0,0,0,0,0,0,0,0,0,0,0,0,0,0,0,0,0,0,0,0,0,0,0,0,0,0],"sum_hessian":[1.7056E4,1.6588E4,4.68E2,1.3322E4,3.266E3,2E1,4.48E2,3.407E3,9.915E3,3.88E2,2.878E3,1E0,1.9E1,1.17E2,3.31E2,3.057E3,3.5E2,4.91E2,9.424E3,2.7E1,3.61E2,8.82E2,1.996E3,2E0,1.7E1,1.11E2,6E0,2.9E2,4.1E1],"tree_param":{"num_deleted":"0","num_feature":"78","num_nodes":"29","size_leaf_vector":"1"}},{"base_weights":[8.550404E-3,-4.502202E-2,1.9034424E0,5.8319646E-1,-1.19480155E-1,1.1161556E1,1.7485131E0,-1.1941009E-1,5.1823144E0,-7.2870396E-2,-8.738473E-1,7.4108787E0,1.2878418E0,8.898899E-3,-1.5784165E0,1.2281122E0,4.793137E0,-6.321403E-2,1.4210342E-1,-1.9841202E-1,-4.7806042E-1,1.6663969E0,6.1223817E0,2.244425E-1,1.2395806E0],"categories":[],"categories_nodes":[],"categories_segments":[],"categories_sizes":[],"default_left":[0,0,0,0,0,0,0,0,0,0,0,0,0,0,0,0,0,0,0,0,0,0,0,0,0],"id":9,"left_children":[1,3,5,7,9,-1,11,13,15,17,19,21,23,-1,-1,-1,-1,-1,-1,-1,-1,-1,-1,-1,-1],"loss_changes":[1.7316093E3,7.760364E2,2.5000364E3,5.6813677E3,5.214423E2,0E0,1.2112288E3,1.1698816E3,2.672648E3,1.0525701E3,1.3091162E2,7.3103125E2,6.630804E2,0E0,0E0,0E0,0E0,0E0,0E0,0E0,0E0,0E0,0E0,0E0,0E0],"parents":[2147483647,0,0,1,1,2,2,3,3,4,4,6,6,7,7,8,8,9,9,10,10,11,11,12,12],"right_children":[2,4,6,8,10,-1,12,14,16,18,20,22,24,-1,-1,-1,-1,-1,-1,-1,-1,-1,-1,-1,-1],"split_conditions":[2.5406408E0,8.936103E-2,5.5602416E-2,1.3695018E-1,2.6570013E0,1.1161556E1,2.839695E-1,2.1156425E0,1.2712417E0,4.2436135E-1,1.1791227E0,3.9073792E0,7.811688E0,8.898899E-3,-1.5784165E0,1.2281122E0,4.793137E0,-6.321403E-2,1.4210342E-1,-1.9841202E-1,-4.7806042E-1,1.6663969E0,6.1223817E0,2.244425E-1,1.2395806E0],"split_indices":[1,0,0,1,0,0,0,51,1,1,1,1,1,0,0,0,0,0,0,0,0,0,0,0,0],"split_type":[0,0,0,0,0,0,0,0,0,0,0,0,0,0,0,0,0,0,0,0,0,0,0,0,0],"sum_hessian":[1.7056E4,1.6588E4,4.68E2,1.757E3,1.4831E4,1E0,4.67E2,1.525E3,2.32E2,1.3969E4,8.62E2,3.4E1,4.33E2,1.483E3,4.2E1,2.12E2,2E1,1.1156E4,2.813E3,6.67E2,1.95E2,3.1E1,3E0,3.65E2,6.8E1],"tree_param":{"num_deleted":"0","num_feature":"78","num_nodes":"25","size_leaf_vector":"1"}},{"base_weights":[7.408096E-3,-3.4638435E-2,1.3034629E0,6.75617E-2,-4.1697723E-1,9.487322E0,1.1876773E0,-6.8777755E-2,1.4263128E0,-1.3603172E0,-3.5237968E-1,3.3984265E0,4.478064E-1,-1.591721E-1,9.7071035E-3,1.060496E0,8.3551235E-2,-3.5550523E-1,-5.6609887E-1,-7.907315E-2,-2.7872765E-1,8.623404E-1,4.22914E0,2.1966767E-1,-5.1481354E-1],"categories":[],"categories_nodes":[],"categories_segments":[],"categories_sizes":[],"default_left":[0,0,0,0,0,0,0,0,0,0,0,0,0,0,0,0,0,0,0,0,0,0,0,0,0],"id":10,"left_children":[1,3,5,7,9,-1,11,13,15,17,19,21,23,-1,-1,-1,-1,-1,-1,-1,-1,-1,-1,-1,-1],"loss_changes":[9.295597E2,6.4562665E2,1.8441924E3,2.4154055E3,2.118877E2,0E0,8.735609E2,5.534551E2,2.8768157E3,1.8352722E1,1.6686484E2,7.1063916E2,2.4866376E2,0E0,0E0,0E0,0E0,0E0,0E0,0E0,0E0,0E0,0E0,0E0,0E0],"parents":[2147483647,0,0,1,1,2,2,3,3,4,4,6,6,7,7,8,8,9,9,10,10,11,11,12,12],"right_children":[2,4,6,8,10,-1,12,14,16,18,20,22,24,-1,-1,-1,-1,-1,-1,-1,-1,-1,-1,-1,-1],"split_conditions":[2.3330662E0,1.3225433E0,5.5602416E-2,5.508714E-1,2.0023508E0,9.487322E0,1.1338922E0,2.4872119E-2,6.056692E-1,5.0908543E-2,1.1791227E0,7.811688E0,3.594299E0,-1.591721E-1,9.7071035E-3,1.060496E0,8.3551235E-2,-3.5550523E-1,-5.6609887E-1,-7.907315E-2,-2.7872765E-1,8.623404E-1,4.22914E0,2.1966767E-1,-5.1481354E-1],"split_indices":[1,0,0,1,6,0,0,1,0,45,1,1,0,0,0,0,0,0,0,0,0,0,0,0,0],"split_type":[0,0,0,0,0,0,0,0,0,0,0,0,0,0,0,0,0,0,0,0,0,0,0,0,0],"sum_hessian":[1.7056E4,1.6521E4,5.35E2,1.3037E4,3.484E3,1E0,5.34E2,1.1849E4,1.188E3,2.22E2,3.262E3,1.33E2,4.01E2,2.128E3,9.721E3,4.18E2,7.7E2,1.69E2,5.3E1,2.828E3,4.34E2,1.28E2,5E0,3.55E2,4.6E1],"tree_param":{"num_deleted":"0","num_feature":"78","num_nodes":"25","size_leaf_vector":"1"}},{"base_weights":[6.0063433E-3,-2.0319674E-2,1.316178E0,2.2116001E-1,-1.7922115E-1,7.2204194E0,1.0561917E0,6.675075E-2,2.9053864E0,-8.570786E-1,-1.1263361E-1,1.260875E0,9.478149E0,2.610213E0,3.6772814E-1,-7.076032E-2,1.777925E-1,2.437617E0,7.066292E-1,-4.6844947E-1,-1.8908632E-1,-1.0070885E-1,1.11248E-2,6.3507694E-1,-4.639435E-3,3.715779E0,1.6425923E0,4.1414735E-1,1.918672E0,1.636031E-1,-1.1866914E0],"categories":[],"categories_nodes":[],"categories_segments":[],"categories_sizes":[],"default_left":[0,0,0,0,0,0,0,0,0,0,0,0,0,0,0,0,0,0,0,0,0,0,0,0,0,0,0,0,0,0,0],"id":11,"left_children":[1,3,5,7,9,11,13,15,17,19,21,23,25,27,29,-1,-1,-1,-1,-1,-1,-1,-1,-1,-1,-1,-1,-1,-1,-1,-1],"loss_changes":[5.8835E2,6.416875E2,5.0814105E2,2.75064E3,4.5515384E2,1.7641986E2,3.4461374E2,9.9908856E2,1.0172095E3,1.4311566E2,3.0675555E2,5.495778E0,4.8577087E1,4.5200995E2,1.7493399E2,0E0,0E0,0E0,0E0,0E0,0E0,0E0,0E0,0E0,0E0,0E0,0E0,0E0,0E0,0E0,0E0],"parents":[2147483647,0,0,1,1,2,2,3,3,4,4,5,5,6,6,7,7,8,8,9,9,10,10,11,11,12,12,13,13,14,14],"right_children":[2,4,6,8,10,12,14,16,18,20,22,24,26,28,30,-1,-1,-1,-1,-1,-1,-1,-1,-1,-1,-1,-1,-1,-1,-1,-1],"split_conditions":[2.9846542E0,3.157423E-1,2.7006888E-1,4.3173087E-1,2.0023508E0,1.6470519E0,8.2352597E-1,4.9130112E-2,5.5602416E-2,-5.503339E-1,2.0634647E-1,2.3829608E-1,-2.721766E-1,7.811688E0,1.6935432E0,-7.076032E-2,1.777925E-1,2.437617E0,7.066292E-1,-4.6844947E-1,-1.8908632E-1,-1.0070885E-1,1.11248E-2,6.3507694E-1,-4.639435E-3,3.715779E0,1.6425923E0,4.1414735E-1,1.918672E0,1.636031E-1,-1.1866914E0],"split_indices":[1,0,0,1,6,5,5,1,0,43,1,0,12,1,12,0,0,0,0,0,0,0,0,0,0,0,0,0,0,0,0],"split_type":[0,0,0,0,0,0,0,0,0,0,0,0,0,0,0,0,0,0,0,0,0,0,0,0,0,0,0,0,0,0,0],"sum_hessian":[1.7056E4,1.6721E4,3.35E2,6.636E3,1.0085E4,1.3E1,3.22E2,6.276E3,3.6E2,9.01E2,9.184E3,4E0,9E0,9.8E1,2.24E2,3.984E3,2.292E3,3.3E1,3.27E2,2.18E2,6.83E2,3.688E3,5.496E3,2E0,2E0,4E0,5E0,7.5E1,2.3E1,2.16E2,8E0],"tree_param":{"num_deleted":"0","num_feature":"78","num_nodes":"31","size_leaf_vector":"1"}},{"base_weights":[4.7791484E-3,-6.009536E-1,4.645144E-2,-8.6988497E-1,4.7628114E-1,5.0590414E-1,-1.8394921E-2,-6.1618674E-1,-1.8585585E0,1.0169909E1,-3.3385584E-1,4.0884113E-1,1.3155075E1,-3.682741E-2,1.2787445E0,-3.4812275E-1,-2.1062654E-2,-8.7110114E-1,3.1626564E-1,3.350277E-1,3.3907635E0,-2.0161717E-1,6.2934004E-2,-7.0940934E-2,4.547014E-1,5.5846334E0,1.8150965E0,1.3666401E-2,-8.2166545E-2,3.5877182E0,2.8096265E-1],"categories":[],"categories_nodes":[],"categories_segments":[],"categories_sizes":[],"default_left":[0,0,0,0,0,0,0,0,0,0,0,0,0,0,0,0,0,0,0,0,0,0,0,0,0,0,0,0,0,0,0],"id":12,"left_children":[1,3,5,7,9,11,13,15,17,19,21,23,25,27,29,-1,-1,-1,-1,-1,-1,-1,-1,-1,-1,-1,-1,-1,-1,-1,-1],"loss_changes":[4.3058533E2,3.1850735E2,4.7551892E2,2.1932971E2,1.7310917E3,2.4182324E3,3.344694E2,2.0820901E2,5.479689E2,1.6169446E2,3.7648094E1,1.4002876E3,4.6928906E2,2.693645E2,7.0514636E2,0E0,0E0,0E0,0E0,0E0,0E0,0E0,0E0,0E0,0E0,0E0,0E0,0E0,0E0,0E0,0E0],"parents":[2147483647,0,0,1,1,2,2,3,3,4,4,5,5,6,6,7,7,8,8,9,9,10,10,11,11,12,12,13,13,14,14],"right_children":[2,4,6,8,10,12,14,16,18,20,22,24,26,28,30,-1,-1,-1,-1,-1,-1,-1,-1,-1,-1,-1,-1,-1,-1,-1,-1],"split_conditions":[4.11924E-4,6.7799556E-1,1.03261635E-1,1E0,1.7276466E-1,1.380249E0,3.9073792E0,-6.2042034E-1,2.2507733E-1,1.49732E-1,1.4419688E0,2.3643866E-2,5.5602416E-2,1.3086426E0,6.056692E-1,-3.4812275E-1,-2.1062654E-2,-8.7110114E-1,3.1626564E-1,3.350277E-1,3.3907635E0,-2.0161717E-1,6.2934004E-2,-7.0940934E-2,4.547014E-1,5.5846334E0,1.8150965E0,1.3666401E-2,-8.2166545E-2,3.5877182E0,2.8096265E-1],"split_indices":[11,1,0,67,0,1,1,19,1,5,1,1,0,0,0,0,0,0,0,0,0,0,0,0,0,0,0,0,0,0,0],"split_type":[0,0,0,0,0,0,0,0,0,0,0,0,0,0,0,0,0,0,0,0,0,0,0,0,0,0,0,0,0,0,0],"sum_hessian":[1.7056E4,1.097E3,1.5959E4,8.78E2,2.19E2,1.973E3,1.3986E4,7E2,1.78E2,1.6E1,2.03E2,1.959E3,1.4E1,1.3791E4,1.95E2,3.5E2,3.5E2,1.31E2,4.7E1,2E0,1.4E1,1.25E2,7.8E1,1.238E3,7.21E2,7E0,7E0,1.0235E4,3.556E3,5E0,1.9E2],"tree_param":{"num_deleted":"0","num_feature":"78","num_nodes":"31","size_leaf_vector":"1"}},{"base_weights":[4.1806507E-3,-1.5849096E-1,1.3246512E-1,-8.6726886E-1,-8.9048766E-2,9.603268E0,1.1055569E-1,-4.265787E-1,-2.3691874E0,1.5393162E-1,-2.4463496E-1,1.073304E1,-1.1296316E0,1.1620262E0,-1.032304E-3,-3.2420316E-1,3.7505563E-2,-5.672634E-1,-1.0730643E0,-4.660339E-2,2.2410631E-1,-1.1290916E-1,-1.0944719E-2,3.411132E-1,3.3534744E0,9.235299E-1,-1.4318643E0,2.8085586E-1,1.8202745E0,1.929641E-2,-2.0269068E-1],"categories":[],"categories_nodes":[],"categories_segments":[],"categories_sizes":[],"default_left":[0,0,0,0,0,0,0,0,0,0,0,0,0,0,0,0,0,0,0,0,0,0,0,0,0,0,0,0,0,0,0],"id":13,"left_children":[1,3,5,7,9,11,13,15,17,19,21,23,25,27,29,-1,-1,-1,-1,-1,-1,-1,-1,-1,-1,-1,-1,-1,-1,-1,-1],"loss_changes":[3.5597055E2,3.7009952E2,1.9778646E3,4.4311127E2,2.5903555E2,2.7889026E2,1.1165276E3,1.8775055E2,8.103955E1,4.9078717E2,1.1451836E2,7.273413E1,6.0686073E1,1.00580566E3,3.7937488E2,0E0,0E0,0E0,0E0,0E0,0E0,0E0,0E0,0E0,0E0,0E0,0E0,0E0,0E0,0E0,0E0],"parents":[2147483647,0,0,1,1,2,2,3,3,4,4,5,5,6,6,7,7,8,8,9,9,10,10,11,11,12,12,13,13,14,14],"right_children":[2,4,6,8,10,12,14,16,18,20,22,24,26,28,30,-1,-1,-1,-1,-1,-1,-1,-1,-1,-1,-1,-1,-1,-1,-1,-1],"split_conditions":[1.2835242E-1,1.6754363E0,4.5673415E-2,1E0,1.4694925E-1,1E0,2.4028188E-1,-1.0643102E0,1.158891E0,2.302974E-2,1E0,1.4370558E-1,1.301948E-1,1.5082945E0,1.3224126E0,-3.2420316E-1,3.7505563E-2,-5.672634E-1,-1.0730643E0,-4.660339E-2,2.2410631E-1,-1.1290916E-1,-1.0944719E-2,3.411132E-1,3.3534744E0,9.235299E-1,-1.4318643E0,2.8085586E-1,1.8202745E0,1.929641E-2,-2.0269068E-1],"split_indices":[1,6,0,67,0,73,0,62,15,1,64,1,1,1,51,0,0,0,0,0,0,0,0,0,0,0,0,0,0,0,0],"split_type":[0,0,0,0,0,0,0,0,0,0,0,0,0,0,0,0,0,0,0,0,0,0,0,0,0,0,0,0,0,0,0],"sum_hessian":[1.7056E4,7.52E3,9.536E3,6.7E2,6.85E3,2.1E1,9.515E3,5.19E2,1.51E2,2.674E3,4.176E3,1.9E1,2E0,9.12E2,8.603E3,2.37E2,2.82E2,1.1E2,4.1E1,1.758E3,9.16E2,2.557E3,1.619E3,1E0,1.8E1,1E0,1E0,8.73E2,3.9E1,7.844E3,7.59E2],"tree_param":{"num_deleted":"0","num_feature":"78","num_nodes":"31","size_leaf_vector":"1"}},{"base_weights":[3.11586E-3,-3.1065813E-1,5.2977555E-2,7.4516636E-1,-3.984997E-1,1.8307032E-1,-1.00888535E-1,3.5118648E-1,1.7992485E1,-2.4875386E-1,-1.4776597E0,9.59521E-1,1.4043476E-1,7.545899E-1,-1.3778578E-1,2.9767066E-1,-2.5637774E0,1.6102959E0,6.1234636E0,8.602504E-2,-1.22452065E-1,-5.608363E-1,1.4062535E0,6.8569526E-2,1.0359678E0,3.2178515E-1,3.161218E-2,-3.3207974E-1,3.4094396E-1,2.1756448E-4,-7.301325E-2],"categories":[],"categories_nodes":[],"categories_segments":[],"categories_sizes":[],"default_left":[0,0,0,0,0,0,0,0,0,0,0,0,0,0,0,0,0,0,0,0,0,0,0,0,0,0,0,0,0,0,0],"id":14,"left_children":[1,3,5,7,9,11,13,15,17,19,21,23,25,27,29,-1,-1,-1,-1,-1,-1,-1,-1,-1,-1,-1,-1,-1,-1,-1,-1],"loss_changes":[2.668784E2,2.1722813E2,2.946467E2,1.2167987E3,3.486878E2,2.63906E2,2.1297696E2,1.01799615E3,1.2598755E1,1.6214906E2,6.4403467E2,7.5566797E2,2.470365E2,1.9959819E2,9.4569374E1,0E0,0E0,0E0,0E0,0E0,0E0,0E0,0E0,0E0,0E0,0E0,0E0,0E0,0E0,0E0,0E0],"parents":[2147483647,0,0,1,1,2,2,3,3,4,4,5,5,6,6,7,7,8,8,9,9,10,10,11,11,12,12,13,13,14,14],"right_children":[2,4,6,8,10,12,14,16,18,20,22,24,26,28,30,-1,-1,-1,-1,-1,-1,-1,-1,-1,-1,-1,-1,-1,-1,-1,-1],"split_conditions":[6.007225E-4,5.5602416E-2,1E0,1.6701168E0,1E0,6.751722E-2,-1.824557E0,1.1791227E0,5.1630817E-2,1.5290664E-1,9.211896E-1,3.070632E-2,-1.833187E0,-6.048369E-1,-3.545516E-1,2.9767066E-1,-2.5637774E0,1.6102959E0,6.1234636E0,8.602504E-2,-1.22452065E-1,-5.608363E-1,1.4062535E0,6.8569526E-2,1.0359678E0,3.2178515E-1,3.161218E-2,-3.3207974E-1,3.4094396E-1,2.1756448E-4,-7.301325E-2],"split_indices":[11,0,65,1,67,0,16,1,0,0,1,1,22,12,47,0,0,0,0,0,0,0,0,0,0,0,0,0,0,0,0],"split_type":[0,0,0,0,0,0,0,0,0,0,0,0,0,0,0,0,0,0,0,0,0,0,0,0,0,0,0,0,0,0,0],"sum_hessian":[1.7056E4,2.338E3,1.4718E4,1.79E2,2.159E3,7.975E3,6.743E3,1.76E2,3E0,1.897E3,2.62E2,4.14E2,7.561E3,2.78E2,6.465E3,1.65E2,1.1E1,1E0,2E0,4.35E2,1.462E3,2.47E2,1.5E1,3.21E2,9.3E1,2.73E2,7.288E3,4.7E1,2.31E2,2.797E3,3.668E3],"tree_param":{"num_deleted":"0","num_feature":"78","num_nodes":"31","size_leaf_vector":"1"}},{"base_weights":[2.6308298E-3,1.9213926E-2,-8.226822E-1,-3.091559E-2,3.6302084E-1,-6.8361336E-1,-4.869387E0,-4.66773E-1,2.6313784E-2,1.8520776E0,6.1809443E-2,-7.5105065E-1,-4.0563032E-2,-1.7465312E0,-5.2418226E-1,-1.1065637E-1,-6.9479173E-1,-1.633708E-2,5.481619E-2,1.0799224E0,2.0594558E-1,-2.9121132E-3,5.7283974E-1,-1.7683981E-1,-3.2244185E-1,1.4141253E-1,-4.9058977E-1],"categories":[],"categories_nodes":[],"categories_segments":[],"categories_sizes":[],"default_left":[0,0,0,0,0,0,0,0,0,0,0,0,0,0,0,0,0,0,0,0,0,0,0,0,0,0,0],"id":15,"left_children":[1,3,5,7,9,11,13,15,17,19,21,23,25,-1,-1,-1,-1,-1,-1,-1,-1,-1,-1,-1,-1,-1,-1],"loss_changes":[2.334621E2,2.882128E2,1.8576213E2,3.6406772E2,9.543379E2,1.4106705E1,2.2535675E1,3.058796E2,1.630021E2,7.267976E2,2.3403473E2,1.47990265E1,2.6895838E1,0E0,0E0,0E0,0E0,0E0,0E0,0E0,0E0,0E0,0E0,0E0,0E0,0E0,0E0],"parents":[2147483647,0,0,1,1,2,2,3,3,4,4,5,5,6,6,7,7,8,8,9,9,10,10,11,11,12,12],"right_children":[2,4,6,8,10,12,14,16,18,20,22,24,26,-1,-1,-1,-1,-1,-1,-1,-1,-1,-1,-1,-1,-1,-1],"split_conditions":[3.7988367E0,7.6888627E-1,4.9731956E0,2.0023508E0,7.129024E-1,2.3330662E0,-3.012858E-1,3.9491813E0,1.9713457E-1,1.1791227E0,7.811688E0,1.1791227E0,5.8700266E0,-1.7465312E0,-5.2418226E-1,-1.1065637E-1,-6.9479173E-1,-1.633708E-2,5.481619E-2,1.0799224E0,2.0594558E-1,-2.9121132E-3,5.7283974E-1,-1.7683981E-1,-3.2244185E-1,1.4141253E-1,-4.9058977E-1],"split_indices":[0,1,1,6,0,1,26,5,1,1,1,1,0,0,0,0,0,0,0,0,0,0,0,0,0,0,0],"split_type":[0,0,0,0,0,0,0,0,0,0,0,0,0,0,0,0,0,0,0,0,0,0,0,0,0,0,0],"sum_hessian":[1.7056E4,1.6721E4,3.35E2,1.4594E4,2.127E3,3.25E2,1E1,1.693E3,1.2901E4,3.57E2,1.77E3,2.94E2,3.1E1,7E0,3E0,1.609E3,8.4E1,8.508E3,4.393E3,1.42E2,2.15E2,1.705E3,6.5E1,1.98E2,9.6E1,2.4E1,7E0],"tree_param":{"num_deleted":"0","num_feature":"78","num_nodes":"27","size_leaf_vector":"1"}},{"base_weights":[1.7225322E-3,6.709578E-2,-2.0723106E-1,1.9340732E-3,7.426551E-1,-3.365553E-1,-6.595881E-2,-3.3034292E-1,5.548494E-2,2.632459E0,5.408939E-1,-3.7106484E-1,8.979068E-1,-5.055298E-2,-4.32175E0,-7.933493E-2,-4.3580687E-1,-5.5776965E-3,1.1374769E-1,6.7717034E-1,4.578918E0,-2.754958E-1,2.2004408E-1,-1.19890474E-1,2.9994578E-3,-2.9175951E0,4.9625382E-1,-7.704863E-3,-4.206127E-1,-1.4956746E0,-5.324343E-1],"categories":[],"categories_nodes":[],"categories_segments":[],"categories_sizes":[],"default_left":[0,0,0,0,0,0,0,0,0,0,0,0,0,0,0,0,0,0,0,0,0,0,0,0,0,0,0,0,0,0,0],"id":16,"left_children":[1,3,5,7,9,11,13,15,17,19,21,23,25,27,29,-1,-1,-1,-1,-1,-1,-1,-1,-1,-1,-1,-1,-1,-1,-1,-1],"loss_changes":[2.330121E2,5.719582E2,7.4245056E1,2.1089172E2,4.343896E2,9.073198E1,1.2723795E2,1.2127176E2,2.4473912E2,4.86872E2,2.9125293E2,2.2485626E1,4.8206244E2,6.5103424E1,2.9869843E0,0E0,0E0,0E0,0E0,0E0,0E0,0E0,0E0,0E0,0E0,0E0,0E0,0E0,0E0,0E0,0E0],"parents":[2147483647,0,0,1,1,2,2,3,3,4,4,5,5,6,6,7,7,8,8,9,9,10,10,11,11,12,12,13,13,14,14],"right_children":[2,4,6,8,10,12,14,16,18,20,22,24,26,28,30,-1,-1,-1,-1,-1,-1,-1,-1,-1,-1,-1,-1,-1,-1,-1,-1],"split_conditions":[1.2589976E0,6.291725E-1,1E0,-9.8673344E-1,2.0652327E-1,7.811688E0,4.9731956E0,3.8930318E0,1.9467807E-1,2.5406408E0,-1.2885128E0,2.9846542E0,2.2459799E-1,1.6990659E0,2.8978484E0,-7.933493E-2,-4.3580687E-1,-5.5776965E-3,1.1374769E-1,6.7717034E-1,4.578918E0,-2.754958E-1,2.2004408E-1,-1.19890474E-1,2.9994578E-3,-2.9175951E0,4.9625382E-1,-7.704863E-3,-4.206127E-1,-1.4956746E0,-5.324343E-1],"split_indices":[0,1,64,62,0,1,1,5,1,1,21,1,5,51,8,0,0,0,0,0,0,0,0,0,0,0,0,0,0,0,0],"split_type":[0,0,0,0,0,0,0,0,0,0,0,0,0,0,0,0,0,0,0,0,0,0,0,0,0,0,0,0,0,0,0],"sum_hessian":[1.7056E4,1.2992E4,4.064E3,1.185E4,1.142E3,2.121E3,1.943E3,1.644E3,1.0206E4,1.09E2,1.033E3,2.064E3,5.7E1,1.937E3,6E0,1.554E3,9E1,8.306E3,1.9E3,1.07E2,2E0,1.2E2,9.13E2,1.92E3,1.44E2,3E0,5.4E1,1.903E3,3.4E1,4E0,2E0],"tree_param":{"num_deleted":"0","num_feature":"78","num_nodes":"31","size_leaf_vector":"1"}},{"base_weights":[1.1939963E-3,1.7127174E-1,-5.3591643E-2,9.457669E-1,1.1357573E-1,-7.821676E-2,3.0146247E-1,2.634779E-1,1.497665E0,5.3876936E-1,7.126569E-2,-5.7472937E-2,-7.1083456E-1,1.1686704E1,2.3276179E-1,-4.987439E-2,2.557471E-1,1.0156924E0,2.3058765E-1,6.2475834E-2,1.3455043E0,4.9948033E-2,-3.8539607E-2,-2.3808453E-2,2.532588E-1,3.2790048E0,-2.4944977E-1,1.9067174E0,4.9515934E0,2.5949273E-1,-2.3096133E-2],"categories":[],"categories_nodes":[],"categories_segments":[],"categories_sizes":[],"default_left":[0,0,0,0,0,0,0,0,0,0,0,0,0,0,0,0,0,0,0,0,0,0,0,0,0,0,0,0,0,0,0],"id":17,"left_children":[1,3,5,7,9,11,13,15,17,19,21,23,25,27,29,-1,-1,-1,-1,-1,-1,-1,-1,-1,-1,-1,-1,-1,-1,-1,-1],"loss_changes":[1.5894319E2,1.8560464E2,1.12828995E2,1.0805298E2,6.956476E1,1.583002E2,6.519593E2,3.304653E1,2.162468E2,4.5557068E2,6.697156E1,2.3066525E2,5.47065E2,2.3536255E1,1.6319096E2,0E0,0E0,0E0,0E0,0E0,0E0,0E0,0E0,0E0,0E0,0E0,0E0,0E0,0E0,0E0,0E0],"parents":[2147483647,0,0,1,1,2,2,3,3,4,4,5,5,6,6,7,7,8,8,9,9,10,10,11,11,12,12,13,13,14,14],"right_children":[2,4,6,8,10,12,14,16,18,20,22,24,26,28,30,-1,-1,-1,-1,-1,-1,-1,-1,-1,-1,-1,-1,-1,-1,-1,-1],"split_conditions":[-8.000376E0,-5.1990986E-1,1.5927368E0,6.786097E-2,7.9432026E-2,1.1791227E0,5.5602416E-2,1E0,1.7673625E-1,1.0562974E-1,-3.4951318E-2,9.948848E-1,4.1701812E-2,5.3616617E-2,1.1338922E0,-4.987439E-2,2.557471E-1,1.0156924E0,2.3058765E-1,6.2475834E-2,1.3455043E0,4.9948033E-2,-3.8539607E-2,-2.3808453E-2,2.532588E-1,3.2790048E0,-2.4944977E-1,1.9067174E0,4.9515934E0,2.5949273E-1,-2.3096133E-2],"split_indices":[14,58,1,1,0,1,0,67,0,1,36,1,0,0,0,0,0,0,0,0,0,0,0,0,0,0,0,0,0,0,0],"split_type":[0,0,0,0,0,0,0,0,0,0,0,0,0,0,0,0,0,0,0,0,0,0,0,0,0,0,0,0,0,0,0],"sum_hessian":[1.7056E4,4.155E3,1.2901E4,2.87E2,3.868E3,1.2065E4,8.36E2,1.29E2,1.58E2,3.49E2,3.519E3,1.1683E4,3.82E2,4E0,8.32E2,7.5E1,5.4E1,4.3E1,1.15E2,3.23E2,2.6E1,2.383E3,1.136E3,1.1407E4,2.76E2,3E0,3.79E2,3E0,1E0,2.73E2,5.59E2],"tree_param":{"num_deleted":"0","num_feature":"78","num_nodes":"31","size_leaf_vector":"1"}},{"base_weights":[1.6111891E-3,6.0544558E-2,-1.1059726E-1,-6.51429E-2,3.6606988E-1,-8.799749E-2,-5.793421E-1,-3.792282E-2,-8.674659E-1,3.295932E0,3.0730316E-1,-1.15975074E-1,4.6097472E-1,-4.9483988E-1,-2.726916E0,-6.18582E-3,-1.9656008E-1,-1.0075288E0,-1.03349775E-1,-6.944109E-1,1.612368E0,-7.67608E-2,1.5002993E-1,-7.2211705E-2,1.1505745E-2,-5.440151E-1,2.65253E-1,-2.3932561E-1,-1.14547774E-1,-9.251321E-1,-2.5989714E-1],"categories":[],"categories_nodes":[],"categories_segments":[],"categories_sizes":[],"default_left":[0,0,0,0,0,0,0,0,0,0,0,0,0,0,0,0,0,0,0,0,0,0,0,0,0,0,0,0,0,0,0],"id":18,"left_children":[1,3,5,7,9,11,13,15,17,19,21,23,25,27,29,-1,-1,-1,-1,-1,-1,-1,-1,-1,-1,-1,-1,-1,-1,-1,-1],"loss_changes":[1.128016E2,4.2949728E2,6.21754E1,1.7304353E2,5.602889E2,8.6140205E1,4.7648804E1,8.186713E1,3.3754263E2,7.5883545E2,3.4725095E2,1.0268536E2,2.634068E2,8.630295E0,3.9681168E0,0E0,0E0,0E0,0E0,0E0,0E0,0E0,0E0,0E0,0E0,0E0,0E0,0E0,0E0,0E0,0E0],"parents":[2147483647,0,0,1,1,2,2,3,3,4,4,5,5,6,6,7,7,8,8,9,9,10,10,11,11,12,12,13,13,14,14],"right_children":[2,4,6,8,10,12,14,16,18,20,22,24,26,28,30,-1,-1,-1,-1,-1,-1,-1,-1,-1,-1,-1,-1,-1,-1,-1,-1],"split_conditions":[9.273689E-1,1.4124908E-1,4.0510335E0,2.1142018E0,5.5602416E-2,2.9846542E0,4.9731956E0,1.6399218E0,8.538943E-2,0E0,2.0023508E0,1E0,-4.1035855E-1,7.301963E-1,5.290976E-1,-6.18582E-3,-1.9656008E-1,-1.0075288E0,-1.03349775E-1,-6.944109E-1,1.612368E0,-7.67608E-2,1.5002993E-1,-7.2211705E-2,1.1505745E-2,-5.440151E-1,2.65253E-1,-2.3932561E-1,-1.14547774E-1,-9.251321E-1,-2.5989714E-1],"split_indices":[0,1,0,51,0,1,1,18,0,13,6,64,12,1,16,0,0,0,0,0,0,0,0,0,0,0,0,0,0,0,0],"split_type":[0,0,0,0,0,0,0,0,0,0,0,0,0,0,0,0,0,0,0,0,0,0,0,0,0,0,0,0,0,0,0],"sum_hessian":[1.7056E4,1.1183E4,5.873E3,7.924E3,3.259E3,5.604E3,2.69E2,7.665E3,2.59E2,6.3E1,3.196E3,5.333E3,2.71E2,2.6E2,9E0,7.457E3,2.08E2,4.4E1,2.15E2,1.7E1,4.6E1,8.15E2,2.381E3,2.949E3,2.384E3,4.2E1,2.29E2,6.9E1,1.91E2,7E0,2E0],"tree_param":{"num_deleted":"0","num_feature":"78","num_nodes":"31","size_leaf_vector":"1"}},{"base_weights":[9.987945E-4,1.5355916E-1,-4.5353606E-2,-3.1781726E-2,7.886657E-1,-4.9629626E-1,-1.9167114E-2,9.547831E-3,-1.419912E0,7.41092E-1,9.137106E0,3.3642624E-2,-7.445368E-1,3.963061E-3,-5.1233965E-1,-1.9915374E-1,2.1208491E-2,-7.6315254E-1,-2.0366026E-1,2.5828385E-1,-1.0378422E0,1.4429158E0,3.9669983E0,3.466485E-2,-4.8956316E-2,-2.078277E-1,-1.1313261E0,-1.7386323E-2,2.8900687E-2,-4.1330222E-2,-2.1038616E-1],"categories":[],"categories_nodes":[],"categories_segments":[],"categories_sizes":[],"default_left":[0,0,0,0,0,0,0,0,0,0,0,0,0,0,0,0,0,0,0,0,0,0,0,0,0,0,0,0,0,0,0],"id":19,"left_children":[1,3,5,7,9,11,13,15,17,19,21,23,25,27,29,-1,-1,-1,-1,-1,-1,-1,-1,-1,-1,-1,-1,-1,-1,-1,-1],"loss_changes":[1.2062621E2,4.6792715E2,1.5448248E2,1.766009E2,3.4988367E2,9.4479614E1,1.4106305E2,1.2316345E2,7.2399536E1,4.5306717E2,2.4812866E1,3.7268605E0,7.4017914E1,6.756974E1,3.9112457E1,0E0,0E0,0E0,0E0,0E0,0E0,0E0,0E0,0E0,0E0,0E0,0E0,0E0,0E0,0E0,0E0],"parents":[2147483647,0,0,1,1,2,2,3,3,4,4,5,5,6,6,7,7,8,8,9,9,10,10,11,11,12,12,13,13,14,14],"right_children":[2,4,6,8,10,12,14,16,18,20,22,24,26,28,30,-1,-1,-1,-1,-1,-1,-1,-1,-1,-1,-1,-1,-1,-1,-1,-1],"split_conditions":[1.6482145E-1,7.338811E-2,-1.2885128E0,2.1142018E0,1.6701168E0,-3.0731652E-2,1.9905292E0,5.1490497E-4,8.538943E-2,1.1791227E0,2.1881323E0,1E0,1E0,3.064491E-1,1.6888475E-1,-1.9915374E-1,2.1208491E-2,-7.6315254E-1,-2.0366026E-1,2.5828385E-1,-1.0378422E0,1.4429158E0,3.9669983E0,3.466485E-2,-4.8956316E-2,-2.078277E-1,-1.1313261E0,-1.7386323E-2,2.8900687E-2,-4.1330222E-2,-2.1038616E-1],"split_indices":[0,1,21,51,1,20,25,11,0,1,1,65,67,1,1,0,0,0,0,0,0,0,0,0,0,0,0,0,0,0,0],"split_type":[0,0,0,0,0,0,0,0,0,0,0,0,0,0,0,0,0,0,0,0,0,0,0,0,0,0,0,0,0,0,0],"sum_hessian":[1.7056E4,3.974E3,1.3082E4,3.077E3,8.97E2,7.17E2,1.2365E4,2.989E3,8.8E1,8.93E2,4E0,2.29E2,4.88E2,1.1812E4,5.53E2,2.48E2,2.741E3,3.4E1,5.4E1,8.69E2,2.4E1,3E0,1E0,1.62E2,6.7E1,4.81E2,7E0,7.072E3,4.74E3,1.86E2,3.67E2],"tree_param":{"num_deleted":"0","num_feature":"78","num_nodes":"31","size_leaf_vector":"1"}}]},"name":"gbtree"},"learner_model_param":{"base_score":"4.496658E0","boost_from_average":"1","num_class":"0","num_feature":"78","num_target":"1"},"objective":{"name":"reg:squarederror","reg_loss_param":{"scale_pos_weight":"1"}}},"version":[2,1,4]}