{"learner":{"attributes":{"scikit_learn":"{\"_estimator_type\": \"regressor\"}"},"feature_names":[],"feature_types":[],"gradient_booster":{"model":{"gbtree_model_param":{"num_parallel_tree":"1","num_trees":"20"},"iteration_indptr":[0,1,2,3,4,5,6,7,8,9,10,11,12,13,14,15,16,17,18,19,20],"tree_info":[0,0,0,0,0,0,0,0,0,0,0,0,0,0,0,0,0,0,0,0],"trees":[{"base_weights":[2.5548252E-8,-1.2538549E0,1.33035E1,4.586892E0,-1.9876094E0,5.3063843E1,9.863609E0,1.0955286E0,1.9114256E1,-2.4387326E0,3.0865714E-1,5.518616E0,3.282237E1,-2.66083E-1,1.219686E0,3.0763824E0,2.3001492E1,-7.821394E-1,1.042996E-1,4.3827972E0,-3.8277578E-1,6.1557665E0,1.2136309E0,1.6338905E1,7.3213353E0],"categories":[],"categories_nodes":[],"categories_segments":[],"categories_sizes":[],"default_left":[0,0,0,0,0,0,0,0,0,0,0,0,0,0,0,0,0,0,0,0,0,0,0,0,0],"id":0,"left_children":[1,3,5,7,9,-1,11,13,15,17,19,21,23,-1,-1,-1,-1,-1,-1,-1,-1,-1,-1,-1,-1],"loss_changes":[2.9204497E5,6.857991E4,8.46782E5,9.0565516E4,1.4726059E4,0E0,1.4725773E5,8.48839E3,1.7565238E5,5.5757734E3,5.2930902E4,2.7407633E4,4.148064E4,0E0,0E0,0E0,0E0,0E0,0E0,0E0,0E0,0E0,0E0,0E0,0E0],"parents":[2147483647,0,0,1,1,2,2,3,3,4,4,6,6,7,7,8,8,9,9,10,10,11,11,12,12],"right_children":[2,4,6,8,10,-1,12,14,16,18,20,22,24,-1,-1,-1,-1,-1,-1,-1,-1,-1,-1,-1,-1],"split_conditions":[1.1586707E0,1.6686053E0,8.6015105E-2,1E0,4.3824717E-1,5.3063843E1,1.4526013E0,2.7468485E-1,4.966177E-1,1.7383943E0,3.9606956E-1,-1.1626322E0,3.520618E-1,-2.66083E-1,1.219686E0,3.0763824E0,2.3001492E1,-7.821394E-1,1.042996E-1,4.3827972E0,-3.8277578E-1,6.1557665E0,1.2136309E0,1.6338905E1,7.3213353E0],"split_indices":[1,6,0,67,1,0,39,1,1,51,0,60,0,0,0,0,0,0,0,0,0,0,0,0,0],"split_type":[0,0,0,0,0,0,0,0,0,0,0,0,0,0,0,0,0,0,0,0,0,0,0,0,0],"sum_hessian":[1.7506E4,1.5999E4,1.507E3,1.785E3,1.4214E4,3E1,1.477E3,1.44E3,3.45E2,1.188E4,2.334E3,1.243E3,2.34E2,8.64E2,5.76E2,3E2,4.5E1,1.1203E4,6.77E2,2.32E2,2.102E3,1.1E2,1.133E3,6.4E1,1.7E2],"tree_param":{"num_deleted":"0","num_feature":"78","num_nodes":"25","size_leaf_vector":"1"}},{"base_weights":[6.537179E-3,-9.6566033E-1,8.580737E0,2.9207509E0,-1.4494126E0,1.23970665E2,6.266713E0,7.5977254E-1,1.1855653E1,-1.5386729E0,5.9905043E0,2.8708153E1,4.147951E1,3.0051065E1,4.3859096E0,-8.0557764E-1,6.6137815E-1,7.0952094E-1,1.1080304E1,-5.104945E-1,1.8163025E-1,2.4149534E-1,8.84141E0,6.4478483E0,1.3160109E1,8.816535E-1,1.0786725E1],"categories":[],"categories_nodes":[],"categories_segments":[],"categories_sizes":[],"default_left":[0,0,0,0,0,0,0,0,0,0,0,0,0,0,0,0,0,0,0,0,0,0,0,0,0,0,0],"id":1,"left_children":[1,3,5,7,9,11,13,15,17,19,21,-1,-1,23,25,-1,-1,-1,-1,-1,-1,-1,-1,-1,-1,-1,-1],"loss_changes":[1.459434E5,2.9568184E4,4.7531097E5,3.3606445E4,9.296504E3,9.15875E2,7.8107445E4,6.989288E3,8.0598516E4,4.830242E3,2.0188512E4,0E0,0E0,1.41919375E4,7.399313E4,0E0,0E0,0E0,0E0,0E0,0E0,0E0,0E0,0E0,0E0,0E0,0E0],"parents":[2147483647,0,0,1,1,2,2,3,3,4,4,5,5,6,6,7,7,8,8,9,9,10,10,13,13,14,14],"right_children":[2,4,6,8,10,12,14,16,18,20,22,-1,-1,24,26,-1,-1,-1,-1,-1,-1,-1,-1,-1,-1,-1,-1],"split_conditions":[1.0132124E0,1.6686053E0,7.201265E-2,1E0,4.0697694E0,1.2985102E0,3.8206708E-1,1.1587552E0,3.0215332E-1,6.352087E-1,3.2025754E-1,2.8708153E1,4.147951E1,2.013315E0,7.9065533E0,-8.0557764E-1,6.6137815E-1,7.0952094E-1,1.1080304E1,-5.104945E-1,1.8163025E-1,2.4149534E-1,8.84141E0,6.4478483E0,1.3160109E1,8.816535E-1,1.0786725E1],"split_indices":[1,6,0,67,6,1,0,15,1,1,1,0,0,1,1,0,0,0,0,0,0,0,0,0,0,0,0],"split_type":[0,0,0,0,0,0,0,0,0,0,0,0,0,0,0,0,0,0,0,0,0,0,0,0,0,0,0],"sum_hessian":[1.7506E4,1.5724E4,1.782E3,1.74E3,1.3984E4,3.4E1,1.748E3,1.402E3,3.38E2,1.3819E4,1.65E2,1.4E1,2E1,1.27E2,1.621E3,4.14E2,9.88E2,2.46E2,9.2E1,1.2843E4,9.76E2,1.36E2,2.9E1,8E1,4.7E1,1.551E3,7E1],"tree_param":{"num_deleted":"0","num_feature":"78","num_nodes":"27","size_leaf_vector":"1"}},{"base_weights":[1.1536923E-2,-5.1796573E-1,8.5000515E0,-7.9134214E-1,7.1139812E0,3.253603E1,7.4116554E0,-1.0083274E0,4.0777693E0,2.5802145E0,5.8703407E1,2.51326E1,5.1932464E0,-1.6618632E-1,-5.660848E-1,1.84699E-1,2.6327763E0,3.8397794E0,-1.2420132E-1,2.3392487E1,7.318053E0,6.3330007E0,1.1534326E1,8.060716E-1,5.9219923E0],"categories":[],"categories_nodes":[],"categories_segments":[],"categories_sizes":[],"default_left":[0,0,0,0,0,0,0,0,0,0,0,0,0,0,0,0,0,0,0,0,0,0,0,0,0],"id":2,"left_children":[1,3,5,7,9,-1,11,13,15,17,19,21,23,-1,-1,-1,-1,-1,-1,-1,-1,-1,-1,-1,-1],"loss_changes":[7.869297E4,3.4389406E4,1.1103112E5,1.6814484E4,1.3316836E5,0E0,3.988941E4,6.0803047E3,1.103887E4,1.6069287E4,2.8513328E4,5.2408203E3,3.297887E4,0E0,0E0,0E0,0E0,0E0,0E0,0E0,0E0,0E0,0E0,0E0,0E0],"parents":[2147483647,0,0,1,1,2,2,3,3,4,4,6,6,7,7,8,8,9,9,10,10,11,11,12,12],"right_children":[2,4,6,8,10,-1,12,14,16,18,20,22,24,-1,-1,-1,-1,-1,-1,-1,-1,-1,-1,-1,-1],"split_conditions":[1.5460386E0,2.1631393E0,6.0010538E-2,1.6748766E0,7.341577E-1,3.253603E1,7.961398E-1,1E0,2.4908921E-1,9.0015806E-2,6.0010538E-2,2.9278908E0,5.0554495E0,-1.6618632E-1,-5.660848E-1,1.84699E-1,2.6327763E0,3.8397794E0,-1.2420132E-1,2.3392487E1,7.318053E0,6.3330007E0,1.1534326E1,8.060716E-1,5.9219923E0],"split_indices":[1,51,0,18,1,0,0,64,1,0,0,1,1,0,0,0,0,0,0,0,0,0,0,0,0],"split_type":[0,0,0,0,0,0,0,0,0,0,0,0,0,0,0,0,0,0,0,0,0,0,0,0,0],"sum_hessian":[1.7506E4,1.6479E4,1.027E3,1.591E4,5.69E2,1E1,1.017E3,1.5232E4,6.78E2,5.24E2,4.5E1,1.12E2,9.05E2,1.0041E4,5.191E3,3.91E2,2.87E2,1.18E2,4.06E2,2.8E1,1.7E1,8.8E1,2.4E1,7.73E2,1.32E2],"tree_param":{"num_deleted":"0","num_feature":"78","num_nodes":"25","size_leaf_vector":"1"}},{"base_weights":[1.3424736E-2,-2.8921992E-1,8.28471E0,7.4945016E0,-4.7800162E-1,3.421255E1,7.7562103E0,7.0302784E-1,4.1238647E1,-1.2338156E0,4.0765947E-1,1.2018451E1,6.984563E-1,-1.4187051E-1,2.2175298E0,1.639614E1,4.4777784E0,-4.9708E-1,-2.5386697E-1,2.4314437E0,-2.2342838E-1,2.7664344E0,6.238699E0,1.0947019E0,-6.9269586E-1],"categories":[],"categories_nodes":[],"categories_segments":[],"categories_sizes":[],"default_left":[0,0,0,0,0,0,0,0,0,0,0,0,0,0,0,0,0,0,0,0,0,0,0,0,0],"id":3,"left_children":[1,3,5,7,9,-1,11,13,15,17,19,21,23,-1,-1,-1,-1,-1,-1,-1,-1,-1,-1,-1,-1],"loss_changes":[4.3826973E4,2.4822158E4,3.3657125E4,9.164E4,1.1039496E4,0E0,1.8522027E4,2.6305674E3,2.28345E4,1.4578447E3,6.736753E4,9.235395E3,2.0759763E3,0E0,0E0,0E0,0E0,0E0,0E0,0E0,0E0,0E0,0E0,0E0,0E0],"parents":[2147483647,0,0,1,1,2,2,3,3,4,4,6,6,7,7,8,8,9,9,10,10,11,11,12,12],"right_children":[2,4,6,8,10,-1,12,14,16,18,20,22,24,-1,-1,-1,-1,-1,-1,-1,-1,-1,-1,-1,-1],"split_conditions":[2.1294317E0,-3.1938164E0,5.6009833E-2,5.705953E-1,1.7479944E-1,3.421255E1,1.7002985E0,1E0,6.401124E-2,5.2439835E-2,3.200562E-1,5.0554495E0,2.5104408E0,-1.4187051E-1,2.2175298E0,1.639614E1,4.4777784E0,-4.9708E-1,-2.5386697E-1,2.4314437E0,-2.2342838E-1,2.7664344E0,6.238699E0,1.0947019E0,-6.9269586E-1],"split_indices":[1,55,0,1,1,0,0,67,0,1,0,1,0,0,0,0,0,0,0,0,0,0,0,0,0],"split_type":[0,0,0,0,0,0,0,0,0,0,0,0,0,0,0,0,0,0,0,0,0,0,0,0,0],"sum_hessian":[1.7506E4,1.6889E4,6.17E2,3.99E2,1.649E4,2E0,6.15E2,3.33E2,6.6E1,8.897E3,7.593E3,3.83E2,2.32E2,2.84E2,4.9E1,4.3E1,2.3E1,4.252E3,4.645E3,9.88E2,6.605E3,2.92E2,9.1E1,1.17E2,1.15E2],"tree_param":{"num_deleted":"0","num_feature":"78","num_nodes":"25","size_leaf_vector":"1"}},{"base_weights":[1.3283006E-2,-4.7523892E-1,2.9931426E0,4.397299E-1,-9.248746E-1,3.55186E1,1.8736118E0,-6.585932E-1,7.267238E0,-1.1698059E0,-3.476012E-1,5.0055737E1,2.4706741E1,1.0761132E1,7.670242E-1,-3.1634665E-1,5.0898254E-1,4.7354593E0,1.4938052E0,-3.2051486E-1,-4.5257905E-1,4.8428747E-1,-3.3730918E-1,1.9395489E1,1.0046957E1,5.8013444E0,8.613725E0,2.863933E0,8.0494585E0,-2.9669942E-2,2.6859798E0],"categories":[],"categories_nodes":[],"categories_segments":[],"categories_sizes":[],"default_left":[0,0,0,0,0,0,0,0,0,0,0,0,0,0,0,0,0,0,0,0,0,0,0,0,0,0,0,0,0,0,0],"id":4,"left_children":[1,3,5,7,9,11,13,15,17,19,21,23,25,27,29,-1,-1,-1,-1,-1,-1,-1,-1,-1,-1,-1,-1,-1,-1,-1,-1],"loss_changes":[2.548683E4,6.1887246E3,8.972852E4,3.7176387E4,1.4256768E3,1.1651516E4,2.3447793E4,3.9841294E3,1.3309227E4,2.4169922E2,4.582734E3,6.0558125E3,4.9856445E2,4.8972734E3,1.504303E4,0E0,0E0,0E0,0E0,0E0,0E0,0E0,0E0,0E0,0E0,0E0,0E0,0E0,0E0,0E0,0E0],"parents":[2147483647,0,0,1,1,2,2,3,3,4,4,5,5,6,6,7,7,8,8,9,9,10,10,11,11,12,12,13,13,14,14],"right_children":[2,4,6,8,10,12,14,16,18,20,22,24,26,28,30,-1,-1,-1,-1,-1,-1,-1,-1,-1,-1,-1,-1,-1,-1,-1,-1],"split_conditions":[7.528862E-1,2.1003687E-1,2.0603618E-1,1.3109958E-1,3.1026903E-1,5.8010187E-2,6.361117E-1,6.523765E-2,7.601335E-2,9.881735E-1,9.4216543E-1,7.559674E-1,8.9709574E-1,2.9278908E0,3.8783627E0,-3.1634665E-1,5.0898254E-1,4.7354593E0,1.4938052E0,-3.2051486E-1,-4.5257905E-1,4.8428747E-1,-3.3730918E-1,1.9395489E1,1.0046957E1,5.8013444E0,8.613725E0,2.863933E0,8.0494585E0,-2.9669942E-2,2.6859798E0],"split_indices":[1,0,0,1,1,0,0,1,0,0,0,5,1,1,1,0,0,0,0,0,0,0,0,0,0,0,0,0,0,0,0],"split_type":[0,0,0,0,0,0,0,0,0,0,0,0,0,0,0,0,0,0,0,0,0,0,0,0,0,0,0,0,0,0,0],"sum_hessian":[1.7506E4,1.5041E4,2.465E3,4.956E3,1.0085E4,8.1E1,2.384E3,4.27E3,6.86E2,7.08E3,3.005E3,3.3E1,4.8E1,2.63E2,2.121E3,3.656E3,6.14E2,1.44E2,5.42E2,5.452E3,1.628E3,8.52E2,2.153E3,1.6E1,1.7E1,2.3E1,2.5E1,2.46E2,1.7E1,1.919E3,2.02E2],"tree_param":{"num_deleted":"0","num_feature":"78","num_nodes":"31","size_leaf_vector":"1"}},{"base_weights":[1.2909383E-2,-1.7800222E-1,4.249107E0,1.5203593E0,-3.9252615E-1,2.349094E1,3.9484282E0,1.6986549E-1,2.0968292E1,-2.0373707E-1,-1.6878986E0,1.0311026E1,1.6910135E0,-2.5466302E-1,1.3942306E0,4.9134974E0,9.321047E0,-1.8413578E-1,4.003525E-1,-4.0860274E-1,-9.0341866E-1,2.7080379E0,7.0133405E0,1.7112131E-1,3.005707E0],"categories":[],"categories_nodes":[],"categories_segments":[],"categories_sizes":[],"default_left":[0,0,0,0,0,0,0,0,0,0,0,0,0,0,0,0,0,0,0,0,0,0,0,0,0],"id":5,"left_children":[1,3,5,7,9,-1,11,13,15,17,19,21,23,-1,-1,-1,-1,-1,-1,-1,-1,-1,-1,-1,-1],"loss_changes":[1.4159355E4,6.10437E3,1.650202E4,4.9347082E4,3.6373704E3,0E0,1.0797919E4,8.023042E3,5.147922E3,8.190552E3,8.1194385E2,3.094787E3,5.1924556E3,0E0,0E0,0E0,0E0,0E0,0E0,0E0,0E0,0E0,0E0,0E0,0E0],"parents":[2147483647,0,0,1,1,2,2,3,3,4,4,6,6,7,7,8,8,9,9,10,10,11,11,12,12],"right_children":[2,4,6,8,10,-1,12,14,16,18,20,22,24,-1,-1,-1,-1,-1,-1,-1,-1,-1,-1,-1,-1],"split_conditions":[1.909996E0,9.201616E-2,5.6009833E-2,3.4335604E-1,1.8543257E0,2.349094E1,1.1422006E0,5.36884E-2,9.4204414E-1,3.5272032E-1,1.0431781E0,5.0554495E0,7.9065533E0,-2.5466302E-1,1.3942306E0,4.9134974E0,9.321047E0,-1.8413578E-1,4.003525E-1,-4.0860274E-1,-9.0341866E-1,2.7080379E0,7.0133405E0,1.7112131E-1,3.005707E0],"split_indices":[1,0,0,1,0,0,0,1,1,1,1,1,1,0,0,0,0,0,0,0,0,0,0,0,0],"split_type":[0,0,0,0,0,0,0,0,0,0,0,0,0,0,0,0,0,0,0,0,0,0,0,0,0],"sum_hessian":[1.7506E4,1.6752E4,7.54E2,1.878E3,1.4874E4,2E0,7.52E2,1.757E3,1.21E2,1.2983E4,1.891E3,1.96E2,5.56E2,1.432E3,3.25E2,8.5E1,3.6E1,1.0251E4,2.732E3,1.519E3,3.72E2,1.8E2,1.6E1,4.91E2,6.5E1],"tree_param":{"num_deleted":"0","num_feature":"78","num_nodes":"25","size_leaf_vector":"1"}},{"base_weights":[1.1930658E-2,-9.192526E-2,4.3107324E0,4.4222653E-1,-6.066785E-1,1.8669565E1,4.0190988E0,1.4066941E-2,8.818589E0,-4.58313E-1,-1.6483699E0,6.240579E0,-2.2134628E0,-1.6422188E-1,5.132776E-1,4.9805603E0,1.7669568E0,-1.9260524E-1,1.496189E-1,-3.7807325E-1,-8.643932E-1,5.3032737E0,1.7006702E0,-1.5671474E-1,-1.4696105E0],"categories":[],"categories_nodes":[],"categories_segments":[],"categories_sizes":[],"default_left":[0,0,0,0,0,0,0,0,0,0,0,0,0,0,0,0,0,0,0,0,0,0,0,0,0],"id":6,"left_children":[1,3,5,7,9,-1,11,13,15,17,19,21,23,-1,-1,-1,-1,-1,-1,-1,-1,-1,-1,-1,-1],"loss_changes":[7.8165005E3,4.7006475E3,6.7261772E3,3.0089938E4,1.3447661E3,0E0,5.718164E3,7.6066636E3,9.202639E3,1.3403668E3,5.155803E2,1.8874287E3,4.9240503E2,0E0,0E0,0E0,0E0,0E0,0E0,0E0,0E0,0E0,0E0,0E0,0E0],"parents":[2147483647,0,0,1,1,2,2,3,3,4,4,6,6,7,7,8,8,9,9,10,10,11,11,12,12],"right_children":[2,4,6,8,10,-1,12,14,16,18,20,22,24,-1,-1,-1,-1,-1,-1,-1,-1,-1,-1,-1,-1],"split_conditions":[2.668813E0,4.5808044E-1,5.6009833E-2,5.5810964E-1,2.4484298E0,1.8669565E1,2.0543606E0,1.0394324E-1,1.9203372E-1,7.940889E-1,1.1586707E0,3.0605373E-1,3.582629E0,-1.6422188E-1,5.132776E-1,4.9805603E0,1.7669568E0,-1.9260524E-1,1.496189E-1,-3.7807325E-1,-8.643932E-1,5.3032737E0,1.7006702E0,-1.5671474E-1,-1.4696105E0],"split_indices":[1,0,0,1,0,0,0,1,0,1,1,0,0,0,0,0,0,0,0,0,0,0,0,0,0],"split_type":[0,0,0,0,0,0,0,0,0,0,0,0,0,0,0,0,0,0,0,0,0,0,0,0,0],"sum_hessian":[1.7506E4,1.7094E4,4.12E2,8.389E3,8.705E3,1E0,4.11E2,7.982E3,4.07E2,7.621E3,1.084E3,3.03E2,1.08E2,5.998E3,1.984E3,1.1E2,2.97E2,6.394E3,1.227E3,8.26E2,2.58E2,1.3E1,2.9E2,6.7E1,4.1E1],"tree_param":{"num_deleted":"0","num_feature":"78","num_nodes":"25","size_leaf_vector":"1"}},{"base_weights":[1.0056958E-2,-9.772739E-2,2.1951988E0,6.97569E-1,-3.2180554E-1,1.5213898E1,1.896317E0,5.1336747E-2,8.141195E0,-1.4026277E-1,-7.606838E-1,4.034756E0,-8.4140044E-1,-2.1551345E-1,3.561748E-1,6.6335883E0,1.9919947E0,-1.1431958E-1,6.2179947E-1,-2.0605771E-1,-6.0114443E-1,3.246461E0,9.653393E-1,-2.5506306E-3,-9.020554E-1],"categories":[],"categories_nodes":[],"categories_segments":[],"categories_sizes":[],"default_left":[0,0,0,0,0,0,0,0,0,0,0,0,0,0,0,0,0,0,0,0,0,0,0,0,0],"id":7,"left_children":[1,3,5,7,9,-1,11,13,15,17,19,21,23,-1,-1,-1,-1,-1,-1,-1,-1,-1,-1,-1,-1],"loss_changes":[4.1235347E3,2.9736338E3,1.1838223E4,1.7643803E4,1.0371046E3,0E0,4.7981826E3,2.952587E3,5.998291E3,4.9086006E3,3.481902E2,2.5156572E3,6.4927057E2,0E0,0E0,0E0,0E0,0E0,0E0,0E0,0E0,0E0,0E0,0E0,0E0],"parents":[2147483647,0,0,1,1,2,2,3,3,4,4,6,6,7,7,8,8,9,9,10,10,11,11,12,12],"right_children":[2,4,6,8,10,-1,12,14,16,18,20,22,24,-1,-1,-1,-1,-1,-1,-1,-1,-1,-1,-1,-1],"split_conditions":[1.7985615E0,1.520267E-1,5.8010187E-2,2.1662645E-1,1.2062118E0,1.5213898E1,1.5722761E0,2.4659207E-2,5.000878E-2,5.5810964E-1,4.070715E0,3.240569E-1,3.1365507E0,-2.1551345E-1,3.561748E-1,6.6335883E0,1.9919947E0,-1.1431958E-1,6.2179947E-1,-2.0605771E-1,-6.0114443E-1,3.246461E0,9.653393E-1,-2.5506306E-3,-9.020554E-1],"split_indices":[1,0,0,1,0,0,0,1,0,1,0,0,0,0,0,0,0,0,0,0,0,0,0,0,0],"split_type":[0,0,0,0,0,0,0,0,0,0,0,0,0,0,0,0,0,0,0,0,0,0,0,0,0],"sum_hessian":[1.7506E4,1.6684E4,8.22E2,3.667E3,1.3017E4,4E0,8.18E2,3.375E3,2.92E2,9.209E3,3.808E3,4.59E2,3.59E2,2.012E3,1.363E3,2.7E1,2.65E2,8.306E3,9.03E2,3.596E3,2.12E2,4.8E1,4.11E2,2.6E2,9.9E1],"tree_param":{"num_deleted":"0","num_feature":"78","num_nodes":"25","size_leaf_vector":"1"}},{"base_weights":[8.581409E-3,-1.9189471E-2,6.828754E0,-3.073097E-1,3.6654484E-1,9.510663E0,-3.81775E0,-1.2146984E0,-2.1184565E-1,4.785763E0,-1.3199598E-2,2.3571306E1,7.705384E0,-5.415592E-1,-2.5925329E0,-6.383461E-1,-1.11319646E-1,1.642319E-2,-1.5473239E-1,4.6796565E0,1.1201075E0,2.0025955E-1,-1.7820108E-1,4.3451886E0,1.0351206E1,-2.5266823E-1,2.6515799E0,-6.5845585E-1,1.214323E0],"categories":[],"categories_nodes":[],"categories_segments":[],"categories_sizes":[],"default_left":[0,0,0,0,0,0,0,0,0,0,0,0,0,0,0,0,0,0,0,0,0,0,0,0,0,0,0,0,0],"id":8,"left_children":[1,3,5,7,9,11,13,15,17,19,21,23,25,27,-1,-1,-1,-1,-1,-1,-1,-1,-1,-1,-1,-1,-1,-1,-1],"loss_changes":[3.315995E3,1.9380236E3,2.063569E3,8.6441315E2,1.2512524E4,1.2652275E3,2.3238643E2,7.310332E2,7.319208E2,6.6536836E3,2.7154124E3,9.6341064E1,5.111306E2,8.475885E1,0E0,0E0,0E0,0E0,0E0,0E0,0E0,0E0,0E0,0E0,0E0,0E0,0E0,0E0,0E0],"parents":[2147483647,0,0,1,1,2,2,3,3,4,4,5,5,6,6,7,7,8,8,9,9,10,10,11,11,12,12,13,13],"right_children":[2,4,6,8,10,12,14,16,18,20,22,24,26,28,-1,-1,-1,-1,-1,-1,-1,-1,-1,-1,-1,-1,-1,-1,-1],"split_conditions":[7.9065533E0,2.1069576E-1,1.5092011E-3,1.9941869E0,2.380418E-1,1.1422006E0,1.8903319E0,8.615115E-2,2.7604848E-1,5.6009833E-2,1.3522375E0,1E0,-6.1119455E-1,1E0,-2.5925329E0,-6.383461E-1,-1.11319646E-1,1.642319E-2,-1.5473239E-1,4.6796565E0,1.1201075E0,2.0025955E-1,-1.7820108E-1,4.3451886E0,1.0351206E1,-2.5266823E-1,2.6515799E0,-6.5845585E-1,1.214323E0],"split_indices":[1,1,13,6,0,0,0,1,0,0,0,73,12,73,0,0,0,0,0,0,0,0,0,0,0,0,0,0,0],"split_type":[0,0,0,0,0,0,0,0,0,0,0,0,0,0,0,0,0,0,0,0,0,0,0,0,0,0,0,0,0],"sum_hessian":[1.7506E4,1.7436E4,7E1,9.981E3,7.455E3,5.6E1,1.4E1,9.49E2,9.032E3,5.89E2,6.866E3,5E0,5.1E1,9E0,5E0,4.55E2,4.94E2,4.812E3,4.22E3,5.1E1,5.38E2,3.161E3,3.705E3,4E0,1E0,6E0,4.5E1,7E0,2E0],"tree_param":{"num_deleted":"0","num_feature":"78","num_nodes":"29","size_leaf_vector":"1"}},{"base_weights":[7.148947E-3,-3.7058193E-2,2.7671862E0,3.0963716E-1,-2.2900006E-1,8.177665E0,1.6777958E0,-1.38943E-3,5.424792E0,-1.298245E0,-1.18596755E-1,6.4018703E0,1.8949314E1,2.6676862E0,-2.4730332E0,-1.277734E-1,2.0519379E-1,1.2699813E0,3.2161472E0,-1.9400172E-1,-6.5054613E-1,-1.2685582E-1,1.1634679E-2,4.713713E0,1.4912012E0,3.3023434E0,8.798525E0,4.838579E-1,1.4620564E0,-5.5442072E-2,-1.5238048E0],"categories":[],"categories_nodes":[],"categories_segments":[],"categories_sizes":[],"default_left":[0,0,0,0,0,0,0,0,0,0,0,0,0,0,0,0,0,0,0,0,0,0,0,0,0,0,0,0,0,0,0],"id":9,"left_children":[1,3,5,7,9,11,13,15,17,19,21,23,25,27,29,-1,-1,-1,-1,-1,-1,-1,-1,-1,-1,-1,-1,-1,-1,-1,-1],"loss_changes":[2.1361902E3,1.1467804E3,1.6130574E3,9.770025E3,1.3092363E3,7.585879E2,9.5574536E2,1.684915E3,2.1757139E3,5.8717053E2,4.8148505E2,4.6823206E2,1.717124E2,4.2724646E2,2.6743408E2,0E0,0E0,0E0,0E0,0E0,0E0,0E0,0E0,0E0,0E0,0E0,0E0,0E0,0E0,0E0,0E0],"parents":[2147483647,0,0,1,1,2,2,3,3,4,4,5,5,6,6,7,7,8,8,9,9,10,10,11,11,12,12,13,13,14,14],"right_children":[2,4,6,8,10,12,14,16,18,20,22,24,26,28,30,-1,-1,-1,-1,-1,-1,-1,-1,-1,-1,-1,-1,-1,-1,-1,-1],"split_conditions":[3.2868538E0,2.6804706E-1,1.1422006E0,3.8237378E-1,1.9941869E0,7.9065533E0,2.9305146E0,4.2451292E-2,1.2985102E0,-3.6147362E-1,1.654352E-1,3.0605373E-1,1E0,7.9065533E0,5.0554495E0,-1.277734E-1,2.0519379E-1,1.2699813E0,3.2161472E0,-1.9400172E-1,-6.5054613E-1,-1.2685582E-1,1.1634679E-2,4.713713E0,1.4912012E0,3.3023434E0,8.798525E0,4.838579E-1,1.4620564E0,-5.5442072E-2,-1.5238048E0],"split_indices":[1,0,0,1,6,1,0,1,1,30,1,0,73,1,1,0,0,0,0,0,0,0,0,0,0,0,0,0,0,0,0],"split_type":[0,0,0,0,0,0,0,0,0,0,0,0,0,0,0,0,0,0,0,0,0,0,0,0,0,0,0,0,0,0,0],"sum_hessian":[1.7506E4,1.7231E4,2.75E2,6.14E3,1.1091E4,4.5E1,2.3E2,5.789E3,3.51E2,1.037E3,1.0054E4,4E1,5E0,1.86E2,4.4E1,3.575E3,2.214E3,2.88E2,6.3E1,5.94E2,4.43E2,3.427E3,6.627E3,4E0,3.6E1,4E0,1E0,1.27E2,5.9E1,2.4E1,2E1],"tree_param":{"num_deleted":"0","num_feature":"78","num_nodes":"31","size_leaf_vector":"1"}},{"base_weights":[6.276691E-3,-3.4295417E-2,1.6856323E0,4.8503894E-1,-1.3152397E-1,1.2402675E1,1.4890332E0,-1.2727198E-1,3.0354052E0,-7.700969E-1,-5.332213E-2,4.237343E0,6.0622174E-1,-6.5307605E-1,2.3731496E-2,7.8801715E-1,3.7980893E0,-1.8457556E-1,-1.5081009E0,2.9285135E-2,-1.02489516E-1,1.0664179E0,3.8395727E0,2.8935064E-2,7.6491374E-1],"categories":[],"categories_nodes":[],"categories_segments":[],"categories_sizes":[],"default_left":[0,0,0,0,0,0,0,0,0,0,0,0,0,0,0,0,0,0,0,0,0,0,0,0,0],"id":10,"left_children":[1,3,5,7,9,-1,11,13,15,17,19,21,23,-1,-1,-1,-1,-1,-1,-1,-1,-1,-1,-1,-1],"loss_changes":[1.1928972E3,8.6326086E2,3.1583772E3,4.210506E3,7.1906006E2,0E0,9.9704175E2,9.201975E2,2.0200405E3,1.0324487E3,5.5835944E2,5.389087E2,3.098545E2,0E0,0E0,0E0,0E0,0E0,0E0,0E0,0E0,0E0,0E0,0E0,0E0],"parents":[2147483647,0,0,1,1,2,2,3,3,4,4,6,6,7,7,8,8,9,9,10,10,11,11,12,12],"right_children":[2,4,6,8,10,-1,12,14,16,18,20,22,24,-1,-1,-1,-1,-1,-1,-1,-1,-1,-1,-1,-1],"split_conditions":[2.668813E0,1.1802072E-1,5.6009833E-2,7.4914046E-2,1.9941869E0,1.2402675E1,1.2062118E0,1.6686053E0,1.2985102E0,1E0,1.0721883E0,7.9065533E0,7.9065533E0,-6.5307605E-1,2.3731496E-2,7.8801715E-1,3.7980893E0,-1.8457556E-1,-1.5081009E0,2.9285135E-2,-1.02489516E-1,1.0664179E0,3.8395727E0,2.8935064E-2,7.6491374E-1],"split_indices":[1,0,0,1,6,0,0,6,1,67,0,1,1,0,0,0,0,0,0,0,0,0,0,0,0],"split_type":[0,0,0,0,0,0,0,0,0,0,0,0,0,0,0,0,0,0,0,0,0,0,0,0,0],"sum_hessian":[1.7506E4,1.7094E4,4.12E2,2.695E3,1.4399E4,1E0,4.11E2,2.174E3,5.21E2,1.57E3,1.2829E4,9.9E1,3.12E2,1.98E2,1.976E3,5.01E2,2E1,1.516E3,5.4E1,8.421E3,4.408E3,9.3E1,6E0,2.48E2,6.4E1],"tree_param":{"num_deleted":"0","num_feature":"78","num_nodes":"25","size_leaf_vector":"1"}},{"base_weights":[5.5527994E-3,-1.21408224E-1,3.4255087E-1,-6.645686E-1,-5.9078634E-2,4.298103E0,1.2567326E-1,-8.918672E-1,1.0621224E-1,-4.811645E-2,-2.452337E0,3.8311694E0,2.2570383E1,1.1676054E0,-2.1236116E-1,1.4539997E-1,-3.2072514E-1,-9.4676815E-2,1.4387842E-1,7.956952E-2,-4.246273E-2,-1.3725388E0,-3.8716456E-1,4.336899E0,9.9459714E-1,1.0185724E1,2.5173795E0,1.009681E-1,7.5983983E-1,-8.066912E-2,7.518031E-1],"categories":[],"categories_nodes":[],"categories_segments":[],"categories_sizes":[],"default_left":[0,0,0,0,0,0,0,0,0,0,0,0,0,0,0,0,0,0,0,0,0,0,0,0,0,0,0,0,0,0,0],"id":11,"left_children":[1,3,5,7,9,11,13,15,17,19,21,23,25,27,29,-1,-1,-1,-1,-1,-1,-1,-1,-1,-1,-1,-1,-1,-1,-1,-1],"loss_changes":[7.490895E2,4.3049432E2,4.109518E3,2.2942816E2,2.9920105E2,2.0379824E3,1.6003331E3,2.4714606E2,4.7241856E1,3.3254138E2,1.2233981E2,1.2894229E3,6.834192E2,1.2618881E3,5.2796893E2,0E0,0E0,0E0,0E0,0E0,0E0,0E0,0E0,0E0,0E0,0E0,0E0,0E0,0E0,0E0,0E0],"parents":[2147483647,0,0,1,1,2,2,3,3,4,4,5,5,6,6,7,7,8,8,9,9,10,10,11,11,12,12,13,13,14,14],"right_children":[2,4,6,8,10,12,14,16,18,20,22,24,26,28,30,-1,-1,-1,-1,-1,-1,-1,-1,-1,-1,-1,-1,-1,-1,-1,-1],"split_conditions":[3.8237378E-1,1.6686053E0,2.2403933E-1,1E0,2.1646132E0,2.1294317E0,9.761714E-1,6.0010538E-2,9.270614E-2,1.3602388E-1,9.0015806E-2,4.600808E-2,5.6009833E-2,8.415345E-1,7.9065533E0,1.4539997E-1,-3.2072514E-1,-9.4676815E-2,1.4387842E-1,7.956952E-2,-4.246273E-2,-1.3725388E0,-3.8716456E-1,4.336899E0,9.9459714E-1,1.0185724E1,2.5173795E0,1.009681E-1,7.5983983E-1,-8.066912E-2,7.518031E-1],"split_indices":[1,6,0,66,51,1,0,0,1,0,0,0,0,1,1,0,0,0,0,0,0,0,0,0,0,0,0,0,0,0,0],"split_type":[0,0,0,0,0,0,0,0,0,0,0,0,0,0,0,0,0,0,0,0,0,0,0,0,0,0,0,0,0,0,0],"sum_hessian":[1.7506E4,1.2716E4,4.79E3,1.308E3,1.1408E4,2.48E2,4.542E3,1.01E3,2.98E2,1.1357E4,5.1E1,2.43E2,5E0,1.112E3,3.43E3,1.15E2,8.95E2,1.4E2,1.58E2,2.608E3,8.749E3,1.7E1,3.4E1,1E1,2.33E2,2E0,3E0,6.92E2,4.2E2,3.361E3,6.9E1],"tree_param":{"num_deleted":"0","num_feature":"78","num_nodes":"31","size_leaf_vector":"1"}},{"base_weights":[4.8989966E-3,-1.9484699E-1,1.7569208E-1,-1.5105313E-1,-1.4891794E0,2.4353824E0,7.7240594E-2,-5.757815E-2,-3.7129337E-1,-3.9837134E0,-8.8772887E-1,2.1564424E0,2.3705624E1,5.768652E-1,-1.3737017E-1,-7.22607E-2,1.0520391E-1,-1.6135997E-1,-4.7913447E-2,-9.970012E-1,-1.3472611E0,-1.2108749E-1,-3.391043E-1,2.727429E0,5.271021E-1,8.028968E0,1.7212831E0,7.454074E-2,6.381189E-1,-5.7560224E-2,2.689859E-1],"categories":[],"categories_nodes":[],"categories_segments":[],"categories_sizes":[],"default_left":[0,0,0,0,0,0,0,0,0,0,0,0,0,0,0,0,0,0,0,0,0,0,0,0,0,0,0,0,0,0,0],"id":12,"left_children":[1,3,5,7,9,11,13,15,17,19,21,23,25,27,29,-1,-1,-1,-1,-1,-1,-1,-1,-1,-1,-1,-1,-1,-1,-1,-1],"loss_changes":[5.9728955E2,4.5721335E2,2.0994824E3,1.6070096E2,3.9255304E2,2.28653E3,9.6992773E2,4.103021E2,8.189133E1,2.1559448E0,2.4678635E1,1.0643579E3,1.2113818E2,1.383148E3,3.567522E2,0E0,0E0,0E0,0E0,0E0,0E0,0E0,0E0,0E0,0E0,0E0,0E0,0E0,0E0,0E0,0E0],"parents":[2147483647,0,0,1,1,2,2,3,3,4,4,5,5,6,6,7,7,8,8,9,9,10,10,11,11,12,12,13,13,14,14],"right_children":[2,4,6,8,10,12,14,16,18,20,22,24,26,28,30,-1,-1,-1,-1,-1,-1,-1,-1,-1,-1,-1,-1,-1,-1,-1,-1],"split_conditions":[1.3983956E-1,2.1631393E0,1.3802424E-1,3.36059E-1,9.0015806E-2,1.707416E0,8.3814716E-1,4.5884855E-2,1E0,1.2851446E0,1.4202493E-1,4.600808E-2,5.6009833E-2,6.6486216E-1,2.9278908E0,-7.22607E-2,1.0520391E-1,-1.6135997E-1,-4.7913447E-2,-9.970012E-1,-1.3472611E0,-1.2108749E-1,-3.391043E-1,2.727429E0,5.271021E-1,8.028968E0,1.7212831E0,7.454074E-2,6.381189E-1,-5.7560224E-2,2.689859E-1],"split_indices":[1,51,0,0,0,1,0,1,64,5,0,0,0,1,1,0,0,0,0,0,0,0,0,0,0,0,0,0,0,0,0],"split_type":[0,0,0,0,0,0,0,0,0,0,0,0,0,0,0,0,0,0,0,0,0,0,0,0,0,0,0,0,0,0,0],"sum_hessian":[1.7506E4,8.069E3,9.437E3,7.806E3,2.63E2,3.93E2,9.044E3,5.481E3,2.325E3,5E1,2.13E2,3.89E2,4E0,2.717E3,6.327E3,3.783E3,1.698E3,1.3E3,1.025E3,2.5E1,2.5E1,7.2E1,1.41E2,2E1,3.69E2,3E0,1E0,2.243E3,4.74E2,6.011E3,3.16E2],"tree_param":{"num_deleted":"0","num_feature":"78","num_nodes":"31","size_leaf_vector":"1"}},{"base_weights":[4.0546567E-3,2.7567072E-2,-9.6438336E-1,6.384568E-3,1.4722395E0,-8.2812977E-1,-4.542605E0,1.740404E-2,-3.3582773E0,3.1704774E0,3.899824E-1,-4.0771487E-1,-1.5069218E0,-1.9258908E0,-2.0977483E0,-4.071391E-2,4.8355393E-2,2.0940255E-2,-1.265065E0,1.3023266E0,-3.650981E-1,3.4323943E-1,-6.783029E-1,-7.443984E-2,-2.3897235E-1,-3.864502E-1,-1.1909819E0,-1.3662815E-1,-7.707852E-1],"categories":[],"categories_nodes":[],"categories_segments":[],"categories_sizes":[],"default_left":[0,0,0,0,0,0,0,0,0,0,0,0,0,0,0,0,0,0,0,0,0,0,0,0,0,0,0,0,0],"id":13,"left_children":[1,3,5,7,9,11,13,15,17,19,21,23,25,-1,27,-1,-1,-1,-1,-1,-1,-1,-1,-1,-1,-1,-1,-1,-1],"loss_changes":[3.9866656E2,5.2306683E2,1.9856952E2,6.246914E2,4.5273236E2,1.1382071E2,5.5369293E1,3.6972418E2,1.621795E2,4.9834113E2,3.064718E2,1.5254047E1,7.732181E1,0E0,5.025181E0,0E0,0E0,0E0,0E0,0E0,0E0,0E0,0E0,0E0,0E0,0E0,0E0,0E0,0E0],"parents":[2147483647,0,0,1,1,2,2,3,3,4,4,5,5,6,6,7,7,8,8,9,9,10,10,11,11,12,12,14,14],"right_children":[2,4,6,8,10,12,14,16,18,20,22,24,26,-1,28,-1,-1,-1,-1,-1,-1,-1,-1,-1,-1,-1,-1,-1,-1],"split_conditions":[3.582629E0,3.2868538E0,5.0554495E0,1.0736789E1,1.3702406E0,1.1586707E0,3.5456958E-1,1.4202455E-1,1.0731437E0,1.0635625E1,1.0567156E1,4.8908587E0,9.8519474E-1,-1.9258908E0,3.8166702E0,-4.071391E-2,4.8355393E-2,2.0940255E-2,-1.265065E0,1.3023266E0,-3.650981E-1,3.4323943E-1,-6.783029E-1,-7.443984E-2,-2.3897235E-1,-3.864502E-1,-1.1909819E0,-1.3662815E-1,-7.707852E-1],"split_indices":[0,1,1,9,0,1,33,1,1,11,10,0,61,0,0,0,0,0,0,0,0,0,0,0,0,0,0,0,0],"split_type":[0,0,0,0,0,0,0,0,0,0,0,0,0,0,0,0,0,0,0,0,0,0,0,0,0,0,0,0,0],"sum_hessian":[1.7506E4,1.7092E4,4.14E2,1.6846E4,2.46E2,4E2,1.4E1,1.6792E4,5.4E1,9.5E1,1.51E2,2.48E2,1.52E2,7E0,7E0,8.132E3,8.66E3,1.1E1,4.3E1,7.5E1,2E1,1.18E2,3.3E1,1.77E2,7.1E1,1.41E2,1.1E1,2E0,5E0],"tree_param":{"num_deleted":"0","num_feature":"78","num_nodes":"29","size_leaf_vector":"1"}},{"base_weights":[2.53221E-3,-3.340608E-1,5.090574E-2,-5.0744474E-1,7.2465897E-1,8.022305E-2,-5.127354E-1,-7.167742E-1,4.162511E-1,1.5560627E1,3.3055866E-1,-3.7928883E-2,3.2381842E-1,-4.5529547E-1,-6.6019745E0,-1.8237059E-1,-7.7977496E-1,1.3224706E-2,9.433317E-1,6.0603695E0,3.2776338E-1,-1.4788522E-1,3.6584687E-1,8.2524836E-2,-3.3182587E-2,4.2042115E-1,1.9965319E-2,-1.0307922E-1,-5.0731313E-1,-2.1281397E0,-5.476539E-1],"categories":[],"categories_nodes":[],"categories_segments":[],"categories_sizes":[],"default_left":[0,0,0,0,0,0,0,0,0,0,0,0,0,0,0,0,0,0,0,0,0,0,0,0,0,0,0,0,0,0,0],"id":14,"left_children":[1,3,5,7,9,11,13,15,17,19,21,23,25,27,29,-1,-1,-1,-1,-1,-1,-1,-1,-1,-1,-1,-1,-1,-1,-1,-1],"loss_changes":[2.8506937E2,4.0421075E2,2.5299731E2,3.6593604E2,1.8073829E3,4.1883725E2,2.6176675E2,3.1445203E2,3.5523257E2,5.1505444E2,2.2241016E2,2.2297655E2,1.3175691E3,1.0308003E2,3.4944458E0,0E0,0E0,0E0,0E0,0E0,0E0,0E0,0E0,0E0,0E0,0E0,0E0,0E0,0E0,0E0,0E0],"parents":[2147483647,0,0,1,1,2,2,3,3,4,4,5,5,6,6,7,7,8,8,9,9,10,10,11,11,12,12,13,13,14,14],"right_children":[2,4,6,8,10,12,14,16,18,20,22,24,26,28,30,-1,-1,-1,-1,-1,-1,-1,-1,-1,-1,-1,-1,-1,-1,-1,-1],"split_conditions":[1.9941869E0,1.4133784E0,2.8184948E0,1E0,5.6009833E-2,2.5283492E-1,7.9065533E0,3.9499295E0,4.3824717E-1,6.9926983E-1,-1.4865975E0,1.0601862E-1,6.641166E-1,5.873031E0,1E0,-1.8237059E-1,-7.7977496E-1,1.3224706E-2,9.433317E-1,6.0603695E0,3.2776338E-1,-1.4788522E-1,3.6584687E-1,8.2524836E-2,-3.3182587E-2,4.2042115E-1,1.9965319E-2,-1.0307922E-1,-5.0731313E-1,-2.1281397E0,-5.476539E-1],"split_indices":[6,1,0,66,0,1,1,5,1,5,34,0,0,0,74,0,0,0,0,0,0,0,0,0,0,0,0,0,0,0,0],"split_type":[0,0,0,0,0,0,0,0,0,0,0,0,0,0,0,0,0,0,0,0,0,0,0,0,0,0,0,0,0,0,0],"sum_hessian":[1.7506E4,2.199E3,1.5307E4,1.89E3,3.09E2,1.4551E4,7.56E2,1.541E3,3.49E2,7E0,3.02E2,9.799E3,4.752E3,7.5E2,6E0,1.458E3,8.3E1,3.08E2,4.1E1,5E0,2E0,1.57E2,1.45E2,1.846E3,7.953E3,9.15E2,3.837E3,6.89E2,6.1E1,5E0,1E0],"tree_param":{"num_deleted":"0","num_feature":"78","num_nodes":"31","size_leaf_vector":"1"}},{"base_weights":[1.9898426E-3,-5.334371E-3,1.8007268E0,4.8882235E-3,-1.6610581E0,1.634395E1,1.1423151E0,-1.1690333E-2,8.309333E-1,-2.317386E0,-4.08321E-1,7.7825207E-1,6.576526E0,-2.2784452E0,1.7968282E0,2.2636358E-2,-4.6849977E-2,4.7501283E0,1.8176211E-1,6.5333605E-2,-8.381205E-1,1.6205666E0,-2.6434886E-1,2.1468592E0,-7.511065E-2],"categories":[],"categories_nodes":[],"categories_segments":[],"categories_sizes":[],"default_left":[0,0,0,0,0,0,0,0,0,0,0,0,0,0,0,0,0,0,0,0,0,0,0,0,0],"id":15,"left_children":[1,3,5,7,9,11,13,15,17,19,21,-1,-1,-1,23,-1,-1,-1,-1,-1,-1,-1,-1,-1,-1],"loss_changes":[2.3065266E2,2.9514316E2,6.611854E2,2.3735141E2,8.7029816E1,1.7321179E2,4.0822772E2,2.1393463E2,1.1418032E3,8.514203E1,1.0915774E2,0E0,0E0,0E0,7.1495105E2,0E0,0E0,0E0,0E0,0E0,0E0,0E0,0E0,0E0,0E0],"parents":[2147483647,0,0,1,1,2,2,3,3,4,4,5,5,6,6,7,7,8,8,9,9,10,10,14,14],"right_children":[2,4,6,8,10,12,14,16,18,20,22,-1,-1,-1,24,-1,-1,-1,-1,-1,-1,-1,-1,-1,-1],"split_conditions":[7.9065533E0,1.0736789E1,1.0841904E0,2.4515622E0,3.8783627E0,7.6213384E-1,2.6458856E-1,6.32267E-2,2.380418E-1,1.0731437E0,8.3814716E-1,7.7825207E-1,6.576526E0,-2.2784452E0,8.126649E-1,2.2636358E-2,-4.6849977E-2,4.7501283E0,1.8176211E-1,6.5333605E-2,-8.381205E-1,1.6205666E0,-2.6434886E-1,2.1468592E0,-7.511065E-2],"split_indices":[1,9,0,1,1,0,5,16,0,1,0,0,0,0,5,0,0,0,0,0,0,0,0,0,0],"split_type":[0,0,0,0,0,0,0,0,0,0,0,0,0,0,0,0,0,0,0,0,0,0,0,0,0],"sum_hessian":[1.7506E4,1.7436E4,7E1,1.733E4,1.06E2,2E0,6.8E1,1.699E4,3.4E2,6.9E1,3.7E1,1E0,1E0,4E0,6.4E1,1.0598E4,6.392E3,4E0,3.36E2,1.1E1,5.8E1,2E0,3.5E1,1.7E1,4.7E1],"tree_param":{"num_deleted":"0","num_feature":"78","num_nodes":"25","size_leaf_vector":"1"}},{"base_weights":[2.1148166E-3,4.3753287E-1,-2.6115188E-2,-2.4753644E-1,2.1794782E0,-3.9806888E-3,-5.9286654E-1,-1.7598562E0,-6.8607226E-2,1.9752625E0,1.3873996E1,1.4773029E-2,-5.5379474E-1,7.0787954E-1,-1.0039693E0,-8.211209E-2,-8.82808E-1,-1.03166215E-1,2.2873917E-1,-2.0717719E-1,8.7836933E-1,2.1121273E0,6.1812425E0,2.0230679E-2,-5.626556E-2,-8.319361E-2,-1.0026404E0,-4.8206346E-3,3.2317107E0,-3.869129E-1,2.910256E-1],"categories":[],"categories_nodes":[],"categories_segments":[],"categories_sizes":[],"default_left":[0,0,0,0,0,0,0,0,0,0,0,0,0,0,0,0,0,0,0,0,0,0,0,0,0,0,0,0,0,0,0],"id":16,"left_children":[1,3,5,7,9,11,13,15,17,19,21,23,25,27,29,-1,-1,-1,-1,-1,-1,-1,-1,-1,-1,-1,-1,-1,-1,-1,-1],"loss_changes":[2.1520493E2,1.2726542E3,2.0625854E2,2.0715747E2,6.914447E2,1.6318066E2,3.311802E2,1.4158223E2,1.5720348E2,7.5627893E2,8.48927E1,1.6307596E2,4.0149744E2,1.0858124E3,2.663627E2,0E0,0E0,0E0,0E0,0E0,0E0,0E0,0E0,0E0,0E0,0E0,0E0,0E0,0E0,0E0,0E0],"parents":[2147483647,0,0,1,1,2,2,3,3,4,4,5,5,6,6,7,7,8,8,9,9,10,10,11,11,12,12,13,13,14,14],"right_children":[2,4,6,8,10,12,14,16,18,20,22,24,26,28,30,-1,-1,-1,-1,-1,-1,-1,-1,-1,-1,-1,-1,-1,-1,-1,-1],"split_conditions":[6.801194E-2,3.0589903E-2,1.6410438E0,1.6686053E0,1.707416E0,1.7819759E0,1.3802424E-1,1E0,1.1237107E-2,-7.623474E-1,2.2680228E0,1.4962627E0,1E0,6.823421E-1,1.4770553E0,-8.211209E-2,-8.82808E-1,-1.03166215E-1,2.2873917E-1,-2.0717719E-1,8.7836933E-1,2.1121273E0,6.1812425E0,2.0230679E-2,-5.626556E-2,-8.319361E-2,-1.0026404E0,-4.8206346E-3,3.2317107E0,-3.869129E-1,2.910256E-1],"split_indices":[0,1,18,6,1,51,0,67,1,46,1,0,67,1,1,0,0,0,0,0,0,0,0,0,0,0,0,0,0,0,0],"split_type":[0,0,0,0,0,0,0,0,0,0,0,0,0,0,0,0,0,0,0,0,0,0,0,0,0,0,0,0,0,0,0],"sum_hessian":[1.7506E4,1.065E3,1.6441E4,7.65E2,3E2,1.5824E4,6.17E2,8E1,6.85E2,2.96E2,4E0,1.5303E4,5.21E2,1.48E2,4.69E2,3.6E1,4.4E1,5.15E2,1.7E2,7.8E1,2.18E2,3E0,1E0,1.2143E4,3.16E3,4.75E2,4.6E1,1.39E2,9E0,4.1E2,5.9E1],"tree_param":{"num_deleted":"0","num_feature":"78","num_nodes":"31","size_leaf_vector":"1"}},{"base_weights":[2.0592634E-3,-1.420233E-1,7.71232E-2,-9.900202E-2,-8.3167124E-1,1.1193284E0,-4.6007168E-3,9.952801E-3,-2.3062947E-1,-1.7553712E0,-6.800496E-1,5.3085546E0,9.462057E-1,2.559745E-2,-8.851117E-1,-3.0217373E-1,1.2031882E-2,-4.2070873E-2,-9.019489E-2,-7.9752296E-1,-2.9494473E-1,-1.6757981E-1,-5.194729E-1,1.199875E0,3.551664E0,2.71145E-1,5.254056E0,1.13224566E-1,-1.8730396E-2,-3.6037034E-1,2.0517315E-1],"categories":[],"categories_nodes":[],"categories_segments":[],"categories_sizes":[],"default_left":[0,0,0,0,0,0,0,0,0,0,0,0,0,0,0,0,0,0,0,0,0,0,0,0,0,0,0,0,0,0,0],"id":17,"left_children":[1,3,5,7,9,11,13,15,17,19,21,23,25,27,29,-1,-1,-1,-1,-1,-1,-1,-1,-1,-1,-1,-1,-1,-1,-1,-1],"loss_changes":[1.8935625E2,1.7784584E2,9.804326E2,8.0974106E1,4.8104874E1,6.020116E2,2.8386896E2,9.4817085E1,1.6141968E1,3.1556381E1,3.7856033E1,2.347337E2,5.4950104E2,3.1970886E2,1.764068E2,0E0,0E0,0E0,0E0,0E0,0E0,0E0,0E0,0E0,0E0,0E0,0E0,0E0,0E0,0E0,0E0],"parents":[2147483647,0,0,1,1,2,2,3,3,4,4,5,5,6,6,7,7,8,8,9,9,10,10,11,11,12,12,13,13,14,14],"right_children":[2,4,6,8,10,12,14,16,18,20,22,24,26,28,30,-1,-1,-1,-1,-1,-1,-1,-1,-1,-1,-1,-1,-1,-1,-1,-1],"split_conditions":[8.42783E-2,1.6799395E0,1.7002985E-1,1E0,1.4670668E-2,4.800843E-2,1.6410438E0,-2.1005797E0,1.4202493E-1,1.6025058E-3,3.2558153E0,1.2985102E0,2.2680228E0,5.440955E-1,1.4770553E0,-3.0217373E-1,1.2031882E-2,-4.2070873E-2,-9.019489E-2,-7.9752296E-1,-2.9494473E-1,-1.6757981E-1,-5.194729E-1,1.199875E0,3.551664E0,2.71145E-1,5.254056E0,1.13224566E-1,-1.8730396E-2,-3.6037034E-1,2.0517315E-1],"split_indices":[1,51,0,65,1,0,18,52,0,9,6,1,1,0,1,0,0,0,0,0,0,0,0,0,0,0,0,0,0,0,0],"split_type":[0,0,0,0,0,0,0,0,0,0,0,0,0,0,0,0,0,0,0,0,0,0,0,0,0,0,0,0,0,0,0],"sum_hessian":[1.7506E4,5.996E3,1.151E4,5.645E3,3.51E2,8.36E2,1.0674E4,3.089E3,2.556E3,4.8E1,3.03E2,3.2E1,8.04E2,1.0321E4,3.53E2,8.8E1,3.001E3,1.117E3,1.439E3,2.1E1,2.7E1,2.73E2,3E1,2.8E1,4E0,8.03E2,1E0,2.065E3,8.256E3,2.94E2,5.9E1],"tree_param":{"num_deleted":"0","num_feature":"78","num_nodes":"31","size_leaf_vector":"1"}},{"base_weights":[1.8992225E-3,-2.7389702E-1,3.1771064E-2,-2.2868298E-1,-1.085711E0,1.9001892E0,1.04771955E-2,-3.154585E-1,-3.3670447E-3,-1.6112878E0,-8.09432E-1,1.5725923E0,8.6650505E0,4.0144348E-1,-2.483521E-2,-2.3915222E-1,-8.180234E-2,3.2825455E-2,-1.4044584E-2,-6.2018E-1,-1.4778095E-1,-3.018128E-1,-2.1883862E-1,-2.1751402E-1,6.5720004E-1,3.0901358E0,-4.174141E-1,-2.681758E-1,1.921426E-1,9.111393E-3,-6.553229E-2],"categories":[],"categories_nodes":[],"categories_segments":[],"categories_sizes":[],"default_left":[0,0,0,0,0,0,0,0,0,0,0,0,0,0,0,0,0,0,0,0,0,0,0,0,0,0,0,0,0,0,0],"id":18,"left_children":[1,3,5,7,9,11,13,15,17,19,21,23,25,27,29,-1,-1,-1,-1,-1,-1,-1,-1,-1,-1,-1,-1,-1,-1,-1,-1],"loss_changes":[1.4424083E2,6.2554626E1,6.284772E2,3.1712128E1,1.176429E1,3.8084772E2,2.1565906E2,2.3916649E1,2.2200663E0,1.4284554E1,2.2523117E-1,2.4442743E2,1.4590228E2,4.012376E2,1.531379E2,0E0,0E0,0E0,0E0,0E0,0E0,0E0,0E0,0E0,0E0,0E0,0E0,0E0,0E0,0E0,0E0],"parents":[2147483647,0,0,1,1,2,2,3,3,4,4,5,5,6,6,7,7,8,8,9,9,10,10,11,11,12,12,13,13,14,14],"right_children":[2,4,6,8,10,12,14,16,18,20,22,24,26,28,30,-1,-1,-1,-1,-1,-1,-1,-1,-1,-1,-1,-1,-1,-1,-1,-1],"split_conditions":[2.0913506E-2,1.6799395E0,5.6009833E-2,1E0,1.8345757E-3,1.4133784E0,1.3402353E-1,1.4244193E0,6.801194E-2,9.0015806E-2,1.0300682E-2,-7.623474E-1,5.3565965E0,-1.9732404E0,2.6380655E-1,-2.3915222E-1,-8.180234E-2,3.2825455E-2,-1.4044584E-2,-6.2018E-1,-1.4778095E-1,-3.018128E-1,-2.1883862E-1,-2.1751402E-1,6.5720004E-1,3.0901358E0,-4.174141E-1,-2.681758E-1,1.921426E-1,9.111393E-3,-6.553229E-2],"split_indices":[1,51,0,64,10,1,0,6,0,0,1,46,4,52,49,0,0,0,0,0,0,0,0,0,0,0,0,0,0,0,0],"split_type":[0,0,0,0,0,0,0,0,0,0,0,0,0,0,0,0,0,0,0,0,0,0,0,0,0,0,0,0,0,0,0],"sum_hessian":[1.7506E4,1.71E3,1.5796E4,1.621E3,8.9E1,1.77E2,1.5619E4,1.17E3,4.51E2,2.9E1,6E1,1.7E2,7E0,1.293E3,1.4326E4,9.4E1,1.076E3,1.25E2,3.26E2,2E1,9E0,1.4E1,4.6E1,3.6E1,1.34E2,6E0,1E0,2.01E2,1.092E3,1.1148E4,3.178E3],"tree_param":{"num_deleted":"0","num_feature":"78","num_nodes":"31","size_leaf_vector":"1"}},{"base_weights":[1.4088193E-3,-4.3336684E-3,1.4116954E0,2.7526156E-3,-1.1520724E0,1.3910164E1,8.478244E-1,-6.7621E-3,7.531748E-1,-7.433897E-1,-2.4628162E0,6.711182E-1,5.5884557E0,1.9395356E0,-3.2116385E0,4.8135635E-3,-8.437833E-2,5.7398987E-1,-4.469396E-2,4.6501067E-1,-2.8266856E-1,-8.9871585E-1,-8.280102E-2,2.1776378E-1,2.1985207E0,9.2353255E-2,-1.2351489E0],"categories":[],"categories_nodes":[],"categories_segments":[],"categories_sizes":[],"default_left":[0,0,0,0,0,0,0,0,0,0,0,0,0,0,0,0,0,0,0,0,0,0,0,0,0,0,0],"id":19,"left_children":[1,3,5,7,9,11,13,15,17,19,21,-1,-1,23,25,-1,-1,-1,-1,-1,-1,-1,-1,-1,-1,-1,-1],"loss_changes":[1.417875E2,1.4182182E2,4.885808E2,1.2374935E2,5.5486755E1,1.2354944E2,3.120206E2,1.071544E2,2.2739983E2,3.9310307E1,2.830716E1,0E0,0E0,3.543932E2,4.9072098E1,0E0,0E0,0E0,0E0,0E0,0E0,0E0,0E0,0E0,0E0,0E0,0E0],"parents":[2147483647,0,0,1,1,2,2,3,3,4,4,5,5,6,6,7,7,8,8,9,9,10,10,13,13,14,14],"right_children":[2,4,6,8,10,12,14,16,18,20,22,-1,-1,24,26,-1,-1,-1,-1,-1,-1,-1,-1,-1,-1,-1,-1],"split_conditions":[7.9065533E0,1.0736789E1,1.0841904E0,2.9278908E0,1.4422532E0,7.6213384E-1,1.5092011E-3,3.7420385E0,1.4782596E0,8.3814716E-1,2.2537546E0,6.711182E-1,5.5884557E0,1.9844143E0,1.2095478E0,4.8135635E-3,-8.437833E-2,5.7398987E-1,-4.469396E-2,4.6501067E-1,-2.8266856E-1,-8.9871585E-1,-8.280102E-2,2.1776378E-1,2.1985207E0,9.2353255E-2,-1.2351489E0],"split_indices":[1,9,0,1,0,0,13,5,0,0,2,0,0,5,5,0,0,0,0,0,0,0,0,0,0,0,0],"split_type":[0,0,0,0,0,0,0,0,0,0,0,0,0,0,0,0,0,0,0,0,0,0,0,0,0,0,0],"sum_hessian":[1.7506E4,1.7436E4,7E1,1.733E4,1.06E2,2E0,6.8E1,1.7114E4,2.16E2,8.2E1,2.4E1,1E0,1E0,5.4E1,1.4E1,1.5802E4,1.312E3,9.4E1,1.22E2,6E0,7.6E1,1.9E1,5E0,4.5E1,9E0,3E0,1.1E1],"tree_param":{"num_deleted":"0","num_feature":"78","num_nodes":"27","size_leaf_vector":"1"}}]},"name":"gbtree"},"learner_model_param":{"base_score":"4.3578773E0","boost_from_average":"1","num_class":"0","num_feature":"78","num_target":"1"},"objective":{"name":"reg:squarederror","reg_loss_param":{"scale_pos_weight":"1"}}},"version":[2,1,4]}