{"learner":{"attributes":{"scikit_learn":"{\"_estimator_type\": \"regressor\"}"},"feature_names":[],"feature_types":[],"gradient_booster":{"model":{"gbtree_model_param":{"num_parallel_tree":"1","num_trees":"20"},"iteration_indptr":[0,1,2,3,4,5,6,7,8,9,10,11,12,13,14,15,16,17,18,19,20],"tree_info":[0,0,0,0,0,0,0,0,0,0,0,0,0,0,0,0,0,0,0,0],"trees":[{"base_weights":[-1.5542867E-7,-1.2935946E0,1.523103E1,4.974955E0,-1.9985477E0,5.3952316E1,1.1604119E1,5.267059E-1,2.028103E1,-2.2284794E0,1.5781434E0,5.7253494E1,7.287623E0,-1.797658E-1,2.5463312E0,3.0898042E0,2.435496E1,-7.6360804E-1,-8.4583566E-2,-4.407509E-1,1.5911539E0,1.1795951E1,1.9965174E1,1.5894616E0,1.1952282E1],"categories":[],"categories_nodes":[],"categories_segments":[],"categories_sizes":[],"default_left":[0,0,0,0,0,0,0,0,0,0,0,0,0,0,0,0,0,0,0,0,0,0,0,0,0],"id":0,"left_children":[1,3,5,7,9,-1,11,13,15,17,19,21,23,-1,-1,-1,-1,-1,-1,-1,-1,-1,-1,-1,-1],"loss_changes":[3.276966E5,6.7753734E4,7.752408E5,1.0552144E5,1.13369375E4,0E0,2.5081564E5,1.0779288E4,2.1132311E5,7.9864766E3,9.465158E3,1.5723594E4,7.530158E4,0E0,0E0,0E0,0E0,0E0,0E0,0E0,0E0,0E0,0E0,0E0,0E0],"parents":[2147483647,0,0,1,1,2,2,3,3,4,4,6,6,7,7,8,8,9,9,10,10,11,11,12,12],"right_children":[2,4,6,8,10,-1,12,14,16,18,20,22,24,-1,-1,-1,-1,-1,-1,-1,-1,-1,-1,-1,-1],"split_conditions":[1.3051994E0,1.8115219E0,8.6707436E-2,1E0,1.7285563E0,5.3952316E1,3.271235E-1,1.678925E0,5.323087E-1,5.245697E-1,2.109719E-1,2.279977E0,7.23563E0,-1.797658E-1,2.5463312E0,3.0898042E0,2.435496E1,-7.6360804E-1,-8.4583566E-2,-4.407509E-1,1.5911539E0,1.1795951E1,1.9965174E1,1.5894616E0,1.1952282E1],"split_indices":[1,6,0,67,51,0,0,18,1,1,1,1,1,0,0,0,0,0,0,0,0,0,0,0,0],"split_type":[0,0,0,0,0,0,0,0,0,0,0,0,0,0,0,0,0,0,0,0,0,0,0,0,0],"sum_hessian":[1.663E4,1.5329E4,1.301E3,1.549E3,1.378E4,2.7E1,1.274E3,1.201E3,3.48E2,1.2948E4,8.32E2,1.09E2,1.165E3,1.053E3,1.48E2,3E2,4.8E1,1.1135E4,1.813E3,4.58E2,3.74E2,3.9E1,7E1,1.099E3,6.6E1],"tree_param":{"num_deleted":"0","num_feature":"78","num_nodes":"25","size_leaf_vector":"1"}},{"base_weights":[7.778594E-3,-8.551465E-1,1.1390726E1,-1.2143043E0,7.504366E0,4.1238483E1,9.082671E0,-1.4154508E0,7.0595846E0,3.592822E1,1.372176E0,4.034588E1,5.5767746E0,-2.8244054E-1,-6.849644E-1,4.7559032E-1,6.3100224E0,6.614674E0,2.770076E1,3.8988643E0,1.7739396E-1,9.627564E0,1.593692E1,8.565378E-1,6.077824E0],"categories":[],"categories_nodes":[],"categories_segments":[],"categories_sizes":[],"default_left":[0,0,0,0,0,0,0,0,0,0,0,0,0,0,0,0,0,0,0,0,0,0,0,0,0],"id":1,"left_children":[1,3,5,7,9,-1,11,13,15,17,19,21,23,-1,-1,-1,-1,-1,-1,-1,-1,-1,-1,-1,-1],"loss_changes":[1.6336992E5,4.6425965E4,3.3977834E5,2.468105E4,1.1098009E5,0E0,1.26040625E5,5.950664E3,2.6893484E4,8.64317E4,4.7576245E3,1.0528859E4,4.138169E4,0E0,0E0,0E0,0E0,0E0,0E0,0E0,0E0,0E0,0E0,0E0,0E0],"parents":[2147483647,0,0,1,1,2,2,3,3,4,4,6,6,7,7,8,8,9,9,10,10,11,11,12,12],"right_children":[2,4,6,8,10,-1,12,14,16,18,20,22,24,-1,-1,-1,-1,-1,-1,-1,-1,-1,-1,-1,-1],"split_conditions":[1.41119E0,2.1508975E0,7.094245E-2,1.678925E0,7.488369E-2,4.1238483E1,4.197428E-1,1E0,3.2369214E-1,8.630669E-1,8.8678055E-2,2.8758802E0,1.3991709E0,-2.8244054E-1,-6.849644E-1,4.7559032E-1,6.3100224E0,6.614674E0,2.770076E1,3.8988643E0,1.7739396E-1,9.627564E0,1.593692E1,8.565378E-1,6.077824E0],"split_indices":[1,51,0,18,0,0,0,64,1,1,0,1,39,0,0,0,0,0,0,0,0,0,0,0,0],"split_type":[0,0,0,0,0,0,0,0,0,0,0,0,0,0,0,0,0,0,0,0,0,0,0,0,0],"sum_hessian":[1.663E4,1.5459E4,1.171E3,1.4823E4,6.36E2,2E1,1.151E3,1.4472E4,3.51E2,1.12E2,5.24E2,1.15E2,1.036E3,9.361E3,5.111E3,2.53E2,9.8E1,9.1E1,2.1E1,3.2E1,4.92E2,7.2E1,4.3E1,8.75E2,1.61E2],"tree_param":{"num_deleted":"0","num_feature":"78","num_nodes":"25","size_leaf_vector":"1"}},{"base_weights":[1.2537107E-2,-4.2359808E-1,1.1933792E1,8.800432E0,-7.2575474E-1,3.562082E1,7.4593935E0,5.6857285E1,2.6143746E0,-1.4159828E0,5.65815E-1,4.0599243E1,3.194224E1,5.2189474E0,2.2200516E1,1.4964292E0,2.347271E1,9.7945936E-2,5.6361547E0,-5.999174E-1,-3.0273348E-1,4.0382414E0,-2.1965681E-1,7.4585614E0,1.16820965E1,2.7161708E0,4.3956867E-1,8.508006E0,2.077092E0],"categories":[],"categories_nodes":[],"categories_segments":[],"categories_sizes":[],"default_left":[0,0,0,0,0,0,0,0,0,0,0,0,0,0,0,0,0,0,0,0,0,0,0,0,0,0,0,0,0],"id":2,"left_children":[1,3,5,7,9,11,13,15,17,19,21,-1,23,25,27,-1,-1,-1,-1,-1,-1,-1,-1,-1,-1,-1,-1,-1,-1],"loss_changes":[8.6474266E4,4.4725438E4,6.1947594E4,1.5116812E5,1.385169E4,2.9788812E4,1.623235E4,6.3944844E4,1.6718578E4,2.4029844E3,9.059456E4,0E0,3.5408281E3,6.191128E3,5.9200117E3,0E0,0E0,0E0,0E0,0E0,0E0,0E0,0E0,0E0,0E0,0E0,0E0,0E0,0E0],"parents":[2147483647,0,0,1,1,2,2,3,3,4,4,5,5,6,6,7,7,8,8,9,9,10,10,12,12,13,13,14,14],"right_children":[2,4,6,8,10,12,14,16,18,20,22,-1,24,26,28,-1,-1,-1,-1,-1,-1,-1,-1,-1,-1,-1,-1,-1,-1],"split_conditions":[2.279977E0,-3.0614634E0,8.1583816E-1,5.9118707E-2,2.6850972E-1,5.5177458E-2,7.23563E0,5.760509E-1,1E0,5.7537794E-2,2.9953477E-1,4.0599243E1,3.1443899E0,1.5292039E0,1.5824107E0,1.4964292E0,2.347271E1,9.7945936E-2,5.6361547E0,-5.999174E-1,-3.0273348E-1,4.0382414E0,-2.1965681E-1,7.4585614E0,1.16820965E1,2.7161708E0,4.3956867E-1,8.508006E0,2.077092E0],"split_indices":[1,55,0,0,1,0,1,1,67,1,0,0,1,0,0,0,0,0,0,0,0,0,0,0,0,0,0,0,0],"split_type":[0,0,0,0,0,0,0,0,0,0,0,0,0,0,0,0,0,0,0,0,0,0,0,0,0,0,0,0,0],"sum_hessian":[1.663E4,1.6044E4,5.86E2,5.08E2,1.5536E4,9.2E1,4.94E2,5.7E1,4.51E2,1.0125E4,5.411E3,2E0,9E1,4.3E2,6.4E1,1.7E1,4E1,3.96E2,5.5E1,4.157E3,5.968E3,4.94E2,4.917E3,4.7E1,4.3E1,2.12E2,2.18E2,4.5E1,1.9E1],"tree_param":{"num_deleted":"0","num_feature":"78","num_nodes":"29","size_leaf_vector":"1"}},{"base_weights":[1.5215698E-2,-6.6556394E-1,4.455518E0,3.3849102E-1,-1.2022426E0,3.250504E1,1.9234735E0,-8.7474525E-1,8.4608965E0,-1.4410844E0,-6.325619E-1,6.414984E1,2.3769506E1,5.171608E0,-1.0624533E0,-3.831713E-1,5.0921404E-1,5.386335E0,1.5086355E0,-3.1395966E-1,-4.7979054E-1,8.351717E-1,-3.716585E-1,2.0947506E1,6.3896465E0,1.0533707E1,6.502126E0,1.1100541E0,5.036278E0,-4.6073437E-1,1.291533E0],"categories":[],"categories_nodes":[],"categories_segments":[],"categories_sizes":[],"default_left":[0,0,0,0,0,0,0,0,0,0,0,0,0,0,0,0,0,0,0,0,0,0,0,0,0,0,0,0,0,0,0],"id":3,"left_children":[1,3,5,7,9,11,13,15,17,19,21,23,25,27,29,-1,-1,-1,-1,-1,-1,-1,-1,-1,-1,-1,-1,-1,-1,-1,-1],"loss_changes":[5.027627E4,7.771234E3,1.5696853E5,4.9515895E4,1.2778135E3,4.906264E4,1.968414E4,4.528328E3,2.1186363E4,4.1164258E2,5.7578066E3,7.997125E3,2.6858984E3,1.655139E4,2.6945845E3,0E0,0E0,0E0,0E0,0E0,0E0,0E0,0E0,0E0,0E0,0E0,0E0,0E0,0E0,0E0,0E0],"parents":[2147483647,0,0,1,1,2,2,3,3,4,4,5,5,6,6,7,7,8,8,9,9,10,10,11,11,12,12,13,13,14,14],"right_children":[2,4,6,8,10,12,14,16,18,20,22,24,26,28,30,-1,-1,-1,-1,-1,-1,-1,-1,-1,-1,-1,-1,-1,-1,-1,-1],"split_conditions":[8.1663287E-1,2.2070983E-1,2.857404E-1,1.5107876E-1,3.3782423E-1,5.9118707E-2,1.5824107E0,7.570762E-2,8.6707436E-2,3.862422E-1,6.641001E-1,1.0258803E0,1.1429616E-1,4.0242805E0,4.0242805E0,-3.831713E-1,5.0921404E-1,5.386335E0,1.5086355E0,-3.1395966E-1,-4.7979054E-1,8.351717E-1,-3.716585E-1,2.0947506E1,6.3896465E0,1.0533707E1,6.502126E0,1.1100541E0,5.036278E0,-4.6073437E-1,1.291533E0],"split_indices":[1,0,0,1,1,0,0,1,0,0,0,5,0,1,1,0,0,0,0,0,0,0,0,0,0,0,0,0,0,0,0],"split_type":[0,0,0,0,0,0,0,0,0,0,0,0,0,0,0,0,0,0,0,0,0,0,0,0,0,0,0,0,0,0,0],"sum_hessian":[1.663E4,1.442E4,2.21E3,5.023E3,9.397E3,1.82E2,2.028E3,4.371E3,6.52E2,6.62E3,2.777E3,3.8E1,1.44E2,9.71E2,1.057E3,3.78E3,5.91E2,1.72E2,4.8E2,1.897E3,4.723E3,4.18E2,2.359E3,3.3E1,5E0,2E1,1.24E2,8.63E2,1.08E2,9.72E2,8.5E1],"tree_param":{"num_deleted":"0","num_feature":"78","num_nodes":"31","size_leaf_vector":"1"}},{"base_weights":[1.4140902E-2,-2.5260124E-1,5.9349036E0,-4.2065033E-1,3.5304902E0,2.1023932E1,3.48371E0,-1.2776595E-1,-1.2208683E0,-7.6715285E-1,1.4795796E1,2.8289894E1,1.8566267E1,1.8580257E0,9.513102E0,-1.6531006E-1,9.9797744E-1,-3.1672558E-1,-6.722441E-1,-7.2094625E-1,4.6387702E-1,8.712669E0,3.834149E-1,4.780942E0,8.234991E0,9.1028696E-1,-5.8208686E-1,8.4492296E-1,4.342724E0],"categories":[],"categories_nodes":[],"categories_segments":[],"categories_sizes":[],"default_left":[0,0,0,0,0,0,0,0,0,0,0,0,0,0,0,0,0,0,0,0,0,0,0,0,0,0,0,0,0],"id":4,"left_children":[1,3,5,7,9,11,13,15,17,19,21,-1,23,25,27,-1,-1,-1,-1,-1,-1,-1,-1,-1,-1,-1,-1,-1,-1],"loss_changes":[2.626712E4,1.0119369E4,2.6445814E4,3.5714294E3,3.278781E4,1.6257914E4,6.0398916E3,1.6314674E4,6.85251E2,1.8620237E3,3.5975285E4,0E0,1.8520469E3,2.1861846E3,4.312793E3,0E0,0E0,0E0,0E0,0E0,0E0,0E0,0E0,0E0,0E0,0E0,0E0,0E0,0E0],"parents":[2147483647,0,0,1,1,2,2,3,3,4,4,5,5,6,6,7,7,8,8,9,9,10,10,12,12,13,13,14,14],"right_children":[2,4,6,8,10,12,14,16,18,20,22,-1,24,26,28,-1,-1,-1,-1,-1,-1,-1,-1,-1,-1,-1,-1,-1,-1],"split_conditions":[2.0128133E0,2.1508975E0,6.049814E-1,1.1114316E0,4.007457E-1,5.5177458E-2,5.1615777E0,3.7820163E-1,3.0189953E0,1.6823916E-1,1.2414928E-1,2.8289894E1,3.4775035E0,2.3923368E0,1.8387493E0,-1.6531006E-1,9.9797744E-1,-3.1672558E-1,-6.722441E-1,-7.2094625E-1,4.6387702E-1,8.712669E0,3.834149E-1,4.780942E0,8.234991E0,9.1028696E-1,-5.8208686E-1,8.4492296E-1,4.342724E0],"split_indices":[1,51,0,0,1,0,1,1,0,1,0,0,1,0,3,0,0,0,0,0,0,0,0,0,0,0,0,0,0],"split_type":[0,0,0,0,0,0,0,0,0,0,0,0,0,0,0,0,0,0,0,0,0,0,0,0,0,0,0,0,0],"sum_hessian":[1.663E4,1.5914E4,7.16E2,1.5238E4,6.76E2,9.9E1,6.17E2,1.1156E4,4.082E3,4.9E2,1.86E2,2E0,9.7E1,4.87E2,1.3E2,9.939E3,1.217E3,3.515E3,5.67E2,2.87E2,2.03E2,9E1,9.6E1,7.7E1,2E1,3.72E2,1.15E2,5.6E1,7.4E1],"tree_param":{"num_deleted":"0","num_feature":"78","num_nodes":"29","size_leaf_vector":"1"}},{"base_weights":[1.3236079E-2,-3.0482092E-1,2.8197575E0,5.9452647E-1,-5.828259E-1,3.4788902E1,1.8056189E0,-3.867814E-1,7.075376E0,-7.0019555E-1,3.204612E-1,4.5230206E1,2.4948208E1,9.311876E0,7.6991886E-1,-3.3682054E-1,3.0009976E-1,4.0745335E0,1.5332885E0,-2.8598312E-1,-1.4594609E-1,2.0064547E0,-1.04774736E-1,1.7521318E1,7.3053665E0,8.439225E0,5.660199E0,2.215041E0,4.9689646E0,-4.8125844E-2,1.3563018E0],"categories":[],"categories_nodes":[],"categories_segments":[],"categories_sizes":[],"default_left":[0,0,0,0,0,0,0,0,0,0,0,0,0,0,0,0,0,0,0,0,0,0,0,0,0,0,0,0,0,0,0],"id":5,"left_children":[1,3,5,7,9,11,13,15,17,19,21,23,25,27,29,-1,-1,-1,-1,-1,-1,-1,-1,-1,-1,-1,-1,-1,-1,-1,-1],"loss_changes":[1.4846252E4,3.735441E3,5.4826168E4,2.2439787E4,1.2101072E3,4.214578E3,1.2758118E4,3.130033E3,5.861092E3,5.458013E2,5.601662E3,5.1793086E3,3.047461E1,2.6604277E3,5.0399673E3,0E0,0E0,0E0,0E0,0E0,0E0,0E0,0E0,0E0,0E0,0E0,0E0,0E0,0E0,0E0,0E0],"parents":[2147483647,0,0,1,1,2,2,3,3,4,4,5,5,6,6,7,7,8,8,9,9,10,10,11,11,12,12,13,13,14,14],"right_children":[2,4,6,8,10,12,14,16,18,20,22,24,26,28,30,-1,-1,-1,-1,-1,-1,-1,-1,-1,-1,-1,-1,-1,-1,-1,-1],"split_conditions":[1.0417368E0,1.4976738E-1,2.0494485E-1,1.3324542E-1,5.9960437E-1,7.4609476E-1,7.527782E-1,2.826418E-2,6.5030575E-2,1.4838694E-1,4.611259E-1,5.5177458E-2,7.882494E-2,3.1443899E0,3.1443899E0,-3.3682054E-1,3.0009976E-1,4.0745335E0,1.5332885E0,-2.8598312E-1,-1.4594609E-1,2.0064547E0,-1.04774736E-1,1.7521318E1,7.3053665E0,8.439225E0,5.660199E0,2.215041E0,4.9689646E0,-4.8125844E-2,1.3563018E0],"split_indices":[1,0,0,1,1,5,0,1,0,1,0,0,0,1,1,0,0,0,0,0,0,0,0,0,0,0,0,0,0,0,0],"split_type":[0,0,0,0,0,0,0,0,0,0,0,0,0,0,0,0,0,0,0,0,0,0,0,0,0,0,0,0,0,0,0],"sum_hessian":[1.663E4,1.4938E4,1.692E3,3.527E3,1.1411E4,5.1E1,1.641E3,3.064E3,4.63E2,1.0099E4,1.312E3,2.3E1,2.8E1,1.98E2,1.443E3,2.002E3,1.062E3,1.06E2,3.57E2,4.622E3,5.477E3,1.24E2,1.188E3,1.3E1,1E1,1.6E1,1.2E1,1.58E2,4E1,1.157E3,2.86E2],"tree_param":{"num_deleted":"0","num_feature":"78","num_nodes":"31","size_leaf_vector":"1"}},{"base_weights":[1.25398105E-2,-2.8658307E-1,1.5781093E0,1.12379245E-1,-6.5174395E-1,1.4722114E1,6.777078E-1,-4.5745736E-1,2.2362728E0,-5.480196E-1,-1.0245053E0,2.8520454E1,1.1703294E1,1.8431422E0,-1.1263769E0,-1.9799738E-1,1.2521346E-1,3.280767E0,5.404709E-1,-2.27613E-1,-7.0216465E-3,-3.0075485E-1,-1.7524258E0,6.661057E0,1.920889E1,2.9274697E0,4.558739E0,3.5687453E-1,1.9902511E0,-1.7548285E-1,-6.7444384E-1],"categories":[],"categories_nodes":[],"categories_segments":[],"categories_sizes":[],"default_left":[0,0,0,0,0,0,0,0,0,0,0,0,0,0,0,0,0,0,0,0,0,0,0,0,0,0,0,0,0,0,0],"id":6,"left_children":[1,3,5,7,9,11,13,15,17,19,21,23,25,27,29,-1,-1,-1,-1,-1,-1,-1,-1,-1,-1,-1,-1,-1,-1,-1,-1],"loss_changes":[7.78871E3,2.0344246E3,3.156548E4,8.07838E3,2.8134082E2,6.789176E3,5.2542266E3,9.3279395E2,5.320131E3,6.306731E2,1.6213306E2,5.307588E3,8.1633984E2,4.74531E3,5.9450903E2,0E0,0E0,0E0,0E0,0E0,0E0,0E0,0E0,0E0,0E0,0E0,0E0,0E0,0E0,0E0,0E0],"parents":[2147483647,0,0,1,1,2,2,3,3,4,4,5,5,6,6,7,7,8,8,9,9,10,10,11,11,12,12,13,13,14,14],"right_children":[2,4,6,8,10,12,14,16,18,20,22,24,26,28,30,-1,-1,-1,-1,-1,-1,-1,-1,-1,-1,-1,-1,-1,-1,-1,-1],"split_conditions":[6.837239E-1,3.4485912E-1,2.4632794E-1,1.12720236E-1,1.5429982E0,5.5177458E-2,1.8917986E0,5.854723E-2,5.9118707E-2,2.577424E-1,1.6450105E0,1.8977377E0,1.7059451E0,3.4775035E0,3.5983586E0,-1.9799738E-1,1.2521346E-1,3.280767E0,5.404709E-1,-2.27613E-1,-7.0216465E-3,-3.0075485E-1,-1.7524258E0,6.661057E0,1.920889E1,2.9274697E0,4.558739E0,3.5687453E-1,1.9902511E0,-1.7548285E-1,-6.7444384E-1],"split_indices":[1,0,0,1,0,0,0,1,0,1,18,1,1,1,0,0,0,0,0,0,0,0,0,0,0,0,0,0,0,0,0],"split_type":[0,0,0,0,0,0,0,0,0,0,0,0,0,0,0,0,0,0,0,0,0,0,0,0,0,0,0,0,0,0,0],"sum_hessian":[1.663E4,1.3963E4,2.667E3,6.673E3,7.29E3,1.7E2,2.497E3,5.262E3,1.411E3,5.705E3,1.585E3,2.9E1,1.41E2,1.517E3,9.8E2,4.273E3,9.89E2,6.6E1,1.345E3,4.07E3,1.635E3,1.579E3,6E0,2.6E1,3E0,9.3E1,4.8E1,1.336E3,1.81E2,6.62E2,3.18E2],"tree_param":{"num_deleted":"0","num_feature":"78","num_nodes":"31","size_leaf_vector":"1"}},{"base_weights":[1.0961353E-2,-1.082654E-1,2.0636606E0,7.111523E-1,-2.7139065E-1,3.3121487E1,1.6481866E0,1.4381738E-1,1.0951119E1,-6.4545035E-2,-5.331266E-1,5.8725224E0,1.4451435E1,5.5205455E0,1.12724835E-2,-1.4939013E-1,6.081326E-1,7.372791E0,2.6448402E0,-7.2456606E-2,8.557684E-1,-1.4804214E-1,-4.7671768E-1,1.4982802E0,6.6000977E0,2.25134E-1,-7.027464E-1],"categories":[],"categories_nodes":[],"categories_segments":[],"categories_sizes":[],"default_left":[0,0,0,0,0,0,0,0,0,0,0,0,0,0,0,0,0,0,0,0,0,0,0,0,0,0,0],"id":7,"left_children":[1,3,5,7,9,11,13,15,17,19,21,-1,-1,23,25,-1,-1,-1,-1,-1,-1,-1,-1,-1,-1,-1,-1],"loss_changes":[4.0704387E3,2.1013162E3,1.1726506E4,1.5161196E4,7.09727E2,1.5035156E3,5.717463E3,2.991252E3,3.7685098E3,3.781782E3,2.4152136E2,0E0,0E0,2.214476E3,1.1065554E3,0E0,0E0,0E0,0E0,0E0,0E0,0E0,0E0,0E0,0E0,0E0,0E0],"parents":[2147483647,0,0,1,1,2,2,3,3,4,4,5,5,6,6,7,7,8,8,9,9,10,10,13,13,14,14],"right_children":[2,4,6,8,10,12,14,16,18,20,22,-1,-1,24,26,-1,-1,-1,-1,-1,-1,-1,-1,-1,-1,-1,-1],"split_conditions":[1.7059451E0,1.1626679E-1,8.6707436E-2,3.3782423E-1,7.74455E-1,1.8977377E0,1.1232554E0,4.3742184E-2,4.7294963E-2,5.148118E-1,1.7501818E0,5.8725224E0,1.4451435E1,7.23563E0,2.825874E0,-1.4939013E-1,6.081326E-1,7.372791E0,2.6448402E0,-7.2456606E-2,8.557684E-1,-1.4804214E-1,-4.7671768E-1,1.4982802E0,6.6000977E0,2.25134E-1,-7.027464E-1],"split_indices":[1,0,0,1,0,1,0,1,0,1,51,0,0,1,0,0,0,0,0,0,0,0,0,0,0,0,0],"split_type":[0,0,0,0,0,0,0,0,0,0,0,0,0,0,0,0,0,0,0,0,0,0,0,0,0,0,0],"sum_hessian":[1.663E4,1.5718E4,9.12E2,2.609E3,1.3109E4,1.1E1,9.01E2,2.473E3,1.36E2,7.323E3,5.786E3,7E0,4E0,2.67E2,6.34E2,1.845E3,6.28E2,1.7E1,1.19E2,6.905E3,4.18E2,5.578E3,2.08E2,2.6E2,7E0,4.83E2,1.51E2],"tree_param":{"num_deleted":"0","num_feature":"78","num_nodes":"27","size_leaf_vector":"1"}},{"base_weights":[9.992701E-3,-5.371136E-2,2.6491354E0,7.6430786E-1,-1.5243216E-1,1.3871691E1,2.4193943E0,1.1071689E-1,9.403562E0,-3.564681E-1,5.0305694E-2,6.872035E0,1.065209E0,9.080806E-2,-1.5547115E0,9.2421E-1,3.5953524E0,-3.0536753E-1,-9.1149926E-2,4.6429256E-1,-8.188711E-2,1.81802E0,5.887765E0,5.0549984E-1,-9.0631443E-1],"categories":[],"categories_nodes":[],"categories_segments":[],"categories_sizes":[],"default_left":[0,0,0,0,0,0,0,0,0,0,0,0,0,0,0,0,0,0,0,0,0,0,0,0,0],"id":8,"left_children":[1,3,5,7,9,-1,11,13,15,17,19,21,23,-1,-1,-1,-1,-1,-1,-1,-1,-1,-1,-1,-1],"loss_changes":[2.796214E3,1.311586E3,3.8137666E3,9.874755E3,5.994912E2,0E0,2.3502925E3,1.6548435E3,1.9703115E3,2.5115271E2,3.519342E3,8.234365E2,7.674099E2,0E0,0E0,0E0,0E0,0E0,0E0,0E0,0E0,0E0,0E0,0E0,0E0],"parents":[2147483647,0,0,1,1,2,2,3,3,4,4,6,6,7,7,8,8,9,9,10,10,11,11,12,12],"right_children":[2,4,6,8,10,-1,12,14,16,18,20,22,24,-1,-1,-1,-1,-1,-1,-1,-1,-1,-1,-1,-1],"split_conditions":[2.8758802E0,8.8678055E-2,5.5177458E-2,3.6743432E-1,1.8842787E-1,1.3871691E1,1.0877842E0,2.1523633E0,0E0,1.8115219E0,5.360096E-1,1.0641367E0,3.5983586E0,9.080806E-2,-1.5547115E0,9.2421E-1,3.5953524E0,-3.0536753E-1,-9.1149926E-2,4.6429256E-1,-8.188711E-2,1.81802E0,5.887765E0,5.0549984E-1,-9.0631443E-1],"split_indices":[1,0,0,1,1,0,0,51,13,6,0,0,0,0,0,0,0,0,0,0,0,0,0,0,0],"split_type":[0,0,0,0,0,0,0,0,0,0,0,0,0,0,0,0,0,0,0,0,0,0,0,0,0],"sum_hessian":[1.663E4,1.6239E4,3.91E2,1.748E3,1.4491E4,1E0,3.9E2,1.626E3,1.22E2,7.222E3,7.269E3,9E1,3E2,1.57E3,5.6E1,3.6E1,8.6E1,5.31E2,6.691E3,1.29E3,5.979E3,8.6E1,4E0,2.61E2,3.9E1],"tree_param":{"num_deleted":"0","num_feature":"78","num_nodes":"25","size_leaf_vector":"1"}},{"base_weights":[8.4510865E-3,-1.2281719E-1,6.954907E-1,1.5159863E-1,-2.6335472E-1,7.5605745E0,3.2090476E-1,-2.1507983E-1,1.4955752E0,-2.1783692E-1,-9.347977E-1,3.6652474E0,1.20072775E1,2.0831077E0,-7.777306E-2,-5.533374E-1,-1.59415E-2,1.7930326E0,3.6821622E-1,-6.0704377E-2,-6.8778616E-1,-2.5615525E-1,-9.548704E-1,-4.0216592E-1,1.8141612E0,3.2092702E0,7.5967045E0,5.156348E-1,2.2579226E0,-6.590858E-2,1.3088839E0],"categories":[],"categories_nodes":[],"categories_segments":[],"categories_sizes":[],"default_left":[0,0,0,0,0,0,0,0,0,0,0,0,0,0,0,0,0,0,0,0,0,0,0,0,0,0,0,0,0,0,0],"id":9,"left_children":[1,3,5,7,9,11,13,15,17,19,21,23,25,27,29,-1,-1,-1,-1,-1,-1,-1,-1,-1,-1,-1,-1,-1,-1,-1,-1],"loss_changes":[1.4999773E3,5.3857166E2,6.858507E3,2.3312998E3,2.8204205E2,2.3463374E3,1.7783192E3,9.806842E2,1.211293E3,2.7751514E2,1.03920715E2,9.023764E2,8.4520215E2,9.131864E2,1.3023971E3,0E0,0E0,0E0,0E0,0E0,0E0,0E0,0E0,0E0,0E0,0E0,0E0,0E0,0E0,0E0,0E0],"parents":[2147483647,0,0,1,1,2,2,3,3,4,4,5,5,6,6,7,7,8,8,9,9,10,10,11,11,12,12,13,13,14,14],"right_children":[2,4,6,8,10,12,14,16,18,20,22,24,26,28,30,-1,-1,-1,-1,-1,-1,-1,-1,-1,-1,-1,-1,-1,-1,-1,-1],"split_conditions":[6.837239E-1,2.0691547E-1,2.2465108E-1,8.748437E-2,1.7285563E0,1.0901898E0,9.4984055E-1,1.8115219E0,5.5177458E-2,1.678925E0,1E0,-6.823623E-1,2.8758802E0,3.4775035E0,7.23563E0,-5.533374E-1,-1.59415E-2,1.7930326E0,3.6821622E-1,-6.0704377E-2,-6.8778616E-1,-2.5615525E-1,-9.548704E-1,-4.0216592E-1,1.8141612E0,3.2092702E0,7.5967045E0,5.156348E-1,2.2579226E0,-6.590858E-2,1.3088839E0],"split_indices":[1,0,0,1,51,1,0,6,0,18,67,20,1,1,1,0,0,0,0,0,0,0,0,0,0,0,0,0,0,0,0],"split_type":[0,0,0,0,0,0,0,0,0,0,0,0,0,0,0,0,0,0,0,0,0,0,0,0,0,0,0,0,0,0,0],"sum_hessian":[1.663E4,1.3963E4,2.667E3,4.729E3,9.234E3,1.37E2,2.53E3,3.716E3,1.013E3,8.649E3,5.85E2,7.4E1,6.3E1,4.66E2,2.064E3,3.35E2,3.381E3,5.6E1,9.57E2,8.586E3,6.3E1,5.66E2,1.9E1,2.4E1,5E1,5.9E1,4E0,4.38E2,2.8E1,2.001E3,6.3E1],"tree_param":{"num_deleted":"0","num_feature":"78","num_nodes":"31","size_leaf_vector":"1"}},{"base_weights":[6.869807E-3,-2.8207958E-2,1.460074E0,3.4431404E-1,-1.1178106E-1,1.0651433E1,1.2821981E0,7.6642E-3,4.234931E0,-8.6320296E-2,-2.383264E0,3.6044426E0,3.6030713E-1,-1.3495164E-1,2.027525E-1,3.7806368E0,1.0217061E0,-8.037692E-3,-1.6196428E-1,-4.0552768E-1,-1.0495827E0,6.601269E-1,1.9770905E0,2.7741513E-1,-5.2020437E-1],"categories":[],"categories_nodes":[],"categories_segments":[],"categories_sizes":[],"default_left":[0,0,0,0,0,0,0,0,0,0,0,0,0,0,0,0,0,0,0,0,0,0,0,0,0],"id":10,"left_children":[1,3,5,7,9,-1,11,13,15,17,19,21,23,-1,-1,-1,-1,-1,-1,-1,-1,-1,-1,-1,-1],"loss_changes":[8.478089E2,5.0563544E2,2.3283228E3,3.8978596E3,7.669581E2,0E0,8.35776E2,8.3790326E2,1.6014922E3,3.541927E2,1.643919E2,4.5083325E2,3.337612E2,0E0,0E0,0E0,0E0,0E0,0E0,0E0,0E0,0E0,0E0,0E0,0E0],"parents":[2147483647,0,0,1,1,2,2,3,3,4,4,6,6,7,7,8,8,9,9,10,10,11,11,12,12],"right_children":[2,4,6,8,10,-1,12,14,16,18,20,22,24,-1,-1,-1,-1,-1,-1,-1,-1,-1,-1,-1,-1],"split_conditions":[2.8758802E0,1.2809053E-1,5.5177458E-2,2.3317948E-1,1.678925E0,1.0651433E1,1.1606972E0,2.3553483E-2,4.7294963E-2,2.0553603E0,2.6480845E-1,4.0242805E0,2.9322877E0,-1.3495164E-1,2.027525E-1,3.7806368E0,1.0217061E0,-8.037692E-3,-1.6196428E-1,-4.0552768E-1,-1.0495827E0,6.601269E-1,1.9770905E0,2.7741513E-1,-5.2020437E-1],"split_indices":[1,0,0,1,18,0,0,1,0,0,1,1,0,0,0,0,0,0,0,0,0,0,0,0,0],"split_type":[0,0,0,0,0,0,0,0,0,0,0,0,0,0,0,0,0,0,0,0,0,0,0,0,0],"sum_hessian":[1.663E4,1.6239E4,3.91E2,2.975E3,1.3264E4,1E0,3.9E2,2.739E3,2.36E2,1.3118E4,1.46E2,1.1E2,2.8E2,1.626E3,1.113E3,2E1,2.16E2,1.1597E4,1.521E3,7.7E1,6.9E1,7.6E1,3.4E1,2.21E2,5.9E1],"tree_param":{"num_deleted":"0","num_feature":"78","num_nodes":"25","size_leaf_vector":"1"}},{"base_weights":[5.788406E-3,-1.0722763E-1,3.5167786E-1,-9.6422243E-1,-6.842028E-2,2.9778247E0,1.5359064E-2,-2.2285454E0,-7.1811575E-1,-3.290341E-2,-8.290836E-1,8.098606E0,2.5162184E0,-5.942407E-2,1.9986954E0,-7.9446477E-1,-2.290473E-1,3.079315E-1,-3.3100685E-1,6.379297E-2,-4.1083194E-2,-1.0171762E0,-1.1336367E-1,4.0047197E0,1.3472129E-2,7.11526E-1,4.279084E0,4.1376785E-3,-1.0077473E0,8.982194E-1,-7.8156555E-1],"categories":[],"categories_nodes":[],"categories_segments":[],"categories_sizes":[],"default_left":[0,0,0,0,0,0,0,0,0,0,0,0,0,0,0,0,0,0,0,0,0,0,0,0,0,0,0,0,0,0,0],"id":11,"left_children":[1,3,5,7,9,11,13,15,17,19,21,23,25,27,29,-1,-1,-1,-1,-1,-1,-1,-1,-1,-1,-1,-1,-1,-1,-1,-1],"loss_changes":[6.501611E2,4.1685254E2,3.617634E3,1.6735864E2,3.2400717E2,1.0787822E3,5.388174E2,5.2084045E1,3.0759763E2,2.927956E2,6.1705164E2,1.6062542E3,6.925242E2,8.458682E2,6.1270264E2,0E0,0E0,0E0,0E0,0E0,0E0,0E0,0E0,0E0,0E0,0E0,0E0,0E0,0E0,0E0,0E0],"parents":[2147483647,0,0,1,1,2,2,3,3,4,4,5,5,6,6,7,7,8,8,9,9,10,10,11,11,12,12,13,13,14,14],"right_children":[2,4,6,8,10,12,14,16,18,20,22,24,26,28,30,-1,-1,-1,-1,-1,-1,-1,-1,-1,-1,-1,-1,-1,-1,-1,-1],"split_conditions":[4.441514E-1,1.4580542E0,4.197428E-1,2.4899395E-2,1.7718911E0,5.5177458E-2,5.1615777E0,8.276619E-2,7.291307E-2,1.6947362E-1,8.6707436E-2,2.7581239E0,4.0242805E0,1.0472733E1,2.9322877E0,-7.9446477E-1,-2.290473E-1,3.079315E-1,-3.3100685E-1,6.379297E-2,-4.1083194E-2,-1.0171762E0,-1.1336367E-1,4.0047197E0,1.3472129E-2,7.11526E-1,4.279084E0,4.1376785E-3,-1.0077473E0,8.982194E-1,-7.8156555E-1],"split_indices":[1,6,0,1,51,0,1,0,0,0,0,3,1,9,0,0,0,0,0,0,0,0,0,0,0,0,0,0,0,0,0],"split_type":[0,0,0,0,0,0,0,0,0,0,0,0,0,0,0,0,0,0,0,0,0,0,0,0,0,0,0,0,0,0,0],"sum_hessian":[1.663E4,1.2535E4,4.095E3,5.42E2,1.1993E4,4.64E2,3.631E3,8.7E1,4.55E2,1.1459E4,5.34E2,3.7E1,4.27E2,3.5E3,1.31E2,6.7E1,2E1,8.2E1,3.73E2,3.41E3,8.049E3,7.9E1,4.55E2,2.2E1,1.5E1,4.23E2,4E0,3.425E3,7.5E1,1.08E2,2.3E1],"tree_param":{"num_deleted":"0","num_feature":"78","num_nodes":"31","size_leaf_vector":"1"}},{"base_weights":[4.4107046E-3,-1.5839079E-1,1.7482482E-1,-7.6795924E-1,-1.0132378E-1,1.623436E0,2.9037585E-2,-3.2438025E-1,-2.1784096E0,4.350291E-2,-2.585481E-1,1.2812858E0,8.117402E0,4.4652483E-1,-1.5308084E-1,-4.786973E-2,-5.5516124E-1,-5.4930776E-1,-1.9019338E0,1.608827E-1,-1.071609E-2,-9.369746E-2,4.912213E-2,3.495691E0,3.5276875E-1,6.409699E0,1.7592325E0,8.388812E-2,4.0636405E-1,-5.411763E-2,6.05015E-1],"categories":[],"categories_nodes":[],"categories_segments":[],"categories_sizes":[],"default_left":[0,0,0,0,0,0,0,0,0,0,0,0,0,0,0,0,0,0,0,0,0,0,0,0,0,0,0,0,0,0,0],"id":12,"left_children":[1,3,5,7,9,11,13,15,17,19,21,23,25,27,29,-1,-1,-1,-1,-1,-1,-1,-1,-1,-1,-1,-1,-1,-1,-1,-1],"loss_changes":[4.6143268E2,2.95814E2,1.7160748E3,4.5476376E2,1.7714125E2,1.6404795E3,5.6148944E2,1.3930542E2,2.3992493E2,1.5812724E2,8.475682E1,7.590503E2,9.792417E2,3.3954083E2,3.050783E2,0E0,0E0,0E0,0E0,0E0,0E0,0E0,0E0,0E0,0E0,0E0,0E0,0E0,0E0,0E0,0E0],"parents":[2147483647,0,0,1,1,2,2,3,3,4,4,5,5,6,6,7,7,8,8,9,9,10,10,11,11,12,12,13,13,14,14],"right_children":[2,4,6,8,10,12,14,16,18,20,22,24,26,28,30,-1,-1,-1,-1,-1,-1,-1,-1,-1,-1,-1,-1,-1,-1,-1,-1],"split_conditions":[1.783335E-1,1.8115219E0,2.3844545E-1,1E0,1E0,1.7059451E0,9.971355E-1,1.678925E0,1.5464212E0,7.488369E-2,1.1543012E0,4.1383095E-2,5.5177458E-2,9.434852E-1,7.23563E0,-4.786973E-2,-5.5516124E-1,-5.4930776E-1,-1.9019338E0,1.608827E-1,-1.071609E-2,-9.369746E-2,4.912213E-2,3.495691E0,3.5276875E-1,6.409699E0,1.7592325E0,8.388812E-2,4.0636405E-1,-5.411763E-2,6.05015E-1],"split_indices":[1,6,0,67,65,1,0,18,6,0,42,0,0,1,1,0,0,0,0,0,0,0,0,0,0,0,0,0,0,0,0],"split_type":[0,0,0,0,0,0,0,0,0,0,0,0,0,0,0,0,0,0,0,0,0,0,0,0,0,0,0,0,0,0,0],"sum_hessian":[1.663E4,8.505E3,8.125E3,7.27E2,7.778E3,7.42E2,7.383E3,5.54E2,1.73E2,4.049E3,3.729E3,7.06E2,3.6E1,2.242E3,5.141E3,5.01E2,5.3E1,1.61E2,1.2E1,5.6E2,3.489E3,3.308E3,4.21E2,6E0,7E2,4E0,3.2E1,1.895E3,3.47E2,5.078E3,6.3E1],"tree_param":{"num_deleted":"0","num_feature":"78","num_nodes":"31","size_leaf_vector":"1"}},{"base_weights":[3.69539E-3,2.214436E-1,-6.996225E-2,2.4813893E0,1.7420475E-1,-9.21103E-2,6.4215124E-1,5.631669E0,1.9442593E0,-9.998701E-2,3.021119E-1,-3.8541484E-1,-5.455694E-2,7.4915547E0,5.1032895E-1,3.7310362E-1,1.9154698E0,6.8650377E-1,-1.5867187E-2,-1.5348359E-2,-1.9138363E-1,1.0154363E0,6.2452696E-2,-1.6861808E-1,1.6623852E-1,1.6966624E-2,-5.8176655E-2,1.2946457E0,4.2501763E-2],"categories":[],"categories_nodes":[],"categories_segments":[],"categories_sizes":[],"default_left":[0,0,0,0,0,0,0,0,0,0,0,0,0,0,0,0,0,0,0,0,0,0,0,0,0,0,0,0,0],"id":13,"left_children":[1,3,5,7,9,11,13,15,17,19,21,23,25,-1,27,-1,-1,-1,-1,-1,-1,-1,-1,-1,-1,-1,-1,-1,-1],"loss_changes":[2.6675708E2,4.4837506E2,1.9607263E2,1.3457202E2,1.44488E2,1.3274861E2,1.1899548E3,3.1721222E1,5.166046E1,3.4402424E1,8.127114E2,2.2735287E2,1.6550128E2,0E0,5.2403406E2,0E0,0E0,0E0,0E0,0E0,0E0,0E0,0E0,0E0,0E0,0E0,0E0,0E0,0E0],"parents":[2147483647,0,0,1,1,2,2,3,3,4,4,5,5,6,6,7,7,8,8,9,9,10,10,11,11,12,12,14,14],"right_children":[2,4,6,8,10,12,14,16,18,20,22,24,26,-1,28,-1,-1,-1,-1,-1,-1,-1,-1,-1,-1,-1,-1,-1,-1],"split_conditions":[-7.9406047E0,-1.826853E0,2.624531E0,1.7341487E-1,6.4603835E-2,2.1649897E0,5.5177458E-2,2.577424E-1,1.3051994E0,5.66169E-1,8.276619E-2,9.434852E-1,1E0,7.4915547E0,2.7194604E-1,3.7310362E-1,1.9154698E0,6.8650377E-1,-1.5867187E-2,-1.5348359E-2,-1.9138363E-1,1.0154363E0,6.2452696E-2,-1.6861808E-1,1.6623852E-1,1.6966624E-2,-5.8176655E-2,1.2946457E0,4.2501763E-2],"split_indices":[14,22,1,0,1,6,0,1,1,28,0,1,65,0,0,0,0,0,0,0,0,0,0,0,0,0,0,0,0],"split_type":[0,0,0,0,0,0,0,0,0,0,0,0,0,0,0,0,0,0,0,0,0,0,0,0,0,0,0,0,0],"sum_hessian":[1.663E4,4.203E3,1.2427E4,8.5E1,4.118E3,1.2053E4,3.74E2,1.1E1,7.4E1,1.31E3,2.808E3,1.367E3,1.0686E4,1E0,3.73E2,2E0,9E0,6.3E1,1.1E1,1.202E3,1.08E2,8.2E1,2.726E3,1.151E3,2.16E2,5.946E3,4.74E3,3.2E1,3.41E2],"tree_param":{"num_deleted":"0","num_feature":"78","num_nodes":"29","size_leaf_vector":"1"}},{"base_weights":[3.3452997E-3,3.349844E-2,-4.7929335E-1,-1.8867267E-2,5.387869E-1,-4.3257347E-1,-6.8982086E0,-4.4712374E-1,1.0351047E-2,4.995148E0,3.620413E-1,-1.9860639E-1,-1.037047E0,-2.211234E0,-6.094171E-1,-1.11249864E-1,-1.1424804E0,3.0399075E-1,-7.860552E-3,9.712216E-1,3.1680572E0,1.7497063E-1,-2.270459E-1,-4.8684273E-2,-4.9582914E-1,-4.6058163E-1,-1.0122834E-1],"categories":[],"categories_nodes":[],"categories_segments":[],"categories_sizes":[],"default_left":[0,0,0,0,0,0,0,0,0,0,0,0,0,0,0,0,0,0,0,0,0,0,0,0,0,0,0],"id":14,"left_children":[1,3,5,7,9,11,13,15,17,19,21,23,25,-1,-1,-1,-1,-1,-1,-1,-1,-1,-1,-1,-1,-1,-1],"loss_changes":[2.4204817E2,4.142117E2,2.903092E2,1.775006E2,1.1560258E3,1.3726099E2,1.1264954E0,2.3090845E2,4.8688147E2,5.135996E2,3.5063324E2,3.6813507E1,9.394385E1,0E0,0E0,0E0,0E0,0E0,0E0,0E0,0E0,0E0,0E0,0E0,0E0,0E0,0E0],"parents":[2147483647,0,0,1,1,2,2,3,3,4,4,5,5,6,6,7,7,8,8,9,9,10,10,11,11,12,12],"right_children":[2,4,6,8,10,12,14,16,18,20,22,24,26,-1,-1,-1,-1,-1,-1,-1,-1,-1,-1,-1,-1,-1,-1],"split_conditions":[2.5913699E0,9.434852E-1,7.23563E0,1.5141524E-2,2.0494485E-1,1.3051994E0,1E0,2.1508975E0,6.897182E-2,1.7967943E0,1.388768E0,1.7285563E0,2.1319268E0,-2.211234E0,-6.094171E-1,-1.11249864E-1,-1.1424804E0,3.0399075E-1,-7.860552E-3,9.712216E-1,3.1680572E0,1.7497063E-1,-2.270459E-1,-4.8684273E-2,-4.9582914E-1,-4.6058163E-1,-1.0122834E-1],"split_indices":[0,1,1,1,0,1,74,51,0,1,39,51,1,0,0,0,0,0,0,0,0,0,0,0,0,0,0],"split_type":[0,0,0,0,0,0,0,0,0,0,0,0,0,0,0,0,0,0,0,0,0,0,0,0,0,0,0],"sum_hessian":[1.663E4,1.5653E4,9.77E2,1.4184E4,1.469E3,9.71E2,6E0,9.05E2,1.3279E4,5.5E1,1.414E3,7.01E2,2.7E2,5E0,1E0,8.86E2,1.9E1,4.66E2,1.2813E4,4.3E1,1.2E1,1.181E3,2.33E2,6.85E2,1.6E1,1.57E2,1.13E2],"tree_param":{"num_deleted":"0","num_feature":"78","num_nodes":"27","size_leaf_vector":"1"}},{"base_weights":[2.2937623E-3,-7.908922E-3,1.2776119E0,2.335715E-3,-2.1648288E0,2.0476544E0,-1.9405487E0,-1.2810111E-1,8.348329E-2,1.0713841E0,-2.8894908E0,-3.2019389E0,2.8077252E0,2.7482578E-1,-3.3423343E0,-1.7801213E-1,-2.652139E-2,1.7177238E-1,-2.936294E-2,3.7300754E-1,-9.289825E-3,-6.39425E-1,-1.0056251E0,3.0548286E-1,-2.2702868E0,5.8490765E-1,2.2714527E0,5.269673E-1,-7.488629E-2,-4.5236942E-1,-1.6456445E0],"categories":[],"categories_nodes":[],"categories_segments":[],"categories_sizes":[],"default_left":[0,0,0,0,0,0,0,0,0,0,0,0,0,0,0,0,0,0,0,0,0,0,0,0,0,0,0,0,0,0,0],"id":15,"left_children":[1,3,5,7,9,11,13,15,17,19,21,23,25,27,29,-1,-1,-1,-1,-1,-1,-1,-1,-1,-1,-1,-1,-1,-1,-1,-1],"loss_changes":[2.1640715E2,3.6460324E2,3.3108554E2,1.738421E2,1.8601828E2,4.359268E2,8.166104E1,1.162881E2,8.981584E2,2.8821392E0,1.5298828E1,2.6564365E2,3.694615E2,8.986457E0,5.4631943E1,0E0,0E0,0E0,0E0,0E0,0E0,0E0,0E0,0E0,0E0,0E0,0E0,0E0,0E0,0E0,0E0],"parents":[2147483647,0,0,1,1,2,2,3,3,4,4,5,5,6,6,7,7,8,8,9,9,10,10,11,11,12,12,13,13,14,14],"right_children":[2,4,6,8,10,12,14,16,18,20,22,24,26,28,30,-1,-1,-1,-1,-1,-1,-1,-1,-1,-1,-1,-1,-1,-1,-1,-1],"split_conditions":[5.1615777E0,1.0472733E1,2.0608872E-2,1.039718E-1,1.41119E0,3.3574265E-1,7.23563E0,1.8115219E0,6.049814E-1,2.2984366E0,1.1705503E0,7.23563E0,1E0,1.4011133E0,1.3429706E0,-1.7801213E-1,-2.652139E-2,1.7177238E-1,-2.936294E-2,3.7300754E-1,-9.289825E-3,-6.39425E-1,-1.0056251E0,3.0548286E-1,-2.2702868E0,5.8490765E-1,2.2714527E0,5.269673E-1,-7.488629E-2,-4.5236942E-1,-1.6456445E0],"split_indices":[1,9,13,1,1,5,1,6,0,3,0,1,73,0,5,0,0,0,0,0,0,0,0,0,0,0,0,0,0,0,0],"split_type":[0,0,0,0,0,0,0,0,0,0,0,0,0,0,0,0,0,0,0,0,0,0,0,0,0,0,0,0,0,0,0],"sum_hessian":[1.663E4,1.6499E4,1.31E2,1.6422E4,7.7E1,1.06E2,2.5E1,6.298E3,1.0124E4,1.4E1,6.3E1,1.3E1,9.3E1,1E1,1.5E1,4.94E2,5.804E3,2.738E3,7.386E3,1.2E1,2E0,2.6E1,3.7E1,7E0,6E0,8E1,1.3E1,2E0,8E0,9E0,6E0],"tree_param":{"num_deleted":"0","num_feature":"78","num_nodes":"31","size_leaf_vector":"1"}},{"base_weights":[1.4795072E-3,-4.6573095E-3,1.5187167E0,4.165806E-3,-1.4872533E0,-2.725059E0,3.2553165E0,-8.285237E-3,6.130846E-1,7.742166E-1,-1.8733817E0,-1.1021024E0,-4.5862164E0,-5.621662E0,4.6573057E0,1.1346541E-2,-5.4026168E-2,5.866846E0,1.4881971E-1,1.9362582E-2,2.8387704E-1,-4.041292E-1,-9.885947E-1,-8.6630017E-1,1.5651444E0,-1.4800587E0,-2.7115774E-1,-2.4624997E-1,-1.8854984E0,9.065873E-1,3.7207012E0],"categories":[],"categories_nodes":[],"categories_segments":[],"categories_sizes":[],"default_left":[0,0,0,0,0,0,0,0,0,0,0,0,0,0,0,0,0,0,0,0,0,0,0,0,0,0,0,0,0,0,0],"id":16,"left_children":[1,3,5,7,9,11,13,15,17,19,21,23,25,27,29,-1,-1,-1,-1,-1,-1,-1,-1,-1,-1,-1,-1,-1,-1,-1,-1],"loss_changes":[1.5485841E2,2.1669485E2,5.0264355E2,1.2486008E2,8.702579E1,5.5357086E1,6.2356213E2,1.2784836E2,7.2180884E2,1.7703161E0,5.842157E1,1.5046655E2,7.0511475E0,1.7132904E1,4.944851E2,0E0,0E0,0E0,0E0,0E0,0E0,0E0,0E0,0E0,0E0,0E0,0E0,0E0,0E0,0E0,0E0],"parents":[2147483647,0,0,1,1,2,2,3,3,4,4,5,5,6,6,7,7,8,8,9,9,10,10,11,11,12,12,13,13,14,14],"right_children":[2,4,6,8,10,12,14,16,18,20,22,24,26,28,30,-1,-1,-1,-1,-1,-1,-1,-1,-1,-1,-1,-1,-1,-1,-1,-1],"split_conditions":[7.23563E0,1.0472733E1,1.8387493E0,2.624531E0,1.41119E0,1.8602686E0,3.3574265E-1,3.6933026E-1,5.5177458E-2,5.0471747E-1,1.4011133E0,1E0,1E0,1.1488734E0,1E0,1.1346541E-2,-5.4026168E-2,5.866846E0,1.4881971E-1,1.9362582E-2,2.8387704E-1,-4.041292E-1,-9.885947E-1,-8.6630017E-1,1.5651444E0,-1.4800587E0,-2.7115774E-1,-2.4624997E-1,-1.8854984E0,9.065873E-1,3.7207012E0],"split_indices":[1,9,3,1,1,0,5,49,0,1,0,73,74,0,73,0,0,0,0,0,0,0,0,0,0,0,0,0,0,0,0],"split_type":[0,0,0,0,0,0,0,0,0,0,0,0,0,0,0,0,0,0,0,0,0,0,0,0,0,0,0,0,0,0,0],"sum_hessian":[1.663E4,1.6564E4,6.6E1,1.6467E4,9.7E1,1.9E1,4.7E1,1.6138E4,3.29E2,1.4E1,8.3E1,1.1E1,8E0,6E0,4.1E1,1.2724E4,3.414E3,1E0,3.28E2,3E0,1.1E1,6.2E1,2.1E1,9E0,2E0,7E0,1E0,1E0,5E0,3.5E1,6E0],"tree_param":{"num_deleted":"0","num_feature":"78","num_nodes":"31","size_leaf_vector":"1"}},{"base_weights":[1.4160719E-3,2.119041E-1,-3.5732474E-2,1.8440196E-1,4.1613255E0,-1.5780289E-2,-1.6748878E0,-1.0069664E-1,9.6739554E-1,-1.1447428E-1,6.48302E-2,-6.865435E-1,-2.7025917E0,-2.9188251E-1,-4.0549557E-3,4.4253218E-1,-4.1235027E-1,-5.792733E-3,-6.551472E-2,4.0521482E-1,7.765981E-3,-4.4756013E-1,-4.555823E-2,-4.7915614E-1,-1.2987142E0],"categories":[],"categories_nodes":[],"categories_segments":[],"categories_sizes":[],"default_left":[0,0,0,0,0,0,0,0,0,0,0,0,0,0,0,0,0,0,0,0,0,0,0,0,0],"id":17,"left_children":[1,3,5,7,-1,9,11,13,15,17,19,21,23,-1,-1,-1,-1,-1,-1,-1,-1,-1,-1,-1,-1],"loss_changes":[1.3005075E2,9.347053E2,4.6232037E2,5.561643E2,0E0,1.1113363E2,1.7081784E2,1.3891635E2,7.927179E2,6.2095146E1,3.8500723E2,3.76656E1,1.4231067E2,0E0,0E0,0E0,0E0,0E0,0E0,0E0,0E0,0E0,0E0,0E0,0E0],"parents":[2147483647,0,0,1,1,2,2,3,3,5,5,6,6,7,7,8,8,9,9,10,10,11,11,12,12],"right_children":[2,4,6,8,-1,10,12,14,16,18,20,22,24,-1,-1,-1,-1,-1,-1,-1,-1,-1,-1,-1,-1],"split_conditions":[1.1232554E-1,1.8977377E0,1.678925E0,4.9462315E-2,4.1613255E0,1.8136181E-1,2.6480845E-1,1.8115219E0,1.2113961E0,3.172704E-1,2.010036E-1,1.7673385E-1,1.6356175E-1,-2.9188251E-1,-4.0549557E-3,4.4253218E-1,-4.1235027E-1,-5.792733E-3,-6.551472E-2,4.0521482E-1,7.765981E-3,-4.4756013E-1,-4.555823E-2,-4.7915614E-1,-1.2987142E0],"split_indices":[0,1,18,1,0,1,1,6,41,0,0,6,0,0,0,0,0,0,0,0,0,0,0,0,0],"split_type":[0,0,0,0,0,0,0,0,0,0,0,0,0,0,0,0,0,0,0,0,0,0,0,0,0],"sum_hessian":[1.663E4,2.494E3,1.4136E4,2.49E3,4E0,1.3967E4,1.69E2,1.826E3,6.64E2,6.279E3,7.688E3,8.7E1,8.2E1,1.65E2,1.661E3,5.46E2,1.18E2,3.278E3,3.001E3,2.25E2,7.463E3,3.4E1,5.3E1,5E1,3.2E1],"tree_param":{"num_deleted":"0","num_feature":"78","num_nodes":"25","size_leaf_vector":"1"}},{"base_weights":[1.1094799E-3,4.6515625E-2,-1.6431522E-1,1.0382286E-3,7.5610054E-1,-6.1585408E-2,-6.098963E-1,2.1879703E-2,-5.1973593E-1,3.9283907E0,5.762451E-1,-3.0183403E-2,-1.3176827E0,-4.6019113E-1,-1.7100911E0,-1.2615332E-2,7.284467E-2,4.318501E-2,-9.46511E-1,8.864391E-1,3.162608E0,2.436353E-1,-3.3202937E-1,-3.905834E-2,7.003179E-2,-5.2758336E-1,-2.7959943E-1,-3.940213E-1,-8.585764E-2,-4.371709E-1,-8.1259376E-1],"categories":[],"categories_nodes":[],"categories_segments":[],"categories_sizes":[],"default_left":[0,0,0,0,0,0,0,0,0,0,0,0,0,0,0,0,0,0,0,0,0,0,0,0,0,0,0,0,0,0,0],"id":18,"left_children":[1,3,5,7,9,11,13,15,17,19,21,23,25,27,29,-1,-1,-1,-1,-1,-1,-1,-1,-1,-1,-1,-1,-1,-1,-1,-1],"loss_changes":[1.2492804E2,4.2112366E2,1.6392654E2,1.3313202E2,4.4619138E2,1.1482108E2,1.09729996E2,1.6659584E2,8.2598773E2,2.3928827E2,2.9664575E2,7.4960236E1,1.0435188E1,8.751139E1,1.6252014E1,0E0,0E0,0E0,0E0,0E0,0E0,0E0,0E0,0E0,0E0,0E0,0E0,0E0,0E0,0E0,0E0],"parents":[2147483647,0,0,1,1,2,2,3,3,4,4,5,5,6,6,7,7,8,8,9,9,10,10,11,11,12,12,13,13,14,14],"right_children":[2,4,6,8,10,12,14,16,18,20,22,24,26,28,30,-1,-1,-1,-1,-1,-1,-1,-1,-1,-1,-1,-1,-1,-1,-1,-1],"split_conditions":[1.3479065E0,9.434852E-1,1.41119E0,2.1523633E0,8.6707436E-2,1.7285563E0,4.4063144E0,2.1803795E-1,1E0,1.8977377E0,1.4867615E0,7.1737176E-1,5.0471747E-1,1.60803E0,2.1429424E-1,-1.2615332E-2,7.284467E-2,4.318501E-2,-9.46511E-1,8.864391E-1,3.162608E0,2.436353E-1,-3.3202937E-1,-3.905834E-2,7.003179E-2,-5.2758336E-1,-2.7959943E-1,-3.940213E-1,-8.585764E-2,-4.371709E-1,-8.1259376E-1],"split_indices":[0,1,1,51,0,51,0,1,67,1,39,1,1,1,32,0,0,0,0,0,0,0,0,0,0,0,0,0,0,0,0],"split_type":[0,0,0,0,0,0,0,0,0,0,0,0,0,0,0,0,0,0,0,0,0,0,0,0,0,0,0,0,0,0,0],"sum_hessian":[1.663E4,1.3049E4,3.581E3,1.2264E4,7.85E2,2.911E3,6.7E2,1.1793E4,4.71E2,4.1E1,7.44E2,2.841E3,7E1,5.91E2,7.9E1,9.147E3,2.646E3,3.77E2,9.4E1,3.7E1,4E0,6.53E2,9.1E1,2.06E3,7.81E2,3.1E1,3.9E1,9.9E1,4.92E2,6.5E1,1.4E1],"tree_param":{"num_deleted":"0","num_feature":"78","num_nodes":"31","size_leaf_vector":"1"}},{"base_weights":[8.134045E-4,1.250003E-1,-4.0515948E-2,5.475145E-2,1.9488341E0,-3.1804733E-2,-1.3103395E0,-1.254605E-1,3.1631234E-1,3.8680518E0,-2.3369604E-1,5.4888336E-5,-3.4848884E-1,-2.9992855E-1,-3.7233284E0,-2.8938448E-2,-3.2720894E-1,7.4242455E-1,6.92783E-2,1.4893347E0,2.5191274E-1,2.5591288E0,-3.0106935E-1,-1.9694192E-3,3.3189625E-1,3.463296E-2,-1.303515E-1,-4.2731538E-1,1.9596558E-2,-4.2857346E-1,-1.1913941E0],"categories":[],"categories_nodes":[],"categories_segments":[],"categories_sizes":[],"default_left":[0,0,0,0,0,0,0,0,0,0,0,0,0,0,0,0,0,0,0,0,0,0,0,0,0,0,0,0,0,0,0],"id":19,"left_children":[1,3,5,7,9,11,13,15,17,19,21,23,25,27,29,-1,-1,-1,-1,-1,-1,-1,-1,-1,-1,-1,-1,-1,-1,-1,-1],"loss_changes":[8.536473E1,5.3198486E2,1.3799736E2,1.8858528E2,6.4597156E2,1.2505857E2,2.0612267E2,6.6205215E1,3.0020184E2,2.6809314E2,5.0110806E2,8.248687E1,4.526323E1,2.5146233E1,8.553253E0,0E0,0E0,0E0,0E0,0E0,0E0,0E0,0E0,0E0,0E0,0E0,0E0,0E0,0E0,0E0,0E0],"parents":[2147483647,0,0,1,1,2,2,3,3,4,4,5,5,6,6,7,7,8,8,9,9,10,10,11,11,12,12,13,13,14,14],"right_children":[2,4,6,8,10,12,14,16,18,20,22,24,26,28,30,-1,-1,-1,-1,-1,-1,-1,-1,-1,-1,-1,-1,-1,-1,-1,-1],"split_conditions":[1.7341487E-1,4.3708533E-1,1.678925E0,3.0956006E-2,5.70093E-1,1.3453655E0,3.196544E-1,1.6450105E0,4.9265586E-2,1.4582615E-1,4.1383095E-2,7.23563E0,2.3844545E-1,1.7673385E-1,1.3056658E-1,-2.8938448E-2,-3.2720894E-1,7.4242455E-1,6.92783E-2,1.4893347E0,2.5191274E-1,2.5591288E0,-3.0106935E-1,-1.9694192E-3,3.3189625E-1,3.463296E-2,-1.303515E-1,-4.2731538E-1,1.9596558E-2,-4.2857346E-1,-1.1913941E0],"split_indices":[0,1,18,1,21,51,1,18,0,0,0,1,0,6,5,0,0,0,0,0,0,0,0,0,0,0,0,0,0,0,0],"split_type":[0,0,0,0,0,0,0,0,0,0,0,0,0,0,0,0,0,0,0,0,0,0,0,0,0,0,0,0,0,0,0],"sum_hessian":[1.663E4,4.152E3,1.2478E4,3.999E3,1.53E2,1.2394E4,8.4E1,2.368E3,1.631E3,8.1E1,7.2E1,1.1262E4,1.132E3,6E1,2.4E1,2.3E3,6.8E1,6.1E1,1.57E3,5.9E1,2.2E1,5E0,6.7E1,1.1196E4,6.6E1,1.77E2,9.55E2,1.4E1,4.6E1,3E0,2.1E1],"tree_param":{"num_deleted":"0","num_feature":"78","num_nodes":"31","size_leaf_vector":"1"}}]},"name":"gbtree"},"learner_model_param":{"base_score":"4.3129888E0","boost_from_average":"1","num_class":"0","num_feature":"78","num_target":"1"},"objective":{"name":"reg:squarederror","reg_loss_param":{"scale_pos_weight":"1"}}},"version":[2,1,4]}