{"learner":{"attributes":{"scikit_learn":"{\"_estimator_type\": \"regressor\"}"},"feature_names":[],"feature_types":[],"gradient_booster":{"model":{"gbtree_model_param":{"num_parallel_tree":"1","num_trees":"20"},"iteration_indptr":[0,1,2,3,4,5,6,7,8,9,10,11,12,13,14,15,16,17,18,19,20],"tree_info":[0,0,0,0,0,0,0,0,0,0,0,0,0,0,0,0,0,0,0,0],"trees":[{"base_weights":[-1.7435028E-7,-1.5222572E0,1.53944845E1,4.1509867E0,-2.2156177E0,5.2993484E1,1.2169945E1,5.1227534E-1,1.8872618E1,-2.6691456E0,5.0476585E-2,5.4474144E1,7.4473557E0,-1.4053474E-1,2.3138642E0,3.0039222E0,2.2930372E1,-8.5109776E-1,-1.9843077E-2,4.323227E0,-4.6041876E-1,1.1147749E1,1.9741226E1,1.6780406E0,1.2621063E1],"categories":[],"categories_nodes":[],"categories_segments":[],"categories_sizes":[],"default_left":[0,0,0,0,0,0,0,0,0,0,0,0,0,0,0,0,0,0,0,0,0,0,0,0,0],"id":0,"left_children":[1,3,5,7,9,-1,11,13,15,17,19,21,23,-1,-1,-1,-1,-1,-1,-1,-1,-1,-1,-1,-1],"loss_changes":[4.1277284E5,6.3060926E4,8.219844E5,9.351964E4,1.4680328E4,0E0,3.1026056E5,9.897209E3,1.7568516E5,5.199867E3,5.426872E4,2.81585E4,8.9626305E4,0E0,0E0,0E0,0E0,0E0,0E0,0E0,0E0,0E0,0E0,0E0,0E0],"parents":[2147483647,0,0,1,1,2,2,3,3,4,4,6,6,7,7,8,8,9,9,10,10,11,11,12,12],"right_children":[2,4,6,8,10,-1,12,14,16,18,20,22,24,-1,-1,-1,-1,-1,-1,-1,-1,-1,-1,-1,-1],"split_conditions":[1.1457133E0,1.7894377E0,8.600615E-2,1E0,4.2840788E-1,5.2993484E1,3.400243E-1,1.7064581E0,4.8612565E-1,1.7300568E0,3.960283E-1,2.0914207E0,7.8181353E0,-1.4053474E-1,2.3138642E0,3.0039222E0,2.2930372E1,-8.5109776E-1,-1.9843077E-2,4.323227E0,-4.6041876E-1,1.1147749E1,1.9741226E1,1.6780406E0,1.2621063E1],"split_indices":[1,6,0,67,1,0,0,18,1,51,0,1,1,0,0,0,0,0,0,0,0,0,0,0,0],"split_type":[0,0,0,0,0,0,0,0,0,0,0,0,0,0,0,0,0,0,0,0,0,0,0,0,0],"sum_hessian":[1.7612E4,1.6028E4,1.584E3,1.745E3,1.4283E4,3E1,1.554E3,1.4E3,3.45E2,1.1901E4,2.382E3,1.55E2,1.399E3,1.233E3,1.67E2,3E2,4.5E1,1.118E4,7.21E2,2.36E2,2.146E3,6.3E1,9.2E1,1.329E3,7E1],"tree_param":{"num_deleted":"0","num_feature":"78","num_nodes":"25","size_leaf_vector":"1"}},{"base_weights":[7.340032E-3,-9.911854E-1,1.1744528E1,-1.3229672E0,6.1384397E0,4.1430374E1,9.786236E0,-1.5181767E0,7.1131887E0,3.3580166E1,7.7602243E-1,3.675727E1,5.378675E0,-5.3401977E-1,2.3288052E-1,4.6618336E-1,6.315406E0,5.7073956E0,2.5305777E1,-5.2167785E-1,1.2704196E0,8.958721E0,1.6384052E1,8.6273533E-1,7.2279725E0],"categories":[],"categories_nodes":[],"categories_segments":[],"categories_sizes":[],"default_left":[0,0,0,0,0,0,0,0,0,0,0,0,0,0,0,0,0,0,0,0,0,0,0,0,0],"id":1,"left_children":[1,3,5,7,9,-1,11,13,15,17,19,21,23,-1,-1,-1,-1,-1,-1,-1,-1,-1,-1,-1,-1],"loss_changes":[2.064339E5,3.8406945E4,3.4036775E5,2.5556244E4,1.06219125E5,0E0,1.6159316E5,9.112082E3,2.7164752E4,8.559944E4,5.2699414E3,2.1884375E4,5.4780957E4,0E0,0E0,0E0,0E0,0E0,0E0,0E0,0E0,0E0,0E0,0E0,0E0],"parents":[2147483647,0,0,1,1,2,2,3,3,4,4,6,6,7,7,8,8,9,9,10,10,11,11,12,12],"right_children":[2,4,6,8,10,-1,12,14,16,18,20,22,24,-1,-1,-1,-1,-1,-1,-1,-1,-1,-1,-1,-1],"split_conditions":[1.2839891E0,2.1527646E0,7.2005145E-2,1.7064581E0,7.600543E-2,4.1430374E1,6.180442E-1,6.2347543E-1,2.9815707E-1,7.5866467E-1,1.765485E-1,2.7846513E0,4.998915E0,-5.3401977E-1,2.3288052E-1,4.6618336E-1,6.315406E0,5.7073956E0,2.5305777E1,-5.2167785E-1,1.2704196E0,8.958721E0,1.6384052E1,8.6273533E-1,7.2279725E0],"split_indices":[1,51,0,18,0,0,0,1,1,1,1,1,1,0,0,0,0,0,0,0,0,0,0,0,0],"split_type":[0,0,0,0,0,0,0,0,0,0,0,0,0,0,0,0,0,0,0,0,0,0,0,0,0],"sum_hessian":[1.7612E4,1.6232E4,1.38E3,1.5511E4,7.21E2,2E1,1.36E3,1.5161E4,3.5E2,1.17E2,6.04E2,1.9E2,1.17E3,1.3608E4,1.553E3,2.51E2,9.9E1,9.2E1,2.5E1,3.5E2,2.54E2,1.39E2,5.1E1,1.033E3,1.37E2],"tree_param":{"num_deleted":"0","num_feature":"78","num_nodes":"25","size_leaf_vector":"1"}},{"base_weights":[1.1559709E-2,-5.7366663E-1,1.0918157E1,4.8756013E0,-9.7917295E-1,3.6618034E1,6.670682E0,3.5688637E1,2.182836E0,-1.1207752E0,5.1418734E0,3.9114223E1,3.2508835E1,1.2974078E1,1.8232942E0,9.803253E-1,2.1515837E1,3.2575347E0,3.6106068E-1,-1.8917407E-1,-6.137847E-1,-1.801017E-1,3.9461415E0,8.505711E0,1.2318025E1,2.075585E0,6.3467E0,1.5680342E0,-4.9539956E-1],"categories":[],"categories_nodes":[],"categories_segments":[],"categories_sizes":[],"default_left":[0,0,0,0,0,0,0,0,0,0,0,0,0,0,0,0,0,0,0,0,0,0,0,0,0,0,0,0,0],"id":2,"left_children":[1,3,5,7,9,11,13,15,17,19,21,-1,23,25,27,-1,-1,-1,-1,-1,-1,-1,-1,-1,-1,-1,-1,-1,-1],"loss_changes":[1.12427E5,3.6944543E4,9.767188E4,9.600401E4,1.3492458E4,4.469325E4,2.353425E4,1.0840367E5,9.043699E3,6.8962266E3,1.6202083E4,0E0,3.2076328E3,1.645064E4,5.1765234E3,0E0,0E0,0E0,0E0,0E0,0E0,0E0,0E0,0E0,0E0,0E0,0E0,0E0,0E0],"parents":[2147483647,0,0,1,1,2,2,3,3,4,4,5,5,6,6,7,7,8,8,9,9,10,10,12,12,13,13,14,14],"right_children":[2,4,6,8,10,12,14,16,18,20,22,-1,24,26,28,-1,-1,-1,-1,-1,-1,-1,-1,-1,-1,-1,-1,-1,-1],"split_conditions":[1.7803001E0,-1.8929547E0,3.7002644E-1,6.000429E-2,1.7064581E0,5.8004145E-2,-4.698608E-1,3.2778758E-1,8.800629E-2,1E0,2.0741361E-1,3.9114223E1,3.0173743E0,3.8951783E0,1.9521395E0,9.803253E-1,2.1515837E1,3.2575347E0,3.6106068E-1,-1.8917407E-1,-6.137847E-1,-1.801017E-1,3.9461415E0,8.505711E0,1.2318025E1,2.075585E0,6.3467E0,1.5680342E0,-4.9539956E-1],"split_indices":[1,52,0,0,18,0,31,1,0,64,1,0,1,1,0,0,0,0,0,0,0,0,0,0,0,0,0,0,0],"split_type":[0,0,0,0,0,0,0,0,0,0,0,0,0,0,0,0,0,0,0,0,0,0,0,0,0,0,0,0,0],"sum_hessian":[1.7612E4,1.6716E4,8.96E2,1.157E3,1.5559E4,1.26E2,7.7E2,9.2E1,1.065E3,1.5208E4,3.51E2,4E0,1.22E2,3.34E2,4.36E2,4.9E1,4.3E1,1.07E2,9.58E2,9.942E3,5.266E3,2.05E2,1.46E2,8.5E1,3.7E1,1.93E2,1.41E2,2.2E2,2.16E2],"tree_param":{"num_deleted":"0","num_feature":"78","num_nodes":"29","size_leaf_vector":"1"}},{"base_weights":[1.3684939E-2,-7.382695E-1,4.4578514E0,-1.3913128E0,1.9852218E-1,2.9142685E1,1.926609E0,-1.8476931E0,-9.5512867E-1,1.853479E1,-3.475418E-1,6.736693E1,2.2629122E1,5.2137403E0,-1.4955618E0,-1.1680852E0,-5.026379E-1,5.549419E-1,-4.6363962E-1,3.6943111E0,7.580691E0,1.3154446E0,-3.3322743E-1,2.5170275E1,1.4402668E1,1.1080905E1,6.127368E0,1.0636642E0,4.747894E0,-6.054342E-1,7.061661E-1],"categories":[],"categories_nodes":[],"categories_segments":[],"categories_sizes":[],"default_left":[0,0,0,0,0,0,0,0,0,0,0,0,0,0,0,0,0,0,0,0,0,0,0,0,0,0,0,0,0,0,0],"id":3,"left_children":[1,3,5,7,9,11,13,15,17,19,21,23,25,27,29,-1,-1,-1,-1,-1,-1,-1,-1,-1,-1,-1,-1,-1,-1,-1,-1],"loss_changes":[5.88626E4,9.216522E3,1.5921378E5,1.7653438E3,6.197551E4,5.748286E4,2.6027023E4,1.5217334E3,7.522101E3,7.187035E3,2.1715473E4,6.8542344E3,5.68E3,2.0834393E4,2.2858333E3,0E0,0E0,0E0,0E0,0E0,0E0,0E0,0E0,0E0,0E0,0E0,0E0,0E0,0E0,0E0,0E0],"parents":[2147483647,0,0,1,1,2,2,3,3,4,4,5,5,6,6,7,7,8,8,9,9,10,10,11,11,12,12,13,13,14,14],"right_children":[2,4,6,8,10,12,14,16,18,20,22,24,26,28,30,-1,-1,-1,-1,-1,-1,-1,-1,-1,-1,-1,-1,-1,-1,-1,-1],"split_conditions":[7.3983693E-1,1.6265918E-1,2.9202086E-1,5.1853403E-2,9.800701E-2,5.8004145E-2,1.608115E0,1.7894377E0,1.720123E-1,3.067993E-1,3.2802343E-1,7.580828E-1,1.1600829E-1,3.3223217E0,3.0173743E0,-1.1680852E0,-5.026379E-1,5.549419E-1,-4.6363962E-1,3.6943111E0,7.580691E0,1.3154446E0,-3.3322743E-1,2.5170275E1,1.4402668E1,1.1080905E1,6.127368E0,1.0636642E0,4.747894E0,-6.054342E-1,7.061661E-1],"split_indices":[1,1,0,1,0,0,0,6,0,1,0,5,0,1,1,0,0,0,0,0,0,0,0,0,0,0,0,0,0,0,0],"split_type":[0,0,0,0,0,0,0,0,0,0,0,0,0,0,0,0,0,0,0,0,0,0,0,0,0,0,0,0,0,0,0],"sum_hessian":[1.7612E4,1.5064E4,2.548E3,8.876E3,6.188E3,2.36E2,2.312E3,4.336E3,4.54E3,1.78E2,6.01E3,3.3E1,2.03E2,1.179E3,1.133E3,3.35E2,4.001E3,7.89E2,3.751E3,9.4E1,8.4E1,8.34E2,5.176E3,1.6E1,1.7E1,2.5E1,1.78E2,1.02E3,1.59E2,9.98E2,1.35E2],"tree_param":{"num_deleted":"0","num_feature":"78","num_nodes":"31","size_leaf_vector":"1"}},{"base_weights":[1.3745203E-2,-2.628215E-1,6.787008E0,-8.1189406E-1,9.85894E-1,2.0406807E1,3.7430472E0,-1.2117203E0,-4.165292E-1,2.4209694E1,2.7268603E-1,2.7838285E1,1.8490927E1,2.3983788E0,1.3236721E1,-7.550505E-1,-3.286567E-1,8.543943E-1,-3.0678272E-1,5.2773123E0,1.3399058E1,1.5598317E0,-2.4834624E-1,4.6603093E0,7.9516788E0,1.5440933E0,1.0577113E-1,4.68587E0,-2.1548333E0],"categories":[],"categories_nodes":[],"categories_segments":[],"categories_sizes":[],"default_left":[0,0,0,0,0,0,0,0,0,0,0,0,0,0,0,0,0,0,0,0,0,0,0,0,0,0,0,0,0],"id":4,"left_children":[1,3,5,7,9,11,13,15,17,19,21,-1,23,25,27,-1,-1,-1,-1,-1,-1,-1,-1,-1,-1,-1,-1,-1,-1],"loss_changes":[3.2995492E4,1.1603808E4,2.8571186E4,1.8576938E3,8.560961E4,1.5758559E4,7.1937217E3,8.834951E2,1.1700121E4,2.006236E4,2.7200682E4,0E0,2.526543E3,2.7928687E3,3.5181465E3,0E0,0E0,0E0,0E0,0E0,0E0,0E0,0E0,0E0,0E0,0E0,0E0,0E0,0E0],"parents":[2147483647,0,0,1,1,2,2,3,3,4,4,5,5,6,6,7,7,8,8,9,9,10,10,12,12,13,13,14,14],"right_children":[2,4,6,8,10,12,14,16,18,20,22,-1,24,26,28,-1,-1,-1,-1,-1,-1,-1,-1,-1,-1,-1,-1,-1,-1],"split_conditions":[2.0914207E0,2.9815707E-1,8.340596E-1,7.901471E-2,1.1600829E-1,5.6004003E-2,7.8181353E0,2.138596E0,2.1001501E-1,9.2842287E-1,6.5004647E-1,2.7838285E1,3.3223217E0,1.4401029E0,2.44411E0,-7.550505E-1,-3.286567E-1,8.543943E-1,-3.0678272E-1,5.2773123E0,1.3399058E1,1.5598317E0,-2.4834624E-1,4.6603093E0,7.9516788E0,1.5440933E0,1.0577113E-1,4.68587E0,-2.1548333E0],"split_indices":[1,1,0,1,0,0,1,6,0,1,0,0,1,0,6,0,0,0,0,0,0,0,0,0,0,0,0,0,0],"split_type":[0,0,0,0,0,0,0,0,0,0,0,0,0,0,0,0,0,0,0,0,0,0,0,0,0,0,0,0,0],"sum_hessian":[1.7612E4,1.6922E4,6.9E2,1.1754E4,5.168E3,1.25E2,5.65E2,5.843E3,5.911E3,1.53E2,5.015E3,2E0,1.23E2,4.96E2,6.9E1,4.76E2,5.367E3,9.25E2,4.986E3,1.17E2,3.6E1,9.15E2,4.1E3,9.2E1,3.1E1,2.11E2,2.85E2,6.2E1,7E0],"tree_param":{"num_deleted":"0","num_feature":"78","num_nodes":"29","size_leaf_vector":"1"}},{"base_weights":[1.3260036E-2,-3.345684E-1,2.8415005E0,1.412999E-1,-7.499402E-1,1.5154973E1,8.885604E-1,-4.3640426E-1,4.7978354E0,-6.2387973E-1,-1.4937333E0,3.7824497E1,1.1865106E1,2.4410021E0,-1.505353E0,-2.2395137E-1,4.159902E-1,3.7635705E0,9.833798E-1,-2.765185E-1,4.5090336E-2,-4.3186644E-1,-3.186682E0,9.924215E0,2.2270626E1,3.3725855E0,9.086724E0,4.8731378E-1,2.8872597E0,-2.064168E-1,-1.0218363E0],"categories":[],"categories_nodes":[],"categories_segments":[],"categories_sizes":[],"default_left":[0,0,0,0,0,0,0,0,0,0,0,0,0,0,0,0,0,0,0,0,0,0,0,0,0,0,0,0,0,0,0],"id":5,"left_children":[1,3,5,7,9,11,13,15,17,19,21,23,25,27,29,-1,-1,-1,-1,-1,-1,-1,-1,-1,-1,-1,-1,-1,-1,-1,-1],"loss_changes":[1.7327607E4,3.1004382E3,4.637411E4,1.9669416E4,7.843325E2,1.9240258E4,6.195215E3,3.6784727E3,9.461539E3,1.6518447E3,5.846233E2,3.2441836E3,2.323082E3,5.914856E3,1.01674695E3,0E0,0E0,0E0,0E0,0E0,0E0,0E0,0E0,0E0,0E0,0E0,0E0,0E0,0E0,0E0,0E0],"parents":[2147483647,0,0,1,1,2,2,3,3,4,4,5,5,6,6,7,7,8,8,9,9,10,10,11,11,12,12,13,13,14,14],"right_children":[2,4,6,8,10,12,14,16,18,20,22,24,26,28,30,-1,-1,-1,-1,-1,-1,-1,-1,-1,-1,-1,-1,-1,-1,-1,-1],"split_conditions":[9.617572E-1,3.5602546E-1,4.34031E-1,2.2685865E-1,2.0121439E0,6.400458E-2,1.8541325E0,1.0370681E-1,8.800629E-2,3.1173772E-1,1.6719874E0,1.8864762E0,3.8951783E0,4.998915E0,3.582256E0,-2.2395137E-1,4.159902E-1,3.7635705E0,9.833798E-1,-2.765185E-1,4.5090336E-2,-4.3186644E-1,-3.186682E0,9.924215E0,2.2270626E1,3.3725855E0,9.086724E0,4.8731378E-1,2.8872597E0,-2.064168E-1,-1.0218363E0],"split_indices":[1,0,0,1,0,0,0,1,0,1,18,1,1,1,0,0,0,0,0,0,0,0,0,0,0,0,0,0,0,0,0],"split_type":[0,0,0,0,0,0,0,0,0,0,0,0,0,0,0,0,0,0,0,0,0,0,0,0,0,0,0,0,0,0,0],"sum_hessian":[1.7612E4,1.5684E4,1.928E3,7.31E3,8.374E3,2.63E2,1.665E3,6.504E3,8.06E2,7.162E3,1.212E3,3.2E1,2.31E2,1.01E3,6.55E2,5.559E3,9.45E2,1.31E2,6.75E2,5.172E3,1.99E3,1.206E3,6E0,3E1,2E0,2.25E2,6E0,9.08E2,1.02E2,4.59E2,1.96E2],"tree_param":{"num_deleted":"0","num_feature":"78","num_nodes":"31","size_leaf_vector":"1"}},{"base_weights":[1.2000989E-2,-1.1844237E-1,4.6287007E0,-3.273601E-1,9.0979445E-1,1.1928751E1,2.2160032E0,3.0935308E-1,-4.7720182E-1,1.3702561E1,1.4592373E-1,1.7937376E1,1.1024097E1,3.171393E0,-2.160253E0,-9.876273E-2,1.7380731E0,-1.331173E-1,-8.695845E-1,7.2854214E0,3.3100138E0,9.779498E-1,-2.2026782E-1,3.0563514E0,8.4159775E0,6.755354E-1,2.0212605E0,-2.501324E-1,-1.5508394E0],"categories":[],"categories_nodes":[],"categories_segments":[],"categories_sizes":[],"default_left":[0,0,0,0,0,0,0,0,0,0,0,0,0,0,0,0,0,0,0,0,0,0,0,0,0,0,0,0,0],"id":6,"left_children":[1,3,5,7,9,11,13,15,17,19,21,-1,23,25,27,-1,-1,-1,-1,-1,-1,-1,-1,-1,-1,-1,-1,-1,-1],"loss_changes":[1.0607411E4,3.6801113E3,8.498168E3,1.3585413E3,2.8268451E4,4.5367305E3,1.5329271E3,9.502883E3,9.3304395E2,4.336117E3,7.4872617E3,0E0,1.4088545E3,9.686648E2,2.59139E2,0E0,0E0,0E0,0E0,0E0,0E0,0E0,0E0,0E0,0E0,0E0,0E0,0E0,0E0],"parents":[2147483647,0,0,1,1,2,2,3,3,4,4,5,5,6,6,7,7,8,8,9,9,10,10,12,12,13,13,14,14],"right_children":[2,4,6,8,10,12,14,16,18,20,22,-1,24,26,28,-1,-1,-1,-1,-1,-1,-1,-1,-1,-1,-1,-1,-1,-1],"split_conditions":[2.5682867E0,5.59276E-1,1.1040789E0,1.2000858E-1,2.280163E-1,5.6004003E-2,2.924209E0,1.2253453E-1,1.7064581E0,5.6004003E-2,9.500679E-1,1.7937376E1,7.8181353E0,7.8181353E0,4.998915E0,-9.876273E-2,1.7380731E0,-1.331173E-1,-8.695845E-1,7.2854214E0,3.3100138E0,9.779498E-1,-2.2026782E-1,3.0563514E0,8.4159775E0,6.755354E-1,2.0212605E0,-2.501324E-1,-1.5508394E0],"split_indices":[1,1,0,0,0,0,0,1,18,0,0,0,1,1,1,0,0,0,0,0,0,0,0,0,0,0,0,0,0],"split_type":[0,0,0,0,0,0,0,0,0,0,0,0,0,0,0,0,0,0,0,0,0,0,0,0,0,0,0,0,0],"sum_hessian":[1.7612E4,1.7129E4,4.83E2,1.4237E4,2.892E3,1.19E2,3.64E2,2.712E3,1.1525E4,1.62E2,2.73E3,1E0,1.18E2,2.99E2,6.5E1,2.43E3,2.82E2,1.1369E4,1.56E2,3.1E1,1.31E2,6.01E2,2.129E3,1.14E2,4E0,2.39E2,6E1,4.6E1,1.9E1],"tree_param":{"num_deleted":"0","num_feature":"78","num_nodes":"29","size_leaf_vector":"1"}},{"base_weights":[1.0802066E-2,-1.1529114E-1,2.5670698E0,1.040706E-1,-7.133123E-1,1.5294223E1,2.3881254E0,-2.062447E-1,2.479801E0,-5.967675E-1,-1.3231357E0,5.90691E0,7.2466284E-1,-1.1754605E-1,2.0664747E-1,3.242048E0,4.8520505E-1,-1.7474E-1,-1.41009E0,-3.211726E-1,-7.014762E-1,4.0166645E0,1.5215253E0,4.1153482E-1,-3.7072197E-1],"categories":[],"categories_nodes":[],"categories_segments":[],"categories_sizes":[],"default_left":[0,0,0,0,0,0,0,0,0,0,0,0,0,0,0,0,0,0,0,0,0,0,0,0,0],"id":7,"left_children":[1,3,5,7,9,-1,11,13,15,17,19,21,23,-1,-1,-1,-1,-1,-1,-1,-1,-1,-1,-1,-1],"loss_changes":[5.6774585E3,2.2021113E3,7.05151E3,9.055115E3,3.1938892E2,0E0,4.8306E3,1.8048125E3,1.0173284E4,2.1932202E2,1.8260217E2,1.5879844E3,7.146571E2,0E0,0E0,0E0,0E0,0E0,0E0,0E0,0E0,0E0,0E0,0E0,0E0],"parents":[2147483647,0,0,1,1,2,2,3,3,4,4,6,6,7,7,8,8,9,9,10,10,11,11,12,12],"right_children":[2,4,6,8,10,-1,12,14,16,18,20,22,24,-1,-1,-1,-1,-1,-1,-1,-1,-1,-1,-1,-1],"split_conditions":[1.8864762E0,1.0800772E0,5.6004003E-2,3.7408528E-1,2.8162012E0,1.5294223E1,1.1380813E0,1.675976E-1,1.4601043E-1,1.7064581E0,1.1457133E0,2.420173E-1,2.5101795E0,-1.1754605E-1,2.0664747E-1,3.242048E0,4.8520505E-1,-1.7474E-1,-1.41009E0,-3.211726E-1,-7.014762E-1,4.0166645E0,1.5215253E0,4.1153482E-1,-3.7072197E-1],"split_indices":[1,0,0,1,0,0,0,1,0,18,1,0,0,0,0,0,0,0,0,0,0,0,0,0,0],"split_type":[0,0,0,0,0,0,0,0,0,0,0,0,0,0,0,0,0,0,0,0,0,0,0,0,0],"sum_hessian":[1.7612E4,1.6785E4,8.27E2,1.2281E4,4.504E3,2E0,8.25E2,1.0863E4,1.418E3,3.783E3,7.21E2,2.64E2,5.61E2,8.998E3,1.865E3,1.32E2,1.286E3,3.771E3,1.2E1,5.79E2,1.42E2,2.5E1,2.39E2,4.22E2,1.39E2],"tree_param":{"num_deleted":"0","num_feature":"78","num_nodes":"25","size_leaf_vector":"1"}},{"base_weights":[8.8151945E-3,-6.600051E-2,2.6567163E0,3.49403E-1,-2.9158163E-1,1.658422E1,2.0831556E0,-5.144032E-2,4.1515784E0,-2.530915E-1,-1.4945571E0,1.2952637E1,1.2708293E1,4.679312E0,1.0967511E0,-1.6833065E-1,2.529976E-1,3.8308349E0,9.9734896E-1,-2.795022E-2,-1.7725864E-1,-4.9683383E-1,-9.754624E-2,4.02188E0,1.4249E0,1.1794555E0,5.113146E0,4.605985E-1,-5.8739936E-1],"categories":[],"categories_nodes":[],"categories_segments":[],"categories_sizes":[],"default_left":[0,0,0,0,0,0,0,0,0,0,0,0,0,0,0,0,0,0,0,0,0,0,0,0,0,0,0,0,0],"id":8,"left_children":[1,3,5,7,9,11,13,15,17,19,21,-1,23,25,27,-1,-1,-1,-1,-1,-1,-1,-1,-1,-1,-1,-1,-1,-1],"loss_changes":[3.4893916E3,1.6053062E3,3.8317747E3,9.188872E3,5.136741E2,1.409561E3,1.1882291E3,2.488105E3,4.0559668E3,5.8112103E2,6.445123E1,0E0,3.6313232E1,1.1164932E3,4.571792E2,0E0,0E0,0E0,0E0,0E0,0E0,0E0,0E0,0E0,0E0,0E0,0E0,0E0,0E0],"parents":[2147483647,0,0,1,1,2,2,3,3,4,4,5,5,6,6,7,7,8,8,9,9,10,10,12,12,13,13,14,14],"right_children":[2,4,6,8,10,12,14,16,18,20,22,-1,24,26,28,-1,-1,-1,-1,-1,-1,-1,-1,-1,-1,-1,-1,-1,-1],"split_conditions":[2.5682867E0,2.5801843E-1,2.5801843E-1,2.4259984E-1,1.7734293E0,5.6004003E-2,1.190085E0,4.012466E-2,5.6004003E-2,1.3480964E0,1.3978814E0,1.2952637E1,2.7550793E0,7.8181353E0,3.582256E0,-1.6833065E-1,2.529976E-1,3.8308349E0,9.9734896E-1,-2.795022E-2,-1.7725864E-1,-4.9683383E-1,-9.754624E-2,4.02188E0,1.4249E0,1.1794555E0,5.113146E0,4.605985E-1,-5.8739936E-1],"split_indices":[1,0,0,1,51,0,0,1,0,0,1,0,3,1,0,0,0,0,0,0,0,0,0,0,0,0,0,0,0],"split_type":[0,0,0,0,0,0,0,0,0,0,0,0,0,0,0,0,0,0,0,0,0,0,0,0,0,0,0,0,0],"sum_hessian":[1.7612E4,1.7129E4,4.83E2,6.028E3,1.1101E4,1.8E1,4.65E2,5.454E3,5.74E2,1.0758E4,3.43E2,1E0,1.7E1,1.27E2,3.38E2,3.475E3,1.979E3,4.9E1,5.25E2,7.302E3,3.456E3,3.01E2,4.2E1,1.5E1,2E0,1.21E2,6E0,2.96E2,4.2E1],"tree_param":{"num_deleted":"0","num_feature":"78","num_nodes":"29","size_leaf_vector":"1"}},{"base_weights":[7.7988915E-3,-1.281725E-1,8.647762E-1,2.7018332E-1,-2.2801307E-1,9.898149E0,5.1846164E-1,-5.7268816E-1,1.4017946E0,-1.9675304E-1,-2.7119853E0,6.090245E0,1.6490658E1,2.9926E0,1.6454043E-2,-1.4065947E-1,-1.2261221E0,1.0102937E0,2.5633693E-1,-1.0722047E-1,1.093613E-2,-3.6305E-1,-1.3581873E0,4.5218134E0,1.100181E0,8.729275E0,3.5390449E0,7.7678585E-1,3.521077E0,-3.8319103E-2,1.156693E0],"categories":[],"categories_nodes":[],"categories_segments":[],"categories_sizes":[],"default_left":[0,0,0,0,0,0,0,0,0,0,0,0,0,0,0,0,0,0,0,0,0,0,0,0,0,0,0,0,0,0,0],"id":9,"left_children":[1,3,5,7,9,11,13,15,17,19,21,23,25,27,29,-1,-1,-1,-1,-1,-1,-1,-1,-1,-1,-1,-1,-1,-1,-1,-1],"loss_changes":[2.0524548E3,6.0467664E2,7.5405415E3,2.90704E3,9.433681E2,2.133792E3,2.886443E3,6.3552045E2,1.3969797E3,4.4980972E2,4.0618652E2,1.207053E3,1.5503379E3,1.3520796E3,1.0705068E3,0E0,0E0,0E0,0E0,0E0,0E0,0E0,0E0,0E0,0E0,0E0,0E0,0E0,0E0,0E0,0E0],"parents":[2147483647,0,0,1,1,2,2,3,3,4,4,5,5,6,6,7,7,8,8,9,9,10,10,11,11,12,12,13,13,14,14],"right_children":[2,4,6,8,10,12,14,16,18,20,22,24,26,28,30,-1,-1,-1,-1,-1,-1,-1,-1,-1,-1,-1,-1,-1,-1,-1,-1],"split_conditions":[7.78727E-1,1.300093E-1,2.1801558E-1,2.4692098E-2,1.7064581E0,1.3978814E0,8.340596E-1,2.1527646E0,6.6004716E-2,2.0741361E-1,2.0741361E-1,5.0003573E-2,5.6004003E-2,3.8951783E0,7.8181353E0,-1.4065947E-1,-1.2261221E0,1.0102937E0,2.5633693E-1,-1.0722047E-1,1.093613E-2,-3.6305E-1,-1.3581873E0,4.5218134E0,1.100181E0,8.729275E0,3.5390449E0,7.7678585E-1,3.521077E0,-3.8319103E-2,1.156693E0],"split_indices":[1,0,0,1,18,1,0,51,0,1,1,0,0,1,1,0,0,0,0,0,0,0,0,0,0,0,0,0,0,0,0],"split_type":[0,0,0,0,0,0,0,0,0,0,0,0,0,0,0,0,0,0,0,0,0,0,0,0,0,0,0,0,0,0,0],"sum_hessian":[1.7612E4,1.5201E4,2.411E3,3.046E3,1.2155E4,8.8E1,2.323E3,1.746E3,1.3E3,1.2005E4,1.5E2,5.7E1,3.1E1,3.91E2,1.932E3,1.697E3,4.9E1,2.82E2,1.018E3,7.108E3,4.897E3,8.3E1,6.7E1,1.1E1,4.6E1,7E0,2.4E1,3.75E2,1.6E1,1.863E3,6.9E1],"tree_param":{"num_deleted":"0","num_feature":"78","num_nodes":"31","size_leaf_vector":"1"}},{"base_weights":[6.6736033E-3,-4.0536344E-2,1.4631696E0,1.5945373E-1,-2.5309497E-1,9.692488E0,1.0223253E0,-1.8259265E-2,2.1606715E0,-2.2289006E-1,-1.2543024E0,9.700347E0,7.656321E0,2.4827797E0,3.3603376E-1,-7.375742E-2,1.6485436E-1,3.7493136E0,5.945732E-1,-1.0551937E-1,-1.7960466E-2,-2.8689584E-1,-5.322598E-1,1.5023451E0,2.749254E0,4.3457496E-1,2.2806084E0,3.3420986E-1,-9.942268E-2],"categories":[],"categories_nodes":[],"categories_segments":[],"categories_sizes":[],"default_left":[0,0,0,0,0,0,0,0,0,0,0,0,0,0,0,0,0,0,0,0,0,0,0,0,0,0,0,0,0],"id":10,"left_children":[1,3,5,7,9,11,13,15,17,19,21,-1,23,25,27,-1,-1,-1,-1,-1,-1,-1,-1,-1,-1,-1,-1,-1,-1],"loss_changes":[1.2111486E3,7.252969E2,1.996291E3,3.1264917E3,2.4984674E2,1.0433174E3,5.2637415E2,1.0436239E3,1.3001448E3,1.6864047E2,3.5794037E1,0E0,6.1933838E1,8.7843164E2,1.8678705E2,0E0,0E0,0E0,0E0,0E0,0E0,0E0,0E0,0E0,0E0,0E0,0E0,0E0,0E0],"parents":[2147483647,0,0,1,1,2,2,3,3,4,4,5,5,6,6,7,7,8,8,9,9,10,10,12,12,13,13,14,14],"right_children":[2,4,6,8,10,12,14,16,18,20,22,-1,24,26,28,-1,-1,-1,-1,-1,-1,-1,-1,-1,-1,-1,-1,-1,-1],"split_conditions":[2.3519223E0,5.0203586E-1,2.6201874E-1,3.7408528E-1,4.070291E0,5.6004003E-2,9.4760346E-1,7.7780105E-2,4.600329E-2,3.555662E-1,1.1457133E0,9.700347E0,1.64883E0,7.8181353E0,-1.5512516E-1,-7.375742E-2,1.6485436E-1,3.7493136E0,5.945732E-1,-1.0551937E-1,-1.7960466E-2,-2.8689584E-1,-5.322598E-1,1.5023451E0,2.749254E0,4.3457496E-1,2.2806084E0,3.3420986E-1,-9.942268E-2],"split_indices":[1,0,0,1,0,0,5,1,0,1,1,0,5,1,63,0,0,0,0,0,0,0,0,0,0,0,0,0,0],"split_type":[0,0,0,0,0,0,0,0,0,0,0,0,0,0,0,0,0,0,0,0,0,0,0,0,0,0,0,0,0],"sum_hessian":[1.7612E4,1.706E4,5.52E2,8.79E3,8.27E3,2.7E1,5.25E2,8.074E3,7.16E2,8.029E3,2.41E2,1E0,2.6E1,1.67E2,3.58E2,5.764E3,2.31E3,1.1E1,7.05E2,4.484E3,3.545E3,1.55E2,8.6E1,1.1E1,1.5E1,1.4E2,2.7E1,1.65E2,1.93E2],"tree_param":{"num_deleted":"0","num_feature":"78","num_nodes":"29","size_leaf_vector":"1"}},{"base_weights":[5.8294353E-3,-6.752247E-2,5.1869106E-1,-7.585375E-1,1.7763719E-2,7.2745004E0,3.0021283E-1,-2.6855087E0,-6.7871845E-1,2.9791242E-1,-1.285136E-1,4.0667405E0,1.1826337E1,1.2651882E0,-2.7972013E-1,-4.773482E-1,-1.0921782E0,4.2264324E-1,-2.4359576E-1,3.709885E-2,9.413947E-1,-1.2421096E-3,-8.542022E-2,3.1844542E0,5.8776927E-1,5.169662E0,2.0084765E0,3.1266558E-1,1.3793421E0,-8.619117E-3,-2.1126585E-1],"categories":[],"categories_nodes":[],"categories_segments":[],"categories_sizes":[],"default_left":[0,0,0,0,0,0,0,0,0,0,0,0,0,0,0,0,0,0,0,0,0,0,0,0,0,0,0,0,0,0,0],"id":11,"left_children":[1,3,5,7,9,11,13,15,17,19,21,23,25,27,29,-1,-1,-1,-1,-1,-1,-1,-1,-1,-1,-1,-1,-1,-1,-1,-1],"loss_changes":[6.626251E2,9.08187E2,3.2509143E3,2.5857605E2,5.6219366E2,9.5938794E2,1.1957045E3,6.423535E1,4.5377466E2,2.3285215E3,1.751182E2,5.588113E2,6.613447E2,5.9115234E2,1.422173E2,0E0,0E0,0E0,0E0,0E0,0E0,0E0,0E0,0E0,0E0,0E0,0E0,0E0,0E0,0E0,0E0],"parents":[2147483647,0,0,1,1,2,2,3,3,4,4,5,5,6,6,7,7,8,8,9,9,10,10,11,11,12,12,13,13,14,14],"right_children":[2,4,6,8,10,12,14,16,18,20,22,24,26,28,30,-1,-1,-1,-1,-1,-1,-1,-1,-1,-1,-1,-1,-1,-1,-1,-1],"split_conditions":[8.543466E-1,2.138596E0,2.1401529E-1,1.2963351E-2,2.420173E-1,1.3978814E0,1.2480892E0,2.9048702E-1,5.6004003E-2,1.9568487E-1,1E0,4.1694552E-1,6.000429E-2,3.8951783E0,2.3721695E0,-4.773482E-1,-1.0921782E0,4.2264324E-1,-2.4359576E-1,3.709885E-2,9.413947E-1,-1.2421096E-3,-8.542022E-2,3.1844542E0,5.8776927E-1,5.169662E0,2.0084765E0,3.1266558E-1,1.3793421E0,-8.619117E-3,-2.1126585E-1],"split_indices":[1,6,0,1,0,1,0,15,0,1,65,5,0,1,0,0,0,0,0,0,0,0,0,0,0,0,0,0,0,0,0],"split_type":[0,0,0,0,0,0,0,0,0,0,0,0,0,0,0,0,0,0,0,0,0,0,0,0,0,0,0,0,0,0,0],"sum_hessian":[1.7612E4,1.5409E4,2.203E3,1.692E3,1.3717E4,6.8E1,2.135E3,6.6E1,1.626E3,4.705E3,9.012E3,4.1E1,2.7E1,8.01E2,1.334E3,3.2E1,3.4E1,9.7E1,1.529E3,4.434E3,2.71E2,5.018E3,3.994E3,9E0,3.2E1,1.2E1,1.5E1,7.52E2,4.9E1,8.39E2,4.95E2],"tree_param":{"num_deleted":"0","num_feature":"78","num_nodes":"31","size_leaf_vector":"1"}},{"base_weights":[4.7576004E-3,-2.3569021E-2,8.786739E-1,5.2739605E-2,-2.809237E-1,7.469847E0,7.9005015E-1,-1.08689845E-1,5.000552E-1,-1.9283359E-1,-7.550836E-1,4.133648E0,4.7067842E-1,-2.0772801E-1,-1.4327294E-2,2.3609648E0,1.3787428E-1,-5.471612E-2,-9.876492E-1,-3.0397844E-1,-1.5560472E-1,8.425769E-1,4.490229E0,2.8955E-1,-1.2140365E-1],"categories":[],"categories_nodes":[],"categories_segments":[],"categories_sizes":[],"default_left":[0,0,0,0,0,0,0,0,0,0,0,0,0,0,0,0,0,0,0,0,0,0,0,0,0],"id":12,"left_children":[1,3,5,7,9,-1,11,13,15,17,19,21,23,-1,-1,-1,-1,-1,-1,-1,-1,-1,-1,-1,-1],"loss_changes":[4.3603223E2,3.3506528E2,1.1575627E3,9.503368E2,1.6283624E2,0E0,5.8750793E2,3.4394864E2,1.0374104E3,1.05985306E2,3.676596E1,6.470214E2,2.1898178E2,0E0,0E0,0E0,0E0,0E0,0E0,0E0,0E0,0E0,0E0,0E0,0E0],"parents":[2147483647,0,0,1,1,2,2,3,3,4,4,6,6,7,7,8,8,9,9,10,10,11,11,12,12],"right_children":[2,4,6,8,10,-1,12,14,16,18,20,22,24,-1,-1,-1,-1,-1,-1,-1,-1,-1,-1,-1,-1],"split_conditions":[2.3519223E0,1.2360884E0,5.6004003E-2,1.9228971E-1,1.1457133E0,7.469847E0,2.9202086E-1,1.7894377E0,4.600329E-2,1.6719874E0,1.5287495E0,3.8951783E0,1.513623E-3,-2.0772801E-1,-1.4327294E-2,2.3609648E0,1.3787428E-1,-5.471612E-2,-9.876492E-1,-3.0397844E-1,-1.5560472E-1,8.425769E-1,4.490229E0,2.8955E-1,-1.2140365E-1],"split_indices":[1,0,0,1,1,0,0,6,0,18,1,1,13,0,0,0,0,0,0,0,0,0,0,0,0],"split_type":[0,0,0,0,0,0,0,0,0,0,0,0,0,0,0,0,0,0,0,0,0,0,0,0,0],"sum_hessian":[1.7612E4,1.706E4,5.52E2,1.3159E4,3.901E3,1E0,5.51E2,9.67E3,3.489E3,3.291E3,6.1E2,4.7E1,5.04E2,9.13E2,8.757E3,1.8E1,3.471E3,3.281E3,1E1,2.9E2,3.2E2,4.3E1,4E0,3.22E2,1.82E2],"tree_param":{"num_deleted":"0","num_feature":"78","num_nodes":"25","size_leaf_vector":"1"}},{"base_weights":[4.1107256E-3,3.290008E-1,-5.0634194E-2,-2.1667573E-1,1.604921E0,-2.999211E-2,-1.6937824E0,-1.6766787E0,-6.94587E-2,1.4887073E0,5.6636047E0,-5.103155E-2,8.518106E-1,-7.2597593E-1,-2.664189E0,-6.357246E-1,1.5960552E-1,-8.690925E-2,1.9390658E-1,-5.6598127E-2,6.298646E-1,-7.3169665E-3,-1.9941549E-1,1.6028782E0,1.5940703E-1,-5.2653104E-1,-6.719774E-2,-4.3475395E-1,-1.4805043E0],"categories":[],"categories_nodes":[],"categories_segments":[],"categories_sizes":[],"default_left":[0,0,0,0,0,0,0,0,0,0,0,0,0,0,0,0,0,0,0,0,0,0,0,0,0,0,0,0,0],"id":13,"left_children":[1,3,5,7,9,11,13,15,17,19,-1,21,23,25,27,-1,-1,-1,-1,-1,-1,-1,-1,-1,-1,-1,-1,-1,-1],"loss_changes":[3.1328287E2,1.7687964E3,5.112292E2,3.8247192E2,1.4995619E3,2.7625507E2,1.7368994E2,1.6040039E2,2.5526495E2,7.760226E2,0E0,2.3774017E2,4.9656183E2,4.8684338E1,2.4944214E2,0E0,0E0,0E0,0E0,0E0,0E0,0E0,0E0,0E0,0E0,0E0,0E0,0E0,0E0],"parents":[2147483647,0,0,1,1,2,2,3,3,4,4,5,5,6,6,7,7,8,8,9,9,11,11,12,12,13,13,14,14],"right_children":[2,4,6,8,10,12,14,16,18,20,-1,22,24,26,28,-1,-1,-1,-1,-1,-1,-1,-1,-1,-1,-1,-1,-1,-1],"split_conditions":[1.12008005E-1,4.012466E-2,1.7064581E0,1.7894377E0,1.6883222E0,3.0173743E0,2.0741361E-1,8.600615E-2,1.759312E-2,-1.8929547E0,5.6636047E0,1.7734293E0,2.9202086E-1,1.7457928E-1,1.7401244E-1,-6.357246E-1,1.5960552E-1,-8.690925E-2,1.9390658E-1,-5.6598127E-2,6.298646E-1,-7.3169665E-3,-1.9941549E-1,1.6028782E0,1.5940703E-1,-5.2653104E-1,-6.719774E-2,-4.3475395E-1,-1.4805043E0],"split_indices":[0,1,18,6,1,1,1,0,1,52,0,51,0,6,0,0,0,0,0,0,0,0,0,0,0,0,0,0,0],"split_type":[0,0,0,0,0,0,0,0,0,0,0,0,0,0,0,0,0,0,0,0,0,0,0,0,0,0,0,0,0],"sum_hessian":[1.7612E4,2.539E3,1.5073E4,1.779E3,7.6E2,1.4887E4,1.86E2,1.62E2,1.617E3,7.56E2,4E0,1.4541E4,3.46E2,9.4E1,9.2E1,1.35E2,2.7E1,1.237E3,3.8E2,2.02E2,5.54E2,1.3937E4,6.04E2,2.2E1,3.24E2,3E1,6.4E1,6.1E1,3.1E1],"tree_param":{"num_deleted":"0","num_feature":"78","num_nodes":"29","size_leaf_vector":"1"}},{"base_weights":[3.1565106E-3,-5.3196162E-2,2.6012227E-1,-2.657672E-2,-8.3269393E-1,3.1190832E0,1.3184045E-1,4.6235585E-1,-6.602057E-2,-3.593501E0,-4.49457E-1,2.0191836E0,6.630657E0,9.722169E-1,-2.928899E-2,-1.39581105E-2,1.0200901E0,-1.2201941E-2,-4.7152582E-1,-1.6446356E0,-4.1225794E-1,5.257368E-2,-3.2429284E-1,-1.9923303E-1,1.261508E0,3.1991806E0,1.1032484E0,2.5081807E-1,1.6567131E0,2.1301115E-2,-2.0811467E-1],"categories":[],"categories_nodes":[],"categories_segments":[],"categories_sizes":[],"default_left":[0,0,0,0,0,0,0,0,0,0,0,0,0,0,0,0,0,0,0,0,0,0,0,0,0,0,0,0,0,0,0],"id":14,"left_children":[1,3,5,7,9,11,13,15,17,19,21,23,25,27,29,-1,-1,-1,-1,-1,-1,-1,-1,-1,-1,-1,-1,-1,-1,-1,-1],"loss_changes":[2.5506255E2,2.997294E2,1.1614615E3,2.6944736E2,5.030715E2,5.1189502E2,4.1072516E2,1.5595159E3,4.9335193E2,2.3556897E2,1.6588431E2,6.186449E2,3.4193298E2,2.9771603E2,1.6970741E2,0E0,0E0,0E0,0E0,0E0,0E0,0E0,0E0,0E0,0E0,0E0,0E0,0E0,0E0,0E0,0E0],"parents":[2147483647,0,0,1,1,2,2,3,3,4,4,5,5,6,6,7,7,8,8,9,9,10,10,11,11,12,12,13,13,14,14],"right_children":[2,4,6,8,10,12,14,16,18,20,22,24,26,28,30,-1,-1,-1,-1,-1,-1,-1,-1,-1,-1,-1,-1,-1,-1,-1,-1],"split_conditions":[5.9816605E-1,2.1542315E0,2.1801558E-1,7.000501E-2,7.600543E-2,1.3978814E0,7.920566E-1,6.1730243E-2,1.7064581E0,1.2253453E-1,2.2201587E-1,-3.307789E-1,7.012266E-1,3.8951783E0,3.8162727E0,-1.39581105E-2,1.0200901E0,-1.2201941E-2,-4.7152582E-1,-1.6446356E0,-4.1225794E-1,5.257368E-2,-3.2429284E-1,-1.9923303E-1,1.261508E0,3.1991806E0,1.1032484E0,2.5081807E-1,1.6567131E0,2.1301115E-2,-2.0811467E-1],"split_indices":[1,51,0,0,0,1,0,1,18,1,0,20,5,1,0,0,0,0,0,0,0,0,0,0,0,0,0,0,0,0,0],"split_type":[0,0,0,0,0,0,0,0,0,0,0,0,0,0,0,0,0,0,0,0,0,0,0,0,0,0,0,0,0,0,0],"sum_hessian":[1.7612E4,1.4445E4,3.167E3,1.3969E4,4.76E2,1.35E2,3.032E3,1.042E3,1.2927E4,5.7E1,4.19E2,1.04E2,3.1E1,4.87E2,2.545E3,8.89E2,1.53E2,1.2714E4,2.13E2,3E1,2.7E1,2.11E2,2.08E2,4.7E1,5.7E1,1.2E1,1.9E1,4.74E2,1.3E1,2.212E3,3.33E2],"tree_param":{"num_deleted":"0","num_feature":"78","num_nodes":"31","size_leaf_vector":"1"}},{"base_weights":[2.5092803E-3,-1.0350336E-1,8.750566E-2,-9.875031E-1,-8.058288E-2,1.3581575E0,-7.6292537E-4,-3.0558878E-1,-2.514006E0,-4.0718514E-2,-5.7224184E-1,4.9652204E-1,2.5671356E0,2.9855233E-1,-1.1938271E-1,-1.8823706E-2,-1.9487426E-1,-1.9688897E-1,-1.0212595E0,2.664526E-2,-5.9748996E-2,-6.223216E-1,-9.728262E-2,4.28241E-2,1.8354819E0,5.9372216E-1,2.3622134E0,9.9715106E-2,-1.0497371E0,-4.0558614E-2,4.0376943E-1],"categories":[],"categories_nodes":[],"categories_segments":[],"categories_sizes":[],"default_left":[0,0,0,0,0,0,0,0,0,0,0,0,0,0,0,0,0,0,0,0,0,0,0,0,0,0,0,0,0,0,0],"id":15,"left_children":[1,3,5,7,9,11,13,15,17,19,21,23,25,27,29,-1,-1,-1,-1,-1,-1,-1,-1,-1,-1,-1,-1,-1,-1,-1,-1],"loss_changes":[1.5871436E2,1.5873169E2,1.096464E3,2.0533868E2,1.4973778E2,6.6020374E2,3.2461975E2,1.1487223E1,9.864267E1,1.4510406E2,2.1276186E2,7.389732E2,8.083054E2,3.3456964E2,1.5189911E2,0E0,0E0,0E0,0E0,0E0,0E0,0E0,0E0,0E0,0E0,0E0,0E0,0E0,0E0,0E0,0E0],"parents":[2147483647,0,0,1,1,2,2,3,3,4,4,5,5,6,6,7,7,8,8,9,9,10,10,11,11,12,12,13,13,14,14],"right_children":[2,4,6,8,10,12,14,16,18,20,22,24,26,28,30,-1,-1,-1,-1,-1,-1,-1,-1,-1,-1,-1,-1,-1,-1,-1,-1],"split_conditions":[1.2839891E-1,-1.92373E0,1.860133E-1,1E0,1.7300568E0,1.7894377E0,8.340596E-1,1.6001144E-1,6.000429E-2,1E0,7.600543E-2,1.2839891E0,4.706931E-1,1.6719874E0,7.8181353E0,-1.8823706E-2,-1.9487426E-1,-1.9688897E-1,-1.0212595E0,2.664526E-2,-5.9748996E-2,-6.223216E-1,-9.728262E-2,4.28241E-2,1.8354819E0,5.9372216E-1,2.3622134E0,9.9715106E-2,-1.0497371E0,-4.0558614E-2,4.0376943E-1],"split_indices":[1,52,0,67,51,6,0,0,0,65,0,1,1,18,1,0,0,0,0,0,0,0,0,0,0,0,0,0,0,0,0],"split_type":[0,0,0,0,0,0,0,0,0,0,0,0,0,0,0,0,0,0,0,0,0,0,0,0,0,0,0,0,0,0,0],"sum_hessian":[1.7612E4,7.837E3,9.775E3,1.97E2,7.64E3,6.34E2,9.141E3,1.37E2,6E1,7.068E3,5.72E2,3.71E2,2.63E2,2.594E3,6.547E3,8.1E1,5.6E1,2E1,4E1,3.889E3,3.179E3,8E1,4.92E2,3.5E2,2.1E1,2.38E2,2.5E1,2.572E3,2.2E1,6.478E3,6.9E1],"tree_param":{"num_deleted":"0","num_feature":"78","num_nodes":"31","size_leaf_vector":"1"}},{"base_weights":[1.8736081E-3,-3.8600284E-1,2.1321662E-2,-4.9910638E-1,3.8625646E-1,2.2512794E-1,-2.722814E-2,-3.2831225E-1,-1.038736E0,2.3862412E0,1.8702054E-2,4.733367E-2,1.3511854E0,-8.4377654E-2,1.4342135E-1,-7.457297E-2,-3.7006414E-1,8.84824E-1,-3.8902605E-1,7.1475303E-1,-6.0929924E-2,-4.392903E-2,1.2098241E-1,3.7212753E-1,3.2217746E0,-1.48620065E-2,-1.5533257E-1,1.3841751E-1,-2.7332509E-2],"categories":[],"categories_nodes":[],"categories_segments":[],"categories_sizes":[],"default_left":[0,0,0,0,0,0,0,0,0,0,0,0,0,0,0,0,0,0,0,0,0,0,0,0,0,0,0,0,0],"id":16,"left_children":[1,3,5,7,9,11,13,15,17,-1,19,21,23,25,27,-1,-1,-1,-1,-1,-1,-1,-1,-1,-1,-1,-1,-1,-1],"loss_changes":[1.3287088E2,7.3650154E1,1.6597086E2,6.73085E1,3.002649E2,6.460027E2,1.3212968E2,4.0041714E1,1.849308E2,0E0,5.5010754E1,1.9234315E2,4.4420178E2,1.5320946E2,2.5351733E2,0E0,0E0,0E0,0E0,0E0,0E0,0E0,0E0,0E0,0E0,0E0,0E0,0E0,0E0],"parents":[2147483647,0,0,1,1,2,2,3,3,4,4,5,5,6,6,7,7,8,8,10,10,11,11,12,12,13,13,14,14],"right_children":[2,4,6,8,10,12,14,16,18,-1,20,22,24,26,28,-1,-1,-1,-1,-1,-1,-1,-1,-1,-1,-1,-1,-1,-1],"split_conditions":[4.1829713E-4,7.78727E-1,1.4601043E-1,3.024782E-1,8.000572E-2,9.5681876E-2,5.169908E-1,2.482721E0,5.8004145E-2,2.3862412E0,1.7401244E-1,2.253154E-2,1.6883222E0,1.7300568E0,1.330095E0,-7.457297E-2,-3.7006414E-1,8.84824E-1,-3.8902605E-1,7.1475303E-1,-6.0929924E-2,-4.392903E-2,1.2098241E-1,3.7212753E-1,3.2217746E0,-1.48620065E-2,-1.5533257E-1,1.3841751E-1,-2.7332509E-2],"split_indices":[11,1,0,1,0,1,1,5,0,0,0,1,1,51,0,0,0,0,0,0,0,0,0,0,0,0,0,0,0],"split_type":[0,0,0,0,0,0,0,0,0,0,0,0,0,0,0,0,0,0,0,0,0,0,0,0,0,0,0,0,0],"sum_hessian":[1.7612E4,8.4E2,1.6772E4,7.33E2,1.07E2,3.226E3,1.3546E4,5.58E2,1.75E2,4E0,1.03E2,2.787E3,4.39E2,1.0148E4,3.398E3,5.14E2,4.4E1,1E1,1.65E2,8E0,9.5E1,1.805E3,9.82E2,4.35E2,4E0,9.394E3,7.54E2,1.442E3,1.956E3],"tree_param":{"num_deleted":"0","num_feature":"78","num_nodes":"29","size_leaf_vector":"1"}},{"base_weights":[1.6921051E-3,-2.2087416E-1,3.1071888E-2,1.0006802E0,-2.6639366E-1,3.0498803E-1,2.4298124E-3,3.611687E-1,9.753705E0,-2.9820213E-1,1.6203051E0,2.4665038E-1,8.815122E0,-9.4043106E-2,7.273046E-2,-1.7288558E-1,8.2008535E-1,3.4446466E0,4.2598572E-1,-1.8656997E-1,-2.324871E-2,4.2613635E0,2.3494671E-1,-2.2359975E-3,4.253678E-1,3.261068E0,9.044721E-1,-4.92771E-2,1.3235068E-2,1.3438094E-1,-1.55639965E-2],"categories":[],"categories_nodes":[],"categories_segments":[],"categories_sizes":[],"default_left":[0,0,0,0,0,0,0,0,0,0,0,0,0,0,0,0,0,0,0,0,0,0,0,0,0,0,0,0,0,0,0],"id":17,"left_children":[1,3,5,7,9,11,13,15,17,19,21,23,25,27,29,-1,-1,-1,-1,-1,-1,-1,-1,-1,-1,-1,-1,-1,-1,-1,-1],"loss_changes":[1.1517736E2,1.1447835E2,1.22075676E2,4.1070407E2,1.1936885E2,7.291131E2,9.555318E1,1.5725967E2,5.571826E1,1.3919261E2,3.3652698E2,4.3572186E2,8.6427795E1,5.7620003E1,3.8107312E2,0E0,0E0,0E0,0E0,0E0,0E0,0E0,0E0,0E0,0E0,0E0,0E0,0E0,0E0,0E0,0E0],"parents":[2147483647,0,0,1,1,2,2,3,3,4,4,5,5,6,6,7,7,8,8,9,9,10,10,11,11,12,12,13,13,14,14],"right_children":[2,4,6,8,10,12,14,16,18,20,22,24,26,28,30,-1,-1,-1,-1,-1,-1,-1,-1,-1,-1,-1,-1,-1,-1,-1,-1],"split_conditions":[-1.0065006E0,4.800343E-2,9.000643E-2,1.2839891E0,2.5682867E0,4.706931E-1,1.3889304E-1,5.617452E-2,4.2003002E-2,1.7894377E0,5.6004003E-2,4.351982E-2,7.400529E-2,1E0,7.1605116E-1,-1.7288558E-1,8.2008535E-1,3.4446466E0,4.2598572E-1,-1.8656997E-1,-2.324871E-2,4.2613635E0,2.3494671E-1,-2.2359975E-3,4.253678E-1,3.261068E0,9.044721E-1,-4.92771E-2,1.3235068E-2,1.3438094E-1,-1.55639965E-2],"split_indices":[62,0,0,1,1,1,1,1,0,6,0,1,0,64,0,0,0,0,0,0,0,0,0,0,0,0,0,0,0,0,0],"split_type":[0,0,0,0,0,0,0,0,0,0,0,0,0,0,0,0,0,0,0,0,0,0,0,0,0,0,0,0,0,0,0],"sum_hessian":[1.7612E4,2.053E3,1.5559E4,7.3E1,1.98E3,1.472E3,1.4087E4,6.9E1,4E0,1.948E3,3.2E1,1.463E3,9E0,5.938E3,8.149E3,5E1,1.9E1,3E0,1E0,7.89E2,1.159E3,1E0,3.1E1,1.203E3,2.6E2,6E0,3E0,3.937E3,2.001E3,2.031E3,6.118E3],"tree_param":{"num_deleted":"0","num_feature":"78","num_nodes":"31","size_leaf_vector":"1"}},{"base_weights":[1.9495509E-3,4.9029957E-3,-1.7890253E0,-1.5880319E-3,1.810258E0,-2.919797E-1,-5.083351E0,9.012958E-2,-5.0870314E-2,-2.8471653E0,2.7372713E0,-8.369402E-1,6.981987E-1,-6.690498E0,3.6110815E-1,2.245669E-2,1.0240068E0,-3.6403794E-2,2.0946197E-2,2.4158304E0,3.3274556E-3,-9.941135E-2,-1.1114007E0,-1.0009203E-1,4.1520903E-1,-3.7188035E-1,-2.217714E0,1.4281197E0,-1.2656211E0],"categories":[],"categories_nodes":[],"categories_segments":[],"categories_sizes":[],"default_left":[0,0,0,0,0,0,0,0,0,0,0,0,0,0,0,0,0,0,0,0,0,0,0,0,0,0,0,0,0],"id":18,"left_children":[1,3,5,7,9,11,13,15,17,-1,19,21,23,25,27,-1,-1,-1,-1,-1,-1,-1,-1,-1,-1,-1,-1,-1,-1],"loss_changes":[9.317352E1,2.0607462E2,1.415367E2,7.920947E1,6.859663E2,1.19161215E1,8.11664E1,3.106418E2,9.69658E1,0E0,8.548795E2,1.9070068E1,6.123107E0,1.7617615E1,8.052708E1,0E0,0E0,0E0,0E0,0E0,0E0,0E0,0E0,0E0,0E0,0E0,0E0,0E0,0E0],"parents":[2147483647,0,0,1,1,2,2,3,3,4,4,5,5,6,6,7,7,8,8,10,10,11,11,12,12,13,13,14,14],"right_children":[2,4,6,8,10,12,14,16,18,-1,20,22,24,26,28,-1,-1,-1,-1,-1,-1,-1,-1,-1,-1,-1,-1,-1,-1],"split_conditions":[1.2088312E1,7.8181353E0,7.8181353E0,2.6201874E-1,2.6532897E-1,1.3076928E0,1E0,2.3519223E0,1E0,-2.8471653E0,8.1493896E-1,1E0,2.0914207E0,1.3840989E0,1.5141082E0,2.245669E-2,1.0240068E0,-3.6403794E-2,2.0946197E-2,2.4158304E0,3.3274556E-3,-9.941135E-2,-1.1114007E0,-1.0009203E-1,4.1520903E-1,-3.7188035E-1,-2.217714E0,1.4281197E0,-1.2656211E0],"split_indices":[10,1,1,0,5,5,73,1,64,0,5,69,1,0,0,0,0,0,0,0,0,0,0,0,0,0,0,0,0],"split_type":[0,0,0,0,0,0,0,0,0,0,0,0,0,0,0,0,0,0,0,0,0,0,0,0,0,0,0,0,0],"sum_hessian":[1.7612E4,1.7584E4,2.8E1,1.7522E4,6.2E1,2E1,8E0,6.124E3,1.1398E4,4E0,5.8E1,1.3E1,7E0,6E0,2E0,6.097E3,2.7E1,7.196E3,4.202E3,1.9E1,3.9E1,1.2E1,1E0,3E0,4E0,1E0,5E0,1E0,1E0],"tree_param":{"num_deleted":"0","num_feature":"78","num_nodes":"29","size_leaf_vector":"1"}},{"base_weights":[1.2102583E-3,1.6410483E-2,-2.6046434E-1,-3.3446085E-2,1.8196936E-1,-1.9623229E-1,-3.0106032E0,-3.3725932E-1,2.2714734E-3,1.6216868E-1,3.968662E0,-2.192004E-1,1.0718013E0,-2.020021E0,-1.4534116E0,-2.5642058E-2,-1.557899E-1,5.8458883E-2,-1.0080448E-2,9.005224E-1,4.5740355E-2,5.2030283E-1,1.9520377E0,-1.2136561E-1,-2.9297283E-2,-5.916782E-1,4.8274806E-1,-2.4175723E-1,-8.624492E-1],"categories":[],"categories_nodes":[],"categories_segments":[],"categories_sizes":[],"default_left":[0,0,0,0,0,0,0,0,0,0,0,0,0,0,0,0,0,0,0,0,0,0,0,0,0,0,0,0,0],"id":19,"left_children":[1,3,5,7,9,11,13,15,17,19,21,23,25,27,-1,-1,-1,-1,-1,-1,-1,-1,-1,-1,-1,-1,-1,-1,-1],"loss_changes":[7.00602E1,1.3741371E2,1.7022693E2,1.3884529E2,2.8825092E2,2.7786549E1,3.0183838E1,6.164975E1,7.911262E1,1.0515462E2,1.0213486E2,2.0911678E1,3.0981503E1,1.428936E1,0E0,0E0,0E0,0E0,0E0,0E0,0E0,0E0,0E0,0E0,0E0,0E0,0E0,0E0,0E0],"parents":[2147483647,0,0,1,1,2,2,3,3,4,4,5,5,6,6,7,7,8,8,9,9,10,10,11,11,12,12,13,13],"right_children":[2,4,6,8,10,12,14,16,18,20,22,24,26,28,-1,-1,-1,-1,-1,-1,-1,-1,-1,-1,-1,-1,-1,-1,-1],"split_conditions":[2.65819E0,3.802583E-1,4.998915E0,7.7347416E-1,4.2335477E0,3.8951783E0,7.8181353E0,-9.478958E-2,1.0400743E-1,4.800343E-2,5.262503E-1,1E0,-1.4781608E-1,3.8162727E0,-1.4534116E0,-2.5642058E-2,-1.557899E-1,5.8458883E-2,-1.0080448E-2,9.005224E-1,4.5740355E-2,5.2030283E-1,1.9520377E0,-1.2136561E-1,-2.9297283E-2,-5.916782E-1,4.8274806E-1,-2.4175723E-1,-8.624492E-1],"split_indices":[0,1,1,7,6,1,1,39,0,0,1,64,54,0,0,0,0,0,0,0,0,0,0,0,0,0,0,0,0],"split_type":[0,0,0,0,0,0,0,0,0,0,0,0,0,0,0,0,0,0,0,0,0,0,0,0,0,0,0,0,0],"sum_hessian":[1.7612E4,1.6646E4,9.66E2,1.2794E4,3.852E3,9.45E2,2.1E1,1.345E3,1.1449E4,3.833E3,1.9E1,9.29E2,1.6E1,1.5E1,6E0,5.65E2,7.8E2,1.797E3,9.652E3,1.2E1,3.821E3,1.1E1,8E0,3.67E2,5.62E2,2E0,1.4E1,7E0,8E0],"tree_param":{"num_deleted":"0","num_feature":"78","num_nodes":"29","size_leaf_vector":"1"}}]},"name":"gbtree"},"learner_model_param":{"base_score":"4.600216E0","boost_from_average":"1","num_class":"0","num_feature":"78","num_target":"1"},"objective":{"name":"reg:squarederror","reg_loss_param":{"scale_pos_weight":"1"}}},"version":[2,1,4]}