{"learner":{"attributes":{"scikit_learn":"{\"_estimator_type\": \"regressor\"}"},"feature_names":[],"feature_types":[],"gradient_booster":{"model":{"gbtree_model_param":{"num_parallel_tree":"1","num_trees":"20"},"iteration_indptr":[0,1,2,3,4,5,6,7,8,9,10,11,12,13,14,15,16,17,18,19,20],"tree_info":[0,0,0,0,0,0,0,0,0,0,0,0,0,0,0,0,0,0,0,0],"trees":[{"base_weights":[-4.2652218E-8,-1.2494147E0,1.3265919E1,5.0499153E0,-2.025935E0,5.39436E1,9.9956E0,1.1164114E0,2.0251005E1,-2.5067086E0,-1.6019614E-1,6.1276955E1,7.8609324E0,-6.868178E-1,7.8915817E-1,3.0808003E0,2.434611E1,-7.9772943E-1,2.0182692E-3,4.138535E0,-4.2628855E-1,1.0552789E1,2.1447144E1,1.5512655E0,9.753387E0],"categories":[],"categories_nodes":[],"categories_segments":[],"categories_sizes":[],"default_left":[0,0,0,0,0,0,0,0,0,0,0,0,0,0,0,0,0,0,0,0,0,0,0,0,0],"id":0,"left_children":[1,3,5,7,9,-1,11,13,15,17,19,21,23,-1,-1,-1,-1,-1,-1,-1,-1,-1,-1,-1,-1],"loss_changes":[2.805588E5,7.568262E4,7.917706E5,1.0150682E5,1.2353957E4,0E0,1.5605844E5,6.967677E3,2.1132744E5,4.1944766E3,4.968853E4,1.26805E4,9.094272E4,0E0,0E0,0E0,0E0,0E0,0E0,0E0,0E0,0E0,0E0,0E0,0E0],"parents":[2147483647,0,0,1,1,2,2,3,3,4,4,6,6,7,7,8,8,9,9,10,10,11,11,12,12],"right_children":[2,4,6,8,10,-1,12,14,16,18,20,22,24,-1,-1,-1,-1,-1,-1,-1,-1,-1,-1,-1,-1],"split_conditions":[1.1852646E0,1.678091E0,8.526062E-2,1E0,3.6865374E-1,5.39436E1,3.15266E-1,1.1583856E0,4.8684338E-1,1.7406678E0,3.886298E-1,2.1800785E0,5.002239E0,-6.868178E-1,7.8915817E-1,3.0808003E0,2.434611E1,-7.9772943E-1,2.0182692E-3,4.138535E0,-4.2628855E-1,1.0552789E1,2.1447144E1,1.5512655E0,9.753387E0],"split_indices":[1,6,0,67,1,0,0,15,1,51,0,1,1,0,0,0,0,0,0,0,0,0,0,0,0],"split_type":[0,0,0,0,0,0,0,0,0,0,0,0,0,0,0,0,0,0,0,0,0,0,0,0,0],"sum_hessian":[1.6925E4,1.5469E4,1.456E3,1.697E3,1.3772E4,2.7E1,1.429E3,1.349E3,3.48E2,1.095E4,2.822E3,5.6E1,1.373E3,4.15E2,9.34E2,3E2,4.8E1,1.0324E4,6.26E2,2.33E2,2.589E3,1.7E1,3.9E1,1.239E3,1.34E2],"tree_param":{"num_deleted":"0","num_feature":"78","num_nodes":"25","size_leaf_vector":"1"}},{"base_weights":[7.54431E-3,-9.903051E-1,8.456333E0,3.0447373E0,-1.4807498E0,3.768028E1,6.113963E0,7.415238E-1,1.1855736E1,-1.5680207E0,6.142025E0,3.3888443E1,4.360687E0,-3.3937255E-1,1.0599422E0,6.7171574E-1,1.0882444E1,-5.218347E-1,6.6296674E-2,1.14845715E-1,8.638481E0,7.489261E0,1.652083E1,9.257843E-1,1.00627775E1],"categories":[],"categories_nodes":[],"categories_segments":[],"categories_sizes":[],"default_left":[0,0,0,0,0,0,0,0,0,0,0,0,0,0,0,0,0,0,0,0,0,0,0,0,0],"id":1,"left_children":[1,3,5,7,9,-1,11,13,15,17,19,21,23,-1,-1,-1,-1,-1,-1,-1,-1,-1,-1,-1,-1],"loss_changes":[1.4270503E5,2.9964072E4,4.8985206E5,3.329302E4,8.989783E3,0E0,8.526561E4,6.8109097E3,7.976117E4,4.0937305E3,1.9949783E4,1.8283758E4,6.1312555E4,0E0,0E0,0E0,0E0,0E0,0E0,0E0,0E0,0E0,0E0,0E0,0E0],"parents":[2147483647,0,0,1,1,2,2,3,3,4,4,6,6,7,7,8,8,9,9,10,10,11,11,12,12],"right_children":[2,4,6,8,10,-1,12,14,16,18,20,22,24,-1,-1,-1,-1,-1,-1,-1,-1,-1,-1,-1,-1],"split_conditions":[9.9848825E-1,1.678091E0,7.138099E-2,1E0,4.092905E0,3.768028E1,4.302687E-1,2.6761076E-1,2.902689E-1,5.7227063E-1,3.1231463E-1,2.7544925E0,7.789494E0,-3.3937255E-1,1.0599422E0,6.7171574E-1,1.0882444E1,-5.218347E-1,6.6296674E-2,1.14845715E-1,8.638481E0,7.489261E0,1.652083E1,9.257843E-1,1.00627775E1],"split_indices":[1,6,0,67,6,0,0,1,1,1,1,1,1,0,0,0,0,0,0,0,0,0,0,0,0],"split_type":[0,0,0,0,0,0,0,0,0,0,0,0,0,0,0,0,0,0,0,0,0,0,0,0,0],"sum_hessian":[1.6925E4,1.5138E4,1.787E3,1.64E3,1.3498E4,3.4E1,1.753E3,1.301E3,3.39E2,1.3346E4,1.52E2,1.03E2,1.65E3,7.79E2,5.22E2,2.44E2,9.5E1,1.2179E4,1.167E3,1.22E2,3E1,7.4E1,2.9E1,1.582E3,6.8E1],"tree_param":{"num_deleted":"0","num_feature":"78","num_nodes":"25","size_leaf_vector":"1"}},{"base_weights":[1.0790323E-2,-3.5382897E-1,1.2919074E1,1.2557096E1,-6.490055E-1,3.9838436E1,9.579782E0,6.1270145E1,3.4319701E0,-8.545836E-1,4.3739066E0,3.5554955E1,3.5894543E1,1.4130529E1,8.249976E-1,4.749956E0,2.5430302E1,6.009171E0,1.6459008E-1,-2.8647378E-1,1.3475707E0,7.662832E-1,3.9587035E0,4.9510365E0,1.1166587E1,3.2285488E0,7.7730165E0,1.2423295E0,-5.974532E-1],"categories":[],"categories_nodes":[],"categories_segments":[],"categories_sizes":[],"default_left":[0,0,0,0,0,0,0,0,0,0,0,0,0,0,0,0,0,0,0,0,0,0,0,0,0,0,0,0,0],"id":2,"left_children":[1,3,5,7,9,11,13,15,17,19,21,-1,23,25,27,-1,-1,-1,-1,-1,-1,-1,-1,-1,-1,-1,-1,-1,-1],"loss_changes":[7.966864E4,6.274486E4,4.141797E4,1.633704E5,1.6623447E4,1.1571094E4,1.6522277E4,6.0581906E4,1.487327E4,8.298757E3,1.0127436E4,0E0,6.7271094E2,1.055427E4,1.3438419E3,0E0,0E0,0E0,0E0,0E0,0E0,0E0,0E0,0E0,0E0,0E0,0E0,0E0,0E0],"parents":[2147483647,0,0,1,1,2,2,3,3,4,4,5,5,6,6,7,7,8,8,9,9,10,10,12,12,13,13,14,14],"right_children":[2,4,6,8,10,12,14,16,18,20,22,-1,24,26,28,-1,-1,-1,-1,-1,-1,-1,-1,-1,-1,-1,-1,-1,-1],"split_conditions":[2.5334227E0,-3.195157E0,8.2682973E-1,5.9484154E-2,1.663463E0,5.5518545E-2,1.8400432E0,6.846427E-1,8.3277814E-2,1.8423501E0,1E0,3.5554955E1,4.09159E-1,7.789494E0,2.5161798E0,4.749956E0,2.5430302E1,6.009171E0,1.6459008E-1,-2.8647378E-1,1.3475707E0,7.662832E-1,3.9587035E0,4.9510365E0,1.1166587E1,3.2285488E0,7.7730165E0,1.2423295E0,-5.974532E-1],"split_indices":[1,55,0,0,18,0,0,1,0,1,67,0,5,1,0,0,0,0,0,0,0,0,0,0,0,0,0,0,0],"split_type":[0,0,0,0,0,0,0,0,0,0,0,0,0,0,0,0,0,0,0,0,0,0,0,0,0,0,0,0,0],"sum_hessian":[1.6925E4,1.6461E4,4.64E2,3.67E2,1.6094E4,5E1,4.14E2,5.7E1,3.1E2,1.5462E4,6.32E2,1E0,4.9E1,2.72E2,1.42E2,2E1,3.7E1,4.5E1,2.65E2,1.5178E4,2.84E2,5.25E2,1.07E2,4E0,4.5E1,2.13E2,5.9E1,6.5E1,7.7E1],"tree_param":{"num_deleted":"0","num_feature":"78","num_nodes":"29","size_leaf_vector":"1"}},{"base_weights":[1.37838125E-2,-6.4237356E-1,3.89285E0,-1.2814536E0,2.3831673E-1,3.85755E1,2.0892892E0,-1.6711098E0,-9.2159396E-1,1.0218997E1,-7.7441615E-1,6.746241E1,2.6976288E1,5.44484E0,-1.4394228E0,-1.1057842E0,-4.5413023E-1,5.694789E-1,-4.379771E-1,5.2058277E0,2.24313E0,5.8651346E-1,-3.8473138E-1,1.4186719E1,2.5456217E1,4.7868443E0,9.189074E0,1.1490462E0,4.779433E0,-5.9293664E-1,7.6716405E-1],"categories":[],"categories_nodes":[],"categories_segments":[],"categories_sizes":[],"default_left":[0,0,0,0,0,0,0,0,0,0,0,0,0,0,0,0,0,0,0,0,0,0,0,0,0,0,0,0,0,0,0],"id":3,"left_children":[1,3,5,7,9,11,13,15,17,19,21,23,25,27,29,-1,-1,-1,-1,-1,-1,-1,-1,-1,-1,-1,-1,-1,-1,-1,-1],"loss_changes":[4.3083875E4,8.148981E3,1.5310992E5,1.174919E3,6.1554086E4,3.8723047E4,2.7584996E4,1.2710576E3,6.627379E3,1.084343E4,7.669161E3,7.9161406E3,3.0547617E3,2.0156469E4,2.4432776E3,0E0,0E0,0E0,0E0,0E0,0E0,0E0,0E0,0E0,0E0,0E0,0E0,0E0,0E0,0E0,0E0],"parents":[2147483647,0,0,1,1,2,2,3,3,4,4,5,5,6,6,7,7,8,8,9,9,10,10,11,11,12,12,13,13,14,14],"right_children":[2,4,6,8,10,12,14,16,18,20,22,24,26,28,30,-1,-1,-1,-1,-1,-1,-1,-1,-1,-1,-1,-1,-1,-1,-1,-1],"split_conditions":[7.3791987E-1,1.6166875E-1,2.5974748E-1,5.0521486E-2,2.1017735E-1,5.750135E-2,1.5822785E0,1.678091E0,1.7052124E-1,8.724342E-2,5.2147776E-1,1.2768157E0,6.929101E-2,3.3221703E0,2.9822986E0,-1.1057842E0,-4.5413023E-1,5.694789E-1,-4.379771E-1,5.2058277E0,2.24313E0,5.8651346E-1,-3.8473138E-1,1.4186719E1,2.5456217E1,4.7868443E0,9.189074E0,1.1490462E0,4.779433E0,-5.9293664E-1,7.6716405E-1],"split_indices":[1,1,0,1,0,0,0,6,0,0,0,1,33,1,1,0,0,0,0,0,0,0,0,0,0,0,0,0,0,0,0],"split_type":[0,0,0,0,0,0,0,0,0,0,0,0,0,0,0,0,0,0,0,0,0,0,0,0,0,0,0,0,0,0,0],"sum_hessian":[1.6925E4,1.4477E4,2.448E3,8.389E3,6.088E3,1.2E2,2.328E3,4.026E3,4.363E3,5.6E2,5.528E3,3.3E1,8.7E1,1.193E3,1.135E3,2.9E2,3.736E3,6.99E2,3.664E3,1.54E2,4.06E2,8.67E2,4.661E3,1.7E1,1.6E1,2.3E1,6.4E1,1.035E3,1.58E2,1.001E3,1.34E2],"tree_param":{"num_deleted":"0","num_feature":"78","num_nodes":"31","size_leaf_vector":"1"}},{"base_weights":[1.3544634E-2,-2.8513676E-1,4.484454E0,-4.236666E-1,4.090659E0,6.3060436E1,3.7535646E0,-4.5168966E-2,-1.1675185E0,1.7597332E1,3.320256E-1,1.2310812E1,2.7027681E1,1.8182108E1,2.3128252E0,-1.8630895E-1,3.2337183E-1,-3.1731263E-1,-6.068841E-1,6.578382E-1,9.092433E0,1.7578406E0,-1.906343E-1,4.582367E0,7.107621E0,4.428031E-1,3.9582977E0],"categories":[],"categories_nodes":[],"categories_segments":[],"categories_sizes":[],"default_left":[0,0,0,0,0,0,0,0,0,0,0,0,0,0,0,0,0,0,0,0,0,0,0,0,0,0,0],"id":4,"left_children":[1,3,5,7,9,11,13,15,17,19,21,-1,-1,23,25,-1,-1,-1,-1,-1,-1,-1,-1,-1,-1,-1,-1],"loss_changes":[2.2603875E4,9.619964E3,4.5144625E4,4.330408E3,2.4717508E4,4.0426445E3,2.1743531E4,6.5941313E3,4.8509814E2,2.0688723E4,2.0465269E3,0E0,0E0,1.1600605E3,8.667459E3,0E0,0E0,0E0,0E0,0E0,0E0,0E0,0E0,0E0,0E0,0E0,0E0],"parents":[2147483647,0,0,1,1,2,2,3,3,4,4,5,5,6,6,7,7,8,8,9,9,10,10,13,13,14,14],"right_children":[2,4,6,8,10,12,14,16,18,20,22,-1,-1,24,26,-1,-1,-1,-1,-1,-1,-1,-1,-1,-1,-1,-1],"split_conditions":[1.5141135E0,2.1659682E0,8.526062E-2,1E0,7.138099E-2,1.670577E0,7.871736E-1,2.437279E-1,2.3833318E0,3.937614E-1,9.319184E-2,1.2310812E1,2.7027681E1,2.9822986E0,7.789494E0,-1.8630895E-1,3.2337183E-1,-3.1731263E-1,-6.068841E-1,6.578382E-1,9.092433E0,1.7578406E0,-1.906343E-1,4.582367E0,7.107621E0,4.428031E-1,3.9582977E0],"split_indices":[1,51,0,64,0,1,0,1,0,1,0,0,0,1,1,0,0,0,0,0,0,0,0,0,0,0,0],"split_type":[0,0,0,0,0,0,0,0,0,0,0,0,0,0,0,0,0,0,0,0,0,0,0,0,0,0,0],"sum_hessian":[1.6925E4,1.5866E4,1.059E3,1.538E4,4.86E2,1.2E1,1.047E3,1.0194E4,5.186E3,1.05E2,3.81E2,8E0,4E0,9.4E1,9.53E2,6.739E3,3.455E3,4.598E3,5.88E2,4.8E1,5.7E1,5.6E1,3.25E2,6.4E1,3E1,8.86E2,6.7E1],"tree_param":{"num_deleted":"0","num_feature":"78","num_nodes":"27","size_leaf_vector":"1"}},{"base_weights":[1.337816E-2,-1.6288596E-1,4.3305016E0,6.2876236E-1,-7.426911E-1,2.47113E1,3.9703023E0,-2.7117293E-2,1.1872237E1,-3.5401386E-1,-1.29074E0,1.0949223E1,2.0434642E0,-2.0815928E-1,8.452967E-1,9.058822E0,2.868056E0,-2.4355577E-1,4.2445594E-1,-3.458166E-1,-7.461355E-1,2.680808E0,5.7802644E0,1.1629848E0,-5.461502E-1],"categories":[],"categories_nodes":[],"categories_segments":[],"categories_sizes":[],"default_left":[0,0,0,0,0,0,0,0,0,0,0,0,0,0,0,0,0,0,0,0,0,0,0,0,0],"id":5,"left_children":[1,3,5,7,9,-1,11,13,15,17,19,21,23,-1,-1,-1,-1,-1,-1,-1,-1,-1,-1,-1,-1],"loss_changes":[1.2880613E4,7.465213E3,1.833809E4,5.0706465E4,1.9993193E3,0E0,8.879707E3,1.2326994E4,1.5767902E4,4.450495E3,6.402822E2,2.2225625E3,3.6903394E3,0E0,0E0,0E0,0E0,0E0,0E0,0E0,0E0,0E0,0E0,0E0,0E0],"parents":[2147483647,0,0,1,1,2,2,3,3,4,4,6,6,7,7,8,8,9,9,10,10,11,11,12,12],"right_children":[2,4,6,8,10,-1,12,14,16,18,20,22,24,-1,-1,-1,-1,-1,-1,-1,-1,-1,-1,-1,-1],"split_conditions":[2.0606642E0,3.529393E-1,5.5518545E-2,4.0784615E-1,1.2015799E0,2.47113E1,1.0925256E0,1.0900393E-1,5.750135E-2,3.8763756E-1,3.440167E0,3.9069948E0,2.0323753E0,-2.0815928E-1,8.452967E-1,9.058822E0,2.868056E0,-2.4355577E-1,4.2445594E-1,-3.458166E-1,-7.461355E-1,2.680808E0,5.7802644E0,1.1629848E0,-5.461502E-1],"split_indices":[1,0,0,1,0,0,0,1,0,1,0,1,0,0,0,0,0,0,0,0,0,0,0,0,0],"split_type":[0,0,0,0,0,0,0,0,0,0,0,0,0,0,0,0,0,0,0,0,0,0,0,0,0],"sum_hessian":[1.6925E4,1.6262E4,6.63E2,6.875E3,9.387E3,2E0,6.61E2,6.497E3,3.78E2,5.493E3,3.894E3,1.42E2,5.19E2,5.264E3,1.233E3,4.1E1,3.37E2,4.364E3,1.129E3,3.493E3,4.01E2,1.16E2,2.6E1,3.52E2,1.67E2],"tree_param":{"num_deleted":"0","num_feature":"78","num_nodes":"25","size_leaf_vector":"1"}},{"base_weights":[1.2049464E-2,-9.891247E-2,3.9403145E0,6.2370557E-1,-4.6840513E-1,1.864243E1,3.6809556E0,-1.9409433E-1,7.998962E0,-2.9974306E-1,-1.2589786E0,1.4892157E0,7.5337286E0,-2.4528934E-1,2.9214275E-1,7.5502477E0,1.9965514E0,-1.677985E-1,2.9386002E-1,-3.0451027E-1,-7.017874E-1,7.027743E-1,-1.215666E0,3.4817753E0,1.5127178E0],"categories":[],"categories_nodes":[],"categories_segments":[],"categories_sizes":[],"default_left":[0,0,0,0,0,0,0,0,0,0,0,0,0,0,0,0,0,0,0,0,0,0,0,0,0],"id":6,"left_children":[1,3,5,7,9,-1,11,13,15,17,19,21,23,-1,-1,-1,-1,-1,-1,-1,-1,-1,-1,-1,-1],"loss_changes":[7.3782285E3,4.395679E3,6.790425E3,3.3596918E4,1.4520925E3,0E0,3.9069243E3,3.6528735E3,1.2659941E4,2.982306E3,5.0229736E2,1.4139663E3,1.6458711E3,0E0,0E0,0E0,0E0,0E0,0E0,0E0,0E0,0E0,0E0,0E0,0E0],"parents":[2147483647,0,0,1,1,2,2,3,3,4,4,6,6,7,7,8,8,9,9,10,10,11,11,12,12],"right_children":[2,4,6,8,10,-1,12,14,16,18,20,22,24,-1,-1,-1,-1,-1,-1,-1,-1,-1,-1,-1,-1],"split_conditions":[2.5334227E0,2.5578186E-1,5.5518545E-2,2.3423597E-1,1.8737508E0,1.864243E1,1.225406E0,3.9804805E-2,5.3535737E-2,5.8421206E-1,1.1852646E0,3.5987914E0,1.1262333E0,-2.4528934E-1,2.9214275E-1,7.5502477E0,1.9965514E0,-1.677985E-1,2.9386002E-1,-3.0451027E-1,-7.017874E-1,7.027743E-1,-1.215666E0,3.4817753E0,1.5127178E0],"split_indices":[1,0,0,1,0,0,39,1,0,1,1,0,0,0,0,0,0,0,0,0,0,0,0,0,0],"split_type":[0,0,0,0,0,0,0,0,0,0,0,0,0,0,0,0,0,0,0,0,0,0,0,0,0],"sum_hessian":[1.6925E4,1.6461E4,4.64E2,5.569E3,1.0892E4,1E0,4.63E2,5.014E3,5.55E2,8.978E3,1.914E3,2.96E2,1.67E2,3.269E3,1.745E3,3.9E1,5.16E2,7.464E3,1.514E3,1.563E3,3.51E2,2.57E2,3.9E1,6.2E1,1.05E2],"tree_param":{"num_deleted":"0","num_feature":"78","num_nodes":"25","size_leaf_vector":"1"}},{"base_weights":[1.0315592E-2,-2.1355127E-1,1.0877482E0,3.7296268E-1,-4.0203175E-1,8.953202E0,4.7972765E-2,-1.9899404E-1,4.762837E0,-1.2744017E0,-3.199357E-1,1.6772314E1,6.5222363E0,-2.838432E-1,4.029522E0,-2.1539064E-1,2.11827E-1,3.3815324E0,1.2285008E0,-3.125581E-1,-1.7849011E0,-1.4465067E-1,-3.3081662E-2,3.7031183E0,1.0114554E1,1.5213715E0,2.9225192E0,4.8070744E-1,-1.8710043E-1,1.9447235E0,-1.3480276E-1],"categories":[],"categories_nodes":[],"categories_segments":[],"categories_sizes":[],"default_left":[0,0,0,0,0,0,0,0,0,0,0,0,0,0,0,0,0,0,0,0,0,0,0,0,0,0,0,0,0,0,0],"id":7,"left_children":[1,3,5,7,9,11,13,15,17,19,21,23,25,27,29,-1,-1,-1,-1,-1,-1,-1,-1,-1,-1,-1,-1,-1,-1,-1,-1],"loss_changes":[4.0828083E3,1.5494583E3,2.3814799E4,8.560326E3,7.592457E2,6.353324E3,3.4004412E3,1.4176392E3,1.6621699E3,9.853213E2,3.2975012E2,5.5864688E3,1.1698545E3,1.5239633E3,2.1781724E3,0E0,0E0,0E0,0E0,0E0,0E0,0E0,0E0,0E0,0E0,0E0,0E0,0E0,0E0,0E0,0E0],"parents":[2147483647,0,0,1,1,2,2,3,3,4,4,5,5,6,6,7,7,8,8,9,9,10,10,11,11,12,12,13,13,14,14],"right_children":[2,4,6,8,10,12,14,16,18,20,22,24,26,28,30,-1,-1,-1,-1,-1,-1,-1,-1,-1,-1,-1,-1,-1,-1,-1,-1],"split_conditions":[6.227921E-1,1.506932E-1,5.789791E-1,1.3441777E-1,2.0055234E0,1.566416E-1,3.9069948E0,2.3882883E-2,5.5518545E-2,1E0,1.831021E-1,1.3864319E0,1.3864319E0,1.0151962E0,-6.7466784E-1,-2.1539064E-1,2.11827E-1,3.3815324E0,1.2285008E0,-3.125581E-1,-1.7849011E0,-1.4465067E-1,-3.3081662E-2,3.7031183E0,1.0114554E1,1.5213715E0,2.9225192E0,4.8070744E-1,-1.8710043E-1,1.9447235E0,-1.3480276E-1],"split_indices":[1,0,0,1,6,0,1,1,0,67,1,1,1,0,54,0,0,0,0,0,0,0,0,0,0,0,0,0,0,0,0],"split_type":[0,0,0,0,0,0,0,0,0,0,0,0,0,0,0,0,0,0,0,0,0,0,0,0,0,0,0,0,0,0,0],"sum_hessian":[1.6925E4,1.4014E4,2.911E3,3.408E3,1.0606E4,3.39E2,2.572E3,3.016E3,3.92E2,9.11E2,9.695E3,7.9E1,2.6E2,2.375E3,1.97E2,1.917E3,1.099E3,3.5E1,3.57E2,8.69E2,4.2E1,5.465E3,4.23E3,6.4E1,1.5E1,1.81E2,7.9E1,3.62E2,2.013E3,1.27E2,7E1],"tree_param":{"num_deleted":"0","num_feature":"78","num_nodes":"31","size_leaf_vector":"1"}},{"base_weights":[8.561864E-3,-8.1573434E-2,1.4533478E0,1.6138375E-1,-5.2854645E-1,4.1155174E1,1.2513654E0,-1.6375792E-1,2.2791834E0,-1.3670505E0,-4.6582237E-1,3.0168116E0,1.3924786E1,3.8277097E0,-1.4493181E-1,-9.402997E-2,1.6430694E-1,5.7271056E0,6.1258435E-1,-5.675825E-1,-3.038385E-1,-1.9534095E-1,-7.93232E-2,2.2415323E0,8.346136E-1,-1.6584367E-1,1.1267134E0],"categories":[],"categories_nodes":[],"categories_segments":[],"categories_sizes":[],"default_left":[0,0,0,0,0,0,0,0,0,0,0,0,0,0,0,0,0,0,0,0,0,0,0,0,0,0,0],"id":8,"left_children":[1,3,5,7,9,11,13,15,17,19,21,-1,-1,23,25,-1,-1,-1,-1,-1,-1,-1,-1,-1,-1,-1,-1],"loss_changes":[2.2043274E3,1.7303345E3,7.9194517E3,7.108635E3,2.944702E2,3.5126758E2,3.5619233E3,9.532226E2,5.4408145E3,7.06026E1,1.9473584E2,0E0,0E0,1.3052563E3,1.0250864E3,0E0,0E0,0E0,0E0,0E0,0E0,0E0,0E0,0E0,0E0,0E0,0E0],"parents":[2147483647,0,0,1,1,2,2,3,3,4,4,5,5,6,6,7,7,8,8,9,9,10,10,13,13,14,14],"right_children":[2,4,6,8,10,12,14,16,18,20,22,-1,-1,24,26,-1,-1,-1,-1,-1,-1,-1,-1,-1,-1,-1,-1],"split_conditions":[1.5983161E0,8.367438E-1,5.5518545E-2,2.6761076E-1,1.678091E0,1.670577E0,1.2590812E0,1.2798776E-1,4.7587324E-2,2.880843E-1,1E0,3.0168116E0,1.3924786E1,6.10704E-1,7.789494E0,-9.402997E-2,1.6430694E-1,5.7271056E0,6.1258435E-1,-5.675825E-1,-3.038385E-1,-1.9534095E-1,-7.93232E-2,2.2415323E0,8.346136E-1,-1.6584367E-1,1.1267134E0],"split_indices":[1,0,0,1,6,1,0,1,0,47,64,0,0,0,1,0,0,0,0,0,0,0,0,0,0,0,0],"split_type":[0,0,0,0,0,0,0,0,0,0,0,0,0,0,0,0,0,0,0,0,0,0,0,0,0,0,0],"sum_hessian":[1.6925E4,1.5932E4,9.93E2,1.0322E4,5.61E3,4E0,9.89E2,8.949E3,1.373E3,3.89E2,5.221E3,1E0,3E0,3.47E2,6.42E2,7.394E3,1.555E3,1.8E1,1.355E3,1.55E2,2.34E2,2.718E3,2.503E3,7.6E1,2.71E2,5.82E2,6E1],"tree_param":{"num_deleted":"0","num_feature":"78","num_nodes":"27","size_leaf_vector":"1"}},{"base_weights":[7.54375E-3,-2.4639329E-2,2.6855867E0,6.620051E-1,-1.4774369E-1,3.7128794E0,-3.535352E0,1.1810799E-1,6.157463E0,-2.2619808E-2,-5.0318694E-1,5.416347E0,3.3535893E0,6.853688E-1,-7.0075235E0,-5.5231124E-2,7.252198E-1,1.7004055E0,1.2341903E1,-5.927487E-2,3.3897036E-1,-1.2857632E-1,-3.8889155E-1,-3.248094E-1,1.2821088E0,3.7379378E-1,-3.0829558E-1,-1.4262724E0,-3.304169E0],"categories":[],"categories_nodes":[],"categories_segments":[],"categories_sizes":[],"default_left":[0,0,0,0,0,0,0,0,0,0,0,0,0,0,0,0,0,0,0,0,0,0,0,0,0,0,0,0,0],"id":9,"left_children":[1,3,5,7,9,11,13,15,17,19,21,-1,23,25,27,-1,-1,-1,-1,-1,-1,-1,-1,-1,-1,-1,-1,-1,-1],"loss_changes":[1.4588785E3,1.4139287E3,1.2976621E3,7.600208E3,6.3081415E2,8.308867E2,4.2979962E2,1.6090753E3,3.6877305E3,2.1159207E3,2.1794446E2,0E0,6.9854285E2,1.4725153E1,9.207709E1,0E0,0E0,0E0,0E0,0E0,0E0,0E0,0E0,0E0,0E0,0E0,0E0,0E0,0E0],"parents":[2147483647,0,0,1,1,2,2,3,3,4,4,5,5,6,6,7,7,8,8,9,9,10,10,12,12,13,13,14,14],"right_children":[2,4,6,8,10,12,14,16,18,20,22,-1,24,26,28,-1,-1,-1,-1,-1,-1,-1,-1,-1,-1,-1,-1,-1,-1],"split_conditions":[3.9069948E0,1.169855E-1,3.031709E0,1.968807E-1,1.322531E0,2.8354114E-1,5.002239E0,7.287341E-2,1.8423501E0,5.07052E-1,3.8069859E0,5.416347E0,-3.1763485E-1,5.8611717E0,7.789494E0,-5.5231124E-2,7.252198E-1,1.7004055E0,1.2341903E1,-5.927487E-2,3.3897036E-1,-1.2857632E-1,-3.8889155E-1,-3.248094E-1,1.2821088E0,3.7379378E-1,-3.0829558E-1,-1.4262724E0,-3.304169E0],"split_indices":[1,0,0,1,0,0,1,1,1,1,0,0,12,0,1,0,0,0,0,0,0,0,0,0,0,0,0,0,0],"split_type":[0,0,0,0,0,0,0,0,0,0,0,0,0,0,0,0,0,0,0,0,0,0,0,0,0,0,0,0,0],"sum_hessian":[1.6925E4,1.6725E4,2E2,2.542E3,1.4183E4,1.72E2,2.8E1,2.314E3,2.28E2,1.0491E4,3.692E3,3E0,1.69E2,1.3E1,1.5E1,2.046E3,2.68E2,2.26E2,2E0,9.109E3,1.382E3,3.376E3,3.16E2,2.9E1,1.4E2,1E1,3E0,1.1E1,4E0],"tree_param":{"num_deleted":"0","num_feature":"78","num_nodes":"29","size_leaf_vector":"1"}},{"base_weights":[6.2367334E-3,-9.2921846E-2,4.9621505E-1,-8.167945E-1,-6.2730988E-3,8.051229E0,1.8986139E-1,-1.7925482E0,-4.5469397E-1,5.5915576E-1,-9.0005346E-2,9.610566E-1,1.031877E1,2.4601755E0,-6.247273E-2,-3.14062E-1,-1.109964E0,1.254205E0,-1.9972858E-1,4.7866132E-2,1.286073E0,7.525272E-3,-7.443841E-2,3.3160532E0,-7.212629E-2,2.2101424E0,5.217264E0,6.764272E-1,3.3779206E0,-4.896008E-2,1.0317237E0],"categories":[],"categories_nodes":[],"categories_segments":[],"categories_sizes":[],"default_left":[0,0,0,0,0,0,0,0,0,0,0,0,0,0,0,0,0,0,0,0,0,0,0,0,0,0,0,0,0,0,0],"id":10,"left_children":[1,3,5,7,9,11,13,15,17,19,21,23,25,27,29,-1,-1,-1,-1,-1,-1,-1,-1,-1,-1,-1,-1,-1,-1,-1,-1],"loss_changes":[8.224051E2,8.8300446E2,6.592499E3,5.3093286E2,5.9536163E2,1.7746592E3,1.5692657E3,5.749822E2,1.0780222E3,2.4154758E3,1.9933192E2,3.421815E2,1.6253164E3,4.6989185E2,8.703259E2,0E0,0E0,0E0,0E0,0E0,0E0,0E0,0E0,0E0,0E0,0E0,0E0,0E0,0E0,0E0,0E0],"parents":[2147483647,0,0,1,1,2,2,3,3,4,4,5,5,6,6,7,7,8,8,9,9,10,10,11,11,12,12,13,13,14,14],"right_children":[2,4,6,8,10,12,14,16,18,20,22,24,26,28,30,-1,-1,-1,-1,-1,-1,-1,-1,-1,-1,-1,-1,-1,-1,-1,-1],"split_conditions":[6.368769E-1,2.0055234E0,2.1810856E-1,7.99158E-2,1.01123065E-1,0E0,6.701881E-1,1E0,5.5518545E-2,6.736198E-2,7.1579266E-1,4.7587324E-2,1.2768157E0,3.9069948E0,7.789494E0,-3.14062E-1,-1.109964E0,1.254205E0,-1.9972858E-1,4.7866132E-2,1.286073E0,7.525272E-3,-7.443841E-2,3.3160532E0,-7.212629E-2,2.2101424E0,5.217264E0,6.764272E-1,3.3779206E0,-4.896008E-2,1.0317237E0],"split_indices":[1,6,0,1,0,13,0,67,0,1,0,0,1,1,1,0,0,0,0,0,0,0,0,0,0,0,0,0,0,0,0],"split_type":[0,0,0,0,0,0,0,0,0,0,0,0,0,0,0,0,0,0,0,0,0,0,0,0,0,0,0,0,0,0,0],"sum_hessian":[1.6925E4,1.4077E4,2.848E3,1.504E3,1.2573E4,1.1E2,2.738E3,4.06E2,1.098E3,1.621E3,1.0952E4,2.7E1,8.3E1,2.73E2,2.465E3,2.93E2,1.13E2,4.7E1,1.051E3,1.465E3,1.56E2,6.339E3,4.613E3,2E0,2.5E1,6E1,2.3E1,2.68E2,5E0,2.397E3,6.8E1],"tree_param":{"num_deleted":"0","num_feature":"78","num_nodes":"31","size_leaf_vector":"1"}},{"base_weights":[5.3467895E-3,-2.7360097E-2,1.0152465E0,2.5520912E-1,-1.493011E-1,9.60629E0,8.963283E-1,6.109945E-2,4.344238E0,-1.14301085E-1,-1.5611454E0,2.308274E0,5.6987205E-3,-5.3479217E-2,2.8050324E-1,2.0644054E0,8.2297784E-1,-2.1120068E-2,-1.8340898E-1,-5.502941E-1,7.809996E-2,5.402364E-1,2.5849135E0,1.09649904E-1,-6.413753E-1],"categories":[],"categories_nodes":[],"categories_segments":[],"categories_sizes":[],"default_left":[0,0,0,0,0,0,0,0,0,0,0,0,0,0,0,0,0,0,0,0,0,0,0,0,0],"id":11,"left_children":[1,3,5,7,9,-1,11,13,15,17,19,21,23,-1,-1,-1,-1,-1,-1,-1,-1,-1,-1,-1,-1],"loss_changes":[5.59105E2,5.649914E2,1.9291736E3,3.923093E3,5.658161E2,0E0,6.664728E2,9.8750806E2,8.9098E2,2.4387723E2,1.383045E2,6.40745E2,2.5221713E2,0E0,0E0,0E0,0E0,0E0,0E0,0E0,0E0,0E0,0E0,0E0,0E0],"parents":[2147483647,0,0,1,1,2,2,3,3,4,4,6,6,7,7,8,8,9,9,10,10,11,11,12,12],"right_children":[2,4,6,8,10,-1,12,14,16,18,20,22,24,-1,-1,-1,-1,-1,-1,-1,-1,-1,-1,-1,-1],"split_conditions":[2.333174E0,2.1810856E-1,5.5518545E-2,3.8212612E-1,1.6298608E0,9.60629E0,1.3582215E0,7.716008E-2,-1.2997483E0,2.595492E0,1.4482825E0,7.789494E0,3.5987914E0,-5.3479217E-2,2.8050324E-1,2.0644054E0,8.2297784E-1,-2.1120068E-2,-1.8340898E-1,-5.502941E-1,7.809996E-2,5.402364E-1,2.5849135E0,1.09649904E-1,-6.413753E-1],"split_indices":[1,0,0,1,18,0,0,1,21,0,1,1,0,0,0,0,0,0,0,0,0,0,0,0,0],"split_type":[0,0,0,0,0,0,0,0,0,0,0,0,0,0,0,0,0,0,0,0,0,0,0,0,0],"sum_hessian":[1.6925E4,1.6395E4,5.3E2,4.942E3,1.1453E4,1E0,5.29E2,4.719E3,2.23E2,1.1177E4,2.76E2,2.04E2,3.25E2,3.705E3,1.014E3,8.5E1,1.38E2,1.0271E4,9.06E2,2.4E2,3.6E1,1.9E2,1.4E1,2.79E2,4.6E1],"tree_param":{"num_deleted":"0","num_feature":"78","num_nodes":"25","size_leaf_vector":"1"}},{"base_weights":[4.607536E-3,-1.3185257E-1,1.717562E-1,-9.718337E-1,-4.9718734E-2,2.432194E0,4.8623744E-2,-6.259481E-1,-2.0800552E0,2.5074703E-1,-1.5928271E-1,2.2454753E0,7.787142E0,4.280781E-1,-1.720908E-1,8.950396E-2,-3.1954333E-1,-2.9608804E-1,-8.4571064E-1,-6.347751E-2,3.285243E-1,-3.8757645E-2,-2.505625E-1,2.7511451E0,5.5423236E-1,1.1967201E-1,4.740993E0,-6.622117E-2,1.3951434E-1],"categories":[],"categories_nodes":[],"categories_segments":[],"categories_sizes":[],"default_left":[0,0,0,0,0,0,0,0,0,0,0,0,0,0,0,0,0,0,0,0,0,0,0,0,0,0,0,0,0],"id":12,"left_children":[1,3,5,7,9,11,13,15,17,19,21,23,-1,25,27,-1,-1,-1,-1,-1,-1,-1,-1,-1,-1,-1,-1,-1,-1],"loss_changes":[3.8608987E2,6.4287756E2,2.1174412E3,3.1685187E2,2.7953265E2,1.6679851E3,6.044216E2,2.5768808E2,1.5634961E2,8.859772E2,1.2644124E2,1.0608064E3,0E0,1.1840604E3,1.415306E2,0E0,0E0,0E0,0E0,0E0,0E0,0E0,0E0,0E0,0E0,0E0,0E0,0E0,0E0],"parents":[2147483647,0,0,1,1,2,2,3,3,4,4,5,5,6,6,7,7,8,8,9,9,10,10,11,11,13,13,14,14],"right_children":[2,4,6,8,10,12,14,16,18,20,22,24,-1,26,28,-1,-1,-1,-1,-1,-1,-1,-1,-1,-1,-1,-1,-1,-1],"split_conditions":[1.968807E-1,1.678091E0,1.7250405E-1,1E0,1.2888233E-1,1.8423501E0,1.0925256E0,1.1583856E0,-8.351454E0,1.9902403E-2,1.7624449E0,4.7587324E-2,7.787142E0,7.789494E0,2.7544925E0,8.950396E-2,-3.1954333E-1,-2.9608804E-1,-8.4571064E-1,-6.347751E-2,3.285243E-1,-3.8757645E-2,-2.505625E-1,2.7511451E0,5.5423236E-1,1.1967201E-1,4.740993E0,-6.622117E-2,1.3951434E-1],"split_indices":[1,6,0,67,0,1,0,15,14,1,51,0,0,1,1,0,0,0,0,0,0,0,0,0,0,0,0,0,0],"split_type":[0,0,0,0,0,0,0,0,0,0,0,0,0,0,0,0,0,0,0,0,0,0,0,0,0,0,0,0,0],"sum_hessian":[1.6925E4,9.318E3,7.607E3,8.29E2,8.489E3,3.92E2,7.215E3,6.33E2,1.96E2,2.268E3,6.221E3,3.9E2,2E0,2.653E3,4.562E3,2.04E2,4.29E2,8E1,1.16E2,1.466E3,8.02E2,5.957E3,2.64E2,2E1,3.7E2,2.649E3,4E0,4.239E3,3.23E2],"tree_param":{"num_deleted":"0","num_feature":"78","num_nodes":"29","size_leaf_vector":"1"}},{"base_weights":[4.0896637E-3,5.405917E-1,-3.0025585E-2,3.64954E-1,9.233975E0,-6.6059506E-3,-1.0869447E0,-2.0192109E-1,1.7878629E0,1.29529505E1,-1.6024576E0,-3.6280608E-1,4.2184792E-2,-6.3959473E-1,-4.0550647E0,-5.318702E-1,1.7097848E-3,1.0605376E0,9.4111223E-4,5.0512905E0,1.2958946E0,-1.0389973E0,1.1552811E0,-1.733835E-1,1.1191901E-1,-4.2057525E-2,3.956657E-2,-1.3985503E0,-1.4989693E-1,-5.638751E-1,-1.7640884E0],"categories":[],"categories_nodes":[],"categories_segments":[],"categories_sizes":[],"default_left":[0,0,0,0,0,0,0,0,0,0,0,0,0,0,0,0,0,0,0,0,0,0,0,0,0,0,0,0,0,0,0],"id":13,"left_children":[1,3,5,7,9,11,13,15,17,19,21,23,25,27,29,-1,-1,-1,-1,-1,-1,-1,-1,-1,-1,-1,-1,-1,-1,-1,-1],"loss_changes":[3.0981116E2,1.5418386E3,3.939314E2,8.013263E2,8.267649E2,2.706279E2,4.5549332E2,2.3191507E2,8.824916E2,4.3033252E2,7.4225266E1,2.9721292E2,2.2408315E2,1.670932E2,1.6763135E2,0E0,0E0,0E0,0E0,0E0,0E0,0E0,0E0,0E0,0E0,0E0,0E0,0E0,0E0,0E0,0E0],"parents":[2147483647,0,0,1,1,2,2,3,3,4,4,5,5,6,6,7,7,8,8,9,9,10,10,11,11,12,12,13,13,14,14],"right_children":[2,4,6,8,10,12,14,16,18,20,22,24,26,28,30,-1,-1,-1,-1,-1,-1,-1,-1,-1,-1,-1,-1,-1,-1,-1,-1],"split_conditions":[6.741537E-2,1.2768157E0,2.1674442E0,2.7863365E-2,7.4392545E-1,5.984488E-4,1E0,1.678091E0,-1.2775752E-1,5.5518545E-2,5.5518545E-2,1E0,8.8795334E-2,8.526062E-2,2.902689E-1,-5.318702E-1,1.7097848E-3,1.0605376E0,9.4111223E-4,5.0512905E0,1.2958946E0,-1.0389973E0,1.1552811E0,-1.733835E-1,1.1191901E-1,-4.2057525E-2,3.956657E-2,-1.3985503E0,-1.4989693E-1,-5.638751E-1,-1.7640884E0],"split_indices":[0,1,51,1,5,11,67,6,26,0,0,66,1,0,1,0,0,0,0,0,0,0,0,0,0,0,0,0,0,0,0],"split_type":[0,0,0,0,0,0,0,0,0,0,0,0,0,0,0,0,0,0,0,0,0,0,0,0,0,0,0,0,0,0,0],"sum_hessian":[1.6925E4,1.011E3,1.5914E4,9.92E2,1.9E1,1.557E4,3.44E2,7.1E2,2.82E2,1.4E1,5E0,1.875E3,1.3695E4,3E2,4.4E1,8.2E1,6.28E2,1.42E2,1.4E2,9E0,5E0,4E0,1E0,1.451E3,4.24E2,4.515E3,9.18E3,9E0,2.91E2,2.1E1,2.3E1],"tree_param":{"num_deleted":"0","num_feature":"78","num_nodes":"31","size_leaf_vector":"1"}},{"base_weights":[3.043241E-3,-6.1997604E-2,2.1993412E-1,-5.511949E-1,-6.3028038E-3,1.828595E0,-4.9363576E-2,-4.3761605E-1,-1.9602004E0,1.3764113E-1,-1.2278438E-1,1.3562182E0,3.5677712E0,7.134501E-2,-5.02465E-1,-4.668008E-2,-2.296116E-1,-2.1502843E-1,-1.0891978E0,-1.36245815E-2,2.5966668E-1,-8.364445E-2,-2.223798E-2,1.190443E0,2.3041068E-1,2.333899E0,8.069145E-1,5.4654046E-3,6.5344894E-1,-1.326878E-1,-2.6478317E0],"categories":[],"categories_nodes":[],"categories_segments":[],"categories_sizes":[],"default_left":[0,0,0,0,0,0,0,0,0,0,0,0,0,0,0,0,0,0,0,0,0,0,0,0,0,0,0,0,0,0,0],"id":14,"left_children":[1,3,5,7,9,11,13,15,17,19,21,23,25,27,29,-1,-1,-1,-1,-1,-1,-1,-1,-1,-1,-1,-1,-1,-1,-1,-1],"loss_changes":[2.3878476E2,3.5479068E2,1.6917703E3,2.1214642E2,1.9605452E2,4.552273E2,1.830394E2,1.1384999E2,2.0303186E2,6.9693365E2,4.904705E1,6.75992E2,4.1917004E2,2.9578842E2,3.4869693E2,0E0,0E0,0E0,0E0,0E0,0E0,0E0,0E0,0E0,0E0,0E0,0E0,0E0,0E0,0E0,0E0],"parents":[2147483647,0,0,1,1,2,2,3,3,4,4,5,5,6,6,7,7,8,8,9,9,10,10,11,11,12,12,13,13,14,14],"right_children":[2,4,6,8,10,12,14,16,18,20,22,24,26,28,30,-1,-1,-1,-1,-1,-1,-1,-1,-1,-1,-1,-1,-1,-1,-1,-1],"split_conditions":[4.629605E-1,1.678091E0,6.424289E-1,3.663833E0,3.1923163E-1,1.2768157E0,2.9365344E0,1.2460093E0,1E0,7.838485E-2,1.0349249E-1,-1.2997483E0,6.900594E-1,7.789494E0,7.789494E0,-4.668008E-2,-2.296116E-1,-2.1502843E-1,-1.0891978E0,-1.36245815E-2,2.5966668E-1,-8.364445E-2,-2.223798E-2,1.190443E0,2.3041068E-1,2.333899E0,8.069145E-1,5.4654046E-3,6.5344894E-1,-1.326878E-1,-2.6478317E0],"split_indices":[1,6,0,5,0,1,0,15,67,1,1,21,3,1,1,0,0,0,0,0,0,0,0,0,0,0,0,0,0,0,0],"split_type":[0,0,0,0,0,0,0,0,0,0,0,0,0,0,0,0,0,0,0,0,0,0,0,0,0,0,0,0,0,0,0],"sum_hessian":[1.6925E4,1.3021E4,3.904E3,1.33E3,1.1691E4,5.59E2,3.345E3,1.232E3,9.8E1,5.229E3,6.462E3,4.41E2,1.18E2,2.642E3,7.03E2,6.63E2,5.69E2,5.7E1,4.1E1,4.179E3,1.05E3,1.535E3,4.927E3,8E1,3.61E2,1.9E1,9.9E1,2.578E3,6.4E1,6.99E2,4E0],"tree_param":{"num_deleted":"0","num_feature":"78","num_nodes":"31","size_leaf_vector":"1"}},{"base_weights":[2.1893298E-3,9.170539E-2,-1.0569437E-1,3.284401E-2,2.064537E0,-1.3263243E-1,4.3115306E-1,-9.2763714E-2,3.458498E-1,3.525142E0,1.9105437E0,-2.5813708E-1,3.7227288E-2,1.5706123E0,-1.21936746E-1,-1.8874263E-2,-3.798783E-1,5.598604E-1,8.08236E-2,1.6195136E0,4.811365E-1,-6.1319552E-2,-2.1212979E-1,2.7867477E-2,-2.0183413E-1,2.0122026E-1,1.5426534E0,6.3888484E-1,-1.7739876E-1],"categories":[],"categories_nodes":[],"categories_segments":[],"categories_sizes":[],"default_left":[0,0,0,0,0,0,0,0,0,0,0,0,0,0,0,0,0,0,0,0,0,0,0,0,0,0,0,0,0],"id":15,"left_children":[1,3,5,7,9,11,13,15,17,-1,19,21,23,25,27,-1,-1,-1,-1,-1,-1,-1,-1,-1,-1,-1,-1,-1,-1],"loss_changes":[1.6346954E2,1.0741915E3,1.1106469E2,3.532465E2,3.7729138E2,1.5584558E2,2.3148346E2,2.2452193E2,2.9851157E2,0E0,2.7486884E2,1.0128366E2,1.2285761E2,3.8222787E2,2.6336102E2,0E0,0E0,0E0,0E0,0E0,0E0,0E0,0E0,0E0,0E0,0E0,0E0,0E0,0E0],"parents":[2147483647,0,0,1,1,2,2,3,3,4,4,5,5,6,6,7,7,8,8,10,10,11,11,12,12,13,13,14,14],"right_children":[2,4,6,8,10,12,14,16,18,-1,20,22,24,26,28,-1,-1,-1,-1,-1,-1,-1,-1,-1,-1,-1,-1,-1,-1],"split_conditions":[6.503601E-1,7.7833706E-1,2.7544925E0,1.00430585E-1,4.1638907E-2,1E0,8.555142E-1,2.1659682E0,6.741537E-2,3.525142E0,1.637162E-1,2.3833318E0,1.1852646E0,7.789494E0,-9.362562E-1,-1.8874263E-2,-3.798783E-1,5.598604E-1,8.08236E-2,1.6195136E0,4.811365E-1,-6.1319552E-2,-2.1212979E-1,2.7867477E-2,-2.0183413E-1,2.0122026E-1,1.5426534E0,6.3888484E-1,-1.7739876E-1],"split_indices":[0,1,1,1,0,64,5,51,0,0,6,0,1,1,55,0,0,0,0,0,0,0,0,0,0,0,0,0,0],"split_type":[0,0,0,0,0,0,0,0,0,0,0,0,0,0,0,0,0,0,0,0,0,0,0,0,0,0,0,0,0],"sum_hessian":[1.6925E4,9.25E3,7.675E3,8.983E3,2.67E2,7.309E3,3.66E2,6.411E3,2.572E3,3E0,2.64E2,4.203E3,3.106E3,1.19E2,2.47E2,6.253E3,1.58E2,1.22E2,2.45E3,2E1,2.44E2,3.755E3,4.48E2,2.881E3,2.25E2,9.6E1,2.3E1,4.2E1,2.05E2],"tree_param":{"num_deleted":"0","num_feature":"78","num_nodes":"29","size_leaf_vector":"1"}},{"base_weights":[1.9830414E-3,-2.736026E-1,4.161033E-2,-4.352995E-1,4.98376E-1,3.8167268E-1,1.0291012E-2,-6.2178737E-1,1.3765942E-1,7.6934795E0,3.3799148E-1,1.5756555E-2,1.9184548E0,-5.835313E-2,1.2921214E-1,-1.349906E-1,-4.8533717E-1,-4.9832374E-2,5.398573E-1,9.7567165E-1,5.817325E0,4.1889766E-1,-9.927517E-3,-4.5596942E-2,1.8028048E-1,4.9011776E-1,2.7134922E0,1.0655208E-3,-5.332631E-2,1.7016536E-1,-5.6024133E-3],"categories":[],"categories_nodes":[],"categories_segments":[],"categories_sizes":[],"default_left":[0,0,0,0,0,0,0,0,0,0,0,0,0,0,0,0,0,0,0,0,0,0,0,0,0,0,0,0,0,0,0],"id":16,"left_children":[1,3,5,7,9,11,13,15,17,19,21,23,25,27,29,-1,-1,-1,-1,-1,-1,-1,-1,-1,-1,-1,-1,-1,-1,-1,-1],"loss_changes":[1.8485535E2,2.6584784E2,1.5761314E2,1.8814136E2,4.2321954E2,7.017618E2,1.1063576E2,2.2653528E2,2.1888608E2,3.5255054E2,1.4221445E2,9.913632E1,4.7221338E2,6.3515945E1,3.21296E2,0E0,0E0,0E0,0E0,0E0,0E0,0E0,0E0,0E0,0E0,0E0,0E0,0E0,0E0,0E0,0E0],"parents":[2147483647,0,0,1,1,2,2,3,3,4,4,5,5,6,6,7,7,8,8,9,9,10,10,11,11,12,12,13,13,14,14],"right_children":[2,4,6,8,10,12,14,16,18,20,22,24,26,28,30,-1,-1,-1,-1,-1,-1,-1,-1,-1,-1,-1,-1,-1,-1,-1,-1],"split_conditions":[1.678091E0,1.3864319E0,8.724342E-2,1E0,5.5518545E-2,3.0619081E-2,2.72816E-1,1.4325167E0,3.3803466E-1,2.1800785E0,1.1262333E0,1.3472396E-2,4.8684338E-1,5.908759E-1,9.596777E-1,-1.349906E-1,-4.8533717E-1,-4.9832374E-2,5.398573E-1,9.7567165E-1,5.817325E0,4.1889766E-1,-9.927517E-3,-4.5596942E-2,1.8028048E-1,4.9011776E-1,2.7134922E0,1.0655208E-3,-5.332631E-2,1.7016536E-1,-5.6024133E-3],"split_indices":[6,1,0,66,0,1,1,6,1,1,0,1,1,0,0,0,0,0,0,0,0,0,0,0,0,0,0,0,0,0,0],"split_type":[0,0,0,0,0,0,0,0,0,0,0,0,0,0,0,0,0,0,0,0,0,0,0,0,0,0,0,0,0,0,0],"sum_hessian":[1.6925E4,2.127E3,1.4798E4,1.759E3,3.68E2,1.247E3,1.3551E4,1.327E3,4.32E2,7E0,3.61E2,1.008E3,2.39E2,8.592E3,4.959E3,1.133E3,1.94E2,3.66E2,6.6E1,6E0,1E0,9.3E1,2.68E2,7.84E2,2.24E2,2.31E2,8E0,5.659E3,2.933E3,1.251E3,3.708E3],"tree_param":{"num_deleted":"0","num_feature":"78","num_nodes":"31","size_leaf_vector":"1"}},{"base_weights":[2.0097762E-3,-1.943579E-1,3.412118E-2,-2.4892074E-1,6.2982184E-1,3.703443E-1,1.249907E-2,-9.904005E-1,-1.5320474E-1,1.0776245E1,3.4557694E-1,2.0780167E-1,3.7744808E0,1.769189E-2,-1.2732812E0,-6.571809E-1,-7.922671E-2,1.14902996E-1,-7.490304E-2,1.0140138E0,4.944727E0,2.7252284E-1,-5.631517E-3,-3.1216562E-2,2.5782445E-1,8.5300153E-1,2.327389E0,6.414649E-3,-5.1360065E-1,-2.25278E-2,-6.595466E-1],"categories":[],"categories_nodes":[],"categories_segments":[],"categories_sizes":[],"default_left":[0,0,0,0,0,0,0,0,0,0,0,0,0,0,0,0,0,0,0,0,0,0,0,0,0,0,0,0,0,0,0],"id":17,"left_children":[1,3,5,7,9,11,13,15,17,19,21,23,25,27,29,-1,-1,-1,-1,-1,-1,-1,-1,-1,-1,-1,-1,-1,-1,-1,-1],"loss_changes":[1.0673592E2,1.0713942E2,1.057572E2,1.582566E2,4.2311826E2,4.855816E2,9.129471E1,2.217103E2,1.0241705E2,1.1310474E2,2.9751804E1,1.7078584E2,1.2630908E2,8.694813E1,6.0806435E1,0E0,0E0,0E0,0E0,0E0,0E0,0E0,0E0,0E0,0E0,0E0,0E0,0E0,0E0,0E0,0E0],"parents":[2147483647,0,0,1,1,2,2,3,3,4,4,5,5,6,6,7,7,8,8,9,9,10,10,11,11,12,12,13,13,14,14],"right_children":[2,4,6,8,10,12,14,16,18,20,22,24,26,28,30,-1,-1,-1,-1,-1,-1,-1,-1,-1,-1,-1,-1,-1,-1,-1,-1],"split_conditions":[5.984488E-4,1.7532486E0,7.53466E-2,-1.5958588E0,5.5518545E-2,7.716008E-2,5.8611717E0,8.724342E-2,7.53466E-2,5.3535737E-2,1.3582215E0,1.163525E-2,7.7833706E-1,1.1858734E1,1.1852646E0,-6.571809E-1,-7.922671E-2,1.14902996E-1,-7.490304E-2,1.0140138E0,4.944727E0,2.7252284E-1,-5.631517E-3,-3.1216562E-2,2.5782445E-1,8.5300153E-1,2.327389E0,6.414649E-3,-5.1360065E-1,-2.25278E-2,-6.595466E-1],"split_indices":[11,1,0,56,0,1,0,0,0,0,0,1,1,10,1,0,0,0,0,0,0,0,0,0,0,0,0,0,0,0,0],"split_type":[0,0,0,0,0,0,0,0,0,0,0,0,0,0,0,0,0,0,0,0,0,0,0,0,0,0,0,0,0,0,0],"sum_hessian":[1.6925E4,2.378E3,1.4547E4,2.231E3,1.47E2,8.78E2,1.3669E4,2.54E2,1.977E3,3E0,1.44E2,8.39E2,3.9E1,1.3615E4,5.4E1,9.5E1,1.59E2,3.01E2,1.676E3,2E0,1E0,5.6E1,8.8E1,5.68E2,2.71E2,3.3E1,6E0,1.3587E4,2.8E1,2.4E1,3E1],"tree_param":{"num_deleted":"0","num_feature":"78","num_nodes":"31","size_leaf_vector":"1"}},{"base_weights":[1.8645627E-3,-2.5986817E-2,1.7713186E-1,-1.1530295E-2,-6.8610036E-1,1.4641595E0,3.4180876E-2,6.9751893E-3,-4.893182E-1,-1.8157085E0,-3.0344012E-1,1.311538E0,2.950711E0,1.3945383E-1,-6.3303715E-1,8.510275E-2,-4.9265157E-3,-2.2609995E-1,8.868074E-2,-1.9981442E-1,-8.437939E-1,-5.1551964E-2,-8.204075E-1,2.9806715E-1,1.3241253E0,4.836449E-2,-3.7444067E-1,-1.343097E-1,-1.2566028E0],"categories":[],"categories_nodes":[],"categories_segments":[],"categories_sizes":[],"default_left":[0,0,0,0,0,0,0,0,0,0,0,0,0,0,0,0,0,0,0,0,0,0,0,0,0,0,0,0,0],"id":18,"left_children":[1,3,5,7,9,11,13,15,17,19,21,23,-1,25,27,-1,-1,-1,-1,-1,-1,-1,-1,-1,-1,-1,-1,-1,-1],"loss_changes":[8.262779E1,1.3937636E2,4.2697186E2,1.2638662E2,1.347452E2,2.8352133E2,1.468899E2,8.9099014E1,1.1081623E2,8.867172E1,7.471911E1,2.2151047E2,0E0,5.473431E1,1.8593849E2,0E0,0E0,0E0,0E0,0E0,0E0,0E0,0E0,0E0,0E0,0E0,0E0,0E0,0E0],"parents":[2147483647,0,0,1,1,2,2,3,3,4,4,5,5,6,6,7,7,8,8,9,9,10,10,11,11,13,13,14,14],"right_children":[2,4,6,8,10,12,14,16,18,20,22,24,-1,26,28,-1,-1,-1,-1,-1,-1,-1,-1,-1,-1,-1,-1,-1,-1],"split_conditions":[7.7833706E-1,2.1674442E0,5.5915105E-1,1.663463E0,8.526062E-2,3.9069948E0,3.3211985E0,7.73294E-2,3.2609323E-1,6.146696E-2,3.9428048E0,1.4127283E0,2.950711E0,1.1858734E1,5.002239E0,8.510275E-2,-4.9265157E-3,-2.2609995E-1,8.868074E-2,-1.9981442E-1,-8.437939E-1,-5.1551964E-2,-8.204075E-1,2.9806715E-1,1.3241253E0,4.836449E-2,-3.7444067E-1,-1.343097E-1,-1.2566028E0],"split_indices":[1,51,0,18,0,1,0,0,1,0,5,15,0,10,1,0,0,0,0,0,0,0,0,0,0,0,0,0,0],"split_type":[0,0,0,0,0,0,0,0,0,0,0,0,0,0,0,0,0,0,0,0,0,0,0,0,0,0,0,0,0],"sum_hessian":[1.6925E4,1.4605E4,2.32E3,1.4293E4,3.12E2,2.31E2,2.089E3,1.3761E4,5.32E2,7.8E1,2.34E2,2.28E2,3E0,1.805E3,2.84E2,1.072E3,1.2689E4,3.98E2,1.34E2,3.7E1,4.1E1,2.23E2,1.1E1,2.08E2,2E1,1.778E3,2.7E1,2.71E2,1.3E1],"tree_param":{"num_deleted":"0","num_feature":"78","num_nodes":"29","size_leaf_vector":"1"}},{"base_weights":[1.3574008E-3,-1.0080481E-1,4.936004E-2,-6.995654E-2,-6.261233E-1,7.124843E-1,-1.115143E-2,-4.9201623E-2,-9.256475E-1,-1.3118821E0,-4.9676585E-1,6.8440783E-1,4.158307E0,1.082348E-2,-7.397721E-1,-1.6777484E-1,-1.131049E-2,-1.4778262E-1,-9.263589E-1,-1.0724748E0,-2.479435E-1,-4.018214E-2,-1.722736E-1,1.0450047E0,1.7437023E-1,7.3673E-2,-1.0583628E-2,-2.735885E-1,8.720187E-2],"categories":[],"categories_nodes":[],"categories_segments":[],"categories_sizes":[],"default_left":[0,0,0,0,0,0,0,0,0,0,0,0,0,0,0,0,0,0,0,0,0,0,0,0,0,0,0,0,0],"id":19,"left_children":[1,3,5,7,9,11,13,15,17,19,21,23,-1,25,27,-1,-1,-1,-1,-1,-1,-1,-1,-1,-1,-1,-1,-1,-1],"loss_changes":[8.301102E1,8.7642365E1,4.6210614E2,9.074254E1,2.5960709E1,3.4601886E2,1.6899203E2,2.9259727E1,1.1177397E2,4.8674217E1,7.063404E0,2.7577905E2,0E0,1.10897514E2,5.5091553E1,0E0,0E0,0E0,0E0,0E0,0E0,0E0,0E0,0E0,0E0,0E0,0E0,0E0,0E0],"parents":[2147483647,0,0,1,1,2,2,3,3,4,4,5,5,6,6,7,7,8,8,9,9,10,10,11,11,13,13,14,14],"right_children":[2,4,6,8,10,12,14,16,18,20,22,24,-1,26,28,-1,-1,-1,-1,-1,-1,-1,-1,-1,-1,-1,-1,-1,-1],"split_conditions":[7.716008E-2,1.6821365E0,1.8043527E-1,1.663463E0,1.4697159E-2,2.1800785E0,1.663463E0,-2.0696049E0,1E0,9.024912E-4,-1.6650265E0,4.7587324E-2,4.158307E0,4.996669E-1,1.7532486E0,-1.6777484E-1,-1.131049E-2,-1.4778262E-1,-9.263589E-1,-1.0724748E0,-2.479435E-1,-4.018214E-2,-1.722736E-1,1.0450047E0,1.7437023E-1,7.3673E-2,-1.0583628E-2,-2.735885E-1,8.720187E-2],"split_indices":[1,51,0,18,1,1,18,52,67,10,30,0,0,0,1,0,0,0,0,0,0,0,0,0,0,0,0,0,0],"split_type":[0,0,0,0,0,0,0,0,0,0,0,0,0,0,0,0,0,0,0,0,0,0,0,0,0,0,0,0,0],"sum_hessian":[1.6925E4,5.41E3,1.1515E4,5.111E3,2.99E2,9.62E2,1.0553E4,4.991E3,1.2E2,4.6E1,2.53E2,9.61E2,1E0,1.0245E4,3.08E2,1.09E2,4.882E3,1.01E2,1.9E1,7E0,3.9E1,4.5E1,2.08E2,3.3E1,9.28E2,1.681E3,8.564E3,2.64E2,4.4E1],"tree_param":{"num_deleted":"0","num_feature":"78","num_nodes":"29","size_leaf_vector":"1"}}]},"name":"gbtree"},"learner_model_param":{"base_score":"4.343102E0","boost_from_average":"1","num_class":"0","num_feature":"78","num_target":"1"},"objective":{"name":"reg:squarederror","reg_loss_param":{"scale_pos_weight":"1"}}},"version":[2,1,4]}