{"learner":{"attributes":{"scikit_learn":"{\"_estimator_type\": \"regressor\"}"},"feature_names":[],"feature_types":[],"gradient_booster":{"model":{"gbtree_model_param":{"num_parallel_tree":"1","num_trees":"600"},"iteration_indptr":[0,1,2,3,4,5,6,7,8,9,10,11,12,13,14,15,16,17,18,19,20,21,22,23,24,25,26,27,28,29,30,31,32,33,34,35,36,37,38,39,40,41,42,43,44,45,46,47,48,49,50,51,52,53,54,55,56,57,58,59,60,61,62,63,64,65,66,67,68,69,70,71,72,73,74,75,76,77,78,79,80,81,82,83,84,85,86,87,88,89,90,91,92,93,94,95,96,97,98,99,100,101,102,103,104,105,106,107,108,109,110,111,112,113,114,115,116,117,118,119,120,121,122,123,124,125,126,127,128,129,130,131,132,133,134,135,136,137,138,139,140,141,142,143,144,145,146,147,148,149,150,151,152,153,154,155,156,157,158,159,160,161,162,163,164,165,166,167,168,169,170,171,172,173,174,175,176,177,178,179,180,181,182,183,184,185,186,187,188,189,190,191,192,193,194,195,196,197,198,199,200,201,202,203,204,205,206,207,208,209,210,211,212,213,214,215,216,217,218,219,220,221,222,223,224,225,226,227,228,229,230,231,232,233,234,235,236,237,238,239,240,241,242,243,244,245,246,247,248,249,250,251,252,253,254,255,256,257,258,259,260,261,262,263,264,265,266,267,268,269,270,271,272,273,274,275,276,277,278,279,280,281,282,283,284,285,286,287,288,289,290,291,292,293,294,295,296,297,298,299,300,301,302,303,304,305,306,307,308,309,310,311,312,313,314,315,316,317,318,319,320,321,322,323,324,325,326,327,328,329,330,331,332,333,334,335,336,337,338,339,340,341,342,343,344,345,346,347,348,349,350,351,352,353,354,355,356,357,358,359,360,361,362,363,364,365,366,367,368,369,370,371,372,373,374,375,376,377,378,379,380,381,382,383,384,385,386,387,388,389,390,391,392,393,394,395,396,397,398,399,400,401,402,403,404,405,406,407,408,409,410,411,412,413,414,415,416,417,418,419,420,421,422,423,424,425,426,427,428,429,430,431,432,433,434,435,436,437,438,439,440,441,442,443,444,445,446,447,448,449,450,451,452,453,454,455,456,457,458,459,460,461,462,463,464,465,466,467,468,469,470,471,472,473,474,475,476,477,478,479,480,481,482,483,484,485,486,487,488,489,490,491,492,493,494,495,496,497,498,499,500,501,502,503,504,505,506,507,508,509,510,511,512,513,514,515,516,517,518,519,520,521,522,523,524,525,526,527,528,529,530,531,532,533,534,535,536,537,538,539,540,541,542,543,544,545,546,547,548,549,550,551,552,553,554,555,556,557,558,559,560,561,562,563,564,565,566,567,568,569,570,571,572,573,574,575,576,577,578,579,580,581,582,583,584,585,586,587,588,589,590,591,592,593,594,595,596,597,598,599,600],"tree_info":[0,0,0,0,0,0,0,0,0,0,0,0,0,0,0,0,0,0,0,0,0,0,0,0,0,0,0,0,0,0,0,0,0,0,0,0,0,0,0,0,0,0,0,0,0,0,0,0,0,0,0,0,0,0,0,0,0,0,0,0,0,0,0,0,0,0,0,0,0,0,0,0,0,0,0,0,0,0,0,0,0,0,0,0,0,0,0,0,0,0,0,0,0,0,0,0,0,0,0,0,0,0,0,0,0,0,0,0,0,0,0,0,0,0,0,0,0,0,0,0,0,0,0,0,0,0,0,0,0,0,0,0,0,0,0,0,0,0,0,0,0,0,0,0,0,0,0,0,0,0,0,0,0,0,0,0,0,0,0,0,0,0,0,0,0,0,0,0,0,0,0,0,0,0,0,0,0,0,0,0,0,0,0,0,0,0,0,0,0,0,0,0,0,0,0,0,0,0,0,0,0,0,0,0,0,0,0,0,0,0,0,0,0,0,0,0,0,0,0,0,0,0,0,0,0,0,0,0,0,0,0,0,0,0,0,0,0,0,0,0,0,0,0,0,0,0,0,0,0,0,0,0,0,0,0,0,0,0,0,0,0,0,0,0,0,0,0,0,0,0,0,0,0,0,0,0,0,0,0,0,0,0,0,0,0,0,0,0,0,0,0,0,0,0,0,0,0,0,0,0,0,0,0,0,0,0,0,0,0,0,0,0,0,0,0,0,0,0,0,0,0,0,0,0,0,0,0,0,0,0,0,0,0,0,0,0,0,0,0,0,0,0,0,0,0,0,0,0,0,0,0,0,0,0,0,0,0,0,0,0,0,0,0,0,0,0,0,0,0,0,0,0,0,0,0,0,0,0,0,0,0,0,0,0,0,0,0,0,0,0,0,0,0,0,0,0,0,0,0,0,0,0,0,0,0,0,0,0,0,0,0,0,0,0,0,0,0,0,0,0,0,0,0,0,0,0,0,0,0,0,0,0,0,0,0,0,0,0,0,0,0,0,0,0,0,0,0,0,0,0,0,0,0,0,0,0,0,0,0,0,0,0,0,0,0,0,0,0,0,0,0,0,0,0,0,0,0,0,0,0,0,0,0,0,0,0,0,0,0,0,0,0,0,0,0,0,0,0,0,0,0,0,0,0,0,0,0,0,0,0,0,0,0,0,0,0,0,0,0,0,0,0,0,0,0,0,0,0,0,0,0,0,0,0,0,0,0,0,0,0,0,0,0,0,0,0,0,0,0,0,0,0,0,0,0,0,0,0,0,0,0,0,0,0,0,0,0,0,0,0,0,0,0,0,0,0,0,0,0,0,0,0,0,0,0,0,0,0,0,0,0,0,0,0,0,0,0,0,0,0],"trees":[{"base_weights":[-8.190497E-1,-8.550145E-1,-9.454415E-2,-8.9990157E-1,-7.081045E-1,-5.2783465E-1,2.5098825E0,-6.699848E-1,-9.0513664E-1,-7.727154E-1,-4.5757654E-1,-7.804976E-1,2.3711455E-1,4.9974256E0,3.3806598E-1,-9.0232843E-1,-5.233864E-1,-7.648636E-1,-9.130763E-1,-8.1857073E-1,-6.521679E-1,-5.3966385E-1,1.858479E-1,-2.8430969E-2,-7.1763486E-1,3.470576E-1,-2.7549243E-2,3.040834E0,6.724959E0,2.1178963E0,-5.3646084E-2,-2.5387092E-2,-2.7961435E-2,-2.552362E-2,-5.111384E-3,-2.8278409E-2,-2.0891085E-2,-2.7842974E-2,-2.6170885E-2,-2.5146889E-2,-1.5927734E-2,-7.853868E-3,-2.0368671E-2,-1.4086388E-2,-2.8060718E-2,8.465259E-3,-2.3717426E-2,-1.9742513E-2,-2.4896136E-2,9.53499E-4,1.3294428E-2,2.0633922E-3,-2.0857856E-2,2.1894696E-1,3.2528397E-2,2.337431E-1,1.5032561E-1,1.0010162E-1,-2.806206E-2,6.5565393E-3,-2.2408202E-2],"categories":[],"categories_nodes":[],"categories_segments":[],"categories_sizes":[],"default_left":[0,0,0,0,0,0,0,0,0,0,0,0,0,0,0,0,0,0,0,0,0,0,0,0,0,0,0,0,0,0,0,0,0,0,0,0,0,0,0,0,0,0,0,0,0,0,0,0,0,0,0,0,0,0,0,0,0,0,0,0,0],"id":0,"left_children":[1,3,5,7,9,11,13,15,17,19,21,23,25,27,29,31,33,35,37,39,41,43,45,-1,47,49,51,53,55,57,59,-1,-1,-1,-1,-1,-1,-1,-1,-1,-1,-1,-1,-1,-1,-1,-1,-1,-1,-1,-1,-1,-1,-1,-1,-1,-1,-1,-1,-1,-1],"loss_changes":[6.4091875E3,1.5446875E3,1.3129891E4,2.1542188E2,8.874668E2,1.9281582E3,8.964275E3,1.3576624E2,1.9475E2,2.4048633E2,5.9416846E2,7.8137695E1,7.2100876E1,2.5940352E3,6.185838E2,1.7884521E0,2.835703E2,1.1387598E2,1.0078125E2,1.7815039E2,1.2551904E2,2.7632642E2,1.19990486E2,0E0,3.590674E1,5.3016266E1,4.6876534E1,3.0285488E3,7.1040625E2,5.987138E2,1.37557E2,0E0,0E0,0E0,0E0,0E0,0E0,0E0,0E0,0E0,0E0,0E0,0E0,0E0,0E0,0E0,0E0,0E0,0E0,0E0,0E0,0E0,0E0,0E0,0E0,0E0,0E0,0E0,0E0,0E0,0E0],"parents":[2147483647,0,0,1,1,2,2,3,3,4,4,5,5,6,6,7,7,8,8,9,9,10,10,11,11,12,12,13,13,14,14,15,15,16,16,17,17,18,18,19,19,20,20,21,21,22,22,24,24,25,25,26,26,27,27,28,28,29,29,30,30],"right_children":[2,4,6,8,10,12,14,16,18,20,22,24,26,28,30,32,34,36,38,40,42,44,46,-1,48,50,52,54,56,58,60,-1,-1,-1,-1,-1,-1,-1,-1,-1,-1,-1,-1,-1,-1,-1,-1,-1,-1,-1,-1,-1,-1,-1,-1,-1,-1,-1,-1,-1,-1],"split_conditions":[2.4870098E0,1E0,1E0,-2.267535E0,6.0029775E-1,1.09457625E-2,1.0335047E0,1E0,-1.9663781E0,9.6615267E-1,1E0,1E0,1.0516365E0,4.351599E-1,1.1785581E0,-1.2316405E-3,1.4867964E0,1E0,8.355191E0,3.673501E0,4.361661E0,3.549675E0,1.7043763E0,-2.8430969E-2,1E0,3.2636994E-1,1E0,1.2692164E-1,8.5218817E-1,6.94969E-4,6.94969E-4,-2.5387092E-2,-2.7961435E-2,-2.552362E-2,-5.111384E-3,-2.8278409E-2,-2.0891085E-2,-2.7842974E-2,-2.6170885E-2,-2.5146889E-2,-1.5927734E-2,-7.853868E-3,-2.0368671E-2,-1.4086388E-2,-2.8060718E-2,8.465259E-3,-2.3717426E-2,-1.9742513E-2,-2.4896136E-2,9.53499E-4,1.3294428E-2,2.0633922E-3,-2.0857856E-2,2.1894696E-1,3.2528397E-2,2.337431E-1,1.5032561E-1,1.0010162E-1,-2.806206E-2,6.5565393E-3,-2.2408202E-2],"split_indices":[52,63,68,19,48,5,3,69,41,47,68,63,3,3,3,8,3,65,13,9,13,9,3,0,66,3,70,3,3,5,5,0,0,0,0,0,0,0,0,0,0,0,0,0,0,0,0,0,0,0,0,0,0,0,0,0,0,0,0,0,0],"split_type":[0,0,0,0,0,0,0,0,0,0,0,0,0,0,0,0,0,0,0,0,0,0,0,0,0,0,0,0,0,0,0,0,0,0,0,0,0,0,0,0,0,0,0,0,0,0,0,0,0,0,0,0,0,0,0,0,0,0,0,0,0],"sum_hessian":[2.4597262E5,2.343397E5,1.1632919E4,1.794923E5,5.4847395E4,9.974319E3,1.6585997E3,3.998816E3,1.7549348E5,4.3600727E4,1.124667E4,7.49778E3,2.4765393E3,7.7249854E2,8.8610126E2,1.5449971E3,2.4538188E3,9.406306E3,1.6608719E5,3.1581557E4,1.2019168E4,9.974319E3,1.2723505E3,2.044849E3,5.4529307E3,1.7494819E3,7.2705743E2,3.6352872E2,4.0896982E2,1.5904381E2,7.2705743E2,5.452931E2,9.99704E2,1.2723505E3,1.1814684E3,2.6128625E3,6.793443E3,1.2130499E5,4.4782195E4,2.955943E4,2.0221285E3,7.7249854E2,1.124667E4,8.474764E3,1.4995559E3,1.1587478E3,1.1360272E2,3.5671255E3,1.8858052E3,4.0896982E2,1.3405121E3,6.3617523E2,9.088218E1,1.1360272E2,2.49926E2,2.49926E2,1.5904381E2,1.1360272E2,4.544109E1,5.225725E2,2.0448491E2],"tree_param":{"num_deleted":"0","num_feature":"77","num_nodes":"61","size_leaf_vector":"1"}},{"base_weights":[-8.128294E-1,-8.500464E-1,-7.710203E-2,-8.968143E-1,-6.9811475E-1,3.1469813E-1,-5.888654E-1,-9.1652375E-1,-7.8047526E-1,-7.6740646E-1,-4.399697E-1,-2.8334556E-2,5.326745E-1,-2.846141E-2,-4.8243627E-1,-9.2023206E-1,-8.0762E-1,-7.269276E-1,-2.8345788E-2,-7.7971774E-1,-1.8197536E-1,-3.705841E-1,-2.796449E-2,9.984529E-1,4.6059012E-2,-5.477182E-1,4.2829517E-2,-2.7858995E-2,-2.6985401E-2,-2.2339763E-2,-2.8041355E-2,-2.3925576E-2,-1.8536199E-2,-2.1424865E-2,-2.546671E-2,-2.5196834E-2,3.3967327E-2,-1.2873418E-2,-2.3769576E-3,5.038707E-2,-1.7100168E-2,-1.920573E-2,1.2017807E-2,-1.2846677E-2,-2.280246E-2,-2.1653129E-3,1.934893E-2],"categories":[],"categories_nodes":[],"categories_segments":[],"categories_sizes":[],"default_left":[0,0,0,0,0,0,0,0,0,0,0,0,0,0,0,0,0,0,0,0,0,0,0,0,0,0,0,0,0,0,0,0,0,0,0,0,0,0,0,0,0,0,0,0,0,0,0],"id":1,"left_children":[1,3,5,7,9,11,13,15,17,19,21,-1,23,-1,25,27,29,31,-1,33,35,37,-1,39,41,43,45,-1,-1,-1,-1,-1,-1,-1,-1,-1,-1,-1,-1,-1,-1,-1,-1,-1,-1,-1,-1],"loss_changes":[6.614672E3,1.6332656E3,2.3326904E3,4.0242188E2,9.678418E2,1.8090952E3,1.9274133E2,5.9976562E1,2.2357812E2,3.074043E2,3.9089697E2,0E0,1.2732183E3,0E0,1.3359027E2,2.446875E1,3.8984863E1,1.4748438E2,0E0,1.8890625E2,7.6198926E2,1.7122119E2,0E0,3.0672202E3,6.6894305E2,8.759558E1,2.992897E1,0E0,0E0,0E0,0E0,0E0,0E0,0E0,0E0,0E0,0E0,0E0,0E0,0E0,0E0,0E0,0E0,0E0,0E0,0E0,0E0],"parents":[2147483647,0,0,1,1,2,2,3,3,4,4,5,5,6,6,7,7,8,8,9,9,10,10,12,12,14,14,15,15,16,16,17,17,19,19,20,20,21,21,23,23,24,24,25,25,26,26],"right_children":[2,4,6,8,10,12,14,16,18,20,22,-1,24,-1,26,28,30,32,-1,34,36,38,-1,40,42,44,46,-1,-1,-1,-1,-1,-1,-1,-1,-1,-1,-1,-1,-1,-1,-1,-1,-1,-1,-1,-1],"split_conditions":[2.4870098E0,1E0,1.1422948E0,1.1372019E0,6.0029775E-1,1E0,1E0,1.1710228E0,1E0,3.1944122E0,-6.693797E-2,-2.8334556E-2,1E0,-2.846141E-2,9.851186E0,5.3633934E-1,1E0,1E0,-2.8345788E-2,4.449138E-2,1E0,1.7895453E-2,-2.796449E-2,1E0,1.5183587E-3,1.7769029E0,1E0,-2.7858995E-2,-2.6985401E-2,-2.2339763E-2,-2.8041355E-2,-2.3925576E-2,-1.8536199E-2,-2.1424865E-2,-2.546671E-2,-2.5196834E-2,3.3967327E-2,-1.2873418E-2,-2.3769576E-3,5.038707E-2,-1.7100168E-2,-1.920573E-2,1.2017807E-2,-1.2846677E-2,-2.280246E-2,-2.1653129E-3,1.934893E-2],"split_indices":[52,63,3,42,48,63,63,5,64,22,28,0,69,0,5,17,64,69,0,56,69,5,0,67,4,3,74,0,0,0,0,0,0,0,0,0,0,0,0,0,0,0,0,0,0,0,0],"split_type":[0,0,0,0,0,0,0,0,0,0,0,0,0,0,0,0,0,0,0,0,0,0,0,0,0,0,0,0,0,0,0,0,0,0,0,0,0,0,0,0,0,0,0,0,0,0,0],"sum_hessian":[2.4157539E5,2.2994347E5,1.1631922E4,1.7581794E5,5.4125527E4,6.588345E3,5.0435767E3,1.5034117E5,2.5476766E4,4.2670004E4,1.1455522E4,9.7171423E2,5.6166313E3,1.1494042E3,3.8941724E3,1.4538323E5,4.957935E3,1.9221008E4,6.2557593E3,4.1790836E4,8.7916907E2,1.0041645E4,1.4138785E3,2.8692202E3,2.747411E3,3.463654E3,4.3051828E2,1.0340848E5,4.197476E4,3.3200457E3,1.6378893E3,1.1664304E4,7.5567036E3,2.146222E4,2.0328613E4,5.8611273E2,2.9305637E2,8.361439E3,1.6802051E3,2.0004413E3,8.6877893E2,9.3560803E2,1.8118029E3,2.218395E3,1.245259E3,3.6221588E2,6.8302414E1],"tree_param":{"num_deleted":"0","num_feature":"77","num_nodes":"47","size_leaf_vector":"1"}},{"base_weights":[-8.089597E-1,-8.362675E-1,3.573671E-2,-8.476948E-1,2.8855127E-1,2.965551E0,-6.441889E-1,-8.9604086E-1,-6.9021755E-1,-5.4331053E-2,5.612641E-1,4.1232305E0,6.032453E-1,4.3914437E-1,-7.123246E-1,-9.14964E-1,-7.843481E-1,-7.6067024E-1,-4.1981018E-1,2.4782915E-1,-4.9714437E-1,6.864614E-1,1.5591873E-1,4.6393805E0,1.4502008E0,-4.6501103E-1,1.159293E0,8.4063745E-1,-7.739353E-1,-7.4802434E-1,-6.169898E-1,-2.7586931E-2,-2.4604386E-2,-2.829388E-2,-2.2022547E-2,-2.3499187E-2,-9.801664E-3,-7.0211743E-3,-1.9397927E-2,3.4277633E-2,5.1266598E-3,-1.7609764E-2,-5.4950523E-3,2.3615848E-2,5.5235177E-3,1.8712119E-3,3.665846E-2,1.5468644E-1,9.034504E-2,6.378486E-2,-2.2592503E-3,-8.235579E-3,-2.7999291E-2,4.5053855E-2,1.0739308E-2,3.1884782E-2,-7.251136E-3,-1.995477E-2,-2.5970709E-2,-2.3910841E-2,-1.9743426E-2,-2.6729597E-2,-1.7567586E-2],"categories":[],"categories_nodes":[],"categories_segments":[],"categories_sizes":[],"default_left":[0,0,0,0,0,0,0,0,0,0,0,0,0,0,0,0,0,0,0,0,0,0,0,0,0,0,0,0,0,0,0,0,0,0,0,0,0,0,0,0,0,0,0,0,0,0,0,0,0,0,0,0,0,0,0,0,0,0,0,0,0,0,0],"id":2,"left_children":[1,3,5,7,9,11,13,15,17,19,21,23,25,27,29,31,33,35,37,39,41,43,45,47,49,51,53,55,57,59,61,-1,-1,-1,-1,-1,-1,-1,-1,-1,-1,-1,-1,-1,-1,-1,-1,-1,-1,-1,-1,-1,-1,-1,-1,-1,-1,-1,-1,-1,-1,-1,-1],"loss_changes":[5.413422E3,2.9223281E3,1.4644164E4,1.71275E3,2.1389029E2,3.7843125E3,4.407329E2,3.6320312E2,1.00683203E3,1.3580995E2,6.45444E1,1.2751377E3,2.717447E2,1.7290915E2,1.8645264E1,6.3484375E1,1.9844824E2,4.1169336E2,4.603009E2,4.134802E1,1.1505112E1,4.9093903E1,3.0032215E1,6.392715E2,1.5671912E2,1.3750408E1,8.195218E1,6.427664E1,3.071785E-1,1.745044E1,1.2687927E1,0E0,0E0,0E0,0E0,0E0,0E0,0E0,0E0,0E0,0E0,0E0,0E0,0E0,0E0,0E0,0E0,0E0,0E0,0E0,0E0,0E0,0E0,0E0,0E0,0E0,0E0,0E0,0E0,0E0,0E0,0E0,0E0],"parents":[2147483647,0,0,1,1,2,2,3,3,4,4,5,5,6,6,7,7,8,8,9,9,10,10,11,11,12,12,13,13,14,14,15,15,16,16,17,17,18,18,19,19,20,20,21,21,22,22,23,23,24,24,25,25,26,26,27,27,28,28,29,29,30,30],"right_children":[2,4,6,8,10,12,14,16,18,20,22,24,26,28,30,32,34,36,38,40,42,44,46,48,50,52,54,56,58,60,62,-1,-1,-1,-1,-1,-1,-1,-1,-1,-1,-1,-1,-1,-1,-1,-1,-1,-1,-1,-1,-1,-1,-1,-1,-1,-1,-1,-1,-1,-1,-1,-1],"split_conditions":[3.7554975E0,1.0173004E1,6.967415E-2,1E0,1.2425224E0,1.124163E0,8.32219E-2,1.1372019E0,6.0029775E-1,7.9779315E-1,1.585087E0,6.193258E-2,5.032022E-2,1E0,9.135055E-1,1.1942434E0,1E0,1.4165808E0,2.9998592E-1,8.0705893E-1,1.1805898E0,1E0,1E0,9.247148E-1,1E0,1E0,1E0,1.5411913E0,7.548033E-2,1E0,1E0,-2.7586931E-2,-2.4604386E-2,-2.829388E-2,-2.2022547E-2,-2.3499187E-2,-9.801664E-3,-7.0211743E-3,-1.9397927E-2,3.4277633E-2,5.1266598E-3,-1.7609764E-2,-5.4950523E-3,2.3615848E-2,5.5235177E-3,1.8712119E-3,3.665846E-2,1.5468644E-1,9.034504E-2,6.378486E-2,-2.2592503E-3,-8.235579E-3,-2.7999291E-2,4.5053855E-2,1.0739308E-2,3.1884782E-2,-7.251136E-3,-1.995477E-2,-2.5970709E-2,-2.3910841E-2,-1.9743426E-2,-2.6729597E-2,-1.7567586E-2],"split_indices":[55,4,12,63,12,3,12,42,48,3,12,12,12,67,12,6,65,34,12,12,12,76,76,3,72,67,76,3,12,67,69,0,0,0,0,0,0,0,0,0,0,0,0,0,0,0,0,0,0,0,0,0,0,0,0,0,0,0,0,0,0,0,0],"split_type":[0,0,0,0,0,0,0,0,0,0,0,0,0,0,0,0,0,0,0,0,0,0,0,0,0,0,0,0,0,0,0,0,0,0,0,0,0,0,0,0,0,0,0,0,0,0,0,0,0,0,0,0,0,0,0,0,0,0,0,0,0,0,0],"sum_hessian":[2.3468252E5,2.2733319E5,7.3493237E3,2.2504712E5,2.2860647E3,1.3836752E3,5.9656484E3,1.7218198E5,5.2865137E4,1.0130969E3,1.2729677E3,9.2810126E2,4.555739E2,3.5268237E2,5.6129663E3,1.4723075E5,2.4951246E4,4.1936953E4,1.0928182E4,6.02448E2,4.1064896E2,9.7204333E2,3.0092435E2,7.77277E2,1.508243E2,1.5601257E2,2.9956134E2,2.6521213E2,8.747026E1,4.078759E3,1.534207E3,1.4040953E5,6.821208E3,5.995066E3,1.895618E4,3.985709E4,2.0798645E3,6.0084453E3,4.9197363E3,4.6605984E1,5.5584204E2,3.1860654E2,9.2042435E1,8.092082E2,1.6283513E2,2.7762134E2,2.3302992E1,5.883232E2,1.8895381E2,1.0424086E2,4.6583427E1,1.1202851E2,4.398407E1,2.0924902E2,9.03123E1,2.2005597E2,4.515615E1,4.3797386E1,4.367287E1,2.6348323E3,1.4439269E3,1.5494406E2,1.379263E3],"tree_param":{"num_deleted":"0","num_feature":"77","num_nodes":"63","size_leaf_vector":"1"}},{"base_weights":[-8.055843E-1,-8.434908E-1,-9.31013E-2,-8.9293593E-1,-6.81343E-1,-5.192899E-1,1.962767E0,-9.008959E-1,-7.474438E-1,-7.7578586E-1,-4.9766186E-1,-7.716933E-1,2.1570681E-1,3.4026573E0,1.7950843E-1,-9.1209483E-1,-8.257376E-1,-6.818287E-1,-2.8129496E-2,-6.6334206E-1,-8.415449E-1,-5.6065E-1,2.3414831E-1,-2.8269764E-2,-7.0842546E-1,3.1237507E-1,-2.0690942E-3,2.4654512E0,4.163997E0,6.7363447E-1,-8.0777884E-1,-2.7525265E-2,-2.4626728E-2,-2.779144E-2,-2.2001615E-2,-1.931585E-2,-2.3218028E-2,-2.633284E-2,-1.8488165E-2,-2.5681494E-2,-2.2712303E-2,-1.2658632E-2,-2.2463286E-2,1.0325814E-2,-2.4068698E-2,-1.9307384E-2,-2.4831997E-2,7.90198E-3,1.8351132E-2,-1.6960653E-2,2.285329E-3,1.3654354E-1,2.7949879E-2,1.17058925E-1,1.8455672E-1,7.24131E-2,7.7919494E-3,-2.6735827E-2,-1.7811595E-2],"categories":[],"categories_nodes":[],"categories_segments":[],"categories_sizes":[],"default_left":[0,0,0,0,0,0,0,0,0,0,0,0,0,0,0,0,0,0,0,0,0,0,0,0,0,0,0,0,0,0,0,0,0,0,0,0,0,0,0,0,0,0,0,0,0,0,0,0,0,0,0,0,0,0,0,0,0,0,0],"id":3,"left_children":[1,3,5,7,9,11,13,15,17,19,21,23,25,27,29,31,33,35,-1,37,39,41,43,-1,45,47,49,51,53,55,57,-1,-1,-1,-1,-1,-1,-1,-1,-1,-1,-1,-1,-1,-1,-1,-1,-1,-1,-1,-1,-1,-1,-1,-1,-1,-1,-1,-1],"loss_changes":[6.178125E3,1.7407969E3,1.0127094E4,1.9207812E2,8.8016797E2,1.7761709E3,5.095321E3,1.3207031E2,1.0718652E2,2.4730273E2,7.947871E2,7.6265625E1,5.153512E1,7.731719E2,4.3358304E2,6.705469E1,1.89625E2,2.1978027E1,0E0,1.2435205E2,2.5262695E1,4.138584E2,1.5618234E2,0E0,3.971924E1,2.4693222E1,3.325641E1,1.5782124E3,2.908125E2,4.2584903E2,4.7657013E0,0E0,0E0,0E0,0E0,0E0,0E0,0E0,0E0,0E0,0E0,0E0,0E0,0E0,0E0,0E0,0E0,0E0,0E0,0E0,0E0,0E0,0E0,0E0,0E0,0E0,0E0,0E0,0E0],"parents":[2147483647,0,0,1,1,2,2,3,3,4,4,5,5,6,6,7,7,8,8,9,9,10,10,11,11,12,12,13,13,14,14,15,15,16,16,17,17,19,19,20,20,21,21,22,22,24,24,25,25,26,26,27,27,28,28,29,29,30,30],"right_children":[2,4,6,8,10,12,14,16,18,20,22,24,26,28,30,32,34,36,-1,38,40,42,44,-1,46,48,50,52,54,56,58,-1,-1,-1,-1,-1,-1,-1,-1,-1,-1,-1,-1,-1,-1,-1,-1,-1,-1,-1,-1,-1,-1,-1,-1,-1,-1,-1,-1],"split_conditions":[2.4870098E0,1E0,1E0,5.010584E-1,-2.0106238E-1,1.3159109E-2,1.0335047E0,1.3003174E0,1E0,-3.0785367E-1,1E0,1E0,1.0335047E0,4.351599E-1,6.94969E-4,5.924611E-1,4.624971E-1,1E0,-2.8129496E-2,-3.9551535E-1,1E0,-6.693797E-2,1.7043763E0,-2.8269764E-2,1E0,1E0,1.0878998E0,1.2692164E-1,1E0,1.1785581E0,3.8439126E0,-2.7525265E-2,-2.4626728E-2,-2.779144E-2,-2.2001615E-2,-1.931585E-2,-2.3218028E-2,-2.633284E-2,-1.8488165E-2,-2.5681494E-2,-2.2712303E-2,-1.2658632E-2,-2.2463286E-2,1.0325814E-2,-2.4068698E-2,-1.9307384E-2,-2.4831997E-2,7.90198E-3,1.8351132E-2,-1.6960653E-2,2.285329E-3,1.3654354E-1,2.7949879E-2,1.17058925E-1,1.8455672E-1,7.24131E-2,7.7919494E-3,-2.6735827E-2,-1.7811595E-2],"split_indices":[52,63,68,4,38,4,3,41,64,54,68,63,3,3,5,5,33,66,0,41,68,28,3,0,66,75,3,3,73,3,3,0,0,0,0,0,0,0,0,0,0,0,0,0,0,0,0,0,0,0,0,0,0,0,0,0,0,0,0],"split_type":[0,0,0,0,0,0,0,0,0,0,0,0,0,0,0,0,0,0,0,0,0,0,0,0,0,0,0,0,0,0,0,0,0,0,0,0,0,0,0,0,0,0,0,0,0,0,0,0,0,0,0,0,0,0,0,0,0,0,0],"sum_hessian":[2.2875625E5,2.1720028E5,1.1555969E4,1.6644138E5,5.075891E4,9.572338E3,1.9836312E3,1.5780272E5,8.63866E3,3.3520523E4,1.7238385E4,7.125379E3,2.4469587E3,1.0969733E3,8.8665796E2,1.3732884E5,2.047387E4,6.426355E3,2.212306E3,1.2373579E4,2.1146947E4,1.5872449E4,1.3659346E3,1.9235925E3,5.2017866E3,1.6943994E3,7.525592E2,4.935965E2,6.0337683E2,5.911245E2,2.955334E2,1.2962505E5,7.7038037E3,9.792713E3,1.0681155E4,4.5562173E3,1.8701373E3,2.224156E3,1.0149423E4,1.8039969E4,3.1069785E3,9.138418E3,6.7340317E3,1.2354288E3,1.305057E2,3.3742268E3,1.8275597E3,1.4577628E3,2.3663663E2,9.102916E1,6.6153E2,2.0831464E2,2.8528186E2,5.3572363E2,6.7653175E1,1.1265733E2,4.784672E2,2.1038596E2,8.5147446E1],"tree_param":{"num_deleted":"0","num_feature":"77","num_nodes":"59","size_leaf_vector":"1"}},{"base_weights":[-8.006347E-1,-4.211025E-1,-8.590007E-1,-6.254136E-1,4.9887997E-1,-8.8873446E-1,-7.115222E-1,-7.194971E-1,2.6609546E-1,-2.841278E-1,1.915452E0,-9.092735E-1,-7.674191E-1,-7.7689964E-1,-3.9083043E-1,-6.5304714E-1,-8.7619996E-1,3.834634E-1,-2.0566948E-3,2.231018E-1,-6.157295E-1,2.8060532E0,7.762773E-2,-9.137194E-1,-7.820997E-1,-7.1177584E-1,-2.8217943E-2,-6.1136514E-1,-8.216855E-1,-5.934764E-2,-6.073081E-1,-2.1296006E-2,-1.6180672E-2,-2.827764E-2,-2.5310583E-2,1.5645239E-3,1.50313E-2,-2.7284217E-3,1.3470773E-2,9.892174E-3,-1.9574687E-2,-3.5017857E-3,-2.1084193E-2,5.944763E-2,9.929408E-2,1.8155172E-2,-1.2473112E-2,-2.7682094E-2,-2.6737394E-2,-2.1295927E-2,-2.7834259E-2,-2.7983906E-2,-2.0484341E-2,-2.466266E-2,-1.3860652E-2,-2.5080947E-2,-1.5428726E-2,9.540339E-4,-2.6526758E-2,-2.7613673E-2,-1.6634775E-2],"categories":[],"categories_nodes":[],"categories_segments":[],"categories_sizes":[],"default_left":[0,0,0,0,0,0,0,0,0,0,0,0,0,0,0,0,0,0,0,0,0,0,0,0,0,0,0,0,0,0,0,0,0,0,0,0,0,0,0,0,0,0,0,0,0,0,0,0,0,0,0,0,0,0,0,0,0,0,0,0,0],"id":4,"left_children":[1,3,5,7,9,11,13,15,17,19,21,23,25,27,29,31,33,35,37,39,41,43,45,47,49,51,-1,53,55,57,59,-1,-1,-1,-1,-1,-1,-1,-1,-1,-1,-1,-1,-1,-1,-1,-1,-1,-1,-1,-1,-1,-1,-1,-1,-1,-1,-1,-1,-1,-1],"loss_changes":[4.9349844E3,5.5823945E3,8.46125E2,2.0385098E3,5.987229E3,3.9971875E2,6.790918E2,2.2832227E2,7.3033264E1,5.8494196E2,3.14481E3,7.696875E1,2.2360156E2,1.9904297E2,3.9387854E2,9.935889E1,1.3328125E1,6.2850906E1,2.8407684E1,1.2861789E2,9.128314E1,5.309756E2,1.6377379E2,2.6085938E1,4.827295E1,1.1215039E2,0E0,1.8011646E2,9.2978516E1,1.6316579E2,5.4410522E1,0E0,0E0,0E0,0E0,0E0,0E0,0E0,0E0,0E0,0E0,0E0,0E0,0E0,0E0,0E0,0E0,0E0,0E0,0E0,0E0,0E0,0E0,0E0,0E0,0E0,0E0,0E0,0E0,0E0,0E0],"parents":[2147483647,0,0,1,1,2,2,3,3,4,4,5,5,6,6,7,7,8,8,9,9,10,10,11,11,12,12,13,13,14,14,15,15,16,16,17,17,18,18,19,19,20,20,21,21,22,22,23,23,24,24,25,25,27,27,28,28,29,29,30,30],"right_children":[2,4,6,8,10,12,14,16,18,20,22,24,26,28,30,32,34,36,38,40,42,44,46,48,50,52,-1,54,56,58,60,-1,-1,-1,-1,-1,-1,-1,-1,-1,-1,-1,-1,-1,-1,-1,-1,-1,-1,-1,-1,-1,-1,-1,-1,-1,-1,-1,-1,-1,-1],"split_conditions":[1.692287E0,1E0,1E0,1.8220305E-1,1.0122391E-3,1.1372019E0,5.670251E-1,4.1402996E-1,1.0516365E0,-3.5310972E-2,1.1785581E0,1.1710228E0,1E0,-8.7350065E-1,2.0775018E0,3.6491144E-1,1E0,3.9889657E-1,1E0,1.7043763E0,3.0823827E-1,4.351599E-1,1.559323E0,5.3633934E-1,1E0,5.951529E-2,-2.8217943E-2,-5.37027E-1,1.95673E0,1E0,1.9738663E-2,-2.1296006E-2,-1.6180672E-2,-2.827764E-2,-2.5310583E-2,1.5645239E-3,1.50313E-2,-2.7284217E-3,1.3470773E-2,9.892174E-3,-1.9574687E-2,-3.5017857E-3,-2.1084193E-2,5.944763E-2,9.929408E-2,1.8155172E-2,-1.2473112E-2,-2.7682094E-2,-2.6737394E-2,-2.1295927E-2,-2.7834259E-2,-2.7983906E-2,-2.0484341E-2,-2.466266E-2,-1.3860652E-2,-2.5080947E-2,-1.5428726E-2,9.540339E-4,-2.6526758E-2,-2.7613673E-2,-1.6634775E-2],"split_indices":[9,68,63,4,4,42,34,15,3,16,3,5,64,26,10,15,63,3,71,3,3,3,3,17,64,59,0,50,38,66,4,0,0,0,0,0,0,0,0,0,0,0,0,0,0,0,0,0,0,0,0,0,0,0,0,0,0,0,0,0,0],"split_type":[0,0,0,0,0,0,0,0,0,0,0,0,0,0,0,0,0,0,0,0,0,0,0,0,0,0,0,0,0,0,0,0,0,0,0,0,0,0,0,0,0,0,0,0,0,0,0,0,0,0,0,0,0,0,0,0,0,0,0,0,0],"sum_hessian":[2.2279603E5,2.9696832E4,1.930992E5,2.4300469E4,5.3963633E3,1.6069562E5,3.2403576E4,2.1980947E4,2.31952E3,3.4758774E3,1.920486E3,1.37423E5,2.3272621E4,2.6915135E4,5.4884404E3,1.5439138E4,6.54181E3,1.6130651E3,7.06455E2,1.3741921E3,2.1016853E3,1.2932542E3,6.272318E2,1.327751E5,4.647916E3,1.761723E4,5.6553896E3,5.7344614E3,2.1180674E4,2.1687708E3,3.3196697E3,1.0290827E4,5.14831E3,2.141408E3,4.400402E3,4.2289362E2,1.1901715E3,5.9082495E2,1.1563009E2,1.2255564E3,1.4863582E2,3.1260605E2,1.7890793E3,4.923613E2,8.008928E2,3.0301718E2,3.242146E2,9.472674E4,3.804835E4,3.1113362E3,1.5365797E3,2.0375972E3,1.5579634E4,2.3765894E3,3.3578718E3,2.0234605E4,9.460689E2,1.9538341E3,2.149367E2,4.767218E2,2.8429478E3],"tree_param":{"num_deleted":"0","num_feature":"77","num_nodes":"61","size_leaf_vector":"1"}},{"base_weights":[-7.948058E-1,-4.0861276E-1,-8.5509133E-1,5.780195E-1,-5.957375E-1,-8.854648E-1,-7.0614725E-1,-3.1458232E-1,1.874542E0,-6.897783E-1,2.677119E-1,-9.0678567E-1,-7.6098466E-1,-7.7428895E-1,-3.7725735E-1,1.3416861E-1,-6.437204E-1,2.4271075E-1,2.319344E0,-6.133883E-1,-8.7434554E-1,6.2407856E-3,4.7249517E-1,-9.1250813E-1,-8.087405E-1,-7.040072E-1,-2.8140634E-2,-7.9681706E-1,-4.4228402E-1,-6.713378E-2,-5.8801E-1,9.6693553E-4,4.0872328E-2,-2.494509E-2,-1.264102E-2,-6.0309046E-3,3.2317407E-2,1.01659335E-1,4.0457085E-2,-1.1691685E-3,-1.9229028E-2,-2.8260862E-2,-2.5344186E-2,4.3285964E-3,-1.7681962E-2,1.7929431E-2,2.4658984E-3,-2.7710743E-2,-2.6802694E-2,-2.2545803E-2,-2.7682815E-2,-2.3271993E-2,-1.7743386E-2,-1.9175617E-2,-2.494281E-2,-1.12768095E-2,-2.3464039E-2,-8.090506E-3,3.420085E-2,-2.754569E-2,-1.6000012E-2],"categories":[],"categories_nodes":[],"categories_segments":[],"categories_sizes":[],"default_left":[0,0,0,0,0,0,0,0,0,0,0,0,0,0,0,0,0,0,0,0,0,0,0,0,0,0,0,0,0,0,0,0,0,0,0,0,0,0,0,0,0,0,0,0,0,0,0,0,0,0,0,0,0,0,0,0,0,0,0,0,0],"id":5,"left_children":[1,3,5,7,9,11,13,15,17,19,21,23,25,27,29,31,33,35,37,39,41,43,45,47,49,51,-1,53,55,57,59,-1,-1,-1,-1,-1,-1,-1,-1,-1,-1,-1,-1,-1,-1,-1,-1,-1,-1,-1,-1,-1,-1,-1,-1,-1,-1,-1,-1,-1,-1],"loss_changes":[5.0967188E3,5.458306E3,8.560625E2,5.455425E3,2.0180078E3,4.167578E2,7.186738E2,4.125352E2,1.3945381E3,3.1542188E2,1.3072195E2,7.460156E1,2.3141309E2,1.9840332E2,3.5995282E2,1.4799261E2,6.691937E1,1.5308646E2,1.5631323E3,2.5111963E2,1.2314941E1,8.833784E1,6.68273E1,2.6257812E1,4.7671387E1,1.4009473E2,0E0,1.3522559E2,3.7855774E1,5.454892E2,5.870984E1,0E0,0E0,0E0,0E0,0E0,0E0,0E0,0E0,0E0,0E0,0E0,0E0,0E0,0E0,0E0,0E0,0E0,0E0,0E0,0E0,0E0,0E0,0E0,0E0,0E0,0E0,0E0,0E0,0E0,0E0],"parents":[2147483647,0,0,1,1,2,2,3,3,4,4,5,5,6,6,7,7,8,8,9,9,10,10,11,11,12,12,13,13,14,14,15,15,16,16,17,17,18,18,19,19,20,20,21,21,22,22,23,23,24,24,25,25,27,27,28,28,29,29,30,30],"right_children":[2,4,6,8,10,12,14,16,18,20,22,24,26,28,30,32,34,36,38,40,42,44,46,48,50,52,-1,54,56,58,60,-1,-1,-1,-1,-1,-1,-1,-1,-1,-1,-1,-1,-1,-1,-1,-1,-1,-1,-1,-1,-1,-1,-1,-1,-1,-1,-1,-1,-1,-1],"split_conditions":[1.692287E0,7.3544934E-2,1E0,4.9451075E-4,2.2933978E-1,1.1372019E0,5.670251E-1,-1.771708E0,-2.3300773E-19,4.1402996E-1,1.2425224E0,5.924611E-1,1E0,1.0525224E0,2.0775018E0,6.967415E-2,5.212268E-4,5.9997186E-2,5.4191004E-2,8.709269E-2,1E0,1.1414866E1,1.5425082E0,1.0780139E0,1E0,1E0,-2.8140634E-2,-1.0860717E0,8.0705893E-1,1E0,1.6505515E-2,9.6693553E-4,4.0872328E-2,-2.494509E-2,-1.264102E-2,-6.0309046E-3,3.2317407E-2,1.01659335E-1,4.0457085E-2,-1.1691685E-3,-1.9229028E-2,-2.8260862E-2,-2.5344186E-2,4.3285964E-3,-1.7681962E-2,1.7929431E-2,2.4658984E-3,-2.7710743E-2,-2.6802694E-2,-2.2545803E-2,-2.7682815E-2,-2.3271993E-2,-1.7743386E-2,-1.9175617E-2,-2.494281E-2,-1.12768095E-2,-2.3464039E-2,-8.090506E-3,3.420085E-2,-2.754569E-2,-1.6000012E-2],"split_indices":[9,12,63,6,5,42,34,17,8,15,12,5,64,39,10,12,5,12,12,12,63,5,12,12,64,69,0,26,12,69,5,0,0,0,0,0,0,0,0,0,0,0,0,0,0,0,0,0,0,0,0,0,0,0,0,0,0,0,0,0,0],"split_type":[0,0,0,0,0,0,0,0,0,0,0,0,0,0,0,0,0,0,0,0,0,0,0,0,0,0,0,0,0,0,0,0,0,0,0,0,0,0,0,0,0,0,0,0,0,0,0,0,0,0,0,0,0,0,0,0,0,0,0,0,0],"sum_hessian":[2.1892822E5,2.9561693E4,1.8936653E5,4.7125034E3,2.484919E4,1.5728684E5,3.2079693E4,2.791458E3,1.9210453E3,2.2408783E4,2.4404065E3,1.3428095E5,2.300589E4,2.65728E4,5.506893E3,1.1813639E3,1.610094E3,4.1180725E2,1.5092382E3,1.5852116E4,6.556667E3,1.0723018E3,1.3681046E3,1.2686794E5,7.41301E3,1.7408205E4,5.5976846E3,2.4882977E4,1.6898247E3,2.2286873E3,3.2782058E3,1.0917784E3,8.958543E1,8.7141925E2,7.386748E2,2.693481E2,1.424591E2,7.169893E2,7.922488E2,7.263464E2,1.512577E4,1.9827427E3,4.5739243E3,8.711592E2,2.0114258E2,1.0355239E3,3.3258078E2,7.996382E4,4.6904117E4,4.941182E3,2.471828E3,1.0629192E4,6.779013E3,4.483321E3,2.0399654E4,1.4154253E3,2.7439948E2,1.9091309E3,3.195565E2,4.6348926E2,2.8147166E3],"tree_param":{"num_deleted":"0","num_feature":"77","num_nodes":"61","size_leaf_vector":"1"}},{"base_weights":[-7.9016984E-1,-8.300072E-1,-7.652025E-2,-8.8317204E-1,-6.617829E-1,1.8118724E0,-4.4860208E-1,-9.0444475E-1,-7.580092E-1,-7.386101E-1,-3.8479728E-1,2.3152733E0,1.837832E-1,-7.0464045E-1,2.7589676E-1,-9.102638E-1,-8.0828995E-1,-2.813082E-2,-7.0417064E-1,-7.6237035E-1,-3.0837032E-1,-2.0115928E-1,-6.3374627E-1,2.8636796E0,1.6168178E0,-2.1380286E-1,9.801955E-1,2.6641133E-1,-7.521593E-1,5.6285217E-2,4.4569838E-1,-2.7786879E-2,-2.6874093E-2,-2.7614065E-2,-2.2556093E-2,-2.3245156E-2,-1.7745303E-2,-2.417457E-2,-1.9246982E-2,-2.4857217E-2,-3.3049542E-3,-2.7967678E-2,-3.1991932E-3,-1.1812903E-2,-2.1640765E-2,1.00573085E-1,6.801129E-2,9.663777E-3,6.3687176E-2,-1.5174433E-2,6.6247326E-3,-2.5836851E-2,3.8663015E-2,1.8625468E-2,-2.2244155E-2,-2.8175296E-2,-2.0535585E-2,9.85155E-3,-1.6429998E-2,1.9481283E-2,7.3742326E-3],"categories":[],"categories_nodes":[],"categories_segments":[],"categories_sizes":[],"default_left":[0,0,0,0,0,0,0,0,0,0,0,0,0,0,0,0,0,0,0,0,0,0,0,0,0,0,0,0,0,0,0,0,0,0,0,0,0,0,0,0,0,0,0,0,0,0,0,0,0,0,0,0,0,0,0,0,0,0,0,0,0],"id":6,"left_children":[1,3,5,7,9,11,13,15,17,19,21,23,25,27,29,31,33,-1,35,37,39,41,43,45,47,49,51,53,55,57,59,-1,-1,-1,-1,-1,-1,-1,-1,-1,-1,-1,-1,-1,-1,-1,-1,-1,-1,-1,-1,-1,-1,-1,-1,-1,-1,-1,-1,-1,-1],"loss_changes":[6.0597344E3,1.8049219E3,7.9198193E3,4.0775E2,1.0314492E3,1.5201831E3,1.7468698E3,7.2625E1,2.1497461E2,3.8776172E2,4.8126074E2,5.381636E2,1.3930096E2,3.212478E2,9.168869E1,2.7710938E1,4.671582E1,0E0,1.3612207E2,1.8826953E2,2.0489154E2,4.1875284E2,9.369116E1,2.2350293E2,4.0920667E2,3.7402145E1,8.43246E1,1.1667807E2,8.3266846E1,1.7660574E2,5.6304504E1,0E0,0E0,0E0,0E0,0E0,0E0,0E0,0E0,0E0,0E0,0E0,0E0,0E0,0E0,0E0,0E0,0E0,0E0,0E0,0E0,0E0,0E0,0E0,0E0,0E0,0E0,0E0,0E0,0E0,0E0],"parents":[2147483647,0,0,1,1,2,2,3,3,4,4,5,5,6,6,7,7,8,8,9,9,10,10,11,11,12,12,13,13,14,14,15,15,16,16,18,18,19,19,20,20,21,21,22,22,23,23,24,24,25,25,26,26,27,27,28,28,29,29,30,30],"right_children":[2,4,6,8,10,12,14,16,18,20,22,24,26,28,30,32,34,-1,36,38,40,42,44,46,48,50,52,54,56,58,60,-1,-1,-1,-1,-1,-1,-1,-1,-1,-1,-1,-1,-1,-1,-1,-1,-1,-1,-1,-1,-1,-1,-1,-1,-1,-1,-1,-1,-1,-1],"split_conditions":[2.4870098E0,1E0,6.967415E-2,1.1372019E0,6.0029775E-1,1.1785581E0,1.3159109E-2,5.924611E-1,1E0,1.4165808E0,2.9998592E-1,5.4191004E-2,5.9997186E-2,8.32219E-2,1.2425224E0,1E0,1E0,-2.813082E-2,1E0,9.6615267E-1,1E0,-4.299049E-1,-4.6898684E-1,7.252665E-1,4.351599E-1,5.032022E-2,1.0122391E-3,3.9889657E-1,1E0,8.340565E-1,1.4612217E0,-2.7786879E-2,-2.6874093E-2,-2.7614065E-2,-2.2556093E-2,-2.3245156E-2,-1.7745303E-2,-2.417457E-2,-1.9246982E-2,-2.4857217E-2,-3.3049542E-3,-2.7967678E-2,-3.1991932E-3,-1.1812903E-2,-2.1640765E-2,1.00573085E-1,6.801129E-2,9.663777E-3,6.3687176E-2,-1.5174433E-2,6.6247326E-3,-2.5836851E-2,3.8663015E-2,1.8625468E-2,-2.2244155E-2,-2.8175296E-2,-2.0535585E-2,9.85155E-3,-1.6429998E-2,1.9481283E-2,7.3742326E-3],"split_indices":[52,63,12,42,48,3,4,5,65,34,12,12,12,12,12,69,65,0,69,47,69,24,20,3,3,12,4,3,63,3,12,0,0,0,0,0,0,0,0,0,0,0,0,0,0,0,0,0,0,0,0,0,0,0,0,0,0,0,0,0,0],"split_type":[0,0,0,0,0,0,0,0,0,0,0,0,0,0,0,0,0,0,0,0,0,0,0,0,0,0,0,0,0,0,0,0,0,0,0,0,0,0,0,0,0,0,0,0,0,0,0,0,0,0,0,0,0,0,0,0,0,0,0,0,0],"sum_hessian":[2.1314755E5,2.0187814E5,1.1269415E4,1.5339548E5,4.8482656E4,1.8543474E3,9.415067E3,1.3110638E5,2.2289102E4,3.7953797E4,1.0528862E4,1.4160778E3,4.3826962E2,6.956621E3,2.4584468E3,1.236169E5,7.489478E3,5.1349404E3,1.715416E4,3.596674E4,1.9870581E3,6.0602837E3,4.468579E3,7.915088E2,6.24569E2,2.9281943E2,1.454502E2,3.2432874E2,6.6322925E3,1.0725737E3,1.3858729E3,5.8721492E4,6.4895406E4,2.501162E3,4.988316E3,1.0538105E4,6.616055E3,2.6448549E4,9.518189E3,5.473414E2,1.4397168E3,6.927884E2,5.367495E3,1.1965524E3,3.2720266E3,4.325503E2,3.589585E2,1.7598769E2,4.4858127E2,1.7504724E2,1.177722E2,2.0618258E1,1.2483193E2,2.4023161E2,8.409713E1,1.7581895E3,4.874103E3,7.397491E2,3.3282455E2,6.853201E2,7.0055286E2],"tree_param":{"num_deleted":"0","num_feature":"77","num_nodes":"61","size_leaf_vector":"1"}},{"base_weights":[-7.8766024E-1,-8.259756E-1,-1.2972441E-1,-8.80294E-1,-6.540099E-1,1.533949E0,-4.479965E-1,-8.893668E-1,-7.170161E-1,-7.558291E-1,-4.754048E-1,1.1151221E-1,1.8814209E0,-6.881201E-1,2.3610726E-1,-6.960049E-1,-8.9435583E-1,-6.4162195E-1,-2.7924247E-2,-3.8105085E-1,-7.895742E-1,-2.8740552E-1,-6.589101E-1,-3.686546E-1,1.0338055E0,2.356282E0,1.2747769E0,2.5547603E-1,-7.404591E-1,1.024555E-2,4.1302106E-1,-2.4850283E-2,-1.2896576E-2,-2.748812E-2,-2.5581306E-2,-1.8783484E-2,-2.500742E-2,-2.296679E-3,-1.5684715E-2,-2.4317343E-2,-1.2986655E-2,-4.6453797E-3,-1.8957984E-2,-1.8406274E-2,-2.5109325E-2,-2.837663E-3,-2.7375773E-2,-2.5733054E-2,4.219215E-2,6.043632E-2,7.7429935E-2,4.305387E-2,-2.041711E-2,1.6368251E-2,-2.2832828E-2,-2.8076332E-2,-2.0012515E-2,3.9477167E-3,-1.661044E-2,5.1992156E-2,1.162418E-2],"categories":[],"categories_nodes":[],"categories_segments":[],"categories_sizes":[],"default_left":[0,0,0,0,0,0,0,0,0,0,0,0,0,0,0,0,0,0,0,0,0,0,0,0,0,0,0,0,0,0,0,0,0,0,0,0,0,0,0,0,0,0,0,0,0,0,0,0,0,0,0,0,0,0,0,0,0,0,0,0,0],"id":7,"left_children":[1,3,5,7,9,11,13,15,17,19,21,23,25,27,29,31,33,35,-1,37,39,41,43,45,47,49,51,53,55,57,59,-1,-1,-1,-1,-1,-1,-1,-1,-1,-1,-1,-1,-1,-1,-1,-1,-1,-1,-1,-1,-1,-1,-1,-1,-1,-1,-1,-1,-1,-1],"loss_changes":[5.2514766E3,1.83825E3,6.071591E3,2.2097656E2,8.590586E2,9.099116E2,1.581246E3,1.3609375E2,1.2642261E2,3.803457E2,5.9187354E2,1.6094655E2,4.23292E2,3.5204785E2,9.994687E1,1.25340454E2,1.2530469E2,1.6828125E1,0E0,1.0736865E2,2.0650195E2,3.8713562E2,6.963916E1,3.5563793E1,8.8881516E1,5.845459E1,2.0538623E2,1.110639E2,9.61687E1,7.532724E1,4.6633713E1,0E0,0E0,0E0,0E0,0E0,0E0,0E0,0E0,0E0,0E0,0E0,0E0,0E0,0E0,0E0,0E0,0E0,0E0,0E0,0E0,0E0,0E0,0E0,0E0,0E0,0E0,0E0,0E0,0E0,0E0],"parents":[2147483647,0,0,1,1,2,2,3,3,4,4,5,5,6,6,7,7,8,8,9,9,10,10,11,11,12,12,13,13,14,14,15,15,16,16,17,17,19,19,20,20,21,21,22,22,23,23,24,24,25,25,26,26,27,27,28,28,29,29,30,30],"right_children":[2,4,6,8,10,12,14,16,18,20,22,24,26,28,30,32,34,36,-1,38,40,42,44,46,48,50,52,54,56,58,60,-1,-1,-1,-1,-1,-1,-1,-1,-1,-1,-1,-1,-1,-1,-1,-1,-1,-1,-1,-1,-1,-1,-1,-1,-1,-1,-1,-1,-1,-1],"split_conditions":[2.4870098E0,1E0,6.967415E-2,5.010584E-1,7.057306E-1,-2.3300773E-19,1.3159109E-2,-2.267535E0,1E0,-1.1127095E0,-9.7826123E-1,6.193258E-2,5.4191004E-2,8.32219E-2,1.2425224E0,1.0509185E0,9.178583E-1,4.2740595E-1,-2.7924247E-2,2.9611513E-1,1.4622982E0,3.4449998E-1,2.5305978E-3,1E0,1.0122391E-3,0E0,1E0,1E0,1E0,1.1414866E1,1.2580055E0,-2.4850283E-2,-1.2896576E-2,-2.748812E-2,-2.5581306E-2,-1.8783484E-2,-2.500742E-2,-2.296679E-3,-1.5684715E-2,-2.4317343E-2,-1.2986655E-2,-4.6453797E-3,-1.8957984E-2,-1.8406274E-2,-2.5109325E-2,-2.837663E-3,-2.7375773E-2,-2.5733054E-2,4.219215E-2,6.043632E-2,7.7429935E-2,4.305387E-2,-2.041711E-2,1.6368251E-2,-2.2832828E-2,-2.8076332E-2,-2.0012515E-2,3.9477167E-3,-1.661044E-2,5.1992156E-2,1.162418E-2],"split_indices":[52,63,12,4,50,8,4,19,64,62,33,12,12,12,12,12,31,5,0,12,14,12,4,67,4,8,67,67,63,5,12,0,0,0,0,0,0,0,0,0,0,0,0,0,0,0,0,0,0,0,0,0,0,0,0,0,0,0,0,0,0],"split_type":[0,0,0,0,0,0,0,0,0,0,0,0,0,0,0,0,0,0,0,0,0,0,0,0,0,0,0,0,0,0,0,0,0,0,0,0,0,0,0,0,0,0,0,0,0,0,0,0,0,0,0,0,0,0,0,0,0,0,0,0,0],"sum_hessian":[2.0832081E5,1.9685648E5,1.1464334E4,1.495989E5,4.725758E4,1.8403945E3,9.623939E3,1.417196E5,7.8793076E3,3.0096773E4,1.7160805E4,3.6156912E2,1.4788254E3,7.123538E3,2.5004011E3,3.568137E3,1.3815145E5,5.8280405E3,2.051267E3,2.4870881E3,2.7609684E4,8.477876E3,8.682928E3,2.3817178E2,1.2339734E2,8.278934E2,6.5093207E2,3.741565E2,6.7493813E3,1.0987327E3,1.4016685E3,2.3816555E3,1.1864816E3,9.050489E4,4.7646566E4,5.3963984E3,4.3164206E2,7.9060187E2,1.6964862E3,2.6073068E4,1.5366166E3,6.1233276E3,2.3545479E3,6.9234355E3,1.7594929E3,1.5914822E2,7.902356E1,2.0092367E1,1.0330498E2,3.3238376E2,4.9550964E2,6.018428E2,4.9089264E1,2.9144147E2,8.271503E1,1.8392345E3,4.910147E3,9.048047E2,1.9392798E2,2.5343983E1,1.3763245E3],"tree_param":{"num_deleted":"0","num_feature":"77","num_nodes":"61","size_leaf_vector":"1"}},{"base_weights":[-7.784102E-1,-8.7740046E-1,-5.1790136E-1,-8.9953065E-1,-7.4862015E-1,-1.036746E-2,-6.600467E-1,-9.049817E-1,-7.925802E-1,-2.7979592E-2,-6.914828E-1,-3.6705646E-1,1.4275017E0,-7.647541E-1,-4.5914683E-1,-9.209821E-1,-8.904637E-1,-2.7561808E-2,-7.329684E-1,-9.3152803E-1,-6.582854E-1,9.627381E-2,-7.056474E-1,1.9542559E0,5.547549E-1,-4.236266E-1,-7.9042566E-1,-2.9444313E-1,-6.204754E-1,-2.7860511E-2,-2.6940724E-2,-2.6916457E-2,-2.4067182E-2,-2.3286898E-2,-1.7112534E-2,-2.4981065E-2,-2.8078912E-2,-2.2378312E-2,-1.5621881E-2,-2.5306894E-2,8.166168E-3,-2.2351507E-2,-1.7649334E-2,-1.172875E-3,6.3376166E-2,2.414588E-2,-1.4986179E-2,-1.6128313E-2,-8.369464E-3,-1.9451052E-2,-2.465792E-2,-2.44159E-3,-1.5958738E-2,-1.977212E-2,-1.3288534E-2],"categories":[],"categories_nodes":[],"categories_segments":[],"categories_sizes":[],"default_left":[0,0,0,0,0,0,0,0,0,0,0,0,0,0,0,0,0,0,0,0,0,0,0,0,0,0,0,0,0,0,0,0,0,0,0,0,0,0,0,0,0,0,0,0,0,0,0,0,0,0,0,0,0,0,0],"id":8,"left_children":[1,3,5,7,9,11,13,15,17,-1,19,21,23,25,27,29,31,-1,33,35,37,39,41,43,45,47,49,51,53,-1,-1,-1,-1,-1,-1,-1,-1,-1,-1,-1,-1,-1,-1,-1,-1,-1,-1,-1,-1,-1,-1,-1,-1,-1,-1],"loss_changes":[5.2787344E3,4.2209375E2,4.0668926E3,7.3078125E1,2.2816309E2,6.3267407E3,9.2602734E2,2.7164062E1,4.5550537E1,0E0,1.3173828E2,1.5506608E3,1.1261128E3,2.5317578E2,4.0080542E2,9.2890625E0,3.690625E1,0E0,2.8946533E1,1.0412598E-1,1.7558643E2,6.9041187E2,2.5965088E1,4.8238965E2,2.4411792E2,3.3289154E1,1.1995508E2,3.7793304E2,5.1936035E1,0E0,0E0,0E0,0E0,0E0,0E0,0E0,0E0,0E0,0E0,0E0,0E0,0E0,0E0,0E0,0E0,0E0,0E0,0E0,0E0,0E0,0E0,0E0,0E0,0E0,0E0],"parents":[2147483647,0,0,1,1,2,2,3,3,4,4,5,5,6,6,7,7,8,8,10,10,11,11,12,12,13,13,14,14,15,15,16,16,18,18,19,19,20,20,21,21,22,22,23,23,24,24,25,25,26,26,27,27,28,28],"right_children":[2,4,6,8,10,12,14,16,18,-1,20,22,24,26,28,30,32,-1,34,36,38,40,42,44,46,48,50,52,54,-1,-1,-1,-1,-1,-1,-1,-1,-1,-1,-1,-1,-1,-1,-1,-1,-1,-1,-1,-1,-1,-1,-1,-1,-1,-1],"split_conditions":[1E0,1.1372019E0,-1.3549007E0,1.1942434E0,1E0,1E0,7.057306E-1,1E0,1E0,-2.7979592E-2,4.1866255E-1,-5.4482776E-1,5.806179E-2,-9.483312E-1,-3.5310972E-2,8.355191E0,1.2820889E0,-2.7561808E-2,9.0382856E-1,-1.489592E0,1E0,1E0,7.9738194E-1,-2.3300773E-19,8.32219E-2,2.072406E0,-8.7350065E-1,2.1482863E-1,1E0,-2.7860511E-2,-2.6940724E-2,-2.6916457E-2,-2.4067182E-2,-2.3286898E-2,-1.7112534E-2,-2.4981065E-2,-2.8078912E-2,-2.2378312E-2,-1.5621881E-2,-2.5306894E-2,8.166168E-3,-2.2351507E-2,-1.7649334E-2,-1.172875E-3,6.3376166E-2,2.414588E-2,-1.4986179E-2,-1.6128313E-2,-8.369464E-3,-1.9451052E-2,-2.465792E-2,-2.44159E-3,-1.5958738E-2,-1.977212E-2,-1.3288534E-2],"split_indices":[63,42,62,6,65,68,50,69,65,0,30,14,12,55,16,13,62,0,12,14,69,69,12,8,12,1,26,12,68,0,0,0,0,0,0,0,0,0,0,0,0,0,0,0,0,0,0,0,0,0,0,0,0,0,0],"split_type":[0,0,0,0,0,0,0,0,0,0,0,0,0,0,0,0,0,0,0,0,0,0,0,0,0,0,0,0,0,0,0,0,0,0,0,0,0,0,0,0,0,0,0,0,0,0,0,0,0,0,0,0,0,0,0],"sum_hessian":[2.0471508E5,1.483438E5,5.6371285E4,1.265849E5,2.17589E4,1.2333882E4,4.4037402E4,1.20438945E5,6.1459536E3,5.1514272E3,1.6607475E4,9.882978E3,2.4509036E3,2.8947432E4,1.5089972E4,5.7264543E4,6.31744E4,1.9676731E3,4.178281E3,2.0144242E3,1.459305E4,4.1731396E3,5.7098384E3,1.5276421E3,9.232614E2,2.0271991E3,2.6920232E4,7.4682773E3,7.621695E3,4.2850363E4,1.4414178E4,5.8675008E4,4.499392E3,3.297028E3,8.812526E2,9.463783E1,1.9197864E3,8.910413E3,5.682636E3,6.574125E2,3.515727E3,4.27043E3,1.4394081E3,1.1243483E2,1.4152073E3,7.464253E2,1.7683615E2,1.1322435E3,8.949556E2,4.8904834E3,2.2029748E4,3.9375437E3,3.530734E3,6.258362E3,1.3633328E3],"tree_param":{"num_deleted":"0","num_feature":"77","num_nodes":"55","size_leaf_vector":"1"}},{"base_weights":[-7.7679193E-1,-8.168318E-1,-1.189723E-1,-8.726535E-1,-6.427564E-1,1.2202675E0,-4.66058E-1,-8.959173E-1,-7.419927E-1,-7.259808E-1,-3.5116786E-1,1.59559E0,1.2625147E-1,-7.069234E-1,1.772643E-1,-9.0190655E-1,-7.822654E-1,-2.7922645E-2,-6.8529665E-1,-7.448887E-1,-3.579648E-1,-4.3850797E-1,1.7341672E-1,1.6857456E0,-1.9426916E-2,-4.9876928E-1,3.8016513E-1,-2.7966516E-2,-6.265957E-1,-1.5653464E-1,4.1804418E-1,-2.7560467E-2,-2.6607173E-2,-2.7549002E-2,-2.158526E-2,-2.2860566E-2,-1.7024986E-2,-2.3538847E-2,-1.7604005E-2,-2.495602E-2,-5.6051095E-3,-1.4463203E-3,-1.6522454E-2,7.894767E-3,-1.9139318E-2,5.5776708E-2,2.619283E-2,-8.827641E-3,-2.6916938E-2,-2.6821408E-2,1.5076003E-2,3.3089588E-3,-1.9704087E-2,3.458391E-3,-1.3568003E-2,2.0086661E-2,5.995532E-3],"categories":[],"categories_nodes":[],"categories_segments":[],"categories_sizes":[],"default_left":[0,0,0,0,0,0,0,0,0,0,0,0,0,0,0,0,0,0,0,0,0,0,0,0,0,0,0,0,0,0,0,0,0,0,0,0,0,0,0,0,0,0,0,0,0,0,0,0,0,0,0,0,0,0,0,0,0],"id":9,"left_children":[1,3,5,7,9,11,13,15,17,19,21,23,25,27,29,31,33,-1,35,37,39,41,43,45,-1,47,49,-1,51,53,55,-1,-1,-1,-1,-1,-1,-1,-1,-1,-1,-1,-1,-1,-1,-1,-1,-1,-1,-1,-1,-1,-1,-1,-1,-1,-1],"loss_changes":[5.2224375E3,1.8156328E3,5.2892397E3,4.295078E2,1.1011523E3,9.614697E2,1.4003777E3,8.105469E1,2.2833105E2,2.4541797E2,4.6189795E2,3.5372998E2,9.530459E1,1.1840698E2,1.9798077E2,2.7898438E1,5.0742188E1,0E0,1.4829834E2,2.1051172E2,1.3992656E2,3.7852295E2,1.0497865E2,2.3474316E2,0E0,1.388065E1,6.699114E1,0E0,1.0803052E2,8.3060486E1,7.838808E1,0E0,0E0,0E0,0E0,0E0,0E0,0E0,0E0,0E0,0E0,0E0,0E0,0E0,0E0,0E0,0E0,0E0,0E0,0E0,0E0,0E0,0E0,0E0,0E0,0E0,0E0],"parents":[2147483647,0,0,1,1,2,2,3,3,4,4,5,5,6,6,7,7,8,8,9,9,10,10,11,11,12,12,13,13,14,14,15,15,16,16,18,18,19,19,20,20,21,21,22,22,23,23,25,25,26,26,28,28,29,29,30,30],"right_children":[2,4,6,8,10,12,14,16,18,20,22,24,26,28,30,32,34,-1,36,38,40,42,44,46,-1,48,50,-1,52,54,56,-1,-1,-1,-1,-1,-1,-1,-1,-1,-1,-1,-1,-1,-1,-1,-1,-1,-1,-1,-1,-1,-1,-1,-1,-1,-1],"split_conditions":[2.4870098E0,1E0,7.3544934E-2,1.1372019E0,6.0029775E-1,1.1785581E0,1.3159109E-2,1.1942434E0,1E0,1.4165808E0,1E0,1E0,5.032022E-2,1E0,1.2425224E0,1E0,1E0,-2.7922645E-2,1E0,1.16781E0,1E0,-3.584222E-1,1.7043763E0,6.193258E-2,-1.9426916E-2,1E0,1.0122391E-3,-2.7966516E-2,8.51573E-2,6.8900317E-1,1.4612217E0,-2.7560467E-2,-2.6607173E-2,-2.7549002E-2,-2.158526E-2,-2.2860566E-2,-1.7024986E-2,-2.3538847E-2,-1.7604005E-2,-2.495602E-2,-5.6051095E-3,-1.4463203E-3,-1.6522454E-2,7.894767E-3,-1.9139318E-2,5.5776708E-2,2.619283E-2,-8.827641E-3,-2.6916938E-2,-2.6821408E-2,1.5076003E-2,3.3089588E-3,-1.9704087E-2,3.458391E-3,-1.3568003E-2,2.0086661E-2,5.995532E-3],"split_indices":[52,63,12,42,48,3,4,6,65,34,68,67,12,63,12,69,65,0,69,49,69,14,3,12,0,67,4,0,12,3,12,0,0,0,0,0,0,0,0,0,0,0,0,0,0,0,0,0,0,0,0,0,0,0,0,0,0],"split_type":[0,0,0,0,0,0,0,0,0,0,0,0,0,0,0,0,0,0,0,0,0,0,0,0,0,0,0,0,0,0,0,0,0,0,0,0,0,0,0,0,0,0,0,0,0,0,0,0,0,0,0,0,0,0,0,0,0],"sum_hessian":[1.9828036E5,1.8690375E5,1.1376622E4,1.4151834E5,4.5385395E4,2.34106E3,9.035562E3,1.201246E5,2.1393744E4,3.5306746E4,1.0078648E4,1.7427268E3,5.983333E2,6.574073E3,2.4614888E3,1.14104516E5,6.0200923E3,4.9379756E3,1.6455768E4,3.3580426E4,1.7263196E3,8.640263E3,1.4383864E3,1.6756294E3,6.709744E1,1.7257275E2,4.2576053E2,1.7251025E3,4.8489707E3,1.0316447E3,1.429844E3,5.3837188E4,6.0267324E4,1.8961876E3,4.1239043E3,9.961977E3,6.4937915E3,2.6831666E4,6.7487607E3,4.5697165E2,1.269348E3,1.9300996E3,6.7101626E3,1.2957489E3,1.4263739E2,1.3797944E3,2.9583502E2,1.15189224E2,5.7383537E1,3.675257E1,3.8900797E2,1.9084029E2,4.6581304E3,5.378783E2,4.937664E2,6.632487E2,7.665953E2],"tree_param":{"num_deleted":"0","num_feature":"77","num_nodes":"57","size_leaf_vector":"1"}},{"base_weights":[-7.664825E-1,-7.994586E-1,4.0733863E-2,-8.137825E-1,2.1260864E-1,2.9090002E-1,-7.9955494E-1,-3.6417848E-1,-8.300841E-1,1.4107376E-1,6.050102E-1,6.4409506E-1,-6.0237545E-1,-8.139386E-1,-7.2303176E-1,-2.5512233E-1,-6.9756544E-1,-8.3326125E-1,-6.293715E-2,8.311827E-2,3.6567947E-1,2.8159168E-2,1.1837015E-2,1.2937683E0,-6.2851834E-1,-5.419054E-1,-7.3436177E-1,-8.247516E-1,-2.3104066E-2,-1.8804392E-2,-2.2302981E-2,-1.6205825E-3,-1.8812744E-2,-2.059352E-2,-2.7854087E-2,-2.5609804E-2,-2.1318892E-2,-2.5222525E-2,3.067224E-2,8.692221E-3,-1.8361231E-4,-2.8429558E-3,2.1456342E-2,1.1020756E-2,4.2970072E-2,-1.7790077E-2,-2.614706E-2,-1.5638677E-2,-1.9724306E-2,-2.3249505E-2,-1.6257325E-2,-2.5053706E-2,-2.2526622E-2],"categories":[],"categories_nodes":[],"categories_segments":[],"categories_sizes":[],"default_left":[0,0,0,0,0,0,0,0,0,0,0,0,0,0,0,0,0,0,0,0,0,0,0,0,0,0,0,0,0,0,0,0,0,0,0,0,0,0,0,0,0,0,0,0,0,0,0,0,0,0,0,0,0],"id":10,"left_children":[1,3,5,7,9,11,13,15,17,19,21,23,25,27,29,31,33,35,37,39,41,-1,-1,43,45,47,49,51,-1,-1,-1,-1,-1,-1,-1,-1,-1,-1,-1,-1,-1,-1,-1,-1,-1,-1,-1,-1,-1,-1,-1,-1,-1],"loss_changes":[5.160617E3,2.7003594E3,1.5999476E3,1.3457891E3,7.2902725E1,1.8507666E3,1.333374E0,2.335271E2,4.319375E2,2.861457E1,2.7757141E1,3.4762183E3,1.2869812E1,5.7250977E-2,9.390259E-2,3.6239868E2,3.4274902E0,4.4091406E2,6.188744E2,3.2278763E1,7.2661026E1,0E0,0E0,3.5675293E2,1.1752258E1,2.3826904E0,3.641327E0,2.6037598E-1,0E0,0E0,0E0,0E0,0E0,0E0,0E0,0E0,0E0,0E0,0E0,0E0,0E0,0E0,0E0,0E0,0E0,0E0,0E0,0E0,0E0,0E0,0E0,0E0,0E0],"parents":[2147483647,0,0,1,1,2,2,3,3,4,4,5,5,6,6,7,7,8,8,9,9,10,10,11,11,12,12,13,13,14,14,15,15,16,16,17,17,18,18,19,19,20,20,23,23,24,24,25,25,26,26,27,27],"right_children":[2,4,6,8,10,12,14,16,18,20,22,24,26,28,30,32,34,36,38,40,42,-1,-1,44,46,48,50,52,-1,-1,-1,-1,-1,-1,-1,-1,-1,-1,-1,-1,-1,-1,-1,-1,-1,-1,-1,-1,-1,-1,-1,-1,-1],"split_conditions":[3.7554975E0,1.0173004E1,1E0,-1.771708E0,1E0,1E0,1E0,1E0,3.4147193E0,1E0,1.0088019E1,1E0,6.94969E-4,1E0,-2.3300773E-19,1E0,5.0611957E-4,1.1372019E0,1E0,9.851186E0,1.0007554E1,2.8159168E-2,1.1837015E-2,-2.3300773E-19,8.687113E-4,1E0,1E0,8.165397E-1,-2.3104066E-2,-1.8804392E-2,-2.2302981E-2,-1.6205825E-3,-1.8812744E-2,-2.059352E-2,-2.7854087E-2,-2.5609804E-2,-2.1318892E-2,-2.5222525E-2,3.067224E-2,8.692221E-3,-1.8361231E-4,-2.8429558E-3,2.1456342E-2,1.1020756E-2,4.2970072E-2,-1.7790077E-2,-2.614706E-2,-1.5638677E-2,-1.9724306E-2,-2.3249505E-2,-1.6257325E-2,-2.5053706E-2,-2.2526622E-2],"split_indices":[55,4,66,17,75,69,73,66,22,71,6,67,5,71,8,69,4,42,69,5,5,0,0,8,5,70,71,7,0,0,0,0,0,0,0,0,0,0,0,0,0,0,0,0,0,0,0,0,0,0,0,0,0],"split_type":[0,0,0,0,0,0,0,0,0,0,0,0,0,0,0,0,0,0,0,0,0,0,0,0,0,0,0,0,0,0,0,0,0,0,0,0,0,0,0,0,0,0,0,0,0,0,0,0,0,0,0,0,0],"sum_hessian":[1.9386881E5,1.862598E5,7.6090146E3,1.8366062E5,2.5991794E3,5.8639004E3,1.7451144E3,6.426905E3,1.7723372E5,2.1995588E3,3.996205E2,4.2025283E3,1.6613721E3,1.460883E3,2.842313E2,4.844091E3,1.5828137E3,1.7650264E5,7.310747E2,1.7495013E3,4.5005753E2,1.5323192E2,2.463886E2,2.782193E3,1.4203352E3,1.1428685E3,5.185036E2,1.1573557E3,3.035273E2,5.5272064E1,2.2895923E2,3.144942E3,1.6991489E3,1.5139133E3,6.890033E1,1.5132483E5,2.5177816E4,4.260039E2,3.050708E2,5.270131E2,1.2224883E3,1.9452937E2,2.5552815E2,3.6247452E2,2.4197185E3,1.2422512E3,1.7808405E2,9.745369E2,1.6833162E2,4.256354E2,9.286819E1,1.0058143E3,1.5154147E2],"tree_param":{"num_deleted":"0","num_feature":"77","num_nodes":"53","size_leaf_vector":"1"}},{"base_weights":[-7.6544183E-1,-3.6317343E-1,-8.3390695E-1,-5.749682E-1,3.9966324E-1,-8.378141E-1,-3.9210513E-2,-6.764101E-1,2.0066966E-1,-2.587102E-1,1.1629186E0,-7.801275E-1,-8.6859334E-1,-8.305086E-1,1.0188501E0,-6.029539E-1,-8.591429E-1,-2.890073E-1,2.7974084E-1,2.346736E-1,-5.693526E-1,1.595744E0,4.05745E-1,-8.123234E-1,-5.4105896E-1,-8.737189E-1,-5.535948E-1,-2.6418978E-2,-7.6925206E-1,1.1461316E0,-1.9147977E-2,-2.0003902E-2,-1.4246596E-2,-2.7589094E-2,-2.4482992E-2,-1.3314951E-2,3.2056442E-3,6.0482686E-3,1.8228397E-2,9.190767E-3,-2.4370687E-2,-2.4669234E-2,-1.28680505E-2,5.4113875E-4,5.0455816E-2,1.9095445E-2,-1.6351698E-2,-2.0535E-2,-2.5414446E-2,-1.9758696E-2,-8.295643E-4,-1.415087E-2,-2.6310185E-2,-1.205585E-2,-2.2825768E-2,-2.465287E-2,-1.5543197E-2,1.56068085E-2,3.9929774E-2],"categories":[],"categories_nodes":[],"categories_segments":[],"categories_sizes":[],"default_left":[0,0,0,0,0,0,0,0,0,0,0,0,0,0,0,0,0,0,0,0,0,0,0,0,0,0,0,0,0,0,0,0,0,0,0,0,0,0,0,0,0,0,0,0,0,0,0,0,0,0,0,0,0,0,0,0,0,0,0],"id":11,"left_children":[1,3,5,7,9,11,13,15,17,19,21,23,25,27,29,31,33,35,37,39,41,43,45,47,49,51,53,-1,55,57,-1,-1,-1,-1,-1,-1,-1,-1,-1,-1,-1,-1,-1,-1,-1,-1,-1,-1,-1,-1,-1,-1,-1,-1,-1,-1,-1,-1,-1],"loss_changes":[5.2172656E3,4.452211E3,5.0264844E2,1.6971362E3,3.0096062E3,2.853672E2,6.6486035E2,2.5550293E2,9.669621E1,4.9303937E2,9.0831665E2,4.310547E2,1.6910156E2,7.1746826E-1,7.240173E1,1.10944824E2,1.3483398E1,2.1339365E1,5.4925797E1,9.356256E1,6.9754456E1,2.3969678E2,2.2198825E2,2.1933789E2,4.0176465E2,1.3617969E2,5.2671936E1,0E0,2.3747025E0,3.586084E1,0E0,0E0,0E0,0E0,0E0,0E0,0E0,0E0,0E0,0E0,0E0,0E0,0E0,0E0,0E0,0E0,0E0,0E0,0E0,0E0,0E0,0E0,0E0,0E0,0E0,0E0,0E0,0E0,0E0],"parents":[2147483647,0,0,1,1,2,2,3,3,4,4,5,5,6,6,7,7,8,8,9,9,10,10,11,11,12,12,13,13,14,14,15,15,16,16,17,17,18,18,19,19,20,20,21,21,22,22,23,23,24,24,25,25,26,26,28,28,29,29],"right_children":[2,4,6,8,10,12,14,16,18,20,22,24,26,28,30,32,34,36,38,40,42,44,46,48,50,52,54,-1,56,58,-1,-1,-1,-1,-1,-1,-1,-1,-1,-1,-1,-1,-1,-1,-1,-1,-1,-1,-1,-1,-1,-1,-1,-1,-1,-1,-1,-1,-1],"split_conditions":[1.692287E0,1E0,2.5529473E0,1.8220305E-1,1.0122391E-3,-3.7266502E-1,1E0,4.1402996E-1,1.0296291E0,-3.5310972E-2,5.806179E-2,5.683789E-1,2.4974396E0,1E0,3.367584E-1,3.6491144E-1,1E0,1E0,1E0,8.709269E-2,2.0527342E-4,-2.3300773E-19,8.32219E-2,-1.1852988E0,1.2086954E0,-3.7161725E0,1E0,-2.6418978E-2,7.3544934E-2,2.0708705E-1,-1.9147977E-2,-2.0003902E-2,-1.4246596E-2,-2.7589094E-2,-2.4482992E-2,-1.3314951E-2,3.2056442E-3,6.0482686E-3,1.8228397E-2,9.190767E-3,-2.4370687E-2,-2.4669234E-2,-1.28680505E-2,5.4113875E-4,5.0455816E-2,1.9095445E-2,-1.6351698E-2,-2.0535E-2,-2.5414446E-2,-1.9758696E-2,-8.295643E-4,-1.415087E-2,-2.6310185E-2,-1.205585E-2,-2.2825768E-2,-2.465287E-2,-1.5543197E-2,1.56068085E-2,3.9929774E-2],"split_indices":[9,68,17,4,4,44,69,15,12,16,12,34,17,67,12,15,69,73,75,12,8,8,12,34,21,31,69,0,12,12,0,0,0,0,0,0,0,0,0,0,0,0,0,0,0,0,0,0,0,0,0,0,0,0,0,0,0,0,0],"split_type":[0,0,0,0,0,0,0,0,0,0,0,0,0,0,0,0,0,0,0,0,0,0,0,0,0,0,0,0,0,0,0,0,0,0,0,0,0,0,0,0,0,0,0,0,0,0,0,0,0,0,0,0,0,0,0,0,0,0,0],"sum_hessian":[1.8944456E5,2.7554383E4,1.6189019E5,2.1566799E4,5.9875835E3,1.6109808E5,7.920978E2,1.9072525E4,2.4942742E3,3.2150164E3,2.7725671E3,5.605876E4,1.0503932E5,4.5330038E2,3.387974E2,1.3606992E4,5.465533E3,3.4640158E2,2.1478726E3,1.2422435E3,1.9727727E3,1.7634268E3,1.0091405E3,4.9403133E4,6.655628E3,1.0335576E5,1.6835684E3,2.4194743E2,2.1135294E2,3.1491724E2,2.3880156E1,9.077543E3,4.5294497E3,2.2637092E3,3.2018237E3,2.4892436E2,9.7477234E1,1.7358379E3,4.1203467E2,1.1633048E3,7.8938705E1,7.024638E2,1.2703088E3,9.133447E1,1.6720923E3,8.123137E2,1.968268E2,1.0582201E4,3.8820934E4,5.4153027E3,1.2403253E3,8.3942474E2,1.0251633E5,9.736909E2,7.098775E2,1.7292513E2,3.8427807E1,7.267321E1,2.4224403E2],"tree_param":{"num_deleted":"0","num_feature":"77","num_nodes":"59","size_leaf_vector":"1"}},{"base_weights":[-7.58013E-1,-8.630377E-1,-4.9055174E-1,-8.880704E-1,-7.2209966E-1,-6.003215E-1,1.1557118E-1,-8.9462507E-1,-7.7746576E-1,-6.5984267E-1,-2.7758501E-2,-6.500457E-1,1.86987E-1,-3.9699528E-1,1.05492E0,-9.0107065E-1,-8.435282E-1,-7.134084E-1,-2.71872E-2,-9.2160666E-1,-6.200532E-1,-7.0196784E-1,-4.4537756E-1,-2.5531188E-1,2.702859E-1,2.0048916E-1,-6.0481757E-1,1.4007764E0,4.7576463E-1,-2.7239986E-2,-2.602573E-2,-1.453127E-2,-2.6085764E-2,-2.288484E-2,-1.5659349E-2,-2.3671996E-2,-2.7808527E-2,-2.063146E-2,-1.2461563E-2,-2.1862451E-2,-7.0239645E-3,-1.563452E-2,8.260305E-5,-2.6577935E-2,-5.426323E-3,3.4267665E-3,1.128863E-2,8.338385E-3,-2.3821002E-2,-2.3936218E-2,-1.4604457E-2,5.2401014E-2,3.135623E-2,2.0739079E-2,-1.4483099E-2],"categories":[],"categories_nodes":[],"categories_segments":[],"categories_sizes":[],"default_left":[0,0,0,0,0,0,0,0,0,0,0,0,0,0,0,0,0,0,0,0,0,0,0,0,0,0,0,0,0,0,0,0,0,0,0,0,0,0,0,0,0,0,0,0,0,0,0,0,0,0,0,0,0,0,0],"id":12,"left_children":[1,3,5,7,9,11,13,15,17,19,-1,21,23,25,27,29,31,33,-1,35,37,39,41,43,45,47,49,51,53,-1,-1,-1,-1,-1,-1,-1,-1,-1,-1,-1,-1,-1,-1,-1,-1,-1,-1,-1,-1,-1,-1,-1,-1,-1,-1],"loss_changes":[5.2109062E3,4.6932812E2,3.4805596E3,8.132031E1,2.5361133E2,1.7340215E3,3.8627925E3,3.4398438E1,5.1619873E1,1.596914E2,0E0,4.424004E2,9.703517E1,6.4465E2,5.666416E2,2.125E1,1.114043E2,3.9676025E1,0E0,7.052002E-1,1.8472363E2,4.161377E2,2.8634668E2,1.9442957E1,3.660315E1,1.03466675E2,8.735034E1,2.1622339E2,2.1942691E2,0E0,0E0,0E0,0E0,0E0,0E0,0E0,0E0,0E0,0E0,0E0,0E0,0E0,0E0,0E0,0E0,0E0,0E0,0E0,0E0,0E0,0E0,0E0,0E0,0E0,0E0],"parents":[2147483647,0,0,1,1,2,2,3,3,4,4,5,5,6,6,7,7,8,8,9,9,11,11,12,12,13,13,14,14,15,15,16,16,17,17,19,19,20,20,21,21,22,22,23,23,24,24,25,25,26,26,27,27,28,28],"right_children":[2,4,6,8,10,12,14,16,18,20,-1,22,24,26,28,30,32,34,-1,36,38,40,42,44,46,48,50,52,54,-1,-1,-1,-1,-1,-1,-1,-1,-1,-1,-1,-1,-1,-1,-1,-1,-1,-1,-1,-1,-1,-1,-1,-1,-1,-1],"split_conditions":[1E0,1.1372019E0,1E0,5.924611E-1,1E0,1.0173004E1,3.3836596E-2,1.4352384E0,1E0,-1.784432E-2,-2.7758501E-2,6.0029775E-1,1.0412414E0,6.877197E0,5.806179E-2,8.388887E0,7.992144E-3,9.986628E-1,-2.71872E-2,1.0064044E-1,1.0509185E0,1.4165808E0,2.429374E-2,7.1416E-1,1.3025196E0,8.709269E-2,7.9846234E0,6.90802E-1,8.32219E-2,-2.7239986E-2,-2.602573E-2,-1.453127E-2,-2.6085764E-2,-2.288484E-2,-1.5659349E-2,-2.3671996E-2,-2.7808527E-2,-2.063146E-2,-1.2461563E-2,-2.1862451E-2,-7.0239645E-3,-1.563452E-2,8.260305E-5,-2.6577935E-2,-5.426323E-3,3.4267665E-3,1.128863E-2,8.338385E-3,-2.3821002E-2,-2.3936218E-2,-1.4604457E-2,5.2401014E-2,3.135623E-2,2.0739079E-2,-1.4483099E-2],"split_indices":[63,42,68,5,64,4,17,17,64,33,0,48,12,13,12,13,5,12,0,12,12,34,4,12,12,12,13,1,12,0,0,0,0,0,0,0,0,0,0,0,0,0,0,0,0,0,0,0,0,0,0,0,0,0,0],"split_type":[0,0,0,0,0,0,0,0,0,0,0,0,0,0,0,0,0,0,0,0,0,0,0,0,0,0,0,0,0,0,0,0,0,0,0,0,0,0,0,0,0,0,0,0,0,0,0,0,0,0,0,0,0,0,0],"sum_hessian":[1.8552136E5,1.3321086E5,5.2310496E4,1.1311473E5,2.0096133E4,4.4289598E4,8.0208994E3,1.06779625E5,6.335103E3,1.5385998E4,4.710134E3,4.1658723E4,2.6308738E3,5.1896724E3,2.831227E3,9.480403E4,1.19756E4,4.234993E3,2.1001096E3,2.0272335E3,1.3358765E4,3.3226957E4,8.431764E3,4.1662448E2,2.2142493E3,1.339287E3,3.8503855E3,1.7717599E3,1.0594672E3,7.8552984E4,1.6251042E4,8.0966766E2,1.1165932E4,3.3636477E3,8.713454E2,8.433497E1,1.9428986E3,1.0037918E4,3.3208467E3,3.1427387E4,1.7995718E3,7.2121245E3,1.219639E3,4.28332E1,3.737913E2,8.964844E2,1.317765E3,1.2431838E3,9.610312E1,1.4584851E3,2.3919004E3,8.960763E2,8.756836E2,8.651962E2,1.9427095E2],"tree_param":{"num_deleted":"0","num_feature":"77","num_nodes":"55","size_leaf_vector":"1"}},{"base_weights":[-7.532177E-1,-7.9835314E-1,-8.732749E-2,-8.594201E-1,-6.113096E-1,-4.3462622E-1,8.656924E-1,-8.8483024E-1,-7.154785E-1,-6.908461E-1,-3.4179085E-1,-7.122638E-1,1.5057155E-1,1.2800046E0,6.461424E-2,-8.915989E-1,-7.7157646E-1,-6.547581E-1,-2.7719969E-2,-7.1801823E-1,-2.1058187E-1,-4.260965E-1,1.32804E-1,-2.77422E-2,-6.48086E-1,2.8742376E-1,-1.2980541E-3,9.599956E-1,1.4803503E0,3.0483347E-1,-7.333066E-1,-2.6925992E-2,-2.514743E-2,-2.127812E-2,-2.7128698E-2,-2.7575625E-2,-1.844528E-2,-2.3137806E-2,-1.7410526E-2,-2.4192922E-2,-1.5213792E-3,-1.6023217E-2,-2.4302963E-3,5.927484E-3,-2.3673614E-2,-1.7184546E-2,-2.3595858E-2,-1.3345283E-3,1.4392961E-2,1.6140532E-3,-1.1771058E-2,4.551094E-2,8.393755E-3,5.1982753E-2,3.4727972E-2,1.1629782E-2,-2.7125752E-2,-2.5647985E-2,-1.7085712E-2],"categories":[],"categories_nodes":[],"categories_segments":[],"categories_sizes":[],"default_left":[0,0,0,0,0,0,0,0,0,0,0,0,0,0,0,0,0,0,0,0,0,0,0,0,0,0,0,0,0,0,0,0,0,0,0,0,0,0,0,0,0,0,0,0,0,0,0,0,0,0,0,0,0,0,0,0,0,0,0],"id":13,"left_children":[1,3,5,7,9,11,13,15,17,19,21,23,25,27,29,31,33,35,-1,37,39,41,43,-1,45,47,49,51,53,55,57,-1,-1,-1,-1,-1,-1,-1,-1,-1,-1,-1,-1,-1,-1,-1,-1,-1,-1,-1,-1,-1,-1,-1,-1,-1,-1,-1,-1],"loss_changes":[5.4641094E3,1.9442422E3,3.8205532E3,4.6883594E2,8.981699E2,1.3746101E3,1.0231665E3,8.292969E1,2.4330371E2,4.2213086E2,3.82229E2,7.764429E1,5.6594242E1,1.2885645E2,2.0187128E2,3.184375E1,5.0291504E1,1.5694287E2,0E0,2.2403125E2,1.6515427E2,3.0228308E2,8.6247284E1,0E0,4.5504395E1,9.1460144E1,2.7854053E1,2.9708838E2,9.964673E1,8.139258E1,4.3681793E0,0E0,0E0,0E0,0E0,0E0,0E0,0E0,0E0,0E0,0E0,0E0,0E0,0E0,0E0,0E0,0E0,0E0,0E0,0E0,0E0,0E0,0E0,0E0,0E0,0E0,0E0,0E0,0E0],"parents":[2147483647,0,0,1,1,2,2,3,3,4,4,5,5,6,6,7,7,8,8,9,9,10,10,11,11,12,12,13,13,14,14,15,15,16,16,17,17,19,19,20,20,21,21,22,22,24,24,25,25,26,26,27,27,28,28,29,29,30,30],"right_children":[2,4,6,8,10,12,14,16,18,20,22,24,26,28,30,32,34,36,-1,38,40,42,44,-1,46,48,50,52,54,56,58,-1,-1,-1,-1,-1,-1,-1,-1,-1,-1,-1,-1,-1,-1,-1,-1,-1,-1,-1,-1,-1,-1,-1,-1,-1,-1,-1,-1],"split_conditions":[2.4870098E0,1E0,1E0,1.1372019E0,6.0029775E-1,1.09457625E-2,1.0697681E0,5.924611E-1,1E0,1.4165808E0,1E0,1E0,7.9779315E-1,4.351599E-1,6.94969E-4,1.6990594E0,1E0,-1.784432E-2,-2.7719969E-2,9.6615267E-1,1E0,6.580621E-2,1.7769029E0,-2.77422E-2,1E0,3.6263326E-1,1E0,1.8131663E-1,8.5218817E-1,1.8176669E0,3.8439126E0,-2.6925992E-2,-2.514743E-2,-2.127812E-2,-2.7128698E-2,-2.7575625E-2,-1.844528E-2,-2.3137806E-2,-1.7410526E-2,-2.4192922E-2,-1.5213792E-3,-1.6023217E-2,-2.4302963E-3,5.927484E-3,-2.3673614E-2,-1.7184546E-2,-2.3595858E-2,-1.3345283E-3,1.4392961E-2,1.6140532E-3,-1.1771058E-2,4.551094E-2,8.393755E-3,5.1982753E-2,3.4727972E-2,1.1629782E-2,-2.7125752E-2,-2.5647985E-2,-1.7085712E-2],"split_indices":[52,63,68,42,48,5,3,5,64,34,68,63,3,3,5,17,64,33,0,47,69,35,3,0,66,3,70,3,3,11,3,0,0,0,0,0,0,0,0,0,0,0,0,0,0,0,0,0,0,0,0,0,0,0,0,0,0,0,0],"split_type":[0,0,0,0,0,0,0,0,0,0,0,0,0,0,0,0,0,0,0,0,0,0,0,0,0,0,0,0,0,0,0,0,0,0,0,0,0,0,0,0,0,0,0,0,0,0,0,0,0,0,0,0,0,0,0,0,0,0,0],"sum_hessian":[1.8180294E5,1.7026202E5,1.1540928E4,1.28353055E5,4.190896E4,8.45889E3,3.0820378E3,1.0909014E5,1.926292E4,3.2358283E4,9.550676E3,5.7368955E3,2.7219944E3,2.0310135E3,1.0510243E3,1.0293153E5,6.15861E3,1.492187E4,4.34105E3,3.0625096E4,1.7331887E3,8.1101196E3,1.4405557E3,1.3277272E3,4.409168E3,1.4313179E3,1.2906766E3,7.842059E2,1.2468076E3,8.0829865E2,2.4272559E2,9.261428E4,1.0317246E4,4.1953433E3,1.9632667E3,1.9541442E3,1.2967726E4,2.2080861E4,8.544234E3,3.6579376E2,1.3673949E3,6.176387E3,1.9337324E3,1.3467147E3,9.384089E1,2.8596086E3,1.5495594E3,5.254173E2,9.059005E2,1.1320404E3,1.5863625E2,4.3046066E2,3.5374518E2,6.971956E2,5.4961206E2,7.571111E2,5.118757E1,1.3686719E2,1.058584E2],"tree_param":{"num_deleted":"0","num_feature":"77","num_nodes":"59","size_leaf_vector":"1"}},{"base_weights":[-7.454928E-1,-7.947486E-1,-4.1382913E-2,-5.7490724E-1,-8.1941545E-1,1.0703267E0,-3.9336023E-1,-7.1825373E-1,-3.058472E-1,-8.4410965E-1,-6.764081E-1,-8.0169004E-1,1.1473225E0,-6.442884E-1,1.8523745E-1,-8.632746E-1,-5.986563E-1,-3.0721119E-2,-5.756181E-1,-8.4804386E-1,-1.513128E-1,-7.7652407E-1,-5.6436557E-1,-1.9020364E-2,-2.692173E-2,1.4000238E0,8.933326E-1,1.3346587E-1,-6.9627815E-1,-2.835069E-1,2.5593168E-1,-2.434323E-2,-2.686551E-2,-1.935947E-2,-1.23390425E-2,-7.056199E-3,5.827104E-3,-1.878133E-2,-1.3479075E-2,-1.8962253E-2,-2.572944E-2,-2.3779849E-2,2.7160013E-2,-2.7544932E-2,-2.188853E-2,1.7512094E-2,-1.8123882E-2,4.6548836E-2,2.0464415E-2,9.882239E-3,3.1307396E-2,-2.2420129E-2,8.401824E-3,-1.870901E-2,-2.7769612E-2,-2.7294962E-2,-7.2131064E-3,9.675155E-3,1.0594592E-3],"categories":[],"categories_nodes":[],"categories_segments":[],"categories_sizes":[],"default_left":[0,0,0,0,0,0,0,0,0,0,0,0,0,0,0,0,0,0,0,0,0,0,0,0,0,0,0,0,0,0,0,0,0,0,0,0,0,0,0,0,0,0,0,0,0,0,0,0,0,0,0,0,0,0,0,0,0,0,0],"id":14,"left_children":[1,3,5,7,9,11,13,15,17,19,21,23,25,27,29,31,33,35,37,39,41,43,45,-1,-1,47,49,51,53,55,57,-1,-1,-1,-1,-1,-1,-1,-1,-1,-1,-1,-1,-1,-1,-1,-1,-1,-1,-1,-1,-1,-1,-1,-1,-1,-1,-1,-1],"loss_changes":[6.160422E3,8.998047E2,4.5451924E3,6.458706E2,5.265625E2,4.0353662E2,1.2810079E3,1.8902441E2,4.3227264E2,3.4678125E2,2.4616699E2,1.2112503E0,1.7097583E2,2.4892603E2,8.8533424E1,7.52417E0,5.2118652E1,1.3273997E2,1.8450195E1,2.6197656E2,4.8860284E2,7.644824E1,4.741377E2,0E0,0E0,1.4513892E2,1.13278564E2,5.0105057E1,9.554126E1,9.231352E0,3.406572E1,0E0,0E0,0E0,0E0,0E0,0E0,0E0,0E0,0E0,0E0,0E0,0E0,0E0,0E0,0E0,0E0,0E0,0E0,0E0,0E0,0E0,0E0,0E0,0E0,0E0,0E0,0E0,0E0],"parents":[2147483647,0,0,1,1,2,2,3,3,4,4,5,5,6,6,7,7,8,8,9,9,10,10,11,11,12,12,13,13,14,14,15,15,16,16,17,17,18,18,19,19,20,20,21,21,22,22,25,25,26,26,27,27,28,28,29,29,30,30],"right_children":[2,4,6,8,10,12,14,16,18,20,22,24,26,28,30,32,34,36,38,40,42,44,46,-1,-1,48,50,52,54,56,58,-1,-1,-1,-1,-1,-1,-1,-1,-1,-1,-1,-1,-1,-1,-1,-1,-1,-1,-1,-1,-1,-1,-1,-1,-1,-1,-1,-1],"split_conditions":[2.4870098E0,1.4446352E0,6.967415E-2,2.1081212E0,1.1372019E0,1E0,1.3159109E-2,7.4295527E-1,1.7418538E-1,3.3766587E0,1E0,4.6053466E-1,6.90802E-1,8.32219E-2,1.0412414E0,9.210693E-1,1E0,1E0,2.763208E0,-1.7653617E0,1E0,1E0,3.057921E-1,-1.9020364E-2,-2.692173E-2,1E0,2.763208E0,1E0,1.692287E0,6.406151E-1,2.2721953E0,-2.434323E-2,-2.686551E-2,-1.935947E-2,-1.23390425E-2,-7.056199E-3,5.827104E-3,-1.878133E-2,-1.3479075E-2,-1.8962253E-2,-2.572944E-2,-2.3779849E-2,2.7160013E-2,-2.7544932E-2,-2.188853E-2,1.7512094E-2,-1.8123882E-2,4.6548836E-2,2.0464415E-2,9.882239E-3,3.1307396E-2,-2.2420129E-2,8.401824E-3,-1.870901E-2,-2.7769612E-2,-2.7294962E-2,-7.2131064E-3,9.675155E-3,1.0594592E-3],"split_indices":[52,9,12,18,42,68,4,9,12,22,69,1,1,12,12,1,68,68,1,60,69,65,12,0,0,72,1,68,9,12,0,0,0,0,0,0,0,0,0,0,0,0,0,0,0,0,0,0,0,0,0,0,0,0,0,0,0,0,0],"split_type":[0,0,0,0,0,0,0,0,0,0,0,0,0,0,0,0,0,0,0,0,0,0,0,0,0,0,0,0,0,0,0,0,0,0,0,0,0,0,0,0,0,0,0,0,0,0,0,0,0,0,0,0,0,0,0,0,0,0,0],"sum_hessian":[1.7762856E5,1.660149E5,1.1613648E4,1.6750639E4,1.4926428E5,2.792279E3,8.821369E3,1.0927272E4,5.823366E3,1.2728079E5,2.198348E4,1.0993744E2,2.6823416E3,6.152862E3,2.6685073E3,4.935902E3,5.99137E3,2.8836187E3,2.9397473E3,1.2656186E5,7.189355E2,1.1606514E4,1.0376968E4,4.27173E1,6.722014E1,1.34232E3,1.3400216E3,3.8542538E2,5.767436E3,3.493174E2,2.31919E3,1.9029137E3,3.032988E3,4.7948135E3,1.1965569E3,1.5105194E3,1.3730994E3,2.0981794E3,8.415679E2,5.3914053E3,1.2117045E5,4.4754224E2,2.7139322E2,2.8828323E3,8.723682E3,3.469114E2,1.0030057E4,1.1073121E3,2.3500789E2,2.8258487E2,1.0574368E3,5.4409912E1,3.3101547E2,4.383027E3,1.3844094E3,2.118083E1,3.2813657E2,1.7812236E3,5.3796625E2],"tree_param":{"num_deleted":"0","num_feature":"77","num_nodes":"59","size_leaf_vector":"1"}},{"base_weights":[-7.442105E-1,-8.521545E-1,-4.7793204E-1,-8.786683E-1,-7.0507556E-1,-5.8592397E-1,8.4156364E-2,-8.859245E-1,-7.5639176E-1,-2.7587548E-2,-6.420577E-1,-6.316638E-1,1.323557E-1,6.257007E-1,-5.834267E-1,-9.00868E-1,-8.607708E-1,-2.6992012E-2,-6.841961E-1,-9.154545E-1,-6.013638E-1,-6.859666E-1,-4.1570964E-1,-4.3863166E-2,2.7488953E-1,7.105386E-1,-7.007461E-1,-7.7978027E-1,-4.730559E-1,-2.7047899E-2,-1.8109098E-2,-2.621407E-2,-2.3312852E-2,-2.233468E-2,-1.5617632E-2,-2.764523E-2,-2.4312528E-2,-2.0473674E-2,-1.302256E-2,-2.1379681E-2,-7.66194E-3,-2.0356649E-3,-1.5936518E-2,5.4817754E-3,-1.5055354E-2,4.1965913E-2,7.4943635E-3,7.917938E-3,2.7483039E-2,-2.168851E-2,-1.1326545E-2,-2.4647398E-2,-1.9672189E-2,-2.0516447E-3,-1.6915333E-2],"categories":[],"categories_nodes":[],"categories_segments":[],"categories_sizes":[],"default_left":[0,0,0,0,0,0,0,0,0,0,0,0,0,0,0,0,0,0,0,0,0,0,0,0,0,0,0,0,0,0,0,0,0,0,0,0,0,0,0,0,0,0,0,0,0,0,0,0,0,0,0,0,0,0,0],"id":15,"left_children":[1,3,5,7,9,11,13,15,17,-1,19,21,23,25,27,29,31,-1,33,35,37,39,41,43,45,47,49,51,53,-1,-1,-1,-1,-1,-1,-1,-1,-1,-1,-1,-1,-1,-1,-1,-1,-1,-1,-1,-1,-1,-1,-1,-1,-1,-1],"loss_changes":[4.9690547E3,4.791172E2,3.02738E3,9.18125E1,2.5347461E2,1.37454E3,2.9064934E3,3.6203125E1,5.9877197E1,0E0,1.6110791E2,4.609453E2,6.2940475E1,4.9999854E2,7.7666504E1,1.28203125E1,3.932617E1,0E0,3.8001587E1,4.489746E-1,1.7130908E2,3.6095996E2,3.175979E2,1.1644052E2,3.8694824E1,3.828059E2,1.6455078E0,6.1712646E0,8.474255E1,0E0,0E0,0E0,0E0,0E0,0E0,0E0,0E0,0E0,0E0,0E0,0E0,0E0,0E0,0E0,0E0,0E0,0E0,0E0,0E0,0E0,0E0,0E0,0E0,0E0,0E0],"parents":[2147483647,0,0,1,1,2,2,3,3,4,4,5,5,6,6,7,7,8,8,10,10,11,11,12,12,13,13,14,14,15,15,16,16,18,18,19,19,20,20,21,21,22,22,23,23,24,24,25,25,26,26,27,27,28,28],"right_children":[2,4,6,8,10,12,14,16,18,-1,20,22,24,26,28,30,32,-1,34,36,38,40,42,44,46,48,50,52,54,-1,-1,-1,-1,-1,-1,-1,-1,-1,-1,-1,-1,-1,-1,-1,-1,-1,-1,-1,-1,-1,-1,-1,-1,-1,-1],"split_conditions":[1E0,1.1372019E0,1E0,5.924611E-1,1E0,1.0173004E1,5.7792522E-2,1.0780139E0,1E0,-2.7587548E-2,-1.784432E-2,6.0029775E-1,1.2425224E0,1.7769029E0,7.9846234E0,2.4974396E0,1.4352384E0,-2.6992012E-2,1.4867964E0,1E0,8.5157293E-1,1.4165808E0,-3.584222E-1,7.9779315E-1,1.2580055E0,5.0611957E-4,3.9345708E0,3.5250616E-1,3.9889657E-1,-2.7047899E-2,-1.8109098E-2,-2.621407E-2,-2.3312852E-2,-2.233468E-2,-1.5617632E-2,-2.764523E-2,-2.4312528E-2,-2.0473674E-2,-1.302256E-2,-2.1379681E-2,-7.66194E-3,-2.0356649E-3,-1.5936518E-2,5.4817754E-3,-1.5055354E-2,4.1965913E-2,7.4943635E-3,7.917938E-3,2.7483039E-2,-2.168851E-2,-1.1326545E-2,-2.4647398E-2,-1.9672189E-2,-2.0516447E-3,-1.6915333E-2],"split_indices":[63,42,68,5,65,4,16,12,65,0,33,48,12,3,13,17,17,0,3,68,12,34,14,3,12,4,3,7,3,0,0,0,0,0,0,0,0,0,0,0,0,0,0,0,0,0,0,0,0,0,0,0,0,0,0],"split_type":[0,0,0,0,0,0,0,0,0,0,0,0,0,0,0,0,0,0,0,0,0,0,0,0,0,0,0,0,0,0,0,0,0,0,0,0,0,0,0,0,0,0,0,0,0,0,0,0,0,0,0,0,0,0,0],"sum_hessian":[1.7289116E5,1.23019336E5,4.9871816E4,1.0422569E5,1.8793646E4,4.183431E4,8.0375083E3,9.8381234E4,5.844451E3,4.26437E3,1.4529276E4,3.9329914E4,2.5043965E3,4.4377017E3,3.599807E3,6.1694523E4,3.6686715E4,1.953795E3,3.890656E3,1.8796439E3,1.2649632E4,3.1425598E4,7.904316E3,1.1201785E3,1.384218E3,4.17137E3,2.6633154E2,1.2931617E3,2.3066453E3,6.154162E4,1.528992E2,3.173493E4,4.9517847E3,2.840369E3,1.0502872E3,1.7698741E3,1.0976976E2,8.5175E3,4.132132E3,2.9590717E4,1.8348801E3,1.9707972E3,5.933519E3,7.49808E2,3.7037045E2,2.901421E1,1.3552039E3,1.3155272E3,2.8558428E3,2.4805283E2,1.8278704E1,9.63017E2,3.3014474E2,4.2299634E2,1.8836488E3],"tree_param":{"num_deleted":"0","num_feature":"77","num_nodes":"55","size_leaf_vector":"1"}},{"base_weights":[-7.3531216E-1,-7.822059E-1,-7.73642E-2,-8.2692635E-1,-5.638323E-1,9.315003E-1,-3.8069403E-1,-8.453218E-1,-6.512165E-1,-6.754669E-1,-2.7700257E-1,1.1409587E0,-2.6370473E-2,-6.3998204E-1,1.9379106E-1,-4.7179276E-1,-8.5680455E-1,-7.686571E-1,-5.0949496E-1,-6.179502E-1,-8.947082E-1,-5.7656918E-2,-6.3353217E-1,1.2488103E0,5.1757616E-1,-1.3717854E-1,4.5832623E-2,3.204888E-2,-6.850307E-1,2.9838046E-2,3.1029993E-1,-2.5037922E-2,-6.105799E-4,-2.4976375E-2,-2.677084E-2,-1.7842436E-2,-2.3913227E-2,-1.1678192E-2,-2.5163554E-2,-2.6383115E-2,-1.694952E-2,-2.7363786E-2,-2.5289996E-2,3.0504256E-3,-2.0516869E-2,-2.3812098E-2,-1.735051E-2,4.2271193E-2,2.302611E-2,-1.2552979E-2,2.5584623E-2,-6.7020995E-3,2.8706642E-2,6.171235E-3,-2.1538198E-2,-1.8346187E-2,-2.762634E-2,8.045583E-3,-1.3906565E-2,1.2387084E-2,5.461344E-4],"categories":[],"categories_nodes":[],"categories_segments":[],"categories_sizes":[],"default_left":[0,0,0,0,0,0,0,0,0,0,0,0,0,0,0,0,0,0,0,0,0,0,0,0,0,0,0,0,0,0,0,0,0,0,0,0,0,0,0,0,0,0,0,0,0,0,0,0,0,0,0,0,0,0,0,0,0,0,0,0,0],"id":16,"left_children":[1,3,5,7,9,11,13,15,17,19,21,23,25,27,29,31,33,35,37,39,41,43,45,47,49,51,-1,53,55,57,59,-1,-1,-1,-1,-1,-1,-1,-1,-1,-1,-1,-1,-1,-1,-1,-1,-1,-1,-1,-1,-1,-1,-1,-1,-1,-1,-1,-1,-1,-1],"loss_changes":[5.2243047E3,1.5431406E3,3.4481553E3,4.234922E2,8.6020605E2,5.226238E2,1.2905276E3,5.0895312E2,2.066167E2,2.4334668E2,5.888151E2,1.4305469E2,8.086402E1,1.8073242E2,5.1466316E1,5.804459E2,9.8640625E1,3.3168457E1,2.2291284E2,2.1175732E2,2.8493652E0,4.6534445E2,2.4894531E1,1.3937476E2,9.981409E1,4.1541996E1,0E0,4.911243E1,9.6399414E1,1.3190112E2,4.7201294E1,0E0,0E0,0E0,0E0,0E0,0E0,0E0,0E0,0E0,0E0,0E0,0E0,0E0,0E0,0E0,0E0,0E0,0E0,0E0,0E0,0E0,0E0,0E0,0E0,0E0,0E0,0E0,0E0,0E0,0E0],"parents":[2147483647,0,0,1,1,2,2,3,3,4,4,5,5,6,6,7,7,8,8,9,9,10,10,11,11,12,12,13,13,14,14,15,15,16,16,17,17,18,18,19,19,20,20,21,21,22,22,23,23,24,24,25,25,27,27,28,28,29,29,30,30],"right_children":[2,4,6,8,10,12,14,16,18,20,22,24,26,28,30,32,34,36,38,40,42,44,46,48,50,52,-1,54,56,58,60,-1,-1,-1,-1,-1,-1,-1,-1,-1,-1,-1,-1,-1,-1,-1,-1,-1,-1,-1,-1,-1,-1,-1,-1,-1,-1,-1,-1,-1,-1],"split_conditions":[2.4870098E0,7.324908E-1,6.967415E-2,1.1372019E0,3.7474966E-1,1.1785581E0,1.09457625E-2,-1.7653617E0,8.5157293E-1,1E0,2.9611513E-1,1E0,6.386797E-2,8.32219E-2,1.2425224E0,1.7895453E-2,1E0,-1.2316405E-3,4.3138143E-1,5.016081E-1,3.916735E-1,1E0,8.970021E-1,9.6097815E-1,4.351599E-1,1E0,4.5832623E-2,1E0,1.692287E0,7.9779315E-1,1.5425082E0,-2.5037922E-2,-6.105799E-4,-2.4976375E-2,-2.677084E-2,-1.7842436E-2,-2.3913227E-2,-1.1678192E-2,-2.5163554E-2,-2.6383115E-2,-1.694952E-2,-2.7363786E-2,-2.5289996E-2,3.0504256E-3,-2.0516869E-2,-2.3812098E-2,-1.735051E-2,4.2271193E-2,2.302611E-2,-1.2552979E-2,2.5584623E-2,-6.7020995E-3,2.8706642E-2,6.171235E-3,-2.1538198E-2,-1.8346187E-2,-2.762634E-2,8.045583E-3,-1.3906565E-2,1.2387084E-2,5.461344E-4],"split_indices":[52,47,12,42,15,3,5,60,12,64,12,72,12,12,12,5,64,8,15,50,7,66,20,3,3,73,0,67,9,3,12,0,0,0,0,0,0,0,0,0,0,0,0,0,0,0,0,0,0,0,0,0,0,0,0,0,0,0,0,0,0],"split_type":[0,0,0,0,0,0,0,0,0,0,0,0,0,0,0,0,0,0,0,0,0,0,0,0,0,0,0,0,0,0,0,0,0,0,0,0,0,0,0,0,0,0,0,0,0,0,0,0,0,0,0,0,0,0,0,0,0,0,0,0,0],"sum_hessian":[1.6932675E5,1.5806112E5,1.1265634E4,1.3119172E5,2.6869398E4,2.603711E3,8.661923E3,1.1875521E5,1.2436516E4,1.9340635E4,7.528764E3,2.1363604E3,4.6735062E2,5.968147E3,2.6937764E3,3.5430635E3,1.1521215E5,6.79843E3,5.6380854E3,1.5324228E4,4.0164065E3,4.661845E3,2.866919E3,1.8204075E3,3.159528E2,4.370976E2,3.025304E1,3.7495117E2,5.593196E3,1.1195646E3,1.5742119E3,1.9639031E3,1.5791605E3,6.850131E4,4.6710832E4,9.5889636E2,5.8395337E3,4.1317803E3,1.5063055E3,2.5785688E3,1.2745658E4,2.99193E3,1.0244767E3,3.716955E3,9.4489014E2,7.3107367E2,2.1358452E3,1.3642742E3,4.5613327E2,8.325507E1,2.3269772E2,4.0590363E2,3.1193972E1,3.0504428E2,6.990689E1,4.2671313E3,1.3260641E3,7.551982E2,3.643664E2,1.1646853E3,4.0952658E2],"tree_param":{"num_deleted":"0","num_feature":"77","num_nodes":"61","size_leaf_vector":"1"}},{"base_weights":[-7.312378E-1,-8.458515E-1,-4.55553E-1,-8.7266535E-1,-6.9798666E-1,-5.667535E-1,1.123422E-1,-8.8036716E-1,-7.4376166E-1,-6.3508254E-1,-2.745522E-2,-6.3361394E-1,-1.2608743E-1,-5.6367856E-1,6.2156945E-1,-9.0080655E-1,-8.617231E-1,-6.7268676E-1,-2.6790518E-2,-9.084461E-1,-5.954105E-1,-6.92875E-1,-3.924107E-1,6.7716725E-2,-4.37073E-1,-1.4678708E-1,-6.228462E-1,7.165453E-1,-5.745892E-1,-2.7260812E-2,-2.628873E-2,-2.6235593E-2,-2.2873549E-2,-2.2158857E-2,-1.4257674E-2,-2.7447538E-2,-2.3373827E-2,-2.0625167E-2,-1.355655E-2,-1.0864731E-2,-2.1492902E-2,-1.5871195E-2,-1.2430595E-3,-2.4240773E-2,5.6196204E-3,9.0031215E-4,-1.6213989E-2,-1.5172831E-2,6.7219455E-3,-2.3178833E-2,-1.6126582E-2,7.590511E-3,2.7474644E-2,-2.0933108E-2,-7.481553E-3],"categories":[],"categories_nodes":[],"categories_segments":[],"categories_sizes":[],"default_left":[0,0,0,0,0,0,0,0,0,0,0,0,0,0,0,0,0,0,0,0,0,0,0,0,0,0,0,0,0,0,0,0,0,0,0,0,0,0,0,0,0,0,0,0,0,0,0,0,0,0,0,0,0,0,0],"id":17,"left_children":[1,3,5,7,9,11,13,15,17,19,-1,21,23,25,27,29,31,33,-1,35,37,39,41,43,45,47,49,51,53,-1,-1,-1,-1,-1,-1,-1,-1,-1,-1,-1,-1,-1,-1,-1,-1,-1,-1,-1,-1,-1,-1,-1,-1,-1,-1],"loss_changes":[5.217414E3,4.6185156E2,3.062538E3,9.736719E1,2.4410156E2,1.1947754E3,2.7343005E3,3.4726562E1,5.8519287E1,1.5010352E2,0E0,5.03042E2,3.2210104E2,8.408594E1,5.15068E2,7.7929688E0,6.1253906E1,4.885083E1,0E0,7.5891113E-1,1.600669E2,2.1992969E2,3.3311707E2,3.4506848E2,9.910324E1,5.6751945E1,3.7759766E1,3.8748145E2,1.31974945E1,0E0,0E0,0E0,0E0,0E0,0E0,0E0,0E0,0E0,0E0,0E0,0E0,0E0,0E0,0E0,0E0,0E0,0E0,0E0,0E0,0E0,0E0,0E0,0E0,0E0,0E0],"parents":[2147483647,0,0,1,1,2,2,3,3,4,4,5,5,6,6,7,7,8,8,9,9,11,11,12,12,13,13,14,14,15,15,16,16,17,17,19,19,20,20,21,21,22,22,23,23,24,24,25,25,26,26,27,27,28,28],"right_children":[2,4,6,8,10,12,14,16,18,20,-1,22,24,26,28,30,32,34,-1,36,38,40,42,44,46,48,50,52,54,-1,-1,-1,-1,-1,-1,-1,-1,-1,-1,-1,-1,-1,-1,-1,-1,-1,-1,-1,-1,-1,-1,-1,-1,-1,-1],"split_conditions":[1E0,1.1372019E0,1E0,5.924611E-1,1E0,1.0544696E0,-1.6874696E-1,1E0,1E0,-1.784432E-2,-2.745522E-2,6.0029775E-1,8.248342E-1,3.0823827E-1,1.7043763E0,8.355191E0,1.4352384E0,1.4867964E0,-2.6790518E-2,1E0,1E0,-9.483312E-1,6.580621E-2,1E0,-2.0735656E-1,8.355191E0,7.9846234E0,5.0611957E-4,9.210693E-1,-2.7260812E-2,-2.628873E-2,-2.6235593E-2,-2.2873549E-2,-2.2158857E-2,-1.4257674E-2,-2.7447538E-2,-2.3373827E-2,-2.0625167E-2,-1.355655E-2,-1.0864731E-2,-2.1492902E-2,-1.5871195E-2,-1.2430595E-3,-2.4240773E-2,5.6196204E-3,9.0031215E-4,-1.6213989E-2,-1.5172831E-2,6.7219455E-3,-2.3178833E-2,-1.6126582E-2,7.590511E-3,2.7474644E-2,-2.0933108E-2,-7.481553E-3],"split_indices":[63,42,68,5,64,39,48,69,64,33,0,48,11,3,3,13,17,3,0,68,69,55,35,69,7,13,13,4,1,0,0,0,0,0,0,0,0,0,0,0,0,0,0,0,0,0,0,0,0,0,0,0,0,0,0],"split_type":[0,0,0,0,0,0,0,0,0,0,0,0,0,0,0,0,0,0,0,0,0,0,0,0,0,0,0,0,0,0,0,0,0,0,0,0,0,0,0,0,0,0,0,0,0,0,0,0,0,0,0,0,0,0,0],"sum_hessian":[1.6513384E5,1.1663977E5,4.849408E4,9.873097E4,1.7908805E4,4.0553277E4,7.940801E3,9.315903E4,5.571937E3,1.38898125E4,4.018993E3,3.5210496E4,5.342784E3,3.4116216E3,4.529179E3,4.441725E4,4.8741777E4,3.7782542E3,1.7936825E3,1.7575267E3,1.2132286E4,2.8264367E4,6.946127E3,3.2920083E3,2.0507756E3,4.2445065E2,2.987171E3,4.1963843E3,3.32795E2,3.35783E4,1.083895E4,4.3169176E4,5.572602E3,2.8302205E3,9.480339E2,1.6679767E3,8.9550026E1,7.387931E3,4.744355E3,1.8803428E3,2.6384025E4,4.999423E3,1.9467037E3,3.948864E2,2.8971218E3,3.7181177E2,1.678964E3,2.1549446E2,2.0895619E2,1.0809261E3,1.9062446E3,1.2623507E3,2.9340334E3,2.4053812E2,9.2256874E1],"tree_param":{"num_deleted":"0","num_feature":"77","num_nodes":"55","size_leaf_vector":"1"}},{"base_weights":[-7.262746E-1,-3.4411883E-1,-7.957535E-1,-5.556223E-1,4.531916E-1,-7.4528486E-1,-8.8810205E-1,-6.5466815E-1,1.0986913E-1,7.933402E-1,-1.701847E-1,-6.30924E-1,-8.0063117E-1,-9.023524E-1,-8.6214477E-1,-5.501185E-1,-8.6525357E-1,-8.484187E-2,2.4972484E-1,1.0219258E0,1.7641226E-2,1.196857E-1,-2.7194688E-2,-4.2921808E-1,-7.484038E-1,-8.525848E-1,-6.8730354E-1,-8.8609695E-1,-9.1085047E-1,-8.856265E-1,-8.297211E-1,-1.32176345E-2,-2.0721942E-2,-2.6659679E-2,-2.2658287E-2,2.9850292E-3,-1.5886983E-2,1.0842212E-2,-2.131021E-3,3.3585463E-2,1.6097248E-2,5.221617E-3,-1.9011388E-2,5.9361095E-3,-1.804508E-2,-3.3730508E-3,-1.7553184E-2,-1.5147644E-2,-2.313451E-2,-2.0177856E-2,-2.6378678E-2,-1.8493544E-2,-2.4409348E-2,-2.7392719E-2,-2.6212675E-2,-2.7538864E-2,-2.7135024E-2,-2.605691E-2,-2.6864745E-2,-2.5307091E-2,-2.0914529E-2],"categories":[],"categories_nodes":[],"categories_segments":[],"categories_sizes":[],"default_left":[0,0,0,0,0,0,0,0,0,0,0,0,0,0,0,0,0,0,0,0,0,0,0,0,0,0,0,0,0,0,0,0,0,0,0,0,0,0,0,0,0,0,0,0,0,0,0,0,0,0,0,0,0,0,0,0,0,0,0,0,0],"id":18,"left_children":[1,3,5,7,9,11,13,15,17,19,21,23,25,27,29,31,33,35,37,39,41,43,-1,45,47,49,51,53,55,57,59,-1,-1,-1,-1,-1,-1,-1,-1,-1,-1,-1,-1,-1,-1,-1,-1,-1,-1,-1,-1,-1,-1,-1,-1,-1,-1,-1,-1,-1,-1],"loss_changes":[4.321914E3,4.2235474E3,6.413047E2,1.3047759E3,1.1136027E3,5.6327734E2,1.7226562E1,3.7886572E2,6.98744E1,6.0241724E2,3.9594766E2,6.8814453E2,3.5279297E2,3.5273438E0,1.2416016E1,1.7706445E2,1.4036621E1,8.802225E1,5.3514122E1,1.2369653E2,7.900008E1,7.520374E1,0E0,5.281239E2,1.01288086E2,1.9719727E2,1.6842676E2,2.805664E0,9.765625E-2,9.0625E-1,1.2759766E1,0E0,0E0,0E0,0E0,0E0,0E0,0E0,0E0,0E0,0E0,0E0,0E0,0E0,0E0,0E0,0E0,0E0,0E0,0E0,0E0,0E0,0E0,0E0,0E0,0E0,0E0,0E0,0E0,0E0,0E0],"parents":[2147483647,0,0,1,1,2,2,3,3,4,4,5,5,6,6,7,7,8,8,9,9,10,10,11,11,12,12,13,13,14,14,15,15,16,16,17,17,18,18,19,19,20,20,21,21,23,23,24,24,25,25,26,26,27,27,28,28,29,29,30,30],"right_children":[2,4,6,8,10,12,14,16,18,20,22,24,26,28,30,32,34,36,38,40,42,44,-1,46,48,50,52,54,56,58,60,-1,-1,-1,-1,-1,-1,-1,-1,-1,-1,-1,-1,-1,-1,-1,-1,-1,-1,-1,-1,-1,-1,-1,-1,-1,-1,-1,-1,-1,-1],"split_conditions":[-1.0928088E0,1E0,1E0,5.010584E-1,-1.0955411E0,1E0,5.3633934E-1,-2.8739917E-1,1.2425224E0,1.124163E0,5.0611957E-4,-3.1397045E-1,1.0028993E0,-4.6446258E-1,1.1805898E0,-2.5386834E-1,1.4385858E-1,8.340565E-1,1.5425082E0,6.193258E-2,1.7769029E0,1.7043763E0,-2.7194688E-2,-2.9802227E-1,-8.7350065E-1,-1.1810014E0,2.379234E0,-4.6170384E-2,1E0,-8.507752E-1,6.8968326E-1,-1.32176345E-2,-2.0721942E-2,-2.6659679E-2,-2.2658287E-2,2.9850292E-3,-1.5886983E-2,1.0842212E-2,-2.131021E-3,3.3585463E-2,1.6097248E-2,5.221617E-3,-1.9011388E-2,5.9361095E-3,-1.804508E-2,-3.3730508E-3,-1.7553184E-2,-1.5147644E-2,-2.313451E-2,-2.0177856E-2,-2.6378678E-2,-1.8493544E-2,-2.4409348E-2,-2.7392719E-2,-2.6212675E-2,-2.7538864E-2,-2.7135024E-2,-2.605691E-2,-2.6864745E-2,-2.5307091E-2,-2.0914529E-2],"split_indices":[59,68,64,4,24,65,17,60,12,3,4,45,27,59,12,19,5,3,12,12,3,3,0,19,26,51,10,27,69,59,26,0,0,0,0,0,0,0,0,0,0,0,0,0,0,0,0,0,0,0,0,0,0,0,0,0,0,0,0,0,0],"split_type":[0,0,0,0,0,0,0,0,0,0,0,0,0,0,0,0,0,0,0,0,0,0,0,0,0,0,0,0,0,0,0,0,0,0,0,0,0,0,0,0,0,0,0,0,0,0,0,0,0,0,0,0,0,0,0,0,0,0,0,0,0],"sum_hessian":[1.6278258E5,2.504317E4,1.377394E5,1.979297E4,5.2502E3,8.9071055E4,4.8668355E4,1.7228803E4,2.5641672E3,3.3965706E3,1.8536296E3,2.9052637E4,6.0018418E4,3.139761E4,1.7270744E4,1.1515367E4,5.7134365E3,1.0720386E3,1.4921287E3,2.623231E3,7.733397E2,1.3306237E3,5.230059E2,1.0694854E4,1.8357781E4,4.1148082E4,1.8870338E4,1.0815219E4,2.058239E4,1.0001318E4,7.269425E3,6.475441E3,5.039926E3,4.7051353E3,1.0083013E3,7.584354E2,3.1360318E2,1.1066775E3,3.8545117E2,2.1829897E3,4.402411E2,6.2418427E2,1.4915546E2,1.2011334E3,1.2949022E2,3.5277559E3,7.167098E3,1.570468E3,1.6787314E4,5.3196304E3,3.582845E4,1.2093951E4,6.776386E3,3.3703284E3,7.4448906E3,9.640886E3,1.0941506E4,3.6966094E3,6.304709E3,6.57701E3,6.924148E2],"tree_param":{"num_deleted":"0","num_feature":"77","num_nodes":"61","size_leaf_vector":"1"}},{"base_weights":[-7.2144544E-1,-8.394025E-1,-4.4281596E-1,-8.663377E-1,-6.909388E-1,-5.507937E-1,8.147386E-2,-8.7423295E-1,-7.3666036E-1,-6.272545E-1,-2.7300378E-2,-6.014472E-1,1.6201656E-1,-5.5613947E-1,5.464509E-1,-8.8090885E-1,-8.218007E-1,-6.627048E-1,-2.6731E-2,-9.058829E-1,-5.8835924E-1,-6.5855074E-1,-3.825125E-1,9.504491E-2,5.14834E-1,-7.683432E-1,-4.2914903E-1,6.0630924E-1,-6.88207E-1,-2.6722414E-2,-2.5417753E-2,-1.3176784E-2,-2.5407901E-2,-2.1614956E-2,-1.4469283E-2,-2.2728438E-2,-2.733612E-2,-2.7081072E-2,-1.6473008E-2,-1.0857457E-2,-2.0808693E-2,-9.182111E-3,-2.6966764E-2,3.1934967E-3,-1.4808112E-2,-5.2781384E-3,1.8399734E-2,-2.4246305E-2,-1.8323343E-2,5.2475405E-4,-1.6032455E-2,6.176461E-3,2.3719233E-2,-2.1508146E-2,-1.0054821E-2],"categories":[],"categories_nodes":[],"categories_segments":[],"categories_sizes":[],"default_left":[0,0,0,0,0,0,0,0,0,0,0,0,0,0,0,0,0,0,0,0,0,0,0,0,0,0,0,0,0,0,0,0,0,0,0,0,0,0,0,0,0,0,0,0,0,0,0,0,0,0,0,0,0,0,0],"id":19,"left_children":[1,3,5,7,9,11,13,15,17,19,-1,21,23,25,27,29,31,33,-1,35,37,39,41,43,45,47,49,51,53,-1,-1,-1,-1,-1,-1,-1,-1,-1,-1,-1,-1,-1,-1,-1,-1,-1,-1,-1,-1,-1,-1,-1,-1,-1,-1],"loss_changes":[5.1866484E3,4.4279688E2,2.6575762E3,9.544531E1,2.3705615E2,1.4055889E3,2.3773743E3,3.0234375E1,6.0971436E1,1.425127E2,0E0,4.5411914E2,6.0994553E1,9.079968E1,3.4311804E2,2.521875E1,9.582031E1,3.7702515E1,0E0,5.838623E-1,1.4247632E2,2.9962793E2,2.9659448E2,1.463777E1,2.8133095E1,7.451416E0,9.95845E1,3.2631897E2,1.9394073E0,0E0,0E0,0E0,0E0,0E0,0E0,0E0,0E0,0E0,0E0,0E0,0E0,0E0,0E0,0E0,0E0,0E0,0E0,0E0,0E0,0E0,0E0,0E0,0E0,0E0,0E0],"parents":[2147483647,0,0,1,1,2,2,3,3,4,4,5,5,6,6,7,7,8,8,9,9,11,11,12,12,13,13,14,14,15,15,16,16,17,17,19,19,20,20,21,21,22,22,23,23,24,24,25,25,26,26,27,27,28,28],"right_children":[2,4,6,8,10,12,14,16,18,20,-1,22,24,26,28,30,32,34,-1,36,38,40,42,44,46,48,50,52,54,-1,-1,-1,-1,-1,-1,-1,-1,-1,-1,-1,-1,-1,-1,-1,-1,-1,-1,-1,-1,-1,-1,-1,-1,-1,-1],"split_conditions":[1E0,1.1372019E0,1E0,5.924611E-1,1E0,1.0173004E1,5.7532128E-2,1.4352384E0,1E0,-1.784432E-2,-2.7300378E-2,6.0029775E-1,1E0,7.9846234E0,1.7769029E0,8.355191E0,7.992144E-3,1.4867964E0,-2.6731E-2,-1.489592E0,6.9231505E-4,-8.320547E-1,7.439333E-1,2.3752477E0,1.2692164E-1,3.5250616E-1,3.8076493E-1,5.0611957E-4,3.9345708E0,-2.6722414E-2,-2.5417753E-2,-1.3176784E-2,-2.5407901E-2,-2.1614956E-2,-1.4469283E-2,-2.2728438E-2,-2.733612E-2,-2.7081072E-2,-1.6473008E-2,-1.0857457E-2,-2.0808693E-2,-9.182111E-3,-2.6966764E-2,3.1934967E-3,-1.4808112E-2,-5.2781384E-3,1.8399734E-2,-2.4246305E-2,-1.8323343E-2,5.2475405E-4,-1.6032455E-2,6.176461E-3,2.3719233E-2,-2.1508146E-2,-1.0054821E-2],"split_indices":[63,42,68,5,64,4,30,17,64,33,0,48,75,13,3,13,5,3,0,14,6,14,23,3,3,7,3,4,3,0,0,0,0,0,0,0,0,0,0,0,0,0,0,0,0,0,0,0,0,0,0,0,0,0,0],"split_type":[0,0,0,0,0,0,0,0,0,0,0,0,0,0,0,0,0,0,0,0,0,0,0,0,0,0,0,0,0,0,0,0,0,0,0,0,0,0,0,0,0,0,0,0,0,0,0,0,0,0,0,0,0,0,0],"sum_hessian":[1.5782088E5,1.1087867E5,4.69422E4,9.3847445E4,1.7031223E4,3.8925438E4,8.016762E3,8.845617E4,5.3912754E3,1.3198354E4,3.832869E3,3.6342996E4,2.58244E3,3.3806929E3,4.6360693E3,7.8451516E4,1.0004652E4,3.6486226E3,1.742653E3,1.6140095E3,1.1584344E4,2.8823195E4,7.5198E3,2.1715137E3,4.1092633E2,1.263802E3,2.1168909E3,4.422183E3,2.1388612E2,6.0683945E4,1.7767574E4,6.177878E2,9.386865E3,2.7610608E3,8.8756165E2,6.0884922E1,1.5531246E3,1.2837188E3,1.0300625E4,3.0487517E3,2.5774443E4,6.551538E3,9.6826215E2,2.1310442E3,4.0469498E1,5.1180534E1,3.597458E2,1.00530994E3,2.5849207E2,4.0391727E2,1.7129735E3,1.3946589E3,3.0275242E3,1.9683665E2,1.7049475E1],"tree_param":{"num_deleted":"0","num_feature":"77","num_nodes":"55","size_leaf_vector":"1"}},{"base_weights":[-7.1483374E-1,-7.6493955E-1,-6.8700574E-2,-8.094749E-1,-5.5500704E-1,6.8425995E-1,-3.8219854E-1,-4.6821284E-1,-8.2079566E-1,-2.9160905E-1,-6.547305E-1,7.2290736E-1,-7.763774E-1,-6.4000493E-1,1.23565584E-1,-2.703577E-2,-6.718364E-2,-8.418901E-1,-6.260391E-1,-9.935312E-2,-6.088588E-1,-5.984376E-1,-8.8263583E-1,9.2106175E-1,5.239584E-1,-1.8254846E-2,-2.7339049E-2,-5.584839E-1,-2.7393453E-2,-1.3866392E-1,3.133404E-1,-1.6092205E-2,2.0591684E-3,-2.5826238E-2,-2.3645455E-2,-2.4011334E-2,-1.5017362E-2,-6.4230394E-3,2.3618372E-2,-1.6548848E-2,-2.357425E-2,-2.6139993E-2,-1.6193386E-2,-2.516151E-2,-2.7120436E-2,3.333976E-2,2.0696133E-2,-2.4377864E-2,1.611484E-2,-1.7950758E-2,-1.8283558E-3,-1.6231067E-2,-1.4123166E-3,1.1985241E-2,9.948824E-4],"categories":[],"categories_nodes":[],"categories_segments":[],"categories_sizes":[],"default_left":[0,0,0,0,0,0,0,0,0,0,0,0,0,0,0,0,0,0,0,0,0,0,0,0,0,0,0,0,0,0,0,0,0,0,0,0,0,0,0,0,0,0,0,0,0,0,0,0,0,0,0,0,0,0,0],"id":20,"left_children":[1,3,5,7,9,11,13,15,17,19,21,23,25,27,29,-1,31,33,35,37,39,41,43,45,47,-1,-1,49,-1,51,53,-1,-1,-1,-1,-1,-1,-1,-1,-1,-1,-1,-1,-1,-1,-1,-1,-1,-1,-1,-1,-1,-1,-1,-1],"loss_changes":[5.0144688E3,1.3434609E3,2.631733E3,4.577422E2,6.606841E2,1.8557019E2,1.0264329E3,6.6146234E2,4.709922E2,4.214898E2,2.3360254E2,1.2541101E2,1.3700447E0,1.1557471E2,1.3234256E2,0E0,1.2615772E2,1.0490625E2,2.4501904E2,4.381247E2,2.5974976E1,2.3384521E2,2.633789E0,6.955115E1,2.8597687E1,0E0,0E0,7.9677E1,0E0,4.113329E1,3.7229355E1,0E0,0E0,0E0,0E0,0E0,0E0,0E0,0E0,0E0,0E0,0E0,0E0,0E0,0E0,0E0,0E0,0E0,0E0,0E0,0E0,0E0,0E0,0E0,0E0],"parents":[2147483647,0,0,1,1,2,2,3,3,4,4,5,5,6,6,7,7,8,8,9,9,10,10,11,11,12,12,13,13,14,14,16,16,17,17,18,18,19,19,20,20,21,21,22,22,23,23,24,24,27,27,29,29,30,30],"right_children":[2,4,6,8,10,12,14,16,18,20,22,24,26,28,30,-1,32,34,36,38,40,42,44,46,48,-1,-1,50,-1,52,54,-1,-1,-1,-1,-1,-1,-1,-1,-1,-1,-1,-1,-1,-1,-1,-1,-1,-1,-1,-1,-1,-1,-1,-1],"split_conditions":[2.4870098E0,7.324908E-1,7.3544934E-2,-1.7653617E0,-8.392711E-1,1E0,1.3159109E-2,-6.765944E-2,1.1372019E0,2.9611513E-1,1E0,5.4191004E-2,4.6053466E-1,1.692287E0,1.2425224E0,-2.703577E-2,1.7895453E-2,8.335375E0,1E0,1E0,1.5636804E-3,5.016081E-1,-1.9790726E0,6.90802E-1,1.0122391E-3,-1.8254846E-2,-2.7339049E-2,1E0,-2.7393453E-2,1.8421386E0,1.5425082E0,-1.6092205E-2,2.0591684E-3,-2.5826238E-2,-2.3645455E-2,-2.4011334E-2,-1.5017362E-2,-6.4230394E-3,2.3618372E-2,-1.6548848E-2,-2.357425E-2,-2.6139993E-2,-1.6193386E-2,-2.516151E-2,-2.7120436E-2,3.333976E-2,2.0696133E-2,-2.4377864E-2,1.611484E-2,-1.7950758E-2,-1.8283558E-3,-1.6231067E-2,-1.4123166E-3,1.1985241E-2,9.948824E-4],"split_indices":[52,47,12,60,62,67,4,21,42,12,64,12,1,9,12,0,5,13,69,69,5,50,32,1,4,0,0,68,0,1,12,0,0,0,0,0,0,0,0,0,0,0,0,0,0,0,0,0,0,0,0,0,0,0,0],"split_type":[0,0,0,0,0,0,0,0,0,0,0,0,0,0,0,0,0,0,0,0,0,0,0,0,0,0,0,0,0,0,0,0,0,0,0,0,0,0,0,0,0,0,0,0,0,0,0,0,0,0,0,0,0,0,0],"sum_hessian":[1.5488761E5,1.4374073E5,1.1146864E4,1.1858179E5,2.515895E4,3.2764038E3,7.870461E3,3.808795E3,1.1477299E5,6.9104375E3,1.8248512E4,3.1924392E3,8.396458E1,5.21296E3,2.6575007E3,1.8308417E3,1.9779532E3,1.0355357E5,1.1219424E4,4.3036836E3,2.606754E3,1.4636826E4,3.6116865E3,1.5975952E3,1.5948441E3,3.986792E1,4.409666E1,4.0169734E3,1.1959867E3,1.1158695E3,1.5416312E3,4.4335513E2,1.5345981E3,7.649834E4,2.7055227E4,4.692868E3,6.526556E3,3.8111963E3,4.9248755E2,1.9728086E3,6.339453E2,2.587079E3,1.2049747E4,1.1956544E3,2.416032E3,8.7427954E2,7.233156E2,1.5008153E1,1.5798359E3,3.7187363E3,2.9823706E2,2.0598772E2,9.098818E2,1.1787002E3,3.6293106E2],"tree_param":{"num_deleted":"0","num_feature":"77","num_nodes":"55","size_leaf_vector":"1"}},{"base_weights":[-7.0684E-1,-8.30029E-1,-4.2142397E-1,-8.583981E-1,-6.736586E-1,-1.2412092E-1,-6.373165E-1,-8.665561E-1,-7.2331804E-1,-6.0780925E-1,-2.7176447E-2,-3.4598258E-1,5.0849444E-1,-7.083382E-1,-4.0733415E-1,-8.8383895E-1,-8.374203E-1,-6.4702064E-1,-2.6453774E-2,-6.8864137E-1,-4.5336547E-1,-4.8175284E-1,9.655156E-2,6.4477736E-1,-1.5331583E-2,-7.592624E-1,-3.7094018E-1,-5.271491E-1,-7.034566E-2,-2.675555E-2,-2.5712265E-2,-2.543763E-2,-2.1933077E-2,-2.1343753E-2,-1.3383209E-2,-2.3330433E-2,-1.688776E-2,-1.0836813E-2,-2.6813693E-2,-1.8692834E-2,-1.0908307E-2,-2.316106E-2,6.3835466E-3,5.2903057E-3,2.4169456E-2,-2.0006754E-2,5.0829076E-3,-2.000595E-2,-2.3831839E-2,-8.722952E-3,-2.2363342E-2,-1.7461658E-2,-9.998994E-3,-1.848508E-2,-6.666825E-4],"categories":[],"categories_nodes":[],"categories_segments":[],"categories_sizes":[],"default_left":[0,0,0,0,0,0,0,0,0,0,0,0,0,0,0,0,0,0,0,0,0,0,0,0,0,0,0,0,0,0,0,0,0,0,0,0,0,0,0,0,0,0,0,0,0,0,0,0,0,0,0,0,0,0,0],"id":21,"left_children":[1,3,5,7,9,11,13,15,17,19,-1,21,23,25,27,29,31,33,-1,35,37,39,41,43,45,47,49,51,53,-1,-1,-1,-1,-1,-1,-1,-1,-1,-1,-1,-1,-1,-1,-1,-1,-1,-1,-1,-1,-1,-1,-1,-1,-1,-1],"loss_changes":[5.329672E3,4.6914844E2,2.933541E3,9.8140625E1,2.4817285E2,2.6989812E3,4.3218945E2,4.1820312E1,6.1222412E1,1.5792188E2,0E0,8.554252E2,3.5645703E2,3.4728516E2,2.5230371E2,1.0609375E1,3.4529297E1,4.43927E1,0E0,9.2676025E1,1.765075E2,1.8169336E2,3.376903E2,2.9844226E2,1.2432698E2,5.652246E1,7.949481E1,4.88761E1,4.3073936E1,0E0,0E0,0E0,0E0,0E0,0E0,0E0,0E0,0E0,0E0,0E0,0E0,0E0,0E0,0E0,0E0,0E0,0E0,0E0,0E0,0E0,0E0,0E0,0E0,0E0,0E0],"parents":[2147483647,0,0,1,1,2,2,3,3,4,4,5,5,6,6,7,7,8,8,9,9,11,11,12,12,13,13,14,14,15,15,16,16,17,17,19,19,20,20,21,21,22,22,23,23,24,24,25,25,26,26,27,27,28,28],"right_children":[2,4,6,8,10,12,14,16,18,20,-1,22,24,26,28,30,32,34,-1,36,38,40,42,44,46,48,50,52,54,-1,-1,-1,-1,-1,-1,-1,-1,-1,-1,-1,-1,-1,-1,-1,-1,-1,-1,-1,-1,-1,-1,-1,-1,-1,-1],"split_conditions":[1E0,1.1372019E0,-8.392711E-1,5.924611E-1,1E0,1E0,8.367887E0,1.0780139E0,1E0,8.41896E-1,-2.7176447E-2,1.9215881E0,1.3054798E0,1.3024161E0,1.0122391E-3,8.355191E0,1.279386E0,1.4867964E0,-2.6453774E-2,1.214687E-1,-5.2617234E-1,-5.319964E-1,1E0,5.0611957E-4,9.210693E-1,-8.460611E-1,1.0412414E0,1E0,6.5803364E-2,-2.675555E-2,-2.5712265E-2,-2.543763E-2,-2.1933077E-2,-2.1343753E-2,-1.3383209E-2,-2.3330433E-2,-1.688776E-2,-1.0836813E-2,-2.6813693E-2,-1.8692834E-2,-1.0908307E-2,-2.316106E-2,6.3835466E-3,5.2903057E-3,2.4169456E-2,-2.0006754E-2,5.0829076E-3,-2.000595E-2,-2.3831839E-2,-8.722952E-3,-2.2363342E-2,-1.7461658E-2,-9.998994E-3,-1.848508E-2,-6.666825E-4],"split_indices":[63,42,62,5,64,68,13,12,64,12,0,16,3,58,4,13,62,3,0,4,57,35,69,4,1,36,12,68,12,0,0,0,0,0,0,0,0,0,0,0,0,0,0,0,0,0,0,0,0,0,0,0,0,0,0],"split_type":[0,0,0,0,0,0,0,0,0,0,0,0,0,0,0,0,0,0,0,0,0,0,0,0,0,0,0,0,0,0,0,0,0,0,0,0,0,0,0,0,0,0,0,0,0,0,0,0,0,0,0,0,0,0,0],"sum_hessian":[1.5159197E5,1.0588766E5,4.5704316E4,8.9623484E4,1.6264177E4,1.9227682E4,2.6476635E4,8.451392E4,5.1095605E3,1.2673955E4,3.5902212E3,1.4235624E4,4.9920576E3,2.0227908E4,6.2487275E3,5.3028824E4,3.1485096E4,3.4524597E3,1.6571008E3,8.317382E3,4.356573E3,1.0893416E4,3.342208E3,3.9612383E3,1.0308195E3,1.7574152E4,2.6537556E3,4.6093325E3,1.6393947E3,4.0785594E4,1.224323E4,2.8648582E4,2.8365134E3,2.612142E3,8.403177E2,4.8658823E3,3.4514995E3,3.60435E3,7.522232E2,4.9578022E3,5.9356133E3,3.9379794E2,2.9484102E3,1.01315955E3,2.9480789E3,2.2715408E2,8.0366534E2,4.8468857E3,1.2727267E4,2.1872734E3,4.6648212E2,3.590384E3,1.0189487E3,1.3187111E2,1.5075236E3],"tree_param":{"num_deleted":"0","num_feature":"77","num_nodes":"55","size_leaf_vector":"1"}},{"base_weights":[-6.984619E-1,-8.269354E-1,-4.085704E-1,-8.5617065E-1,-6.633503E-1,-1.0934546E-1,-6.2575525E-1,-8.6426944E-1,-7.2032607E-1,-2.714213E-2,-5.9736097E-1,-3.3294582E-1,5.058628E-1,-2.0469671E-1,-6.6796297E-1,-8.876724E-1,-8.4330434E-1,-2.6508112E-2,-6.428806E-1,-9.0524304E-1,-5.5878514E-1,-5.0292826E-1,4.5184623E-2,6.308993E-1,1.0855353E-2,-9.924974E-2,-2.6909344E-2,-7.3633873E-1,-5.04801E-1,-2.6712619E-2,-2.4633052E-2,-2.5729176E-2,-2.1831186E-2,-2.108432E-2,-1.285438E-2,-2.3216296E-2,-2.7350582E-2,-1.9785602E-2,-1.2030692E-2,-1.137501E-2,-1.8760547E-2,-1.67053E-2,5.041973E-3,4.601372E-3,2.380487E-2,-1.980571E-2,5.8425297E-3,-1.5491017E-2,1.0521543E-3,-2.2536518E-2,-8.044501E-3,-1.4246303E-2,-2.3443166E-2],"categories":[],"categories_nodes":[],"categories_segments":[],"categories_sizes":[],"default_left":[0,0,0,0,0,0,0,0,0,0,0,0,0,0,0,0,0,0,0,0,0,0,0,0,0,0,0,0,0,0,0,0,0,0,0,0,0,0,0,0,0,0,0,0,0,0,0,0,0,0,0,0,0],"id":22,"left_children":[1,3,5,7,9,11,13,15,17,-1,19,21,23,25,27,29,31,-1,33,35,37,39,41,43,45,47,-1,49,51,-1,-1,-1,-1,-1,-1,-1,-1,-1,-1,-1,-1,-1,-1,-1,-1,-1,-1,-1,-1,-1,-1,-1,-1],"loss_changes":[5.5654453E3,4.9466406E2,2.9824434E3,9.602344E1,2.496206E2,2.6554575E3,4.72458E2,3.992578E1,6.2007812E1,0E0,1.4600732E2,9.10021E2,3.1849268E2,1.768775E2,2.6926562E2,6.4335938E0,7.186719E1,0E0,4.2874634E1,4.555664E-1,1.739961E2,1.4774854E2,3.2497256E2,3.1884863E2,1.2830962E2,1.1795184E2,0E0,1.1842578E2,5.8739746E1,0E0,0E0,0E0,0E0,0E0,0E0,0E0,0E0,0E0,0E0,0E0,0E0,0E0,0E0,0E0,0E0,0E0,0E0,0E0,0E0,0E0,0E0,0E0,0E0],"parents":[2147483647,0,0,1,1,2,2,3,3,4,4,5,5,6,6,7,7,8,8,10,10,11,11,12,12,13,13,14,14,15,15,16,16,18,18,19,19,20,20,21,21,22,22,23,23,24,24,25,25,27,27,28,28],"right_children":[2,4,6,8,10,12,14,16,18,-1,20,22,24,26,28,30,32,-1,34,36,38,40,42,44,46,48,-1,50,52,-1,-1,-1,-1,-1,-1,-1,-1,-1,-1,-1,-1,-1,-1,-1,-1,-1,-1,-1,-1,-1,-1,-1,-1],"split_conditions":[1E0,1.1372019E0,-8.392711E-1,5.924611E-1,1E0,1E0,-1.7653617E0,1E0,1E0,-2.714213E-2,4.1866255E-1,-8.057644E-2,1.3054798E0,2.0775018E0,9.6615267E-1,3.862044E0,1.4352384E0,-2.6508112E-2,9.6769655E-1,-1.489592E0,1E0,-1.2481E0,1E0,5.0611957E-4,9.210693E-1,1.7895453E-2,-2.6909344E-2,1.4622982E0,7.5398415E-1,-2.6712619E-2,-2.4633052E-2,-2.5729176E-2,-2.1831186E-2,-2.108432E-2,-1.285438E-2,-2.3216296E-2,-2.7350582E-2,-1.9785602E-2,-1.2030692E-2,-1.137501E-2,-1.8760547E-2,-1.67053E-2,5.041973E-3,4.601372E-3,2.380487E-2,-1.980571E-2,5.8425297E-3,-1.5491017E-2,1.0521543E-3,-2.2536518E-2,-8.044501E-3,-1.4246303E-2,-2.3443166E-2],"split_indices":[63,42,62,5,65,68,60,69,65,0,30,38,3,10,47,3,17,0,12,14,69,17,69,4,1,5,0,14,18,0,0,0,0,0,0,0,0,0,0,0,0,0,0,0,0,0,0,0,0,0,0,0,0],"split_type":[0,0,0,0,0,0,0,0,0,0,0,0,0,0,0,0,0,0,0,0,0,0,0,0,0,0,0,0,0,0,0,0,0,0,0,0,0,0,0,0,0,0,0,0,0,0,0,0,0,0,0,0,0],"sum_hessian":[1.494428E5,1.0354992E5,4.5892883E4,8.7846164E4,1.5703752E4,1.9301658E4,2.6591225E4,8.289855E4,4.9476196E3,3.3686418E3,1.233511E4,1.41567705E4,5.144887E3,2.4232324E3,2.4167992E4,3.9152332E4,4.3746215E4,1.5883983E3,3.3592212E3,1.370931E3,1.096418E4,9.766202E3,4.390569E3,4.107163E3,1.0377242E3,2.1039119E3,3.1932047E2,1.7028428E4,7.1395635E3,3.7588195E4,1.5641355E3,3.89142E4,4.832016E3,2.6235898E3,7.356313E2,6.9757805E1,1.3011732E3,6.689556E3,4.2746235E3,4.8586E3,4.907602E3,7.436576E2,3.646911E3,1.0437562E3,3.0634067E3,2.2265465E2,8.1506964E2,5.117858E2,1.5921262E3,1.6503363E4,5.250641E2,6.445106E3,6.944576E2],"tree_param":{"num_deleted":"0","num_feature":"77","num_nodes":"53","size_leaf_vector":"1"}},{"base_weights":[-6.916024E-1,-8.198956E-1,-4.0287158E-1,-6.8565464E-1,-8.407732E-1,-1.10792324E-1,-6.204737E-1,-8.541506E-1,-5.795986E-1,-8.6911285E-1,-7.6505023E-1,-3.1191924E-1,4.6797123E-2,-1.5078212E-1,-6.6201925E-1,-8.6691076E-1,-6.797301E-1,-5.154317E-1,-2.6848169E-2,-8.8793963E-1,-8.30064E-1,-6.9881725E-1,-8.558707E-1,-7.0151746E-1,-2.380249E-1,2.4022159E-1,-2.5685552E-1,-4.8676293E-2,-2.627614E-2,-7.280376E-1,-5.045615E-1,-2.5220884E-2,-2.655043E-2,-2.2964055E-2,-1.6600315E-2,-2.6696049E-2,-1.3406975E-2,-2.6726669E-2,-2.5436088E-2,-2.6657151E-2,-2.3709945E-2,-1.800496E-2,-2.4347872E-2,-2.6324525E-2,-2.4680585E-2,-2.16289E-2,-9.964452E-3,-6.111705E-3,-1.7989669E-2,1.1783329E-2,4.2040192E-4,-1.21569615E-2,-1.637025E-3,-1.4598682E-2,2.9133216E-3,-2.2366785E-2,-5.5920244E-3,-2.3841573E-2,-1.4235929E-2],"categories":[],"categories_nodes":[],"categories_segments":[],"categories_sizes":[],"default_left":[0,0,0,0,0,0,0,0,0,0,0,0,0,0,0,0,0,0,0,0,0,0,0,0,0,0,0,0,0,0,0,0,0,0,0,0,0,0,0,0,0,0,0,0,0,0,0,0,0,0,0,0,0,0,0,0,0,0,0],"id":23,"left_children":[1,3,5,7,9,11,13,15,17,19,21,23,25,27,29,31,33,35,-1,37,39,41,43,45,47,49,51,53,-1,55,57,-1,-1,-1,-1,-1,-1,-1,-1,-1,-1,-1,-1,-1,-1,-1,-1,-1,-1,-1,-1,-1,-1,-1,-1,-1,-1,-1,-1],"loss_changes":[5.397258E3,2.8217188E2,2.8491655E3,2.4224707E2,1.8667578E2,6.0668634E2,5.0120312E2,1.1085205E1,1.6828662E2,4.5960938E1,1.4246973E2,2.4191748E2,6.3043677E2,1.546168E2,2.4497656E2,1.5732422E0,3.5012207E0,1.7748376E2,0E0,4.3085938E0,4.7368164E1,1.5259375E2,6.4692383E0,9.386169E0,8.7574554E1,2.2626907E2,1.2534512E2,1.1702653E2,0E0,1.5766211E2,6.040576E1,0E0,0E0,0E0,0E0,0E0,0E0,0E0,0E0,0E0,0E0,0E0,0E0,0E0,0E0,0E0,0E0,0E0,0E0,0E0,0E0,0E0,0E0,0E0,0E0,0E0,0E0,0E0,0E0],"parents":[2147483647,0,0,1,1,2,2,3,3,4,4,5,5,6,6,7,7,8,8,9,9,10,10,11,11,12,12,13,13,14,14,15,15,16,16,17,17,19,19,20,20,21,21,22,22,23,23,24,24,25,25,26,26,27,27,29,29,30,30],"right_children":[2,4,6,8,10,12,14,16,18,20,22,24,26,28,30,32,34,36,-1,38,40,42,44,46,48,50,52,54,-1,56,58,-1,-1,-1,-1,-1,-1,-1,-1,-1,-1,-1,-1,-1,-1,-1,-1,-1,-1,-1,-1,-1,-1,-1,-1,-1,-1,-1,-1],"split_conditions":[1E0,-1.1553216E0,-8.392711E-1,9.837402E-1,8.355191E0,-5.787407E-1,-1.7653617E0,3.862044E0,1E0,8.020428E-1,1E0,5.122362E0,1.0697681E0,2.0775018E0,9.6615267E-1,1.381604E0,1.566694E0,6.9231505E-4,-2.6848169E-2,2.0027685E-1,1E0,-3.467231E-1,1.4686646E0,1.6023007E-1,2.0851412E0,1E0,1E0,1.6318854E-2,-2.627614E-2,8.367887E0,7.6904445E0,-2.5220884E-2,-2.655043E-2,-2.2964055E-2,-1.6600315E-2,-2.6696049E-2,-1.3406975E-2,-2.6726669E-2,-2.5436088E-2,-2.6657151E-2,-2.3709945E-2,-1.800496E-2,-2.4347872E-2,-2.6324525E-2,-2.4680585E-2,-2.16289E-2,-9.964452E-3,-6.111705E-3,-1.7989669E-2,1.1783329E-2,4.2040192E-4,-1.21569615E-2,-1.637025E-3,-1.4598682E-2,2.9133216E-3,-2.2366785E-2,-5.5920244E-3,-2.3841573E-2,-1.4235929E-2],"split_indices":[63,39,62,28,13,27,60,3,64,16,64,13,3,10,47,1,7,6,0,6,69,14,3,7,3,69,69,6,0,13,13,0,0,0,0,0,0,0,0,0,0,0,0,0,0,0,0,0,0,0,0,0,0,0,0,0,0,0,0],"split_type":[0,0,0,0,0,0,0,0,0,0,0,0,0,0,0,0,0,0,0,0,0,0,0,0,0,0,0,0,0,0,0,0,0,0,0,0,0,0,0,0,0,0,0,0,0,0,0,0,0,0,0,0,0,0,0,0,0,0,0],"sum_hessian":[1.457135E5,1.00884945E5,4.482855E4,1.3582785E4,8.7302164E4,1.9139635E4,2.5688916E4,5.2441357E3,8.338649E3,6.3519355E4,2.378281E4,8.407896E3,1.0731738E4,2.087981E3,2.3600936E4,4.882941E3,3.6119452E2,6.930944E3,1.4077054E3,4.2841984E4,2.0677371E4,1.3758088E4,1.0024723E4,1.3391119E3,7.068785E3,6.5558926E3,4.1758457E3,1.831184E3,2.5679706E2,1.6626297E4,6.974638E3,2.0140176E3,2.8689236E3,2.12191E2,1.4900352E2,1.0704447E3,5.860499E3,3.9884992E4,2.9569893E3,8.354151E3,1.232322E4,7.3420347E3,6.416053E3,6.0553604E3,3.969362E3,1.2712344E3,6.787758E1,6.457812E3,6.1097314E2,3.9149158E3,2.6409768E3,2.408343E3,1.7675028E3,4.5675302E2,1.3744309E3,1.6104928E4,5.2137024E2,6.5176404E2,6.322874E3],"tree_param":{"num_deleted":"0","num_feature":"77","num_nodes":"59","size_leaf_vector":"1"}},{"base_weights":[-6.882276E-1,-8.16363E-1,-4.0381706E-1,-8.4670484E-1,-6.5313864E-1,-5.312222E-1,5.2602645E-2,-8.5577357E-1,-7.006166E-1,-2.692724E-2,-5.8133096E-1,-6.5809804E-1,-3.39357E-1,-2.4297845E-1,5.3697985E-1,-8.8082373E-1,-8.333662E-1,-2.6212877E-2,-6.1975473E-1,-6.7819065E-1,-4.423153E-1,-4.9687245E-1,-7.420776E-1,-1.9463968E-1,-5.490591E-1,-5.588939E-1,1.3873415E-1,6.9102347E-1,-2.8731745E-2,-2.6485931E-2,-2.3172652E-2,-2.5475204E-2,-2.1323917E-2,-2.0768974E-2,-1.2291946E-2,-2.3349606E-2,-1.6378708E-2,-1.03882225E-2,-2.6649812E-2,-2.3551092E-2,-1.1462049E-2,-1.9705951E-2,-2.3328835E-2,-1.6557897E-3,-1.5977291E-2,-1.8364498E-2,-8.800547E-3,-1.3869104E-2,-2.1840237E-2,6.8210415E-3,-1.7069995E-5,1.4969215E-2,2.4448145E-2,2.953922E-3,-1.8880967E-2],"categories":[],"categories_nodes":[],"categories_segments":[],"categories_sizes":[],"default_left":[0,0,0,0,0,0,0,0,0,0,0,0,0,0,0,0,0,0,0,0,0,0,0,0,0,0,0,0,0,0,0,0,0,0,0,0,0,0,0,0,0,0,0,0,0,0,0,0,0,0,0,0,0,0,0],"id":24,"left_children":[1,3,5,7,9,11,13,15,17,-1,19,21,23,25,27,29,31,-1,33,35,37,39,41,43,45,47,49,51,53,-1,-1,-1,-1,-1,-1,-1,-1,-1,-1,-1,-1,-1,-1,-1,-1,-1,-1,-1,-1,-1,-1,-1,-1,-1,-1],"loss_changes":[5.2065312E3,4.8726562E2,2.5806758E3,1.094375E2,2.7056104E2,8.443467E2,1.3868325E3,4.3160156E1,6.7502686E1,0E0,1.6047534E2,2.823828E2,4.1906213E2,7.2550183E2,3.19912E2,7.4804688E0,7.939844E1,0E0,5.0243286E1,9.272485E1,2.0984338E2,2.3641272E2,4.1078613E1,3.8516257E2,9.0798706E1,5.3433105E1,3.3645107E1,6.8255615E1,6.0156746E1,0E0,0E0,0E0,0E0,0E0,0E0,0E0,0E0,0E0,0E0,0E0,0E0,0E0,0E0,0E0,0E0,0E0,0E0,0E0,0E0,0E0,0E0,0E0,0E0,0E0,0E0],"parents":[2147483647,0,0,1,1,2,2,3,3,4,4,5,5,6,6,7,7,8,8,10,10,11,11,12,12,13,13,14,14,15,15,16,16,18,18,19,19,20,20,21,21,22,22,23,23,24,24,25,25,26,26,27,27,28,28],"right_children":[2,4,6,8,10,12,14,16,18,-1,20,22,24,26,28,30,32,-1,34,36,38,40,42,44,46,48,50,52,54,-1,-1,-1,-1,-1,-1,-1,-1,-1,-1,-1,-1,-1,-1,-1,-1,-1,-1,-1,-1,-1,-1,-1,-1,-1,-1],"split_conditions":[1E0,1.1372019E0,1.9247986E0,5.924611E-1,1E0,7.057306E-1,1E0,1E0,1E0,-2.692724E-2,1E0,-2.502284E-1,3.6905322E-2,1.5183587E-3,1.1785581E0,5.151153E-1,1.4352384E0,-2.6212877E-2,1.4867964E0,1.214687E-1,-5.2617234E-1,-5.5614847E-1,-5.9733856E-1,1E0,1E0,1E0,9.0658313E-1,4.5329157E-1,1.7769029E0,-2.6485931E-2,-2.3172652E-2,-2.5475204E-2,-2.1323917E-2,-2.0768974E-2,-1.2291946E-2,-2.3349606E-2,-1.6378708E-2,-1.03882225E-2,-2.6649812E-2,-2.3551092E-2,-1.1462049E-2,-1.9705951E-2,-2.3328835E-2,-1.6557897E-3,-1.5977291E-2,-1.8364498E-2,-8.800547E-3,-1.3869104E-2,-2.1840237E-2,6.8210415E-3,-1.7069995E-5,1.4969215E-2,2.4448145E-2,2.953922E-3,-1.8880967E-2],"split_indices":[63,42,52,5,65,50,68,69,65,0,69,54,52,4,3,6,17,0,3,4,57,52,48,66,68,66,3,3,3,0,0,0,0,0,0,0,0,0,0,0,0,0,0,0,0,0,0,0,0,0,0,0,0,0,0],"split_type":[0,0,0,0,0,0,0,0,0,0,0,0,0,0,0,0,0,0,0,0,0,0,0,0,0,0,0,0,0,0,0,0,0,0,0,0,0,0,0,0,0,0,0,0,0,0,0,0,0,0,0,0,0,0,0],"sum_hessian":[1.4287567E5,9.849767E4,4.4377996E4,8.305446E4,1.5443211E4,3.469348E4,9.684517E3,7.819547E4,4.858989E3,3.503992E3,1.1939219E4,2.088218E4,1.3811301E4,6.0146807E3,3.6698354E3,3.6902324E4,4.1293145E4,1.5437081E3,3.3152805E3,7.034221E3,4.904998E3,7.154243E3,1.3727936E4,8.172981E3,5.63832E3,3.2907253E3,2.7239556E3,2.8842349E3,7.856004E2,3.6213453E4,6.8887274E2,3.6570816E4,4.72233E3,2.4624316E3,8.528488E2,4.0002666E3,3.0339546E3,4.0373896E3,8.676084E2,2.0365543E3,5.117689E3,4.04697E3,9.680966E3,5.7864253E3,2.3865557E3,4.521366E3,1.1169534E3,2.0968376E3,1.1938877E3,1.6643522E3,1.0596035E3,1.1331091E3,1.7511257E3,6.4899854E2,1.366019E2],"tree_param":{"num_deleted":"0","num_feature":"77","num_nodes":"55","size_leaf_vector":"1"}},{"base_weights":[-6.8067455E-1,-8.111873E-1,-3.9363748E-1,-4.650421E-1,-8.204184E-1,-1.1245192E-1,-6.0583955E-1,-7.100779E-1,1.5729393E-1,-8.6350423E-1,-7.3892087E-1,-3.1245652E-1,4.257035E-1,-6.8181336E-1,-3.688869E-1,-3.4582454E-1,-8.814274E-1,-6.4179844E-1,1.2872496E0,-8.7240905E-1,-8.1768674E-1,-6.6875845E-1,-8.598436E-1,-4.8457903E-1,5.0869104E-2,5.098634E-2,5.5877084E-1,-7.381498E-1,-3.3121058E-1,-4.8134723E-1,-5.3173274E-2,-3.6881617E-3,-2.1491805E-2,-2.6602756E-2,-2.2835908E-2,-2.6764784E-2,-7.6564425E-3,4.379027E-2,-5.3455145E-3,-2.6420765E-2,-2.5392909E-2,-2.5276994E-2,-2.3226209E-2,-1.7077127E-2,-2.3942238E-2,-2.6738446E-2,-2.5086159E-2,-1.798861E-2,-1.0864896E-2,3.793702E-3,-2.6447615E-2,3.3692572E-2,-3.4924425E-4,2.1004593E-2,-1.4526531E-3,-1.8858235E-2,-2.3530055E-2,-3.7673244E-3,-1.3323141E-2,-1.0602771E-2,-1.7910141E-2,5.1259035E-3,-3.4520288E-3],"categories":[],"categories_nodes":[],"categories_segments":[],"categories_sizes":[],"default_left":[0,0,0,0,0,0,0,0,0,0,0,0,0,0,0,0,0,0,0,0,0,0,0,0,0,0,0,0,0,0,0,0,0,0,0,0,0,0,0,0,0,0,0,0,0,0,0,0,0,0,0,0,0,0,0,0,0,0,0,0,0,0,0],"id":25,"left_children":[1,3,5,7,9,11,13,15,17,19,21,23,25,27,29,31,33,35,37,39,41,43,45,47,49,51,53,55,57,59,61,-1,-1,-1,-1,-1,-1,-1,-1,-1,-1,-1,-1,-1,-1,-1,-1,-1,-1,-1,-1,-1,-1,-1,-1,-1,-1,-1,-1,-1,-1,-1,-1],"loss_changes":[5.2185977E3,3.05625E2,2.5982754E3,3.7981024E2,3.2690234E2,2.0161368E3,4.4651562E2,1.1121063E2,6.3670197E2,2.4175781E1,2.7317773E2,8.540149E2,2.5304376E2,3.7090625E2,2.1398041E2,4.72585E1,1.0345459E-1,3.9761658E1,7.405591E1,1.025E1,1.0105469E1,2.6238574E2,8.055664E0,1.3027783E2,3.0957407E2,8.938949E1,3.2155054E2,8.140918E1,6.0377197E1,6.554126E1,2.1987688E1,0E0,0E0,0E0,0E0,0E0,0E0,0E0,0E0,0E0,0E0,0E0,0E0,0E0,0E0,0E0,0E0,0E0,0E0,0E0,0E0,0E0,0E0,0E0,0E0,0E0,0E0,0E0,