{"learner":{"attributes":{"scikit_learn":"{\"_estimator_type\": \"regressor\"}"},"feature_names":[],"feature_types":[],"gradient_booster":{"model":{"gbtree_model_param":{"num_parallel_tree":"1","num_trees":"5"},"iteration_indptr":[0,1,2,3,4,5],"tree_info":[0,0,0,0,0],"trees":[{"base_weights":[5.8654615E-7,-5.838636E-1,7.63679E2,-5.376751E-1,5.9235735E0,4.9053256E2,2.6852858E1],"categories":[],"categories_nodes":[],"categories_segments":[],"categories_sizes":[],"default_left":[0,0,0,0,0,0,0],"id":0,"left_children":[1,3,5,-1,-1,-1,-1],"loss_changes":[2.217876E7,1.4250593E7,7.661084E7,0E0,0E0,0E0,0E0],"parents":[2147483647,0,0,1,1,2,2],"right_children":[2,4,6,-1,-1,-1,-1],"split_conditions":[3.7040234E0,2.9166129E0,1.6318497E-1,-5.376751E-1,5.9235735E0,4.9053256E2,2.6852858E1],"split_indices":[26,17,3,0,0,0,0],"split_type":[0,0,0,0,0,0,0],"sum_hessian":[4.9739E4,4.9702E4,3.7E1,4.6016E4,3.686E3,3E0,3.4E1],"tree_param":{"num_deleted":"0","num_feature":"77","num_nodes":"7","size_leaf_vector":"1"}},{"base_weights":[1.051145E-2,-5.253681E-1,7.009266E2,-1.1149856E0,2.2810276E0,4.5374268E2,2.4244295E1],"categories":[],"categories_nodes":[],"categories_segments":[],"categories_sizes":[],"default_left":[0,0,0,0,0,0,0],"id":1,"left_children":[1,3,5,-1,-1,-1,-1],"loss_changes":[1.8683038E7,1.2323081E7,6.574088E7,0E0,0E0,0E0,0E0],"parents":[2147483647,0,0,1,1,2,2],"right_children":[2,4,6,-1,-1,-1,-1],"split_conditions":[3.7040234E0,1.0064044E0,1.6318497E-1,-1.1149856E0,2.2810276E0,4.5374268E2,2.4244295E1],"split_indices":[26,12,3,0,0,0,0],"split_type":[0,0,0,0,0,0,0],"sum_hessian":[4.9739E4,4.9702E4,3.7E1,3.4153E4,1.5549E4,3E0,3.4E1],"tree_param":{"num_deleted":"0","num_feature":"77","num_nodes":"7","size_leaf_vector":"1"}},{"base_weights":[1.9094162E-2,-4.728071E-1,6.4341254E2,-4.621964E-1,5.131244E0,4.1971198E2,2.1889135E1],"categories":[],"categories_nodes":[],"categories_segments":[],"categories_sizes":[],"default_left":[0,0,0,0,0,0,0],"id":2,"left_children":[1,3,5,-1,-1,-1,-1],"loss_changes":[1.574232E7,1.0679678E7,5.6408996E7,0E0,0E0,0E0,0E0],"parents":[2147483647,0,0,1,1,2,2],"right_children":[2,4,6,-1,-1,-1,-1],"split_conditions":[3.7040234E0,2.9166129E0,1.6318497E-1,-4.621964E-1,5.131244E0,4.1971198E2,2.1889135E1],"split_indices":[26,17,3,0,0,0,0],"split_type":[0,0,0,0,0,0,0],"sum_hessian":[4.9739E4,4.9702E4,3.7E1,4.6016E4,3.686E3,3E0,3.4E1],"tree_param":{"num_deleted":"0","num_feature":"77","num_nodes":"7","size_leaf_vector":"1"}},{"base_weights":[2.6156943E-2,-2.6746926E0,1.1214832E2,-6.561073E-1,4.4735656E0,7.265155E1,5.1528525E0],"categories":[],"categories_nodes":[],"categories_segments":[],"categories_sizes":[],"default_left":[0,0,0,0,0,0,0],"id":3,"left_children":[1,3,5,-1,-1,-1,-1],"loss_changes":[1.5062821E7,8.949726E6,4.3536656E7,0E0,0E0,0E0,0E0],"parents":[2147483647,0,0,1,1,2,2],"right_children":[2,4,6,-1,-1,-1,-1],"split_conditions":[2.8353508E0,2.9166129E0,4.351599E-1,-6.561073E-1,4.4735656E0,7.265155E1,5.1528525E0],"split_indices":[12,17,3,0,0,0,0],"split_type":[0,0,0,0,0,0,0],"sum_hessian":[4.9739E4,4.857E4,1.169E3,4.4891E4,3.679E3,1.04E2,1.065E3],"tree_param":{"num_deleted":"0","num_feature":"77","num_nodes":"7","size_leaf_vector":"1"}},{"base_weights":[2.5181953E-2,-4.168338E-1,5.781695E2,-9.0117615E-1,1.8461083E0,3.8461737E2,1.8816414E1],"categories":[],"categories_nodes":[],"categories_segments":[],"categories_sizes":[],"default_left":[0,0,0,0,0,0,0],"id":4,"left_children":[1,3,5,-1,-1,-1,-1],"loss_changes":[1.2711241E7,8.064693E6,4.7708772E7,0E0,0E0,0E0,0E0],"parents":[2147483647,0,0,1,1,2,2],"right_children":[2,4,6,-1,-1,-1,-1],"split_conditions":[3.7040234E0,1.0064044E0,1.6318497E-1,-9.0117615E-1,1.8461083E0,3.8461737E2,1.8816414E1],"split_indices":[26,12,3,0,0,0,0],"split_type":[0,0,0,0,0,0,0],"sum_hessian":[4.9739E4,4.9702E4,3.7E1,3.4153E4,1.5549E4,3E0,3.4E1],"tree_param":{"num_deleted":"0","num_feature":"77","num_nodes":"7","size_leaf_vector":"1"}}]},"name":"gbtree"},"learner_model_param":{"base_score":"2.1232038E1","boost_from_average":"1","num_class":"0","num_feature":"77","num_target":"1"},"objective":{"name":"reg:squarederror","reg_loss_param":{"scale_pos_weight":"1"}}},"version":[2,1,4]}