{"learner":{"attributes":{"scikit_learn":"{\"_estimator_type\": \"regressor\"}"},"feature_names":[],"feature_types":[],"gradient_booster":{"model":{"gbtree_model_param":{"num_parallel_tree":"1","num_trees":"20"},"iteration_indptr":[0,1,2,3,4,5,6,7,8,9,10,11,12,13,14,15,16,17,18,19,20],"tree_info":[0,0,0,0,0,0,0,0,0,0,0,0,0,0,0,0,0,0,0,0],"trees":[{"base_weights":[-7.0197515E-8,-8.1816965E-1,1.6499754E1,-1.8594595E0,2.6225646E0,1.15001686E2,8.848661E0,-2.2797472E0,6.3566464E-1,1.0564208E0,8.646464E0,1.5111417E2,1.5137003E1,4.1869564E0,2.508964E1,-7.172811E-1,-1.08458035E-1,5.301041E-1,-8.6987096E-1,1.7437407E-1,3.1369112E0,1.9998724E0,6.7841516E0,4.6847054E1,7.3150957E-1,1.7671282E0,9.6472645E0,1.1717049E1,3.1680065E-1,5.5581484E0,9.046665E0],"categories":[],"categories_nodes":[],"categories_segments":[],"categories_sizes":[],"default_left":[0,0,0,0,0,0,0,0,0,0,0,0,0,0,0,0,0,0,0,0,0,0,0,0,0,0,0,0,0,0,0],"id":0,"left_children":[1,3,5,7,9,11,13,15,17,19,21,23,25,27,29,-1,-1,-1,-1,-1,-1,-1,-1,-1,-1,-1,-1,-1,-1,-1,-1],"loss_changes":[1.6287262E5,4.118918E4,4.2856144E5,9.255965E3,2.5189865E4,1.4557344E5,4.0021594E4,1.6100859E3,5.0965938E3,9.467604E3,1.5089086E4,2.2110875E4,1.6991599E3,4.504843E4,3.364211E3,0E0,0E0,0E0,0E0,0E0,0E0,0E0,0E0,0E0,0E0,0E0,0E0,0E0,0E0,0E0,0E0],"parents":[2147483647,0,0,1,1,2,2,3,3,4,4,5,5,6,6,7,7,8,8,9,9,10,10,11,11,12,12,13,13,14,14],"right_children":[2,4,6,8,10,12,14,16,18,20,22,24,26,28,30,-1,-1,-1,-1,-1,-1,-1,-1,-1,-1,-1,-1,-1,-1,-1,-1],"split_conditions":[2.4870098E0,1E0,5.806179E-2,1.1372019E0,6.0029775E-1,1.124163E0,1.3159109E-2,5.924611E-1,1E0,1.4165808E0,1E0,1E0,5.032022E-2,7.935111E-2,1.2425224E0,-7.172811E-1,-1.08458035E-1,5.301041E-1,-8.6987096E-1,1.7437407E-1,3.1369112E0,1.9998724E0,6.7841516E0,4.6847054E1,7.3150957E-1,1.7671282E0,9.6472645E0,1.1717049E1,3.1680065E-1,5.5581484E0,9.046665E0],"split_indices":[52,63,12,42,48,3,4,5,64,34,68,67,12,12,12,0,0,0,0,0,0,0,0,0,0,0,0,0,0,0,0],"split_type":[0,0,0,0,0,0,0,0,0,0,0,0,0,0,0,0,0,0,0,0,0,0,0,0,0,0,0,0,0,0,0],"sum_hessian":[1.2063E4,1.1494E4,5.69E2,8.824E3,2.67E3,4E1,5.29E2,7.552E3,1.272E3,2.12E3,5.5E2,2.9E1,1.1E1,4.12E2,1.17E2,7.138E3,4.14E2,9.64E2,3.08E2,2.019E3,1.01E2,4.83E2,6.7E1,2.8E1,1E0,8E0,3E0,3.3E1,3.79E2,5.3E1,6.4E1],"tree_param":{"num_deleted":"0","num_feature":"77","num_nodes":"31","size_leaf_vector":"1"}},{"base_weights":[8.004057E-3,-5.717679E-1,1.1700058E1,-1.3017538E0,1.8403236E0,8.194003E1,6.244324E0,-1.5959324E0,4.446983E-1,8.8187166E-2,5.12572E0,1.1795311E2,2.4159624E1,2.960007E0,1.7686516E1,-5.301603E-1,-2.5706995E-1,-8.2064104E-1,3.5814363E-1,1.8225915E0,-1.1582837E-1,1.2070992E0,4.0398397E0,3.6808533E1,6.2178314E-1,1.4244766E1,2.1364295E0,8.906308E0,2.592595E-1,2.143176E0,5.8538237E0],"categories":[],"categories_nodes":[],"categories_segments":[],"categories_sizes":[],"default_left":[0,0,0,0,0,0,0,0,0,0,0,0,0,0,0,0,0,0,0,0,0,0,0,0,0,0,0,0,0,0,0],"id":1,"left_children":[1,3,5,7,9,11,13,15,17,19,21,23,25,27,29,-1,-1,-1,-1,-1,-1,-1,-1,-1,-1,-1,-1,-1,-1,-1,-1],"loss_changes":[8.1785234E4,2.0242705E4,2.1791839E5,4.5347197E3,1.537506E4,8.246516E4,1.9864936E4,9.5449414E2,3.035943E3,4.951735E3,8.484814E3,1.3483344E4,6.417324E3,2.3109E4,2.1324805E3,0E0,0E0,0E0,0E0,0E0,0E0,0E0,0E0,0E0,0E0,0E0,0E0,0E0,0E0,0E0,0E0],"parents":[2147483647,0,0,1,1,2,2,3,3,4,4,5,5,6,6,7,7,8,8,9,9,10,10,11,11,12,12,13,13,14,14],"right_children":[2,4,6,8,10,12,14,16,18,20,22,24,26,28,30,-1,-1,-1,-1,-1,-1,-1,-1,-1,-1,-1,-1,-1,-1,-1,-1],"split_conditions":[2.4870098E0,1E0,5.806179E-2,1.1372019E0,7.057306E-1,9.7910976E-1,1.3159109E-2,9.356704E-1,-1.784432E-2,-1.1127095E0,9.2700845E-1,1E0,1.1422948E0,7.3544934E-2,1.0412414E0,-5.301603E-1,-2.5706995E-1,-8.2064104E-1,3.5814363E-1,1.8225915E0,-1.1582837E-1,1.2070992E0,4.0398397E0,3.6808533E1,6.2178314E-1,1.4244766E1,2.1364295E0,8.906308E0,2.592595E-1,2.143176E0,5.8538237E0],"split_indices":[52,63,12,42,50,3,4,45,33,62,29,67,3,12,12,0,0,0,0,0,0,0,0,0,0,0,0,0,0,0,0],"split_type":[0,0,0,0,0,0,0,0,0,0,0,0,0,0,0,0,0,0,0,0,0,0,0,0,0,0,0,0,0,0,0],"sum_hessian":[1.2063E4,1.1494E4,5.69E2,8.824E3,2.67E3,4E1,5.29E2,7.552E3,1.272E3,1.742E3,9.28E2,2.4E1,1.6E1,4.12E2,1.17E2,6.13E3,1.422E3,2.42E2,1.03E3,1.27E2,1.615E3,8.21E2,1.07E2,2.3E1,1E0,6E0,1E1,2.9E1,3.83E2,1.8E1,9.9E1],"tree_param":{"num_deleted":"0","num_feature":"77","num_nodes":"31","size_leaf_vector":"1"}},{"base_weights":[1.1958743E-2,-3.9974138E-1,8.314557E0,-9.113693E-1,1.29083E0,5.86705E1,4.403409E0,-1.117257E0,3.109254E-1,-2.7496655E-2,3.8634183E0,8.601619E1,1.8950104E1,1.3897079E1,2.2981317E0,-3.5221303E-1,1.5776579E-1,-2.3814434E-1,5.5834305E-1,5.208233E-1,-3.1360272E-1,8.928639E-1,4.4220314E0,2.6880852E1,5.2851564E-1,1.065489E1,1.5537668E0,-1.9649187E0,4.320539E0,1.0801918E-1,5.164216E0],"categories":[],"categories_nodes":[],"categories_segments":[],"categories_sizes":[],"default_left":[0,0,0,0,0,0,0,0,0,0,0,0,0,0,0,0,0,0,0,0,0,0,0,0,0,0,0,0,0,0,0],"id":2,"left_children":[1,3,5,7,9,11,13,15,17,19,21,23,25,27,29,-1,-1,-1,-1,-1,-1,-1,-1,-1,-1,-1,-1,-1,-1,-1,-1],"loss_changes":[4.1240254E4,9.943703E3,1.12002875E5,2.221206E3,9.058835E3,4.2903453E4,1.056107E4,7.05376E2,2.181601E3,3.173662E3,8.689249E3,7.0947188E3,3.9224126E3,1.0850332E3,1.2568809E4,0E0,0E0,0E0,0E0,0E0,0E0,0E0,0E0,0E0,0E0,0E0,0E0,0E0,0E0,0E0,0E0],"parents":[2147483647,0,0,1,1,2,2,3,3,4,4,5,5,6,6,7,7,8,8,9,9,10,10,11,11,12,12,13,13,14,14],"right_children":[2,4,6,8,10,12,14,16,18,20,22,24,26,28,30,-1,-1,-1,-1,-1,-1,-1,-1,-1,-1,-1,-1,-1,-1,-1,-1],"split_conditions":[2.4870098E0,1E0,5.806179E-2,1.1372019E0,-2.0106238E-1,9.6097815E-1,-2.1430545E0,1.1710228E0,1E0,-3.0785367E-1,1E0,1E0,1.1422948E0,7.1416E-1,1E0,-3.5221303E-1,1.5776579E-1,-2.3814434E-1,5.5834305E-1,5.208233E-1,-3.1360272E-1,8.928639E-1,4.4220314E0,2.6880852E1,5.2851564E-1,1.065489E1,1.5537668E0,-1.9649187E0,4.320539E0,1.0801918E-1,5.164216E0],"split_indices":[52,63,12,42,38,3,8,5,69,54,68,67,3,12,68,0,0,0,0,0,0,0,0,0,0,0,0,0,0,0,0],"split_type":[0,0,0,0,0,0,0,0,0,0,0,0,0,0,0,0,0,0,0,0,0,0,0,0,0,0,0,0,0,0,0],"sum_hessian":[1.2063E4,1.1494E4,5.69E2,8.824E3,2.67E3,4E1,5.29E2,7.552E3,1.272E3,1.766E3,9.04E2,2.3E1,1.7E1,9.5E1,4.34E2,7.3E3,2.52E2,7.43E2,5.29E2,6.46E2,1.12E3,8.37E2,6.7E1,2.2E1,1E0,7E0,1E1,2E0,9.3E1,3.85E2,4.9E1],"tree_param":{"num_deleted":"0","num_feature":"77","num_nodes":"31","size_leaf_vector":"1"}},{"base_weights":[1.2755431E-2,-2.208323E-1,7.717825E0,-3.821347E-1,5.634532E0,3.6536858E1,1.850055E0,3.1370158E0,-4.955594E-1,-6.9848566E0,6.702981E0,5.3831944E1,1.18497505E1,1.2034521E0,9.472627E0,2.5052671E0,-2.3663017E-1,-2.1469487E-1,1.6553731E-1,-2.3325078E0,-2.6781347E-1,8.539794E0,1.5984776E0,1.870107E1,5.2006817E0,3.1184137E-1,4.9789715E0,7.187436E-1,-2.887129E-1,7.2351556E0,1.6315157E-2],"categories":[],"categories_nodes":[],"categories_segments":[],"categories_sizes":[],"default_left":[0,0,0,0,0,0,0,0,0,0,0,0,0,0,0,0,0,0,0,0,0,0,0,0,0,0,0,0,0,0,0],"id":3,"left_children":[1,3,5,7,9,11,13,15,17,19,21,23,25,27,29,-1,-1,-1,-1,-1,-1,-1,-1,-1,-1,-1,-1,-1,-1,-1,-1],"loss_changes":[2.171461E4,1.1062064E4,5.996413E4,4.550765E3,4.280537E3,2.498004E4,1.447518E3,7.2933867E3,2.5457036E3,1.1340491E2,8.524569E3,9.783344E3,1.3169243E3,7.098961E2,3.1709866E3,0E0,0E0,0E0,0E0,0E0,0E0,0E0,0E0,0E0,0E0,0E0,0E0,0E0,0E0,0E0,0E0],"parents":[2147483647,0,0,1,1,2,2,3,3,4,4,5,5,6,6,7,7,8,8,9,9,10,10,11,11,12,12,13,13,14,14],"right_children":[2,4,6,8,10,12,14,16,18,20,22,24,26,28,30,-1,-1,-1,-1,-1,-1,-1,-1,-1,-1,-1,-1,-1,-1,-1,-1],"split_conditions":[3.7554975E0,2.4974396E0,6.967415E-2,-1.771708E0,1.7805617E-1,1.0697681E0,1E0,1.7418538E-1,8.367887E0,1.5183587E-3,2.7289042E-1,1E0,5.032022E-2,1E0,3.9889657E-1,2.5052671E0,-2.3663017E-1,-2.1469487E-1,1.6553731E-1,-2.3325078E0,-2.6781347E-1,8.539794E0,1.5984776E0,1.870107E1,5.2006817E0,3.1184137E-1,4.9789715E0,7.187436E-1,-2.887129E-1,7.2351556E0,1.6315157E-2],"split_indices":[55,17,12,17,12,3,68,12,13,4,12,72,12,66,3,0,0,0,0,0,0,0,0,0,0,0,0,0,0,0,0],"split_type":[0,0,0,0,0,0,0,0,0,0,0,0,0,0,0,0,0,0,0,0,0,0,0,0,0,0,0,0,0,0,0],"sum_hessian":[1.2063E4,1.1709E4,3.54E2,1.1396E4,3.13E2,5.9E1,2.95E2,3.55E2,1.1041E4,2.4E1,2.89E2,3.4E1,2.5E1,2.73E2,2.2E1,1.52E2,2.03E2,9.124E3,1.917E3,2.1E1,3E0,1.6E1,2.73E2,2.7E1,7E0,8E0,1.7E1,1.76E2,9.7E1,8E0,1.4E1],"tree_param":{"num_deleted":"0","num_feature":"77","num_nodes":"31","size_leaf_vector":"1"}},{"base_weights":[1.2794208E-2,-1.5374927E-1,5.5063477E0,-2.3134898E-1,7.471396E0,5.978973E-1,2.3220001E1,-5.356586E-1,7.853436E-1,3.766891E0,1.043404E1,-1.2096096E1,1.0172627E0,3.6588493E1,4.286599E0,6.544875E-1,-1.7917638E-1,-8.543803E-3,7.120362E-1,2.8359294E0,-1.6856173E0,3.9774358E0,6.970483E-1,-4.209378E0,-1.8507981E0,5.896309E-1,-2.0298281E-1,1.5309932E1,7.2210026E0,2.0217285E0,-1.2659509E0],"categories":[],"categories_nodes":[],"categories_segments":[],"categories_sizes":[],"default_left":[0,0,0,0,0,0,0,0,0,0,0,0,0,0,0,0,0,0,0,0,0,0,0,0,0,0,0,0,0,0,0],"id":4,"left_children":[1,3,5,7,9,11,13,15,17,19,21,23,25,27,29,-1,-1,-1,-1,-1,-1,-1,-1,-1,-1,-1,-1,-1,-1,-1,-1],"loss_changes":[1.1038388E4,6.930641E3,3.0852156E4,3.5871711E3,1.2557617E3,1.4975396E3,1.9332707E4,1.4947783E3,3.452176E3,2.9350159E3,1.4580073E3,1.6660034E1,4.3657883E2,6.908742E3,7.168838E2,0E0,0E0,0E0,0E0,0E0,0E0,0E0,0E0,0E0,0E0,0E0,0E0,0E0,0E0,0E0,0E0],"parents":[2147483647,0,0,1,1,2,2,3,3,4,4,5,5,6,6,7,7,8,8,9,9,10,10,11,11,12,12,13,13,14,14],"right_children":[2,4,6,8,10,12,14,16,18,20,22,24,26,28,30,-1,-1,-1,-1,-1,-1,-1,-1,-1,-1,-1,-1,-1,-1,-1,-1],"split_conditions":[3.7554975E0,1.0173004E1,1E0,1E0,1.2425224E0,7.935111E-2,1.1785581E0,-2.267535E0,-2.0106238E-1,7.9779315E-1,1.5425082E0,6.90802E-1,1E0,5.4191004E-2,1E0,6.544875E-1,-1.7917638E-1,-8.543803E-3,7.120362E-1,2.8359294E0,-1.6856173E0,3.9774358E0,6.970483E-1,-4.209378E0,-1.8507981E0,5.896309E-1,-2.0298281E-1,1.5309932E1,7.2210026E0,2.0217285E0,-1.2659509E0],"split_indices":[55,4,68,63,12,12,3,19,38,3,12,1,66,12,76,0,0,0,0,0,0,0,0,0,0,0,0,0,0,0,0],"split_type":[0,0,0,0,0,0,0,0,0,0,0,0,0,0,0,0,0,0,0,0,0,0,0,0,0,0,0,0,0,0,0],"sum_hessian":[1.2063E4,1.1709E4,3.54E2,1.1592E4,1.17E2,2.78E2,7.6E1,8.922E3,2.67E3,5.3E1,6.4E1,8E0,2.7E2,4.4E1,3.2E1,1.97E2,8.725E3,1.766E3,9.04E2,3.3E1,2E1,4.7E1,1.7E1,5E0,3E0,1.73E2,9.7E1,1.9E1,2.5E1,2.5E1,7E0],"tree_param":{"num_deleted":"0","num_feature":"77","num_nodes":"31","size_leaf_vector":"1"}},{"base_weights":[1.0996417E-2,-1.0702644E-1,3.9040575E0,-1.6184263E-1,5.2793393E0,1.9068552E1,8.1698406E-1,1.749712E-1,-7.84925E-1,-5.379567E-1,6.6180735E0,3.32064E1,8.021334E0,1.4398762E0,-2.1335073E0,-3.848138E-2,3.4967017E-1,-2.090648E-1,-5.549934E-1,-1.77085E0,5.1082635E-1,3.4802203E0,9.8901945E-1,1.3367059E1,-1.1901783E0,1.1842605E0,7.1257796E0,3.1616515E-1,1.8747358E0,-7.8104526E-1,5.71069E-1],"categories":[],"categories_nodes":[],"categories_segments":[],"categories_sizes":[],"default_left":[0,0,0,0,0,0,0,0,0,0,0,0,0,0,0,0,0,0,0,0,0,0,0,0,0,0,0,0,0,0,0],"id":5,"left_children":[1,3,5,7,9,11,13,15,17,19,21,23,25,27,29,-1,-1,-1,-1,-1,-1,-1,-1,-1,-1,-1,-1,-1,-1,-1,-1],"loss_changes":[5.5434663E3,3.4583499E3,1.660336E4,2.4330762E3,9.22522E2,9.104674E3,5.4707196E2,2.2608904E3,3.801665E2,2.865373E2,1.5504712E3,1.1147164E4,2.149246E3,4.4821524E2,1.0361705E2,0E0,0E0,0E0,0E0,0E0,0E0,0E0,0E0,0E0,0E0,0E0,0E0,0E0,0E0,0E0,0E0],"parents":[2147483647,0,0,1,1,2,2,3,3,4,4,5,5,6,6,7,7,8,8,9,9,10,10,11,11,12,12,13,13,14,14],"right_children":[2,4,6,8,10,12,14,16,18,20,22,24,26,28,30,-1,-1,-1,-1,-1,-1,-1,-1,-1,-1,-1,-1,-1,-1,-1,-1],"split_conditions":[3.7554975E0,1.0173004E1,6.967415E-2,1E0,3.6263326E-1,8.5218817E-1,8.687113E-4,6.0029775E-1,1.1372019E0,1.1012386E0,7.9779315E-1,1E0,2.2721953E0,1E0,1.0412414E0,-3.848138E-2,3.4967017E-1,-2.090648E-1,-5.549934E-1,-1.77085E0,5.1082635E-1,3.4802203E0,9.8901945E-1,1.3367059E1,-1.1901783E0,1.1842605E0,7.1257796E0,3.1616515E-1,1.8747358E0,-7.8104526E-1,5.71069E-1],"split_indices":[55,4,12,64,3,3,5,48,42,12,3,72,0,68,12,0,0,0,0,0,0,0,0,0,0,0,0,0,0,0,0],"split_type":[0,0,0,0,0,0,0,0,0,0,0,0,0,0,0,0,0,0,0,0,0,0,0,0,0,0,0,0,0,0,0],"sum_hessian":[1.2063E4,1.1709E4,3.54E2,1.1592E4,1.17E2,5.9E1,2.95E2,7.525E3,4.067E3,2.2E1,9.5E1,2.5E1,3.4E1,2.44E2,5.1E1,5.762E3,1.763E3,3.758E3,3.09E2,6E0,1.6E1,3.7E1,5.8E1,1.9E1,6E0,2.8E1,6E0,2.27E2,1.7E1,4.6E1,5E0],"tree_param":{"num_deleted":"0","num_feature":"77","num_nodes":"31","size_leaf_vector":"1"}},{"base_weights":[9.78837E-3,-3.0347273E-1,9.036449E-1,-2.5785553E-1,-3.9604568E0,3.071805E-1,5.058384E0,-5.5054677E-1,2.5605664E-1,-5.07302E0,-3.5640745E0,3.5086057E0,-1.5564337E-1,9.84648E0,2.280207E0,-1.9997694E-1,3.2256404E-1,2.1539447E0,3.175274E-2,-9.564351E-1,-2.2036128E0,-7.483994E-1,1.5202837E0,-9.668871E-1,2.8106822E-2,3.5351493E0,-2.2800963E0,2.0354772E0,3.774809E-1],"categories":[],"categories_nodes":[],"categories_segments":[],"categories_sizes":[],"default_left":[0,0,0,0,0,0,0,0,0,0,0,0,0,0,0,0,0,0,0,0,0,0,0,0,0,0,0,0,0],"id":6,"left_children":[1,3,5,7,9,11,13,15,17,-1,19,21,23,25,27,-1,-1,-1,-1,-1,-1,-1,-1,-1,-1,-1,-1,-1,-1],"loss_changes":[3.3783208E3,1.4893606E3,7.757547E3,1.3275762E3,5.0436084E2,4.0589111E3,5.2053047E3,1.061541E3,3.3305098E3,0E0,1.3011597E2,3.2509038E3,1.8311897E3,4.956842E3,1.1423475E3,0E0,0E0,0E0,0E0,0E0,0E0,0E0,0E0,0E0,0E0,0E0,0E0,0E0,0E0],"parents":[2147483647,0,0,1,1,2,2,3,3,4,4,5,5,6,6,7,7,8,8,10,10,11,11,12,12,13,13,14,14],"right_children":[2,4,6,8,10,12,14,16,18,-1,20,22,24,26,28,-1,-1,-1,-1,-1,-1,-1,-1,-1,-1,-1,-1,-1,-1],"split_conditions":[1E0,2.4870098E0,1E0,1.0509185E0,6.386797E-2,-1.1392335E0,5.7792522E-2,5.010584E-1,-2.267535E0,-5.07302E0,1E0,-6.7649233E-1,8.1286505E-2,1.7769029E0,3.9889657E-1,-1.9997694E-1,3.2256404E-1,2.1539447E0,3.175274E-2,-9.564351E-1,-2.2036128E0,-7.483994E-1,1.5202837E0,-9.668871E-1,2.8106822E-2,3.5351493E0,-2.2800963E0,2.0354772E0,3.774809E-1],"split_indices":[63,52,68,12,12,60,16,4,19,0,68,38,12,3,3,0,0,0,0,0,0,0,0,0,0,0,0,0,0],"split_type":[0,0,0,0,0,0,0,0,0,0,0,0,0,0,0,0,0,0,0,0,0,0,0,0,0,0,0,0,0],"sum_hessian":[1.2063E4,8.933E3,3.13E3,8.824E3,1.09E2,2.738E3,3.92E2,5.622E3,3.202E3,2E0,1.07E2,3.45E2,2.393E3,1.43E2,2.49E2,5.248E3,3.74E2,6.7E1,3.135E3,9.9E1,8E0,7.1E1,2.74E2,1.79E2,2.214E3,1.29E2,1.4E1,4.5E1,2.04E2],"tree_param":{"num_deleted":"0","num_feature":"77","num_nodes":"29","size_leaf_vector":"1"}},{"base_weights":[6.6509424E-3,-2.3043047E-1,6.534943E-1,-5.6149423E-1,4.0464047E-1,2.5752988E-1,3.5090103E0,-3.1010833E0,-4.8105913E-1,-3.480171E-1,1.210047E0,3.2248143E-2,5.36928E0,1.7234184E1,2.728963E0,-1.4479873E0,-5.21335E-1,-2.548416E-1,-4.6896223E-2,-2.6185553E0,-8.3292216E-2,1.5733483E-1,2.09634E0,-8.424101E-1,3.910877E-2,7.7618396E-1,5.0968714E0,6.154881E0,-5.5312425E-1,1.2714349E0,-2.2504276E-1],"categories":[],"categories_nodes":[],"categories_segments":[],"categories_sizes":[],"default_left":[0,0,0,0,0,0,0,0,0,0,0,0,0,0,0,0,0,0,0,0,0,0,0,0,0,0,0,0,0,0,0],"id":7,"left_children":[1,3,5,7,9,11,13,15,17,19,21,23,25,27,29,-1,-1,-1,-1,-1,-1,-1,-1,-1,-1,-1,-1,-1,-1,-1,-1],"loss_changes":[1.8502196E3,1.8565154E3,3.6579849E3,1.1841035E3,1.8347683E3,3.27378E3,4.171245E3,4.1034497E2,6.730691E2,9.205967E2,5.7876294E3,7.594702E2,3.835361E3,1.3527505E3,1.9668679E3,0E0,0E0,0E0,0E0,0E0,0E0,0E0,0E0,0E0,0E0,0E0,0E0,0E0,0E0,0E0,0E0],"parents":[2147483647,0,0,1,1,2,2,3,3,4,4,5,5,6,6,7,7,8,8,9,9,10,10,11,11,12,12,13,13,14,14],"right_children":[2,4,6,8,10,12,14,16,18,20,22,24,26,28,30,-1,-1,-1,-1,-1,-1,-1,-1,-1,-1,-1,-1,-1,-1,-1,-1],"split_conditions":[7.057306E-1,1.4867964E0,1E0,-1.8024745E0,1E0,1.6421647E0,1.450533E-1,7.912172E-4,5.7481176E-1,-3.7161725E0,1.1624981E0,7.935111E-2,1E0,1.5183587E-3,1.0064044E-1,-1.4479873E0,-5.21335E-1,-2.548416E-1,-4.6896223E-2,-2.6185553E0,-8.3292216E-2,1.5733483E-1,2.09634E0,-8.424101E-1,3.910877E-2,7.7618396E-1,5.0968714E0,6.154881E0,-5.5312425E-1,1.2714349E0,-2.2504276E-1],"split_indices":[50,3,68,15,69,29,3,6,12,31,42,12,69,4,12,0,0,0,0,0,0,0,0,0,0,0,0,0,0,0,0],"split_type":[0,0,0,0,0,0,0,0,0,0,0,0,0,0,0,0,0,0,0,0,0,0,0,0,0,0,0,0,0,0,0],"sum_hessian":[1.2063E4,8.828E3,3.235E3,5.803E3,3.025E3,2.842E3,3.93E2,1.77E2,5.626E3,1.564E3,1.461E3,2.723E3,1.19E2,2E1,3.73E2,7.7E1,1E2,2.635E3,2.991E3,1.2E1,1.552E3,1.307E3,1.54E2,9E1,2.633E3,9.7E1,2.2E1,1.7E1,3E0,2.6E2,1.13E2],"tree_param":{"num_deleted":"0","num_feature":"77","num_nodes":"31","size_leaf_vector":"1"}},{"base_weights":[5.4015717E-3,1.7206241E-1,-6.703207E-1,1.4591558E-1,9.178168E0,3.7889528E0,-8.0271375E-1,7.226115E-2,2.8271708E0,-4.1992106E0,2.2855492E1,-1.5212876E0,5.048853E0,-7.443604E-1,-3.1071029E0,-4.757311E-2,2.299848E-1,4.7153473E0,3.7572858E-1,-1.509792E0,1.1203183E0,7.651541E0,-1.738484E0,-5.032916E-1,-2.1330014E-1,1.6383492E0,-5.0294274E-1,8.838166E-1,-2.5378406E-1],"categories":[],"categories_nodes":[],"categories_segments":[],"categories_sizes":[],"default_left":[0,0,0,0,0,0,0,0,0,0,0,0,0,0,0,0,0,0,0,0,0,0,0,0,0,0,0,0,0],"id":8,"left_children":[1,3,5,7,9,11,13,15,17,19,21,23,25,27,-1,-1,-1,-1,-1,-1,-1,-1,-1,-1,-1,-1,-1,-1,-1],"loss_changes":[1.35872E3,2.277647E3,1.412271E3,1.9057366E3,5.219044E3,4.6931653E2,1.2851918E3,1.5058258E3,5.2175737E3,1.1797522E2,1.2105894E3,5.808449E-1,1.6443921E2,8.670023E2,0E0,0E0,0E0,0E0,0E0,0E0,0E0,0E0,0E0,0E0,0E0,0E0,0E0,0E0,0E0],"parents":[2147483647,0,0,1,1,2,2,3,3,4,4,5,5,6,6,7,7,8,8,9,9,10,10,11,11,12,12,13,13],"right_children":[2,4,6,8,10,12,14,16,18,20,22,24,26,28,-1,-1,-1,-1,-1,-1,-1,-1,-1,-1,-1,-1,-1,-1,-1],"split_conditions":[1E0,3.4147193E0,-2.0008452E0,3.7554975E0,1.954747E-1,1E0,2.4974396E0,8.335375E0,5.4191004E-2,9.8705046E-2,2.103273E0,2.4176612E0,1.275424E0,-3.5881429E0,-3.1071029E0,-4.757311E-2,2.299848E-1,4.7153473E0,3.7572858E-1,-1.509792E0,1.1203183E0,7.651541E0,-1.738484E0,-5.032916E-1,-2.1330014E-1,1.6383492E0,-5.0294274E-1,8.838166E-1,-2.5378406E-1],"split_indices":[66,22,46,55,12,63,17,13,12,12,3,11,12,44,0,0,0,0,0,0,0,0,0,0,0,0,0,0,0],"split_type":[0,0,0,0,0,0,0,0,0,0,0,0,0,0,0,0,0,0,0,0,0,0,0,0,0,0,0,0,0],"sum_hessian":[1.2063E4,9.677E3,2.386E3,9.65E3,2.7E1,6.8E1,2.318E3,9.393E3,2.57E2,1.4E1,1.3E1,1.3E1,5.5E1,2.305E3,1.3E1,7.05E3,2.343E3,2.7E1,2.3E2,1.3E1,1E0,1.2E1,1E0,1E1,3E0,5.2E1,3E0,6.1E1,2.244E3],"tree_param":{"num_deleted":"0","num_feature":"77","num_nodes":"29","size_leaf_vector":"1"}},{"base_weights":[4.505466E-3,-7.5699383E-1,1.16424225E-1,2.5469503E0,-9.1072536E-1,3.521566E-1,-3.658576E-1,5.638384E0,-7.2408686E0,-6.387198E-1,-2.3540423E0,6.438212E-1,-2.7939674E-1,-2.5816807E-1,-1.4495192E0,-1.5687767E0,2.2217503E0,-1.5835732E0,-2.9875917E0,-1.4366294E-1,-8.2045645E-1,-5.183673E-1,-1.2423252E0,1.7181827E-1,1.6215106E0,-7.775381E-3,-4.3764293E-1,-1.3710424E-1,3.614513E-2,-2.2829257E-1,-5.477922E-1],"categories":[],"categories_nodes":[],"categories_segments":[],"categories_sizes":[],"default_left":[0,0,0,0,0,0,0,0,0,0,0,0,0,0,0,0,0,0,0,0,0,0,0,0,0,0,0,0,0,0,0],"id":9,"left_children":[1,3,5,7,9,11,13,15,17,19,21,23,25,27,29,-1,-1,-1,-1,-1,-1,-1,-1,-1,-1,-1,-1,-1,-1,-1,-1],"loss_changes":[1.0282554E3,7.875644E2,1.1960282E3,2.1286558E3,5.7874475E2,1.3017493E3,4.027042E2,1.056752E3,3.8094482E1,4.158315E2,2.5468091E2,1.6331744E3,6.6753143E2,2.3670229E2,7.9482544E1,0E0,0E0,0E0,0E0,0E0,0E0,0E0,0E0,0E0,0E0,0E0,0E0,0E0,0E0,0E0,0E0],"parents":[2147483647,0,0,1,1,2,2,3,3,4,4,5,5,6,6,7,7,8,8,9,9,10,10,11,11,12,12,13,13,14,14],"right_children":[2,4,6,8,10,12,14,16,18,20,22,24,26,28,30,-1,-1,-1,-1,-1,-1,-1,-1,-1,-1,-1,-1,-1,-1,-1,-1],"split_conditions":[-5.8678496E-1,-1.2190022E0,1E0,1E0,1E0,5.582551E-1,1.1372019E0,5.9997186E-2,1.954747E-1,2.4870098E0,1.3692033E-1,1.5724161E0,1E0,2.391135E0,-1.784432E-2,-1.5687767E0,2.2217503E0,-1.5835732E0,-2.9875917E0,-1.4366294E-1,-8.2045645E-1,-5.183673E-1,-1.2423252E0,1.7181827E-1,1.6215106E0,-7.775381E-3,-4.3764293E-1,-1.3710424E-1,3.614513E-2,-2.2829257E-1,-5.477922E-1],"split_indices":[42,62,64,66,63,20,42,12,12,52,20,29,66,11,33,0,0,0,0,0,0,0,0,0,0,0,0,0,0,0,0],"split_type":[0,0,0,0,0,0,0,0,0,0,0,0,0,0,0,0,0,0,0,0,0,0,0,0,0,0,0,0,0,0,0],"sum_hessian":[1.2063E4,1.545E3,1.0518E4,6.8E1,1.477E3,7.065E3,3.453E3,5.2E1,1.6E1,1.244E3,2.33E2,4.833E3,2.232E3,3.142E3,3.11E2,7E0,4.5E1,1.1E1,5E0,1.157E3,8.7E1,1.74E2,5.9E1,4.763E3,7E1,1.838E3,3.94E2,2.06E3,1.082E3,1.11E2,2E2],"tree_param":{"num_deleted":"0","num_feature":"77","num_nodes":"31","size_leaf_vector":"1"}},{"base_weights":[2.642229E-3,-3.455126E-2,1.7676045E0,4.0534917E-2,-8.1921196E-1,4.7762382E-1,4.2508893E0,-1.1852577E-1,5.242573E-1,-6.9683015E-1,-2.2474623E0,-7.351496E0,1.0301573E0,6.135036E0,-5.1646394E-1,-3.9514086E-1,-8.807963E-3,5.6123372E-2,8.20779E-1,-5.9006464E-1,-1.7579222E-1,-3.9838272E-1,-7.7676123E-1,-2.4469638E0,-7.457551E-1,8.782539E-2,1.5748497E0,-1.3051019E0,2.272444E0,3.7452215E-1,-4.1624966E0],"categories":[],"categories_nodes":[],"categories_segments":[],"categories_sizes":[],"default_left":[0,0,0,0,0,0,0,0,0,0,0,0,0,0,0,0,0,0,0,0,0,0,0,0,0,0,0,0,0,0,0],"id":10,"left_children":[1,3,5,7,9,11,13,15,17,19,21,23,25,27,29,-1,-1,-1,-1,-1,-1,-1,-1,-1,-1,-1,-1,-1,-1,-1,-1],"loss_changes":[7.920036E2,6.961985E2,7.956137E2,8.2987317E2,1.7881915E2,7.213387E2,7.6667175E2,8.674671E2,1.989843E3,1.3288239E2,2.2014984E1,2.281195E1,4.8072528E2,9.538457E2,6.067234E2,0E0,0E0,0E0,0E0,0E0,0E0,0E0,0E0,0E0,0E0,0E0,0E0,0E0,0E0,0E0,0E0],"parents":[2147483647,0,0,1,1,2,2,3,3,4,4,5,5,6,6,7,7,8,8,9,9,10,10,11,11,12,12,13,13,14,14],"right_children":[2,4,6,8,10,12,14,16,18,20,22,24,26,28,30,-1,-1,-1,-1,-1,-1,-1,-1,-1,-1,-1,-1,-1,-1,-1,-1],"split_conditions":[1.3847258E0,1.0031462E0,1.2425224E0,1E0,5.5763173E-1,1.8421386E0,1.5425082E0,6.9231505E-4,1E0,-1.3351696E0,1E0,1.1805898E0,1E0,3.6263326E-1,1E0,-3.9514086E-1,-8.807963E-3,5.6123372E-2,8.20779E-1,-5.9006464E-1,-1.7579222E-1,-3.9838272E-1,-7.7676123E-1,-2.4469638E0,-7.457551E-1,8.782539E-2,1.5748497E0,-1.3051019E0,2.272444E0,3.7452215E-1,-4.1624966E0],"split_indices":[5,53,12,63,47,1,12,6,68,58,69,12,75,3,74,0,0,0,0,0,0,0,0,0,0,0,0,0,0,0,0],"split_type":[0,0,0,0,0,0,0,0,0,0,0,0,0,0,0,0,0,0,0,0,0,0,0,0,0,0,0,0,0,0,0],"sum_hessian":[1.2063E4,1.1815E4,2.48E2,1.0784E4,1.031E3,1.64E2,8.4E1,8.116E3,2.668E3,9.51E2,8E1,1E1,1.54E2,6E1,2.4E1,5.61E2,7.555E3,2.316E3,3.52E2,7.5E1,8.76E2,2.3E1,5.7E1,8E0,2E0,1.32E2,2.2E1,7E0,5.3E1,2.2E1,2E0],"tree_param":{"num_deleted":"0","num_feature":"77","num_nodes":"31","size_leaf_vector":"1"}},{"base_weights":[1.3672375E-3,-1.1111821E0,1.5238907E-2,8.24803E-1,-4.4106394E-2,2.2877E0,-2.7256835E-1,-5.653382E-1,4.1623183E-2,3.7143607E0,4.2332008E-1,-2.2536807E0,-1.5056031E-2,-2.3972501E-1,4.6391538E-1,1.2015845E0,4.020548E-3],"categories":[],"categories_nodes":[],"categories_segments":[],"categories_sizes":[],"default_left":[0,0,0,0,0,0,0,0,0,0,0,0,0,0,0,0,0],"id":11,"left_children":[1,-1,3,5,7,9,11,13,15,-1,-1,-1,-1,-1,-1,-1,-1],"loss_changes":[6.2013153E2,0E0,5.775232E2,1.3186089E3,5.0049533E2,3.0971304E3,7.563117E2,7.821189E2,1.0759259E3,0E0,0E0,0E0,0E0,0E0,0E0,0E0,0E0],"parents":[2147483647,0,0,2,2,3,3,4,4,5,5,6,6,7,7,8,8],"right_children":[2,-1,4,6,8,10,12,14,16,-1,-1,-1,-1,-1,-1,-1,-1],"split_conditions":[-2.6768801E0,-1.1111821E0,-2.3051505E0,9.6097815E-1,-5.204152E-1,5.4191004E-2,5.032022E-2,1.9215881E0,-4.958352E-1,3.7143607E0,4.2332008E-1,-2.2536807E0,-1.5056031E-2,-2.3972501E-1,4.6391538E-1,1.2015845E0,4.020548E-3],"split_indices":[39,0,56,3,37,12,12,16,37,0,0,0,0,0,0,0,0],"split_type":[0,0,0,0,0,0,0,0,0,0,0,0,0,0,0,0,0],"sum_hessian":[1.2063E4,4.4E1,1.2019E4,8.2E2,1.1199E4,3.51E2,4.69E2,1.581E3,9.618E3,2.7E1,3.24E2,1.3E1,4.56E2,1.424E3,1.57E2,6.7E1,9.551E3],"tree_param":{"num_deleted":"0","num_feature":"77","num_nodes":"17","size_leaf_vector":"1"}},{"base_weights":[1.1384008E-3,9.889686E-2,-3.9522E-1,4.3452363E0,8.170743E-2,2.6383598E0,-4.8531136E-1,3.1181435E1,-5.9838467E0,-9.028221E-1,1.6175479E-1,2.6288882E-1,3.7446892E0,-2.6095593E0,-3.94395E-1,-1.7547983E0,1.2018126E1,-6.4125896E-2,-1.9924217E0,-2.030228E-1,-6.481979E-1,6.84611E-4,1.9009714E-1,1.5667002E-1,-3.298668E-1,1.2401819E0,-4.4197217E-1,-1.0076518E0,8.808531E-3,-1.0765405E-1,-1.7948519E0],"categories":[],"categories_nodes":[],"categories_segments":[],"categories_sizes":[],"default_left":[0,0,0,0,0,0,0,0,0,0,0,0,0,0,0,0,0,0,0,0,0,0,0,0,0,0,0,0,0,0,0],"id":12,"left_children":[1,3,5,7,9,11,13,15,17,19,21,23,25,27,29,-1,-1,-1,-1,-1,-1,-1,-1,-1,-1,-1,-1,-1,-1,-1,-1],"loss_changes":[4.674876E2,7.0606323E2,6.5364575E2,1.0997124E4,7.5986456E2,1.8035117E2,4.468366E2,3.8510771E3,1.0861145E2,2.0470691E2,6.709772E2,8.701105E0,1.0155121E2,1.8794116E2,4.3986963E2,0E0,0E0,0E0,0E0,0E0,0E0,0E0,0E0,0E0,0E0,0E0,0E0,0E0,0E0,0E0,0E0],"parents":[2147483647,0,0,1,1,2,2,3,3,4,4,5,5,6,6,7,7,8,8,9,9,10,10,11,11,12,12,13,13,14,14],"right_children":[2,4,6,8,10,12,14,16,18,20,22,24,26,28,30,-1,-1,-1,-1,-1,-1,-1,-1,-1,-1,-1,-1,-1,-1,-1,-1],"split_conditions":[1E0,-3.7161725E0,-2.0008452E0,2.9611513E-1,-8.904056E-1,5.7481176E-1,-1.771708E0,1.4128369E-1,4.1030332E-1,5.557952E-1,7.057306E-1,1.6862446E0,1.275424E0,1.7769029E0,2.4974396E0,-1.7547983E0,1.2018126E1,-6.4125896E-2,-1.9924217E0,-2.030228E-1,-6.481979E-1,6.84611E-4,1.9009714E-1,1.5667002E-1,-3.298668E-1,1.2401819E0,-4.4197217E-1,-1.0076518E0,8.808531E-3,-1.0765405E-1,-1.7948519E0],"split_indices":[66,31,46,12,31,12,17,12,12,28,50,3,12,3,17,0,0,0,0,0,0,0,0,0,0,0,0,0,0,0,0],"split_type":[0,0,0,0,0,0,0,0,0,0,0,0,0,0,0,0,0,0,0,0,0,0,0,0,0,0,0,0,0,0,0],"sum_hessian":[1.2063E4,9.677E3,2.386E3,3.8E1,9.639E3,6.8E1,2.318E3,1E1,2.8E1,7.24E2,8.915E3,2.2E1,4.6E1,9.4E1,2.224E3,2E0,8E0,3E0,2.5E1,6.15E2,1.09E2,6.664E3,2.251E3,1.9E1,3E0,4.3E1,3E0,7.3E1,2.1E1,2.211E3,1.3E1],"tree_param":{"num_deleted":"0","num_feature":"77","num_nodes":"31","size_leaf_vector":"1"}},{"base_weights":[1.2337297E-3,1.2974328E-2,-3.0008886E0,-1.1400363E0,4.329747E-2,-1.6463221E0,-3.3690526E0,1.1914776E1,-1.7557222E0,1.06089465E-1,-4.6315444E-1,-5.179832E-1,-1.1447241E-1,-1.1419135E0,-7.9691166E-1,5.2813993E0,-2.013334E0,-2.5005867E0,-3.8942337E-1,2.5493356E-3,4.9459618E-1,-5.9868015E-2,-1.0416884E0],"categories":[],"categories_nodes":[],"categories_segments":[],"categories_sizes":[],"default_left":[0,0,0,0,0,0,0,0,0,0,0,0,0,0,0,0,0,0,0,0,0,0,0],"id":13,"left_children":[1,3,5,7,9,11,13,15,17,19,21,-1,-1,-1,-1,-1,-1,-1,-1,-1,-1,-1,-1],"loss_changes":[4.2525525E2,4.2023355E2,1.7892487E1,2.4965195E3,3.724721E2,5.5970764E-1,1.1090698E0,1.6018563E3,8.7745526E2,1.5686279E3,1.0241117E3,0E0,0E0,0E0,0E0,0E0,0E0,0E0,0E0,0E0,0E0,0E0,0E0],"parents":[2147483647,0,0,1,1,2,2,3,3,4,4,5,5,6,6,7,7,8,8,9,9,10,10],"right_children":[2,4,6,8,10,12,14,16,18,20,22,-1,-1,-1,-1,-1,-1,-1,-1,-1,-1,-1,-1],"split_conditions":[3.3329744E0,5.032022E-2,-6.705451E-1,1.0878997E-1,2.3752477E0,1E0,4.318727E-2,1E0,-1.771708E0,1.885693E0,9.094113E-1,-5.179832E-1,-1.1447241E-1,-1.1419135E0,-7.9691166E-1,5.2813993E0,-2.013334E0,-2.5005867E0,-3.8942337E-1,2.5493356E-3,4.9459618E-1,-5.9868015E-2,-1.0416884E0],"split_indices":[56,12,15,3,3,64,6,73,17,3,61,0,0,0,0,0,0,0,0,0,0,0,0],"split_type":[0,0,0,0,0,0,0,0,0,0,0,0,0,0,0,0,0,0,0,0,0,0,0],"sum_hessian":[1.2063E4,1.2017E4,4.6E1,3.07E2,1.171E4,1.1E1,3.5E1,1.3E1,2.94E2,1.0419E4,1.291E3,1E1,1E0,1.9E1,1.6E1,1E1,3E0,1.8E1,2.76E2,9.8E3,6.19E2,1.188E3,1.03E2],"tree_param":{"num_deleted":"0","num_feature":"77","num_nodes":"23","size_leaf_vector":"1"}},{"base_weights":[6.317363E-4,-1.498432E0,1.7595105E-2,-8.449032E0,-1.0892646E0,1.3638957E-1,-2.122831E-1,1.1610026E1,-1.7752472E0,-3.6592606E-1,3.0224788E-1,-7.96574E-1,-1.0165178E-1,-8.898733E-1,6.9851375E0,-3.1126707E0,-3.5758787E-1,-1.4299436E-1,4.7035348E-1,1.469632E-1,-1.0344214E-1,-1.9624639E-1,-5.269374E-1,-1.5921095E-2,-3.0386382E-1],"categories":[],"categories_nodes":[],"categories_segments":[],"categories_sizes":[],"default_left":[0,0,0,0,0,0,0,0,0,0,0,0,0,0,0,0,0,0,0,0,0,0,0,0,0],"id":14,"left_children":[1,3,5,-1,7,9,11,13,15,17,19,21,23,-1,-1,-1,-1,-1,-1,-1,-1,-1,-1,-1,-1],"loss_changes":[3.0680386E2,1.4422336E3,3.258165E2,0E0,1.1879508E3,6.554524E2,2.6268414E2,1.2601848E3,6.2973987E2,4.189051E2,7.181673E2,8.7299866E1,1.5130118E2,0E0,0E0,0E0,0E0,0E0,0E0,0E0,0E0,0E0,0E0,0E0,0E0],"parents":[2147483647,0,0,1,1,2,2,4,4,5,5,6,6,7,7,8,8,9,9,10,10,11,11,12,12],"right_children":[2,4,6,-1,8,10,12,14,16,18,20,22,24,-1,-1,-1,-1,-1,-1,-1,-1,-1,-1,-1,-1],"split_conditions":[4.0643252E-2,3.6263324E-2,1E0,-8.449032E0,1.0878997E-1,-2.2727011E-1,-8.1401944E-1,6.0257465E-1,-1.2677459E0,1.7659929E0,1E0,1.1710228E0,1.108791E0,-8.898733E-1,6.9851375E0,-3.1126707E0,-3.5758787E-1,-1.4299436E-1,4.7035348E-1,1.469632E-1,-1.0344214E-1,-1.9624639E-1,-5.269374E-1,-1.5921095E-2,-3.0386382E-1],"split_indices":[12,3,64,0,3,42,40,7,59,57,66,5,42,0,0,0,0,0,0,0,0,0,0,0,0],"split_type":[0,0,0,0,0,0,0,0,0,0,0,0,0,0,0,0,0,0,0,0,0,0,0,0,0],"sum_hessian":[1.2063E4,1.34E2,1.1929E4,1E0,1.33E2,7.865E3,4.064E3,6E0,1.27E2,1.952E3,5.913E3,6.46E2,3.418E3,3E0,3E0,7E0,1.2E2,1.847E3,1.05E2,4.584E3,1.329E3,5.64E2,8.2E1,3.246E3,1.72E2],"tree_param":{"num_deleted":"0","num_feature":"77","num_nodes":"25","size_leaf_vector":"1"}},{"base_weights":[-9.621656E-5,2.6792405E-2,-8.0078703E-1,4.2357266E-1,-5.1410876E-2,-4.9271736E-1,-2.1866693E0,6.3595694E-1,-7.044974E-1,-2.7344093E-1,1.9126089E-1,-1.04565635E-1,-1.0365081E0,-1.3698355E0,-2.3632631E0,4.5795915E-1,5.7271793E-2,-6.5650475E-1,8.900855E-2,-1.5922847E0,-7.396857E-2,4.5723848E-2,3.6633162E0,-3.565258E-1,2.2682978E-2,-2.4575488E-1,-6.149164E-1,-4.4401792E-1,2.5995292E-2,-7.392802E-1,-3.2820466E-1],"categories":[],"categories_nodes":[],"categories_segments":[],"categories_sizes":[],"default_left":[0,0,0,0,0,0,0,0,0,0,0,0,0,0,0,0,0,0,0,0,0,0,0,0,0,0,0,0,0,0,0],"id":15,"left_children":[1,3,5,7,9,11,13,15,17,19,21,23,25,27,29,-1,-1,-1,-1,-1,-1,-1,-1,-1,-1,-1,-1,-1,-1,-1,-1],"loss_changes":[2.5975302E2,3.622293E2,1.6628632E2,4.6092917E2,5.2549414E2,6.78572E1,7.004303E0,6.410039E2,4.5376373E2,6.8784454E2,2.1741064E3,3.6998524E1,2.7827255E1,2.5363483E0,4.6114197E0,0E0,0E0,0E0,0E0,0E0,0E0,0E0,0E0,0E0,0E0,0E0,0E0,0E0,0E0,0E0,0E0],"parents":[2147483647,0,0,1,1,2,2,3,3,4,4,5,5,6,6,7,7,8,8,9,9,10,10,11,11,12,12,13,13,14,14],"right_children":[2,4,6,8,10,12,14,16,18,20,22,24,26,28,30,-1,-1,-1,-1,-1,-1,-1,-1,-1,-1,-1,-1,-1,-1,-1,-1],"split_conditions":[1.4641104E0,-9.872726E-1,3.6322258E0,1.831298E0,1E0,-2.2599222E-1,4.6449434E-2,2.0708705E-1,3.0130963E0,4.361661E0,3.4147193E0,3.2636994E-1,1.3334858E0,1E0,1E0,4.5795915E-1,5.7271793E-2,-6.5650475E-1,8.900855E-2,-1.5922847E0,-7.396857E-2,4.5723848E-2,3.6633162E0,-3.565258E-1,2.2682978E-2,-2.4575488E-1,-6.149164E-1,-4.4401792E-1,2.5995292E-2,-7.392802E-1,-3.2820466E-1],"split_indices":[28,59,9,3,69,25,12,12,9,13,22,3,12,76,70,0,0,0,0,0,0,0,0,0,0,0,0,0,0,0,0],"split_type":[0,0,0,0,0,0,0,0,0,0,0,0,0,0,0,0,0,0,0,0,0,0,0,0,0,0,0,0,0,0,0],"sum_hessian":[1.2063E4,1.1672E4,3.91E2,1.921E3,9.751E3,3.21E2,7E1,1.617E3,3.04E2,5.092E3,4.659E3,1.88E2,1.33E2,1.4E1,5.6E1,5.38E2,1.079E3,1.22E2,1.82E2,2.6E1,5.066E3,4.645E3,1.4E1,2.6E1,1.62E2,1.11E2,2.2E1,1.3E1,1E0,5.1E1,5E0],"tree_param":{"num_deleted":"0","num_feature":"77","num_nodes":"31","size_leaf_vector":"1"}},{"base_weights":[-1.2452262E-4,-9.4287045E-2,2.616249E-1,-4.983484E0,-8.489215E-2,7.6220614E-1,-3.3123946E-1,-2.2232614E0,-4.570923E-1,1.566502E-1,-2.650087E-1,1.135524E1,6.5051603E-1,-1.799777E0,-9.977568E-2,5.120142E-1,-1.1733216E0,1.0339053E-2,3.3065313E-1,-1.0972705E0,-6.792583E-2,8.646419E0,-1.649947E0,2.0286286E0,1.3770697E-1,-1.7732176E-1,-1.2358856E0,-1.0446065E-1,2.3235285E-1],"categories":[],"categories_nodes":[],"categories_segments":[],"categories_sizes":[],"default_left":[0,0,0,0,0,0,0,0,0,0,0,0,0,0,0,0,0,0,0,0,0,0,0,0,0,0,0,0,0],"id":16,"left_children":[1,3,5,7,9,11,13,-1,15,17,19,21,23,25,27,-1,-1,-1,-1,-1,-1,-1,-1,-1,-1,-1,-1,-1,-1],"loss_changes":[2.9736594E2,4.0714508E2,9.4756396E2,1.833967E2,3.8537216E2,2.0406233E3,4.9677362E2,0E0,5.8991276E1,4.3713046E2,6.6344147E2,5.457589E3,2.0028308E3,5.555617E2,2.748049E2,0E0,0E0,0E0,0E0,0E0,0E0,0E0,0E0,0E0,0E0,0E0,0E0,0E0,0E0],"parents":[2147483647,0,0,1,1,2,2,3,3,4,4,5,5,6,6,8,8,9,9,10,10,11,11,12,12,13,13,14,14],"right_children":[2,4,6,8,10,12,14,-1,16,18,20,22,24,26,28,-1,-1,-1,-1,-1,-1,-1,-1,-1,-1,-1,-1,-1,-1],"split_conditions":[1.6318496E0,-3.7161725E0,2.103273E0,1.3054798E0,1.8421386E0,-3.7161725E0,6.9231505E-4,-2.2232614E0,1.4324013E0,1.064237E0,-2.267535E0,1E0,-1.8024745E0,6.43897E-1,3.8801758E0,5.120142E-1,-1.1733216E0,1.0339053E-2,3.3065313E-1,-1.0972705E0,-6.792583E-2,8.646419E0,-1.649947E0,2.0286286E0,1.3770697E-1,-1.7732176E-1,-1.2358856E0,-1.0446065E-1,2.3235285E-1],"split_indices":[3,31,3,3,1,31,6,0,3,55,19,66,15,18,3,0,0,0,0,0,0,0,0,0,0,0,0,0,0],"split_type":[0,0,0,0,0,0,0,0,0,0,0,0,0,0,0,0,0,0,0,0,0,0,0,0,0,0,0,0,0],"sum_hessian":[1.2063E4,8.872E3,3.191E3,1.6E1,8.856E3,1.73E3,1.461E3,1E1,6E0,3.783E3,5.073E3,1.7E1,1.713E3,1.98E2,1.263E3,4E0,2E0,3.351E3,4.32E2,5.6E1,5.017E3,8E0,9E0,5.1E1,1.662E3,1.31E2,6.7E1,9.84E2,2.79E2],"tree_param":{"num_deleted":"0","num_feature":"77","num_nodes":"29","size_leaf_vector":"1"}},{"base_weights":[2.5839813E-4,2.1511567E0,-1.085182E-2,-1.7303318E0,3.5388553E0,-9.4975525E-1,1.23932585E-2,-2.1156178E0,-3.825218E-1,2.7909048E0,6.7427583E0,-3.8441808E0,-8.54012E-1,-1.142321E-1,2.2764476E-1,-7.3763806E-1,-4.5630455E-2,-3.167692E-1,3.4664705E-1,1.169339E0,2.868407E-1,2.8805478E0,4.4497055E-1,-3.7596064E0,1.2850429E-1,-2.1480437E-1,-4.876564E-1,-1.937338E-3,-1.3720737E-1,-5.9768176E-1,9.294286E-2],"categories":[],"categories_nodes":[],"categories_segments":[],"categories_sizes":[],"default_left":[0,0,0,0,0,0,0,0,0,0,0,0,0,0,0,0,0,0,0,0,0,0,0,0,0,0,0,0,0,0,0],"id":17,"left_children":[1,3,5,7,9,11,13,15,17,19,21,23,25,27,29,-1,-1,-1,-1,-1,-1,-1,-1,-1,-1,-1,-1,-1,-1,-1,-1],"loss_changes":[2.883161E2,3.4007626E2,2.619759E2,8.0187E0,9.1414246E1,7.7082245E1,3.193063E2,8.385811E0,6.398377E0,7.5477936E1,1.06056885E2,3.3943945E2,2.8859634E1,2.7276257E2,7.920464E2,0E0,0E0,0E0,0E0,0E0,0E0,0E0,0E0,0E0,0E0,0E0,0E0,0E0,0E0,0E0,0E0],"parents":[2147483647,0,0,1,1,2,2,3,3,4,4,5,5,6,6,7,7,8,8,9,9,10,10,11,11,12,12,13,13,14,14],"right_children":[2,4,6,8,10,12,14,16,18,20,22,24,26,28,30,-1,-1,-1,-1,-1,-1,-1,-1,-1,-1,-1,-1,-1,-1,-1,-1],"split_conditions":[-3.5881429E0,3.5804772E-1,-1.3681958E0,1E0,1E0,6.386797E-2,2.3945546E-1,1E0,3.1273607E-3,-2.9375514E-1,2.072406E0,1.0122391E-3,9.407919E-1,1.0274584E-1,5.806179E-2,-7.3763806E-1,-4.5630455E-2,-3.167692E-1,3.4664705E-1,1.169339E0,2.868407E-1,2.8805478E0,4.4497055E-1,-3.7596064E0,1.2850429E-1,-2.1480437E-1,-4.876564E-1,-1.937338E-3,-1.3720737E-1,-5.9768176E-1,9.294286E-2],"split_indices":[44,12,51,76,73,12,18,70,5,7,1,4,33,61,12,0,0,0,0,0,0,0,0,0,0,0,0,0,0,0,0],"split_type":[0,0,0,0,0,0,0,0,0,0,0,0,0,0,0,0,0,0,0,0,0,0,0,0,0,0,0,0,0,0,0],"sum_hessian":[1.2063E4,6.1E1,1.2002E4,1.6E1,4.5E1,2.89E2,1.1713E4,1.2E1,4E0,3.8E1,7E0,8E0,2.81E2,7.375E3,4.338E3,1E1,2E0,3E0,1E0,2.3E1,1.5E1,4E0,3E0,2E0,6E0,2.4E2,4.1E1,5.613E3,1.762E3,1.54E2,4.184E3],"tree_param":{"num_deleted":"0","num_feature":"77","num_nodes":"31","size_leaf_vector":"1"}},{"base_weights":[1.02220125E-4,5.4183744E-2,-3.528616E-1,4.088197E-2,2.0003507E0,-2.2388022E-1,-1.7425073E0,-6.400534E-2,2.6109245E-1,3.229017E-1,9.459516E0,-3.8026204E0,-2.0413086E-1,-2.8133714E-1,-3.4311438E0,1.4793527E-1,-4.4413783E-2,1.6886828E-2,3.4282744E-1,-4.4710043E-1,2.0560832E0,3.2009432E0,-7.596022E-1,-3.4293437E-1,-1.2057743E0,-3.2609448E-1,-3.900807E-2,-2.511484E0,1.7899536E-2,-2.1009533E0,-7.875119E-1],"categories":[],"categories_nodes":[],"categories_segments":[],"categories_sizes":[],"default_left":[0,0,0,0,0,0,0,0,0,0,0,0,0,0,0,0,0,0,0,0,0,0,0,0,0,0,0,0,0,0,0],"id":18,"left_children":[1,3,5,7,9,11,13,15,17,19,21,23,25,27,29,-1,-1,-1,-1,-1,-1,-1,-1,-1,-1,-1,-1,-1,-1,-1,-1],"loss_changes":[2.3030669E2,2.7075302E2,2.8692914E2,2.4004369E2,8.853237E2,1.0297877E2,3.3459906E2,3.2969247E2,6.053795E2,7.0887555E2,2.156886E2,1.4511108E-2,9.54413E1,2.0465086E2,1.6302051E2,0E0,0E0,0E0,0E0,0E0,0E0,0E0,0E0,0E0,0E0,0E0,0E0,0E0,0E0,0E0,0E0],"parents":[2147483647,0,0,1,1,2,2,3,3,4,4,5,5,6,6,7,7,8,8,9,9,10,10,11,11,12,12,13,13,14,14],"right_children":[2,4,6,8,10,12,14,16,18,20,22,24,26,28,30,-1,-1,-1,-1,-1,-1,-1,-1,-1,-1,-1,-1,-1,-1,-1,-1],"split_conditions":[1E0,9.851186E0,1.811412E0,1.5230597E0,1E0,-3.7161725E0,9.6097815E-1,-1.1428676E0,9.492126E-1,1E0,1.585087E0,-2.9375514E-1,7.741572E-2,3.6772467E-2,7.935111E-2,1.4793527E-1,-4.4413783E-2,1.6886828E-2,3.4282744E-1,-4.4710043E-1,2.0560832E0,3.2009432E0,-7.596022E-1,-3.4293437E-1,-1.2057743E0,-3.2609448E-1,-3.900807E-2,-2.511484E0,1.7899536E-2,-2.1009533E0,-7.875119E-1],"split_indices":[70,5,52,3,71,31,3,34,45,75,12,7,12,12,12,0,0,0,0,0,0,0,0,0,0,0,0,0,0,0,0],"split_type":[0,0,0,0,0,0,0,0,0,0,0,0,0,0,0,0,0,0,0,0,0,0,0,0,0,0,0,0,0,0,0],"sum_hessian":[1.2063E4,1.0461E4,1.602E3,1.0391E4,7E1,1.467E3,1.35E2,7.039E3,3.352E3,5.8E1,1.2E1,7E0,1.46E3,7.3E1,6.2E1,9.22E2,6.117E3,2.721E3,6.31E2,4.6E1,1.2E1,1.1E1,1E0,1E0,6E0,1.12E2,1.348E3,2E0,7.1E1,1E1,5.2E1],"tree_param":{"num_deleted":"0","num_feature":"77","num_nodes":"31","size_leaf_vector":"1"}},{"base_weights":[-1.5906064E-4,4.4021297E-2,-3.493631E-1,4.5276263E-1,-1.1588263E-3,9.0322524E-1,-4.1624674E-1,7.800596E-1,-1.2529557E0,1.0227799E-1,-3.4939712E-1,2.170794E0,-5.9776645E0,-1.2145895E0,-3.1852528E-1,7.871728E-1,7.5751245E-2,-1.5330567E0,-2.7163345E-1,2.3950143E-2,7.288976E-1,-8.5385606E-2,-5.225622E-1,-2.9326364E-2,2.649516E0,-2.1973011E0,-5.36971E-1,-3.1485233E-1,-1.9694983E0,-5.950522E-1,-9.108831E-2],"categories":[],"categories_nodes":[],"categories_segments":[],"categories_sizes":[],"default_left":[0,0,0,0,0,0,0,0,0,0,0,0,0,0,0,0,0,0,0,0,0,0,0,0,0,0,0,0,0,0,0],"id":19,"left_children":[1,3,5,7,9,11,13,15,17,19,21,23,25,27,29,-1,-1,-1,-1,-1,-1,-1,-1,-1,-1,-1,-1,-1,-1,-1,-1],"loss_changes":[1.8613828E2,1.9778194E2,1.13894714E2,5.9610004E2,3.4745502E2,6.147943E2,1.0001869E2,8.699336E2,2.25927E2,3.8828632E2,1.9876154E2,8.9239075E2,4.892511E1,1.16765594E2,2.7872986E1,0E0,0E0,0E0,0E0,0E0,0E0,0E0,0E0,0E0,0E0,0E0,0E0,0E0,0E0,0E0,0E0],"parents":[2147483647,0,0,1,1,2,2,3,3,4,4,5,5,6,6,7,7,8,8,9,9,10,10,11,11,12,12,13,13,14,14],"right_children":[2,4,6,8,10,12,14,16,18,20,22,24,26,28,30,-1,-1,-1,-1,-1,-1,-1,-1,-1,-1,-1,-1,-1,-1,-1,-1],"split_conditions":[9.3976724E-1,-9.483312E-1,-1.2242247E0,1.7043763E0,5.6453997E-1,3.367584E-1,5.769292E-4,1.954747E-1,9.289887E-2,1.6327739E0,1.0181175E0,2.225702E-1,1.5183587E-3,1E0,-1.4022602E0,7.871728E-1,7.5751245E-2,-1.5330567E0,-2.7163345E-1,2.3950143E-2,7.288976E-1,-8.5385606E-2,-5.225622E-1,-2.9326364E-2,2.649516E0,-2.1973011E0,-5.36971E-1,-3.1485233E-1,-1.9694983E0,-5.950522E-1,-9.108831E-2],"split_indices":[44,55,19,3,20,12,6,12,12,29,52,12,4,68,53,0,0,0,0,0,0,0,0,0,0,0,0,0,0,0,0],"split_type":[0,0,0,0,0,0,0,0,0,0,0,0,0,0,0,0,0,0,0,0,0,0,0,0,0,0,0,0,0,0,0],"sum_hessian":[1.2063E4,1.0709E4,1.354E3,1.065E3,9.644E3,6.8E1,1.286E3,8.94E2,1.71E2,7.436E3,2.208E3,5.8E1,1E1,1.39E2,1.147E3,1.98E2,6.96E2,1.3E1,1.58E2,7.366E3,7E1,2.111E3,9.7E1,4.4E1,1.4E1,7E0,3E0,1.36E2,3E0,9E0,1.138E3],"tree_param":{"num_deleted":"0","num_feature":"77","num_nodes":"31","size_leaf_vector":"1"}}]},"name":"gbtree"},"learner_model_param":{"base_score":"4.1232696E0","boost_from_average":"1","num_class":"0","num_feature":"77","num_target":"1"},"objective":{"name":"reg:squarederror","reg_loss_param":{"scale_pos_weight":"1"}}},"version":[2,1,4]}